"","c1","c2","c3","c4","c5","c6","c7","c8","c9","c10","c11","c12","c13","c14","c15","c16","c17","c18","c19","c20","c21","c22","c23","c24","c25","c26","c27","c28","c29","c30","c31","c32","c33","c34","c35","c36","c37","c38","c39","c40","c41","c42","c43","c44","c45","c46","c47","c48","c49","c50","c51","c52","c53","c54","c55","c56","c57","c58","c59","c60","c61","c62","c63","c64","c65","c66","c67","c68","c69","c70","c71","c72","c73","c74","c75","c76","c77","c78","c79","c80","c81","c82","c83","c84","c85","c86","c87","c88","c89","c90","c91","c92","c93","c94","c95","c96","c97","c98","c99","c100","c101","c102","c103","c104","c105","c106","c107","c108","c109","c110","c111","c112","c113","c114","c115","c116","c117","c118","c119","c120","c121","c122","c123","c124","c125","c126","c127","c128","c129","c130","c131","c132","c133","c134","c135","c136","c137","c138","c139","c140","c141","c142","c143","c144","c145","c146","c147","c148","c149","c150","c151","c152","c153","c154","c155","c156","c157","c158","c159","c160","c161","c162","c163","c164","c165","c166","c167","c168","c169","c170","c171","c172","c173","c174","c175","c176","c177"
"t9",-0.0596837710154403,-0.0857272876672687,-0.0254313934068624,0.00012084114585532,-0.000866539655283116,-0.00142680370606274,0.0278542273118966,-0.0075368458274213,-0.00899082181205788,-0.0018445307209478,0.119439546610898,-0.026276908232956,0.000320630357050683,4.32641575764706e-05,0.000175649989761526,0.000177665804232335,-0.0123531008776121,-0.00054698482162841,-0.00633174155571541,-0.00481685890673308,-0.00939720580882932,0.003498713926738,0.000626871790651515,3.94577378336174e-05,0.0143291721599001,0.0335749193394767,0.000597359650469557,0.0529031399537927,-0.00426361764861861,-0.00772980651153705,-0.00447917322571498,-1.32965117341323e-05,-0.0163274421779081,-0.0192012186316611,-0.00410096191703346,-0.0127538379047831,0.0406805553200012,-0.00391335122475393,-0.0019323847589383,0.0126033889370907,-0.035622599314247,-0.0108280765288059,0.0191343299584653,-0.0116339026550543,-0.000311212075161518,0.0486795721922331,-0.00303152444218001,-0.14943271674802,-4.86384156217886e-07,-0.000107699852415576,-0.000345704317311753,0.00212002467929251,-0.000112857202957968,-0.000559456123714754,0.00664843037362095,-0.000212966309235977,-0.00093509779401559,-6.309164732864e-05,0.000546716254153856,0.00654020739116999,-0.0435011889988634,-1.81836803492808e-16,-0.00488291812350819,-0.000284015390514912,-0.000501682269307037,-1.97260507036897e-05,-0.000581257877805013,-0.00323261607940041,0.00506354750404854,0.00365752142551809,0.000213799317283064,0.000657194076610179,-0.0271569990127783,-0.00102687736274594,-0.00297961981241487,0.0192285824434927,-0.0407081499414012,0.00250337905937696,0.0460257472110484,0.00115301729813913,-0.000165779372154425,-0.262069680966874,-0.0325622885420053,-3.63731757025309e-05,4.77000389607306e-16,-0.00279985024320688,0.0102073063535219,0.135773185269353,0.0516280411136796,0.761021342345911,0.00507496626533161,0.0256876050379454,0.484980966360627,-0.0261575481643681,-0.0111904874592304,0.0379624929388185,-9.75421740609356e-15,9.15701987590651e-07,0.000226546775584821,0.0566134451719839,-8.06173381840866e-16,0.0349323019987315,1.80754464821014e-15,-0.00135649943812911,0.0571656307049099,-0.000302190955260019,-0.000317300655345999,-0.0017919765030249,0.00640058526072687,-0.000230923310587714,0.00373404796806279,-9.0748379317718e-17,0.0303111254033005,0.011089047198249,0.000652704563728138,0.0835174386699422,0.000944620073449163,-2.6102024892677e-15,-0.00212862479598354,-0.00163344948705378,-3.74144658250213e-05,1.30904229456734e-15,0.00015746004636844,0.000209653815441553,1.28821533384937e-05,-0.00398563928544197,0.00219266513216094,0.0413022251562819,0.0172050554098237,-2.49129970107976e-07,1.36511328959265e-05,-2.54339490370072e-05,-0.000421488416194279,-1.18328858713449e-05,-1.11022809285482e-06,-0.00456718839839338,-0.00526674806092448,-6.30783032716132e-05,-3.30325336329303e-05,8.47195132424876e-16,5.90581501285028e-17,-2.31358210780762e-06,1.2645034434681e-05,2.28849135084175e-17,4.672775813863e-05,1.85318252192745e-05,-0.00976728029872775,9.93175823246449e-16,1.43777861512283e-05,3.98594968090937e-06,-8.28636700150392e-07,-1.04656453417416e-16,-0.00129062118460673,5.26199538360743e-16,-1.70207468964034e-16,4.02877281387421e-15,5.3049540922145e-16,-1.0070097604877e-05,2.91423037385538e-16,7.40958848008953e-16,-1.35721280308881e-15,-6.60182904616772e-05,2.10540985537847e-16,5.48600042732809e-16,-3.96191920077819e-16,5.02571033297912e-05,6.74406117615697e-05,-1.56105410495158e-05,1.15144038026149e-15,1.71674280735281e-15,-5.34952173011739e-16,3.43854752382453e-06,5.81595877366006e-17,3.22929114482051e-15,-2.08202151239612e-15,6.02037043083465e-15,-3.1322766185356e-14
"t74",-0.0768568618491747,-0.140939394261794,-0.0449801314970742,-0.0181743999100584,0.0233496378961431,0.00790276672605252,-0.124359789657808,0.00144295625110897,0.00208922268168586,0.000464493424759976,-0.0312164360461513,0.00696273074717511,4.92600841827983e-05,5.5247094276346e-06,1.18699856096487e-05,2.9215320045997e-06,0.000126227049219587,6.61412285451736e-06,5.27830109466707e-05,1.43439316087398e-05,-0.000369554630331905,0.000153348588364187,4.28087783358743e-05,1.20000230381171e-05,0.06925474628755,0.00644045785215322,0.000286116898225551,0.0596067759114165,0.00491445389105172,0.00592578560239417,0.00135014980603591,1.63314440221286e-06,0.000834744499367332,-0.000617158739149258,-0.000172583551247276,-0.00179709043051117,0.00609316896148275,-0.00284412205846833,-0.00152531296284295,0.0238101269265821,-0.248830517697426,-0.102552815974299,0.405925841762049,-0.146745343798631,0.00106906161972899,-0.118646546582281,0.000865189952281704,0.0569018387122642,3.86441162861096e-06,-5.01876148939318e-05,-0.00013438314325291,0.000286318091105848,5.85091370624562e-06,4.42429215081046e-05,-0.000524557222190065,1.67948081855895e-05,7.51349758061796e-05,5.2716968544429e-06,-6.86542672980432e-05,-0.0672525576726168,0.00831420184379773,9.64920024789881e-16,0.000152739335929706,9.46924754032851e-06,1.65488738214277e-05,6.2484738627109e-07,1.73764143538963e-05,7.8569778118326e-05,-0.000121367293802674,-7.438582704864e-05,-3.70177645075001e-06,-1.09055559454416e-05,0.000529719476646475,1.6157507806994e-05,4.98279193303675e-05,-0.00957263172259999,0.000234799789720222,-1.01742627228013e-05,-0.000283853961895183,8.90053373594064e-07,-3.77684523924929e-07,-0.0010532258653821,-0.0016367248794422,-1.08367403334314e-07,2.77638715889467e-16,-3.41677574417468e-05,0.000135668197494717,0.00202281614201424,0.00088027729926152,0.0138224866655674,0.000102179800702858,0.000701326487220618,0.0170817645014355,-0.000937166722793664,-0.000400953066883607,0.00138062591197975,-1.04060400282699e-13,5.42591817458571e-08,1.5857521054854e-05,0.00567249484807926,-4.50747741739186e-15,0.0060161920614843,4.44221840719156e-15,-0.000423262490514202,-0.811208674182418,0.00041836385272795,0.000154980304487801,0.000502834409934244,-0.000929339971752568,3.08158269739764e-05,-0.000469445956587228,-1.28015727407543e-14,-0.00304229535278041,-0.00109064013678202,-6.40411837086707e-05,0.0165004217358745,0.0137483527044737,-2.2992827193783e-15,-0.0154255734382412,6.18643816837168e-05,1.24327524497097e-06,9.46722467153041e-18,-4.77710019778526e-06,-6.25827075060306e-06,-3.14180240905096e-07,7.74452449316701e-05,-4.2415668892615e-05,-0.00076085985976265,-0.000295834470019811,4.11964523068847e-09,-2.18824433527101e-07,3.84205213907646e-07,-0.0018810300389489,1.68281828632067e-07,1.56373153797519e-08,-0.000834030568519914,6.75884662401563e-05,8.16954286786045e-07,4.22491015038603e-07,-5.86267469854585e-14,-2.46169394355887e-15,2.05176227046424e-08,-1.03551566187794e-07,5.10716981614573e-15,-3.30640753184235e-07,-1.18516357204564e-07,-0.000251982442990876,-4.96604967523177e-15,-5.42059078122358e-08,-1.14966503929704e-08,1.78914006143125e-09,3.38956804779754e-14,1.69448356133171e-06,-3.73371926566951e-15,-2.95719977781507e-15,-9.26199275935258e-15,1.67202349046739e-15,-2.41645460296797e-09,1.78813816750168e-15,1.88634625791219e-15,6.67792829790256e-16,-1.35549903569288e-05,1.26754207604345e-16,-2.10029366944229e-15,-5.73814905910379e-16,1.70846618307398e-07,2.89512943310358e-07,-7.22369445244007e-08,2.37992258152578e-15,-1.73163670692249e-14,-2.2399149212402e-16,2.30703199984521e-08,-2.44802212402304e-15,3.51966368584347e-15,-1.97053882854942e-15,5.70356150763834e-15,-3.30552357160044e-14
"t75",-0.0770977703175095,-0.141714672421694,-0.0452547281640489,-0.0184343008537592,0.0236940334951304,0.00803629867344534,-0.128815988075433,0.00150505133088191,0.0021834545848297,0.000486568641703415,-0.0329913938896097,0.00737626335568497,5.31027470696663e-05,5.95850465455996e-06,1.28241888734375e-05,3.16722724096681e-06,0.000137696319194334,7.27316673216445e-06,5.82737306520503e-05,1.58983799151266e-05,-0.000417063199313289,0.000173278982947518,4.86322202109269e-05,1.38002498460363e-05,0.0799217170136268,0.00768855388488984,0.00034431494160822,0.0720091382126737,0.00597443083328589,0.00721575620449591,0.00165679373994902,2.03739897014138e-06,0.00106287561933646,-0.000815921191194366,-0.000229114926729519,-0.00245613270114474,0.00834217392989017,-0.00403407246305554,-0.00216593922298133,0.0340958382101507,-0.358112383171232,-0.147666779684174,0.584955007933249,-0.212355955808489,0.00155072842416431,-0.174246014124687,0.00128023580992908,0.0864471843532905,6.05457658517407e-06,-7.90784672527829e-05,-0.000211892662352165,0.000453692486580165,9.48473365437331e-06,7.7932108747442e-05,-0.000932282442531191,2.99882923539497e-05,0.00013789323488608,9.81367617832463e-06,-0.000131777285717077,-0.130584767892912,0.016490600940572,3.31027006154927e-16,0.000324018191629371,2.08634719122552e-05,3.8141089519855e-05,1.51035295635177e-06,4.43283117684972e-05,0.000239846064879521,-0.000375098811426155,-0.000267793118365107,-1.58179655502993e-05,-4.91957304250429e-05,0.0026810905283822,9.30556241608857e-05,0.000296104386014932,-0.0624900450796256,0.00184913686714416,-0.00015300921351174,-0.00579892348774185,-7.30096983021861e-05,1.10544259490016e-05,0.0192671957580194,0.0195700638481224,1.07296284986281e-06,-2.09496934216498e-16,0.000158754004598605,-0.000586636343549334,-0.00794500707482997,-0.00308934225465441,-0.0460545172979439,-0.000313362231894108,-0.00172751516777715,-0.0309788524274294,0.00168559735499888,0.000721137945676732,-0.00246473527834913,7.89014752591782e-14,-7.41061983600697e-08,-1.99431007293854e-05,-0.0061387508082707,2.64755294154861e-15,-0.00553918245234065,-3.1562441890393e-15,0.000349434948543479,0.578044317830503,-0.000289092608783762,-0.000100443021261151,-0.000301926046708766,0.000464637127871177,-1.48451703924287e-05,0.000219571483333189,8.51249179782605e-15,0.00120605333883181,0.000416996946904933,2.35911071801609e-05,-0.00517876769778319,-0.00402252713645463,-9.3624286068664e-17,0.0035987283034982,-1.36138402652799e-05,-1.84180445579759e-07,-3.46040599348903e-16,5.47619559254228e-07,6.81946709860485e-07,1.37155096328274e-08,1.54281038596861e-06,-8.93891417878118e-07,-2.54374755356227e-05,-1.48316543401132e-05,2.44042437911579e-10,-1.45142266469762e-08,3.09101520320826e-08,-0.000154966354780182,1.55580997411687e-08,1.49767370080302e-09,-8.30616254099911e-05,6.8045596825566e-06,8.80297521389593e-08,4.66410803661821e-08,3.83406221210689e-14,-4.09253490151203e-16,3.45117117685313e-09,-1.84537905813494e-08,2.7780326711337e-17,-6.43602989287618e-08,-2.42667323578316e-08,-5.62284730275531e-05,3.0555955023509e-15,-1.31772447332241e-08,-2.9448444089051e-09,4.77287460688958e-10,-2.23716083320904e-14,4.72918049489949e-07,5.31118788959128e-15,1.86975333967693e-15,7.55483096360704e-15,2.24543433684709e-16,-7.28553547406873e-10,-1.31646334330472e-16,-9.04703692432302e-17,-2.02634050672266e-15,-4.37310302558071e-06,2.64645865477814e-16,2.55460427753444e-15,2.32488476685734e-15,5.91184971716077e-08,1.03736147886588e-07,-2.62127429922971e-08,-1.4133802016928e-15,1.35790265131344e-14,1.30082671036619e-15,9.01387678222432e-09,3.14379560959428e-16,3.87026985639788e-15,-2.44971507768568e-15,6.38586312822735e-15,-3.11825148219534e-14
"t81",-0.0785507331744233,-0.14651710713385,-0.0469674857859503,-0.0202207463016745,0.0260743699233759,0.00898421618658994,-0.169924504801457,0.00214790291950903,0.00319397257122578,0.000733570857291982,-0.0567453553177005,0.0132146787315265,0.000141888611735675,1.61535117187934e-05,3.67429967761973e-05,1.02524834332989e-05,0.000589850021065839,5.54540238249576e-05,0.000742673338499342,0.000627906718008806,0.00185095047112507,-0.000715103608009349,-0.000155712224062003,-3.20709725146003e-05,-0.181865485588231,-0.00151856822833021,-8.5429171087456e-05,-0.0181828449210399,-0.00148099949512022,-0.00176973213445691,-0.000379372200238301,-3.8225103203333e-07,-0.000149946981740916,6.47912739269313e-05,1.70088870005899e-05,0.000110646777922867,-0.000364144338760357,9.21853761517467e-05,4.87109419149466e-05,-0.000731870666411935,0.00913961187093587,0.00393960393292583,-0.0170727423751684,-0.0343723255732959,2.01042040941426e-05,0.000362556295935006,-1.93300163993902e-06,0.000153220818739641,2.04823458998567e-08,-2.66312366008006e-07,-7.11783763756451e-07,1.47918520979821e-06,1.837427345332e-08,-1.05319515012028e-06,1.50291860900953e-05,-5.26537806189815e-07,-3.77173706201522e-06,-3.30552227538842e-07,7.53322834064142e-06,0.0121979031281699,-0.000362342558599259,1.55787839889801e-16,-2.48288822833804e-05,-2.05778052857833e-06,-4.82581686919094e-06,-2.40068999575717e-07,-8.86422691990816e-06,-9.11752124549584e-05,0.00014843499307601,0.000171158526006433,1.7457100322303e-05,6.54331814522897e-05,-0.00557029868220418,-0.000378523163460469,-0.0015027700407704,0.944246927175697,0.0131661964992916,-0.000283114174848019,-0.0090451491054919,-7.65845023598096e-05,1.04883693084243e-05,0.0168486451958606,0.0154809821110394,8.04597926799881e-07,2.07199072073768e-15,9.0529242233791e-05,-0.000324233720283187,-0.00420477573181828,-0.00155021963138453,-0.0225276797008867,-0.000146965745538457,-0.000718205284709721,-0.0105478802325483,0.000570434240633977,0.000244040044113316,-0.000829500959591984,-6.12710111375967e-15,-1.98257904291541e-08,-4.89015608401476e-06,-0.0012440603570027,-2.53447923179171e-15,-0.000849589373288159,-1.03508434008108e-16,4.10527897618798e-05,0.0374682922930058,-1.53556912446214e-05,-2.79415268958457e-06,1.2159469143521e-06,-4.14866125699577e-05,1.60858196806276e-06,-2.72279277392317e-05,-5.7144231898005e-16,-0.000266427926183347,-0.000101983975251045,-6.37009730005653e-06,0.00205946249313053,0.00300263628433899,-3.93765887336511e-15,-0.0374582501742918,5.12259480496969e-06,2.02931700664305e-07,1.39067556484023e-15,-8.4826203768768e-07,-1.12541774006158e-06,-6.41475016091279e-08,1.75308741185215e-05,-9.61834129775815e-06,-0.00017580487995612,-7.01235634633837e-05,9.90992240323824e-10,-5.33276447166347e-08,1.03038059105579e-07,-0.00815264817673596,4.12330546724048e-08,3.86513864070963e-09,-0.000207777269970661,1.68716408156812e-05,2.06322826318924e-07,1.071248676949e-07,3.99370437912007e-15,1.11092676576487e-15,5.59661200720316e-09,-2.85726231405418e-08,-1.6312224997533e-15,-9.29337181815845e-08,-3.36836367940075e-08,-7.30480635767116e-05,-4.11736771834342e-16,-1.60460607859154e-08,-3.4491335529813e-09,5.42562147245408e-10,-1.85688313775319e-15,5.20218146711471e-07,1.03686770078917e-15,-1.69895925379127e-16,-4.43690909182728e-15,1.60371691370331e-15,-7.58331512832494e-10,5.72132529666032e-16,1.30978326782355e-15,-9.65951324473621e-16,-4.34085031228963e-06,2.35517962293368e-16,3.9680333517273e-16,7.48209184347793e-16,5.59293934864586e-08,9.5861577008622e-08,-2.40192786537146e-08,8.44553191496523e-16,4.98991451072303e-15,2.29401936341558e-16,7.86824614962813e-09,-2.47489518684225e-15,3.06809845689226e-15,-2.17845801946942e-15,6.64826580754092e-15,-3.08996701469076e-14
"t125",-0.0790573281647109,-0.148183499459589,-0.0475610654855857,-0.0208297074081572,0.02688504525958,0.00930566557568017,-0.183356016408297,0.00235507993430456,0.0035183737990654,0.000812506610588201,-0.0642079155865701,0.0150405968873814,0.000168798687129904,1.92410327956636e-05,4.39657375676817e-05,1.23800686349431e-05,0.000724330980372598,6.96288734357206e-05,0.000943097515836891,0.000806434553083032,0.0025098429356498,-0.000973458351467085,-0.000215593995958115,-4.62261727814403e-05,-0.265251578352833,-0.00251057310138704,-0.000145939542940033,-0.0315715132402257,-0.0026422693651002,-0.0031803968286272,-0.000705980503829005,-7.70476122525118e-07,-0.000337582554294197,0.000187137651946404,5.07412163982344e-05,0.000430610389804853,-0.001443762994247,0.000597509167006337,0.000322377736950802,-0.00574632526843433,0.0807787784486969,0.0352676063322552,-0.155951829889153,-0.352553124701616,0.00022166807922016,0.00658046139015284,-5.81229845223741e-05,-0.00346528346004277,-1.49694331109003e-07,1.72801701321977e-06,4.55415874341743e-06,-8.62973988012116e-06,-7.59468600168811e-08,2.06596136790275e-06,-2.78520806588035e-05,9.48343376231466e-07,5.81738678573102e-06,4.74006906030654e-07,-9.36471784863496e-06,-0.0144287535493904,0.000393114756512943,-3.32756556274447e-16,2.12113274735875e-05,1.56403753762518e-06,3.23267904930939e-06,1.42418973739469e-07,4.63901760484799e-06,3.36227486751898e-05,-5.35922607730575e-05,-4.86938964222125e-05,-3.95596883089437e-06,-1.3895226193592e-05,0.00104011663218624,6.19941856735247e-05,0.000238871621296289,-0.137771860211257,-0.0016459693438426,2.37562518569663e-05,0.000665093605103144,3.19135291416105e-06,-3.31667347511193e-07,-0.000384511180586994,-0.000173941416834959,-3.80448887886407e-09,1.22100704386917e-15,2.84295901431186e-06,-1.15759374127513e-05,-0.000175225287747695,-7.59113020294838e-05,-0.00118129773113581,-8.53852059833979e-06,-5.29207454167246e-05,-0.00101653261181951,5.53273850300378e-05,2.36703690362687e-05,-8.09173664937414e-05,-1.07488553957167e-14,-2.32637802397009e-09,-6.0278976374971e-07,-0.000166336165721018,-2.20255569448082e-15,-0.000122562636435538,5.40022685604001e-15,6.1948271823917e-06,0.00596224840454586,-2.46812462504798e-06,-4.58064029389593e-07,2.03679621390358e-07,-7.25594470245153e-06,2.83411986096033e-07,-4.82370898968157e-06,-1.05470701278032e-14,-4.84224760972027e-05,-1.86174550586438e-05,-1.16768283602551e-06,0.00038241903183716,0.000559370358180772,1.76225860983361e-15,-0.00698451408103805,9.53199352427513e-07,3.63864786893269e-08,-4.56996314271579e-17,-1.45580914274088e-07,-1.91164937567522e-07,-8.43561698337499e-09,-1.48421300079186e-07,1.34064675265302e-07,1.5728905891417e-05,2.00873535991554e-05,-5.10409147508112e-10,4.65009530081094e-08,-8.9975374987225e-07,0.823126136256976,9.30788051426108e-08,6.83992301312166e-09,-0.000300184611304783,2.32392731607215e-05,2.23124497688364e-07,1.08173809655883e-07,-3.95589887020092e-14,2.30597405633364e-14,3.13580243324537e-09,-1.54230200971894e-08,-2.12547982900822e-14,-4.78827506716746e-08,-1.69814752224307e-08,-3.57427687473046e-05,5.76207896974759e-15,-7.68143542803332e-09,-1.63496298202638e-09,2.55645861849521e-10,-1.21330049911349e-15,2.43903959877469e-07,5.18051194649202e-16,6.95632971792677e-16,1.79437479930619e-14,-4.05046945253929e-15,-3.53937176603101e-10,-1.91792342274815e-15,-2.74019557302927e-15,-8.88826885073234e-16,-2.02576296069057e-06,-1.29310658970994e-15,9.56794690899939e-16,-9.54128076371082e-15,2.61978377520767e-08,4.50498486094834e-08,-1.13038689157767e-08,1.41643749251661e-16,3.96804679619004e-15,-5.21260265823059e-15,3.74335130762573e-09,1.68975890942603e-14,2.18407124086934e-15,-7.4463123725275e-16,6.78938258399929e-15,-3.21603835818286e-14
"t132",-0.0790835690261249,-0.148269608661643,-0.0475917193404597,-0.0208608964831194,0.026926546781638,0.00932208638693277,-0.184029403155057,0.00236539407447593,0.00353449146423583,0.000816419309964161,-0.064574519785506,0.0151300801622951,0.000170094546516822,1.93896420569365e-05,4.43127800053563e-05,1.24819447906814e-05,0.000730730345758102,7.0297999947204e-05,0.000952521018896701,0.000814795656086092,0.00254015106353395,-0.000985327540707379,-0.000218330451213665,-4.68652289356016e-05,-0.269003217404671,-0.00255373825124827,-0.000148551880394835,-0.0321473381670893,-0.00269190733127109,-0.00324059808064823,-0.000719814087117306,-7.86657221566898e-07,-0.000345249513244938,0.000191958885141924,5.2065201135619e-05,0.000442824460072128,-0.00148490746362429,0.000616131436801715,0.000332452157007843,-0.0059294609185778,0.0833828209812699,0.0364058189890302,-0.160993874972049,-0.364059169218967,0.000228940733438105,0.00680221753156804,-6.01128559562982e-05,-0.00359031182430186,-1.55408743078593e-07,1.79463550184375e-06,4.72994639613201e-06,-8.96566423143515e-06,-7.90162482571313e-08,2.1600875808373e-06,-2.91357465293882e-05,9.92310389204634e-07,6.09631304359162e-06,4.97115350669628e-07,-9.83709228265586e-06,-0.0151655680162456,0.0004136337697693,-4.85651761965053e-16,2.23909811050433e-05,1.65387534921608e-06,3.42508684685722e-06,1.5119458214281e-07,4.935336516024e-06,3.59951506092027e-05,-5.73960481090588e-05,-5.23808918336238e-05,-4.27339920135674e-06,-1.5027909727841e-05,0.00112749005082865,6.73549808179468e-05,0.000259659286594163,-0.14997559503512,-0.00179620930657467,2.60723585602982e-05,0.000731134429026708,3.52823975812219e-06,-3.67424890916008e-07,-0.000426771942477408,-0.000193573802101782,-4.24063396503926e-09,-8.93019732419992e-16,3.20195207749932e-06,-1.30565494758884e-05,-0.000198052583175883,-8.60341879551057e-05,-0.00134064469676663,-9.7127295215425e-06,-6.06257994428408e-05,-0.00117942013517913,6.42184226777656e-05,2.74742030912617e-05,-9.39545322613308e-05,5.35936475127613e-15,-2.74124817773378e-09,-7.14070260321629e-07,-0.000199173121726532,1.81740362151439e-15,-0.000148720934883318,-3.16134828286973e-15,7.5932046789722e-06,0.00742009455843871,-3.08213631883156e-06,-5.76281787059685e-07,2.58658604595499e-07,-9.447637315977e-06,3.7106167723221e-07,-6.34403869001704e-06,5.09694499362214e-15,-6.54405847639802e-05,-2.53224556224958e-05,-1.59901693038236e-06,0.000540333032312615,0.000802176943349214,4.57759932592916e-16,-0.0105595675446985,1.46269441728825e-06,6.26095064765878e-08,-1.52436194264221e-15,-2.73159174742061e-07,-3.65275184866865e-07,-2.33201868969507e-08,7.9378160459595e-06,-4.38446109473148e-06,-8.73329330767086e-05,-4.19359162261747e-05,7.05436103874958e-10,-4.72984862778812e-08,4.83189256237874e-07,-0.401477593708526,-2.53462429949319e-08,-1.46020284312998e-09,4.5570778204212e-05,-3.1443809530643e-06,-8.36927213837058e-09,-5.24193241080212e-10,-4.45654451992436e-14,-1.62466835976679e-14,1.32381439594352e-09,-7.16823330116931e-09,0.707106781186554,-2.51059828995404e-08,-9.43663417022565e-09,-2.16204517352152e-05,-3.96393390632967e-15,-4.98658350035939e-09,-1.10211963393856e-09,1.77024324630562e-10,-5.12300990086549e-14,1.73641997642561e-07,-3.98829700416813e-15,-5.54814696855249e-16,3.31393637620789e-14,-2.89361857204288e-16,-2.62938951692173e-10,1.05044725309514e-14,-3.46284719533031e-15,-3.19507142952521e-17,-1.55579314390026e-06,1.78626029071973e-15,-9.15961143307124e-16,6.10157991066396e-15,2.0748976918832e-08,3.61876985309777e-08,-9.12517686779913e-09,3.99781853263393e-15,-3.56540581045871e-15,2.20860118477998e-15,3.10493747959051e-09,-8.96830227342429e-15,4.02851390975686e-15,-3.53622141304309e-15,6.76901251066854e-15,-3.21748956045397e-14
"t133",-0.079083569026125,-0.148269608661643,-0.0475917193404597,-0.0208608964831195,0.0269265467816381,0.0093220863869331,-0.184029403155058,0.0023653940744759,0.00353449146423608,0.000816419309964532,-0.0645745197855057,0.0151300801622951,0.000170094546517671,1.9389642057281e-05,4.43127800052875e-05,1.24819447899959e-05,0.00073073034575841,7.02979999471342e-05,0.000952521018896437,0.00081479565608615,0.00254015106353433,-0.00098532754070755,-0.000218330451214069,-4.68652289358046e-05,-0.269003217404671,-0.00255373825124851,-0.000148551880395243,-0.0321473381670896,-0.00269190733127161,-0.00324059808064821,-0.000719814087117769,-7.86657221871369e-07,-0.000345249513245306,0.000191958885141195,5.20652011360978e-05,0.000442824460071226,-0.00148490746362469,0.000616131436802734,0.000332452157008225,-0.00592946091857779,0.0833828209812663,0.0364058189890289,-0.160993874972043,-0.364059169218964,0.000228940733439251,0.00680221753156705,-6.0112855956326e-05,-0.00359031182430097,-1.55408742559712e-07,1.79463550205894e-06,4.72994639506548e-06,-8.96566423191913e-06,-7.90162479774072e-08,2.16008758209389e-06,-2.91357465283439e-05,9.92310388848582e-07,6.0963130420488e-06,4.97115349933346e-07,-9.83709228238698e-06,-0.0151655680162454,0.000413633769764762,6.28034292470801e-16,2.2390981104444e-05,1.65387534703596e-06,3.42508684614566e-06,1.5119458396944e-07,4.93533651894939e-06,3.59951506072268e-05,-5.73960481110381e-05,-5.23808918322186e-05,-4.27339920209868e-06,-1.50279097284007e-05,0.00112749005082001,6.73549808213179e-05,0.000259659286593612,-0.149975595035121,-0.00179620930657369,2.60723585615279e-05,0.000731134429026011,3.52823975980818e-06,-3.67424890772629e-07,-0.00042677194247899,-0.000193573802097562,-4.24063419420826e-09,-1.54450148141046e-15,3.20195207625953e-06,-1.30565494735868e-05,-0.000198052583174857,-8.60341879519526e-05,-0.00134064469676766,-9.7127295201274e-06,-6.06257994429228e-05,-0.00117942013518697,6.42184226753847e-05,2.74742030937042e-05,-9.39545322611495e-05,9.31383121122909e-15,-2.74125479301668e-09,-7.14070257946129e-07,-0.000199173121722594,1.94211297589531e-15,-0.000148720934884834,-2.40905856090863e-15,7.59320467704752e-06,0.00742009455843298,-3.08213631189879e-06,-5.762817810496e-07,2.58658607715616e-07,-9.44763731373921e-06,3.71061676604593e-07,-6.34403868875503e-06,7.87609087965721e-15,-6.54405847566146e-05,-2.53224556184366e-05,-1.59901693172601e-06,0.000540333032339427,0.000802176943358959,-2.67214080170121e-15,-0.0105595675446925,1.46269441259755e-06,6.26095223392448e-08,1.13252118986179e-15,-2.73159173779127e-07,-3.65275180404506e-07,-2.33201675419158e-08,7.93781604668808e-06,-4.38446109643064e-06,-8.73329330556769e-05,-4.19359162222056e-05,7.05431609431742e-10,-4.72984742625257e-08,4.83189280070921e-07,-0.401477593708559,-2.53462657448918e-08,-1.4601873547535e-09,4.55707780775624e-05,-3.14438095743406e-06,-8.36927310854179e-09,-5.24225392024987e-10,8.53683325399874e-14,-7.76531991919632e-15,1.32384703557972e-09,-7.16809184814096e-09,-0.707106781186541,-2.51058752386306e-08,-9.43657777525313e-09,-2.16204518081568e-05,-2.21714241212746e-15,-4.98657597299443e-09,-1.10209497123768e-09,1.77044504257523e-10,4.71265907512514e-14,1.73642008074321e-07,4.87710521582816e-15,-5.08922372253474e-16,-4.16920795609959e-14,6.58537820190417e-15,-2.62930605608882e-10,-8.38455469855893e-15,5.97645113499553e-15,1.70085985532246e-16,-1.55579318126124e-06,-3.09615922103588e-17,9.35013935494666e-16,3.16458540642564e-15,2.07489762465182e-08,3.61877092605947e-08,-9.12517107880327e-09,-3.47502175198208e-15,3.10463818677002e-15,2.9406765963963e-15,3.10493268823006e-09,-6.14183000138132e-15,3.59434758466522e-15,-1.99443450273337e-15,4.73608920046277e-15,-3.2089714669052e-14
"t123",-0.0789489129192508,-0.14782684881813,-0.0474340211825309,-0.020699314662751,0.0267114556752406,0.00923682343642185,-0.180473876827491,0.00231057688962363,0.00344866672917638,0.000795537955537053,-0.0626008295380812,0.0146471665727765,0.000162972745214664,1.85724940556333e-05,4.24009269476134e-05,1.19185930784992e-05,0.00069509581643111,6.65373336678344e-05,0.000899307926734847,0.000767357180490792,0.00236419287974892,-0.000916304097594354,-0.000202300808581952,-4.305591288997e-05,-0.24652417402384,-0.00228001891138196,-0.000131729100777955,-0.0284102784398606,-0.00236550958966015,-0.00284333692498104,-0.000626940762475519,-6.73490016164729e-07,-0.000288294837281977,0.000150133969542606,4.03187637278879e-05,0.000309127346542482,-0.00102696686216633,0.000244581778070932,0.000124614544204211,-0.00072700669751866,-0.0156020179370567,-0.00846979376303893,0.0501319897901642,0.375849008270186,-0.000462474862230849,0.0177872045383497,-0.000105667713166722,-0.00427915679310464,-1.62225056066031e-07,1.84566732839165e-06,4.85592356171154e-06,-9.09917469929305e-06,-7.68659162356375e-08,1.92211313939164e-06,-2.57481740693604e-05,8.73898742681192e-07,5.26702626120609e-06,4.2555850114313e-07,-8.26643299950479e-06,-0.0126599370814456,0.000341244305339924,6.63238919572288e-16,1.78428318671573e-05,1.29405809909931e-06,2.62444953879563e-06,1.13399037125741e-07,3.61542328825606e-06,2.44584266165765e-05,-3.88034650758567e-05,-3.32930322548709e-05,-2.53619971924058e-06,-8.7278397061715e-06,0.00062533591772107,3.54632992094166e-05,0.000134991392892017,-0.0750451078311641,-0.000831972918481205,9.17920631867439e-06,0.000225954884533409,2.46287479796232e-07,3.40354768410829e-08,0.000146791029242914,0.000241527111838727,1.55281024660924e-08,-4.52694549432416e-16,3.34321648465361e-06,-1.25201718252382e-05,-0.000171429271046662,-6.67846683793608e-05,-0.000992161037275268,-6.67205453070102e-06,-3.41387687967875e-05,-0.000472349172406128,2.54267505610732e-05,1.08777581960479e-05,-3.68135159027373e-05,5.63185138776034e-15,-6.32022938679797e-10,-1.23742584127712e-07,-1.09789362954388e-05,3.13227504918638e-15,1.47271212258149e-05,-7.08712932706951e-15,-1.70724314481048e-06,-0.00321604708749669,1.49206946249272e-06,3.45555693237367e-07,-1.95981041684556e-07,1.19477610265074e-05,-5.18811044164551e-07,9.60684511164657e-06,-5.71991447534773e-15,0.000156805781673069,6.7475066699285e-05,4.76994575960969e-06,-0.00280755945181478,-0.00565720257909905,5.03973639384654e-14,0.845100179861166,0.000101753867473315,4.13620483441297e-07,4.58176007194768e-16,-1.28779980416188e-06,-1.64276613145881e-06,-6.74408841450638e-08,1.52164777547474e-05,-8.32549231643024e-06,-0.000147913402819881,-5.695766586351e-05,7.90574047507603e-10,-4.19589977125927e-08,7.75040053005541e-08,-0.00458873092024611,3.13429985205572e-08,2.91983132928919e-09,-0.000155956186826901,1.26417939301264e-05,1.52955007149297e-07,7.9116923555321e-08,7.29493162237155e-15,1.82548194477023e-15,3.86886154225323e-09,-1.95750365960895e-08,3.97169795707541e-15,-6.28160776721141e-08,-2.25968801077181e-08,-4.84046375554548e-05,2.26455660859819e-15,-1.05112773177359e-08,-2.24470851190916e-09,3.51416492442484e-10,-6.84249779126197e-15,3.35282514267368e-07,1.20541926461154e-15,6.18693398703535e-16,4.92537962938077e-15,-1.89702367520141e-15,-4.85104610036094e-10,-1.40213403086367e-15,-1.87306016050798e-15,2.60603252124371e-15,-2.76201609696459e-06,-3.97868085430491e-17,1.25441997316755e-16,1.15610356026785e-15,3.54400485848874e-08,6.06550757565477e-08,-1.51914962841066e-08,8.93057359208095e-16,-1.37635843675498e-15,8.1475339969103e-16,4.9705297783429e-09,-1.17340835891956e-15,3.6506394639697e-15,-1.84423478420442e-15,5.85956896608433e-15,-3.24526884715208e-14
"t145",-0.0790614793059362,-0.148196305296539,-0.0475655496112831,-0.0208332216991017,0.0268896437591037,0.00930733715650951,-0.183368684709481,0.00235493008915715,0.00351798196892554,0.000812366283458438,-0.0641780071470037,0.0150321567213242,0.000168548996404246,1.9211978183408e-05,4.3894282402092e-05,1.23569630145197e-05,0.000722629354060143,6.94156369490515e-05,0.000939837729173731,0.000803311236076911,0.00249436369716716,-0.00096727561583659,-0.000214046301085553,-4.57949206548644e-05,-0.262595965826037,-0.00246367334471231,-0.000142818130862671,-0.0308515733095394,-0.00257549933250322,-0.00309785885462862,-0.000685246761998869,-7.41139391500853e-07,-0.00031990726119068,0.000169129765915594,4.54950557807906e-05,0.000352829998255184,-0.00117294847635835,0.000283193674441576,0.000144349875894917,-0.00084485119899831,-0.018165616235852,-0.00986337520419189,0.0583978596382314,0.43851751805041,-0.000540073035430024,0.0208687985212623,-0.000124324801496839,-0.00508419915188285,-1.94925107897145e-07,2.22224998984633e-06,5.84821015708452e-06,-1.09780338564293e-05,-9.34953104024984e-08,2.40618882281298e-06,-3.23299623151341e-05,1.09900173967157e-06,6.68443770372047e-06,5.42607925673137e-07,-1.06449840540692e-05,-0.0163628201995929,0.00044402683160057,2.32851406092891e-16,2.3701626683853e-05,1.73840970298262e-06,3.5717746326858e-06,1.5640292357404e-07,5.05972622058133e-06,3.57953031724821e-05,-5.69528335160716e-05,-5.05228953759257e-05,-3.97828914044933e-06,-1.38221862128408e-05,0.00100932218902043,5.8353484413477e-05,0.000223095567402897,-0.125575565225582,-0.00142314348968374,1.65554471591804e-05,0.000414085830276854,4.78275013213768e-07,6.75494363611901e-08,0.000297452658682871,0.000504436694933483,3.30398884940947e-08,9.28551845328835e-16,8.1238160519413e-06,-3.10466299915753e-05,-0.000438187868015873,-0.000177846122151553,-0.00269875662789376,-1.88397857226467e-05,-0.000109288667162961,-0.00200629140708139,0.000109132571095937,4.66894135698928e-05,-0.000159527044274223,1.29445194345725e-15,-4.57566276274684e-09,-1.19206273428083e-06,-0.000334775723139456,-7.25016347178128e-16,-0.000254397309492991,3.95515399612195e-15,1.32321693732947e-05,0.0133945006851023,-5.61440603122868e-06,-1.0720999118481e-06,4.95537187520921e-07,-1.98888605020902e-05,8.00366687011342e-07,-1.39724221447755e-05,2.37698166755458e-15,-0.000167319053989775,-6.75288776869623e-05,-4.47397888941485e-06,0.00201171537671362,0.00361590422266401,-2.40763412917862e-14,-0.376676815563676,-4.13584765591508e-05,-8.85293815277302e-08,-4.68921340925477e-16,1.7366732576279e-07,2.00486092392451e-07,-1.00311424951287e-09,2.00231915379755e-06,-1.11206986700171e-06,-2.28634783261711e-05,-1.03766848628547e-05,1.55637907230733e-10,-8.73322809756036e-09,1.78375421596262e-08,-0.0010697090941628,7.78601049169005e-09,7.39883808252223e-10,-4.04066698153558e-05,3.2957401200559e-06,4.14712699504478e-08,2.17567091093182e-08,5.33044097959015e-15,-6.33348514783221e-15,1.37407651658576e-09,-7.20849725235909e-09,-3.83820579485938e-14,-2.44538070883868e-08,-9.08251475537227e-09,-2.0544290589832e-05,-6.99223713574222e-15,-4.70993525130035e-09,-1.03964143509593e-09,1.66968966880162e-10,9.1974882148622e-15,1.63930011648508e-07,4.17788522253464e-14,3.54870275444618e-12,0.70710678118655,6.31896608666399e-14,-2.48984801762781e-10,3.92203856189954e-14,-2.8028709180542e-14,-2.7041722527626e-14,-1.47874891782247e-06,1.23335698876458e-14,1.48652280328186e-14,-1.17171976722889e-14,1.98162991383765e-08,3.46516086552931e-08,-8.74637321742975e-09,-1.18481627965258e-16,-6.29856015838771e-15,-3.33666184209533e-15,2.9937673460775e-09,2.59190157525242e-15,5.10328434641085e-15,-2.69494391121888e-15,9.35261936505615e-15,-3.51161965119081e-14
"t146",-0.0790614793059362,-0.148196305296539,-0.047565549611283,-0.0208332216991019,0.0268896437591039,0.00930733715650926,-0.183368684709482,0.00235493008915724,0.00351798196892523,0.000812366283458541,-0.0641780071470034,0.0150321567213247,0.000168548996404472,1.92119781834791e-05,4.38942824018241e-05,1.23569630144689e-05,0.000722629354059971,6.94156369489549e-05,0.000939837729173275,0.000803311236076161,0.00249436369716684,-0.000967275615836454,-0.000214046301085491,-4.57949206546079e-05,-0.262595965826038,-0.00246367334471159,-0.000142818130863266,-0.0308515733095414,-0.0025754993325038,-0.00309785885462891,-0.000685246761998565,-7.4113939201988e-07,-0.000319907261191899,0.000169129765916099,4.54950557800857e-05,0.000352829998255257,-0.00117294847635867,0.000283193674441298,0.000144349875894763,-0.00084485119899707,-0.0181656162358511,-0.00986337520419206,0.058397859638229,0.438517518050412,-0.000540073035429906,0.0208687985212608,-0.000124324801496365,-0.005084199151885,-1.94925108224297e-07,2.22224998780824e-06,5.84821015674725e-06,-1.09780338568513e-05,-9.34953112625511e-08,2.4061888242169e-06,-3.23299623130511e-05,1.09900173926639e-06,6.68443770475182e-06,5.42607925865902e-07,-1.06449840530426e-05,-0.0163628201995922,0.000444026831597722,4.36798020846757e-16,2.37016266834003e-05,1.73840970336302e-06,3.57177463337441e-06,1.56402924366237e-07,5.05972622065731e-06,3.57953031702579e-05,-5.69528335164284e-05,-5.05228953780181e-05,-3.97828913990802e-06,-1.38221862123656e-05,0.00100932218902127,5.83534844140417e-05,0.000223095567403052,-0.125575565225592,-0.00142314348968327,1.65554471587772e-05,0.000414085830277436,4.78275012712948e-07,6.75494344205802e-08,0.000297452658687058,0.000504436694928729,3.3039886844258e-08,-1.2276590513796e-15,8.12381605253308e-06,-3.1046630004154e-05,-0.000438187868018058,-0.000177846122148579,-0.00269875662789368,-1.88397857149855e-05,-0.000109288667165269,-0.00200629140707565,0.000109132571093356,4.66894135725467e-05,-0.000159527044274579,-3.05364457725348e-16,-4.57565726899884e-09,-1.19206273512596e-06,-0.000334775723139364,-8.47974702058668e-16,-0.00025439730949338,3.85992859549453e-15,1.32321693705113e-05,0.0133945006851196,-5.6144060371911e-06,-1.07209991472508e-06,4.95537181350435e-07,-1.98888605012452e-05,8.00366688511619e-07,-1.39724221480997e-05,2.86114314147925e-15,-0.000167319053987367,-6.7528877682249e-05,-4.47397889239147e-06,0.0020117153767123,0.00361590422265959,-2.0245288059228e-14,-0.376676815563672,-4.13584765589021e-05,-8.85293800177595e-08,-5.7868173527164e-16,1.73667324193164e-07,2.00486090968043e-07,-1.00310622116137e-09,2.00231915643926e-06,-1.11206985714923e-06,-2.28634783209706e-05,-1.0376684862193e-05,1.5563882539803e-10,-8.7332226346129e-09,1.78375517162242e-08,-0.00106970909413694,7.78600894068114e-09,7.39854057076268e-10,-4.04066698298465e-05,3.29574012669328e-06,4.14712748225386e-08,2.17567071417117e-08,-1.13806909472746e-14,2.51043371009068e-15,1.3740884177751e-09,-7.20850059845856e-09,3.64853546680477e-14,-2.44538041351319e-08,-9.08250718642286e-09,-2.05442906222018e-05,4.10082836166602e-15,-4.71000604328806e-09,-1.03970077525054e-09,1.67030263630237e-10,-2.25131673047843e-15,1.63930044931156e-07,-4.12215937062979e-14,-3.54942451953021e-12,-0.707106781186546,-5.91505380192781e-14,-2.48953070423199e-10,-3.62031192299412e-14,3.14418498795014e-14,2.31172727651126e-14,-1.47874888067801e-06,-1.18030528807041e-14,-1.37785959325726e-14,1.09004577755222e-14,1.98162793629321e-08,3.46515853860174e-08,-8.74637190845214e-09,-4.35838386903972e-16,9.11387220904304e-15,3.63177788942418e-15,2.99376435122194e-09,-3.2793629174261e-15,2.04046255915659e-15,-1.51823547119468e-15,2.8102348377811e-15,-2.81058814648886e-14
"t120",-0.0784469833503687,-0.146149260545808,-0.0468339986359962,-0.0200477615452882,0.025841317925021,0.00888647630657704,-0.163589965897929,0.00203449593226562,0.00300884937190148,0.00068630536285447,-0.0513920570454844,0.011840447949818,0.00011325470693355,1.28369698267401e-05,2.87113406309968e-05,7.71792591296892e-06,0.000408016361359716,3.27842004202974e-05,0.000393349068001145,0.000288402927307688,-0.000100768023714753,7.68912209205665e-05,5.85473288280825e-05,4.49265176311254e-05,0.342091574636999,-0.0281986451762034,-0.000899021244361386,-0.164837524514726,-0.0113640282396585,-0.0131355558854719,-0.00250246476621725,-2.22167739333419e-06,-0.000839432403713908,0.000400031828561591,0.000107143214614093,0.000838163511315121,-0.00279547345143537,0.00093754308491925,0.000497497506921698,-0.00717472180626235,0.0715313457851939,0.0293436143027867,-0.115321634002021,0.0388501956757199,-0.000283080583086368,0.0278157156114214,-0.000187440714579477,-0.00906285831214539,-3.81180639045465e-07,4.41086652744704e-06,1.16295803761447e-05,-2.21142960805707e-05,-2.00321879549463e-07,7.23435607213564e-06,-0.000102928294680888,3.61446327574256e-06,2.80225823693241e-05,2.71530873306405e-06,-0.000102921847391075,-0.265249025368162,-0.0182116005704699,-4.04159434795032e-16,-5.88716334825197e-05,-2.40550172215035e-06,-2.79898093601536e-06,-7.01321654411606e-08,-1.15661534534224e-06,2.43383454720168e-06,-4.40070643209498e-06,-7.1169621306173e-06,-5.86242091587895e-07,-1.95152455152114e-06,0.000120054692062285,4.79472439783601e-06,1.59861684715588e-05,-0.00462076879450463,6.60842413257309e-05,-7.53493435513208e-06,-0.000293086216555584,-3.87990869011534e-06,5.92519945106206e-07,0.00103774009428428,0.00105664478478604,5.7893034498595e-08,1.70303329200683e-16,8.26215233463244e-06,-3.0264544914502e-05,-0.000404123732517395,-0.000153908379640241,-0.00226843278450409,-1.5115694031524e-05,-7.72723364820815e-05,-0.00115758138862968,6.25717451811846e-05,2.67690526976917e-05,-9.09434110214262e-05,-4.31507045730928e-15,-2.03409291475408e-09,-4.78442116538238e-07,-0.000105305191689892,-2.07868665371172e-15,-5.23136333768294e-05,2.38696809465742e-15,1.58713281360647e-06,-0.000224220818493177,2.75485073364944e-07,1.30424057362119e-07,-1.08417177998784e-07,1.0326451109682e-05,-4.77772573061554e-07,9.28463868597256e-06,-1.63285865556503e-14,0.000200173953977622,9.27514656139785e-05,7.15837766301384e-06,-0.00940204384188916,-0.83432170982996,-2.86526581243921e-15,-0.00790990515256521,1.71927008950126e-05,2.44115935462825e-07,1.37512872218787e-14,-8.75606310225265e-07,-1.13741773834809e-06,-5.40842092137735e-08,1.32761803399003e-05,-7.2727255303388e-06,-0.000130825586673922,-5.11323957881329e-05,7.14529536895212e-10,-3.80691324396666e-08,6.74365419092345e-08,-0.000489255205395014,2.96257649514151e-08,2.75828236028124e-09,-0.000147442353316642,1.19560762139784e-05,1.45124360777658e-07,7.51721541650881e-08,1.40921021286076e-14,-1.68152008448832e-15,3.80055452891405e-09,-1.93330545447856e-08,-7.20907708529062e-15,-6.256834748906e-08,-2.26206805530891e-08,-4.8880130445633e-05,-5.00529423029695e-16,-1.07097673025095e-08,-2.29985914846839e-09,3.61635756678063e-10,-8.47787439259342e-15,3.46726466413934e-07,2.74129682114417e-15,7.33915788778199e-16,4.57999326477393e-15,1.02532647846357e-15,-5.0594983277306e-10,-2.05373719380693e-15,-4.41207499866861e-17,3.68924099707196e-17,-2.90256612934497e-06,-4.76280745175464e-16,2.41857652675006e-15,-3.17483474793387e-15,3.75387546599884e-08,6.45013736357259e-08,-1.61780367069865e-08,1.87954680888546e-15,-2.44737770125667e-16,-2.47912503519745e-15,5.33801300351165e-09,3.46310215304919e-16,2.95972932491103e-15,-2.08653304696695e-15,5.69408490762136e-15,-3.17341053700366e-14
"t127",-0.0785167136811237,-0.146376929267353,-0.0469149391123906,-0.020128539290101,0.0259486817550928,0.00892872036216498,-0.165221416261902,0.00205876318954097,0.00304642143470958,0.000695323155550713,-0.0521957244659441,0.012033581132179,0.000115655989665944,1.31108524816766e-05,2.93378404200634e-05,7.8937472466022e-06,0.000418021531930408,3.36615543186126e-05,0.000404312315039319,0.000296757087614337,-0.000104192970847513,7.95313184742313e-05,6.06445430025657e-05,4.66880245321457e-05,0.355833357863758,-0.0295942774154138,-0.000945491440028911,-0.173532238537944,-0.0119829499248371,-0.0138568570539749,-0.00264514075121355,-2.35830004577027e-06,-0.000895691250686848,0.000430873075103438,0.000115522159487976,0.000910173863767528,-0.00303692632840397,0.00102722312275411,0.000545232292364809,-0.00787885368352843,0.0786446426070642,0.0322654853711825,-0.126828189272212,0.0427689272833348,-0.000311808756552873,0.0307275573196317,-0.000207426327866817,-0.0100903529051953,-4.27373391214895e-07,4.95168645522438e-06,1.30575772619937e-05,-2.4857118577648e-05,-2.26308037293955e-07,8.31996600993793e-06,-0.000118595168794144,4.16865960041656e-06,3.2502356510917e-05,3.15850174724711e-06,-0.000120456517781515,-0.311147255767498,-0.0214518084075297,9.03887859838423e-16,-7.02364289088314e-05,-2.88984622060767e-06,-3.38960540653997e-06,-8.56308261088545e-08,-1.42493335519311e-06,3.08180880994135e-06,-5.58212590333988e-06,-9.2132481012905e-06,-7.74341371913488e-07,-2.59267912239939e-06,0.000161339909304553,6.5189275873029e-06,2.17921164374621e-05,-0.00634623127479903,9.19671174812881e-05,-1.08224727195514e-05,-0.000424964045513488,-5.82098340574827e-06,9.00330319935495e-07,0.00159602555933849,0.00165376310233919,9.15842161773492e-08,-1.13870905372661e-15,1.40894552438009e-05,-5.21937734703177e-05,-0.000708680888576965,-0.000275991922827832,-0.00411468501117582,-2.79724153966328e-05,-0.000152670306962316,-0.00262254305225824,0.000142434163616564,6.09362811545195e-05,-0.000207919598493343,1.02268173700312e-15,-5.70984183711797e-09,-1.4708165903588e-06,-0.000405537253805528,9.39329291696618e-16,-0.000303076428359202,-1.30943615015194e-15,1.56184709078545e-05,0.0156630365947607,-6.55638804908449e-06,-1.24952347698697e-06,5.77306808053435e-07,-2.34817926718284e-05,9.51369819111501e-07,-1.67235673774584e-05,8.24275767153986e-15,-0.000217348626709962,-9.08709774278367e-05,-6.31971410403153e-06,0.00533817755475647,0.389124623530024,6.31480480651463e-16,0.00182115851468601,-3.18224013301606e-06,5.84529690510065e-09,-6.30666025872366e-15,-9.14992699893723e-08,-1.33367904524625e-07,-1.3464136930502e-08,4.71226659476558e-06,-2.59416081952677e-06,-4.90826211530697e-05,-2.04127692444676e-05,2.94289163525698e-10,-1.60480088451901e-08,2.96921521770617e-08,-0.000216647208308824,1.35009629158182e-08,1.26848136888485e-09,-6.85128553117464e-05,5.5718257610998e-06,6.88952155972264e-08,3.59280022871811e-08,-0.707106781186558,-5.07878312875877e-14,2.06550350638349e-09,-1.07099593027819e-08,-6.43118371057572e-14,-3.57089209385867e-08,-1.31360711257916e-08,-2.92477352753536e-05,-1.1040642624887e-15,-6.60515658054128e-09,-1.44514536465623e-09,2.30566298026211e-10,1.70822189653512e-14,2.24700382879219e-07,2.45908473345673e-15,-5.70623647097331e-15,9.36723076745297e-15,6.01917023018381e-15,-3.3718837460607e-10,-9.92247004504363e-15,1.96040381230065e-15,-5.32255630988971e-15,-1.98262319309067e-06,-7.30394903873162e-16,1.71089286085922e-15,-2.56850281510218e-15,2.63036357311976e-08,4.57738540051295e-08,-1.15337936689107e-08,-3.35526395910098e-15,-6.01689744330081e-16,1.32733964706445e-16,3.90917472525709e-09,-3.73161742395651e-16,6.62456790854995e-15,-2.12020280615585e-15,8.98741110298829e-15,-3.3588463408001e-14
"t128",-0.0785167136811237,-0.146376929267353,-0.0469149391123906,-0.0201285392901008,0.0259486817550929,0.00892872036216497,-0.165221416261903,0.0020587631895401,0.0030464214347091,0.000695323155550842,-0.0521957244659442,0.0120335811321794,0.000115655989666125,1.31108524820224e-05,2.93378404203868e-05,7.89374724664087e-06,0.00041802153193095,3.3661554319412e-05,0.000404312315039156,0.000296757087614025,-0.000104192970848078,7.95313184734709e-05,6.06445430020978e-05,4.66880245317793e-05,0.355833357863761,-0.0295942774154123,-0.000945491440029711,-0.173532238537943,-0.0119829499248359,-0.0138568570539752,-0.0026451407512135,-2.3583000464959e-06,-0.000895691250686713,0.000430873075104238,0.000115522159488942,0.00091017386376734,-0.00303692632840451,0.00102722312275433,0.000545232292364954,-0.00787885368352725,0.0786446426070664,0.0322654853711818,-0.126828189272209,0.042768927283336,-0.000311808756553268,0.0307275573196306,-0.000207426327866353,-0.0100903529051908,-4.27373391312498e-07,4.95168645599831e-06,1.30575772598567e-05,-2.48571185765316e-05,-2.26308038323336e-07,8.31996600688186e-06,-0.000118595168794999,4.16865960274549e-06,3.25023565095016e-05,3.15850174966888e-06,-0.000120456517782241,-0.311147255767508,-0.0214518084075357,2.24545674947113e-16,-7.02364289074913e-05,-2.88984621972578e-06,-3.38960540650158e-06,-8.5630823536015e-08,-1.42493335796922e-06,3.08180880948863e-06,-5.58212590254394e-06,-9.213248101337e-06,-7.74341371291121e-07,-2.59267911512187e-06,0.000161339909307397,6.51892758548164e-06,2.17921164411004e-05,-0.00634623127480064,9.19671174816434e-05,-1.08224727180197e-05,-0.000424964045504355,-5.82098340943641e-06,9.00330321345695e-07,0.00159602555934143,0.00165376310234696,9.15842170849207e-08,9.47490283365252e-16,1.40894552423074e-05,-5.2193773467736e-05,-0.000708680888580887,-0.00027599192282532,-0.00411468501117132,-2.79724154108472e-05,-0.000152670306960766,-0.00262254305225115,0.000142434163615496,6.09362811480343e-05,-0.000207919598490115,4.0937159324755e-15,-5.7098551746434e-09,-1.4708165860963e-06,-0.000405537253802382,9.91060032975478e-16,-0.000303076428357127,-1.75749904702847e-18,1.56184709093407e-05,0.0156630365946619,-6.55638805841072e-06,-1.24952348111411e-06,5.77306802782979e-07,-2.34817926697491e-05,9.5136981039953e-07,-1.67235673735599e-05,7.92201153540461e-15,-0.000217348626704466,-9.08709774276745e-05,-6.31971411165366e-06,0.00533817755476305,0.389124623530053,1.19828898228406e-15,0.00182115851467308,-3.18224013515714e-06,5.84529477442316e-09,-6.3922540535781e-15,-9.14993035638669e-08,-1.33367913536415e-07,-1.34641432173248e-08,4.71226657249331e-06,-2.5941607466644e-06,-4.90826212180668e-05,-2.04127692835301e-05,2.94314027109290e-10,-1.60480273065016e-08,2.96921097194393e-08,-0.000216647208239278,1.35009558144725e-08,1.26861325774442e-09,-6.85128553892704e-05,5.57182583231324e-06,6.88952143793015e-08,3.59282824149117e-08,0.707106781186538,5.16457135511862e-14,2.0655745730639e-09,-1.07099799126728e-08,6.72118610767214e-14,-3.5708896670283e-08,-1.31360775461457e-08,-2.92477353299282e-05,1.80197644108081e-15,-6.60516611459124e-09,-1.4451650102034e-09,2.30585658644138e-10,-9.36182407052051e-15,2.24700376387315e-07,-3.97915220320459e-15,5.13018135077809e-15,-7.46278240162251e-15,-3.86490972683925e-15,-3.37191203062957e-10,1.39769598243607e-14,-8.50621971505654e-16,3.70089471163584e-15,-1.98262319982426e-06,2.68636502747088e-15,-2.79724626433675e-15,5.00876287744634e-15,2.63036376603329e-08,4.57738575682363e-08,-1.15337758533406e-08,2.17499538347478e-15,3.88204651954608e-15,3.2926066407367e-15,3.90916771639398e-09,-1.77972306625434e-15,3.52119838755136e-16,-3.01157898672397e-15,3.86499950355713e-15,-2.95900948530059e-14
"t87",-0.0781081486313577,-0.145039037147499,-0.0464389360936138,-0.019648630560952,0.0253104665637178,0.00867693376076294,-0.15526654899099,0.00190936289589999,0.00281451768298894,0.000639496312796381,-0.0471627250104292,0.010820289782592,0.000100220559314082,1.13492271816622e-05,2.52988820601283e-05,6.75506211162521e-06,0.000352682739065745,2.78698081198912e-05,0.000331548974503448,0.000241013579913826,-8.0766676754379e-05,6.14420326581374e-05,4.61677050575605e-05,3.4318406227916e-05,0.2588614817285,-0.019254683944416,-0.00059714317167887,-0.107982568432481,-0.00727323449809366,-0.00835462859639966,-0.00154415883399391,-1.27738404784341e-06,-0.000436336291970857,0.000163544725841183,4.24024331021725e-05,0.000250745842127313,-0.000819359795159182,0.000151804587266071,7.83349817654808e-05,-0.000888290587419302,0.00738939558215855,0.00297001290458799,-0.0112979178729336,0.00312475163814131,-1.99259469696451e-05,0.000467308979539531,3.17680827005257e-06,0.00128981828180757,1.16140523004843e-07,-1.48479072936036e-06,-3.9620125957291e-06,8.16248893231356e-06,1.01656841179481e-07,-8.20631275685393e-06,0.000125161322168427,-4.55368860091248e-06,-4.31113359855363e-05,-4.61001633448907e-06,0.000214209121299433,0.594800692365565,0.0467533655632191,-1.11184481376941e-15,0.000230358203822803,1.19983116715862e-05,1.89511832798441e-05,6.81838086858236e-07,1.86368843510049e-05,8.95536229488057e-05,-0.000139381012325603,-9.54038035425445e-05,-5.52094705167841e-06,-1.71509777013013e-05,0.000943635079616524,3.45029887356462e-05,0.00011306175832062,-0.0312469974056983,0.000418277418765694,-4.26557813259184e-05,-0.00161903456017117,-2.00667305832475e-05,3.01063426875965e-06,0.00519828168362586,0.00520488063349422,2.82792850302875e-07,-1.4437521588865e-15,3.91675495575435e-05,-0.00014328918270747,-0.00191190164460319,-0.000728765699815207,-0.0107538265557123,-7.18814303884454e-05,-0.000374074430095335,-0.00596671089786399,0.000323368278682873,0.000138342633984634,-0.000471126846718555,-0.707106781186542,-1.20136763395735e-08,-3.01829027190921e-06,-0.000792428685673716,-3.46089796999974e-16,-0.000558158301223273,-7.75228666814636e-15,2.74913360264036e-05,0.0256899910747281,-1.05772167199973e-05,-1.94258079760257e-06,8.54247666850491e-07,-2.98135224199684e-05,1.1608834403894e-06,-1.97149569915601e-05,1.12372601118704e-15,-0.000196520689732706,-7.55702919971133e-05,-4.74583147484622e-06,0.00165101677008356,0.017880948088093,2.46742700624123e-15,-0.00261470564896359,6.81525184239729e-06,1.69127816253907e-07,-4.31543752530822e-15,-7.0245150710956e-07,-9.31847113709832e-07,-5.34841583973403e-08,1.48053106869926e-05,-8.12488920521054e-06,-0.000148871494262048,-5.95343530001283e-05,8.41653664147591e-10,-4.52312683833493e-08,8.14343811444895e-08,-0.000592064789777127,3.62366870784018e-08,3.38527309823983e-09,-0.000181651893782442,1.4745955713119e-05,1.80217790064382e-07,9.35824421474577e-08,6.12908598144959e-15,1.31168866950956e-16,4.95440364113495e-09,-2.53674503748679e-08,-2.57736540443254e-15,-8.29145528932046e-08,-3.01449105299826e-08,-6.57482851278579e-05,1.38817059473384e-17,-1.45341863427525e-08,-3.13730269559084e-09,4.95213383406152e-10,-7.44294064686509e-16,4.76738510246134e-07,7.81449182117055e-16,-4.19056795788591e-16,3.34071899705853e-15,8.37776060078944e-16,-7.00123360282998e-10,-9.71574112283529e-17,-6.04171506078695e-16,3.18715241802865e-16,-4.0361233599457e-06,7.65969364914169e-16,6.33792437319272e-16,9.70276020662895e-16,5.24173999476332e-08,9.0219723074489e-08,-2.26409887441884e-08,-2.44935880067294e-16,1.00329973956716e-15,6.04254082651376e-16,7.48827678241457e-09,-1.18566314751996e-15,3.69168909117652e-15,-1.4861505939193e-15,6.65383642258386e-15,-3.22138187526187e-14
"t88",-0.0781081486313577,-0.145039037147499,-0.0464389360936138,-0.019648630560952,0.0253104665637178,0.00867693376076297,-0.15526654899099,0.00190936289589969,0.00281451768298923,0.000639496312796375,-0.0471627250104296,0.0108202897825916,0.000100220559314086,1.13492271815098e-05,2.52988820603137e-05,6.75506211173914e-06,0.000352682739065698,2.78698081199125e-05,0.000331548974503755,0.00024101357991413,-8.07666767539703e-05,6.14420326579432e-05,4.61677050580592e-05,3.4318406227704e-05,0.258861481728498,-0.0192546839444164,-0.000597143171678166,-0.107982568432481,-0.00727323449809314,-0.00835462859639955,-0.00154415883399471,-1.27738404804946e-06,-0.000436336291970835,0.000163544725841493,4.24024331031213e-05,0.000250745842128034,-0.000819359795158829,0.000151804587266446,7.83349817670862e-05,-0.000888290587419208,0.00738939558216004,0.00297001290458899,-0.0112979178729387,0.00312475163814126,-1.99259469693552e-05,0.000467308979540121,3.17680826994412e-06,0.00128981828180593,1.1614052371629e-07,-1.48479073155992e-06,-3.96201259414976e-06,8.16248893155939e-06,1.01656841236557e-07,-8.20631274996791e-06,0.00012516132216802,-4.55368860148347e-06,-4.31113359845875e-05,-4.61001633848998e-06,0.00021420912129914,0.594800692365562,0.0467533655632226,-7.5797647609361e-16,0.000230358203822173,1.19983116716692e-05,1.89511832793661e-05,6.81838085850437e-07,1.86368843598798e-05,8.95536229453871e-05,-0.000139381012321789,-9.54038035382443e-05,-5.52094705127211e-06,-1.71509777112442e-05,0.000943635079617628,3.45029887388333e-05,0.000113061758315016,-0.0312469974056823,0.00041827741876205,-4.26557813235036e-05,-0.00161903456017974,-2.00667305912725e-05,3.01063425544024e-06,0.00519828168363307,0.00520488063349825,2.82792847571379e-07,1.17301389112974e-15,3.91675495524025e-05,-0.000143289182703303,-0.00191190164461629,-0.000728765699790444,-0.010753826555722,-7.18814303894172e-05,-0.000374074430109807,-0.00596671089778639,0.000323368278676495,0.000138342633970291,-0.00047112684670939,0.707106781186552,-1.20139133714793e-08,-3.0182901585834e-06,-0.000792428685717909,2.12880782132882e-15,-0.000558158301229034,6.92640248017719e-15,2.74913360620312e-05,0.0256899910745445,-1.05772167126619e-05,-1.94258079289586e-06,8.54247657752869e-07,-2.98135224111653e-05,1.16088345216952e-06,-1.97149569729966e-05,2.35137733265807e-16,-0.000196520689736937,-7.55702919989535e-05,-4.74583148363504e-06,0.00165101677007015,0.0178809480880876,-1.24159643820223e-15,-0.00261470564897252,6.81525183587519e-06,1.69127815843141e-07,4.08014028040106e-15,-7.02451508299269e-07,-9.31847120797969e-07,-5.34841559705552e-08,1.48053106869556e-05,-8.12488920377534e-06,-0.000148871494263361,-5.953435300251e-05,8.41650264348068e-10,-4.52312731830872e-08,8.14343823277619e-08,-0.000592064789756801,3.62366832389675e-08,3.38527228084973e-09,-0.000181651893779154,1.47459557162241e-05,1.80217790355653e-07,9.3582442249269e-08,3.03189469901859e-15,-5.18248540788235e-16,4.95440549222378e-09,-2.53674504797187e-08,1.30537941567255e-15,-8.29145508311101e-08,-3.01449104225223e-08,-6.57482851274577e-05,-5.06402271797734e-16,-1.45341831255028e-08,-3.13730131667128e-09,4.95213417725135e-10,-2.26209923164441e-15,4.76738511838258e-07,-8.70705731523701e-16,4.46682212633058e-17,1.3572023222295e-15,-4.57570432178645e-17,-7.00125920249499e-10,-5.2092380514989e-16,1.15522425997823e-15,-8.89853097508491e-16,-4.03612335975326e-06,-4.69167315317868e-16,9.16894886599024e-17,-8.84106401686396e-16,5.24173981723783e-08,9.02197207035938e-08,-2.26409894602738e-08,9.61787645379347e-16,3.45720210806306e-15,-9.52438279731966e-16,7.48827488340545e-09,-8.95088440669961e-16,3.22035203820127e-15,-1.68018965850255e-15,4.9390243933233e-15,-3.14465898527488e-14
"t67",-0.0742734358859555,-0.132381071302267,-0.0419261005367389,-0.014964408131758,0.0190707414977859,0.00619544535836832,-0.0491212801976084,0.000260161762774373,0.000227344529982014,8.67969167346475e-06,0.0128444662915769,-0.00387881503172444,-0.00011601276942612,-1.34508030436696e-05,-3.26247291449042e-05,-1.02370606027088e-05,-0.000709054371361201,-8.12512186016593e-05,-0.0011829814947713,-0.00107647604888935,-0.00389215800527618,0.00150807800708675,0.000323133039009682,4.18694697379037e-05,0.133288901824677,0.081686652914205,0.00330071672987887,0.672285497521189,0.0546022952762545,0.0658253443594792,0.0152541720993824,2.10466854109885e-05,0.0164821643218669,0.0128375811082392,0.00266569790056708,0.00733313578427839,-0.0233239569509215,0.00273692953307839,0.00138809636370086,-0.0133483845894544,0.0939502726079393,0.0368760624882303,-0.134570972305004,0.0488762993380623,-0.00016689431072756,-0.0213147899734879,0.000299657382530054,0.0456645727146999,4.55283761414772e-06,-6.19903937728303e-05,-0.000166921430020787,0.000369082446271116,8.66947888709053e-06,8.66597795547844e-05,-0.0010450450020495,3.37238703832843e-05,0.000155319284311697,1.08503404524283e-05,-0.000111606750727391,-0.0144653508951133,0.0333069848409571,-8.05383432599838e-16,0.000496222979630867,3.17537633675855e-05,5.83001781824766e-05,2.32904680586766e-06,6.91503244128329e-05,0.000389033462016714,-0.000609978152966927,-0.000448430739345513,-2.71037348169865e-05,-8.45208395957973e-05,0.00455456444544925,0.000143717292672077,0.000427920856564348,-0.0196278159637215,0.00571743798968657,-0.00045056421579745,-0.0181460507240231,-0.000335846502618552,6.5580885838235e-05,0.165473333950046,0.6462110451652,-3.63780716370767e-05,-6.83709409223548e-15,-0.000240066327992651,0.000731840141304593,0.00762034023648476,0.00214219406500507,0.0272322386228511,0.000141035058269167,0.000304128859615504,-0.00126771027172525,7.54880307027663e-05,3.23048616932647e-05,-0.000118773537281451,-2.43181987323522e-15,-9.31385131018133e-09,-2.66692321354774e-06,-0.000804652653808255,-1.9649125132843e-16,-0.000577468068561443,-5.72277592774753e-16,2.52535530508433e-05,0.00639214764700952,1.27367623112283e-06,3.99171068215443e-06,2.63917867756445e-05,-0.000105871699766577,3.87612176018386e-06,-6.33986046402585e-05,1.22598433233595e-15,-0.000559987348508325,-0.000211683791997913,-1.30719411468661e-05,0.00400787960003704,0.000410831793761934,-2.42232644210126e-15,-0.000619625186433645,2.042262290276e-05,4.7812652091943e-07,6.1836726799252e-16,-1.97700014535317e-06,-2.6215265996951e-06,-1.50363077274436e-07,4.17670032070584e-05,-2.29228581520128e-05,-0.000420390241670709,-0.000168322071645596,2.38106063329192e-09,-1.28005889786323e-07,2.29268766358044e-07,-0.000180053536212825,1.03032038838707e-07,9.62495606002641e-09,-0.000516531156798198,4.19326339005844e-05,5.12707948325432e-07,2.66287897796476e-07,-5.24667751954265e-15,-6.09060022404621e-16,1.41691505562385e-08,-7.26130922775699e-08,3.90312782094782e-18,-2.37678871127871e-07,-8.6485970661532e-08,-0.000188915821166876,1.3675223993162e-16,-4.18252480300964e-08,-9.03669133341593e-09,1.42743350421608e-09,2.75270330669658e-16,1.37524790592226e-06,6.54155229709005e-16,5.8248080273784e-17,-4.21770692530629e-16,8.56721290641833e-16,-2.02216766917444e-09,1.30738498942182e-17,4.26029470621477e-18,-2.08658616180303e-16,-1.16686743128945e-05,2.85628484770264e-16,4.60112685358603e-16,6.73507738898973e-17,1.51659678425004e-07,2.61105485235887e-07,-6.55305227678163e-08,1.65915558085216e-15,1.69639996927561e-15,-3.06147053275005e-16,2.1677025526811e-08,-9.03312654368707e-16,2.95789218102473e-15,-2.44294059880902e-15,4.94430397377164e-15,-3.21073617178314e-14
"t68",-0.0741452642396181,-0.131980487462097,-0.041785329615725,-0.0148470365255744,0.0189164879425746,0.00613807925457948,-0.0481628125477883,0.000254080016312441,0.000221778067997178,8.45594250491172e-06,0.0124495483900845,-0.00375434899211282,-0.00011115322554664,-1.28837769871081e-05,-3.12175477147265e-05,-9.7756960310654e-06,-0.000674604952276365,-7.69346058990744e-05,-0.00111746319196509,-0.00101445392913248,-0.0036278743169346,0.00140459999268562,0.000299971639765386,3.85747231838766e-05,0.122534013965858,0.0734983754227505,0.00295448951582133,0.600255908604873,0.0485525403356639,0.0584690506385555,0.0134808557073546,1.83970460799361e-05,0.0142094551177887,0.0107825490940021,0.00223241451172089,0.00601439062791379,-0.0191053672655567,0.00218398680983715,0.00110671537722817,-0.0105751113950466,0.0741480507737385,0.0290923567273341,-0.106102595613202,0.0384130050383203,-0.000130927087417909,-0.0165622683386201,0.000231481115517948,0.0345471206833708,3.35926790957319e-06,-4.55252579031612e-05,-0.000122513395296715,0.00026978300703216,6.21664722056546e-06,5.77330017093555e-05,-0.000690473514441567,2.21852660721142e-05,9.95544117876797e-05,6.85967572156511e-06,-6.84555587015065e-05,-0.00876973447523435,0.0197565226806929,4.81035742982854e-16,0.000273802546893667,1.67817317972503e-05,2.92025262284588e-05,1.09889782526186e-06,3.03621332588445e-05,0.000129141862027379,-0.000198069220983986,-0.000106326024562931,-3.88463866104274e-06,-9.70551407045713e-06,0.00025661715922472,-8.40000718292398e-07,-8.70937371464292e-06,0.00122680655679421,-0.000803002841034552,0.000156513172617947,0.00754463847791117,0.000232339665253731,-5.30115509106375e-05,-0.153423481038039,-0.720277508816715,4.50974263825807e-05,7.29716290296308e-15,0.000583254847467672,-0.00195744797233765,-0.0235188126205043,-0.00803100360979679,-0.113088982652651,-0.000704661738475659,-0.00311266395894928,-0.0409276157106349,0.00220730232686467,0.00094430716886902,-0.00320181945674616,6.50628350663606e-15,-6.97824767140783e-08,-1.66470777784389e-05,-0.00391760333750371,7.5608482494184e-16,-0.00231813850189632,7.69968335446638e-16,9.15390527673423e-05,0.0207061833685227,4.04208011591631e-06,1.21712731161166e-05,7.70681145028495e-05,-0.000283288331928634,1.02135866750158e-05,-0.000165111032739186,-1.19615554534678e-15,-0.00137578379006827,-0.000514230989158605,-3.14038536575028e-05,0.00922584905805167,0.000930331655085906,2.48458560002209e-15,-0.00134154457436694,4.3782400780398e-05,9.72354512384618e-07,-1.72250044934749e-17,-3.92492144926569e-06,-5.18349549140157e-06,-2.83943140284556e-07,7.54930702505385e-05,-4.14000923741843e-05,-0.000752898969186096,-0.00029806929116214,4.19066555383744e-09,-2.24219216885073e-07,3.97813057492134e-07,-0.000312014868125914,1.77349368957568e-07,1.65308712514132e-08,-0.000884895377756087,7.17851005586616e-05,8.7360068477941e-07,4.52933280625008e-07,4.86017914797042e-15,-1.0279904548014e-17,2.32029536294465e-08,-1.18138159746753e-07,-3.24219817660065e-15,-3.82596288249367e-07,-1.38313818362271e-07,-0.000298576625521122,-6.27775982485128e-16,-6.52660112160537e-08,-1.39846019705392e-08,2.19417173485499e-09,-2.22029878310878e-15,2.09754357814e-06,4.38521466430207e-16,-1.94374349373356e-16,3.13266875305178e-15,7.59201190084797e-16,-3.0410317415174e-09,1.72148702774058e-16,6.20444081110156e-16,-7.88995754230488e-16,-1.73173745483459e-05,-8.76505235475717e-17,1.81338158898106e-16,7.78101132034699e-17,2.21819601354162e-07,3.79000675352589e-07,-9.48512050222688e-08,-1.04629762386545e-15,7.22468446519064e-16,1.06907179061103e-15,3.08424266048035e-08,-4.73181214739787e-16,3.92872816937984e-15,-1.54062030366359e-15,7.91281413532141e-15,-3.17662383588914e-14
"t57",-0.0750184983049759,-0.134591097718586,-0.0426889796173195,-0.0152626619731896,0.0194181810682489,0.00622722556402117,0.206702972404275,0.00832433807262609,0.00834014321493934,0.00147358060315569,-0.0708618649001439,0.0152489027322357,0.000105244468785171,1.18484610493987e-05,2.58679711138277e-05,6.64603665528795e-06,0.000326607356745645,2.44587120588513e-05,0.000288299181757894,0.000212082440759485,0.000243795104473088,-8.54212040342116e-05,-1.109125911231e-05,-2.82852598949176e-08,0.000381947427124673,0.00249690684115391,8.74185667527372e-05,0.015878146594354,0.000971871732693126,0.00105633134709697,0.000101154401649277,-4.16743385099773e-07,-0.00105334638402457,-0.00231099043681511,-0.000522710531356504,-0.00244029870165887,0.00798875764885115,-0.00156031975484548,-0.00079841291025468,0.00749676101443309,-0.0389972600047726,-0.0141511077533278,0.0435229067109624,-0.0224489786821032,-0.000150963173791196,0.26689437719851,0.00475615933574782,0.0264643357686625,-9.93088916599097e-07,1.89465230255217e-05,5.27788975106412e-05,-0.000142883266597909,-5.990878776554e-06,-0.000185164973240532,0.00249197580688861,-8.52226141521213e-05,-0.000564593309455273,-4.87234388149653e-05,0.000868834227535787,0.0579539945205148,-0.847804217336594,-9.32762077779991e-15,0.00536898311537464,0.000210132975616951,0.000276912386601336,8.8175600119154e-06,0.00021869094401932,0.000869141864708501,-0.00134053059852903,-0.000837062308399956,-4.447994462169e-05,-0.000134142264398289,0.00678153419229266,0.000199374812139954,0.000580288789231975,-0.00957453202630365,0.00792221967598767,-0.000851051104472895,-0.248518884752378,-7.26323585289348e-05,1.28803829704058e-05,0.0227214518344291,0.0093671315480401,2.78201211936333e-06,-2.26650662916371e-17,0.00024595977002784,-0.000896813675455704,-0.0119202163779948,-0.00452554186843033,-0.0666630255672307,-0.000444367961724414,-0.00229516579067208,-0.0361210198873081,0.00195668424289284,0.000837102586999775,-0.00284954937500301,4.94333948509156e-15,-7.10178262894566e-08,-1.76161748149954e-05,-0.00444144369610043,1.12323439219996e-15,-0.00280850959344747,1.8642886765796e-15,0.000113331813160066,0.00521042190198034,2.02775313417698e-05,2.55809694139794e-05,0.000156153077211748,-0.000676040854752248,2.5705513829994e-05,-0.000435639149305909,-5.22086748965132e-15,-0.00529128254512547,-0.00223375049042748,-0.000158564757292394,0.229258086961462,-0.00267424033255908,-6.41650512320031e-15,0.000734454421054839,-9.48905693623622e-05,-6.54285448998462e-07,2.2149620219124e-15,1.43742354394998e-06,1.6833054261386e-06,-6.96099926069999e-09,1.76688129190418e-05,-9.81980714079755e-06,-0.000203305032836773,-9.32340553606685e-05,1.40924206404901e-09,-7.97135729199705e-08,1.60233188936e-07,-3.26320238242641e-05,8.95778189936543e-08,1.0271415142847e-08,-0.0158899235812125,-3.62991259632287e-05,2.51429274888141e-07,1.44973582612418e-07,-3.38811616413181e-15,-1.62805961261623e-16,1.09830401372739e-08,-5.7539354511254e-08,7.73860142633254e-15,-1.94255314540919e-07,-7.18542586591394e-08,-0.000161064083698832,-1.64448201110208e-16,-3.64975353102271e-08,-7.98858239085928e-09,1.27382395025872e-09,1.25317432386713e-15,1.23934479823634e-06,9.19785249442168e-16,5.30740730072699e-16,2.98804559488916e-15,2.08934028677637e-16,-1.84998145964673e-09,2.23738388431374e-16,2.10251940581678e-16,-2.69473484534013e-16,-0.000256450028080065,1.02895915500318e-16,2.16771907660087e-16,2.83240499991222e-16,1.41710737814972e-07,2.44987921463087e-07,-6.15697362118818e-08,7.18538648228918e-16,-2.22622813352798e-16,-1.19109937599277e-15,2.05014234046929e-08,-7.69525723866383e-16,3.75831365246045e-15,-1.29960021220654e-15,4.62089992430072e-15,-3.14586733712177e-14
"t66",-0.0752388738709787,-0.135308263274834,-0.0429435600577511,-0.0155015771078002,0.0197336487691702,0.00634662273947624,0.217654648644101,0.00891161705402414,0.00897571047365112,0.00159618389987316,-0.0789792526001827,0.0171465397404221,0.000128691919210934,1.45299888763574e-05,3.20684626306986e-05,8.43203935724319e-06,0.000434998218376824,3.52418903422754e-05,0.000435793357141866,0.000338675991771274,0.000597815350188205,-0.000220034499457298,-3.75424865770108e-05,-2.42971184861183e-06,-0.00404691029295206,-0.000786313518058261,-1.33946070614682e-05,-0.00150533381380043,-1.7503691870606e-05,-8.84038230852336e-07,6.81770003441238e-06,-6.96978899036402e-08,-0.000255664568741168,-0.000738080254229919,-0.000170030643541328,-0.000879243238895669,0.00289349593604595,-0.000629320978852206,-0.000323275364301246,0.00313057508611949,-0.0166228703329494,-0.00604519119158176,0.018656349275012,-0.00981093147344508,-6.67574896191792e-05,0.127115255269605,0.00240637306682368,0.0211522292288995,5.08787429960044e-07,-4.89604471303194e-06,-1.25420660005352e-05,1.84251745413943e-05,-4.02639798486594e-07,-3.20361602677941e-05,0.000435073988716591,-1.49276984736366e-05,-9.93021186799124e-05,-8.52269592973625e-06,0.000148398734149917,0.00977738276247898,-0.139282970017198,-1.94857879646497e-15,0.000789998137654756,2.86319633882817e-05,3.39908754818546e-05,9.53417004408749e-07,1.99985027354483e-05,3.22603127802859e-05,-4.49060154376921e-05,8.05641099037166e-06,2.43480493421745e-06,9.17085938736147e-06,-0.000654317758502791,-2.53331906014986e-05,-7.79775959216786e-05,0.00149568551920151,-0.00158597477579043,0.00033375401206863,0.137566991339667,-1.13337652994984e-05,-2.2017128646942e-07,-0.00219381373756708,-0.00157094769440799,-5.56794171347944e-07,5.12772695884478e-16,-8.71033273513808e-05,0.000334028439726009,0.00475045166191111,0.00195320810471657,0.0298585970647923,0.000211272998659836,0.00128231136204608,0.0255601336288268,-0.00139374824141623,-0.000596282359364116,0.00204184851826943,-9.95023907546779e-15,6.33673150477984e-08,1.6856719811249e-05,0.00484115050784188,-4.58987600008044e-15,0.0035363433180156,-4.08981916468082e-15,-0.000157682736219215,-0.00832124912470445,-3.33451500142975e-05,-4.47359707308698e-05,-0.000294123379604662,0.00152791161745292,-6.03292371964903e-05,0.00105372805911643,1.87930803380509e-14,0.0152036384702375,0.00666981961254423,0.000492704901402426,-0.848755292215997,0.0107126800038243,2.22264263334931e-14,-0.00383280759308927,0.000531689606618073,6.19931807324536e-06,-1.0547305852959e-14,-2.03692282212687e-05,-2.6066733577295e-05,-1.03843335935965e-06,0.000208354234966212,-0.0001136266662263,-0.00193980963779924,-0.000691655342923539,8.9988599368316e-09,-4.43286778165626e-07,5.51883296601394e-07,-9.87119385916398e-05,-1.08124435757115e-07,-5.39553720799918e-08,0.368098722981285,0.00170428251234387,4.43545511875101e-06,1.98993637293163e-06,2.10589853637933e-14,-7.10499416749116e-15,5.47605407844669e-08,-2.68613880582809e-07,-4.93468113593742e-14,-8.2427606454147e-07,-2.89202474436276e-07,-0.000593759757699253,9.37652479376905e-16,-1.23485178985781e-07,-2.56611890907542e-08,3.93081114375286e-09,-1.51132519691322e-15,3.65787170505103e-06,-1.37482277843666e-15,-2.08789252526301e-15,-1.22276959683831e-15,2.59176399920208e-15,-5.06067789649347e-09,1.81581880800167e-17,-9.31193939110099e-16,-4.03965166011735e-15,-0.00219240544076595,3.27675754303567e-16,1.15187459795773e-16,-6.86011761350411e-16,3.38494034200884e-07,5.65422365789078e-07,-1.40340209540348e-07,-3.7373598144819e-16,5.80811223287409e-15,2.62521254124129e-15,4.34413528030391e-08,-2.72112266205353e-15,2.48312755157272e-15,-3.60980171741306e-15,9.44588814768601e-15,-3.2841455993004e-14
"t139",-0.0762485983298377,-0.138521540079917,-0.0440777834976139,-0.0164894511518049,0.0210328667990572,0.00682913393331304,0.255453002706096,0.0108274630686922,0.0110163968692791,0.00198265643748987,-0.10285100925599,0.0226251964768173,0.000188067073699295,2.12965528771536e-05,4.75161273351285e-05,1.27708996203339e-05,0.000686631044419943,5.88637545249353e-05,0.0007497709620121,0.000600659770483278,0.00124146493354475,-0.000462586369266192,-8.33988846958522e-05,-6.23822193881273e-06,-0.0108932193408377,-0.00469129294911924,-0.000125497903687364,-0.0201994644042916,-0.0010234831147407,-0.00105978157604199,-8.10198745596593e-05,2.02142481439826e-07,0.000224272319055897,-0.000347584489652501,-9.75296252427683e-05,-0.00109157559582202,0.00370739627332988,-0.00138278255766894,-0.000721581483667085,0.00785051915996239,-0.0446886391512773,-0.0163667391112884,0.0510661978441887,-0.028486536116016,-0.000200481775989978,0.457519615621266,0.00973366614639148,0.138412214447684,8.51274506739554e-06,-0.00011101498780523,-0.000297486203328157,0.000638108604711341,1.37706318979893e-05,0.000153491741561284,-0.00192717773390763,6.36601093966469e-05,0.000349493994764598,2.76090206477299e-05,-0.000413292524620652,-0.0259179458430232,0.339999538132473,4.2613923748478e-15,-0.00156812256019169,-5.18908123489327e-05,-5.62223292466702e-05,-1.45372888712619e-06,-2.82196717200016e-05,-3.79522343746288e-05,5.23366931568488e-05,-8.56155227123623e-06,-2.42522353529084e-06,-9.00716265522234e-06,0.000628839498044316,2.40270397855506e-05,7.38330892354816e-05,-0.00141350228399715,0.00151138203840166,-0.000355157728719121,-0.157929020468807,3.29357688737933e-05,-2.88833366205077e-06,-0.00295189823013247,-0.000533237221386305,-7.87881275782488e-08,-8.38880102459128e-16,1.6904414352626e-05,-6.90220834348761e-05,-0.0010470585691196,-0.000454481566151697,-0.00707953346973909,-5.12748094543365e-05,-0.000320695570408716,-0.00630692295283412,0.0003435423849482,0.000146975985094101,-0.000502798895297865,3.07998917527119e-16,-1.48376757778889e-08,-3.86616048261155e-06,-0.00106374529581026,1.48739865995598e-15,-0.000737375782866585,1.36583002145193e-15,3.16409258896842e-05,0.00158060948158361,6.25942251446911e-06,8.19031015836029e-06,5.22412611345273e-05,-0.000251964768805492,9.79850336150831e-06,-0.000169082214158398,-2.43125037055774e-15,-0.00227947916675239,-0.000985329306337703,-7.16921807794285e-05,0.115799133320751,-0.0014217321232711,-1.61580884307709e-15,0.000466831110392363,-6.34031100019713e-05,-6.48898235140984e-07,3.05184177130653e-16,1.98591330109907e-06,2.50922903959124e-06,8.50056139816258e-08,-1.45145293738977e-05,7.89887044754743e-06,0.000132647633038909,4.78307229158396e-05,-6.48903776620581e-10,3.4292065627511e-08,-6.53763708229305e-08,1.34340515532986e-05,-4.61699624101433e-08,-6.71711820973589e-09,0.0210938474786606,8.14073632628276e-05,7.32091766849445e-08,2.19668210766402e-08,1.60904470975591e-14,-6.66316966331817e-15,4.89486461710474e-11,-9.2613384806516e-10,4.7717906015432e-14,-6.83064173546787e-09,-3.34268921117187e-09,-1.06681154598981e-05,-1.09081618366426e-14,-3.14477664510138e-09,-7.86299695708305e-10,1.37595318985419e-10,0.70710678118655,1.47067393766495e-07,-6.63314341596658e-14,1.62008973409041e-14,-5.78445070528305e-15,1.63075170461398e-14,-2.53543711809597e-10,7.83479810535204e-15,2.37868129676577e-15,3.85760132448492e-15,-0.000442461222152503,9.84063232934294e-15,3.89056938067011e-15,-2.02014220992313e-15,2.41441423792477e-08,4.38575671772023e-08,-1.12166017977902e-08,2.67627685027299e-15,-2.44093672926294e-16,5.05211937163468e-16,4.12006385713247e-09,-3.32788853976207e-16,9.20757776650227e-15,-4.04278479149443e-16,6.8889223408089e-15,-3.19123561889789e-14
"t140",-0.0762485983298377,-0.138521540079917,-0.0440777834976138,-0.0164894511518049,0.0210328667990572,0.00682913393331301,0.255453002706096,0.010827463068692,0.0110163968692792,0.00198265643748936,-0.10285100925599,0.0226251964768172,0.000188067073699098,2.12965528769607e-05,4.75161273353624e-05,1.27708996201875e-05,0.000686631044420381,5.88637545250241e-05,0.000749770962012308,0.000600659770483155,0.00124146493354493,-0.000462586369266466,-8.33988846958798e-05,-6.23822193923021e-06,-0.0108932193408362,-0.00469129294911997,-0.000125497903687439,-0.0201994644042922,-0.00102348311474046,-0.00105978157604197,-8.10198745592401e-05,2.02142480954828e-07,0.000224272319056428,-0.000347584489652282,-9.75296252421309e-05,-0.00109157559582233,0.00370739627332985,-0.0013827825576684,-0.000721581483667234,0.00785051915996146,-0.0446886391512788,-0.0163667391112891,0.0510661978441915,-0.0284865361160129,-0.000200481775989038,0.457519615621268,0.00973366614639178,0.138412214447687,8.51274506763209e-06,-0.000111014987805491,-0.000297486203328387,0.000638108604712262,1.37706318983291e-05,0.000153491741561024,-0.00192717773390696,6.36601093980233e-05,0.000349493994765106,2.76090206476539e-05,-0.000413292524620766,-0.0259179458430248,0.339999538132474,5.059796471851e-15,-0.00156812256019194,-5.18908123498896e-05,-5.62223292466565e-05,-1.45372888839183e-06,-2.8219671723325e-05,-3.79522343736464e-05,5.23366931575626e-05,-8.56155227063257e-06,-2.42522353457299e-06,-9.00716265294779e-06,0.000628839498046751,2.40270397819817e-05,7.3833089235338e-05,-0.00141350228399756,0.00151138203840179,-0.000355157728718938,-0.157929020468812,3.29357688717771e-05,-2.88833366232958e-06,-0.00295189823013307,-0.000533237221383846,-7.87881295083824e-08,-6.85289094705144e-16,1.69044143503812e-05,-6.90220834360466e-05,-0.00104705856911834,-0.000454481566147549,-0.00707953346973974,-5.12748094576892e-05,-0.00032069557040927,-0.00630692295282989,0.000343542384947635,0.000146975985096199,-0.000502798895297834,-1.31570225598719e-15,-1.48376786689628e-08,-3.86616047801416e-06,-0.00106374529580726,1.68596593196135e-15,-0.000737375782868707,1.76604991179987e-15,3.16409258917552e-05,0.00158060948152648,6.25942251625076e-06,8.19031016058385e-06,5.22412611348297e-05,-0.000251964768802023,9.7985033648915e-06,-0.000169082214157836,-1.99452000010345e-15,-0.00227947916674887,-0.000985329306338266,-7.1692180778733e-05,0.115799133320758,-0.00142173212325616,-3.17846365336129e-15,0.000466831110380095,-6.34031100047442e-05,-6.48898237010354e-07,2.9018072312323e-15,1.98591330454713e-06,2.50922904256533e-06,8.50056170022698e-08,-1.45145293666643e-05,7.89887045739025e-06,0.000132647633050936,4.78307229258923e-05,-6.48906806595956e-10,3.42920784228853e-08,-6.53763702557204e-08,1.34340515541105e-05,-4.616996367633e-08,-6.71711672214598e-09,0.0210938474786697,8.14073632582753e-05,7.32091759453374e-08,2.19668249880986e-08,-1.05552849642049e-14,4.61739968198157e-15,4.89473252150135e-11,-9.26123767149549e-10,-5.01673355635113e-14,-6.83063445722377e-09,-3.34267559787984e-09,-1.06681155109891e-05,9.74615765185981e-15,-3.14474649393448e-09,-7.8629302347689e-10,1.37531160194435e-10,-0.707106781186545,1.47067411602163e-07,6.82252305969215e-14,-1.68165126773699e-14,5.60791204232556e-15,-1.50585665348481e-14,-2.53523984861183e-10,-8.06381117438247e-15,-1.68369462618383e-15,-6.41257498765317e-15,-0.000442461222160512,-9.20654250188315e-15,-3.16439944820718e-15,2.57866070122531e-15,2.41441302000083e-08,4.38575611778441e-08,-1.12166019192836e-08,-2.04197801648207e-15,2.92585182346794e-15,-4.00146103809332e-16,4.12005908638795e-09,-2.70321892833571e-16,-3.03767218302303e-15,-4.31742496580034e-15,5.44071578633719e-15,-3.14546916825837e-14
"t86",-0.0760791065886012,-0.137987990312974,-0.0438899815150969,-0.0163323445564226,0.0208267254709831,0.0067534358047236,0.25016334284447,0.0105728971963875,0.0107495350791586,0.00193308374762632,-0.100029501252394,0.021993310125563,0.000182574226162133,2.06751447349619e-05,4.61359996330059e-05,1.24052224692571e-05,0.000667848233931016,5.74158437097269e-05,0.000732738164053213,0.000588348978434731,0.00123548663903452,-0.000461039455241678,-8.37010087851875e-05,-6.38912662507135e-06,-0.0112354830200045,-0.00540481582724238,-0.00015081830958949,-0.0248527584308872,-0.00131525059095255,-0.001379178956775,-0.00011276127159051,3.45732203968464e-07,0.000638832943370689,0.000856083141559805,0.000184090093133889,0.000609618948865511,-0.00195583367907774,0.000252216907186732,0.000127302307564863,-0.00107787020830242,0.00526275693349256,0.00189738634365006,-0.00577700346357027,0.0028207809099239,1.83769217362538e-05,-0.0272519476550487,-0.000430504486240694,-0.00111562552638049,1.00804327827389e-07,-1.52690195632744e-06,-4.15397960644434e-06,9.72255917076686e-06,2.42713584144851e-07,-5.88062821197817e-07,1.51576720346468e-05,-6.40111912782793e-07,-8.40184282318187e-06,-8.80827680473848e-07,2.06375558512974e-05,0.00147895217619075,-0.0239992967856435,-3.23358335055523e-16,0.000181683084519599,7.39632273172022e-06,9.83656853842693e-06,3.05061810482781e-07,7.051018230262e-06,1.46139295256086e-05,-2.06430704080272e-05,4.36921189059432e-06,1.55381832728768e-06,6.14190687669941e-06,-0.000483731833648748,-2.08290039495263e-05,-6.57473090512175e-05,0.00135830417882653,-0.00166232502739579,0.000548140709666713,0.272183916022105,-9.08198439523871e-05,9.98556003351064e-06,0.0132878167022278,0.00414571882864519,1.08195988406876e-06,2.56011257330356e-16,5.42868179025634e-05,-0.000186116155618302,-0.00226865619172936,-0.000772109855193964,-0.0107739803195356,-6.54643396702211e-05,-0.000250451181109839,-0.00185684002878097,9.72878984816808e-05,4.16166188556561e-05,-0.000137330128219938,1.16780661164049e-15,8.67200205316754e-10,5.91877030213935e-07,0.000342227797295939,-3.17893905608545e-15,0.000370284376351439,-5.11369552669051e-15,-1.97988208761593e-05,-0.00126003627086378,-5.21946150605372e-06,-7.46549685651659e-06,-5.25659972892637e-05,0.000313547385025245,-1.26869479110437e-05,0.000225785078585336,4.09061330863053e-15,0.00358235533847966,0.00160146372963155,0.000120540775873049,-0.223683598237001,0.00290869877818923,9.68111306669365e-15,-0.00113536304243381,0.000160770054297403,2.12140674346455e-06,-7.90520022851524e-16,-7.46495665969672e-06,-9.67448955208775e-06,-4.62348935716715e-07,0.00012935374608174,-7.12114252500469e-05,-0.00136527168466334,-0.000608357777390787,9.46631977783836e-09,-5.64797259256772e-07,1.44826004723131e-06,-0.0003123163489266,1.44567540657113e-06,2.37479030077286e-07,-0.875515365150023,-0.00355480198427216,-4.83803309575275e-06,-1.7955991672973e-06,-4.95684969855322e-14,1.98606565370778e-14,9.59069939171961e-10,-1.49454492380913e-08,7.38792707566382e-14,-8.54482821922033e-08,-3.67406785569915e-08,-9.60280453334043e-05,3.73079935521476e-15,-2.36558265954971e-08,-5.33997431716305e-09,8.65728055482083e-10,-7.69005694400326e-15,8.52929375142028e-07,1.17855960269869e-15,4.67076126456998e-15,1.06418587048585e-14,-2.24000864428421e-16,-1.28706593631602e-09,4.87709991723922e-15,3.99287927687923e-15,-2.2413236227208e-14,-0.0196210439052913,3.68477294667057e-16,2.259940647583e-15,1.12538330211401e-15,9.77411688741153e-08,1.68270416625272e-07,-4.22124632724026e-08,1.42347687450904e-15,-9.07879130911736e-15,-2.0986788254958e-15,1.3875527630027e-08,-2.03736016270702e-15,4.88913588541981e-15,-3.35922864865654e-15,7.12054555735134e-15,-3.22482368209578e-14
"t89",-0.0763068996974509,-0.138712485255979,-0.0441456769979807,-0.0165546360174219,0.0211190477585269,0.00686195180308496,0.258636877244666,0.0110020229169502,0.011206531454454,0.00201961313924164,-0.105371347717031,0.0232191947239989,0.0001958675141761,2.2190155772376e-05,4.95953112471014e-05,1.33772761347115e-05,0.000724281229091175,6.27233612811081e-05,0.000803367307197613,0.00064736035553785,0.00138172051409221,-0.000516188360979581,-9.41647492386495e-05,-7.26702143024419e-06,-0.0128190519020731,-0.00635534178139696,-0.00017861033071042,-0.0295337709877172,-0.00157172946701214,-0.00165053659616883,-0.000135876754404109,4.22785660188116e-07,0.000795728020588658,0.00110421279226794,0.000238397851863969,0.000813019925810921,-0.00261326653298022,0.000351810436790315,0.000177858403262586,-0.00152535040232044,0.00751072781038248,0.00271026615558598,-0.0082635552752598,0.00406678338805587,2.66209707417525e-05,-0.0406773227024826,-0.000658826521682831,-0.00228479551718428,1.12494367165168e-07,-1.80592042154666e-06,-4.94056507496081e-06,1.19401868380442e-05,3.22428870212855e-07,-8.67281986902094e-07,2.25239662642359e-05,-9.54831386449717e-07,-1.28024723085764e-05,-1.35618778334862e-06,3.24565191250189e-05,0.00234385764525765,-0.0385612538599294,-1.92051298274366e-17,0.000304111751080411,1.26513168459381e-05,1.72451855324953e-05,5.48329762037914e-07,1.30202436177145e-05,2.92730197440013e-05,-4.15641820945399e-05,9.33831026110474e-06,3.52180733735288e-06,1.41582805715162e-05,-0.0011530387579469,-5.13598136407245e-05,-0.000163366826300249,0.00344947662228811,-0.00438752160367023,0.00158726943984984,0.810515287066113,-0.000299397256587009,3.42055843087719e-05,0.0472205713316086,0.0155439468316831,4.19348059312038e-06,4.00108354803559e-15,0.000267875868715954,-0.000953787290690055,-0.0123099886861729,-0.00453153038091229,-0.0658968236989253,-0.000431107218983831,-0.00214288763115775,-0.032885040759298,0.00178101860300505,0.000761949351591245,-0.00259329261332749,9.05647449489448e-15,-6.51331410734925e-08,-1.62833240536168e-05,-0.00419227249178782,2.02010081693278e-15,-0.00273800628936606,4.73210624117362e-16,0.000113584562135449,0.00546215072235395,2.14818066845042e-05,2.77362899517241e-05,0.000174451478292469,-0.00081988699450707,3.17565626935192e-05,-0.000546400078514387,-9.12157548597534e-15,-0.00727921448876628,-0.00314127476862316,-0.00022824101362768,0.367769819883491,-0.00451809239735173,-1.20743403049987e-14,0.00149535834712294,-0.000203772043337511,-2.15489761356683e-06,4.88726448109789e-15,6.77718784151771e-06,8.61177034202309e-06,3.21970787099967e-07,-6.78358064520114e-05,3.71324711876488e-05,0.000668693619586008,0.000272448655957709,-4.02673675645101e-09,2.30473450258742e-07,-5.41735582570411e-07,0.000115387822473518,-4.9971179646452e-07,-8.02384457187709e-08,0.288024366795433,0.00116047556844469,1.50021096882671e-06,5.45890790221228e-07,9.05630007780874e-15,-7.67329127158959e-15,-1.68938466072143e-10,2.31584423893089e-09,-1.97827865200395e-14,1.03105471694294e-08,3.67191390397827e-09,6.035999708256e-06,-4.61646189939934e-15,5.56769682633837e-10,-9.03709602003755e-12,1.89844959769029e-11,6.84063999448016e-16,3.84751391454782e-08,-3.18100474496881e-16,-1.67292952123024e-15,-1.03093248052834e-15,8.73797505580184e-16,-1.11224149758666e-10,-1.39147431618514e-15,-3.22992235877377e-15,-1.91855780329902e-15,-0.00265079980426687,-3.1052481886564e-16,-2.49850790930733e-16,6.71907055449941e-16,1.61678797577955e-08,3.13872975480161e-08,-8.20162923765041e-09,-4.22461469407867e-16,4.69571608487351e-15,2.70184318281329e-16,3.34232605444521e-09,1.91627941525957e-15,4.29763608258842e-15,-1.3522637579068e-15,3.72308974818156e-15,-3.10988563345306e-14
"t159",-0.0768340389668049,-0.140401710555938,-0.0447430009185767,-0.0170876716822297,0.0218210176449085,0.00712433212505473,0.280410761885339,0.0121307344603693,0.0124166613037257,0.00225055558231598,-0.120069764115904,0.0266204225690528,0.000235090933860625,2.66679983111579e-05,5.98837431139579e-05,1.6304364423327e-05,0.000898118773793184,7.95655344927756e-05,0.00103086063439235,0.000840277886684619,0.00189439951278804,-0.000710493052440528,-0.000131827149994562,-1.0588344087117e-05,-0.0188973139823994,-0.0105855909779144,-0.000306984200203117,-0.0515542670225775,-0.00281519981408421,-0.00297670708152067,-0.000253231670138076,8.48666710873222e-07,0.00176652211260118,0.00304786228231158,0.00067625637123609,0.00286295947258889,-0.00933716193186419,0.00179310071104949,0.000919077375787034,-0.00878754680022814,0.046449582536337,0.0168866887089086,-0.0520910350128153,0.0273546500938624,0.000186129418119318,-0.357958564896309,-0.00688116899558879,-0.0690806894337031,-2.79632304338945e-06,3.36156462336519e-05,8.91492075842102e-05,-0.000177785166667869,-2.65643439055806e-06,2.71948720355029e-06,-6.62220078416809e-05,2.71897519471373e-06,3.0758196865691e-05,3.0144807291757e-06,-6.2162364334173e-05,-0.00426704228340445,0.0643489940345722,4.96917706150495e-16,-0.00040210363158462,-1.49892587897688e-05,-1.82014837008276e-05,-5.19363659646291e-07,-1.1062863451874e-05,-1.86805322783566e-05,2.60908317765789e-05,-4.90332099592765e-06,-1.57869503954399e-06,-6.08025478641601e-06,0.000456268324658851,1.87773371158304e-05,5.86951993352467e-05,-0.00118046463016598,0.00138180279253366,-0.000414988053848929,-0.200983828025059,6.18735805509236e-05,-6.62366822331847e-06,-0.00860564799253022,-0.00259952924454841,-6.65955546842686e-07,-1.42551364532028e-15,-2.99839286226088e-05,0.000101427345697522,0.0012133891135679,0.000403572874901065,0.00557022208179279,3.32508871630235e-05,0.000121449942145921,0.00087478970796632,-4.59052390217459e-05,-1.96368908574071e-05,6.49070634518629e-05,-1.35131002344757e-15,-1.12215378671221e-10,-1.60717616132259e-07,-0.00010249129597715,9.66408428808809e-16,-0.000108400984342039,5.68689418758578e-16,5.61215940612351e-06,0.000338934205324532,1.3876043180811e-06,1.93560566636234e-06,1.32173868030818e-05,-7.30948123749119e-05,2.91203910182599e-06,-5.11880016125179e-05,-2.61252609999123e-15,-0.000757932276240491,-0.000333778599923069,-2.47398632838274e-05,0.043012994231895,-0.000543937432522136,-8.55147267538071e-16,0.000194735114555394,-2.69941347244341e-05,-3.12324058763503e-07,-5.60259216059738e-17,1.02234005453621e-06,1.30772433792242e-06,5.25923992391928e-08,-1.17983191306311e-05,6.46492811568318e-06,0.000117683593106354,4.86047195925798e-05,-7.23322193115269e-10,4.16097624754284e-08,-9.87079867838692e-08,2.1048778319468e-05,-9.16667304958236e-08,-1.47434499075159e-08,0.0530185392791425,0.000213720795379404,2.77095146792317e-07,1.00925186951677e-07,7.99016507421676e-15,-2.80249069123633e-15,-3.10787741193193e-11,4.22217707134916e-10,-2.6479686499048e-14,1.83565983928556e-09,6.39211864259567e-10,9.84252680526123e-07,3.81622947662363e-15,7.90934593092042e-11,-1.06737712009107e-12,1.72802825442005e-12,-4.15019821538346e-15,1.47923236002876e-09,2.52343683771341e-15,7.17662955474185e-15,2.33693365990816e-14,4.57593196487871e-15,2.53713568412406e-11,-1.6800320051572e-14,5.74656858066085e-14,9.29277819175352e-13,0.824833638365594,7.07334285934874e-15,-6.53123290020385e-15,-5.33007857110949e-15,1.31427067543892e-08,2.04454171949994e-08,-5.06402694580706e-09,3.55762562167886e-15,6.2303293229012e-15,-1.469929192169e-15,1.72247623000621e-09,4.02030759141692e-15,-1.66248558082336e-15,-6.51155283176876e-16,5.55597589779561e-15,-3.25473367988387e-14
"t164",-0.0768616847181789,-0.140490074317635,-0.0447742266303049,-0.0171152924231732,0.0218573747867912,0.00713789061713022,0.281513943160451,0.0121875038136615,0.0124773987080256,0.00226211861974183,-0.12079890435335,0.0267887268401771,0.000236997301643608,2.68855284335015e-05,6.03826640211979e-05,1.64458137589227e-05,0.000906466483881771,8.03677874571139e-05,0.00104165381055429,0.00084939478528945,0.00191819868303087,-0.00071950184820634,-0.00013356421452183,-1.07397206809868e-05,-0.0191734164546776,-0.0107716684564594,-0.000312588958582754,-0.0525122325225578,-0.00286898198531957,-0.00303397938872257,-0.000258264078434193,8.66658051630883e-07,0.00180679145714187,0.00312588832837434,0.000693771429006979,0.00294297082032931,-0.00959922301815957,0.00184766607174719,0.000947113252266777,-0.00906037665129347,0.0479065935797173,0.017416926598659,-0.0537292782854837,0.0282222236385964,0.00019206056315821,-0.369641418019083,-0.00710893705385961,-0.0714763919512183,-2.89824961355182e-06,3.48516084959473e-05,9.2430537862357e-05,-0.000184377591692969,-2.75822805794479e-06,2.83510454986316e-06,-6.90654141432156e-05,2.83631474010925e-06,3.21243267513601e-05,3.15028155975621e-06,-6.50450099611485e-05,-0.00446698599938627,0.0674204722827314,-4.75742040935867e-17,-0.000422344956659255,-1.57643387117188e-05,-1.91707601147835e-05,-5.47820113408926e-07,-1.16870803907223e-05,-1.98226308372966e-05,2.7693501944926e-05,-5.22034539898747e-06,-1.68550244995663e-06,-6.49667816436667e-06,0.000488250274588969,2.01230696383171e-05,6.29222321621932e-05,-0.00126663105304341,0.00148498140802672,-0.00044753964275707,-0.216963816614274,6.70184192132874e-05,-7.18289862100041e-06,-0.00934235416272899,-0.00282633676271379,-7.24706891712518e-07,-8.51337704122817e-16,-3.28140250458556e-05,0.000111085541827275,0.00133039134612594,0.000443110071395167,0.00612017508499287,3.65766311379216e-05,0.000134066369524741,0.000971472337587085,-5.09879843505971e-05,-2.18111510183508e-05,7.21056055852779e-05,-2.66686873676588e-15,-1.25471238792502e-10,-1.80106970116192e-07,-0.000115358608077384,-2.02866084099476e-16,-0.000122636126397773,1.71366716093254e-15,6.37264624817575e-06,0.000386899809797408,1.58578798561961e-06,2.217432093752e-06,1.51867864552869e-05,-8.46088386209127e-05,3.37594641207281e-06,-5.94158504974091e-05,3.26924850622822e-17,-0.000885970123545549,-0.000390773412595833,-2.90110628096019e-05,0.0507921827544719,-0.000644284040597563,-2.442164227606e-15,0.000232933324635823,-3.23696151268538e-05,-3.80570558904644e-07,2.35172936149694e-16,1.25739755904876e-06,1.61117204748635e-06,6.63596931322311e-08,-1.53942779173864e-05,8.44162687920971e-06,0.000154957246073954,6.48090161533888e-05,-9.71786750800477e-10,5.62552846752019e-08,-1.35287642498176e-07,2.89069515701044e-05,-1.27283223487771e-07,-2.05511566367676e-08,0.074243342785576,0.000299679390583321,3.92080826764538e-07,1.43313730470515e-07,1.09168957988624e-15,-3.73852170739431e-15,-4.93170959862644e-11,6.90068166428233e-10,7.61977286822813e-15,3.18450845435393e-09,1.16139669230017e-09,2.00324276723512e-06,-1.44521524157854e-15,1.96817795249809e-10,-3.36750093765202e-12,7.45009641463614e-12,4.57067601757031e-15,1.6357494092361e-08,-1.3715206336167e-15,-7.16620788184442e-15,-1.28124738581537e-15,-8.44095912272419e-17,-6.3164925743912e-11,6.86887631739975e-15,-2.7001596222692e-14,-4.50293493686249e-13,-0.399532343971495,-1.23747290169776e-15,4.13632733401845e-15,1.48392318677292e-16,1.53361425406845e-09,5.69315188609561e-09,-1.64851094163733e-09,6.18657592538703e-16,0.707106781186547,-3.19425667255922e-14,9.03991446230972e-10,5.88098461040097e-16,-3.78937943019711e-16,7.80487844728514e-15,1.87812319542906e-14,-3.22705867423966e-14
"t165",-0.0768616847181789,-0.140490074317635,-0.044774226630305,-0.0171152924231731,0.0218573747867913,0.00713789061713022,0.281513943160451,0.0121875038136614,0.0124773987080256,0.00226211861974183,-0.12079890435335,0.0267887268401771,0.000236997301643996,2.68855284334369e-05,6.0382664021763e-05,1.64458137589994e-05,0.000906466483881971,8.03677874574177e-05,0.00104165381055463,0.000849394785289345,0.00191819868303043,-0.000719501848206482,-0.000133564214521898,-1.0739720680698e-05,-0.0191734164546777,-0.0107716684564596,-0.000312588958582944,-0.0525122325225581,-0.0028689819853199,-0.00303397938872271,-0.000258264078434381,8.66658051683202e-07,0.0018067914571421,0.00312588832837394,0.000693771429007265,0.00294297082032867,-0.00959922301815877,0.00184766607174695,0.00094711325226765,-0.00906037665129412,0.0479065935797181,0.0174169265986587,-0.053729278285484,0.0282222236385955,0.000192060563158134,-0.369641418019084,-0.00710893705385976,-0.0714763919512179,-2.89824961413838e-06,3.48516084959422e-05,9.24305378625741e-05,-0.000184377591693297,-2.75822805774374e-06,2.83510455001113e-06,-6.90654141429041e-05,2.83631474080991e-06,3.21243267517625e-05,3.15028155920659e-06,-6.50450099618161e-05,-0.00446698599938498,0.0674204722827328,5.72249080910756e-16,-0.000422344956658756,-1.57643387122735e-05,-1.91707601141219e-05,-5.4782011226214e-07,-1.16870803903657e-05,-1.98226308364336e-05,2.76935019447039e-05,-5.22034539899582e-06,-1.68550244981368e-06,-6.49667816336584e-06,0.000488250274588277,2.01230696373175e-05,6.29222321625498e-05,-0.00126663105303908,0.0014849814080274,-0.000447539642756283,-0.216963816614273,6.70184192118047e-05,-7.18289861962423e-06,-0.00934235416273121,-0.0028263367627116,-7.24706893168071e-07,-8.51289802954665e-16,-3.28140250461229e-05,0.000111085541827889,0.00133039134612516,0.000443110071396622,0.00612017508499362,3.65766311385773e-05,0.000134066369523774,0.000971472337583529,-5.09879843513657e-05,-2.18111510167587e-05,7.21056055842572e-05,-2.71215616441916e-16,-1.2547167982882e-10,-1.80106971687219e-07,-0.000115358608078509,8.52546678660203e-16,-0.00012263612639897,1.61576089444017e-15,6.37264624761137e-06,0.000386899809829007,1.58578798440275e-06,2.21743209531142e-06,1.51867864571273e-05,-8.46088386186151e-05,3.37594641170094e-06,-5.94158504964926e-05,8.94474294795391e-16,-0.000885970123546837,-0.000390773412595422,-2.9011062808965e-05,0.0507921827544709,-0.000644284040595964,-2.39283931743688e-15,0.000232933324632881,-3.23696151288467e-05,-3.80570558233631e-07,1.8054990044051e-16,1.25739755778984e-06,1.61117204763394e-06,6.63596970230612e-08,-1.53942779177894e-05,8.44162687793106e-06,0.000154957246075612,6.48090161556058e-05,-9.7179053164458e-10,5.62552875762733e-08,-1.35287640243581e-07,2.89069515750379e-05,-1.27283225820023e-07,-2.05511564656545e-08,0.0742433427855926,0.000299679390587981,3.92080827614e-07,1.43313733580877e-07,5.68564392008732e-15,2.44734293759326e-16,-4.93179264503472e-11,6.9006874643362e-10,7.10369263412503e-16,3.18451575896447e-09,1.16139304556711e-09,2.00324276932937e-06,-2.88482326234019e-15,1.96826204613238e-10,-3.36625194151388e-12,7.44859854595088e-12,1.592155809318e-15,1.63574913114367e-08,7.32619338879547e-16,-1.7809178210928e-15,-1.68255623529573e-14,-1.54368342217161e-15,-6.31715870422492e-11,1.00545695435788e-14,-2.7669870944318e-14,-4.51982114818358e-13,-0.399532343971488,-5.0065006507411e-15,2.57829246870324e-15,4.18268231314882e-15,1.53360756865424e-09,5.69315789132542e-09,-1.64847688061547e-09,-3.68069150225401e-15,-0.707106781186547,3.53853804024463e-14,9.04203667187485e-10,-5.67953973058948e-15,1.11408706261236e-14,-1.21455806971845e-14,-6.07614330049331e-15,-3.07145317634132e-14
