"","c1","c2","c3","c4","c5","c6","c7","c8","c9","c10","c11","c12","c13","c14","c15","c16","c17","c18","c19","c20","c21","c22","c23","c24","c25","c26","c27","c28","c29","c30","c31","c32","c33","c34","c35","c36","c37","c38","c39","c40","c41","c42","c43","c44","c45","c46","c47","c48","c49","c50","c51","c52","c53","c54","c55","c56","c57","c58","c59","c60","c61","c62","c63","c64","c65","c66","c67","c68","c69","c70","c71","c72","c73","c74","c75","c76","c77","c78","c79","c80","c81","c82","c83","c84","c85","c86","c87","c88","c89","c90","c91","c92","c93","c94","c95","c96","c97","c98","c99"
"Galium_spurium",-0.0983879101777741,0.103113183800753,-0.00999612775816657,-0.146249331102106,0.0023846123594996,0.00015343398157904,-0.0635767427917485,-6.57782155591458e-05,0.000124019866287414,-0.00138522512498367,-0.00951467915126019,6.59567911166911e-06,-2.82071855037817e-05,3.59207595904325e-05,-3.48148222752355e-05,5.77390592091893e-06,1.3987537026826e-06,-7.17222003277146e-06,-0.000187463284040526,-0.000127401493459169,-0.00268376714441471,8.42171703482936e-18,-2.33313922493933e-16,-3.88837967218593e-05,-0.00251206964608402,-0.00068156335878165,-0.188168916056619,-0.000319070889132964,-1.05753069709021e-05,5.25753531222335e-16,5.42470595244287e-05,3.25242032135319e-05,-0.00045839865021815,1.14872261628256e-05,-8.95452248160044e-16,8.12808106747019e-05,0.0087004631027551,7.24445436107194e-16,-6.83233634044596e-05,0.00528642847348823,-0.00346341976315466,-0.147063516863121,-0.000381778574785699,0.0169969794193309,-1.34137944536976e-15,1.96206821042178e-15,-4.40613998656093e-16,6.29052581629871e-07,-0.0640436010962872,3.23883969669431e-06,-2.90218724823187e-15,3.13707791487573e-15,4.83234501094465e-16,2.22602436845637e-15,1.28972065030661e-15,9.15326048040218e-14,1.0278975201334e-14,-4.32783969782382e-14,0.10132255366462,5.92373956424479e-05,-0.340645691277047,2.15637523921047e-08,-0.295846627146306,0.643623777017984,0.502409295617976,-5.30056472507748e-13,-0.040658266836888,-5.35512627984491e-07,1.52095600474317e-14,0.000254791026306635,0.00663344409260551,2.97611774342387e-15,4.46802439845154e-15,-7.75460794681437e-15,-7.5098507497781e-16,-2.77712116446607e-15,3.51471868569555e-16,5.85713707183548e-15,-3.25747065421328e-15,5.61308670240317e-08,-6.09887533425593e-15,-0.0173203082032236,2.70024963676124e-15,5.99079627693964e-16,-1.40229726983759e-15,-0.00266410572991372,-6.04756370445007e-17,-1.45746615205527e-07,7.81183695217572e-16,-5.01613872511078e-16,-1.00686712152276e-15,-0.000882469437181835,-4.04176295481716e-16,-5.94226747303003e-15,1.95030822036016e-15,7.44207747492572e-15,3.36389812676802e-15,5.88364588443825e-15,-5.27878565000347e-15
"Galium_binifolium",-0.0983879101777744,0.103113183800753,-0.00999612775816677,-0.146249331102106,0.00238461235949949,0.00015343398157975,-0.0635767427917473,-6.57782155618636e-05,0.000124019866287334,-0.00138522512498428,-0.00951467915126062,6.59567911118335e-06,-2.82071855034996e-05,3.59207595880976e-05,-3.48148222736728e-05,5.77390592036457e-06,1.39875370112049e-06,-7.17222003227242e-06,-0.00018746328404131,-0.000127401493458911,-0.00268376714441131,-1.72986674134273e-15,4.49337296646212e-16,-3.88837967206844e-05,-0.00251206964608523,-0.000681563358778097,-0.188168916056624,-0.000319070889135451,-1.05753069721423e-05,3.36382205869091e-16,5.42470595211973e-05,3.25242032123883e-05,-0.00045839865021732,1.14872261580804e-05,1.63844661299956e-15,8.12808106924822e-05,0.00870046310275342,-5.95131973046499e-17,-6.83233633773508e-05,0.00528642847348318,-0.0034634197631563,-0.147063516863123,-0.000381778574786005,0.0169969794193206,-5.85135145038855e-16,1.27033673809704e-15,-2.05315694694266e-16,6.29052578453212e-07,-0.0640436010963185,3.23883971076124e-06,-2.30465362137033e-14,-4.89492123896493e-15,-1.18886568956929e-15,3.1209720042636e-15,-1.17873463298047e-14,1.27580467456629e-13,1.43952236450956e-14,-1.49914812953692e-14,0.101322553664527,5.92373957063087e-05,-0.340645691276982,2.15637800146251e-08,-0.295846627143853,0.1132873245944,-0.80859918918705,9.97527137393166e-13,-0.0406582668374059,-5.35512857544239e-07,4.62544070113325e-15,0.000254791026331988,0.00663344409268369,7.74418440121097e-15,6.82671362432999e-15,1.35227979799186e-14,5.98730795435659e-15,8.28517591916824e-15,1.11741181662817e-15,3.91955388647862e-15,8.51905924932741e-15,5.61308650893035e-08,-5.23063193938172e-15,-0.0173203082032117,3.30203410098356e-15,1.33699813331532e-16,-1.30834202674954e-15,-0.00266410572993973,-1.61657757507061e-14,-1.45746618194133e-07,2.14593106982205e-15,-9.04908872023654e-16,-2.15562948461962e-15,-0.000882469437218855,3.47297678486086e-15,-7.13195469197973e-15,4.68881598035483e-15,1.62378654162446e-15,4.94046011753581e-16,7.14774705435275e-15,-1.13306211622841e-14
"Galium_tenuissimum",-0.0983879101777744,0.103113183800753,-0.00999612775816673,-0.146249331102106,0.00238461235949978,0.000153433981578644,-0.0635767427917483,-6.57782155600719e-05,0.000124019866287792,-0.00138522512498283,-0.00951467915125997,6.59567911321991e-06,-2.8207185505049e-05,3.59207595927018e-05,-3.48148222784659e-05,5.77390592144988e-06,1.39875370234539e-06,-7.17222003352991e-06,-0.000187463284041286,-0.000127401493458669,-0.00268376714441589,-3.53035023203728e-16,7.96116635683975e-16,-3.88837967239428e-05,-0.00251206964608404,-0.000681563358781219,-0.188168916056623,-0.000319070889133127,-1.05753069702718e-05,-1.73213335828628e-16,5.42470595257042e-05,3.25242032121932e-05,-0.000458398650218347,1.1487226164744e-05,3.43695687107942e-15,8.12808106742287e-05,0.0087004631027584,2.12104470457834e-16,-6.83233633962351e-05,0.00528642847348985,-0.00346341976315487,-0.147063516863132,-0.000381778574787253,0.0169969794193349,-5.50595830462549e-16,-8.81738090966664e-16,-1.79426748847684e-15,6.29052584024374e-07,-0.064043601096236,3.23883972156847e-06,3.37255840482495e-14,1.1610787123986e-14,8.06056157146795e-15,7.67961897079861e-15,-1.29153697930063e-14,9.4190963311779e-14,2.14456556260088e-14,-5.09501891895221e-14,0.101322553664585,5.92373956932971e-05,-0.340645691276963,2.15637150555321e-08,-0.295846627146717,-0.756911101611904,0.306189893567205,-1.55602168636519e-13,-0.040658266837155,-5.35512662981984e-07,-3.04409248485914e-14,0.000254791026281444,0.00663344409266343,-2.98948469996651e-14,-1.60964774235648e-14,-7.99387837880603e-15,-1.83426732314801e-16,1.42446628456692e-15,3.65370798686549e-15,4.09390985167918e-15,-2.09772727684219e-15,5.6130876872645e-08,-5.0286998342802e-15,-0.0173203082032311,7.5092560279771e-16,-5.16424993047295e-16,2.94828862992063e-15,-0.00266410572992001,1.25934657233288e-14,-1.4574662531613e-07,-4.72872300971597e-15,-2.32632675998004e-16,1.68477640638112e-15,-0.000882469437185304,-1.53532180605639e-15,-1.58149479617463e-15,5.19003280676149e-15,2.14933180982181e-15,1.85329568637953e-15,6.49145402763513e-15,-1.10452311478118e-15
"Galium_bolanderi",-0.0984483407059367,0.103219317296844,-0.0100181264639317,-0.146851710582544,0.00239636885432456,0.000154227506644647,-0.0642851533494327,-6.68255948284284e-05,0.000126435177472916,-0.00141278251927536,-0.0097111769325161,6.75395428103555e-06,-2.89434208011646e-05,3.68660690578117e-05,-3.57681344249114e-05,5.9518811194687e-06,1.44596210136062e-06,-7.42387876721679e-06,-0.000194113065999968,-0.000132958311877372,-0.00280199668150856,9.93591419183919e-17,-4.40890604628397e-16,-4.07948445195625e-05,-0.00264840961850961,-0.00072799531300845,-0.201186157973609,-0.000344457733372183,-1.161941751564e-05,1.4158462176147e-15,5.99302256168982e-05,3.60107746524781e-05,-0.000509531094398107,1.29310075176892e-05,1.19632647614259e-15,9.26207416143431e-05,0.00993065738022892,-1.30001655849521e-15,-8.20562705756879e-05,0.0064356755922299,-0.00425477635322575,-0.180771443227426,-0.000480479376462327,0.0215316623747837,-1.38074556365385e-15,2.28923664434621e-15,2.32060899316613e-15,9.45938155568072e-07,-0.109253686459787,6.97853531045644e-06,-1.38212177389056e-14,-1.05828690896252e-14,-1.18788951790634e-14,-5.85673153789317e-15,1.36491434154343e-14,-2.50540070221558e-13,-1.10953606400829e-14,1.10686101875493e-13,-0.266936012168695,-4.2693749360887e-05,0.188546662498043,-8.072625397148e-09,0.0061282676889711,-1.15380632565582e-13,-2.52409204648529e-13,6.24636116790785e-14,0.866586092408764,-3.4810048982519e-07,-6.83471071049721e-14,0.000166788425660218,0.00443172171923551,9.11515046411913e-15,-6.69685616200226e-15,1.06984755890502e-14,-2.77223758358097e-15,2.14767273780622e-15,8.93644749425569e-16,-3.07471865130956e-15,2.43032721935829e-15,4.39080447276461e-08,-2.43703116273146e-15,-0.0136411197655327,2.695369233487e-15,1.3936570708389e-15,-2.77350905952131e-15,-0.00220013975953681,2.72527626446668e-15,-1.21299512191016e-07,-1.4916003649921e-15,-5.49341202515573e-16,1.18297459369343e-16,-0.000753729569509393,-1.75377946085588e-15,-5.49270030964428e-15,6.95289741014698e-15,1.67932449423789e-14,2.16130140265493e-15,7.24649855795363e-15,-5.1166196247816e-15
"Galium_palustre",-0.098472729805573,0.103262142749125,-0.0100269978932851,-0.147094402009679,0.00240110351170109,0.000154547042610224,-0.0645695875204557,-6.72451678055985e-05,0.000127401113468805,-0.00142380116271336,-0.00978971739330026,6.81711875236871e-06,-2.92369526680158e-05,3.72429200086048e-05,-3.61479899612452e-05,6.02268583287271e-06,1.46471847783679e-06,-7.5238054521551e-06,-0.000196753056022732,-0.000135156483330706,-0.00284875713989506,-3.36171632624583e-16,-1.50480307673268e-16,-4.15490151001658e-05,-0.00270209735917008,-0.000746174865216778,-0.206280643774378,-0.000354352291935692,-1.20233976070917e-05,1.26827979141629e-15,6.21242381663581e-05,3.73555895565124e-05,-0.00052922264203023,1.34842617516266e-05,1.92270478293165e-16,9.69458595108867e-05,0.0103995682708511,1.94360974062808e-15,-8.71957040944478e-05,0.00686379976969414,-0.00454869041836321,-0.193288344353308,-0.00051685310924089,0.0231993814140637,-2.02475059432333e-15,3.15370273427455e-15,-4.57850746534693e-15,1.05719479862306e-06,-0.124704784171653,8.20818162607415e-06,1.50692206846015e-14,1.3537994963846e-16,-5.96488794452083e-15,-9.25262514224085e-15,6.47807087298193e-15,-3.38486750475618e-13,-1.62420293388851e-14,1.57637078239142e-13,-0.365831092524182,-6.58983185351902e-05,0.302508845916403,-1.38537972347653e-08,0.0210366706040046,8.08723747691698e-14,1.94455562763096e-13,-7.02392503598356e-14,-0.348560091905184,-1.5313015945165e-07,-0.707106781186528,0.00010607763586208,0.00303762603029217,-8.75507266643876e-16,3.12761484863885e-15,2.39735844329375e-16,-2.84896917239367e-15,-3.56933279834786e-15,3.60066658898847e-15,1.549362528776e-15,-2.08207506524333e-15,3.80286952044397e-08,-7.41165678338436e-16,-0.0118837434934924,1.24790675089816e-15,-4.58246256745542e-16,-2.31962930235789e-15,-0.00198808701711612,-1.38383833555606e-15,-1.10198523555698e-07,-1.27912006001101e-15,5.71169782053578e-17,2.10457720839327e-16,-0.000696462796659622,-2.00026411724873e-15,-9.73811090352095e-16,1.66587580469943e-16,1.11090612267245e-14,1.35622239578476e-15,6.38461857136441e-15,-3.95132538506815e-15
"Galium_bifolium",-0.098472729805573,0.103262142749125,-0.0100269978932853,-0.147094402009678,0.00240110351170124,0.000154547042610164,-0.0645695875204554,-6.72451678052665e-05,0.000127401113468648,-0.00142380116271349,-0.00978971739329989,6.81711875220794e-06,-2.92369526684819e-05,3.72429200079225e-05,-3.61479899615721e-05,6.02268583241088e-06,1.46471847756718e-06,-7.52380545203857e-06,-0.000196753056023556,-0.00013515648333042,-0.00284875713989441,-9.02209598454186e-16,1.64812546204566e-16,-4.15490150999332e-05,-0.00270209735916931,-0.000746174865215285,-0.206280643774385,-0.000354352291934993,-1.20233976069469e-05,1.95078650079377e-15,6.21242381651068e-05,3.73555895565409e-05,-0.000529222642027984,1.34842617520469e-05,1.49772079643323e-15,9.6945859509469e-05,0.0103995682708613,2.17825200552169e-15,-8.71957040960915e-05,0.00686379976968803,-0.00454869041836215,-0.193288344353317,-0.000516853109241771,0.0231993814140604,-1.69342591821611e-15,1.28783464966096e-15,-2.07043455126295e-15,1.0571947983799e-06,-0.124704784171673,8.20818162325904e-06,-3.09164408136971e-15,9.00770082506137e-15,-2.73635866408821e-15,7.30474740627091e-15,8.0705729433847e-15,-3.34286481484681e-13,-1.68118191353324e-14,1.58946771506631e-13,-0.365831092524194,-6.58983185250868e-05,0.302508845916397,-1.38537986457994e-08,0.021036670603994,3.34242182542521e-14,2.0236590181355e-13,-2.45315529459214e-15,-0.348560091905082,-1.53129907615386e-07,0.707106781186567,0.000106077636107075,0.00303762603045735,5.13290864560517e-15,4.00789656840281e-15,-3.89842955278668e-16,3.01930183410744e-15,-4.15205133275382e-15,-3.63916931667433e-15,-3.96916415601294e-15,6.7795319154634e-16,3.80286942541266e-08,-3.74597984097734e-15,-0.0118837434934649,-5.17518834021325e-16,-5.39856582156019e-16,4.18654406550299e-16,-0.00198808701710779,6.04069299222784e-16,-1.10198521307069e-07,1.03789323108182e-15,1.17956361500749e-16,3.51415738289431e-16,-0.00069646279666828,-1.17481668854206e-15,-6.77265642770888e-15,2.50243492722208e-15,5.46836743801869e-16,8.19840547119656e-17,6.19616470134628e-15,-4.66935244628694e-15
"Galium_album",-0.100108164769389,0.106167016100246,-0.0106489722788681,-0.165094670650039,0.00276104436589364,0.000179020783002428,-0.0912345773190265,-0.000114986750125061,0.000257724938383658,-0.00294347416339914,-0.0210753411693668,1.79317529599223e-05,-8.92973829057943e-05,0.000115654225402042,-0.0001223727622087,2.87078638738199e-05,1.06560935725002e-05,-7.19863090257222e-05,-0.00206965789528009,0.00130394576522452,0.0249373302260805,1.29108846087099e-15,-6.78837885922327e-16,0.000175257464830023,0.00751196844201936,0.00108679733792545,0.290054615147104,0.000372168575246775,8.65339877679301e-06,-8.26875702234078e-16,-4.07272691416274e-05,-2.36426143966178e-05,0.000315528854500044,-6.77205913722285e-06,-2.86396347689641e-16,-4.22443165470233e-05,-0.00445203459807467,-2.8699641214894e-16,2.41254742254642e-05,-0.00173354685063688,0.00108518500755681,0.0459488921728403,0.000107324079541634,-0.00465244995604258,-1.42273163126549e-15,6.03502323132536e-16,8.87853418711244e-16,-1.08345747888668e-07,0.00908299521372977,-3.66051827991774e-07,-8.83060968897484e-16,-6.58939698797852e-16,-2.15917777647861e-15,7.99979129021216e-16,-2.52520577909064e-16,-7.5447884284058e-15,-3.71212914312673e-17,3.99105255275915e-15,-0.00535724797813933,-2.0854512848769e-06,0.010669978977753,-5.57646814801143e-10,0.00119817955035025,1.69413636764981e-14,3.4333647036533e-14,-9.71417284861102e-15,-0.00100377944029249,-3.46353004429448e-08,-5.24358730402639e-14,4.69979091333521e-05,0.420781290260521,3.33801885809629e-15,-1.74940449191644e-14,-6.56042690973682e-15,-1.13859503758506e-15,8.21753973817834e-16,3.24315531751884e-15,-3.53194954150827e-15,5.62540698833584e-18,3.01139338658827e-08,-3.83622100909964e-14,-0.131842985312138,-6.97672878370775e-16,9.92931410821431e-15,-1.54422971451821e-15,-0.0575503054341991,-1.6667406033251e-15,-6.73345702421192e-09,2.54415619226424e-14,-1.1131723162566e-15,2.5140767529553e-14,-0.384186843295448,3.83735256172186e-14,4.4404790946183e-14,7.72497438753222e-14,-0.707106781186581,3.38209551239873e-13,5.43769385348278e-14,-3.18103479796279e-14
"Galium_lucidum",-0.100108164769389,0.106167016100246,-0.0106489722788681,-0.165094670650039,0.00276104436589379,0.000179020783002164,-0.0912345773190272,-0.000114986750125481,0.000257724938384286,-0.00294347416339944,-0.0210753411693669,1.7931752961721e-05,-8.92973829051937e-05,0.000115654225402698,-0.000122372762210638,2.87078638754548e-05,1.0656093569265e-05,-7.19863090258948e-05,-0.00206965789527858,0.00130394576522476,0.0249373302260807,7.81153704800605e-16,-6.60038990177515e-16,0.000175257464830096,0.00751196844201723,0.00108679733792581,0.290054615147105,0.000372168575247214,8.65339877596509e-06,1.0313630183288e-16,-4.07272691433193e-05,-2.36426143946351e-05,0.000315528854502802,-6.77205914078112e-06,1.21251524063773e-15,-4.22443165464141e-05,-0.00445203459807633,-1.0068605832965e-16,2.41254742190074e-05,-0.00173354685063532,0.00108518500756052,0.0459488921728405,0.000107324079543052,-0.00465244995604246,1.66444589836728e-16,-4.87363964977378e-16,-1.91120064380636e-16,-1.08345746159679e-07,0.00908299521373361,-3.66051829270853e-07,1.08183558735184e-15,-3.47812023094704e-16,1.26480169321052e-15,-5.05769753216807e-16,-3.14464440061944e-16,-9.188498657273e-15,-1.61160294302596e-15,4.61490225383632e-15,-0.00535724797813972,-2.08545129132675e-06,0.0106699789777426,-5.57647831409595e-10,0.00119817955034866,1.25421049414209e-14,2.9920510513648e-14,-9.47099110447918e-15,-0.001003779440306,-3.46353006665814e-08,-4.16389541257842e-14,4.69979091372074e-05,0.420781290260527,1.42220500198601e-15,-1.50424182002779e-14,-7.73693780604351e-15,-2.21649361713226e-15,2.61983190489929e-15,2.22267436643576e-15,4.94661132863383e-15,1.60750923942967e-15,3.01139342608871e-08,-4.1327216195459e-14,-0.131842985312149,1.32260805334652e-14,-4.8959550125783e-17,1.19949404417931e-14,-0.0575503054342141,7.86530736284237e-15,-6.73346921356988e-09,6.24332832087703e-15,-5.38151039208468e-15,1.03941402950942e-14,-0.384186843295583,-4.52394147156552e-14,-4.23487323902451e-14,-9.68291937250451e-14,0.707106781186514,-3.37589289108075e-13,-3.28415120258675e-14,4.79828444378738e-15
"Galium_sylvaticum",-0.10007551106856,0.106109149908558,-0.0106366622708488,-0.164742132924202,0.00275402584016892,0.000178544190081498,-0.0907315062916614,-0.000114107891188626,0.000255368204728026,-0.00291604986324053,-0.0208724403422028,1.77351645477419e-05,-8.82457741972468e-05,0.000114282722058747,-0.000120872231836744,2.83194282156584e-05,1.05008279190496e-05,-7.09040203885514e-05,-0.00203826793233545,0.00128068658972525,0.0244890993434865,4.28686538979239e-16,-4.01974526803846e-16,0.000171835936743477,0.00735421050344432,0.00106002146622508,0.282833849175412,0.000362007922895071,8.38338932391606e-06,8.99941906994847e-16,-3.94114998544864e-05,-2.28686158163957e-05,0.000304963116739559,-6.52992977223158e-06,6.83140416105109e-16,-4.06493877880396e-05,-0.0042828048916344,1.85842812851689e-16,2.30466302355833e-05,-0.00165349587646161,0.00103408061264885,0.0437823991330907,0.000102030871768361,-0.00442040447538535,5.92827534919793e-16,-6.43871678708089e-16,5.37751585808555e-16,-1.01862908406377e-07,0.00850184056286407,-3.40932906754116e-07,-1.36571799568091e-15,-1.90360066037824e-16,-2.04695797038848e-15,-4.75042681703419e-15,1.26373141517778e-15,-6.95687767818557e-15,-4.25800701876586e-16,1.6860978264786e-15,-0.00492240762165975,-1.90674309123854e-06,0.00974450761229493,-5.08448144927657e-10,0.00108501609957068,1.45009872165591e-14,-5.88418203051333e-15,-4.84993359369523e-15,-0.000900691001808367,-3.07547918645497e-08,-3.40136815531094e-14,4.12646085337343e-05,0.367318955083713,2.90164347000934e-15,-1.08020543658791e-14,-1.00421623983173e-14,2.59683496799241e-15,4.39170667939986e-15,-5.28362151909871e-15,-7.34807698331605e-15,-5.69462844801625e-16,2.36012246710895e-08,-3.24190663327567e-14,-0.101887533789226,-9.28770158815742e-15,-3.72662879780743e-15,-1.27731537217594e-14,-0.033800817496924,-1.77187066190406e-14,-3.37644668147014e-09,-3.04637536508171e-14,8.22630170421414e-15,-3.88536614169868e-14,0.838769177091841,7.90108450449842e-15,-1.7082133548589e-14,2.52270530901127e-14,8.39231970507127e-14,8.6379066531522e-15,5.31519757578158e-16,1.56678218909184e-14
"Galium_saxatile",-0.0999649059758059,0.105913002760264,-0.0105948508521421,-0.163540814932097,0.00273007679199882,0.000176917275860825,-0.0889976082550256,-0.000111056660118812,0.000247143530291543,-0.00282028549026359,-0.0201631552359321,1.70447323648548e-05,-8.4541878307216e-05,0.000109450718633892,-0.000115578117736773,2.69427836623296e-05,9.9485072796624e-06,-6.70476200597339e-05,-0.00192636639874056,0.00119696339265759,0.0228748502024793,-4.37476529002263e-17,-1.35755969599382e-16,0.000159443325643814,0.00677967281367402,0.00096115715398555,0.256146414455024,0.000324103832558715,7.36045885007634e-06,-1.04974887585592e-15,-3.44044753792556e-05,-1.99180970698876e-05,0.000264563065168919,-5.59540541681439e-06,-5.52960545484633e-16,-3.44417137420324e-05,-0.0036234236655439,-1.05838387916539e-15,1.87182015251487e-05,-0.00133019352484051,0.000826817955284345,0.0349934984279021,8.03398279761696e-05,-0.00346700767216368,9.25291703018281e-17,-8.12277730249242e-17,-7.94664122649745e-16,-7.38691612107512e-08,0.00593525452617736,-2.27001531622676e-07,1.57853570498492e-15,-1.117241875713e-15,5.37292895975305e-16,5.75940239663135e-15,-3.54774142882342e-16,-4.92062676436514e-15,-4.1895541594719e-16,2.80687399182966e-15,-0.00278061748196865,-9.95497416890758e-07,0.0049853643851632,-2.52258547767663e-10,0.000461276862494586,-1.04438484770097e-14,-2.59237076249974e-14,3.04682390009874e-15,-0.000277361809131209,-3.66001424886005e-09,2.17148336559808e-14,-1.01809863924799e-05,-0.229401712036136,-2.65912161659336e-15,1.07558712669406e-14,3.67818598106528e-15,5.7516594126234e-16,3.00902964731677e-15,6.02415689999156e-15,7.66344471707601e-15,-2.90153882397193e-15,-4.96352771440156e-09,1.29609541976862e-14,0.0423540491335944,-3.22646939001602e-14,-2.07713484165626e-14,-9.17367354503316e-15,0.900522841862645,6.66239265122628e-14,-8.82406321485533e-08,-4.41198735710356e-15,9.21850056051216e-15,-2.00024141168837e-15,-0.0268661775808748,-6.36352660798451e-16,-5.24499716914583e-15,8.37667329414808e-16,1.45464189597643e-14,1.02195260436682e-14,1.25484037563e-14,-1.45318126984751e-14
"Galium_parisiense",-0.10006947128062,0.10609832512638,-0.0106342868238069,-0.164670725514294,0.00275257598285641,0.000178445168133682,-0.0906123798657417,-0.00011387994211772,0.000254718287824525,-0.00290843461663527,-0.0208153977296691,1.76769347166474e-05,-8.79244611528946e-05,0.000113862362530279,-0.000120405292172044,2.81927429276888e-05,1.0448246930294e-05,-7.05313806346235e-05,-0.00202740934561351,0.00127186054078972,0.0243182221564285,-2.27870149791421e-17,-3.4337984411453e-17,0.000170462311829812,0.00728774422747354,0.00104736925316309,0.279394771527277,0.000356802516269072,8.22829644649164e-06,-2.64194119331679e-16,-3.86314434871801e-05,-2.24040929617614e-05,0.000298486189515316,-6.37177465924732e-06,1.00817440060162e-15,-3.9548553592929e-05,-0.00416517735542726,-4.277287879382e-16,2.21489079932997e-05,-0.00158427412007967,0.000988816159081659,0.0418606024459987,9.70620040806586e-05,-0.00419940543077214,1.58389145861705e-15,-6.90356337181615e-16,2.02733441977394e-15,-9.38796967106299e-08,0.00770532927142598,-3.02089516575865e-07,-8.34190473349971e-16,-5.00052831303856e-16,1.29506529937026e-15,2.37951555271367e-16,-2.18209481815152e-15,-9.31919691046918e-16,-1.16544348611845e-15,4.99564072873164e-16,-0.00397939522473264,-1.46587283867091e-06,0.0073907867578439,-3.77660283519857e-10,0.000720626959040301,-1.21929918418806e-14,-2.24265050974282e-14,8.45555517076682e-15,-0.000460704969178214,-6.56641854076922e-09,6.35082847827203e-14,-2.004724636488e-05,-0.476110963210821,1.03611975121542e-16,1.49163128181863e-14,8.16271846363292e-15,-3.09980618919274e-15,-7.12940281921321e-15,1.49030161442458e-14,9.82083565052987e-15,3.89744960062301e-15,5.39751496427904e-08,-7.71069645999456e-14,-0.233154405018918,1.51398548034308e-14,4.80645529821868e-15,1.32411697526799e-15,-0.266640835826818,-1.49122767107354e-14,9.59463168931503e-09,4.82014944654941e-15,1.10169953224079e-15,8.60213478243182e-15,-0.00808232498264607,9.60137258774872e-15,-1.34714441544176e-14,3.34240165049386e-14,-1.55287922755033e-14,-2.2722826680261e-14,-6.48817345245717e-14,0.707106781186546
"Galium_murale",-0.10006947128062,0.10609832512638,-0.0106342868238069,-0.164670725514294,0.00275257598285629,0.000178445168133962,-0.090612379865742,-0.000113879942117079,0.00025471828782438,-0.00290843461663623,-0.0208153977296695,1.76769347156472e-05,-8.79244611531579e-05,0.000113862362529992,-0.000120405292172112,2.81927429279053e-05,1.04482469305242e-05,-7.05313806342136e-05,-0.00202740934561336,0.00127186054078963,0.0243182221564273,2.18618765171654e-16,-5.01953233484277e-16,0.000170462311829517,0.00728774422747467,0.00104736925316267,0.279394771527276,0.000356802516269283,8.2282964466749e-06,-1.01030269144657e-15,-3.86314434870845e-05,-2.2404092962649e-05,0.000298486189514519,-6.37177465846123e-06,7.40569021760379e-16,-3.95485535933115e-05,-0.00416517735542872,2.00751225991281e-16,2.21489079868563e-05,-0.00158427412007967,0.000988816159081331,0.0418606024459959,9.70620040808893e-05,-0.00419940543077452,1.03855101051795e-15,-4.58340857804541e-16,7.96171259695071e-17,-9.38796953050702e-08,0.0077053292714211,-3.02089521144315e-07,2.1402514598554e-15,-2.27110749954613e-16,7.54770166023711e-16,-4.60303460639943e-16,-7.10307540252219e-16,1.72925713297813e-15,-2.80476205637868e-15,-3.93470897559271e-15,-0.00397939522472882,-1.46587284068944e-06,0.00739078675784469,-3.77659973907898e-10,0.000720626959049522,-1.79244639963994e-14,-1.35724764760425e-14,7.08131858620336e-15,-0.000460704969179175,-6.56641611496653e-09,6.28143953923295e-14,-2.00472463697031e-05,-0.476110963210822,-1.81884136769337e-15,1.3801776473263e-14,8.98450568123968e-15,-4.07416538576904e-15,-9.51294730725946e-16,1.81091987512501e-14,9.72355005866303e-15,2.62763892509627e-15,5.3975145539171e-08,-7.73417846193687e-14,-0.233154405018926,9.06485442861022e-15,7.50356120736214e-15,-2.53930423673206e-15,-0.266640835826832,-1.65094215587722e-14,9.59463490281526e-09,-1.17553200034919e-15,-7.79089704027823e-15,-9.07790307695125e-15,-0.0080823249826119,-1.77560247978475e-14,7.74757448795047e-15,-2.46087493727436e-14,2.11918342639738e-14,1.73919413830653e-14,7.23251171738613e-14,-0.707106781186548
"Galium_triflorum",-0.0997975809353997,0.10561632591592,-0.0105316446787236,-0.161726403000063,0.00269391889384823,0.000174461260392844,-0.0863872406655602,-0.000106472967446974,0.000234807644391825,-0.0026766787277881,-0.0190998797048587,1.601124284902e-05,-7.9002711389434e-05,0.000102225148059816,-0.000107665193617821,2.48882171807654e-05,9.12522973855703e-06,-6.1302615944491e-05,-0.00175969021961779,0.00107268237576656,0.0204790461256378,4.66021491801422e-16,5.27178798059756e-16,0.00014108896222913,0.00593049231889073,0.000815819978585339,0.216929792628115,0.00026861991064159,5.87324565060006e-06,-4.37188527988528e-18,-2.71398069850177e-05,-1.56406957953876e-05,0.000206078947102364,-4.24869693929242e-06,8.21245630426274e-16,-2.55339175084726e-05,-0.0026777653553056,2.14810591953049e-15,1.26099061927757e-05,-0.000875737833973513,0.000536217425955841,0.0226726777227036,5.01239206380082e-05,-0.00214115405511984,3.75739524448787e-16,-3.02045226917332e-15,-1.89661971064959e-15,-3.63004222100368e-08,0.00255383317462017,-8.04524562667493e-08,-5.15350137345322e-16,8.50721300812628e-16,1.54805187147895e-15,-5.0641581645059e-15,-7.76915851363558e-17,1.4099263485173e-15,2.57998697254112e-15,2.11893707703733e-15,-0.000261612358879356,2.8829161473249e-08,-0.000301660307469746,2.72875649356644e-11,-0.000160457132495705,-9.12318181070515e-15,1.11022302462516e-14,9.14170237402363e-16,0.000240792370425702,1.14878601911802e-08,-7.8479137690438e-15,-1.49539704529332e-05,-0.0689558537508827,-7.46499361870099e-16,1.00429941529107e-14,3.59096419328321e-15,8.43562075272049e-15,-4.12379492760109e-15,-4.78992354647274e-14,-2.09781130282712e-14,-7.99892142614868e-15,-1.73596952461687e-07,2.93646124751783e-13,0.917883265837663,1.82198084534519e-14,8.55907609676656e-16,1.04439959560451e-14,-0.197614107917343,-2.20639521144153e-14,-7.28414748085585e-08,-1.7486716855069e-15,-7.35429725034932e-15,5.17321430828592e-16,-0.0202353204000946,2.39154286276262e-15,-7.13133146202139e-15,5.67306584157659e-15,1.00789404260527e-14,5.92070242877076e-15,2.58176628510538e-15,-9.41416676382204e-15
"Cruciata_glabra",-0.0983531502260488,0.103051754035952,-0.00998316227420478,-0.145882940123929,0.00237736023732498,0.000152942385847652,-0.0630811761860767,-6.49472768630096e-05,0.000121864226999429,-0.00136024247909639,-0.00933121288383344,6.42389417248877e-06,-2.73088856764909e-05,3.475198620247e-05,-3.35512500863212e-05,5.45973346199333e-06,1.27768436870635e-06,-6.34292627974848e-06,-0.000163533784031114,-0.000143142085362267,-0.00298498327133822,-3.8419958129201e-16,5.34667078836112e-16,-4.0990580408786e-05,-0.00259997382384465,-0.000692004590218114,-0.190889097314236,-0.000321534258665164,-1.05693573383798e-05,-1.22190297653797e-16,5.41030314544745e-05,3.24117572644619e-05,-0.000456180230673001,1.13838972604561e-05,-1.10406625962844e-16,8.0247884194679e-05,0.00858567881003038,-1.16538103493783e-16,-6.64677687236505e-05,0.00512414742354807,-0.00334897373831659,-0.142181800084653,-0.000366797656867539,0.0163016394578924,-1.12029548526161e-15,1.04093580114838e-15,-2.8099007188398e-15,5.75580917536234e-07,-0.0564002677441519,2.62192474816605e-06,-1.28398696422642e-14,2.75688557654246e-15,3.61969095635146e-15,-9.83810477478898e-17,-2.07077107231409e-15,1.24733165687878e-13,4.9056115184522e-15,-8.84119658341562e-14,0.142632421041049,6.44707835393751e-05,-0.355402261373632,2.10271918421594e-08,0.85794335388626,-5.25473978565949e-13,1.80200299126909e-12,-3.24112524512437e-13,-0.0313840505074729,-6.36097862409034e-07,4.95307921750623e-15,0.000291134036189147,0.00603684619842216,2.34186729010414e-15,1.05432747032468e-15,1.79472084306021e-16,-2.61015036588351e-15,5.14860718827763e-15,-6.52736948037786e-16,-1.45448377921372e-15,-1.564949329396e-15,5.98219417319243e-08,-6.76556069521267e-15,-0.0165042355651997,2.13766384692696e-15,-1.59236846721144e-16,-2.54933300029515e-16,-0.00256300285761339,7.38738384773155e-16,-1.54005122228094e-07,2.07058636555196e-15,-1.13011835154157e-15,-2.6726664542942e-15,-0.000854461051467756,-2.02586617777326e-16,-6.24863401429711e-15,2.15848376684706e-15,4.95473765795686e-15,4.72338921359984e-15,6.85390601913732e-15,1.43525153980365e-15
"Sherardia_arvensis",-0.098005812475171,0.102438124067261,-0.0098537734989095,-0.142232619070191,0.0023051609513227,0.000148049338033531,-0.0581784141185594,-5.67738165678742e-05,0.000100764186066025,-0.00111585572457772,-0.00753854299504971,4.75439632007607e-06,-1.86112240585686e-05,2.34400036261127e-05,-2.13463474866728e-05,2.44646323979551e-06,1.24305611169149e-07,1.53101940940911e-06,6.34451547563977e-05,-0.000288729502693739,-0.00576647959461814,-4.17799084026612e-16,-6.96016055373569e-17,-6.00316660834908e-05,-0.00337261397749344,-0.000771898343149014,-0.211338171056626,-0.000334624534390178,-1.00919560545903e-05,-4.41781464631154e-16,5.04414946136223e-05,2.99356564450265e-05,-0.00041442669209214,9.81437068864236e-06,-2.22253165880878e-15,6.57785275454925e-05,0.00698945292866169,-1.29958454320696e-15,-4.29555594806403e-05,0.00308453496647332,-0.00191631989120723,-0.0810854928448411,-0.000180563803287434,0.00766806484778932,-2.66055111760136e-15,1.73202110773311e-15,-2.03647306374252e-16,-9.05085530898332e-08,0.0400955450202468,-5.36223612788172e-06,-2.86596230870141e-15,6.15428029134326e-15,8.34734093117313e-16,-4.11979069410072e-15,1.12546892864203e-15,6.738597584117e-13,-6.41662320197068e-16,-3.25241383029479e-13,0.765605209437692,8.29039122951189e-05,0.553436332048484,6.47250356531933e-07,-0.0205839687726024,3.51855046834548e-14,-7.66053886991358e-14,3.9229363889174e-14,-0.00940440266621724,-1.43220119611297e-06,7.86864716215198e-15,0.000605628982555449,0.00338372989078735,1.86665532500525e-15,2.5891978828625e-16,-3.01851996251931e-15,-1.34233100760723e-15,-3.83724704954205e-15,-2.37720514883931e-15,-5.58058039419876e-16,-2.9178274000996e-16,9.65737292554312e-08,-6.81732508676043e-15,-0.0119050295872843,1.36531119387307e-15,3.28367489596614e-16,-2.36223908344011e-16,-0.00196051440261822,1.49790703759502e-15,-2.36321432693119e-07,-5.16044814208508e-16,-4.26741660243154e-16,-1.13630214387958e-15,-0.000680824232251226,-2.27372443480795e-15,-4.43681622664595e-15,2.9607383681579e-15,1.08154269718235e-14,1.90650276584932e-15,6.80809646527931e-15,-2.43048227751937e-15
"Rubia_cordifolia",-0.0968299723633494,0.100360574399797,-0.00941557719431584,-0.12986520505142,0.00206051260757516,0.000131468531886525,-0.0415580994839406,-2.90819521414727e-05,2.93526334428705e-05,-0.000288883216345274,-0.00147434075430659,-8.82957913553531e-07,1.07142689363484e-05,-1.46936097732213e-05,1.97609031100744e-05,-7.66737389912632e-06,-3.73231889641548e-06,2.78063963170976e-05,0.00082040565143239,-0.00076559147940808,-0.0148653522150386,-2.30305587578089e-16,1.04169979777267e-16,-0.00012118354491014,-0.00578780950472672,-0.000980240826756926,-0.263132552923712,-0.000343825013856712,-6.86858073747369e-06,1.22573792718361e-15,2.89643222275288e-05,1.58963593330687e-05,-0.000187831707563628,1.87433700129038e-06,-2.89964842581866e-15,-5.6077377000101e-06,-0.000871284982737939,-1.90442573537399e-15,7.40541439178095e-05,-0.0071936323055832,0.00537143066962903,0.229899937502085,0.000793679336296969,-0.0378674375333885,6.20945934899639e-15,-3.6123346623364e-15,7.17025320268032e-15,-4.68123142390134e-06,0.897256934467397,-0.00014573732754976,1.06791610832132e-14,-2.14279134581274e-14,1.74640100395811e-14,1.10648727100414e-15,-4.58702116759221e-15,-1.32987845615651e-13,-1.52939269298605e-15,6.42602769492784e-14,-0.150503243887306,0.000148237323852884,-0.015187819733874,6.93960216373928e-07,-0.00228372919275998,3.98214447527856e-14,-3.05311331771918e-14,-1.03741805601637e-14,-0.00190162101873756,-2.97526302742049e-06,1.0556341985821e-14,0.00128102999165949,0.00115188965629502,2.38817522193613e-15,2.82460902453984e-18,-3.76479680205243e-15,1.61515650508153e-15,-4.10950063413601e-15,-6.71638839625491e-16,3.00862862612051e-15,-1.51592044316856e-15,1.96660439873685e-07,-1.28908290708771e-15,-0.00582411536529219,9.6043797947077e-16,1.49931008829053e-15,-9.39574352254169e-16,-0.00106554897229846,-7.66326446877115e-16,-4.72393577003965e-07,9.00606231733774e-16,-3.87899403067219e-16,9.49542912931944e-17,-0.000400322675717478,6.54900169463048e-16,-4.67273334024196e-15,3.06119476407588e-15,4.35633192541679e-15,2.23120354986287e-15,5.03667878198058e-15,-7.87412520310144e-15
"Kelloggia_galioides",-0.0954462126192429,0.0979154827395502,-0.00889976366185522,-0.115303667805246,0.00177243869399578,0.000111944211697892,-0.0219872259815805,3.49943077690471e-06,-5.45668759701287e-05,0.000682760168062811,0.005648235490548,-7.49140753128559e-06,4.50371914393428e-05,-5.9317664812356e-05,6.78196053921814e-05,-1.94481043300843e-05,-8.20643750370962e-06,5.82223667614922e-05,0.00169606449395817,-0.00130627912606687,-0.0251668292529278,3.6804533004159e-16,-4.02918129208385e-16,-0.000188930761011271,-0.00837401959287456,-0.00114431379843002,-0.301273694490995,-0.00030752306379284,-7.94071987368987e-07,8.97694559906939e-16,-9.45052839864348e-06,-8.87534294714392e-06,0.000204951805244646,-1.15491490634051e-05,-4.87255273362407e-15,-0.000126186168456539,-0.0141605470684668,-1.61253214326452e-15,0.000289837088483183,-0.0268599979472297,0.019705478323643,0.842701707469587,0.00288106673031323,-0.138056322541469,4.20738846624144e-15,-6.55202190581192e-15,3.92392447886391e-15,0.000174959323207484,-0.366554674050933,-0.000109395226292185,-6.27134479817568e-15,5.72787178607056e-15,-8.7521714238247e-15,-3.8158855303699e-15,3.05195434436915e-16,-3.02560397610436e-14,-1.02544493156078e-15,1.51022079081071e-14,-0.0318016934584905,0.000226169883972594,-0.0042856338467611,1.05521271684847e-06,-0.000799215544188853,-2.09980687351785e-14,1.88321580552042e-14,-1.04368188211255e-15,-0.000760456399193202,-4.57523087958666e-06,-2.84996354228651e-15,0.00197783484361244,0.000556975588626102,-3.906154044775e-16,-2.44994158852363e-17,1.03076314275986e-15,-4.90818433933304e-16,4.54687549488312e-16,-9.36998878726161e-16,-1.74241201195518e-15,-9.21976400870067e-16,3.03467838230358e-07,-1.33598513362957e-15,-0.00340187289082722,1.4920733613403e-15,-6.88846962797131e-16,-5.30950301927644e-16,-0.000663953100934084,8.22809724819935e-16,-7.27255894740308e-07,1.15902163272495e-16,-1.16286286554714e-16,-7.21060085419894e-16,-0.000262556896997854,-1.35237405935265e-15,-6.02612379758872e-15,2.91065978486547e-15,7.82894707712262e-15,1.85412814819501e-15,6.48143086408984e-15,-4.86505675076315e-15
"Coprosma_robusta",-0.0865803304215129,0.0816989904763945,-0.00511518143360621,0.0124581208272657,-0.000970631683895141,-7.87148042627257e-05,0.416858489855012,0.00526981299148075,0.00442892746660265,-0.0445702908878744,-0.264469456306684,0.000134205303883359,-0.000543175216671408,0.000690560827025426,-0.000670209829757022,0.000124222355637225,3.89145084429723e-05,-0.000244544489252472,-0.00688906368715239,0.00286151926933851,0.0534980952531213,-5.06719734441421e-16,2.90268481776845e-16,0.000284575985393133,0.00878990284895259,0.000162730155261099,0.0233534779234143,-0.000207833607152505,-1.36479225292831e-05,3.48430111699268e-16,7.58783086696796e-05,4.66739539052622e-05,-0.000683543800156378,1.85407227468657e-05,1.88206269499196e-15,0.000135743579900576,0.0145624512083952,9.25193210044925e-16,-8.85558681676984e-05,0.00469126868042538,-0.00140091981727783,-0.053515907145638,0.00194824362488292,-0.282550083142291,1.04225315639847e-15,5.53552565647443e-16,1.15875204389424e-15,-1.67124100845378e-05,5.53186067505642e-05,-9.47688074135224e-06,-1.19305525797551e-15,-3.6512253799555e-17,-1.09986481996584e-15,1.10518140848509e-15,-9.05039985762145e-16,-5.31987894835273e-15,-1.42805786823475e-15,-2.64637143418059e-15,-0.000196486126119844,7.1685978763256e-05,-3.75817891972996e-05,3.67702341843499e-07,-1.03235235146305e-05,-1.25404244280536e-15,2.16493489801906e-15,2.88597844229262e-15,-1.45490308881926e-05,-4.59300771043777e-06,-6.80618930599729e-14,0.378704525571388,-2.69061809712066e-05,-4.08847827017343e-15,4.97771477389036e-15,3.58038983712955e-15,-3.14212116308462e-15,1.85021242835283e-15,3.18495578162193e-15,1.19428747522467e-15,-2.12312134895961e-16,8.6095606531548e-08,-5.45630040835286e-15,-4.54046043383612e-05,7.1768894319277e-15,-1.81541225629459e-15,2.66623997932772e-14,-1.30024858729534e-05,0.707106781186547,-3.09397722437437e-07,-1.00855176389177e-14,-1.89073061486685e-15,-4.1047012627923e-15,-6.63777112117604e-06,-1.39393227336866e-15,1.74302528032917e-16,4.52723710578328e-15,8.53221186750482e-16,-6.01156475614678e-16,-7.00167157103886e-16,-6.44727778982592e-15
"Coprosma_foetidissima",-0.0865803304215129,0.0816989904763945,-0.00511518143360623,0.0124581208272656,-0.000970631683895192,-7.87148042627625e-05,0.416858489855012,0.00526981299148076,0.00442892746660276,-0.0445702908878744,-0.264469456306684,0.00013420530388301,-0.000543175216671651,0.000690560827024447,-0.000670209829756375,0.000124222355637835,3.89145084433836e-05,-0.000244544489252717,-0.00688906368715252,0.00286151926933853,0.0534980952531211,-4.76605283620652e-16,-5.57282693289042e-18,0.000284575985392805,0.00878990284895322,0.000162730155263059,0.0233534779234144,-0.000207833607152087,-1.36479225292707e-05,-4.15576346717781e-17,7.58783086687162e-05,4.66739539042067e-05,-0.00068354380015589,1.85407227469222e-05,1.12268540301038e-15,0.000135743579903115,0.0145624512083954,8.62344285505699e-16,-8.85558681682259e-05,0.00469126868042537,-0.00140091981727838,-0.053515907145637,0.00194824362488111,-0.282550083142291,1.75327442190558e-15,-3.76844595675761e-16,2.65380656053567e-16,-1.67124100859021e-05,5.5318606748892e-05,-9.47688073984342e-06,-2.64842578743303e-15,1.38232775864518e-15,9.36557452459642e-16,-7.07455430923712e-16,2.74013090598197e-16,-3.36644171015005e-16,-2.13390305875531e-15,3.19592111143367e-15,-0.000196486126118777,7.16859787584371e-05,-3.7581789194184e-05,3.67702344371876e-07,-1.03235235123095e-05,-1.7241199787299e-14,2.57571741713036e-14,3.46665830340485e-15,-1.45490308843363e-05,-4.59300771476316e-06,-6.59247137375695e-14,0.378704525571386,-2.69061809749385e-05,-5.73466852882665e-15,2.87448604873198e-15,2.04527362356134e-15,2.82458172919371e-15,2.46758423322717e-15,-3.49162118550914e-15,-3.58004287124416e-15,-1.77088264440751e-15,8.60956101515181e-08,4.68200284391113e-15,-4.54046043514846e-05,-2.56045765754559e-15,2.23292876662756e-15,-2.52221520916024e-14,-1.3002485769787e-05,-0.707106781186548,-3.09399232877323e-07,1.11497218825456e-14,2.16949494701771e-15,1.83644454707592e-15,-6.63777114715577e-06,1.56607761818034e-15,-1.2631533121999e-14,2.17602176175737e-15,1.05676726522206e-14,6.03047773502154e-15,1.42280824542878e-14,-4.82357661631172e-15
"Nertera_dichondrifolia",-0.0864469067051673,0.0814883000149699,-0.00508708820185171,0.0123308843357541,-0.000958797948363281,-7.77089075662718e-05,0.405604963840931,0.00506963672614498,0.00422547988830564,-0.0424816730116297,-0.251634550341247,0.000126716531812311,-0.000510423262717767,0.000648606162408274,-0.000627982109855692,0.00011550452774856,3.5950777471863e-05,-0.000225259986430225,-0.00634048378340196,0.0025880507761546,0.0483408140398819,1.03070920651683e-16,-7.45601715186559e-16,0.000254421197266964,0.00777636037735522,0.00014007058651795,0.0200608241732494,-0.000175059645600012,-1.11063548728886e-05,8.21159765630531e-16,6.11089108636363e-05,3.74337291029335e-05,-0.000544225766042788,1.44246273745636e-05,7.75488539666043e-16,0.000103346865833945,0.0110551753617783,4.68656431852591e-16,-6.18433716716644e-05,0.00320913511354794,-0.000945474528033652,-0.0360866466513436,0.00127001107389055,-0.182517210022641,8.59302908801145e-16,7.59225536855509e-16,1.21828767019027e-15,-8.81684633432402e-06,2.6000559271472e-05,-3.77730670636405e-06,-1.00249824164355e-15,-4.17672237544009e-15,4.92726526530923e-16,-1.62380911375948e-15,4.85498454662998e-17,2.04602983956979e-15,3.131277508586e-15,-9.22358457461413e-16,-3.065592915841e-05,3.21040351360965e-06,-6.32238541367625e-07,-9.16855850094166e-09,2.30534296284668e-06,1.79546590269031e-14,-2.1538326677728e-14,-3.91364300378656e-15,8.29315862134342e-06,5.28944887001275e-06,1.44824790772715e-13,-0.841680517213894,8.47363672911903e-05,1.12836900179674e-14,-7.56759374801261e-15,-6.5021824370526e-15,2.31102069871379e-16,-3.9236255887912e-15,2.02536755695246e-16,4.43269962476398e-15,1.10059709117188e-15,2.78388420207317e-07,1.0928231253853e-15,-0.00013714120937371,1.7476809407442e-15,2.09469643703723e-16,-2.56094299272359e-15,-2.72197327734462e-05,5.44279174200961e-16,-6.17837371720624e-07,-1.09605170934512e-15,-1.53661676136024e-15,1.94891696195816e-16,-1.15114690637612e-05,-2.44164143114273e-15,-3.18277038004893e-15,2.58962959402732e-15,9.25329917225019e-15,2.63007586772365e-15,5.35875764310494e-15,-1.76839156519943e-15
"Opercularia_varia",-0.0859527229528753,0.0807064277428512,-0.00498226760839713,0.011851925086902,-0.000914085430048771,-7.39040122534605e-05,0.361861276274293,0.00427454772173142,0.00340443331692475,-0.034036943601989,-0.199564530560505,9.58805400174721e-05,-0.00037430274891856,0.000474072384532697,-0.000451485571271822,7.85126930027707e-05,2.32133299401954e-05,-0.000141896075124975,-0.00396509610338136,0.00136159603361918,0.0251680606840944,2.92976289359747e-16,-6.64310970732834e-17,0.00011595460070651,0.00302028498106104,2.74123304733063e-05,0.00361914198298702,-4.28361362426736e-06,3.20051183003089e-06,-5.56574837351359e-16,-2.40488793615311e-05,-1.63599297909921e-05,0.000280873879006537,-1.13400817423018e-05,-2.93073446745688e-15,-0.000110594463447824,-0.0122742973988149,-2.29778450504941e-15,0.00016088003529218,-0.00993135527519171,0.00326356931046231,0.125419934193273,-0.00574405742978697,0.884606676822541,-4.58859977194129e-15,-1.13421908372188e-15,-3.15762723305507e-15,0.000219775029249518,-0.0050586895703393,-0.000194075185205545,5.00193756318042e-15,3.44336955654795e-15,-7.2559817610257e-16,2.53570810062599e-16,1.36950456015257e-16,1.37340694695267e-15,3.89442624395369e-16,-1.5922965494716e-17,-0.00112719170241623,0.00033425131604845,-0.000167953551439136,1.55002555370031e-06,-3.47407259645889e-05,9.84835043377208e-16,-5.52335954751015e-15,-2.96875678886374e-15,-3.61254098354088e-05,-6.98602882526787e-06,-9.65784907148385e-15,0.0687120158118699,2.28469951708413e-05,-3.62026586959278e-16,4.76179478773255e-16,1.51075170157557e-15,1.73879694581812e-16,-6.39024727733002e-16,-1.39267732873584e-15,-3.76270268742018e-16,-1.39176982300675e-16,4.16977984943463e-07,-4.21364349716973e-16,-0.000208756096066841,3.30176933102053e-16,-3.8177815498685e-16,-1.39091983584222e-15,-4.4611472454535e-05,8.31549330039463e-16,-1.0188198743406e-06,-1.60645104592171e-16,-2.34354117118282e-16,-3.76613828826493e-16,-1.91519652873515e-05,-8.13125710511561e-16,-3.62115929738058e-15,3.35874414267233e-15,6.36745613076953e-15,1.12775647417406e-15,6.45386549858276e-15,-6.93769383624307e-15
"Oldenlandia_corymbosa",-0.0833933858631156,0.0763411907155892,-0.00417518179933462,0.0268783443243904,-0.00112012303230682,-8.57563823244154e-05,0.217564929524026,-0.000340656454086701,-0.00452490611660824,0.054003135714309,0.433549482593736,-0.00123892084871618,-0.0101621592537557,0.010327704514944,-0.00527367647872169,0.000452974375884029,0.000106040246283497,-0.000605583720418688,-0.016642439610913,0.00473021321065694,0.0870187830392251,-2.95340150204227e-16,-1.02284998468554e-15,0.000387608012957093,0.0100529156489592,8.65394331705692e-05,0.00890354508135658,-5.81656651029373e-05,9.21449308657723e-06,-1.06514926747822e-15,-8.37332816213774e-05,-6.10976533415701e-05,0.00119081461682026,-8.25977179780122e-05,-7.58303542037221e-15,-0.00363613471949348,-0.853153955097175,-1.74442187418424e-15,-0.000166738285088836,0.0058088039214596,-0.00104715809358434,-0.0371889095956602,0.0005801546143625,-0.0251596778785427,-8.30346863211032e-16,-1.93552055248664e-15,-1.48632862447786e-15,0.000129191842311793,-0.00232226317639444,-0.000152624752457303,-9.31316282961394e-17,-6.14730553016582e-17,-9.28026528108886e-17,-2.20816249069828e-17,-3.27225573721096e-16,-9.64071879534487e-16,9.47174957873978e-16,1.56115559749526e-16,-0.000695981434084701,0.000316924300116704,-0.000107943502783491,1.48960334596137e-06,-2.31648282974992e-05,-2.12406047611635e-15,2.55351295663786e-15,3.26253702128889e-16,-2.45631779850586e-05,-6.84984062838975e-06,4.85466785091933e-15,0.00206288686790836,2.16087268209326e-05,3.33021026061363e-16,4.34279667627713e-16,-2.83778557671752e-16,-2.65966845544987e-16,-2.17416723889964e-16,-6.15178836464225e-16,-5.5819631741289e-16,-6.16267889233409e-16,4.97995749583665e-07,-2.44006854991371e-16,-0.00017299789923676,2.19787316495691e-15,4.53901009337909e-17,-5.4713792859329e-16,-3.79299705064665e-05,-1.27079789027437e-16,-1.24848322127218e-06,-8.53219882179808e-17,1.82074055456668e-16,-6.08563213588853e-16,-1.66788894342499e-05,-1.20839337331401e-16,-5.29319661694755e-15,3.46392849702786e-15,5.89696143130195e-15,3.39383594984673e-15,7.52830262824337e-15,-4.01631155488961e-15
"Spermacoce_brachystema",-0.0837302956924265,0.0768605631560856,-0.00423676262668869,0.0276376742381677,-0.00115837890643984,-8.88379592950761e-05,0.235751215265699,-0.000384122009691977,-0.00526874166387391,0.0631287511642707,0.510486460148821,-0.00150815860812834,-0.0126485524215446,0.0128846657244352,-0.00665692095785205,0.000595059061889011,0.000144498745081028,-0.000839918587422131,-0.023202440369598,0.00746330074299574,0.13833047776538,-1.14631821214706e-15,-4.46095539153363e-16,0.000677845499951929,0.0197091499050727,0.00027181245368263,0.0294727247702852,-0.000463031338334963,-3.07854295372834e-05,5.48219499729192e-16,0.000178085909661601,0.000111952815623489,-0.00172203398376584,6.39705201632079e-05,3.49578608141097e-15,0.00167530888533756,0.367025032104297,1.15528904552432e-15,-3.49450487211515e-06,0.000425941905772177,-0.000106737983625019,-0.00385376141462714,9.33692847208709e-05,-0.00437121342493237,-4.27700490386358e-17,1.97886630674003e-16,1.32833757600629e-15,4.20647807961123e-05,-0.000844322165872503,-6.05468887489958e-05,3.70180899039243e-16,-1.17719419324232e-15,-6.32444488619559e-16,-5.82229919922132e-15,-4.15257808913776e-16,-1.05635337612751e-14,-1.86441649024064e-15,3.52189449860968e-15,-0.000318046049682648,0.000149651527349159,-5.1313476454394e-05,7.14604312036519e-07,-1.14830177870284e-05,-8.27237041887974e-14,-7.85552178861337e-13,-0.707106781186547,-1.25956141604189e-05,-3.61689816034061e-06,3.04141786368568e-14,0.00111583688508441,1.18084428899097e-05,-1.92331286899021e-15,-2.21820476435147e-15,9.47530951319889e-16,-2.09429480360941e-15,1.29070652863184e-15,-1.81968349364064e-15,-8.96955738323492e-16,-8.46561689469287e-16,2.96383030696983e-07,2.63561371997569e-15,-0.000103471625795963,2.76333258191749e-15,-7.03510953208443e-16,1.08124176453393e-16,-2.36155982607283e-05,-1.49809763104519e-16,-7.83303748951605e-07,6.24956262002832e-16,3.25162788021943e-16,-6.02065971043455e-18,-1.07686340002352e-05,8.06566076306196e-16,-6.56679754565283e-15,2.79845766836641e-15,7.66545237367241e-15,3.63302994944727e-15,6.81438185627996e-15,-4.64431583566914e-15
"Spermacoce_leptoloba",-0.0837302956924265,0.0768605631560856,-0.00423676262668869,0.0276376742381678,-0.00115837890643986,-8.88379592951166e-05,0.235751215265699,-0.000384122009692117,-0.00526874166387389,0.0631287511642707,0.510486460148821,-0.00150815860812835,-0.0126485524215443,0.0128846657244359,-0.00665692095785203,0.00059505906188899,0.000144498745081356,-0.000839918587421536,-0.0232024403695987,0.00746330074299597,0.13833047776538,-4.54049133851995e-16,-1.41727256237311e-16,0.000677845499952564,0.0197091499050723,0.00027181245368166,0.029472724770287,-0.00046303133833629,-3.07854295389243e-05,8.84789716949962e-16,0.000178085909659663,0.000111952815622269,-0.00172203398376187,6.39705201639012e-05,4.31994606513896e-15,0.00167530888533849,0.367025032104297,5.23530019446807e-16,-3.49450487798781e-06,0.000425941905767443,-0.000106737983618818,-0.00385376141462129,9.33692847224622e-05,-0.00437121342492803,5.67324364217695e-16,1.4793387089989e-15,-6.30275893835733e-16,4.20647807917134e-05,-0.000844322165862312,-6.05468887462423e-05,-9.28178106317536e-16,1.29967136352335e-15,7.97579812857606e-16,5.08616717500669e-15,2.93528537625697e-16,8.94854710643664e-15,6.82166638705078e-16,-3.38947747833103e-15,-0.000318046049720745,0.000149651527323775,-5.13134764834888e-05,7.14604322522825e-07,-1.14830172606058e-05,8.45520485223683e-14,7.84441955836712e-13,0.707106781186547,-1.25956142688743e-05,-3.61689814408026e-06,-3.72539147140465e-14,0.00111583688507672,1.1808442915241e-05,2.19831902712342e-15,3.04406517508805e-15,3.05183631625168e-17,2.43859707344214e-15,-1.23650164914811e-15,1.69962529381466e-15,3.36093182957674e-15,8.88330180999232e-16,2.96383041439644e-07,-2.60535381701592e-15,-0.000103471625796069,6.68820646305551e-16,6.29645348918253e-16,-1.24707183750938e-15,-2.36155982599319e-05,3.35912810167505e-16,-7.83303753877495e-07,-7.6465190037434e-16,-1.86370567221538e-15,-1.52064278665828e-15,-1.0768634004036e-05,-2.27197287027996e-15,-2.78539582410774e-15,3.06386567221131e-15,7.11034086135982e-15,6.92836076303784e-16,4.94382647089017e-15,-6.35128373602975e-15
"Psychotria_marginata",-0.0880417413646733,0.0832930576168406,-0.00445296510965445,0.228710987235577,-0.0193190457975955,-0.00357950850567841,-0.0921186924890952,0.0005035496741612,0.000594166837881234,-0.00576955435973466,-0.0299354254827629,-5.70929602181858e-05,-0.00100196802402421,0.00106938444420703,-0.000670913250168633,9.0182031599895e-05,2.77456968806346e-05,-0.000177375876143967,-0.00503222095424928,0.00302994138100555,0.0587596746286048,-3.66322913407965e-16,-1.96033160889789e-16,0.000679795578260193,-0.0463163973471338,-1.09967836864683e-05,-0.000407959761698252,3.44894669799294e-06,3.84064922838027e-07,7.2100639603285e-16,-8.63135006165224e-06,-1.00693097158506e-05,0.105751651665444,2.27560577438953e-06,-1.89482501457967e-16,5.1663954091399e-06,0.000264065401179841,1.48293094576891e-15,4.28041495989221e-05,-0.302390087215198,-0.000414824350792341,-0.0115590617556968,0.000170489974862089,-0.00323304368551751,-1.06904902781315e-15,-1.53583336482849e-15,-1.03922913991895e-15,2.81582872173046e-05,-0.00021617884396106,-3.27699644508509e-05,0.792512977435482,-0.105580027489093,-0.374224067456191,0.143987449898569,4.68397752525118e-16,8.41508381786244e-15,2.80268941146939e-15,1.9145246897671e-16,-7.46617117787325e-05,0.0691170287362855,-4.3095411480891e-06,2.39865647015739e-07,-2.10991832820528e-06,2.2745612901845e-14,-1.52169943312686e-14,4.6414786767775e-16,-2.36067205116328e-06,-1.46140248604924e-06,7.34199262776928e-15,0.00020896367233075,2.20891322285814e-06,-1.13420192944088e-16,1.8085059324592e-15,-2.0073976666235e-16,-1.37931747212579e-15,4.33127493648881e-16,-8.50766092610212e-16,1.7389524088061e-15,-1.16900572774842e-16,1.15380254007975e-07,1.31489398319208e-15,-1.92235531403402e-05,2.75072698768128e-15,-1.1735843435446e-15,8.61516354982434e-16,-4.395807225027e-06,-1.93365634527402e-15,-3.01134908277892e-07,1.12727796612885e-16,-1.02664099548998e-16,-9.16680430228702e-16,-2.01592725805427e-06,-8.51226639830889e-16,-4.6925148869622e-15,3.43753479761665e-15,7.11213018328198e-15,2.63381284338572e-15,7.33039903183744e-15,-3.30169799923557e-15
"Psychotria_limonensis",-0.0880417413646733,0.0832930576168406,-0.00445296510965448,0.228710987235577,-0.0193190457975955,-0.00357950850567839,-0.0921186924890951,0.000503549674161016,0.000594166837881147,-0.00576955435973454,-0.0299354254827629,-5.70929602172896e-05,-0.00100196802402431,0.00106938444420692,-0.00067091325016824,9.01820315994023e-05,2.77456968815056e-05,-0.00017737587614376,-0.00503222095424962,0.00302994138100603,0.0587596746286047,-2.65885486864982e-16,3.25611131661048e-16,0.00067979557825948,-0.0463163973471339,-1.09967836867929e-05,-0.000407959761697128,3.4489466988743e-06,3.84064922273326e-07,1.78256543850245e-15,-8.63135006255436e-06,-1.00693097161902e-05,0.105751651665439,2.27560577819267e-06,3.46666144811665e-15,5.16639540816393e-06,0.000264065401179711,2.17418598224964e-15,4.28041495990533e-05,-0.302390087215205,-0.000414824350795897,-0.0115590617556941,0.000170489974858682,-0.00323304368551329,2.0429591397858e-15,-2.6884092295574e-15,-7.90868697958477e-16,2.81582872037995e-05,-0.000216178843958968,-3.27699643483288e-05,-0.16132747140909,0.263811612960174,0.401855604050865,0.736809984547586,2.25221806802082e-15,1.09431924228596e-14,-6.75927705461083e-15,-2.57185469992134e-15,-7.46617117920413e-05,0.0691170287362691,-4.309541135495e-06,2.39865650686869e-07,-2.10991833867608e-06,4.02447714910326e-15,4.07313072159354e-15,-6.78699626191299e-15,-2.36067205274535e-06,-1.4614024775481e-06,-1.54730905282777e-14,0.000208963672328442,2.20891322508433e-06,-1.79632890456029e-15,-2.37075382651305e-15,3.94162702859803e-16,8.91876611558002e-16,-6.98528673706747e-16,-2.68144272198139e-16,2.79087607545715e-15,-1.25829490990544e-15,1.15380257050411e-07,2.50901319213219e-15,-1.92235531397394e-05,1.03844057481633e-15,-2.08883713111609e-16,-1.53002889541218e-15,-4.39580722746724e-06,9.23394781930115e-18,-3.01134910503063e-07,7.96679525992327e-16,4.86624586927692e-16,4.57890536640687e-16,-2.01592725597195e-06,-6.72606827094515e-16,-5.3374532146018e-15,3.40280305782942e-15,6.91784115397257e-15,1.76866605480372e-15,5.1566532603264e-15,-5.9037832132006e-15
"Psychotria_brachypoda",-0.0880417413646734,0.0832930576168406,-0.00445296510965443,0.228710987235577,-0.0193190457975954,-0.00357950850567833,-0.0921186924890951,0.000503549674161025,0.00059416683788102,-0.00576955435973468,-0.0299354254827628,-5.70929602191771e-05,-0.00100196802402426,0.00106938444420802,-0.000670913250167299,9.01820315984691e-05,2.77456968815498e-05,-0.000177375876144194,-0.00503222095424932,0.00302994138100576,0.0587596746286048,-3.53113933078338e-16,3.36547092072992e-16,0.000679795578260185,-0.0463163973471338,-1.09967836883078e-05,-0.000407959761696709,3.44894669867774e-06,3.84064922555783e-07,1.32673420392745e-15,-8.63135006214366e-06,-1.00693097162674e-05,0.105751651665441,2.27560577677607e-06,1.97314415347596e-15,5.16639540632957e-06,0.000264065401179639,2.80386274540536e-15,4.28041496015099e-05,-0.3023900872152,-0.000414824350795131,-0.011559061755699,0.000170489974860955,-0.00323304368550821,-3.07333661784421e-15,4.70496609809176e-16,2.06096632994629e-16,2.81582872179054e-05,-0.000216178843949675,-3.27699644274664e-05,-0.564910164770631,-0.466055852041946,-0.511003157445138,0.050440277530726,1.782035118626e-15,-1.17222934879437e-14,-3.58920775282723e-15,1.66568211734556e-15,-7.46617117820397e-05,0.0691170287362657,-4.30954114831114e-06,2.39865651867943e-07,-2.10991834634355e-06,-2.15799600411515e-14,2.58543186859583e-14,3.60064459118826e-16,-2.36067207933606e-06,-1.46140248366828e-06,-6.02231703115605e-15,0.000208963672332178,2.20891322049794e-06,1.09153391924448e-15,1.65145462214722e-15,4.05401805574878e-15,1.42088233124141e-15,-1.42589836162259e-16,1.24216395798059e-15,-2.19539306798631e-15,-2.44423746196171e-16,1.15380253575447e-07,-2.11704752420237e-15,-1.92235531407874e-05,1.54649059719514e-15,-2.15817114749005e-16,-8.41004019196505e-16,-4.39580722311298e-06,-3.75874663847224e-16,-3.01134910324217e-07,1.24732152946732e-16,-6.35886124962958e-16,-6.68586193322362e-16,-2.01592726057934e-06,-9.03947296981853e-18,-4.52648116126459e-15,3.7891456643213e-15,9.22155393006977e-15,2.79532258046648e-15,6.14524421334299e-15,-6.3617502108584e-15
"Psychotria_papantlensis",-0.0880417413646734,0.0832930576168406,-0.00445296510965446,0.228710987235577,-0.0193190457975954,-0.00357950850567836,-0.0921186924890951,0.000503549674160916,0.000594166837880917,-0.00576955435973485,-0.0299354254827629,-5.70929602183627e-05,-0.00100196802402483,0.00106938444420733,-0.000670913250167496,9.01820315991779e-05,2.77456968816112e-05,-0.000177375876143233,-0.00503222095424958,0.00302994138100525,0.0587596746286046,7.1174456855249e-17,4.16140456519566e-16,0.000679795578259572,-0.046316397347134,-1.09967836861849e-05,-0.000407959761697083,3.44894669700986e-06,3.84064923742898e-07,1.1365930079023e-15,-8.63135006105659e-06,-1.00693097143404e-05,0.105751651665442,2.2756057793441e-06,1.09856392051877e-15,5.16639540768601e-06,0.000264065401179411,2.49735831615369e-15,4.28041496066419e-05,-0.302390087215199,-0.000414824350795692,-0.0115590617556976,0.000170489974862035,-0.00323304368551434,-1.76261476519787e-15,-2.29231158742815e-15,-1.3174456427219e-15,2.81582872225608e-05,-0.000216178843934642,-3.27699646216059e-05,-0.143991003628362,0.726044261335965,-0.158639140076709,-0.476403132536859,8.38784959458054e-16,-1.55792480987814e-14,-1.69815237896462e-15,-1.71261948115206e-16,-7.46617117917889e-05,0.0691170287362818,-4.3095411503026e-06,2.39865652654698e-07,-2.10991834255492e-06,-3.7470027081099e-16,2.74780198594726e-15,2.43479373638861e-15,-2.36067205715935e-06,-1.46140248416907e-06,-3.02471486466812e-15,0.000208963672328342,2.2089132205812e-06,-4.72605858499529e-17,6.23288486023221e-16,-3.95224361115671e-15,-2.12429723193133e-15,1.32717958376463e-15,-8.23616181380839e-16,2.04732295040939e-16,7.10302014699678e-17,1.15380253727367e-07,-1.91100560874773e-15,-1.92235531442082e-05,1.54956981364635e-15,2.35660224830608e-15,8.18684561229873e-17,-4.39580721894184e-06,1.15068199501241e-15,-3.01134911011615e-07,-3.13564453676856e-16,-3.95057758685538e-16,-6.50026172196935e-16,-2.01592726209893e-06,-9.27561733857821e-16,-6.08318996291431e-15,2.45248963716902e-15,7.00110788081946e-15,3.49999643452823e-15,6.61251600055256e-15,-4.96009364226912e-15
"Psychotria_suterella",-0.0880417413646734,0.0832930576168406,-0.00445296510965443,0.228710987235577,-0.0193190457975954,-0.00357950850567831,-0.092118692489095,0.0005035496741611,0.000594166837880959,-0.00576955435973496,-0.029935425482763,-5.70929602185626e-05,-0.00100196802402461,0.00106938444420754,-0.00067091325016755,9.0182031599496e-05,2.77456968814834e-05,-0.000177375876143447,-0.00503222095424979,0.00302994138100577,0.0587596746286048,-5.12323992645242e-16,1.26767933209517e-16,0.000679795578259641,-0.0463163973471338,-1.09967836871924e-05,-0.000407959761697763,3.44894669754354e-06,3.84064923266989e-07,8.33760282811609e-16,-8.63135006246366e-06,-1.00693097146071e-05,0.105751651665441,2.27560578141788e-06,2.73881681316031e-15,5.16639540540207e-06,0.000264065401179468,-1.59015169699267e-16,4.28041496008447e-05,-0.3023900872152,-0.000414824350793995,-0.0115590617556986,0.000170489974861745,-0.00323304368551142,-4.13019234259016e-15,2.69533499029505e-15,1.15417063313018e-15,2.81582872155131e-05,-0.000216178843979009,-3.2769964535407e-05,0.0777156623725969,-0.418219994765103,0.642010760927168,-0.454834579440025,-7.32147213101347e-15,7.73822814167437e-15,9.01992527412702e-15,1.46503711200471e-15,-7.46617117853496e-05,0.0691170287362788,-4.30954114362739e-06,2.39865650855824e-07,-2.10991834054958e-06,2.84494650060196e-15,3.98292510084275e-15,3.71848910860703e-15,-2.36067206185004e-06,-1.46140248204782e-06,4.92725754920956e-15,0.000208963672333509,2.20891322287754e-06,-7.42585367870079e-16,1.01122419918775e-15,-4.34403883546958e-16,-1.86234184771846e-16,2.76863440834933e-15,-1.04729010003887e-15,-2.11790921035734e-15,1.00187960936687e-15,1.15380254818704e-07,-6.76813421253117e-16,-1.92235531441005e-05,2.03076275345913e-15,-1.22118265847751e-16,-5.00432724249272e-16,-4.3958072203838e-06,6.96184444306623e-16,-3.01134910114695e-07,-5.65337880233541e-16,-1.31193237921588e-15,-1.3753878044736e-15,-2.01592726012114e-06,9.19800008008412e-17,-4.05561763018317e-15,4.0175462147708e-15,5.39128449511298e-15,2.7888417749522e-15,7.39381497021481e-15,-4.96703253617306e-15
"Psychotria_flava",-0.0886596478756115,0.0842770988485294,-0.00456689144546359,0.239897918923745,-0.0204605116675886,-0.00380197734111611,-0.105351753357922,0.000613330829258883,0.000760272360613863,-0.00742662224128353,-0.0389546807393584,-7.80530903191085e-05,-0.00141471783759672,0.00151498720614049,-0.000966552424083483,0.00013740976105298,4.44480721456635e-05,-0.00029097413326267,-0.0083123583718763,0.00586441997964028,0.114782870826073,-1.01934180403797e-15,4.94014549479245e-16,0.00148843769336801,-0.115399153429261,-4.35336012539362e-05,-0.00169038474825059,2.64294435251606e-05,-5.25458301325733e-06,-2.92542382852261e-15,6.29923796151398e-05,6.18472561444007e-05,-0.50639215541957,-6.34656388363204e-06,-2.64850618530783e-15,-1.02265819153971e-05,-0.000502846767261079,-2.31118100123983e-15,-3.67174750353213e-05,0.224651334496272,0.000282312470573204,0.00782398142068993,-9.41989110782509e-05,0.00169670395557255,2.51828134431471e-15,4.35031350622918e-16,4.85778023670646e-16,-5.34145772682756e-06,2.10378836781912e-05,1.35849037704246e-07,-2.26642249188092e-15,-1.72819696994276e-15,-2.00749168285809e-16,9.67569391030936e-16,7.13330436517947e-16,6.19411099904852e-16,1.33778856805285e-15,-1.38894718209752e-16,-3.26559378980053e-05,0.266059492341717,2.31758395018641e-05,-2.84788920975192e-07,4.86559906011375e-07,8.22546241188715e-15,8.10462807976364e-15,5.93423028005879e-15,1.2547905873378e-07,-4.06597323403354e-08,-5.78068121918421e-16,1.62515098319696e-05,2.13170699381977e-07,3.35381893404119e-17,1.16624507641938e-15,6.73618025493868e-16,4.07125905711465e-16,2.48897088887956e-17,-4.74470942061071e-16,-3.03988715959043e-17,-3.07396812820367e-16,2.63152956396525e-08,-9.59014013726768e-16,-4.5182203070839e-06,1.87195096804125e-15,2.81954707595222e-16,-1.12078617139572e-15,-1.276614504765e-06,-8.5500897200212e-15,-9.06018206430909e-08,9.94015138326783e-16,2.26247542326589e-15,8.15915676185037e-16,-6.8497051981103e-07,2.23629678500408e-15,-5.8578699707413e-15,2.06779831738759e-15,-3.55991774396958e-14,7.45565090424804e-15,-0.707106781186541,-7.47493295077296e-14
"Psychotria_tenuifolia",-0.0886596478756116,0.0842770988485294,-0.00456689144546358,0.239897918923745,-0.0204605116675887,-0.00380197734111617,-0.105351753357922,0.000613330829258862,0.00076027236061361,-0.00742662224128334,-0.0389546807393584,-7.80530903189997e-05,-0.00141471783759641,0.00151498720614019,-0.000966552424083147,0.000137409761053263,4.44480721456426e-05,-0.000290974133262422,-0.00831235837187629,0.00586441997964056,0.114782870826073,-1.01506164550047e-15,5.04620410774622e-16,0.00148843769336788,-0.115399153429262,-4.35336012537462e-05,-0.00169038474825074,2.64294435247134e-05,-5.25458301323085e-06,-2.86195843324814e-15,6.29923796152237e-05,6.18472561445545e-05,-0.506392155419571,-6.34656388325402e-06,-2.83130154468938e-15,-1.02265819151648e-05,-0.000502846767259143,-2.46761503454959e-15,-3.6717475034826e-05,0.224651334496273,0.000282312470572967,0.00782398142069067,-9.41989110782533e-05,0.00169670395557287,2.43683689526504e-15,8.52075794405224e-16,9.11145529697317e-16,-5.3414577269148e-06,2.10378836803114e-05,1.35849038608925e-07,-3.85542919584537e-15,-9.75326981360279e-16,1.78259896886983e-17,2.78035542347119e-15,7.30376534582108e-16,5.99262665380622e-16,1.47550631530072e-15,-3.36007236242328e-16,-3.26559378984528e-05,0.266059492341717,2.31758395017705e-05,-2.84788920593549e-07,4.86559905740758e-07,9.00280826450495e-15,9.24954557390834e-15,7.6689537565724e-15,1.25479057146074e-07,-4.06597309599649e-08,-4.5316803164811e-16,1.62515098303701e-05,2.13170695599033e-07,5.6635310278737e-16,7.87788491388697e-16,8.18579297116824e-16,-2.54701121963472e-16,7.03893355731848e-16,-5.16959612490821e-16,1.34406157121996e-15,-3.50947831017524e-16,2.63152972033325e-08,1.49402618747648e-15,-4.51822030341355e-06,1.18998915564948e-15,-8.15217606056403e-16,-9.57475092016555e-17,-1.27661451556884e-06,6.61833235391845e-15,-9.06018199609756e-08,-1.5643110806101e-15,-3.07006536021421e-15,-1.85296799164593e-15,-6.84970507937282e-07,-3.21149018785183e-15,-3.6166943003934e-15,3.57615951865121e-15,5.24415084130791e-14,-1.96130716791752e-15,0.707106781186553,6.45350878254008e-14
"Psychotria_horizontalis",-0.0883485205258173,0.083781903085831,-0.00450965441792363,0.234292604462856,-0.0198892178528152,-0.00369067120313935,-0.0987860038011052,0.000559224716702773,0.000678812819098654,-0.00661445870560038,-0.0345388496938471,-6.78390010795714e-05,-0.00121417323268324,0.00129854564075607,-0.000823166874685534,0.000114614602803298,3.64194884175615e-05,-0.000236471670414949,-0.0067394556974925,0.00452070274674563,0.0882407645293762,-5.64794511340989e-16,4.85348634269076e-16,0.00110806704095115,-0.0831379978451797,-2.86338381620017e-05,-0.00110399216689293,1.60752799031417e-05,-2.78247827316587e-06,-1.12240762594038e-15,3.18609476593022e-05,3.06974186455411e-05,-0.242897343987499,-2.70996004281512e-06,-2.30189155270183e-15,-3.86284839254626e-06,-0.000186654732236145,-2.33621594992774e-15,-6.68257956730686e-06,0.0304166936430511,2.96521283155756e-05,0.000806675610923773,-2.56248505476405e-06,1.16036402924362e-05,-1.49506965596217e-15,-4.7557573723575e-16,2.68867726026928e-16,2.33559923057959e-06,-1.43344800884022e-05,-1.37897483541263e-07,1.30660045701321e-14,4.58018340514001e-15,-4.30343170242932e-16,-7.942167561892e-15,-2.00226858430049e-15,-2.31705412682912e-15,-3.8128070092802e-15,-9.94107045135392e-16,8.14323319751863e-05,-0.913324054631527,-8.58834762177893e-05,1.18097156356655e-06,-3.41347712405973e-06,-2.85068735110527e-14,-3.30915850277336e-14,-1.57714252148331e-14,-2.63714516553822e-06,-1.38479176748739e-06,6.51572760859677e-15,0.000181863947822584,1.87089092999195e-06,7.99081799215852e-16,-2.61470591295621e-15,-4.31597834873803e-16,1.24700894217204e-15,-3.28758200771632e-15,-9.69097640399173e-16,8.50369945206351e-16,-3.66441531993888e-16,8.73303891878705e-08,2.85441455659617e-16,-1.45133555201219e-05,2.03890858079323e-15,1.4257593700693e-16,-9.16702742623115e-16,-3.28241500936331e-06,2.99209212474907e-15,-2.24751060848831e-07,1.1767623947983e-16,-3.39968216932279e-16,-9.24257082715627e-16,-1.50717133069029e-06,-1.51283802298829e-15,-4.6233087497601e-15,2.38451910804811e-15,3.08624476962609e-15,1.06366771770925e-15,6.70567648824904e-15,-3.44581787877053e-15
"Psychotria_loniceroides",-0.0882662433376471,0.0836497494142854,-0.00449398426603879,0.232693402576575,-0.019723394588869,-0.00365819812666132,-0.0966194404738756,0.000539592998439186,0.00064715047748854,-0.00629623678495094,-0.0327833751437442,-6.35129560983189e-05,-0.00112582188959182,0.00120280686463175,-0.000758473145844998,0.000103654921704884,3.234705636743e-05,-0.000208143930298212,-0.00591620214865208,0.00370585809733427,0.0720181532851607,-3.53223100631597e-16,2.34482614544646e-16,0.000853241140509571,-0.0594266596668779,-1.44935765296569e-05,-0.000536285030677264,3.7985770944488e-06,1.68057053777916e-06,2.07950849403913e-15,-3.36217312530007e-05,-3.92759120074017e-05,0.427480386524849,1.25510531076785e-05,8.51695523222609e-16,5.66727745019754e-05,0.00339803416636176,-7.51123530839542e-16,-9.29860356303915e-05,0.467197476279124,0.000528454771885177,0.014554156592627,-0.0001406972795717,0.00240331453903665,1.91228229230285e-15,4.27535425160845e-16,3.79983033978122e-16,-1.13459344950228e-06,-1.7658435967969e-05,-5.75774137898683e-06,-3.77837601212453e-15,-4.16319926602027e-17,1.19961278348418e-15,-3.99322212305779e-16,7.7216835778976e-16,-5.00608755277139e-16,8.364910390673e-16,-5.97669714033703e-16,-2.32408727671128e-05,0.0133747797792537,-2.64720366443399e-06,1.046123067596e-07,-9.02798637628793e-07,1.34736514480205e-15,-8.04911692853238e-16,3.32460405585854e-15,-1.0748740894846e-06,-7.04350088327296e-07,2.44327107141319e-15,0.000105400737982466,1.13526144198398e-06,1.00853297248715e-15,-7.76332242990978e-16,-2.25337016961575e-16,1.78665404335511e-15,2.9500004097547e-15,-2.43655737042573e-15,-7.67036256873909e-17,1.12390438160242e-15,6.84347072350736e-08,0.707106781186548,-1.14890954434789e-05,7.37026061289494e-16,2.06992649677529e-15,4.58758948382795e-15,-2.7870429436543e-06,5.10170597914826e-15,-1.92995457837776e-07,-4.58805690291496e-16,-6.54195416349545e-16,-8.245356039489e-16,-1.34327629575429e-06,-6.43022025704741e-16,-5.04242141622161e-15,2.68746222929534e-15,6.8521155605601e-15,2.11028613330397e-15,5.13302175296685e-15,-5.26919807773191e-15
"Psychotria_serpens",-0.0882662433376471,0.0836497494142854,-0.00449398426603877,0.232693402576575,-0.019723394588869,-0.00365819812666135,-0.0966194404738756,0.00053959299843924,0.000647150477488561,-0.00629623678495083,-0.0327833751437443,-6.35129560982146e-05,-0.0011258218895918,0.00120280686463189,-0.00075847314584496,0.000103654921705136,3.23470563672744e-05,-0.000208143930298237,-0.00591620214865144,0.00370585809733375,0.0720181532851608,-6.21368783808866e-16,3.71913427613275e-16,0.000853241140509745,-0.059426659666878,-1.44935765292697e-05,-0.000536285030677895,3.79857709346044e-06,1.68057053774526e-06,2.41625416774761e-15,-3.36217312530941e-05,-3.92759120074763e-05,0.427480386524848,1.25510531077572e-05,9.51943638897699e-16,5.66727745018864e-05,0.00339803416636203,-4.55922649890023e-16,-9.29860356304043e-05,0.467197476279124,0.000528454771884862,0.0145541565926261,-0.000140697279571756,0.00240331453903612,1.76719931112727e-15,6.15995238181322e-16,1.97732968985506e-16,-1.13459344948218e-06,-1.76584359681251e-05,-5.75774137890309e-06,-9.42103128902408e-16,5.72893798704528e-16,3.42959981185209e-15,4.15671215691255e-15,1.52410815972214e-16,-3.07760189292693e-16,1.19637151645471e-16,3.35626683180324e-17,-2.32408727734341e-05,0.0133747797792534,-2.64720366447563e-06,1.04612306979389e-07,-9.02798639391272e-07,4.03675573870665e-16,-1.2490009027033e-15,-2.17099991603066e-15,-1.07487408859642e-06,-7.04350088168868e-07,-5.82086670690362e-16,0.000105400737980656,1.13526144838175e-06,8.48935169385277e-16,1.093211413378e-15,3.68681216061455e-16,-1.82970851728075e-15,-4.44301785174915e-15,1.27627008033825e-15,1.09607408951047e-15,-1.82782907539561e-15,6.84347164825474e-08,-0.707106781186548,-1.14890949902748e-05,2.51152323967794e-15,-2.00493845905811e-15,-5.46862800468184e-15,-2.78704294284275e-06,-4.65437884974532e-15,-1.92995460432833e-07,-1.37158603245867e-16,-4.0877598226054e-16,-7.4000726768578e-16,-1.34327629797489e-06,-1.3643973552674e-15,-4.92207941604627e-15,3.22740996678942e-15,3.89614675749563e-15,2.0989272059032e-15,7.49224568064364e-15,-5.26919807773202e-15
"Rudgea_jasminoides",-0.0849223039579772,0.0783138076853427,-0.00387270216597208,0.17110108348576,-0.0134126963663159,-0.00242672615893781,-0.020939077976284,-0.000106718567796112,-0.000353992153422645,0.0037200345429243,0.0220237981709125,6.70115986215721e-05,0.00148699556254569,-0.00162285509508459,0.00113257311416909,-0.000207524706907819,-8.07580693847862e-05,0.000571388175943219,0.0166807386800733,-0.0177484278207073,-0.354478043628774,2.74958329809448e-15,-3.52829708931216e-15,-0.00577708444996986,0.560871986569778,0.00042146672173447,0.0174817992611965,-0.000791566603670634,-3.51604959981594e-05,-1.70691073303807e-16,0.0001829229994158,0.000111515343527704,-0.0578605504327741,3.18596893259456e-05,-5.710347340705e-16,0.000157187717445888,0.0093554976881694,8.2622919042048e-17,-7.25769697968424e-05,0.0393486896272931,-0.00021951527607368,-0.0065280581785601,0.00026897781046219,-0.0056917121999376,-0.707106781186547,-3.97520121077342e-15,1.66797072651997e-15,8.72070151658517e-05,-0.000701864978277403,-0.000108883032718604,2.50336281658239e-16,1.86874305312965e-15,4.47728031299533e-16,2.74467127575094e-15,-9.71187535840571e-16,-1.54191250306156e-15,-2.40828776709688e-16,-2.77364760860165e-16,-0.000233148055718954,0.00310881829692762,-3.64946177442774e-05,1.11638402006944e-06,-8.03486382624022e-06,2.87936991957838e-16,-2.0122792321331e-15,9.1820524155769e-16,-8.65796191386456e-06,-5.27092913005124e-06,-2.45009734865728e-16,0.000745574876230714,7.84742658222111e-06,1.00847725876725e-16,-1.19412879996023e-16,4.59081545914493e-16,2.15825509949455e-16,-6.42223324322855e-16,1.29003277459923e-16,1.09877580995975e-15,7.49532495081056e-17,3.94473711992748e-07,8.13041711294557e-17,-6.55543225120561e-05,1.75352080136768e-15,1.39901990101126e-16,-7.90937056746024e-16,-1.46491357133799e-05,-6.02684248927293e-17,-9.98655381936505e-07,1.20202158102021e-16,-3.31417551431552e-16,-1.20501258897965e-16,-6.55443328794664e-06,-9.88568503511407e-16,-4.74060702952812e-15,3.24904118580787e-15,8.47912828144787e-15,2.38251004067881e-15,6.72024291416469e-15,-3.67988579602435e-15
"Palicourea_acuminata",-0.0849223039579772,0.0783138076853427,-0.00387270216597208,0.17110108348576,-0.0134126963663159,-0.0024267261589378,-0.020939077976284,-0.000106718567796049,-0.000353992153422376,0.00372003454292436,0.0220237981709126,6.70115986216698e-05,0.00148699556254578,-0.00162285509508458,0.00113257311416882,-0.000207524706907603,-8.07580693844189e-05,0.000571388175943075,0.0166807386800736,-0.017748427820707,-0.354478043628773,2.83660180132056e-15,-3.49647280579021e-15,-0.00577708444996941,0.560871986569778,0.00042146672173452,0.0174817992611963,-0.000791566603672054,-3.5160495998711e-05,-5.85068486520546e-16,0.000182922999415888,0.00011151534352804,-0.0578605504327719,3.18596893261166e-05,-2.59834045709228e-16,0.000157187717445649,0.00935549768816823,-3.12072752333499e-16,-7.25769697986103e-05,0.039348689627286,-0.000219515276075202,-0.00652805817856883,0.00026897781046123,-0.00569171219992923,0.707106781186548,3.8149629484652e-15,-1.94344470822329e-15,8.72070151656787e-05,-0.000701864978284099,-0.000108883032718903,-6.93353289272983e-16,-1.84356518546096e-15,-2.9473361641847e-16,-3.24706361027301e-15,4.33533758267694e-16,-1.09039815156005e-15,-1.5913459588708e-16,-9.11923348772273e-17,-0.000233148055716339,0.00310881829692444,-3.6494617741703e-05,1.11638401993358e-06,-8.03486382566429e-06,9.81826382348561e-16,-1.40165656858926e-15,3.07582578016328e-16,-8.65796191414211e-06,-5.27092913043863e-06,-6.16240558724765e-16,0.000745574876230399,7.84742658476074e-06,6.65100836675003e-16,6.01303534123555e-16,7.05487830863242e-18,9.99094606093022e-17,-5.13505878856807e-16,7.58593810520881e-17,1.27214747161453e-15,-4.21044156060699e-16,3.94473712143207e-07,-6.78820478038378e-17,-6.55543225119694e-05,2.11090155735653e-15,-1.45480916085557e-16,-6.30997205635833e-16,-1.46491357125316e-05,1.61776180032413e-16,-9.98655381676105e-07,-3.73164323471566e-16,-6.7646428473074e-16,-7.25617435986024e-16,-6.55443328929625e-06,-6.05306799860201e-16,-4.51255809815823e-15,2.99491669379675e-15,6.91787715306874e-15,2.19332471741724e-15,6.68207899722467e-15,-4.37377518641508e-15
"Coussarea_suaveolens",-0.0789413295140211,0.0687787963682349,-0.00276551211062115,0.0618559226518554,-0.00224329310999619,-0.000248536260069968,0.110465120442828,-0.00120743376715971,-0.00202855535505385,0.0204339055567259,0.113070760214622,0.000279010055868869,0.00565903829830961,-0.00612621309227905,0.00411689348978133,-0.000680244752355574,-0.000245375073521854,0.0016789466533036,0.0485440513188529,-0.0402027994583122,-0.787397420683098,3.36091493762908e-15,6.05695082967915e-15,-0.00854751870225749,-0.563774917733892,0.00194499230942582,0.0779517268793746,-0.00293545344889559,-0.000114092486778023,7.20031367487411e-16,0.000569574141845486,0.000336593793462731,-0.00564581493067798,0.00010089842470645,4.76189735986565e-16,0.000481431384881607,0.0285553930906069,-6.68152433937332e-16,-0.000194697530731144,0.00796539657627363,-0.000769451386257358,-0.0226079653508624,0.000818066308873017,-0.0171434449461031,2.72272995843191e-16,4.63292220725793e-16,4.06237159579438e-16,0.000247454192414211,-0.00196926213799496,-0.000302477019060376,-1.92251943665869e-16,-2.93190172682958e-16,1.08310680942333e-16,-1.10925902625166e-16,-7.67629562485228e-17,-1.2779587007516e-15,1.55545658361978e-16,3.44290738549335e-17,-0.000634915960238407,0.000755194241029772,-9.96080182683601e-05,3.03044031874344e-06,-2.16485480717885e-05,7.53113934062744e-16,-1.90125692967058e-15,-1.88390462270872e-16,-2.3177146555013e-05,-1.40290547344174e-05,-5.66685922945584e-17,0.00197455400041826,2.07373969174353e-05,3.30009079954173e-16,-1.16039097139407e-16,-8.09178483612495e-17,-6.81310782687416e-17,-3.17303060851575e-16,-5.28467931666175e-16,7.32873484531236e-16,-1.51305512853898e-16,1.02122782827096e-06,-1.19685053805885e-16,-0.000169482163308802,1.67439456169578e-15,-2.92138898422796e-17,-5.66971383007249e-16,-3.74372064130425e-05,2.03067933681051e-16,-2.54609984994427e-06,-4.09416672283177e-16,-5.39755505464076e-16,-4.88496975350361e-16,-1.65543404920446e-05,-8.87182918232917e-16,-5.05434297809872e-15,3.15592932348531e-15,6.06384823622153e-15,2.12409690726665e-15,6.26997972224702e-15,-4.4729922947692e-15
"Pavetta_australiensis",-0.0493492566102333,-0.170477917184413,-0.0186480257861555,-0.0183616976692134,-0.176559677618601,0.00976369932406785,-0.00407423218589462,0.00138988132511161,0.00391798440989536,-0.118468419749487,0.015101293078017,0.000164515246667609,0.00233574386548122,-0.00523663527904734,-1.9050869567122e-06,5.61846720813717e-06,8.82378712359409e-06,-0.000123189688887966,-0.00517960044495945,0.000304209292416447,-0.000193624871504745,-1.31771312605983e-16,-2.76751619151114e-16,-0.00316460880153637,-7.55599408208013e-06,-1.19811882983914e-07,-5.13921196252688e-07,0.000273910775399402,0.000142148251144785,5.24219345354174e-16,-0.131375126404237,0.00134722289522275,-1.8339912659031e-05,3.73279902981641e-06,2.25643022084224e-16,8.32744906019639e-06,2.7604195396264e-05,-2.44966409336925e-16,9.63762630246135e-06,-5.60408361317222e-05,0.141671393038867,-0.00334489249384883,0.00837607187450464,1.67632590003554e-05,3.03769980131617e-16,4.09264941882236e-17,3.67675411621376e-16,-0.000521054666252824,4.23448274181129e-05,0.55577753285668,3.06893740500659e-15,4.13824516756434e-14,-6.93282363317255e-16,-1.10622840269073e-13,3.79074216678059e-15,1.09199411981385e-15,-2.60535463827801e-15,-1.99350386662901e-15,-1.14015688366998e-05,9.21757360704545e-06,-1.28744779086254e-06,-0.752247001370311,-2.9724231001213e-07,3.29310960011514e-14,-2.29469221402212e-14,3.83032437405821e-15,-2.84180407055532e-07,-2.91164410081468e-06,-3.62932463490408e-16,2.15388854784179e-05,2.22353098965132e-07,-1.27465851718417e-15,-1.12849459921892e-15,-2.8908979365771e-16,1.42475414421289e-15,6.34164697765257e-16,1.66762659782927e-15,7.3077690834497e-16,-1.17192232796475e-16,1.73894667022302e-07,-1.37020469714178e-16,-1.64627397629456e-06,1.71888681349771e-15,6.25600616198679e-16,3.26111757264177e-16,-3.57510215437848e-07,1.39703469092363e-15,-0.0019568107606671,-6.37093093470177e-16,7.94208275007604e-16,-1.4131655670791e-15,-1.57632107938378e-07,1.03590977328823e-16,-4.25278969517827e-15,3.12044517314864e-15,6.02262354746346e-15,1.90315829627604e-15,6.35548586102054e-15,-6.95741193255238e-15
"Rosenbergiodendron_formosum",-0.0498767793230703,-0.173551214120462,-0.019379933496122,-0.0197520473523314,-0.192773262707064,0.0107079567868891,-0.00501468811531573,0.00189153844999803,0.00577752000624273,-0.176416262758289,0.0228954138867756,0.000270870864929021,0.00406275328194705,-0.00916117939792978,-3.43062939353063e-06,1.11642214426138e-05,1.91963797941554e-05,-0.000280018912029897,-0.0119266587461925,0.000959128053145254,-0.000622542593918724,9.91882366493393e-17,1.30048875484161e-16,-0.0131673865695448,-4.41662177840165e-05,1.8223334784567e-05,2.63450345278082e-05,-0.0019193194775316,-0.000407651234363363,3.81766472821445e-16,0.322299643454579,-0.00312896823158492,3.89942746421597e-05,-6.34125284813014e-06,1.7770103165037e-16,-1.21177342592897e-05,-3.94786953474162e-05,9.76567204569586e-17,-1.10254809959301e-05,6.72054955970461e-05,-0.182214164240569,0.00432744067152672,-0.0177596320544706,-4.97203276734871e-05,2.26251824039533e-16,-1.08844927417117e-16,-2.94322566634588e-17,3.1032222921062e-05,-3.60982579844472e-06,-0.0444586994298783,8.75418613787544e-16,-4.63018416139103e-15,-1.35182190536391e-16,8.01182723374104e-15,-5.99937998975779e-16,-6.60792507768625e-16,2.82679335649452e-16,3.69377719028647e-16,4.04754552063482e-07,-1.80334843126468e-07,2.06707129746242e-08,0.00838202095867936,-2.32545288580965e-09,4.56272931763368e-15,-2.00534033822919e-15,2.14315908715489e-16,-8.41402352045467e-09,-1.46467362847794e-07,7.52919215852584e-16,1.47978803531046e-06,1.70989709842096e-08,4.95093816033756e-16,1.15578680312553e-15,1.1736623370941e-15,3.44179714439438e-16,4.75631575829647e-15,-8.66631341514331e-16,-8.80216423555794e-16,3.57737198584921e-16,2.75517765899745e-08,9.84822100764911e-16,-2.70826973701563e-07,3.67769919091086e-15,-1.31888017319999e-15,4.22536827856479e-15,-1.00227522101896e-07,5.343778225318e-13,-0.497745079180964,-1.93120425770614e-15,1.45613027221361e-15,0.707106781186548,-3.23197150652666e-08,-2.6138056501565e-15,-4.22652080635502e-15,1.5795318925084e-15,1.08067012867789e-14,-8.83153809482417e-16,8.17419467399887e-15,-1.45296773334542e-14
"Tocoyena_pittieri",-0.0498767793230703,-0.173551214120462,-0.019379933496122,-0.0197520473523314,-0.192773262707064,0.0107079567868891,-0.00501468811531574,0.00189153844999816,0.00577752000624264,-0.176416262758289,0.0228954138867755,0.000270870864929158,0.00406275328194691,-0.00916117939792975,-3.43062939342071e-06,1.11642214428207e-05,1.91963797944063e-05,-0.000280018912029928,-0.0119266587461927,0.000959128053145422,-0.000622542593919225,2.02434770561857e-17,1.72823257980462e-16,-0.0131673865695449,-4.41662177838008e-05,1.8223334784885e-05,2.63450345273962e-05,-0.00191931947753209,-0.000407651234363404,1.45173537671583e-16,0.32229964345458,-0.0031289682315851,3.89942746420537e-05,-6.34125284820283e-06,-4.37093024444884e-17,-1.21177342591849e-05,-3.94786953475726e-05,7.13320449153065e-16,-1.10254809954609e-05,6.72054955967105e-05,-0.182214164240568,0.00432744067152665,-0.0177596320544706,-4.97203276730149e-05,-4.21233713356244e-16,4.22176846252602e-17,-1.52212582535787e-16,3.10322229210858e-05,-3.60982579783063e-06,-0.0444586994298783,2.58724418085691e-16,-3.69636083023035e-15,-2.11241219910369e-17,9.50347258265329e-15,-7.99611691268234e-16,-1.17535157376224e-16,2.43345261107675e-16,5.94400749468108e-18,4.04754549853011e-07,-1.80334842564318e-07,2.06707143901586e-08,0.00838202095868084,-2.32545566830611e-09,1.42637637812193e-15,5.20417042793042e-16,-1.10580865636029e-15,-8.4140235629554e-09,-1.46467363448044e-07,7.32102534140863e-16,1.47978803385746e-06,1.70989728695017e-08,2.11878630808756e-16,-1.18416962569914e-16,1.25467669520134e-16,-1.20994673852772e-15,2.59812418816904e-15,-5.19363618222857e-16,-6.70597092501132e-16,-8.4712853794671e-16,2.75517770049781e-08,8.28696987943199e-16,-2.70826973910814e-07,2.19921501176445e-16,1.65619683553805e-16,3.28930856680779e-15,-1.00227525648376e-07,5.28792012939153e-13,-0.497745079180968,1.59557123013565e-16,1.41629024700636e-14,-0.707106781186547,-3.23197804342245e-08,1.54828522774787e-15,-3.76661575285156e-15,4.29766336015389e-15,-4.28886240117123e-15,-3.39968094533802e-16,5.25985924082786e-15,3.19919659102871e-15
"Randia_pterocarpa",-0.0498705097038644,-0.17351474583338,-0.0193712870547553,-0.0197357396396486,-0.192583657871178,0.0106969242338477,-0.0050039308317805,0.00188589203182365,0.00575682893212422,-0.175772331117802,0.0228090101824313,0.000269703935750268,0.00404392385074495,-0.00911841777087335,-3.41405925452076e-06,1.11045780379097e-05,1.90857293339761e-05,-0.000278351999677151,-0.0118550196264771,0.000952318483206569,-0.000618087667285116,1.16324084471516e-16,1.45415866820698e-16,-0.0130647444007819,-4.37948371975949e-05,1.80423245377929e-05,2.60804925501477e-05,-0.00189808645480976,-0.000402458337606648,5.91993181736272e-16,0.318039678665416,-0.00308702536971002,3.84588466068902e-05,-6.24787407306968e-06,9.77221637698647e-16,-1.19285741119823e-05,-3.88579215027416e-05,-1.81264251256747e-16,-1.08188264028959e-05,6.59009665821597e-05,-0.178600546518052,0.00424150602054449,-0.0173891356068907,-4.86702167990967e-05,-2.33537930173864e-16,-5.35527509083954e-16,-1.3019288892556e-16,3.02300105755282e-05,-3.50918982126034e-06,-0.0431166342177145,-9.62249826736372e-16,-3.40358756592428e-15,6.63003544323409e-16,7.28286851894998e-15,-5.43804117872672e-16,-1.27670016318205e-16,1.29490562245981e-16,-3.0396237722024e-16,3.8991644243664e-07,-1.73287541536615e-07,1.98512541925433e-08,0.00804290937108762,-2.22337876235046e-09,-7.3461473449471e-15,1.98452365651747e-15,3.76420239658047e-15,-8.00499558263265e-09,-1.3853485522996e-07,-1.98601292380398e-15,1.39050318071988e-06,1.60116223641305e-08,4.91178677536218e-16,-9.67133275380582e-16,-3.94810782700131e-16,2.27962243056959e-15,-3.80851098682191e-15,-1.31940749602517e-15,1.1753128248699e-15,8.03570547881617e-16,2.37752156903668e-08,-6.66895292494083e-16,-2.30510816221613e-07,3.56423722729106e-15,-2.89301101548671e-15,-7.08682888261741e-15,-3.68578344580879e-08,-5.25804126513971e-13,0.502238047199369,0.707106781186548,7.01156618671008e-14,1.05538579047103e-15,-4.0618628134931e-08,2.53609436809385e-15,-6.20061740174382e-15,2.91442719592047e-15,2.1570252189663e-14,5.81506834180703e-15,7.39514449683109e-15,-6.54209071599368e-15
"Randia_hebecarpa",-0.0498705097038644,-0.17351474583338,-0.0193712870547553,-0.0197357396396485,-0.192583657871178,0.0106969242338477,-0.0050039308317803,0.00188589203182356,0.00575682893212437,-0.175772331117803,0.0228090101824312,0.000269703935750292,0.00404392385074474,-0.0091184177708731,-3.4140592546274e-06,1.11045780379199e-05,1.90857293337561e-05,-0.000278351999677309,-0.0118550196264771,0.000952318483206463,-0.000618087667284745,-9.75267997469413e-18,-7.18778607693357e-18,-0.013064744400782,-4.37948371973566e-05,1.8042324537708e-05,2.6080492550401e-05,-0.00189808645480991,-0.000402458337606876,2.91366457974227e-16,0.318039678665416,-0.00308702536971004,3.84588466069903e-05,-6.24787407321454e-06,7.51801774936368e-16,-1.19285741122625e-05,-3.88579215027493e-05,5.53593500285983e-16,-1.08188264033012e-05,6.59009665814813e-05,-0.178600546518051,0.00424150602054541,-0.0173891356068911,-4.86702167995132e-05,-3.8966304301337e-16,-2.31545848926344e-16,5.25147750767048e-17,3.02300105755226e-05,-3.50918981989598e-06,-0.0431166342177152,-1.421951547875e-15,-3.04243982226844e-15,4.24045385507721e-16,8.83349446603514e-15,-4.19819828478437e-16,-2.44392231505647e-16,2.82946647804922e-16,4.7897451997533e-17,3.89916442518172e-07,-1.73287541826262e-07,1.98512532037509e-08,0.00804290937108823,-2.22337605271239e-09,-1.12889840704622e-15,-2.26207941267376e-15,2.21856377939703e-15,-8.00499735855581e-09,-1.38534854774365e-07,2.96883170581501e-16,1.39050318267752e-06,1.60116245525926e-08,-3.99185901596051e-18,1.39401856055134e-15,-1.89765469448254e-16,-1.3961337403269e-15,-4.31611790748728e-15,1.51635612966929e-16,9.6575315851288e-16,-6.25238007794421e-16,2.3775215792722e-08,-1.15608731274098e-15,-2.30510821438794e-07,-7.76958918937987e-16,3.70776811151179e-15,-3.2200903275136e-15,-3.6857842091603e-08,-5.47120408586774e-13,0.502238047199372,-0.707106781186547,-8.6784950517252e-14,-4.56772004513381e-15,-4.0618681288593e-08,-4.07790305546413e-15,-4.22777875200039e-15,3.57585360002813e-15,2.37553692797965e-15,5.73496709500233e-15,5.04285946373462e-15,-3.10963990284651e-16
"Gardenia_ternifolia",-0.0496187274172104,-0.172045155009162,-0.0190194584118882,-0.0190616049957389,-0.18469341373583,0.0102369056207372,-0.00453318089922564,0.00162922412611269,0.00478967775205247,-0.145574895961948,0.0187330629447428,0.000213211195659724,0.00311749877827839,-0.00701102913933508,-2.59076026672752e-06,8.06256995257546e-06,1.33162433181556e-05,-0.000190559877724082,-0.00807108837392907,0.000570254781474757,-0.000367332262363019,2.62058888581488e-18,-3.82048352185519e-16,-0.00706837561219955,-2.12797974839706e-05,5.93303135443662e-06,8.25167377722664e-06,-0.000359622410562843,2.6673947359432e-05,8.98335064979415e-17,-0.0487232149651921,0.000584126038938933,-9.80427776287005e-06,3.01164097782863e-06,7.83898688575846e-16,8.66133526717151e-06,2.95750290989983e-05,-5.01724712857033e-16,2.35784761985632e-05,-0.000178832498108088,0.558332685150825,-0.013379493699312,0.0786315403592356,0.00024334431093799,2.69591531017528e-16,9.40366908196514e-17,4.63892274615977e-16,0.000696801588632521,-3.43757596025533e-05,-0.282674233747285,-4.65566191142755e-15,-1.92746156144018e-14,8.86108246934478e-16,5.65669610860011e-14,-5.8158894962489e-16,-7.52146127537721e-16,-2.42383710450146e-16,-6.06229785469389e-16,1.60931003113365e-06,-6.55231733958627e-07,7.37797427804998e-08,0.0292103226146364,-7.4558251239587e-09,-6.24760659873047e-15,-2.15105711021124e-16,-3.26553885868935e-15,-2.48433006714253e-08,-4.0368318703916e-07,-1.3826306978304e-15,3.85819110188948e-06,4.3551747039007e-08,1.15896292088929e-15,4.67533613394703e-16,1.32084491756091e-16,4.06894631939095e-16,-5.30273283969845e-16,-6.70987165819851e-16,8.43442964346882e-16,-3.66868599873938e-16,5.69176202675261e-08,-2.95924850536674e-16,-5.50754431826567e-07,1.84575276615225e-15,2.03227290076644e-15,-3.94733923029589e-15,-1.40117232913287e-07,-6.57446218414162e-16,-0.00172683925213972,8.2625765930997e-14,-0.707106781186548,-6.4400447022819e-15,-6.96223258709563e-08,-1.38523135144299e-16,-5.97953507686958e-15,2.11864236761254e-15,2.83261476902179e-15,1.17150496848241e-15,4.01055270131883e-15,5.61014010342242e-16
"Gardenia_jasminoides",-0.0496187274172104,-0.172045155009162,-0.0190194584118882,-0.0190616049957388,-0.18469341373583,0.0102369056207372,-0.0045331808992257,0.0016292241261127,0.00478967775205251,-0.145574895961948,0.018733062944743,0.000213211195659682,0.00311749877827847,-0.00701102913933516,-2.59076026667181e-06,8.062569952511e-06,1.33162433181407e-05,-0.000190559877724085,-0.00807108837392919,0.000570254781474763,-0.000367332262363193,-2.19717678439188e-16,-3.89586586619118e-16,-0.00706837561219954,-2.12797974839198e-05,5.93303135430482e-06,8.25167377716766e-06,-0.000359622410562677,2.66739473589628e-05,1.85032924490868e-16,-0.0487232149651922,0.000584126038939521,-9.80427776263562e-06,3.01164097811787e-06,7.11537336836029e-16,8.66133526701755e-06,2.95750291001098e-05,-8.45793966573624e-17,2.35784761984102e-05,-0.000178832498107998,0.558332685150824,-0.0133794936993124,0.0786315403592361,0.000243344310937991,7.0327240000973e-16,5.4556110084498e-17,8.9661375377587e-17,0.000696801588633128,-3.43757596024024e-05,-0.282674233747285,-4.8944303348665e-15,-2.00743129724311e-14,1.01606342983416e-15,5.49791470043936e-14,-1.65338212833826e-15,-6.2906252932366e-16,-1.38638467664302e-16,-7.03567594089295e-16,1.60931003184142e-06,-6.55231734095555e-07,7.37797418090547e-08,0.029210322614638,-7.45582452027493e-09,-5.52596163272412e-15,-7.97972798949331e-16,-1.29576035177857e-15,-2.48433000330471e-08,-4.03683187192557e-07,-1.49712244724486e-15,3.85819109998883e-06,4.35517444974203e-08,-1.01444855591151e-15,-4.35713315825977e-16,-2.37357433190774e-17,-3.17743655289023e-16,5.65386487906084e-16,-1.12059563598817e-15,1.89616502608202e-15,-4.7744868494173e-16,5.69176207849902e-08,-6.17371812891249e-17,-5.50754425155688e-07,1.55713551893036e-15,-2.26378327578941e-15,3.02212794390557e-15,-1.4011724937733e-07,3.533645699546e-15,-0.00172683925211788,-8.20758385578324e-14,0.707106781186547,5.75853099019625e-15,-6.96223391085362e-08,-1.20692239279164e-15,-5.81259236492626e-15,4.22494677205155e-15,7.02717613393371e-15,3.32417126899417e-15,9.22860091624199e-15,-8.24444235371608e-15
"Alibertia_edulis",-0.0493033128137866,-0.170210435925034,-0.0185844487143099,-0.018241315202616,-0.175157782101833,0.00968208872209382,-0.00399380734441143,0.00134736444178983,0.00376147745686634,-0.113595352768355,0.0144468547915587,0.000155646335206522,0.00219237104113238,-0.00491097831425634,-1.77878947646843e-06,5.1628299524974e-06,7.97728066441037e-06,-0.00011043101772487,-0.00463120104687322,0.000252045645659752,-0.000159500960472348,-9.58764118355523e-17,-8.88728803009912e-17,-0.00237966576461206,-4.72497069268349e-06,-1.47641576313658e-06,-2.49295831328787e-06,0.000429243438461404,0.000177733005650973,-6.03044148060929e-16,-0.159749704662612,0.00162306669809225,-2.17755652665222e-05,4.27470776489924e-06,-1.4079665995178e-15,9.28327105712096e-06,3.0669895015883e-05,-4.48681892770093e-16,9.48948514753604e-06,-5.18664217059532e-05,0.122870747529507,-0.00288580352720326,0.00379185102596142,1.08356164783352e-06,4.08250807990179e-16,-1.01756700748584e-16,5.21207976879834e-17,-0.000654217168331733,5.14855872191119e-05,0.664194967584733,9.77451315766893e-15,4.77105515934661e-14,-1.86797356329744e-15,-1.2984889193822e-13,1.78796677538719e-15,-6.03242608323539e-16,1.57339927379826e-15,2.42054158055219e-15,-1.37647466918358e-05,1.23223148613602e-05,-1.93855220230119e-06,0.65737647200503,-3.11771419616788e-07,-9.47917959404077e-15,2.51743070833754e-14,-6.89945574348032e-15,-3.08003841501198e-07,-3.17694048084717e-06,1.3201179317423e-15,2.35349528194207e-05,2.42968720455566e-07,2.01276954522837e-15,1.57367357495854e-15,-6.52483553174217e-16,-4.39743516517155e-16,-1.51035847719869e-15,-1.79615031221785e-15,-8.57967175162554e-16,-3.57064718260325e-16,1.88982174360589e-07,2.29101807423647e-16,-1.78823083540999e-06,1.96052121465081e-15,3.54531595131936e-16,-9.5185475866559e-16,-3.86637930873565e-07,3.84510103845033e-15,-0.00167911839478256,1.08852821530303e-16,-1.29053376593449e-15,2.43035431341274e-16,-1.69752887363965e-07,-1.159670733657e-15,-4.53216275658245e-15,3.15623109228375e-15,7.22700043882983e-15,2.09820175172593e-15,5.99056312847357e-15,-6.63450795755269e-15
"Coffea_racemosa",-0.0494573964314562,-0.171102475618563,-0.0187930679313951,-0.018625530513291,-0.179577832733987,0.00993845148234044,-0.00422225988647525,0.00145702910282928,0.00413271690756361,-0.125031538828709,0.0159525190623253,0.000174184609859283,0.00247219163047431,-0.00554184911620633,-2.01431664603002e-06,5.90180446766507e-06,9.16516485561725e-06,-0.000127010390588469,-0.00532720076189117,0.000281930162072634,-0.000177667474501305,-1.32704100395175e-16,1.41561454327242e-16,-0.00240544434011461,-3.23673622528422e-06,-4.72576173850874e-06,-7.56706933636737e-06,0.00112790884087779,0.000534578071485765,4.51542613508055e-16,-0.518524997781036,0.00545202429966453,-7.81679819181583e-05,2.0089944337245e-05,-4.56285472698209e-16,6.39435600247068e-05,0.000225804522024485,5.62078172910595e-17,-5.15344198109237e-05,0.000176927532767722,-0.316275865997971,0.00728965793201435,0.00184276819507868,2.8384781181932e-05,-8.28767364149903e-17,-1.72458665065644e-16,-2.37689225198357e-16,0.000485778990504594,-2.50786476918611e-05,-0.200614149761421,-1.68758352497182e-15,-1.51415563153703e-14,3.18666762932426e-17,3.84380895558187e-14,-1.6899675785056e-15,-7.15330981468767e-16,2.25888910007066e-16,-9.92218393040162e-17,3.97827143232016e-07,3.44506110978999e-07,-7.26495982122932e-08,0.00143755450384981,-3.70127833573125e-08,-3.32215808682146e-15,-1.03389519168218e-15,-6.0161832359266e-16,-5.39411727253341e-08,-7.09297245217709e-07,-5.57625319505707e-16,6.16923771276265e-06,6.76402071317177e-08,-3.51160445453519e-16,1.10815822321107e-16,1.10779848761583e-15,-7.57410007308129e-16,4.35153217035348e-16,-9.83001154629285e-18,1.08554189000572e-15,5.86866259497086e-16,7.72966825616062e-08,5.04778222176459e-16,-7.4447156944886e-07,1.69997609087481e-15,7.91903726408266e-16,-1.57939954366109e-15,-1.83376954720105e-07,-3.18362199565699e-16,-0.000672476970622576,3.4059123719325e-15,-1.56237278215208e-15,-3.1986636856697e-15,-8.91234791098431e-08,-0.707106781186548,2.66990844313627e-14,6.07206245940719e-15,-3.48180392770657e-14,2.43044795379282e-15,3.80820978035081e-15,9.54344928007403e-15
"Coffea_arabica",-0.0494573964314562,-0.171102475618563,-0.0187930679313951,-0.018625530513291,-0.179577832733987,0.0099384514823404,-0.00422225988647528,0.00145702910282905,0.00413271690756348,-0.125031538828709,0.0159525190623249,0.000174184609859267,0.00247219163047437,-0.00554184911620642,-2.01431664605417e-06,5.90180446769167e-06,9.16516485556748e-06,-0.00012701039058853,-0.00532720076189113,0.000281930162072569,-0.000177667474501633,1.99986875561603e-18,1.46109759876218e-16,-0.00240544434011459,-3.23673622527379e-06,-4.72576173853609e-06,-7.56706933580271e-06,0.0011279088408777,0.000534578071485561,2.39744826094271e-16,-0.518524997781037,0.00545202429966468,-7.81679819179621e-05,2.00899443376636e-05,-5.92620617916014e-16,6.39435600240315e-05,0.00022580452202521,-1.17663073847767e-16,-5.15344198104536e-05,0.000176927532768511,-0.316275865997972,0.00728965793201485,0.00184276819507907,2.83847811821951e-05,-4.50638113383899e-16,-3.69329590867745e-16,-2.21671207632886e-16,0.00048577899050487,-2.50786476938985e-05,-0.200614149761422,-1.63207237374384e-15,-1.3971810591476e-14,-2.63036314622937e-16,3.89231616077846e-14,-8.49251419185249e-16,-3.74072704825023e-16,2.43816199608603e-16,4.98067955925047e-17,3.97827143263675e-07,3.44506109814441e-07,-7.26495938876276e-08,0.0014375545038508,-3.70127825229105e-08,-5.29291237574836e-15,3.87190279838023e-15,2.62475050123147e-15,-5.39411721110251e-08,-7.09297245496717e-07,-1.431925951398e-15,6.16923770968519e-06,6.7640201646766e-08,3.93378330557333e-16,2.94329061641464e-16,7.9193993180357e-16,3.08440185013234e-17,2.14016132633794e-16,2.88158413386138e-16,2.29598672449841e-16,-9.58172148283668e-16,7.72966846071433e-08,-3.21058572562646e-16,-7.44471575416742e-07,2.02131285087665e-15,-7.52972114542002e-16,5.95483329116927e-16,-1.83376956458962e-07,2.54393153579622e-15,-0.000672476970622238,-3.72015797759438e-15,4.40270471161043e-17,7.53034796105087e-16,-8.91234922644511e-08,0.707106781186547,-3.59831679285637e-14,1.55527805613324e-16,4.82162346240402e-14,2.2620067356579e-15,9.06789134150813e-15,-1.77957927013207e-14
