"","c1","c2","c3","c4","c5","c6","c7","c8","c9","c10","c11","c12","c13","c14","c15","c16","c17","c18","c19","c20","c21","c22","c23","c24","c25","c26","c27","c28","c29","c30","c31","c32","c33","c34","c35","c36","c37","c38","c39","c40","c41","c42","c43","c44","c45","c46","c47","c48","c49","c50","c51","c52","c53","c54","c55","c56","c57","c58","c59","c60","c61","c62","c63","c64","c65","c66","c67","c68","c69","c70","c71","c72","c73","c74","c75","c76","c77","c78","c79","c80","c81","c82","c83","c84","c85","c86","c87","c88","c89","c90","c91","c92","c93","c94","c95","c96","c97","c98","c99","c100"
"Cynanchica_pyrenaica",-0.041749621935244,-0.00342105819312925,0.082323160795632,-0.0411988617398339,-0.0142242702285862,-0.441184186300493,-0.40479807886341,0.731326408691849,0.0202916221776147,-0.283793185519046,-0.00256074051010531,-0.0263779369078565,0.00136008968366935,0.00154836559334299,-0.0595759124018201,-0.0307736140991336,2.14533726723018e-15,1.71034615723742e-18,2.92399020818223e-17,-1.18335744005374e-16,0.00322184176916431,0.00678188421629443,-0.000205901230751788,0.000483982989472143,0.00218826585328269,0.00303659567058826,0.00075706860316814,3.9868272545257e-05,6.38308744670013e-18,-0.000211007160223992,-0.000113942218027671,0.000599640174385945,-6.55701076008589e-17,1.10417746718794e-16,-2.54531982917609e-16,4.15067915664835e-17,0,2.05615260387403e-16,1.02310277624762e-17,0,4.27742196221226e-18,-1.03985683974211e-16,0.000255431686330126,2.12214436355576e-06,-2.16307666965571e-06,-0.000463742858080929,-3.03303507925227e-05,1.15265991764959e-05,-1.73627549580692e-16,-6.45360821251264e-16,-0.000163621561043198,3.39065739441155e-05,-7.0761969541611e-05,-2.81659810798929e-05,3.46630370693766e-16,4.38271632169274e-16,-6.76320164857055e-16,4.1968034389308e-17,-1.92355099341346e-16,7.38148202145701e-17,-4.61522931564878e-17,2.18353485238951e-06,1.09651080166918e-16,-1.76384634306632e-16,1.45013436028094e-17,1.75324217013391e-05,-3.6772594822106e-18,-2.53031613745695e-05,-8.18418517153676e-06,-7.50824488239819e-16,9.08020725612272e-17,-1.09111286858436e-16,-1.77143345792837e-16,-7.05675311529686e-16,6.66078060548303e-16,-3.51420218689627e-15,3.06424422615677e-05,-5.74759245848761e-05,2.2048719518463e-06,-4.89375770863599e-16,-3.79110740144315e-17,-1.171343519282e-05,-6.67995652106486e-17,2.89088521845794e-16,6.31462155426562e-06,7.15710202360303e-18,1.71291938812562e-06,-1.32463932289693e-15,-1.02857868254614e-15,4.56601568936785e-15,-1.03344652530334e-06,8.95467280391632e-16,-2.70922954402502e-15,3.98087014265675e-06,5.69922069163199e-07,-2.00667553784421e-15,-3.94194910179273e-08,3.14374571000599e-15,3.95408663546563e-15,-0.0999999999999975
"Galium_spurium",-0.129619200694024,0.0101660536903541,-0.10695399118814,-0.000114244125297799,0.000242613068293937,0.00680681731148358,0.00389691521133231,-0.00573820326974796,-0.000124149901612075,-0.00956399420147917,3.98392294611726e-06,-2.08472258075142e-05,0.0485394544070606,3.09120638060292e-09,-0.000483239098051209,0.000225320249290249,-8.64123438875661e-16,2.56518457492149e-16,-4.88647692926339e-16,-2.07937229309827e-16,-4.52202465614287e-06,-0.00527903394551592,-8.03127836940861e-07,-3.05266947056045e-06,-0.192824122422537,0.00306838729997676,1.32369011814884e-05,6.89222995584837e-07,3.44202407630335e-15,-0.000125818300036593,-1.17860062163668e-06,5.31647880479068e-06,1.00321319851815e-14,-1.61566528928023e-14,-1.89340317262844e-14,1.24787031732819e-14,8.5414541379504e-15,7.53791205686046e-15,5.8548470517892e-15,-2.64211207704574e-15,9.07131653863965e-15,1.02404652027781e-14,-0.000107105259104261,-3.79985068078263e-08,3.90020853206198e-08,0.252081577916802,-1.3030932046819e-06,4.13298129286055e-07,7.96148915347633e-15,-1.03786434630304e-14,0.234902648717416,2.27365381804918e-06,-0.000104375633739076,-0.229997147645443,0.687145058182167,-0.431460641585061,0.302776128153655,-7.98828248707216e-13,4.45962438588399e-14,-6.22987627399266e-13,-1.20641539532603e-14,6.295866476496e-08,5.02076973800308e-14,6.98121211979445e-15,7.06072810761411e-15,0.00859981894962983,-5.03344191585469e-15,-6.81627847495855e-07,-2.20470870713797e-07,-3.41432681769956e-15,-8.13586359940307e-16,-6.49673526757842e-15,-3.39221317059973e-15,1.52232542258292e-14,-6.58259526113066e-15,-1.21393587010535e-14,9.16221851708194e-07,-0.0138391170186591,5.73536163018213e-08,-6.46654585919246e-15,8.3118423579566e-16,-0.00237475818089781,3.71861483767795e-15,7.56098767903439e-15,0.00104827855942943,-4.5442978137085e-14,4.47672528597681e-08,-8.67163059617075e-17,-2.23020607663878e-15,7.45270712762086e-15,-0.000130517571999159,2.4688431736469e-14,4.68191041924291e-16,0.000474886709361949,6.72587213783496e-05,4.88101987239913e-16,-4.59699911954728e-06,-2.11362783341428e-15,7.36946399978176e-15,-0.100000000000005
"Galium_concinnum",-0.129619200694023,0.0101660536903542,-0.10695399118814,-0.00011424412529692,0.000242613068293226,0.00680681731148319,0.00389691521132994,-0.00573820326974983,-0.000124149901612282,-0.00956399420148213,3.98392294511021e-06,-2.08472257988055e-05,0.048539454407062,3.09120567886661e-09,-0.000483239098057359,0.000225320249295393,-3.6867433258074e-16,-8.4313649780946e-16,2.89453392302451e-16,1.81819628149606e-16,-4.52202465385838e-06,-0.00527903394551331,-8.03127836527631e-07,-3.05266947899029e-06,-0.192824122422521,0.00306838729999875,1.32369011752519e-05,6.89222989259088e-07,8.77121552782078e-16,-0.000125818300031346,-1.17860061944413e-06,5.31647879529311e-06,9.87729833154472e-16,-1.29649287620479e-14,9.74231942469911e-15,-1.62482868497532e-15,3.19272104214409e-15,7.48761690930858e-15,-1.42663690400479e-14,-2.1818312823485e-15,3.479720022449e-15,4.72385926138053e-15,-0.00010710525910879,-3.7998512474042e-08,3.90020865752465e-08,0.252081577916717,-1.30309322154801e-06,4.13298092408375e-07,8.35147302630233e-15,-1.30209140633303e-14,0.234902648717738,2.27365357257104e-06,-0.000104375634293977,-0.229997147647495,0.155719788788123,0.851234596509191,0.0339265248067265,-2.30034771065193e-15,3.44193783234779e-13,-2.30275366145245e-13,7.82640259053589e-15,6.2958679302862e-08,-5.81167541756955e-15,-2.19666419378548e-14,3.03189823959013e-14,0.00859981894956975,-1.27492397561409e-14,-6.81627888208154e-07,-2.2047091491434e-07,7.09970822175253e-15,1.85920596099364e-15,-4.65036920578905e-15,2.89160313157982e-15,-5.21710843905874e-15,-1.76938454270867e-15,8.14755962302503e-15,9.16221835025084e-07,-0.013839117018585,5.73535801726614e-08,5.10836118703533e-15,8.74650789295928e-16,-0.00237475818094039,2.0313994651263e-15,1.67139780636673e-15,0.00104827855941746,1.63553990274212e-14,4.47672707658421e-08,1.91146973925318e-15,1.57713422683865e-16,4.5979528240519e-15,-0.000130517571955517,-4.78912914735453e-15,-3.25435313840796e-15,0.000474886709337862,6.72587213876785e-05,-5.40478036140826e-15,-4.59699911593077e-06,-5.0107354402378e-15,3.282879877027e-15,-0.0999999999999954
"Galium_setaceum",-0.129619200694023,0.0101660536903548,-0.106953991188141,-0.000114244125297054,0.00024261306829288,0.00680681731148284,0.00389691521133076,-0.00573820326974955,-0.000124149901611393,-0.00956399420148046,3.98392294427928e-06,-2.08472258003645e-05,0.048539454407062,3.09120636745697e-09,-0.000483239098058935,0.000225320249294113,5.38916126260556e-16,-1.63260886302829e-16,-2.12361770175936e-16,3.16607657426537e-16,-4.52202465345459e-06,-0.00527903394551183,-8.03127833019546e-07,-3.05266947819833e-06,-0.192824122422516,0.00306838729999991,1.3236901168402e-05,6.89222998668073e-07,-1.5497606687799e-15,-0.000125818300019623,-1.17860062692401e-06,5.31647879829733e-06,-5.39853669725025e-15,-5.12374283506458e-15,-3.29794990446007e-15,-1.50546064831124e-15,3.79993318740864e-15,5.47763895316944e-15,-6.54531963228879e-15,1.13593554699731e-15,5.06485127998912e-15,4.83742281707566e-15,-0.000107105259098229,-3.79985070816831e-08,3.9002073551483e-08,0.252081577916732,-1.30309321754836e-06,4.13298064568842e-07,-1.12423836434426e-15,-1.7181295893927e-14,0.234902648717816,2.27365369841648e-06,-0.000104375634153012,-0.22999714764747,-0.693803898925359,-0.186051186598427,0.483757279843001,1.29363536063885e-13,1.1994636748845e-13,3.99610289841307e-13,2.6389885581986e-15,6.2958622682117e-08,-1.29446771135938e-14,-7.29893242002454e-15,-1.0036087066802e-14,0.00859981894957666,-1.69493422706766e-15,-6.81627864953527e-07,-2.20470891339178e-07,-3.50875538641895e-15,3.20010354560502e-15,2.71333483320046e-15,-1.96583644776417e-15,-5.73604181021607e-15,1.59996563540388e-14,-1.25358599086719e-14,9.16221846998414e-07,-0.0138391170185883,5.73536057731815e-08,-2.95402690377863e-15,-2.38940391005005e-15,-0.00237475818091993,-4.25665591777357e-16,-7.00100504705458e-15,0.00104827855940466,-6.98470491830942e-17,4.47672669029545e-08,8.28802615326492e-16,-1.80155399104941e-15,6.42334866889371e-15,-0.000130517571958515,5.91832554807054e-15,1.84425968516601e-16,0.000474886709358243,6.72587213896433e-05,-1.12785267259594e-14,-4.59699910761822e-06,-1.24701980015788e-15,9.5235502271715e-15,-0.100000000000004
"Galium_sterneri",-0.129619200694023,0.0101660536903536,-0.106953991188139,-0.000114244125297332,0.0002426130682934,0.00680681731148381,0.00389691521133185,-0.00573820326974896,-0.000124149901610789,-0.00956399420148244,3.98392294593447e-06,-2.08472258010466e-05,0.0485394544070621,3.09120929382705e-09,-0.000483239098058667,0.000225320249294106,7.32366046424332e-16,1.03008183191158e-15,-3.35039455097914e-16,7.64661990565264e-16,-4.52202465255134e-06,-0.00527903394551473,-8.03127833766249e-07,-3.05266947577199e-06,-0.192824122422529,0.00306838729999688,1.32369011769181e-05,6.89222997228303e-07,-3.77879323446143e-15,-0.000125818300032059,-1.17860062266479e-06,5.31647880189791e-06,-6.19336045536742e-15,-2.46068729809954e-15,1.31962023927843e-14,-2.3146650083943e-15,1.33477498839116e-15,3.27311324901094e-15,-8.3431011229654e-15,3.60398766334763e-15,4.66022277962406e-15,7.40304320413293e-15,-0.000107105259101216,-3.79985026449854e-08,3.90020676047891e-08,0.252081577916745,-1.30309322184021e-06,4.13298068990224e-07,9.41757973578347e-16,1.74278011361422e-14,0.234902648717796,2.27365393439969e-06,-0.00010437563413517,-0.229997147648231,-0.149060948043341,-0.233722768326411,-0.820459932802158,5.94089957513745e-13,-6.43825406483885e-13,4.85589340990299e-13,-3.61931655943741e-15,6.29585890970873e-08,4.59502833937863e-15,1.82311502987682e-15,-4.91901158394364e-15,0.0085998189495134,1.45191298060101e-14,-6.81627862535457e-07,-2.20470886763729e-07,4.94498091878612e-15,-8.90269371054861e-16,-5.51119470628452e-15,-8.60415638314064e-15,-1.16115271001658e-14,-1.07617738916774e-15,-2.84638857869084e-14,9.16221828104858e-07,-0.0138391170185762,5.7353606043385e-08,2.14735012602022e-15,-7.65836642832818e-16,-0.00237475818092087,-3.83164050167757e-15,4.37270733968903e-15,0.00104827855942536,8.02489510871466e-15,4.47672614534983e-08,-6.29730663337777e-15,-6.01535560712031e-16,6.54715716552815e-15,-0.00013051757195812,3.4699839651847e-15,-9.19679745608144e-15,0.000474886709351404,6.72587213897987e-05,2.57711221686584e-15,-4.59699910880541e-06,1.00426001284682e-14,6.27062694090823e-15,-0.099999999999993
"Galium_richardianum",-0.131149078299635,0.0104105337264609,-0.119789475191763,-0.00013721708794998,0.00031595657605928,0.00947102451840163,0.006268248732458,-0.00974884896011205,-0.000224110644486859,-0.0218039055263889,1.12105461826834e-05,-7.90517769668546e-05,0.314702388618571,2.49598507882595e-08,-0.0148804531943708,-0.00404907250796245,4.28307574104893e-16,-3.07632705185931e-16,-4.07225243738687e-16,-3.57456412795856e-16,1.67674916756994e-05,0.0160142569043926,2.12375003402146e-06,5.48877003504709e-06,0.234232135869081,-0.00192963803430073,-7.3771647421002e-06,-3.66858779655946e-07,-1.33229347018597e-16,5.23813901737006e-05,4.02130247833313e-07,-1.74051705886394e-06,-1.5366411701867e-15,2.71899439276585e-15,-1.989740849419e-15,-1.4427721099022e-15,-2.50634720052264e-16,-4.54375805890028e-16,1.33770172223716e-15,6.90660234561986e-16,2.81196231311934e-16,-1.82824783382599e-15,2.87245650356933e-05,1.00078626013628e-08,-1.02688894891672e-08,-0.0600619581588717,2.62687106508873e-07,-7.77454422276041e-08,-4.48253765603582e-15,-4.304192231718e-15,0.0196616894957727,5.95722281393012e-08,-1.07394122357895e-06,-0.000172717529446913,1.15046860926782e-14,1.32532873564628e-15,5.68989300120393e-15,-8.32968941225543e-16,-6.40802027521511e-17,-6.38700730235475e-16,-3.75683764515934e-16,9.87020527190792e-10,2.94352189695111e-15,-3.53362591560971e-15,1.39296779220603e-15,0.000362603330971601,-2.49652843020331e-15,-4.97690433093656e-08,-1.66783761239754e-08,-6.65925583842957e-15,8.74375931487993e-16,-4.75649649496085e-15,1.27754414460119e-16,-4.39882693057478e-15,4.54728746584372e-15,-7.76386388818458e-15,8.33632512998091e-08,-0.00127807237900011,6.00838235739025e-09,-8.14320959111852e-17,4.02283547335929e-15,-0.000260510583974327,2.11867270734297e-15,3.56247234175326e-15,0.000140099807073184,-3.29006346486285e-14,7.15355622882856e-09,2.61443385743095e-14,1.24961483025794e-15,5.75295090014447e-14,-2.55881575797094e-05,9.67637080499765e-14,-8.8657006035115e-14,0.31439566769929,0.194261632219548,-4.98054400492329e-14,-0.403316240437798,0.707106781185856,2.85248058870853e-14,-0.0999999999999817
"Galium_circaezans",-0.131149078299635,0.0104105337264609,-0.119789475191763,-0.000137217087949977,0.000315956576059192,0.00947102451840168,0.00626824873245888,-0.00974884896011067,-0.000224110644487502,-0.0218039055263884,1.12105461835763e-05,-7.90517769687929e-05,0.314702388618569,2.49598519275798e-08,-0.0148804531943693,-0.00404907250796269,7.5653089812172e-16,-4.53236838539665e-16,-1.23822541256118e-16,3.39651185377051e-16,1.67674916773039e-05,0.0160142569043926,2.12375003310022e-06,5.48877003650115e-06,0.234232135869076,-0.00192963803430005,-7.37716473855192e-06,-3.66858784205332e-07,6.63555907642005e-16,5.23813901693231e-05,4.02130246955259e-07,-1.74051705524078e-06,1.66488926285804e-15,4.09931532639372e-15,-5.09659746893111e-16,1.35198070672607e-15,-1.55949805703292e-15,-1.35794943986933e-15,5.98227856820107e-16,1.74166079448467e-16,-1.16644182469511e-15,-3.5586344616981e-15,2.87245650326827e-05,1.00078634918252e-08,-1.02688910623807e-08,-0.0600619581588746,2.62687106424876e-07,-7.77454406761987e-08,1.30429112835355e-16,-1.4938709163922e-15,0.0196616894957652,5.95722333509446e-08,-1.07394122520967e-06,-0.000172717529440748,7.5842110369706e-15,-6.34214902817121e-15,-7.99013633034917e-15,3.29331553426943e-16,-1.56211589939742e-15,-1.64109314496685e-15,2.24484556978368e-16,9.87021131166815e-10,1.17114158096914e-15,-5.39421982480567e-15,3.00418611039319e-15,0.000362603330991947,-2.66692596163025e-15,-4.97690483180847e-08,-1.66783836267384e-08,-3.76339223679497e-15,-4.12062811301151e-15,-1.55878599121264e-15,-3.97964885733908e-16,-1.36823385458839e-15,3.20847394005237e-16,9.1918434477084e-16,8.3363258380858e-08,-0.001278072378984,6.00838074157145e-09,-8.54974689292652e-16,-3.42716136865978e-16,-0.000260510583969233,-8.11019501257526e-15,-1.13665219745911e-15,0.000140099807076645,4.22264274558928e-15,7.15353047162289e-09,4.10598831128412e-15,1.30646277837523e-14,-8.63946092942764e-15,-2.55881574894756e-05,-8.54417282595058e-14,2.45147902515579e-13,0.314395667698521,0.194261632219482,7.99435418405395e-14,-0.403316240435997,-0.70710678118724,2.38380349105219e-14,-0.100000000000023
"Galium_texense",-0.131148815324914,0.0104104918028389,-0.119787310858538,-0.000137213260189698,0.000315944509227004,0.00947059033731816,0.00626786935904389,-0.00974821130645345,-0.000224094854258551,-0.0218020127067705,1.12094453304479e-05,-7.90430538677449e-05,0.314663253995526,2.49566525669493e-08,-0.0148783799424994,-0.00404846601253189,6.50869119300016e-16,-3.35782023722965e-16,5.0633846573685e-16,4.83004341286478e-17,1.67645747107165e-05,0.0160113671975856,2.12335586308434e-06,5.48765106025236e-06,0.234178379296866,-0.00192907203836498,-7.37489057242008e-06,-3.66743502629057e-07,6.06091863173977e-16,5.23631220960637e-05,4.01977473759849e-07,-1.73984392975779e-06,7.88006725698365e-16,2.98961074316582e-15,-6.51465818527159e-16,1.24801252651863e-16,-1.02326128921499e-15,-1.37766982312641e-15,1.53835731774924e-15,6.44274837602754e-16,-9.89541123425373e-16,-1.57047236305103e-15,2.87124588122731e-05,1.00036147607587e-08,-1.02645303162632e-08,-0.0600353184438012,2.62561765419519e-07,-7.7707170674219e-08,-6.29867171782984e-16,-1.64173432226017e-15,0.0196488948696577,5.95325067987381e-08,-1.07321058446395e-06,-0.000172595666233261,2.09554595897998e-14,-5.20417042793042e-16,2.2586099657218e-15,-6.22338597248318e-16,-5.56378251659383e-17,-2.41689657392628e-17,6.18458266382238e-16,9.862035512397e-10,-2.73651546603462e-16,4.07111845733022e-15,-3.66114204542746e-15,0.000362244682577996,-4.72631917296971e-16,-4.97066350637788e-08,-1.66569778895048e-08,2.84419914607763e-15,1.20281894253079e-15,3.02369607004264e-15,2.22399745273011e-15,2.84680126457483e-15,-1.22145124340515e-16,1.92198739092708e-16,8.32392668492211e-08,-0.00127614420957167,5.99795006015419e-09,-6.46674584945667e-15,-2.47047076087449e-15,-0.000260029116688352,-2.11065535543555e-15,3.07123855570304e-15,0.000139725984834716,-3.91442890187968e-16,7.12002872390781e-09,3.6489781925485e-15,-6.82893529385416e-15,-1.31390054021381e-14,-2.53192901723566e-05,7.2471814734319e-15,-1.20315878097174e-13,0.303161721530285,0.181237332538956,1.97666364199508e-13,0.82130784913097,8.73795670917964e-13,-1.27666728200076e-14,-0.0999999999999719
"Galium_porrigens",-0.131143059874664,0.0104095742444531,-0.119739934053233,-0.000137129462294383,0.000315680310581484,0.00946108331335331,0.00625956109311763,-0.00973424596424478,-0.000223749011126076,-0.0217605480805187,1.11853267618428e-05,-7.88519139631426e-05,0.313805607519218,2.48865523177626e-08,-0.0148329365780474,-0.00403517078638282,1.75469354125022e-16,2.3711464858805e-16,-9.98098054285326e-17,1.22983433142644e-16,1.67006137985732e-05,0.0159479994972895,2.11471169696424e-06,5.46310703417009e-06,0.232998929698293,-0.00191664506751815,-7.32495087500821e-06,-3.64211802849483e-07,4.60542401751823e-17,5.19617852704894e-05,3.98619978709474e-07,-1.72504959445183e-06,-2.49823357243562e-15,2.63118111541108e-15,6.11517477685295e-17,-3.09355435562809e-16,-8.97050484416316e-16,-1.60283892170677e-15,1.71525919498333e-15,1.01691328424282e-16,-1.79795938539202e-15,-7.67725670287838e-17,2.84462809868411e-05,9.91014434954099e-09,-1.01686095184153e-08,-0.0594494523939105,2.59804248597616e-07,-7.68650298844316e-08,2.0244221691061e-15,9.82357889955712e-17,0.0193668702735713,5.86566519133636e-08,-1.05710031952594e-06,-0.000169907881381402,4.38538094726937e-15,-5.44703171456717e-15,-1.66186508998578e-15,-7.37840175866318e-16,1.88059587747303e-16,1.8525083767426e-15,-1.70799923305802e-15,9.68088145792569e-10,-4.60299979321476e-15,4.33424535892633e-15,-2.03112223381069e-15,0.000354309611433332,3.74432878997069e-15,-4.8321939496019e-08,-1.61819088771409e-08,4.52006613353653e-15,1.28132253259845e-15,7.3907827291526e-16,1.19861859971674e-15,-1.35847001166618e-15,-1.00590516615125e-15,-6.7252983270985e-15,8.04810750748116e-08,-0.00123323697880237,5.76515079269858e-09,-2.60059143842416e-15,-1.67577350369239e-15,-0.000249274479366398,1.233972824814e-15,-1.54817142797925e-15,0.000131298650132614,4.56712163079543e-15,6.34649270266961e-09,-2.87834056385761e-14,-1.8116562076513e-14,1.71601518431517e-14,-1.86705248531939e-05,-2.5624594014548e-14,-2.58528325958432e-13,-0.100552364960266,-0.888972719911789,-5.81492046692962e-13,-0.0103548334874782,8.47525514163956e-14,-2.76273959393909e-14,-0.0999999999999987
"Galium_boreale",-0.131137125210926,0.0104086281013365,-0.119691076383547,-0.000137043039005636,0.000315407814383205,0.0094512771670682,0.00625099051584643,-0.00971983919668032,-0.000223392223388116,-0.0217177662167036,1.11604399571017e-05,-7.86546685035793e-05,0.312920475913507,2.48142019809272e-08,-0.0147860318140845,-0.00402144696660927,6.17220641192132e-16,1.77555261286454e-16,-3.75464698217679e-16,4.83127717633928e-16,1.66345794679166e-05,0.0158825745421755,2.10578656173203e-06,5.43776188498536e-06,0.231780756614815,-0.00190380415929474,-7.27334211231287e-06,-3.61595376348165e-07,-7.71966742905418e-16,5.15469131377064e-05,3.95148468301627e-07,-1.70975209225684e-06,4.30395935482217e-16,2.24579323907127e-15,-1.48777908078024e-15,-5.85074197939735e-16,-6.29915718200171e-17,-1.18638598820311e-15,2.75503894983914e-15,1.54779802829011e-15,-3.09406925963359e-15,-6.72375745862162e-16,2.81709805822064e-05,9.81347203048464e-09,-1.00694002803629e-08,-0.0588434097921573,2.56951073121427e-07,-7.59935706247042e-08,-3.28443632900173e-15,8.46088582403056e-16,0.0190746907795349,5.77491661498564e-08,-1.04040634504128e-06,-0.000167122196149023,1.44953493652622e-14,-2.18297602216921e-14,7.27889970519868e-15,9.37665231936924e-16,-1.08994817792721e-15,-1.66381941426323e-15,1.12908372153588e-15,9.49297200826254e-10,1.07622660323163e-15,-3.16168665349816e-16,1.46424576017625e-16,0.000346068285527391,1.26257007561391e-15,-4.6880948436017e-08,-1.56874236405908e-08,-6.74661560703293e-16,2.10876175627509e-15,3.57127878732169e-15,-5.57990552392445e-15,-8.99550559497263e-16,-3.06861133360587e-15,-5.27361247590759e-16,7.7605735537802e-08,-0.00118850037625239,5.52199767216798e-09,8.20568148217372e-15,-7.28894275159056e-17,-0.000238032438896351,5.5515614651824e-15,-3.50917237137917e-15,0.000122433472566459,2.47116199789809e-14,5.51939709879149e-09,-1.06560672912742e-14,5.35426139894169e-15,-3.06344713365183e-14,-1.11688825674945e-05,8.92016139654602e-15,2.08577182913611e-13,-0.836833477238777,0.318442013497396,3.45460802829072e-13,-0.00426784859524262,4.36741124746763e-13,7.75766440165724e-15,-0.100000000000021
"Galium_tinctorium",-0.129827470437026,0.0101992594565395,-0.108668710067193,-0.00011727585506401,0.000252163268741573,0.00715014231776734,0.00419613474624253,-0.00624056884136345,-0.000136573636443663,-0.0110452030159743,4.84113335243862e-06,-2.75958342591855e-05,0.0785378424796955,5.53607995307671e-09,-0.00205311863149179,-0.000229237653531754,-4.02156819704348e-16,-3.11732010231387e-17,-5.33645153219067e-17,4.77008963232647e-16,-2.40072116229636e-06,-0.0031982059357647,-5.21690284874602e-07,-2.28133376868156e-06,-0.158147608369577,0.00280569117586647,1.23253136868325e-05,6.46266608732092e-07,-1.23192812757289e-15,-0.000122743900935595,-1.19342274686978e-06,5.43016902630727e-06,-9.11299152586491e-15,-1.12831287633014e-14,5.86965028867609e-15,-1.32003875259442e-15,1.66818033441264e-15,5.71428850361567e-15,-7.72530862772529e-15,-2.9206787054869e-15,4.05364936394242e-15,6.56653198692531e-15,-0.000114855484864505,-4.0958836452965e-08,4.20444866333361e-08,0.280450517264947,-1.55472464425593e-06,5.12976775204326e-07,5.89435808215525e-15,1.06370189461434e-14,-0.592083707862579,-2.35815934344826e-06,5.64861686716022e-05,0.0212936465950848,-2.44838871399367e-13,1.13471732010595e-13,-9.76267677810227e-14,1.84475941449831e-14,1.46361780019667e-14,-1.47328403225939e-14,-1.14063015887914e-13,2.90070108855893e-08,0.707106781186551,2.86785366714834e-14,-1.46596327806947e-14,0.00523465662388117,2.08389574459095e-14,-4.70266995495531e-07,-1.53215601698589e-07,-3.6854280621331e-15,-2.61176341680438e-15,-4.58642442519825e-15,-1.03049315282648e-15,-2.45717316849912e-15,1.21991514505805e-15,-2.64365405355074e-16,6.60173359253401e-07,-0.00999953408779569,4.23999837952621e-08,5.76664385551711e-16,-7.12301635034959e-16,-0.00176970143687918,2.05761525379758e-15,-2.37995748154285e-15,0.000806432125801401,2.99293967196318e-15,3.52560254335936e-08,-1.70009550696262e-15,-9.40179834779079e-16,4.48293870078007e-15,-0.000104238938662227,-5.43407879514172e-16,-9.51355403807669e-15,0.000811222167317484,0.000114551956921117,-1.44399650593943e-15,-7.8037755757439e-06,4.75277695556643e-15,1.32226094044029e-15,-0.0999999999999985
"Galium_bifolium",-0.129827470437026,0.0101992594565395,-0.108668710067193,-0.00011727585506393,0.000252163268741813,0.00715014231776735,0.0041961347462426,-0.00624056884136373,-0.000136573636442994,-0.011045203015974,4.84113335208268e-06,-2.75958342594562e-05,0.0785378424796953,5.53607979505424e-09,-0.00205311863149322,-0.000229237653532077,-2.1619824456939e-16,5.64332050439522e-16,-3.54028693027624e-16,1.81403573211335e-16,-2.40072116389523e-06,-0.00319820593576575,-5.2169028447796e-07,-2.28133377275247e-06,-0.158147608369575,0.00280569117586376,1.23253136836698e-05,6.46266610937075e-07,1.42652163154676e-15,-0.00012274390093863,-1.19342274819873e-06,5.43016902030811e-06,-9.13897933486184e-15,-9.05605864109692e-15,5.29144054541011e-15,-2.8232099227715e-15,4.43397935021004e-15,3.59317735204831e-15,-5.05526240629061e-15,-3.43863640837162e-15,5.12884426670715e-15,7.83374842233502e-15,-0.000114855484862727,-4.09588387133755e-08,4.20444868871459e-08,0.280450517264956,-1.55472464072253e-06,5.12976775357242e-07,7.48089904850868e-15,1.65230352940774e-14,-0.592083707862586,-2.35815934282753e-06,5.64861686989703e-05,0.0212936465950307,-1.85497450733152e-13,7.77225506176649e-14,-9.01050067891873e-14,1.06927243112612e-14,7.90648578569043e-15,8.30699373484416e-15,1.10723639545805e-13,2.90074802650511e-08,-0.707106781186544,-2.67275647693093e-14,7.66189230839691e-15,0.00523465662390702,-2.44206530221189e-14,-4.70267003536714e-07,-1.53215588129667e-07,-8.04477187893301e-16,-2.23998111350478e-15,3.69281596891719e-15,3.65140525599138e-15,5.67312344591668e-15,-1.78627467008183e-15,1.02494050480011e-15,6.60173372544359e-07,-0.00999953408779613,4.2399983239349e-08,-3.48681566235757e-15,1.68740169204515e-15,-0.00176970143686592,-2.99862500419834e-15,-9.34284878556373e-17,0.000806432125809317,3.53415434166614e-15,3.52560248088932e-08,-6.43200025977095e-16,-1.68107438047279e-15,2.19884925587547e-15,-0.000104238938654961,-5.0956650221652e-15,1.05067277967506e-15,0.000811222167318865,0.000114551956928549,-1.16404440255852e-15,-7.80377557850905e-06,6.22382246319476e-15,4.24900853515244e-15,-0.0999999999999998
"Galium_album",-0.131856059331509,0.0105253752022428,-0.126623435803613,-0.00015076743043861,0.000364948683127702,0.0114519072968517,0.00854516082299289,-0.0140294484621261,-0.000344986643377139,-0.0485918600990724,5.00277139610939e-05,0.000426298099770458,-0.240469960372194,-1.26579697203873e-08,0.001301435941061,-0.000456508307282982,2.38405519525002e-16,-1.17959626672477e-16,8.77150565894293e-17,-5.89166974193938e-16,5.72806845591486e-06,0.00605321926160877,8.55362724254115e-07,2.57879434860008e-06,0.124361293032743,-0.00117659091702637,-4.57646100397325e-06,-2.28931580338416e-07,1.16021034989294e-15,3.35196293718644e-05,2.60244813483428e-07,-1.12764698857155e-06,-1.15445395957758e-15,3.14837185965403e-15,-1.22930669164499e-15,6.69828489702548e-16,-1.20444375230453e-15,-9.73231773243126e-16,1.42645596451599e-15,-1.08352606690566e-16,-3.24014163212503e-17,-1.97800124923092e-15,1.85644272998108e-05,6.46153212839536e-09,-6.62993715060901e-09,-0.0384458757350385,1.63030446009195e-07,-4.7169105327044e-08,2.0096382201557e-15,9.27893278240805e-16,-0.00657772008549184,-4.73274334780174e-08,1.5548087267291e-06,0.000886633532121549,-3.12389003553903e-14,8.6389229103645e-15,-3.71820629840869e-14,-2.2315496241e-16,4.12537029416692e-17,-2.56193853496799e-15,-4.26280802676737e-16,3.73858198739779e-09,9.18556133140241e-15,-9.8951184503112e-14,-1.89757642554157e-15,0.430903746585236,-1.42381668749152e-14,-5.10923475122109e-08,-2.12726691003201e-08,-3.71875913299058e-15,-2.08117530006219e-15,1.56073123611524e-15,3.31811699762168e-15,-1.98516731289489e-15,8.85235517051011e-15,1.65476789202313e-15,1.18458508463778e-06,-0.156360683687597,-1.03373316119368e-08,-2.41985242257635e-15,-8.71961598592484e-15,0.0864330259761073,-4.71051060382671e-15,-8.42210829073322e-15,0.0139972007404272,1.32447645278967e-15,2.43262511885561e-09,9.32739324694452e-15,-2.03070487301358e-14,3.00242778064827e-14,-0.4013230480786,-0.7071067811865,1.06886433950905e-13,3.13958763163957e-05,4.68027812056313e-06,5.55545840262682e-14,-3.35027971419141e-07,7.34268847131889e-14,9.99824544294865e-15,-0.0999999999999998
"Galium_mollugo",-0.131856059331509,0.0105253752022428,-0.126623435803613,-0.000150767430438659,0.000364948683127674,0.0114519072968517,0.0085451608229931,-0.0140294484621262,-0.000344986643377345,-0.0485918600990725,5.00277139609603e-05,0.000426298099770593,-0.240469960372195,-1.26579695712418e-08,0.00130143594106097,-0.000456508307283153,1.306124603207e-16,-3.2272892065894e-16,-2.95373342914749e-16,3.85498557063657e-16,5.72806845755984e-06,0.00605321926161043,8.55362723709871e-07,2.5787943480274e-06,0.124361293032745,-0.00117659091702973,-4.57646100506685e-06,-2.28931581019071e-07,1.01393482326735e-15,3.35196293715058e-05,2.60244813715787e-07,-1.12764698948883e-06,-5.55264018455372e-16,2.70218035045841e-15,-1.36589856185813e-15,1.03804235551814e-15,-1.05109172042093e-15,-2.81793312936308e-15,2.38586370894746e-15,1.05954733199646e-15,-1.47739767213898e-15,-1.02294851969104e-16,1.85644272982567e-05,6.46153175064877e-09,-6.62993874904046e-09,-0.0384458757350453,1.63030447041527e-07,-4.71691013040637e-08,1.06409590683753e-15,2.26932073099677e-15,-0.00657772008550393,-4.73274313157739e-08,1.5548087309021e-06,0.000886633532137918,-4.77604067405935e-14,3.24393290007663e-14,-4.7642445544227e-14,-3.88996165083703e-15,9.85739137079319e-16,-9.49788219473642e-16,-2.64046263437066e-15,3.73857651979858e-09,4.62497331305938e-15,-9.97137602543903e-14,-6.03669654103769e-16,0.43090374658522,-1.3699915374868e-14,-5.10923521088266e-08,-2.12726664450473e-08,-8.07533059139592e-15,-8.01576038796377e-15,2.08149129924563e-15,-1.79169442817624e-15,-3.11231204533894e-15,6.22504905502104e-15,3.41694901293707e-15,1.18458508985917e-06,-0.156360683687589,-1.03373237584109e-08,-3.95694359689954e-15,-1.08348932769621e-15,0.0864330259761033,-6.23085965733688e-16,-6.57693190934095e-16,0.0139972007404157,-2.7015322662487e-14,2.43261778132206e-09,2.85252245789495e-14,-1.99401073600342e-14,5.02193789253908e-14,-0.401323048078458,0.707106781186594,-1.18766277119895e-13,3.1395876315098e-05,4.68027807918822e-06,-1.19356267955146e-14,-3.35027973757547e-07,-1.09045208277859e-13,2.32383360577147e-15,-0.0999999999999884
"Galium_verum",-0.131847761799832,0.0105240447539101,-0.126551538550872,-0.000150635148716829,0.000364509916012066,0.0114353697438327,0.00852884894192917,-0.0140004939463995,-0.000344219353215292,-0.0484585150707117,4.98722698711702e-05,0.000424808100752848,-0.239521636011609,-1.26065098177911e-08,0.00129567820306235,-0.000454335084577914,-3.06044454463093e-16,6.52901844316617e-16,5.70078031296469e-16,-3.98299474174128e-16,5.69633197205618e-06,0.0060184125230399,8.50301515054659e-07,2.56200748970158e-06,0.12344793561826,-0.00116548538344459,-4.53100354895452e-06,-2.26612398446512e-07,7.62205205335106e-16,3.31416290008572e-05,2.57039071894245e-07,-1.11349831140643e-06,1.50592592979725e-15,1.96023088814428e-15,-1.94046073296127e-15,7.92758437406249e-17,-4.3198924333818e-16,-7.72892735813173e-16,9.02251493482175e-16,-1.29381525252048e-16,-1.27633412604097e-15,-8.44937603156764e-16,1.830981168406e-05,6.37219037764488e-09,-6.53825555317972e-09,-0.0378898777558767,1.60486539177574e-07,-4.64087234222623e-08,2.31084898093492e-15,1.13953532069696e-15,-0.00643555710835535,-4.62776660517689e-08,1.51958309449901e-06,0.000865753587408178,-4.87110352054287e-15,-4.7045700668491e-15,-2.59653409884208e-14,-6.40413724130431e-16,-1.92122527571806e-16,3.38371595975855e-16,1.48782029860953e-15,3.63370609675259e-09,1.28197811473713e-14,-1.0166337870711e-13,7.29928290923398e-16,0.416304525312012,-1.23938362149717e-14,-4.88427890433996e-08,-2.03114035733844e-08,6.61085220297651e-15,-3.70959116192731e-15,3.58605046489841e-15,2.88031755658484e-15,2.73486874633817e-15,1.06436131752371e-15,2.20722906849812e-15,1.12131881895541e-06,-0.14787162524891,-9.6765731505433e-09,-1.7727191067498e-14,-4.90705493430995e-15,0.0804879031040145,-1.73318025420501e-15,-6.88247463936546e-16,0.0124821226728741,-1.64369668894457e-15,1.8383608338821e-09,-4.08416904146536e-14,4.29526530601898e-14,-6.98796800692817e-14,0.823289163716626,-7.63290097326213e-14,5.10424275337599e-15,4.87091528534091e-05,6.7790946558555e-06,-5.20459711329286e-14,-4.59351584033233e-07,6.00964752432114e-14,-1.58111701591051e-15,-0.100000000000014
"Galium_aparine",-0.131688465869705,0.0104984835096465,-0.125162912054494,-0.000148070749171365,0.000355970686543682,0.0111125764084942,0.00820865998571769,-0.0134310670679145,-0.000329100094497528,-0.0458141916357535,4.67758957646462e-05,0.00039498517250545,-0.22043439703532,-1.15692103546831e-08,0.00117909171948156,-0.000410143757817816,-1.78628407990026e-16,-2.41370890351062e-16,3.82683934189024e-16,-1.24136184737736e-16,5.04458401626496e-06,0.00530170223309263,7.45863117305535e-07,2.21296629901171e-06,0.104250566326029,-0.000925524000395356,-3.54225236432676e-06,-1.76032941417349e-07,-1.41461040824082e-15,2.47681741677645e-05,1.84997348679594e-07,-7.94523858002969e-07,-3.33170149480404e-15,2.76099078735822e-15,-6.46780727337721e-17,-1.17701785798144e-15,-1.57855612843282e-16,-1.10554904559742e-15,5.27308253605675e-16,-2.4570660230139e-17,3.58062151310746e-16,6.53236952959226e-16,1.24745564222047e-05,4.32140898632312e-09,-4.433658986054e-09,-0.0250112573321783,1.00581655748122e-07,-2.83672489634125e-08,-1.96327312054346e-15,-1.36553996233453e-15,-0.00276695333820715,-1.89399196884015e-08,5.95189993794171e-07,0.000309765373125118,1.99840144432528e-15,-2.22738494315422e-15,1.89431803576667e-15,-1.46842891795798e-16,4.9892851282514e-16,8.23448903014254e-16,5.53761041331561e-17,6.18204571237919e-10,-5.62802849793262e-15,1.56326843596704e-14,-2.66113905629666e-15,-0.0519434023335845,-1.48483816403644e-15,4.14134923922272e-08,1.93923954763667e-08,-1.41447408737912e-14,1.14617967611867e-14,4.56426125064968e-15,-5.02090749346455e-15,1.07759164650546e-14,-1.64206265926742e-14,-3.11790390078541e-14,-2.18178994949476e-06,0.308276327944347,4.23708958171699e-08,2.73354942612703e-14,2.99699977941745e-14,-0.531708229577171,-1.62832730090637e-14,-8.07916850221459e-15,0.117549838165775,-0.707106781186589,7.99574778038638e-09,1.0750380884844e-14,6.99222146650523e-15,-8.23167953615923e-15,-0.00491795853548162,-1.60620093837586e-14,-1.13469419928366e-14,9.10172743348052e-05,1.29499320133374e-05,1.32894300665891e-15,-8.89575137795341e-07,-1.48236492355993e-14,9.278507748864e-16,-0.100000000000006
"Galium_verrucosum",-0.131688465869705,0.0104984835096465,-0.125162912054494,-0.000148070749171333,0.000355970686543775,0.0111125764084944,0.0082086599857178,-0.0134310670679143,-0.000329100094497818,-0.0458141916357533,4.67758957642949e-05,0.000394985172506157,-0.22043439703532,-1.15692103643732e-08,0.00117909171948168,-0.000410143757818172,-7.92964741143827e-17,-9.12834871905933e-16,9.83185843552447e-17,1.95411549745417e-18,5.04458401682161e-06,0.00530170223309456,7.45863117663787e-07,2.21296629979112e-06,0.104250566326028,-0.000925524000394316,-3.54225236330315e-06,-1.76032942568924e-07,-3.50573499805384e-16,2.47681741665701e-05,1.84997348876152e-07,-7.94523854520776e-07,-2.25519258188149e-15,3.3216403457516e-16,2.68885458064573e-15,-2.44011001941841e-15,9.69906569478409e-17,-5.58788039842454e-16,-1.43981376444357e-15,7.44860146138453e-16,-6.73777851897157e-16,-7.83976980383551e-16,1.24745564237412e-05,4.32140643837541e-09,-4.43365859866478e-09,-0.0250112573321725,1.00581655401412e-07,-2.83672480551424e-08,-3.03322609167748e-15,-1.31782467922217e-15,-0.00276695333819522,-1.89399130145031e-08,5.95189993792944e-07,0.000309765373116042,4.4506065499661e-14,-4.67403893367191e-14,3.00072466874468e-14,6.51881891159451e-16,-5.905867344839e-16,-2.85082663769418e-15,-2.78945937561971e-15,6.18206248222044e-10,-4.9636294066335e-15,1.95376314478861e-14,-5.08653626928042e-15,-0.0519434023335706,3.41822066350479e-15,4.14134909434128e-08,1.93923966841504e-08,-1.87510356071428e-14,1.14451270036713e-14,4.4400857154724e-15,-1.31156949210101e-14,6.7074471801638e-15,-1.64496517639162e-14,-2.72601894464293e-14,-2.18178994717019e-06,0.308276327944326,4.23708597576853e-08,1.36295586201786e-14,2.67328786551497e-14,-0.531708229577194,2.04370210919387e-15,8.33556025796431e-15,0.117549838166241,0.707106781186506,7.99577836684047e-09,-1.49472422914043e-14,-6.20899565051927e-15,1.76715790854248e-14,-0.00491795853549395,1.19932397123457e-14,1.74384565031271e-15,9.10172743773752e-05,1.29499320161615e-05,-5.84276661219689e-15,-8.89575153442546e-07,2.22647386807849e-14,9.32243733531807e-15,-0.100000000000006
"Galium_pumilum",-0.131787302816595,0.010514332110902,-0.126019630157909,-0.000149647245194121,0.000361200354590406,0.0113096960971705,0.00840308769830746,-0.0137761763361877,-0.000338244995829144,-0.0474030320617303,4.86275138955883e-05,0.000412726452157081,-0.231719134404314,-1.21814338998179e-08,0.00124755061014586,-0.000435965474125228,-1.70277877900164e-16,2.61234398763177e-16,3.00776713168043e-16,-8.66369178007123e-16,5.42093265126566e-06,0.0057142044086135,8.05813304983336e-07,2.41139520431466e-06,0.115008671791504,-0.00105468537911824,-4.06887734044298e-06,-2.02855778806023e-07,-2.70780090266581e-16,2.90917696270133e-05,2.21214022969957e-07,-9.53880574606609e-07,-8.06559897160603e-16,2.64040144322432e-15,-1.98694866158442e-15,-6.26193498476135e-16,-1.79177076808081e-15,9.62023788644634e-17,5.00674061974384e-16,-1.89016498061513e-16,-6.33807460601277e-16,-1.60694674524128e-15,1.52919719861704e-05,5.30814276619024e-09,-5.4462223817232e-09,-0.03108155976409,1.27687928715474e-07,-3.63666913566053e-08,-3.79867523945806e-15,-1.01152503217159e-15,-0.00392678337845992,-2.71032858611344e-08,8.56872903113687e-07,0.000449573719761249,-3.02535774210355e-15,8.24340595784179e-15,1.27987898057569e-14,2.91768795494288e-15,5.0726903733771e-16,-2.97522326623298e-15,-9.63081670134808e-16,6.79750864411969e-10,3.06814291262863e-16,9.37208643272639e-14,5.27302407059908e-15,-0.428156024801033,1.29692773373245e-14,-2.22617815241848e-07,-7.90637307935616e-08,8.47595938187422e-15,-1.04411136944713e-14,-1.43110352373883e-14,2.05283117903247e-15,-2.65019492565731e-14,8.9942682743874e-15,2.83680099504909e-14,2.63682122153527e-06,-0.337552425104297,-1.67467818177518e-08,-9.36142402982613e-15,-5.23476853434228e-15,0.11334337052257,1.48799586682695e-15,-2.80558010591897e-14,0.27560557220863,-9.59479706715114e-14,2.31879250178877e-09,-9.5948888896952e-15,6.21318364754677e-15,-1.00322055381941e-14,-0.00157908704755076,1.18630168936181e-13,0.707106781186545,4.43039305492138e-05,6.42397434029809e-06,-5.11169098231539e-14,-4.50142311394057e-07,1.60920216634028e-13,-4.2217977369236e-15,-0.100000000000014
"Galium_saxatile",-0.131787302816595,0.010514332110902,-0.126019630157909,-0.000149647245194196,0.000361200354590553,0.0113096960971705,0.00840308769830751,-0.0137761763361876,-0.000338244995829066,-0.0474030320617305,4.8627513896014e-05,0.000412726452156774,-0.231719134404315,-1.2181435087995e-08,0.00124755061014561,-0.000435965474125107,-3.95144868390781e-16,2.24781388244562e-16,5.36931105137528e-16,-9.19555169161008e-16,5.42093265083911e-06,0.0057142044086145,8.05813302507386e-07,2.41139520465671e-06,0.115008671791505,-0.00105468537911716,-4.0688773389859e-06,-2.02855780569968e-07,2.38612554806787e-16,2.90917696245236e-05,2.21214021771655e-07,-9.53880577540758e-07,2.27284323931251e-15,7.91478091113356e-16,-1.93604506171455e-15,-9.07511566319305e-17,-1.13184634449405e-16,4.4548239133776e-16,2.00189695530899e-15,-7.17952239847653e-16,4.48365250904324e-16,-4.6062226859564e-16,1.52919719848037e-05,5.30814242634368e-09,-5.44622148455437e-09,-0.0310815597640915,1.27687929362395e-07,-3.63666889230608e-08,-2.96491151716091e-15,-1.76826406672882e-15,-0.00392678337845702,-2.71032889445e-08,8.56872903768297e-07,0.000449573719762838,-1.88044024795886e-15,7.36910532594948e-15,2.32799890476088e-14,4.75981627773425e-15,3.89593684828154e-15,8.19191675497438e-16,1.60234621194136e-15,6.79752460819623e-10,-1.01622418862572e-14,9.65854018641147e-14,6.8680753120359e-15,-0.428156024801036,1.55775344868914e-14,-2.22617816360731e-07,-7.90637208704487e-08,9.3292276058577e-15,-1.3717295920121e-14,-1.81499550562425e-14,-1.34766583426138e-15,-1.67906552190427e-14,8.62427753261302e-15,2.74523457504173e-14,2.63682121687691e-06,-0.337552425104315,-1.67467756693573e-08,-1.11697298023639e-14,-5.85584833404773e-15,0.113343370522559,1.67850851926783e-15,-2.67038772787583e-14,0.275605572208606,-8.2743255572324e-14,2.31875264378015e-09,2.95786459396116e-15,-1.23399073878803e-14,1.50925419304622e-14,-0.00157908704753803,-1.18169993875476e-13,-0.70710678118655,4.43039303572394e-05,6.42397477132144e-06,4.16586091334172e-14,-4.50142537546492e-07,-1.73020991385411e-13,6.47073084054718e-15,-0.0999999999999739
"Galium_parisiense",-0.131716551250762,0.0105029883876251,-0.125406938217208,-0.000148520447475077,0.000357464712290869,0.0111689529082095,0.00826438460775752,-0.0135300475431068,-0.000331724824933424,-0.0462712679080291,4.7309412343145e-05,0.000400105592293115,-0.223697516770118,-1.1746331715813e-08,0.00119892664908751,-0.00041763534608808,-2.76595990462146e-16,-3.41262000066325e-16,5.63937196068965e-16,-5.13809085099962e-16,5.15410449574935e-06,0.00542183812214341,7.63333606737669e-07,2.27091465099643e-06,0.107401092120898,-0.00096356546739375,-3.69751452786225e-06,-1.83943845527512e-07,-5.48560591328079e-16,2.60453306449609e-05,1.95700507136496e-07,-8.41616886716122e-07,1.86773571959631e-15,-7.70480661483636e-16,8.05933189802108e-16,1.65696243418747e-15,7.01909203313266e-16,6.78475639446914e-16,-7.72288066882658e-16,-2.46566025185797e-16,-9.56786477167237e-16,-9.23411171174018e-16,1.33061900553428e-05,4.61261008816896e-09,-4.73248453230616e-09,-0.0267999525506083,1.08532342716e-07,-3.07065479711022e-08,4.58734646622349e-16,-1.29213773929037e-15,-0.00306872479730372,-2.09952976385803e-08,6.58822439303882e-07,0.00034072057445211,2.31689667451462e-14,-6.75848266240564e-15,5.29090660172926e-15,9.50942738445416e-16,-1.40845723245481e-15,4.54116021269268e-15,1.0983349172381e-15,4.75687328281608e-10,-9.91002544180439e-15,6.20121509449146e-14,-1.92664665016184e-16,-0.264218703346427,7.81969939002327e-15,-9.98868409097089e-08,-3.37702648863556e-08,1.0332003519342e-14,-1.24294127814852e-15,-1.13672405105913e-14,-3.46377674445601e-15,4.18883772085915e-16,-5.96885618883822e-15,1.25643094190372e-14,6.78059226984187e-07,-0.0799639880240885,2.53823525788069e-10,-3.36921505624915e-15,1.51679709124242e-14,-0.0191666672727749,-3.63688303830244e-15,7.61932215027979e-14,-0.902981246926616,2.98618986866091e-13,8.59420914808385e-09,8.61264622041544e-15,-2.14896148464565e-15,1.40264926588498e-15,-0.00352586289211996,-9.18773238344612e-15,1.41659760361656e-14,8.60128864550745e-05,1.22057857195884e-05,1.38541743903265e-14,-8.36339056106293e-07,-4.34327155031924e-15,9.37190324507288e-15,-0.0999999999999989
"Galium_triflorum",-0.131506125955531,0.0104692369917096,-0.123578827073682,-0.000145151620555156,0.000346272244106312,0.0107465887480783,0.00784683267483118,-0.012788313966936,-0.000312053893539753,-0.0428443397443319,4.33078876795674e-05,0.000361682491550027,-0.199194940581215,-1.04160632529912e-08,0.00104985830488193,-0.00036129322970332,-1.03508082122896e-16,-5.29641164391049e-16,8.85965422015985e-16,-5.51202726949281e-16,4.32882431380241e-06,0.00451601770660783,6.31539652218363e-07,1.83288649875283e-06,0.083505594265764,-0.000671552887404622,-2.50127405414686e-06,-1.22896149628717e-07,1.33939551165356e-15,1.6084819377727e-05,1.11225600388141e-07,-4.68831014027079e-07,1.01860722867589e-15,-9.29891212973868e-16,2.87963308038881e-15,9.18942341962437e-16,-9.54938536960086e-16,1.12254302010151e-15,-1.51881094001044e-15,-5.71162052264289e-17,-1.15506760140248e-15,-1.62272750274714e-15,6.60764913107114e-06,2.26267445901828e-09,-2.32097192359285e-09,-0.0121984507978882,4.20024081849725e-08,-1.08709240822453e-08,3.66545796394031e-16,-8.43585515151785e-16,0.000401133949661361,4.29081976921471e-09,-1.79167099749905e-07,-0.000142515787862216,3.3806291099836e-14,-6.99440505513849e-15,2.53685961126848e-14,-2.6945537964596e-15,-4.05703260427313e-15,1.03671103884239e-15,1.74932167518395e-15,-1.33653540683383e-09,4.09943105230354e-15,2.61330116893958e-14,-4.86791485011896e-15,-0.114310432763867,3.14014114929871e-15,2.24729301774227e-07,8.92894139499293e-08,3.53433977107295e-15,2.14707939523753e-14,3.17251304136288e-14,1.74509661271274e-14,2.52240854040001e-14,1.00479263065141e-14,-5.3270450091883e-14,-5.29780454860265e-06,0.709702115288619,3.45083425880169e-08,6.02273802105545e-15,-4.84758557171085e-14,0.622137933644686,2.2732508639611e-14,-9.25584653261853e-15,0.0672090447499726,-2.98915098058843e-16,1.78156641448769e-08,-8.9074703950568e-15,-5.36189700065712e-15,1.37716487300636e-14,-0.00294345411705837,-2.27381023486576e-15,-1.65447946053424e-14,0.00017113483851121,2.41377220101704e-05,-5.95081407144687e-15,-1.6426433294385e-06,1.16379586516598e-14,2.21392153243454e-15,-0.0999999999999944
"Cruciata_laevipes",-0.129563865362019,0.010157212757388,-0.106489240703706,-0.000113408313108913,0.000239916903704471,0.00670761125778708,0.00380450993168139,-0.00557798448526869,-0.000120018969080774,-0.0089289228666701,3.34273314814897e-06,-2.53858568670489e-05,0.0488297608144524,3.02665683394622e-09,-0.000351353573333771,0.000275327079155754,9.29070720642839e-17,2.37268478350011e-16,-6.75950682760928e-16,-4.88096957689014e-16,-4.80952945614834e-06,-0.00556725619788185,-8.42582672122358e-07,-3.16247497511491e-06,-0.197603826384995,0.00308999169140448,1.32819479650059e-05,6.9056540786995e-07,6.39074352800943e-16,-0.000124966321612253,-1.16026847296085e-06,5.22261051110677e-06,-5.42813781459476e-15,-6.34848837263086e-15,2.96849619853926e-15,-1.78158882425404e-15,1.70918607221177e-15,3.66338607743315e-15,-5.10350599805678e-15,-1.01105451232791e-15,4.29966753625403e-15,6.27445744493473e-15,-0.00010391810379466,-3.68182552716814e-08,3.77897442571922e-08,0.242221122205622,-1.22853318507091e-06,3.85367652829852e-07,-3.88048452233517e-15,-2.97104705941526e-15,0.271604158224495,2.00541361821576e-06,-6.73452248876856e-05,0.887379811749381,-1.27060861832007e-12,6.20573037402039e-13,-1.07257605574951e-12,4.500558418653e-14,1.09173571063957e-13,-1.48830573769391e-14,8.97197984343414e-15,7.70591185111141e-08,-3.39069808061856e-14,7.82234566763421e-15,-8.81343989880606e-15,0.00797638175731191,1.16639256116359e-14,-7.46823039105297e-07,-2.4105360825468e-07,-3.43495306855636e-15,-3.18622734043188e-15,1.14097314872939e-15,2.99196726589405e-15,-4.24341295601781e-15,2.39595490033742e-15,6.6510273798049e-15,9.79938140037873e-07,-0.013206496214122,6.18769597154468e-08,5.04740603473177e-16,1.02385429086078e-15,-0.00227739296342165,-2.44936780664205e-16,9.963251787873e-16,0.0010103769675436,1.75838540778869e-15,4.74605056833205e-08,-7.41907783248006e-16,5.33532502904957e-16,3.39288226951537e-15,-0.000126542178307131,-5.24312059615004e-15,-1.56389832545189e-15,0.000460930652361374,6.52954290271505e-05,-2.94631406360374e-15,-4.46381087163335e-06,5.3676281877025e-15,2.60759588444597e-15,-0.0999999999999992
"Asperula_scoparia",-0.129268324047503,0.0101094864999944,-0.103782581499862,-0.000108265536015636,0.000222310673059549,0.00602954492047851,0.00311234103517188,-0.00433894235923591,-8.69713212252264e-05,-0.00320937118389936,-3.01413084618214e-06,-7.70454195419824e-05,0.0592300534235597,2.78259505923626e-09,0.00107242127327022,0.000904371590937566,1.89593372491773e-16,5.08768649929358e-16,-1.19900987016139e-15,1.66064300915926e-16,-9.50489176052867e-06,-0.0106099851589662,-1.57256331747943e-06,-5.66862171135997e-06,-0.351221782836613,0.00615244236093884,2.79707396450221e-05,1.4938810646542e-06,-5.65051544462384e-16,-0.00034159872064606,-5.13599666389875e-06,2.83217623039979e-05,5.59522989039304e-15,1.33186789558474e-14,-5.4325823101161e-15,-1.17953775923379e-15,-5.3352025572877e-15,-7.64962941933742e-15,9.48821155098362e-15,7.84615971055144e-16,-6.65589826100824e-15,-1.31303630217148e-14,0.000713638000817578,1.89675512143626e-07,-1.93779221033914e-07,-0.409690445520477,3.2247388113836e-07,5.53060760298756e-09,-2.15885836969875e-15,-2.7367125849757e-15,-0.0277002649120673,5.06703432179965e-07,-3.46146692131285e-05,-0.00416971102752713,1.40165656858926e-14,9.86710713135608e-15,1.03111963412061e-14,3.28554531626185e-15,5.92998236941867e-17,-2.1265346831754e-15,-1.48228395064281e-14,4.61904962295036e-08,-3.72135117699607e-14,0.708596987222132,-0.405656229295672,0.00180149211502401,-6.88244149064815e-15,-5.91229700135367e-07,-1.91931387667703e-07,4.10475516024387e-15,3.18933253849181e-15,-1.0596005173177e-16,1.84488071711095e-15,2.60295982993006e-15,2.63915407649297e-15,5.89665299717481e-15,7.63236408281866e-07,-0.00464611805327194,5.285974944337e-08,-8.51483447300585e-16,2.02826674432066e-15,-0.000880123387669833,-1.38866369968607e-16,3.66184474977513e-15,0.000432483132613077,-1.31368352566504e-15,4.30610477644785e-08,-1.26298384859153e-15,-3.4682640725286e-16,1.41936716416251e-15,-6.15244237760683e-05,-4.40332794374809e-18,-1.64694251574145e-15,0.000229722822702707,3.2692867591028e-05,-1.75198561573262e-15,-2.24634562694419e-06,3.60613944161215e-15,1.78833348222201e-15,-0.100000000000003
"Asperula_conferta",-0.129268324047503,0.0101094864999944,-0.103782581499862,-0.000108265536015614,0.000222310673059382,0.00602954492047842,0.00311234103517196,-0.00433894235923611,-8.6971321225296e-05,-0.00320937118389919,-3.01413084606892e-06,-7.70454195415991e-05,0.0592300534235598,2.78259363655972e-09,0.00107242127326989,0.000904371590937781,2.55545390896083e-16,3.50133262622188e-16,-7.16071388773591e-16,-5.75986216942526e-17,-9.50489175834967e-06,-0.0106099851589666,-1.57256331618015e-06,-5.66862171179144e-06,-0.351221782836614,0.0061524423609405,2.79707396419145e-05,1.49388106566233e-06,-2.26760908879431e-16,-0.000341598720642702,-5.13599666313659e-06,2.83217623009407e-05,5.47755714358096e-15,1.33229444551385e-14,-4.69996575233818e-15,3.12987540109532e-16,-5.28557008036233e-15,-1.03430227275128e-14,9.40029993850617e-15,7.58576496013495e-16,-7.67255386521193e-15,-9.07773168309734e-15,0.000713638000823268,1.89675513321132e-07,-1.93779227555449e-07,-0.409690445520476,3.22473888538965e-07,5.53060524718396e-09,-9.57249703612283e-15,-1.74885641607285e-15,-0.0277002649120715,5.06703437846634e-07,-3.46146692170979e-05,-0.0041697110275108,2.27595720048157e-14,-1.93595139919012e-14,5.17988429926675e-15,-7.69735910742689e-16,7.46281512285852e-16,-5.43338440580206e-16,8.7722651253144e-15,4.61904708096892e-08,1.84260089985195e-14,-0.705607093384524,-0.410834877331651,0.00180149211469729,4.05573262921555e-14,-5.91229703859682e-07,-1.91931385687431e-07,-1.11235481043557e-15,-1.73531498429727e-15,4.15896973134691e-15,-9.4955131591051e-16,-1.69759897856949e-15,3.87511388147626e-16,-5.29882943885708e-15,7.63236418515815e-07,-0.00464611805326298,5.28597484833822e-08,-2.22270694642305e-15,3.82272268223202e-15,-0.000880123387680446,1.25839946385458e-17,-1.11538738268868e-15,0.000432483132610989,2.48883033368139e-15,4.30610457042639e-08,-2.10764723581033e-15,-1.11243579997348e-15,3.87574859931668e-15,-6.15244237828837e-05,-8.92581747636104e-16,-4.700055851188e-15,0.000229722822700028,3.26928675838375e-05,-1.75537781829142e-15,-2.24634561734423e-06,5.07024605533659e-15,5.24737495028058e-15,-0.100000000000002
"Sherardia_arvensis",-0.129268324047503,0.0101094864999944,-0.103782581499862,-0.000108265536015614,0.000222310673059377,0.00602954492047847,0.0031123410351718,-0.00433894235923604,-8.69713212256677e-05,-0.00320937118389908,-3.01413084581907e-06,-7.70454195413064e-05,0.0592300534235595,2.78259456729308e-09,0.00107242127327007,0.000904371590938037,1.76708134394645e-17,-1.92207544828821e-16,-6.22258847058022e-16,6.07370843194713e-16,-9.50489175881815e-06,-0.0106099851589658,-1.57256331555341e-06,-5.6686217136556e-06,-0.351221782836613,0.00615244236093947,2.79707396416389e-05,1.49388106554059e-06,3.56513816766966e-17,-0.000341598720644974,-5.1359966620086e-06,2.8321762299804e-05,7.37319826492517e-15,1.17335938269432e-14,-9.9270859849287e-16,-2.80277650467744e-16,-6.55691309342693e-15,-6.7798769386648e-15,7.25488424616118e-15,1.30125552307602e-15,-9.56798960791413e-15,-1.04287303359088e-14,0.00071363800082157,1.89675512766058e-07,-1.93779228417901e-07,-0.40969044552048,3.22473890058554e-07,5.53060801420766e-09,-2.58690503515651e-15,3.32680641987222e-15,-0.0277002649120782,5.06703435672604e-07,-3.46146692211185e-05,-0.00416971102750287,-2.66453525910038e-15,-3.65471541918794e-14,4.87110352054287e-15,3.76304357494827e-16,-2.08759856963592e-16,-2.30683757512173e-15,5.18462972096899e-15,4.61904486613525e-08,1.02277058510531e-14,-0.00298989383761167,0.816491106627319,0.00180149211486556,-3.54675897155257e-14,-5.91229728729778e-07,-1.91931385718267e-07,-3.9269004987303e-15,5.15224577885455e-16,5.65822746326576e-16,2.33255196273238e-15,4.09714423558531e-17,-2.95432449303552e-15,-1.67173923807076e-15,7.63236412286376e-07,-0.00464611805325549,5.28597540099403e-08,5.24672871437618e-16,-5.5769544127492e-15,-0.000880123387678121,-7.87102920463038e-16,-2.84559560544734e-15,0.00043248313260969,2.53046369710262e-15,4.3061051332726e-08,-1.1649280796969e-15,-1.63273028159264e-15,4.9545642218069e-15,-6.15244237815924e-05,-1.62810450145345e-15,-1.67469810162623e-15,0.000229722822701166,3.26928675850605e-05,6.55136807483593e-17,-2.24634561626523e-06,5.64617424936089e-15,3.75522176636127e-15,-0.100000000000003
"Coprosma_petriei",-0.108966923571903,0.0068287760677093,0.0841256221214017,0.000253528272895273,-0.00104260964749571,-0.0437473066385205,-0.050854722474706,0.0949307281596456,0.00264945804431552,0.549057272483165,-0.000734005279746636,-0.00813835245381461,-0.0470611891748694,0.000832670379219259,-0.368576541088239,-0.0655160400773422,5.12624451783322e-15,-4.10039550636654e-16,8.6901194767423e-17,-1.46776228016806e-16,0.000139258937153775,0.112273046093571,1.29371816362872e-05,1.8293518207768e-05,0.0276344824079151,0.0146606705133851,7.18137399040239e-05,3.91257756985796e-06,-3.33570474051489e-16,-0.000925987675045342,-1.28039218398053e-05,6.79164361306578e-05,2.64628428905171e-15,4.20454886598565e-15,-1.07990091547524e-15,2.60893121483544e-15,9.56107055103093e-16,8.83962680448032e-16,-7.06282600105818e-16,1.35818289140505e-15,-3.00723607247287e-15,-5.0080856938517e-15,0.0010431680842714,2.48435594543064e-07,-2.5325848464852e-07,-0.00290980530529125,-3.66218446007945e-06,1.40334702132324e-06,-0.707106781186548,-4.42034735498825e-15,-0.000907420082909047,4.36048672778519e-06,-0.000259087868466658,-0.000153449589871915,7.45237205279636e-15,2.67841304690819e-15,-2.28983498828939e-16,1.34541101828875e-15,-4.34185857243653e-16,-1.02063792480715e-15,8.27263172702333e-16,2.88333604960832e-07,-3.59593324655419e-16,3.69700300718361e-15,1.23715329353824e-15,9.028597963187e-05,1.02349107851739e-16,-3.44684435820515e-06,-1.11632269214688e-06,-4.24233495601189e-16,1.41283742755184e-15,-1.15074362811636e-15,-5.21529045235598e-16,-1.71465759949191e-15,6.81887594594963e-16,-3.62117722182736e-15,4.21284648710713e-06,-0.000283376679084008,3.04956017853909e-07,-6.42725329972405e-16,-2.64784692746938e-16,-5.69297623530866e-05,1.32557627378824e-15,-8.23624135466705e-17,3.01163090745782e-05,-6.28757517949628e-16,2.4242038512538e-07,-4.60911333050165e-16,-9.0644658059308e-16,4.74234431302925e-15,-4.78262901084546e-06,-3.91982976035067e-18,-2.88280890728716e-15,1.82952763383217e-05,2.61574048625667e-06,-1.29359822210529e-15,-1.80652099158093e-07,7.04434525013851e-16,4.83284028700089e-15,-0.100000000000002
"Opercularia_ovata",-0.108966923571903,0.00682877606770931,0.0841256221214018,0.000253528272895338,-0.00104260964749573,-0.0437473066385202,-0.0508547224747063,0.0949307281596458,0.00264945804431551,0.549057272483165,-0.000734005279746441,-0.00813835245381501,-0.0470611891748693,0.00083267037921902,-0.36857654108824,-0.065516040077343,4.65318237416541e-15,-8.66224812097672e-16,7.74618299173411e-16,5.53322822296651e-17,0.000139258937152801,0.112273046093571,1.29371816366938e-05,1.82935182041071e-05,0.0276344824079172,0.0146606705133857,7.18137399052804e-05,3.91257757225897e-06,5.50107787688883e-16,-0.000925987675036697,-1.28039218442486e-05,6.79164361322516e-05,-2.40744477078653e-15,-3.12369758337599e-15,1.52484071177893e-15,-3.17588558208862e-15,-1.22825197204776e-15,-6.60488958977705e-16,4.16040308862003e-16,-1.25613155162883e-15,2.8600070287328e-15,4.26374024881151e-15,0.00104316808426893,2.48435588716677e-07,-2.53258502846322e-07,-0.00290980530530995,-3.66218443443488e-06,1.40334687026012e-06,0.707106781186547,3.30825170386997e-15,-0.000907420082901917,4.36048672677437e-06,-0.000259087868470568,-0.000153449589862444,-3.19189119579733e-15,-2.60902410786912e-15,-2.37310171513627e-15,-9.09838683817371e-16,-1.38457498246829e-16,4.46153592305955e-16,-9.6590791314399e-16,2.88333606479104e-07,1.22247448543543e-15,-3.65822453112578e-15,-1.58003763143279e-15,9.02859796242759e-05,-1.84614071183146e-16,-3.44684435681929e-06,-1.11632268640079e-06,-8.2158481023825e-16,-1.0244346801644e-15,1.08489532017526e-15,1.63732486243085e-16,6.09938740364036e-16,1.96091967540435e-16,-2.83208710528453e-15,4.21284648366458e-06,-0.00028337667908376,3.04956021470322e-07,-4.89258105167835e-16,-9.00169132854084e-17,-5.69297623562612e-05,-1.66305034909614e-15,7.42897952661111e-16,3.01163090780696e-05,3.14932052980111e-16,2.42420383057128e-07,-2.14099976643675e-15,-9.7008771032258e-16,4.33929389614205e-15,-4.78262901186418e-06,1.19997826255967e-15,-2.37626965014018e-15,1.8295276337177e-05,2.61574049163781e-06,-2.28061882167863e-15,-1.80652100795674e-07,5.0759376844754e-15,3.4868727489582e-15,-0.100000000000003
"Edrastima_uniflora",-0.111761239540822,0.00714210349234389,0.209303495916897,0.0111126216170605,0.00157964972770713,0.0294882631248709,0.0100537192743042,-0.0120943217667576,-0.000196833681251918,0.0106287020125638,-3.04665927425212e-05,-0.000276233579397123,-0.00132330364825602,-6.49430311225758e-05,0.161180665929071,-0.267963744491998,1.50102182915743e-14,-6.0262998488712e-15,6.73544755451543e-15,-1.58124719460465e-15,6.81574704597214e-05,0.0539577605327284,7.11133227686219e-06,1.29820521900468e-06,9.50661761489752e-05,-0.429932166976102,0.000188035428322828,7.55924668590317e-06,-2.36781236100531e-14,0.80301968314359,-1.40744411303721e-05,7.08656032772696e-05,4.04951248734329e-15,-1.72033798864045e-15,-4.76887052912634e-15,-1.11249558750038e-15,1.28167023961539e-15,-2.96201928780642e-15,2.31453483918158e-15,-5.52578937825476e-16,2.07666631123807e-15,3.64601815728248e-15,0.0435437428518495,1.74207362527592e-07,-1.78251473014956e-07,-0.00147901944441426,-2.77526413205004e-06,1.04268255476162e-06,-4.77851296388095e-15,-1.01582153728097e-16,-0.000401694655943575,2.89246451369889e-06,-0.0040929311088299,-6.67452863140593e-05,2.3037127760972e-15,4.42701431069281e-15,-6.76542155630955e-15,-3.14677352603733e-16,1.16760077817886e-15,5.17943328857158e-16,-7.77793208227214e-17,1.82715209927801e-07,-9.84714590575652e-16,1.49209926681407e-15,2.27301974554204e-16,3.80896411340116e-05,-1.14397659891764e-15,-2.09999369914571e-06,-6.79141683544239e-07,1.75213356972248e-16,5.93711877642012e-16,-1.53040436113337e-15,-1.02670010821311e-15,-3.47121382904944e-16,-2.33637804830742e-17,-4.40134703538919e-15,2.5423408986189e-06,-0.000117587863966028,1.82867012478834e-07,-7.0713218722302e-16,-4.53846906780719e-16,-2.35268087752567e-05,3.26634429836917e-16,1.91144392708101e-16,1.23906322061388e-05,8.38798521814698e-16,1.42501919460782e-07,-1.43245963887442e-15,-4.78074042564474e-16,4.55632779918884e-15,-1.95780440626976e-06,-1.18344690426336e-16,-4.49966134117428e-15,7.48311950379947e-06,1.06973259405784e-06,-1.54991504228666e-15,-7.38678763578211e-08,3.47842613260016e-16,4.17928587487849e-15,-0.100000000000003
"Kohautia_tenuis",-0.112141277189913,0.00719131412135795,0.216201557189615,0.0117055078823393,0.00170121149425822,0.0323250591047475,0.0114408942057014,-0.0139511100848463,-0.000230412542070922,0.013117062964339,-3.92294364404655e-05,-0.000374542135135965,-0.0019240870204422,-9.64542179810965e-05,0.256634637968791,-0.460681272663277,2.57209162010258e-14,-9.84817070625934e-15,1.07997736035096e-14,-2.69197334129298e-15,0.000149444686253563,0.129351690714448,1.85056973033035e-05,5.15082026110918e-06,0.00870207697836342,0.34770373174771,-0.000100694943188761,-3.42961954620158e-06,3.42386790587182e-15,-0.114482807916348,-2.09710875091826e-07,2.90654931131731e-06,-1.22967824730832e-15,1.37417846718453e-15,4.99450085030827e-16,-3.66261523063736e-18,4.06447861560877e-16,-1.88263774154317e-16,-1.94135887134861e-16,-8.19618525866062e-16,3.12954614622406e-16,8.27418027382712e-16,0.00631012815390263,2.66307173521552e-08,-2.72736603452466e-08,-0.000286003379353691,-6.95159631730034e-07,2.82997245799397e-07,4.79043979070722e-16,-1.45486276038937e-15,-0.000160692429223355,1.17982518008297e-06,-0.00169453752883706,-2.8337307698325e-05,6.85562717706034e-15,6.6266436782314e-15,1.05887520973624e-14,-2.53771589607658e-15,2.68530658650846e-15,2.04898457458298e-15,5.55244618395863e-15,8.47423338152495e-08,-2.31239794335697e-14,2.34858444781522e-14,3.02491016206549e-14,1.88473271762644e-05,0.707106781186548,-1.10306413762092e-06,-3.58387775668003e-07,-4.13514839232166e-15,-1.27350020398297e-16,-8.07726003148965e-16,1.03405977996159e-15,-9.03416003518885e-15,2.89937786948673e-15,-4.77046420268944e-15,1.37661262158677e-06,-6.38110692094849e-05,1.01170794976046e-07,7.08560993569492e-16,-1.99804213163957e-15,-1.31122176842351e-05,7.17937008827804e-17,-1.41333366334619e-16,7.13579389591589e-06,-2.99745039705472e-15,8.44321965260062e-08,-7.62060701741718e-18,3.72170110197789e-17,3.3848506052339e-15,-1.18221254821918e-06,1.14069561661747e-15,-1.36490642698699e-15,4.56485469212098e-06,6.53819708023635e-07,-1.49383794432085e-15,-4.52445471265742e-08,3.46409435494014e-15,5.00571749098843e-15,-0.100000000000001
"Kohautia_caespitosa",-0.112141277189913,0.00719131412135794,0.216201557189615,0.0117055078823393,0.00170121149425821,0.0323250591047472,0.0114408942057013,-0.0139511100848466,-0.000230412542070764,0.0131170629643391,-3.92294364405905e-05,-0.000374542135135622,-0.00192408702044216,-9.64542179815876e-05,0.256634637968792,-0.460681272663276,2.56638356755956e-14,-9.7794616585173e-15,1.0505650584505e-14,-2.84189097079757e-15,0.0001494446862537,0.129351690714448,1.85056973034096e-05,5.15082026123163e-06,0.00870207697836229,0.34770373174771,-0.000100694943189267,-3.42961954764212e-06,3.99007230064986e-15,-0.114482807916349,-2.09710875482404e-07,2.90654931098886e-06,-2.73917759545394e-15,8.09084500030657e-16,8.87028644799255e-16,-7.70262209050903e-16,-4.1321101762944e-16,-4.1820457285342e-16,-1.03070433712013e-15,1.01297337652929e-15,-4.52374198501425e-16,9.36913620737255e-16,0.00631012815390078,2.6630717598319e-08,-2.72736594515027e-08,-0.000286003379351186,-6.95159631404816e-07,2.82997246969561e-07,2.67407715014073e-16,1.08764786658263e-17,-0.000160692429217395,1.17982517368008e-06,-0.00169453752883996,-2.83373076822649e-05,-2.16493489801906e-15,-1.01446628875124e-14,-1.0019762797242e-14,2.70211935551215e-15,-2.17114307985723e-15,-1.73303263194264e-15,-4.69344556143276e-15,8.47423446300599e-08,2.20898532442898e-14,-2.36535312581195e-14,-3.02207566666765e-14,1.88473271315714e-05,-0.707106781186547,-1.10306414522896e-06,-3.58387775975678e-07,1.7555572337328e-15,-8.91892604515074e-16,4.52482091043052e-16,-1.20769004660424e-15,7.07799289899697e-15,-1.05593518064099e-15,-1.37665117195504e-15,1.37661261409317e-06,-6.38110692111448e-05,1.01170796209814e-07,-1.73710599456248e-15,1.86894036087466e-15,-1.31122176834513e-05,-1.31623226154266e-16,6.2933715815413e-16,7.13579389725098e-06,1.52670842829282e-15,8.44321959079521e-08,-1.85270765022491e-15,-2.57615871590405e-15,6.71746368878094e-15,-1.18221254686958e-06,1.89009615823963e-15,-3.61310805215225e-15,4.56485468713792e-06,6.53819702136626e-07,-2.93109135437025e-15,-4.52445448276313e-08,4.01833850551473e-15,2.86107731460444e-15,-0.100000000000002
"Mitracarpus_hirtus",-0.113701381590372,0.00739756141803902,0.250267490844288,0.0150807826147593,0.00253363585800299,0.0553996517199117,0.0297379994879948,-0.0452935650627673,-0.00103737712688802,-0.115876196866046,9.45553114999197e-05,0.000453497166571272,0.00130907858519433,5.71287085641317e-05,-0.103010292513006,0.129352600649432,-6.75549827628186e-15,2.47383230625749e-15,-3.62807910064693e-15,9.38676017393476e-16,-1.6508577665112e-05,-0.0103407951519598,-1.08602117722363e-06,6.60104132819809e-10,0.000458954296091347,0.0334806226278176,-9.29465858623465e-06,-3.05857626590392e-07,3.89564636711622e-16,0.000459456087591745,1.5609999085241e-08,-5.06765164894666e-07,5.79724887639686e-15,-9.59498087076546e-15,5.63461057532413e-15,2.35509451437441e-15,-1.89007585045952e-15,5.77095130117242e-15,2.26082607515839e-15,-5.46189999525492e-15,1.79960537729778e-15,-8.59445697238604e-15,-0.159844342593668,1.62707130996023e-07,-1.63231076520212e-07,-0.000283387208865612,-3.70005378684372e-07,1.30899102769559e-07,2.05473281742572e-15,-4.51771256255216e-15,8.82686731108716e-05,-2.13631509761314e-06,0.916838317372762,-4.92967799303676e-05,-2.37684871784438e-13,2.76001443921814e-13,-9.68947144741605e-14,-4.20723248351994e-16,-8.77375498474995e-15,1.18745274881687e-15,-9.28698382067164e-16,5.94364966705244e-08,1.75765865417282e-14,-3.27768389408124e-15,4.63685400689058e-15,1.12140882519798e-05,-1.55544052095703e-15,-6.07737491740595e-07,-1.96617767833755e-07,7.44195995794e-16,9.14104334644429e-16,5.93711110595919e-15,2.46955598264869e-15,-1.55676466303028e-15,1.89482963761771e-15,-1.4089937620654e-15,7.40076315937195e-07,-3.42542451888363e-05,5.36832772471779e-08,-2.22241843735308e-15,-1.24583755192302e-16,-6.93148201859816e-06,3.72408841640397e-16,7.2364471881012e-16,3.7239669398476e-06,2.15578814574484e-16,4.37766574032816e-08,-1.20272200120741e-15,-7.72877540197445e-16,3.53731882457449e-15,-6.11615785009849e-07,-1.81830929544825e-15,-2.23518103184962e-15,2.36043317063732e-06,3.38067737209532e-07,-1.92572893389315e-15,-2.33937134434751e-08,1.90380755700062e-15,5.82769409640975e-15,-0.100000000000009
"Richardia_humistrata",-0.113989070301341,0.00743535561926009,0.25622803507492,0.0156508994904714,0.00266874397890317,0.0590274832365118,0.0324279063300834,-0.0497904319506251,-0.00115014354208908,-0.13226800528948,0.000110301565651242,0.000542214872517288,0.00161362951077611,7.10332644452156e-05,-0.131545930286719,0.169641913101831,-9.24638682848358e-15,3.78643426068343e-15,-4.37288457563803e-15,1.14108004626077e-15,-2.31886676436551e-05,-0.0148234632896883,-1.58323867741351e-06,1.02690571071416e-09,0.000795655834741168,0.0885648051689435,-2.88194027836191e-05,-1.02222537843745e-06,-3.13983883357888e-16,0.00306903642246494,-1.36424898902419e-06,9.97717896188633e-06,-2.69349880170835e-14,3.73528495087439e-14,-1.89605104264309e-14,-1.25082800902717e-14,7.15729856737641e-15,-2.28447128914819e-14,-9.81766985045498e-15,1.84619123711407e-14,-2.92156374670323e-15,3.3396855671351e-14,0.573253967527748,-5.36372274192674e-07,5.37320057231262e-07,0.000624501433799451,4.73488483855962e-07,-1.36248487227354e-07,9.08334381074791e-16,-2.23807241020842e-16,-1.15726454856281e-05,2.01717281037351e-07,-0.0612832775418391,1.04593519397941e-06,2.13440376484186e-14,-1.76733627732517e-14,7.51482209793153e-15,-1.00576721063252e-15,-4.55984232558113e-16,6.69359323794731e-16,4.29666478064457e-16,7.73168633568657e-09,-8.04604264872655e-16,2.30372108940369e-15,-4.02998664818979e-16,2.60714604504732e-06,-1.80623168912956e-15,-1.95150965637502e-07,-6.4442202858953e-08,-1.05629186203324e-15,-9.640993669906e-16,-8.46029272209065e-16,-4.6830977836922e-16,-9.82479651509583e-17,1.13077195506564e-15,-4.28707810016026e-15,2.69498806974131e-07,-1.25786752321977e-05,2.11415754718049e-08,-8.2032729983246e-16,-2.62026024130227e-17,-2.79902831942352e-06,-1.29879156950834e-16,5.36777581424234e-18,1.66632406089537e-06,5.97477131137541e-15,2.1193238747202e-08,-5.04662410516048e-14,0.707106781186547,6.3201072539689e-14,-3.10710883309562e-07,1.82953867363893e-15,-1.25979971180353e-14,1.22893573242099e-06,1.76816502992359e-07,-2.97366713470901e-15,-1.22968994321065e-08,7.44048729880228e-15,5.88676624852737e-15,-0.100000000000003
"Richardia_stellaris",-0.113989070301341,0.00743535561926008,0.25622803507492,0.0156508994904714,0.00266874397890312,0.0590274832365119,0.0324279063300833,-0.049790431950625,-0.00115014354208919,-0.13226800528948,0.000110301565651466,0.000542214872517249,0.00161362951077619,7.10332644449474e-05,-0.13154593028672,0.169641913101831,-9.30534259998446e-15,3.88642615967862e-15,-4.58187423805029e-15,1.26622723570322e-15,-2.31886676438769e-05,-0.0148234632896883,-1.58323867781492e-06,1.02690496899113e-09,0.000795655834740904,0.0885648051689436,-2.88194027836987e-05,-1.02222537885604e-06,-6.10384613437377e-16,0.0030690364224659,-1.36424898906453e-06,9.97717896343582e-06,-2.69093828279676e-14,3.76472476721011e-14,-1.91760680314555e-14,-1.24521262873438e-14,7.10899343389745e-15,-2.28536574779794e-14,-9.7300050300789e-15,1.8301371474311e-14,-3.0482585951217e-15,3.30393763601256e-14,0.573253967527748,-5.36372274115569e-07,5.37320057231615e-07,0.000624501433799555,4.7348848383075e-07,-1.36248487755649e-07,7.8343427611205e-16,-3.62533659615086e-16,-1.15726454845491e-05,2.01717279935588e-07,-0.0612832775418389,1.04593519587373e-06,2.1094237467878e-14,-1.53835277849623e-14,5.90499871222505e-15,1.11511838375153e-16,5.87963404740335e-16,7.41115291897783e-16,-1.43016628531332e-16,7.73168692709662e-09,-1.28062109241713e-16,3.03577448640024e-15,-1.28076875023399e-15,2.60714605115572e-06,6.70953433959956e-16,-1.95150966311549e-07,-6.44422026050788e-08,-7.79765426999909e-16,5.14848752169447e-16,-1.11945878659709e-17,-5.48215188065847e-17,-1.00648334073334e-15,4.74285983376587e-16,-3.27474300721318e-15,2.69498808265261e-07,-1.25786752340293e-05,2.11415766352058e-08,-1.55164474290536e-15,-9.09588790490428e-16,-2.79902832552362e-06,-2.11955141059393e-16,6.63853342412754e-16,1.66632406081159e-06,-7.00096028890524e-15,2.11932433137909e-08,4.78488646863517e-14,-0.707106781186549,-5.33565468599927e-14,-3.10710810565735e-07,1.84341646146445e-15,6.10926071611138e-15,1.22893573204816e-06,1.76816530237945e-07,-4.37888793480215e-16,-1.22969151920707e-08,-4.23767114147359e-15,1.46206992691127e-15,-0.0999999999999878
"Spermacoce_chaetocephala",-0.113714620851751,0.00739928847931142,0.250526142312306,0.0151045663086847,0.00253902665113415,0.0555393483291003,0.0298341037523441,-0.0454499221226958,-0.00104118441741161,-0.11637398255477,9.49942926884181e-05,0.00045572393796355,0.00131569526026489,5.74176281648499e-05,-0.103521146254054,0.129960429683532,-7.11344412656445e-15,3.27270308825688e-15,-3.39856534677768e-15,7.05796941262363e-16,-1.65624917936857e-05,-0.0103679564235247,-1.08821680407155e-06,6.59467179418816e-10,0.000455136376514259,0.0311774709232811,-8.3035614592435e-06,-2.6675957589447e-07,3.02728433732356e-16,0.000250814148276825,1.66222981081399e-07,-1.72913443232489e-06,1.22490134295894e-14,-1.95484342072931e-14,9.75837834583622e-15,5.99024348232729e-15,-2.7554348710821e-15,1.14984334610157e-14,4.3699303312667e-15,-8.87140532043406e-15,3.58381142734104e-16,-1.66915739053015e-14,-0.278894956636598,2.79876354028767e-07,-2.80712891719401e-07,-0.000465814086048802,-6.08374763354708e-07,2.19989893966574e-07,-1.88663004208778e-15,3.05637701631571e-15,-0.000118203676846722,1.17567304093802e-06,-0.194836331785384,-6.6764531890251e-06,7.61890550649014e-13,7.00134394904239e-15,3.39631101020643e-13,0.021675543282792,0.0685792243625575,0.863033638283714,-1.39570460569167e-17,3.71625896424967e-08,9.73838301050763e-15,2.91905734694925e-16,2.36358929466366e-16,8.56109593309765e-06,-1.6466198404059e-15,-5.087833524599e-07,-1.65476139722174e-07,-6.2942250776336e-16,-1.39209581781759e-15,-2.12757506966887e-15,-1.65242623583854e-15,-1.91452130793531e-15,5.78599389984816e-16,-3.54178172451517e-15,6.39303563631516e-07,-2.96490150381375e-05,4.72223031187303e-08,5.95649319578552e-16,5.87661853197864e-16,-6.13133540619537e-06,1.06658530908839e-16,5.91804701675059e-16,3.36619487557224e-06,2.54994128820899e-15,4.01817175008974e-08,-1.50963177692509e-15,-8.51658746970959e-16,4.29767336100361e-15,-5.66356469515619e-07,1.75795872033047e-16,2.92408565947558e-17,2.19522916395405e-06,3.14655582617189e-07,-1.89605546945994e-15,-2.17924702413566e-08,3.00897034331961e-15,3.48518103996596e-15,-0.0999999999999996
"Spermacoce_stachydea",-0.113714620851751,0.00739928847931142,0.250526142312306,0.0151045663086847,0.00253902665113399,0.0555393483291003,0.0298341037523442,-0.0454499221226958,-0.00104118441741151,-0.11637398255477,9.49942926885163e-05,0.000455723937963287,0.00131569526026452,5.7417628164669e-05,-0.103521146254053,0.129960429683532,-7.13240166298662e-15,3.08615889547659e-15,-3.27609230437784e-15,7.52561105719751e-16,-1.65624917938823e-05,-0.0103679564235249,-1.08821680407039e-06,6.59467364065222e-10,0.000455136376513187,0.0311774709232823,-8.30356146056191e-06,-2.66759575074707e-07,1.01901623159949e-16,0.000250814148278796,1.66222981690036e-07,-1.72913443330461e-06,1.4008351847809e-14,-1.83000328796897e-14,8.85976078749274e-15,6.26267062609171e-15,-3.8735686057808e-15,1.15245453477786e-14,4.32938402574747e-15,-8.54338132680355e-15,1.80423016401382e-15,-1.61835121783146e-14,-0.278894956636597,2.79876354353124e-07,-2.80712892021751e-07,-0.000465814086045107,-6.08374761619269e-07,2.19989892645584e-07,-1.01146204849778e-15,3.11690718339409e-15,-0.000118203676856415,1.17567302992824e-06,-0.194836331785391,-6.67645308647519e-06,-1.61759494687885e-13,2.73184252996828e-13,3.30332983189408e-13,-0.156151256878145,-0.822833016472345,-0.220369262780437,-1.70099072948662e-15,3.71625890246204e-08,-2.82101495556446e-15,-7.28111669948724e-16,-1.55040625072908e-15,8.56109592938512e-06,3.52979501187785e-15,-5.08783348953906e-07,-1.65476137995053e-07,-4.64119432511153e-16,1.72422687495796e-15,-1.53513127405166e-15,-9.29346198177749e-17,5.7234347502604e-16,1.02047273904548e-15,-2.68696229926688e-15,6.3930356178676e-07,-2.96490150415373e-05,4.72223010820598e-08,2.59263240090466e-16,-5.59218953624778e-17,-6.13133540679759e-06,-7.3534752168213e-16,3.22701863779023e-16,3.36619487242993e-06,-8.77872300319827e-16,4.01817170323985e-08,-1.19247890892004e-15,-1.54554805593215e-15,4.69669054845294e-15,-5.66356467710319e-07,1.54969686500934e-15,-5.55309929267921e-15,2.19522916482939e-06,3.14655579550221e-07,-2.15893315342037e-15,-2.17924691033796e-08,4.37246299543737e-15,3.75329672788667e-15,-0.0999999999999982
"Spermacoce_quadrisulcata",-0.113714620851751,0.00739928847931138,0.250526142312306,0.0151045663086847,0.00253902665113395,0.0555393483291001,0.029834103752344,-0.0454499221226959,-0.00104118441741161,-0.11637398255477,9.49942926881163e-05,0.000455723937963345,0.00131569526026468,5.74176281646103e-05,-0.103521146254053,0.129960429683533,-7.05325245712198e-15,3.27111959655182e-15,-3.34850828365075e-15,8.98820738707852e-16,-1.65624917935873e-05,-0.0103679564235247,-1.08821680404584e-06,6.59467473312144e-10,0.000455136376512424,0.0311774709232812,-8.30356146094224e-06,-2.66759575254044e-07,-2.61894584295014e-17,0.000250814148277002,1.66222980872993e-07,-1.72913443252858e-06,1.28916004311978e-14,-1.85740368227136e-14,9.49287006963185e-15,5.82934449851073e-15,-2.91853383950509e-15,1.13033289981517e-14,4.77803986470143e-15,-9.16922412254254e-15,1.11401234764799e-15,-1.60232977080843e-14,-0.278894956636595,2.79876353743044e-07,-2.80712891907968e-07,-0.000465814086041488,-6.08374762277391e-07,2.19989893606051e-07,4.35297330559604e-16,-2.53431534618498e-15,-0.00011820367681771,1.17567301498759e-06,-0.19483633178538,-6.67645327977195e-06,3.13901682424955e-13,-3.35627359238089e-13,2.46386244739938e-13,0.76225767558894,0.247139732202371,-0.328458808334755,1.64042457434819e-15,3.71625859050338e-08,-1.47628513641888e-14,-3.10121338345667e-15,-3.29160923769799e-16,8.56109593553797e-06,3.61653118574118e-15,-5.08783352404492e-07,-1.65476139730585e-07,-4.96546952603987e-16,-9.6238991654528e-16,-1.47387579466388e-15,-8.51133937450157e-16,-3.79805403106425e-16,-1.25610221394671e-15,-5.00983897452084e-15,6.39303563046819e-07,-2.96490150337935e-05,4.72223016722206e-08,9.00254578573198e-16,2.6776424748099e-16,-6.13133540376079e-06,-5.34075084590191e-16,-5.02511638654268e-16,3.3661948684518e-06,-9.47261239361819e-16,4.01817162849149e-08,-1.29798851001218e-15,-3.1042510690818e-16,4.36031972185246e-15,-5.66356468585284e-07,3.25319531841268e-15,-1.89977164458703e-15,2.19522916534283e-06,3.14655579272659e-07,-1.86070141180367e-15,-2.17924691189916e-08,4.11225447404085e-15,3.56860867010926e-15,-0.1
"Spermacoce_radiata",-0.113714620851751,0.00739928847931137,0.250526142312306,0.0151045663086847,0.00253902665113397,0.0555393483291,0.0298341037523439,-0.0454499221226959,-0.00104118441741153,-0.116373982554769,9.49942926882349e-05,0.000455723937963616,0.00131569526026494,5.74176281648386e-05,-0.103521146254053,0.129960429683532,-7.23240459608562e-15,3.08099375373026e-15,-3.25444911043745e-15,6.98938326904754e-16,-1.65624917937773e-05,-0.0103679564235254,-1.08821680381876e-06,6.59467201570422e-10,0.000455136376513104,0.0311774709232804,-8.3035614602612e-06,-2.66759575409533e-07,6.42867256112029e-16,0.000250814148275793,1.6622298129662e-07,-1.72913443115014e-06,1.34444699285048e-14,-1.81141681480035e-14,9.05682042261974e-15,5.84266605690659e-15,-3.52500273806896e-15,1.19548105652409e-14,3.99934097035385e-15,-9.0137191852354e-15,1.44494657728217e-15,-1.67560793223756e-14,-0.278894956636596,2.79876352444029e-07,-2.80712892636777e-07,-0.000465814086043518,-6.08374762719768e-07,2.19989893590868e-07,-1.96035578971776e-15,-1.57890613444557e-15,-0.000118203676846153,1.17567301203894e-06,-0.194836331785378,-6.67645323169236e-06,-7.1162520320911e-13,-1.8890444763997e-13,-8.329031908616e-13,-0.627781961993586,0.507114059907424,-0.314205567168525,-8.04194042127909e-17,3.71625827187241e-08,-8.35825229088242e-15,1.15232858062848e-15,-1.31101441125073e-15,8.56109592816908e-06,-2.13234241360407e-15,-5.08783351686675e-07,-1.65476139164059e-07,-7.07643503365062e-16,8.51061447415248e-16,-1.35900782380365e-15,-8.8868152393533e-16,5.2170145779592e-16,-6.19180578773396e-16,-4.13270815323605e-15,6.39303560780251e-07,-2.96490150375171e-05,4.72223013889399e-08,4.87789929430963e-17,-2.12181222427104e-16,-6.13133540517877e-06,1.47639232962655e-15,6.87541518686993e-16,3.3661948694301e-06,4.68273117033546e-16,4.01817171075734e-08,-1.45392482966948e-15,-1.12921469550648e-15,3.99912693965659e-15,-5.66356466919309e-07,-4.52174026277204e-16,-3.02387245244712e-15,2.19522916381711e-06,3.14655580501707e-07,-1.2226965208602e-15,-2.17924698909434e-08,2.90141748780904e-15,3.24432176707289e-15,-0.100000000000001
"Stenaria_nigricans",-0.11174410905654,0.00714007715961438,0.209254721588528,0.0111290121343812,0.00158951170707816,0.0298882587840588,0.010577688828106,-0.0131174804960465,-0.000226633012720752,0.00393657398644894,-2.19859830566735e-05,-0.000212615334174504,-0.00101919772543093,-4.97246731256808e-05,0.119848780117663,-0.190493192798488,1.06556964844132e-14,-4.9031659243552e-15,4.96532632637032e-15,-1.40142014671318e-15,3.8879226552675e-05,0.0273229262963976,3.13830876601127e-06,-2.59663103009417e-09,-0.00277349483363928,-0.740212741288222,0.000321802158394974,1.31434298721027e-05,1.53248241630951e-14,-0.573510088127236,-1.40103264331353e-05,7.30556829642452e-05,-8.059871485925e-15,1.05719325156656e-14,-3.30373573735703e-15,5.94726547204465e-16,-1.4185921345427e-15,-1.64792376187139e-15,-1.76353472161968e-15,4.15459546923902e-15,-2.94276630192499e-15,1.58020374015361e-15,0.0639449486976304,1.75633997032374e-07,-1.80046174978447e-07,-0.00161646198058006,-3.06824531764898e-06,1.15440097911206e-06,3.79890560405946e-15,4.7989228941664e-17,-0.000442782950748118,3.18718817144687e-06,-0.00531126647209935,-7.33297632737398e-05,-1.79023462720806e-14,7.16093850883226e-15,-1.45716771982052e-15,5.8716827881277e-16,-2.40492700942183e-15,-1.49024742962835e-16,-5.84795862964375e-16,1.99849698301494e-07,2.60644512072957e-15,-2.02766979649697e-15,-4.1465002298353e-16,4.14837896257235e-05,4.01494394878902e-16,-2.2766357019898e-06,-7.35986414023928e-07,-1.1763586693311e-15,1.21235321201849e-15,1.46003851793414e-15,9.39482601219288e-16,-7.91692957717128e-16,8.25526555775412e-16,-3.51119196144362e-15,2.74908469058956e-06,-0.000127125545212142,1.97356753030245e-07,-2.75393753964071e-17,2.02777816778841e-16,-2.53737617308613e-05,-9.67931997173492e-16,5.00357026829791e-17,1.33213568054625e-05,-2.54946519451981e-16,1.527639127433e-07,-1.38811842667796e-15,-1.63790646558145e-15,4.1222381580013e-15,-2.09456937877117e-06,-1.14664148283834e-15,-2.38018407809528e-15,7.99699811131462e-06,1.14295009655258e-06,-1.92714956538131e-15,-7.89051274964255e-08,4.35339163420437e-15,5.36177791484592e-15,-0.0999999999999978
"Pentanisia_ouranogyne",-0.106800051047107,0.00648993509820662,0.10611043211752,0.00123408662784801,-0.000759031071074891,-0.0331537634698709,-0.0358952864383087,0.0642584028606761,0.00170257914960367,0.274876064273299,-0.000270068808641497,-0.00148411329809299,-0.00445311215348797,-0.000188939939118379,0.245338679118295,0.0300410016115688,-2.8280159686643e-15,-3.52931480357048e-15,5.19899429134333e-16,-8.71523646548781e-16,-0.000642791421976393,-0.903476496752263,-0.000200707990876881,0.000209291356117838,0.0654643953523634,0.0592176219651426,0.000183570950860193,9.91145571154055e-06,2.55084196460816e-16,-0.00304689254829688,-2.86837263522425e-05,0.000150716433329373,1.32345413923379e-15,-4.81159640021789e-16,2.21272350599409e-16,3.49488748778337e-16,-2.90446612839666e-16,9.28331075983133e-16,-5.59760670013726e-16,-1.86777002722338e-16,3.57616758819768e-16,-5.0943958058617e-16,0.00300138767159385,5.26354303948583e-07,-5.36551732290004e-07,-0.00388683906003798,-7.4539459940294e-06,2.82715005664354e-06,6.10573247587891e-16,-2.54574495493621e-16,-0.00113521928644266,8.1688834195894e-06,-0.000630597201140758,-0.000190210502098082,-1.9151347174784e-15,1.03389519168218e-15,-7.42461647718073e-16,4.81669047291868e-16,-3.34796822304837e-16,3.59393945710725e-16,-7.60946262850928e-17,5.2190687013065e-07,5.75131879187702e-16,2.687077803091e-16,4.11049883991908e-16,0.000108848876008336,-4.05049248372647e-17,-5.99011679880757e-06,-1.93672481697571e-06,-3.46675790698559e-16,9.430267758202e-17,4.78101903549756e-16,3.18059887617491e-16,2.7845302282034e-16,9.31475603405229e-16,-3.85196735220516e-15,7.23748766384949e-06,-0.000334688228723133,5.19589616429429e-07,-6.29090584473942e-16,-1.39335839096982e-16,-6.67974249592607e-05,-1.09410458873101e-16,2.7632699728893e-16,3.5036521150555e-05,1.28830539693734e-15,4.01114683569224e-07,-1.78136223394714e-15,-1.18199906945886e-15,4.23695548769582e-15,-5.49079681185893e-06,1.7859338958923e-15,-3.52697729307544e-15,2.09414632309635e-05,2.99235495003201e-06,-1.30632823933609e-15,-2.06530524359559e-07,3.20987556207879e-15,4.90259641423858e-15,-0.0999999999999982
"Mitchella_repens",-0.100243513599765,0.00550761454505613,0.0958674897197467,-0.00300817509292783,-0.00194612299360862,-0.06589187560801,-0.0588663310378602,0.100803882897524,0.00255310568302621,0.339111305027965,-0.000236003226405207,0.000681173336589196,-0.00787810341190836,-0.000800847624827099,0.63484434729138,0.561260122655497,-3.66558141330401e-14,1.16693157475212e-14,-8.5134807577734e-15,1.81911962824376e-15,0.00323409548566033,0.343963849969673,-8.69903172255028e-05,0.00025192650181678,0.0266053458158578,0.0244889256696763,0.000311735901955289,1.64524071984709e-05,2.62385138676553e-16,-0.00145309963791545,-4.57777463228143e-05,0.000240277359079869,-3.5430126583153e-16,2.44272797568356e-16,-4.56053263131075e-18,-7.52501679044424e-17,-8.18734945566318e-17,-4.68433692902179e-16,-3.96993019150789e-16,-3.81789789724335e-16,-2.87973884730908e-16,4.07411589184154e-16,0.0015656317924147,8.38366359389709e-07,-8.54548348331175e-07,-0.00277269865716448,-1.18179376136799e-05,4.47757184436951e-06,5.17284683551525e-16,-2.86641818432523e-16,-0.000857579575323363,1.28560685918209e-05,-0.000366885637569775,-0.000144817297292356,-7.91033905045424e-16,-2.70616862252382e-16,-2.57432963834958e-15,-4.12601673271237e-16,-3.97583478694553e-16,3.53066070595197e-16,-5.34727793097949e-16,8.18462341233288e-07,-8.06944970062751e-16,-2.03073194992059e-16,-4.7462845043757e-16,8.48393356452811e-05,4.27592998557e-16,-9.35065586301666e-06,-3.02262868076318e-06,-6.83106633028655e-16,1.13553576286175e-16,2.13127358796678e-16,-1.95834164491907e-16,-7.49884949149109e-16,2.47184298286355e-16,-3.98449268847985e-15,1.12801761222162e-05,-0.000265375248300047,8.0909947267628e-07,-7.19023440484003e-16,-1.74061505504304e-16,-5.32535572502257e-05,-1.75856325847497e-17,1.22749350932819e-16,2.81300758782403e-05,-4.89575776745469e-16,6.22093193928689e-07,-1.64902059527606e-15,-1.21700685902033e-15,4.30343405946398e-15,-4.45680158620617e-06,8.49037006942625e-16,-2.61922490262205e-15,1.70397725935368e-05,2.43598655216925e-06,-1.67182710688275e-15,-1.68218471633841e-07,3.66555698753646e-15,4.49623461653339e-15,-0.0999999999999978
"Leichhardtia_australis",0.0559201732581585,-0.096944536392331,0.0099721259108278,-0.0307862095772723,-0.00903985576671124,-0.226624476900091,0.320307044779264,0.0560884973792918,0.037065690342533,0.000602713115241431,0.00689025961775222,0.871549158100615,0.000253030689873267,-0.193619390032148,-0.00924667400945702,-0.00450714378970349,2.71239985068452e-16,-6.19611073003659e-16,1.33707014286801e-15,-1.41765118360636e-15,0.142882876552302,0.000622042624929995,-0.000443233335407959,0.00106080564957163,0.00026353443851692,0.000377801476795072,0.0144135127210753,7.32023262909837e-05,2.52769041025014e-17,-2.59741383809204e-05,-0.00192890666778163,0.00109026934750422,-1.36195176427995e-15,2.37851416955136e-16,1.98236944225237e-16,-2.62839421408771e-16,-3.86318017433773e-16,3.4268653300919e-16,-5.79856464777007e-16,-4.46428049467384e-16,2.64685470157329e-16,-2.52285920807169e-17,3.17822978062513e-05,3.44471700931448e-05,-3.88324948337785e-06,-5.7861111635327e-05,-0.000472973921168476,2.03209009136878e-05,4.80303211150621e-16,-4.3843693774746e-16,-2.07119064547286e-05,0.000486498911266565,-8.96625119046853e-06,-3.57285097271013e-06,3.87537224533219e-15,-3.11556336285435e-15,3.5301622736128e-16,1.28664519699797e-16,-3.63228071265834e-16,-5.01843152759273e-17,-1.20184147105742e-16,3.01797029908197e-05,-1.97747950948506e-16,5.61781007759161e-16,-3.20652392104638e-16,2.24124137904197e-06,3.56126453084702e-16,-4.20007940852378e-05,-1.35742587226723e-05,-3.6520391672732e-16,5.40192193522514e-16,-2.57378673998344e-16,-1.27209901845631e-16,-9.05731366230042e-16,5.59013111901439e-16,-3.90981023973139e-15,5.05920560591179e-05,-7.39507782966594e-06,2.83535635703753e-05,-5.37726554389212e-16,-1.23307583183418e-16,-1.51058869728255e-06,-1.8003720387786e-16,2.76862485451514e-16,8.16870032491679e-07,-3.44841633743834e-17,2.77622699878511e-06,-1.49312538965395e-15,-1.09710172251696e-15,4.41721181120031e-15,-1.34381989103184e-07,1.44058415988223e-16,-2.76220646352044e-15,5.18285531585752e-07,7.42183214650291e-08,-2.11509858461654e-15,-5.1347954036165e-09,2.14541630976489e-15,4.3151026979675e-15,-0.100000000000003
"Funastrum_cynanchoides",0.0687429664710908,-0.160511596056076,-0.0048748796748837,0.00319989470204676,-0.000329264243646174,-0.0233702362939254,0.0761930836672604,0.0177766118153282,0.0177138838410731,-0.000223103896304997,-0.000578277876069154,0.00293319972353639,3.16153296734739e-05,0.305140609478251,-0.000153323873042399,-0.000208229060675808,1.75251653775425e-16,5.72860515632431e-16,-1.01268673641685e-15,1.50968646894404e-16,0.0564152125205272,-6.42593325415597e-05,1.43001164343912e-05,9.30223709021671e-07,-5.4593556441003e-06,-0.000280883746641724,-0.881440045307253,0.000194012844823531,8.37475419926894e-15,-1.47574176396743e-05,-0.280845664671054,0.000220402270629435,8.9351090875412e-16,-8.18214120263309e-16,-7.55642134401266e-17,8.27019924217612e-16,2.03495947750086e-17,-1.05620150740358e-15,1.97835236389324e-15,-1.95321945864885e-15,4.30323853699745e-16,-1.19851402545859e-15,9.14906391937002e-06,0.00193698288599678,-1.10027982283335e-06,-1.6138064339798e-05,-0.0169251262949962,5.26788587094818e-06,2.64761165963747e-16,3.26556466106457e-16,-4.9815671192676e-06,0.00953326558327528,-2.08919744610692e-06,-8.34517483011207e-07,8.89566198480907e-15,2.18228213277882e-15,-1.47798440153224e-15,-4.28489042324336e-16,-1.4637611605395e-16,7.24486990882682e-16,-9.82593075617704e-16,0.000485297293955808,2.24499071367488e-15,1.42150288121734e-15,-9.52870814592074e-16,5.07837857147012e-07,1.28726412995271e-16,-9.41087116446275e-06,-3.03906268939733e-06,-4.83394442234339e-16,-5.55197616381799e-16,-1.08522849313676e-15,-1.21414256342526e-15,-1.29034434588849e-15,8.30158300175152e-16,-6.46900052178009e-15,1.12786437342971e-05,-1.64803817874232e-06,0.000333542762937097,9.56786870990479e-17,1.34161443841478e-16,-3.35301001363092e-07,5.37027145989305e-16,2.90660167548226e-16,1.8057079911975e-07,6.59489638344373e-16,6.11943217934788e-07,-1.26231385811701e-15,-1.15314045992956e-15,4.24904418301528e-15,-2.95778088642443e-08,6.02329944924615e-17,-3.79930012736347e-15,1.14005991340415e-07,1.6323946717943e-08,-1.95401627835284e-15,-1.12924871666042e-09,1.18808980103523e-15,3.54402085184289e-15,-0.0999999999999825
"Vincetoxicum_hirundinaria",0.0700565685577444,-0.167047511294984,-0.00645857925592903,0.00698617658812223,0.000715505358624535,0.0032494543194924,0.030163306199804,0.00827849833737354,0.00922389267174486,-0.000143422894649712,-0.000409027667647211,0.00226593640692458,2.69900457538969e-05,0.268008491309795,-0.00014746570440872,-0.000221327282328106,3.23040570792445e-16,4.98243346837343e-16,-7.43984402304225e-16,-5.41512121291271e-16,0.0849530444681621,-0.000112325043409308,2.910913769865e-05,7.19014896118113e-06,7.30697198064387e-06,3.45013062711609e-07,-0.0443193498231123,1.23264583607241e-05,1.83958948335751e-16,-6.66245257700506e-07,0.605726748626368,0.000495985754193012,9.05898331530182e-15,4.60597828123955e-15,-6.66547488835576e-15,-2.3374605280726e-14,-1.23730906890484e-14,5.0695524017271e-15,-2.16233707086703e-14,5.72490254651003e-15,-2.34407784445296e-15,-7.23152328842056e-16,4.44045017673398e-06,-0.707822241902479,-5.17943012886376e-06,-8.47050147246078e-06,-0.0774153781234518,2.34817130455308e-06,4.15248201080594e-16,-9.14998612305333e-16,-2.55764081077102e-06,0.0330762856972107,-9.31619059086766e-07,-3.95868176036526e-07,-3.12944115066216e-15,1.33573707650214e-15,4.19456136491192e-15,8.70635833606623e-16,-4.96684717453211e-16,-2.30588778705549e-16,-2.33687709315694e-15,0.0013527201500076,8.54704235000569e-16,-5.34330252934183e-16,-3.65107221845482e-16,2.57807448126083e-07,-3.81244814443652e-16,-4.88543801948194e-06,-1.5805093079571e-06,1.79160802422281e-16,-1.9737381133743e-16,-9.10333604882169e-16,-4.38739502853588e-16,-1.86767129436676e-15,1.18466883130151e-15,-5.73007551858923e-15,5.92622279408369e-06,-8.66719768263845e-07,0.00071797797681432,3.17615921385201e-16,5.83396421483152e-16,-1.78281646333274e-07,1.62818169600642e-16,5.7375782155108e-16,9.74010668586072e-08,-1.49325190173417e-15,3.34418555761076e-07,-1.18228477297477e-15,-1.20938801182071e-15,4.39321859881674e-15,-1.63109162289703e-08,2.74453360983335e-16,-3.57621457870736e-15,6.31832221867064e-08,9.05552812332978e-09,-1.07031818183843e-15,-6.27100346162449e-10,2.39983319526394e-15,3.67659039411635e-15,-0.0999999999999965
"Asclepias_stenophylla",0.0727209228571347,-0.180396281278162,-0.00986802988697591,0.0154910195414631,0.00318414657626781,0.068881461903661,-0.0948442080996322,-0.0185062531935496,-0.0157571137398077,0.000134568076845695,0.000285291492121355,-0.00121776323500055,-1.12300812145825e-05,-0.104662008737634,4.83117701444817e-05,6.22638372587787e-05,-1.24609899637212e-16,-1.78084534465668e-16,2.67932698445612e-16,2.69564475600606e-16,-0.0173256416127521,2.11241928321534e-05,-5.13822566856537e-06,-1.02012686209784e-06,-7.69738627514477e-07,-1.69538622993352e-08,0.00178857079791518,-4.58272391807622e-07,4.0199826997431e-16,1.45741332214408e-08,-0.00714147507424243,-4.95193508460078e-06,-2.45553525612424e-16,-2.05230353713179e-16,-7.73569803304763e-16,-7.50509506673771e-16,1.94529384223141e-16,2.82955635121998e-16,5.92453516120972e-16,2.42011225582866e-16,-3.37255447673007e-17,-4.76142401120623e-16,-1.26235820505008e-08,0.00165354529511568,1.2054488573797e-08,2.39601175705539e-10,-0.000117803978700244,2.30058330138857e-09,1.96077704688264e-15,5.1719572956993e-16,1.06352517033684e-06,-0.223027939391954,-7.21946528343691e-07,-1.2153206329496e-07,1.66394675815695e-14,-4.08145739427823e-14,-2.13960793526979e-14,-6.00408579510519e-16,-3.7642197053694e-15,3.12114017244216e-15,3.46957277719074e-14,-0.0175658413743972,-1.33109583856746e-14,3.1410287305206e-15,-9.69812472056052e-16,3.25633772582179e-08,-6.5532493342084e-15,-6.06701479361134e-07,-1.96587918686143e-07,0.0148800308119913,0.144744436368188,-0.369958197450394,-0.456059470334717,-0.630815150910131,-0.00153207648887556,-0.333223982637248,7.51199097496485e-07,-1.10198533201161e-07,0.0335803730663135,4.43609447496847e-14,7.72043329766339e-15,-2.16428922871544e-08,-3.39167127057679e-15,-9.06571843507275e-17,1.27077198275923e-08,-1.42265028959281e-15,4.53690036581672e-08,-3.5081974020993e-15,-6.65723842764426e-16,5.86191029497288e-15,-2.27580375259085e-09,8.08366047343824e-17,-4.43329572050507e-15,8.95692268183151e-09,1.28768758774198e-09,-3.75514828019995e-15,-8.94710575122496e-11,-2.53805450375478e-15,3.53400440684681e-15,-0.0999999999999745
"Asclepias_viridis",0.0727209228571347,-0.180396281278162,-0.00986802988697603,0.0154910195414631,0.00318414657626774,0.0688814619036609,-0.0948442080996323,-0.0185062531935499,-0.0157571137398078,0.000134568076845195,0.000285291492121314,-0.0012177632350003,-1.12300812138764e-05,-0.104662008737634,4.83117701441313e-05,6.22638372586382e-05,1.20050470468892e-16,-6.42761930350009e-17,2.60080877393761e-16,9.08768701555807e-17,-0.0173256416127514,2.11241928332012e-05,-5.13822566872317e-06,-1.02012686287152e-06,-7.69738626480582e-07,-1.69538615052656e-08,0.00178857079791278,-4.58272391810831e-07,3.13603606111583e-16,1.45741352889601e-08,-0.00714147507424126,-4.95193508758548e-06,-6.61852068213869e-16,-2.83192846532042e-16,-9.13224601656462e-16,-4.92475886914769e-16,1.48038231662818e-16,2.93042678856993e-16,6.50729868071245e-16,5.67649613204776e-16,3.5040990785797e-16,-5.93967459476209e-16,-1.26235824343355e-08,0.00165354529511485,1.2054488596441e-08,2.39606289670347e-10,-0.000117803978701531,2.30058408438583e-09,-2.9299283842721e-18,1.98474740697786e-15,1.06352517878841e-06,-0.223027939391951,-7.21946532410778e-07,-1.21532069616292e-07,5.32907051820075e-15,-4.14251966063262e-14,-3.45105888310826e-14,-1.33984805858886e-16,-3.22938277397876e-15,5.54628359113474e-15,3.38420595082123e-14,-0.0175658413743988,-4.28345741669132e-15,1.97789664537423e-15,-4.43232053055754e-15,3.2563359594613e-08,-2.26327817770522e-15,-6.06701486182514e-07,-1.96587932919222e-07,-0.251437213773438,0.16374163159913,-0.0636509738199107,0.742170837584141,-0.0609670297306279,-0.267583873802764,-0.393422036430436,7.51199090123866e-07,-1.10198585415904e-07,0.0335803730663217,4.83930776659304e-14,1.34901290388231e-14,-2.16429087412234e-08,1.73283029486299e-15,1.46483543860021e-15,1.27077198448582e-08,6.37319701143665e-15,4.53690056141949e-08,-7.62574579558516e-16,-5.10031882835138e-16,5.36235248339875e-15,-2.27580736301458e-09,3.46181265940178e-15,-4.39426440181681e-15,8.95691833119924e-09,1.28768944217154e-09,-3.02879175127255e-15,-8.94763171943582e-11,-1.24048134372413e-15,4.56398562770439e-15,-0.099999999999978
"Asclepias_ovalifolia",0.0727209228571347,-0.180396281278162,-0.00986802988697598,0.0154910195414632,0.0031841465762677,0.068881461903661,-0.0948442080996323,-0.0185062531935498,-0.0157571137398078,0.000134568076845221,0.000285291492121392,-0.0012177632350002,-1.12300812134571e-05,-0.104662008737634,4.83117701443533e-05,6.22638372585497e-05,-2.07490598664687e-16,-4.31329416861458e-16,-1.00324048599911e-16,-2.58139128266563e-16,-0.0173256416127515,2.11241928339769e-05,-5.13822566868741e-06,-1.02012686299471e-06,-7.69738625618424e-07,-1.69538617803277e-08,0.00178857079791346,-4.5827239194906e-07,5.5642116371376e-17,1.45741343549267e-08,-0.00714147507424192,-4.95193508648865e-06,-8.90343032607258e-17,2.28878773301095e-16,-2.12870934805568e-17,1.99106780909974e-16,2.38027591894273e-16,-9.8362641087153e-16,1.1949179474722e-16,-4.16003711605658e-17,-2.06861015355509e-16,3.87871189352492e-16,-1.26235824851372e-08,0.00165354529511469,1.20544886893952e-08,2.3960479433871e-10,-0.000117803978701302,2.30058347787403e-09,-6.53799738950489e-17,2.21351672545411e-15,1.06352517516978e-06,-0.223027939391956,-7.21946532891171e-07,-1.21532064405183e-07,1.32671651442706e-14,-3.85455556362047e-14,-3.93539367760098e-14,8.05096905069985e-16,-1.79335699677181e-15,5.17158331974127e-15,3.32867789210712e-14,-0.0175658413743978,-4.33896856792257e-15,-2.66769281883742e-15,3.22388153029978e-15,3.25633599879615e-08,4.2610168157766e-15,-6.067014903051e-07,-1.96587918408737e-07,0.365625331904717,0.204590579612659,0.0119203382105086,0.0212508470651951,0.393066686773817,0.669904996696881,-0.309181166290073,7.51199097183364e-07,-1.10198577367221e-07,0.0335803730662964,4.2542102955867e-14,8.51966988936473e-15,-2.16429337516534e-08,-2.53308734837191e-16,2.4401439001818e-15,1.27077239582671e-08,5.15542113129259e-15,4.53690056549636e-08,-1.10037506291186e-15,-1.51703843924588e-15,3.21416368719802e-15,-2.27580974565727e-09,4.94326650787695e-15,2.77345951861754e-16,8.95692006588206e-09,1.2876899140104e-09,-4.22101637796127e-15,-8.94799531744462e-11,-9.31700565000261e-16,6.76808386051854e-16,-0.0999999999999811
