"","c1","c2","c3","c4","c5","c6","c7","c8","c9","c10","c11","c12","c13","c14","c15","c16","c17","c18","c19","c20","c21","c22","c23","c24","c25","c26","c27","c28","c29","c30","c31","c32","c33","c34","c35","c36","c37","c38","c39","c40","c41","c42","c43","c44","c45","c46","c47","c48","c49","c50","c51","c52","c53","c54","c55","c56","c57","c58","c59","c60","c61","c62","c63","c64","c65","c66","c67","c68","c69","c70","c71","c72","c73","c74","c75","c76","c77","c78","c79","c80","c81","c82","c83","c84","c85","c86","c87","c88","c89","c90","c91","c92","c93","c94","c95","c96","c97","c98","c99","c100"
"t2",-0.206075252215127,-0.0334195469547406,-0.0126553743402017,-6.62298302806212e-05,0.0044904201859659,0.000867867674353417,5.83570681648924e-05,0.00386875576864621,-0.00989633640835937,-0.00062886064089902,0.000238986285296432,0.00272346431405046,-0.000164952567749576,0.00061666282491037,-0.00376197840536901,0.00103784867980116,0.0383847807870283,0.394008364704638,-0.00776432691585194,-0.00322545081715444,0.00869894756299345,-0.0075732144587845,0.452876619038191,-0.00837187147650164,4.34273068855558e-05,-0.00497156910140749,0.000116263786770039,-7.81165139680976e-05,0.759772547044178,0.00235684915155177,0.00127336703921144,0.000111870263731916,0.000826471092669698,2.60180070974473e-05,0.000824266166370671,-0.00346567719674391,0.081277172246134,-0.000279545698694712,0.000881611220945949,3.74130337842298e-06,-4.39875046346542e-07,6.94766966410755e-17,1.35392537237974e-17,-0.000440318938189063,2.72773971819279e-16,7.01063631697264e-06,0.0001364578829299,-1.43187202740892e-05,-7.62301751469654e-05,4.95277465396804e-08,-6.62122361235735e-05,0.00983975867620885,5.45332318259646e-17,-0.000403632027403337,-1.96456439131972e-05,-0.00213482768228077,0.0001096618382293,-0.00136546693166234,0.000157417057611691,0.000397373891182056,-0.000110974760281786,1.85492536605498e-17,-1.67473965043866e-15,2.18789156720562e-05,1.65902129816635e-16,-0.000188480706255086,0.00112645267483266,-1.18079042894409e-16,1.44875299897566e-16,-2.76613839452305e-16,2.31055620620542e-18,6.24048145168133e-16,-6.89179274920327e-05,-7.96318259415397e-05,-3.00091027268709e-17,4.3987500181941e-05,-4.74499647128467e-16,-4.56012054926891e-16,6.16221749504684e-17,-1.1224528621853e-05,-7.62049638442233e-17,-1.2160743037363e-05,-1.87095284418864e-16,-3.91915443488488e-16,3.76383515888365e-16,1.63728931176907e-16,-6.89305567619939e-17,5.5850145862659e-07,-9.25540496771085e-18,-4.54714840079238e-16,-1.54690608013311e-16,-4.39382947054852e-16,-8.02900949243494e-06,3.56790223588873e-15,-1.05900903985526e-15,9.28027697647859e-15,-6.90620428916676e-17,1.9494537933832e-15,-7.11647046635344e-16,0.100000000000002
"t38",-0.256389026479766,-0.0443921398397179,-0.0233995161326529,-0.000135329893243149,0.0105702502576811,0.00690972986833692,-0.000178374482471039,-0.00494062108282941,0.00732812780037931,0.000427700714751573,-0.000133403878954347,-0.00150578387614871,8.58128367985157e-05,-0.000182119407991173,8.50171382611248e-05,-1.52858742606463e-05,0.0154160437964486,0.221896851580102,-0.0054411860524977,-0.00456055702709999,-0.0227533778050152,0.0104092464423098,-0.316670811618995,0.00416294424774247,-6.70024460339876e-06,0.000202108292228378,-3.56667505552713e-06,2.32034487404312e-06,-0.0214817782826896,-6.02821032154192e-05,-3.40798882526389e-06,6.52058548582054e-06,7.40604876486851e-05,3.18650039478379e-06,0.000108126385798799,-0.000925795947582586,0.105670682286305,0.000273006487051094,-7.43143915009385e-05,-2.89612825205955e-07,1.42344622445677e-08,6.79967908257602e-16,4.77376878407841e-18,-3.76088604050123e-06,2.92712335299145e-16,1.51713052211741e-07,5.8483544850449e-06,-5.07572018958018e-07,-2.65172445090717e-06,1.04111068868675e-09,5.58807387937002e-06,-0.0112162336990045,2.58890995241918e-15,2.60227474663762e-05,6.77143629239023e-06,0.509213235797641,2.63332770439454e-05,-0.000227468480396632,2.56481634262876e-05,5.98501519358207e-05,-1.67039665429065e-05,-1.77723256765358e-13,0.707106781186571,3.35180922139399e-06,-3.28814343144675e-14,-2.99823671831999e-05,0.00187094015971307,-9.24167343029654e-15,-3.10479922646966e-15,3.03690239845118e-14,3.63508798917186e-15,3.74228980920081e-14,-1.11866089040691e-05,-1.32308948770951e-05,-1.36098075678434e-15,7.35963330109374e-06,-7.72773393054265e-15,-9.77556933278153e-15,9.65651690430661e-17,-1.92994448273179e-06,-2.00903150186325e-15,-2.12244103444142e-06,-6.40190829803948e-16,-1.72363509334815e-15,1.28884193252802e-15,-1.46665528488496e-15,-5.00853057619704e-16,1.00574626511432e-07,1.96557278978097e-15,-1.05421863857691e-15,1.88293270161985e-15,-9.93215238147809e-16,-1.51353826482167e-06,4.50794612887461e-15,-3.23404267126635e-16,6.10401743986623e-15,-3.32975402614915e-16,1.48664352514801e-15,-1.83667323600125e-15,0.100000000000003
"t39",-0.256389026479766,-0.0443921398397174,-0.0233995161326528,-0.0001353298932439,0.0105702502576809,0.00690972986833684,-0.000178374482470848,-0.00494062108282931,0.00732812780037913,0.000427700714751087,-0.000133403878954717,-0.00150578387614896,8.58128367983289e-05,-0.000182119407991111,8.50171382613906e-05,-1.52858742606926e-05,0.0154160437964493,0.221896851580104,-0.00544118605249772,-0.00456055702710106,-0.0227533778050149,0.0104092464423095,-0.316670811619002,0.00416294424774205,-6.70024460442231e-06,0.000202108292229521,-3.56667505628009e-06,2.32034487414988e-06,-0.0214817782826903,-6.02821032151746e-05,-3.40798882610603e-06,6.52058548807871e-06,7.40604876516417e-05,3.18650039567572e-06,0.000108126385797296,-0.000925795947580919,0.105670682286318,0.00027300648705236,-7.43143915001338e-05,-2.89612829516145e-07,1.42344587796062e-08,4.33013976734242e-16,6.21990493935025e-16,-3.76088603784739e-06,-2.58983586489611e-15,1.51713049985391e-07,5.84835447826072e-06,-5.07572010893273e-07,-2.65172444249174e-06,1.0411072461745e-09,5.58807387800734e-06,-0.0112162336989864,7.33519225835384e-15,2.60227474775678e-05,6.77143629271318e-06,0.5092132357977,2.63332770446698e-05,-0.000227468480397393,2.56481634317992e-05,5.98501519513143e-05,-1.6703966509615e-05,1.74920524521492e-13,-0.707106781186523,3.35180923251207e-06,3.12766088922311e-14,-2.99823671620907e-05,0.00187094015982468,1.11692909345721e-14,3.86120457793619e-15,-3.01778640883867e-14,-3.36580968246344e-15,-3.00931436992604e-14,-1.1186608904623e-05,-1.32308948646382e-05,-9.14336114593154e-17,7.35963330328699e-06,1.43142647689498e-15,-4.86989845862544e-15,-6.22041180561366e-17,-1.92994448084921e-06,4.85962252986111e-16,-2.12244103691269e-06,7.41942985675178e-17,6.2697931441871e-16,1.74160967846292e-16,1.61595552031902e-15,-1.00180013361439e-16,1.00574631427122e-07,-1.99136044893019e-15,-3.31997547194486e-16,-1.1904069519509e-15,-8.82583948560083e-16,-1.51353826712401e-06,2.56990969868114e-15,-1.27020268103975e-15,4.95768691413382e-15,2.66761223530458e-16,3.06106556871209e-15,2.10187874620081e-16,0.100000000000002
"t52",-0.256899860884933,-0.0445023677773896,-0.0235027860953252,-0.000135986990224682,0.0106272937457191,0.00696300139299767,-0.00018027570776766,-0.00500511898917581,0.00744089554664936,0.000434460488580546,-0.000135646449907948,-0.00153117156023517,8.72869465213754e-05,-0.000185781474962268,8.72187096548585e-05,-1.56846264530763e-05,0.0159293249284431,0.22956435827703,-0.00563320832619505,-0.00472972300994377,-0.023675595553385,0.0108439402706989,-0.330722244619164,0.00435678950075486,-7.10541100299077e-06,0.000218255304756643,-3.86212333900898e-06,2.51325778048597e-06,-0.0232774765334123,-6.53736953688597e-05,-3.72475196723283e-06,7.34824024502844e-06,8.50470901577615e-05,3.72079162832041e-06,0.000126712979694863,-0.00111596214098195,0.129928313248888,0.000339074983938359,-9.58055717183678e-05,-3.74205400177851e-07,1.88185934117687e-08,-9.16125442822524e-16,-1.66233921639417e-16,-5.24580910798951e-06,2.27093276752013e-15,2.20022201760652e-07,1.52478146812452e-05,-1.91757912461211e-06,-1.03287628461974e-05,8.13144399119034e-09,-2.68174451255212e-05,0.0382031358551897,-6.10902034741111e-15,-5.59147470182771e-05,-9.16449856165776e-06,-0.489139285501872,-5.73053059552211e-06,-5.35213500537051e-05,7.16080710207358e-06,3.19418901446144e-05,-1.02539387519291e-05,-5.35966122945614e-15,-5.00710584105946e-14,2.30607085792019e-06,-2.81266409805599e-15,-2.14100437465268e-05,0.00133930704408948,1.27012190435179e-15,-5.95616103880133e-15,1.10556300088813e-14,-5.39070563416867e-14,0.707106781186544,-8.74891772592819e-06,-1.06237932191105e-05,1.01566919165082e-15,5.94980747015958e-06,6.61282753773612e-15,1.91686955126077e-14,-7.51923882114815e-16,-1.59688281080541e-06,1.92227966273051e-15,-1.775328070861e-06,3.99220765823352e-15,1.19821397331191e-15,1.62518205394229e-15,2.11928467671676e-15,-1.47614979919819e-16,8.57831500850048e-08,-8.13306187780822e-16,-4.20775297937363e-16,-2.50904509539209e-15,2.30712111548573e-15,-1.32071425286922e-06,8.52323158798071e-15,-1.71836405280798e-15,1.61808686149538e-14,6.3991362501308e-16,2.2297163425649e-15,-8.12642498896914e-17,0.0999999999999879
"t53",-0.256899860884933,-0.0445023677773894,-0.0235027860953255,-0.000135986990224083,0.0106272937457189,0.00696300139299754,-0.000180275707767291,-0.00500511898917536,0.00744089554665014,0.000434460488580379,-0.000135646449908211,-0.00153117156023538,8.72869465211083e-05,-0.000185781474962459,8.72187096554892e-05,-1.56846264532258e-05,0.0159293249284439,0.22956435827703,-0.00563320832619523,-0.00472972300994461,-0.0236755955533853,0.0108439402706974,-0.330722244619159,0.00435678950075395,-7.10541100338756e-06,0.000218255304756069,-3.8621233388393e-06,2.51325778137257e-06,-0.0232774765334159,-6.53736953676958e-05,-3.72475196679548e-06,7.34824024512957e-06,8.50470901603777e-05,3.72079162920627e-06,0.000126712979694376,-0.00111596214097777,0.129928313248879,0.000339074983937182,-9.58055717193007e-05,-3.74205402760792e-07,1.88185946359803e-08,-3.86929579440321e-16,-7.99894137400415e-17,-5.24580910691672e-06,-8.18692318393851e-17,2.20022201547021e-07,1.52478146837535e-05,-1.91757913230329e-06,-1.03287628454851e-05,8.13144525910455e-09,-2.68174451234788e-05,0.0382031358552024,-4.44984831091158e-15,-5.59147470228165e-05,-9.16449855815996e-06,-0.48913928550186,-5.73053059058254e-06,-5.35213500573023e-05,7.16080710726068e-06,3.19418901466691e-05,-1.02539387683396e-05,8.74038749666348e-15,1.73472347597681e-14,2.30607084366577e-06,4.29537791795426e-15,-2.14100437494011e-05,0.00133930704409625,-3.37423883431448e-15,5.83804317078773e-15,-1.10072497456413e-14,5.37817287776365e-14,-0.707106781186551,-8.74891775395553e-06,-1.06237932237003e-05,-1.81904523509708e-16,5.94980746280474e-06,-2.45629597803831e-15,-6.79704039452691e-15,7.68858144107588e-17,-1.59688281298295e-06,-8.88216595648753e-16,-1.77532806766108e-06,-3.16933594383834e-15,-1.17120644701225e-15,-2.03221842801314e-15,-1.47157420642283e-15,4.11054004642001e-16,8.57831481186062e-08,9.97137454413689e-16,4.03688126115391e-16,1.71782746402222e-15,-2.15250585592877e-15,-1.32071424983686e-06,-1.92668704552301e-15,-1.17639395199689e-15,9.35017174681248e-15,-9.57355241525031e-16,6.56490433677231e-16,-1.27932053114506e-15,0.100000000000007
"t61",-0.267871113474036,-0.0469189074481866,-0.0259678713386895,-0.000151997361182071,0.012053340975551,0.00846109715277551,-0.000243831423993279,-0.00755025268617176,0.0128366368229108,0.000770640254659277,-0.000258878618122795,-0.0029335312212885,0.000171522466146823,-0.000492269778488579,0.00222796998330087,-0.000611212021021975,-0.0240056857431911,-0.27465115328945,0.00594696402903706,0.00375122267648512,0.0113217367402298,-0.00433508092831742,0.0888394820131875,-0.000804461937728268,-7.00507362146871e-07,5.51435710509708e-05,-1.03229889263322e-06,6.75366032602476e-07,-0.00630417581550006,-1.79649291673349e-05,-1.14984097274031e-06,2.90596593371312e-06,3.67523619855699e-05,1.71411332119611e-06,5.91285797402856e-05,-0.000572947888915334,0.0714899059125327,0.000193870080097687,-6.62831757268014e-05,-2.63041280557955e-07,1.66576235487529e-08,-3.69824083321871e-16,-3.39956783183105e-16,2.68273605129755e-06,-6.75412678891183e-16,4.05027270806532e-08,9.74077296649327e-06,-1.43577152883395e-06,-7.81858617809996e-06,7.44285833581839e-09,-5.87135928841406e-05,0.147302549355469,-3.2044191247343e-16,0.000224284886558258,4.72574341661288e-06,0.00609540309339693,-6.38642628230029e-06,2.5386821908468e-05,-2.39533843614511e-06,1.71397399533686e-07,2.01291446917543e-07,1.34805725465839e-15,-4.40758540776187e-14,-1.28500894619484e-06,-1.60498563733904e-14,0.000264774043655912,-0.551298871211578,4.38369019861193e-14,-1.80545763237334e-14,-3.012547543058e-14,2.2315645637126e-14,1.26541065052608e-14,-6.0115552052215e-06,-6.59908611505449e-06,-1.85056930765948e-15,3.63038086484802e-06,-7.21672665237427e-14,-0.707106781186532,-5.26437253671479e-15,-9.33393998815325e-07,6.51149109102416e-16,-1.0249472887901e-06,2.81824725894149e-15,-4.77411641364111e-15,1.51752317734697e-14,6.38992247142499e-15,-9.42962028750706e-17,4.89173208171036e-08,-6.25189384273834e-15,-6.85168552506684e-16,-1.76766758573951e-15,-2.09836406449559e-16,-7.52630348830656e-07,8.30335634696488e-15,-2.39734091260776e-15,1.51963904492074e-14,4.28822849477093e-16,6.96351319604573e-16,1.2079992884283e-15,0.0999999999999937
"t62",-0.267871113474036,-0.0469189074481867,-0.0259678713386895,-0.000151997361181657,0.0120533409755516,0.00846109715277586,-0.000243831423993297,-0.00755025268617125,0.0128366368229109,0.000770640254659492,-0.000258878618122704,-0.00293353122128807,0.000171522466147065,-0.000492269778487938,0.00222796998330092,-0.000611212021022052,-0.0240056857431916,-0.27465115328945,0.00594696402903699,0.00375122267648517,0.0113217367402297,-0.00433508092831732,0.0888394820131864,-0.000804461937728634,-7.00507362015416e-07,5.5143571050458e-05,-1.03229889190083e-06,6.75366033025596e-07,-0.00630417581549906,-1.79649291675656e-05,-1.14984097274333e-06,2.90596593356249e-06,3.67523619835463e-05,1.71411331986673e-06,5.91285797401325e-05,-0.000572947888913959,0.0714899059125304,0.000193870080097001,-6.62831757272398e-05,-2.63041281037061e-07,1.66576229266937e-08,-7.98073409762346e-18,-3.90218522132528e-16,2.6827360503596e-06,-5.30873366950328e-16,4.05027263543737e-08,9.74077296651571e-06,-1.43577153098395e-06,-7.81858617856196e-06,7.44286122731879e-09,-5.87135928845054e-05,0.14730254935547,-2.47519646091416e-15,0.000224284886556873,4.72574341756514e-06,0.00609540309341638,-6.38642628269866e-06,2.53868219043979e-05,-2.39533843175408e-06,1.71397404037218e-07,2.01291458083064e-07,1.03265132718672e-16,-3.91076060424211e-14,-1.28500894726524e-06,-1.66382237829283e-14,0.00026477404365576,-0.551298871211536,4.32834091855289e-14,-1.74570991804288e-14,-3.37197444673198e-14,1.40892189929741e-14,-1.30336787270038e-14,-6.011555205622e-06,-6.59908609008271e-06,2.97001798749375e-15,3.63038089613366e-06,6.77476824573094e-14,0.707106781186563,6.19289097368675e-15,-9.33393764219387e-07,-2.38836313193623e-16,-1.02494726998253e-06,-8.01062261018517e-16,4.45923806698765e-15,-1.83555800527936e-14,-7.00793241545618e-15,7.4654993499152e-16,4.891730737733e-08,5.48078668235174e-15,-2.89200452989678e-16,4.29192984982777e-16,-3.47739046218229e-17,-7.52630345497459e-07,4.53675149627483e-15,3.2587888375676e-16,6.55989006685793e-15,-7.99464307240436e-17,2.22647403916038e-17,-4.707175447412e-16,0.0999999999999997
"t93",-0.269227386656071,-0.0472146627977519,-0.0262576524583624,-0.000153861775650732,0.0122174811752417,0.0086249238327937,-0.00025031924084432,-0.00779511379630487,0.0133250511177028,0.000800730407258642,-0.000269608015546104,-0.00305546082025731,0.000178781500385117,-0.000516513756569435,0.00236766257909608,-0.00064980238782862,-0.0259130476667936,-0.297243322131667,0.00644585592259968,0.00408083663337218,0.0124015852901915,-0.00476009172388644,0.0980480095451587,-0.000891602702837697,-7.96514896486362e-07,6.47825595138432e-05,-1.21841195381126e-06,7.97508619290126e-07,-0.00744958975722697,-2.12579277053577e-05,-1.37834850476004e-06,3.65048120055899e-06,4.73823305376698e-05,2.25777059920354e-06,7.82300192722691e-05,-0.000783314561861639,0.0998268129548248,0.000273485952183483,-9.68167498651386e-05,-3.84966711681464e-07,2.48528693323851e-08,9.75764252805034e-16,5.91448572034505e-16,4.16633742240464e-06,2.26361251242901e-16,6.4524365561792e-08,1.8934066662963e-05,-2.93638443341575e-06,-1.60393240069898e-05,1.59659170219819e-08,-0.000137192920203125,0.349982030761769,-5.68768296955771e-15,0.000548743857615981,1.20050850607206e-05,0.015993189670242,-1.93178150574366e-05,0.000109102151073245,-1.12004767755676e-05,-6.76847640226258e-06,-8.09341444595531e-07,-7.86323668415301e-17,3.83026943495679e-14,1.63305240493446e-06,1.31165811707163e-14,-0.000212347858114101,0.427177197404261,-3.3390180174869e-14,1.38553646829636e-14,2.43789049897969e-14,-1.25440710350619e-14,2.85006614453789e-15,1.06064323173217e-07,-9.73703331955352e-07,-2.40654981710905e-16,6.78928335917703e-07,-8.39840104149519e-16,-8.72256370639856e-15,-1.9520173110072e-15,-2.91929426021736e-07,-6.76102258678674e-16,-3.76452450741415e-07,2.2511696726121e-16,-6.8403020785088e-16,8.84826280512476e-16,2.65585839595632e-15,4.48431979638925e-16,2.24601172880749e-08,-3.84561267355712e-16,-5.000237201742e-15,-1.28149484654805e-15,-8.77627157243751e-16,-4.19657823762385e-07,1.28123620183432e-14,-1.27013969068968e-14,0.707106781186555,9.46348455681253e-14,-1.02062161756777e-14,-1.63275450961362e-14,0.09999999999994
"t94",-0.269227386656071,-0.047214662797752,-0.0262576524583625,-0.000153861775650715,0.012217481175241,0.0086249238327939,-0.000250319240844321,-0.00779511379630405,0.0133250511177026,0.000800730407258737,-0.000269608015546419,-0.00305546082025739,0.00017878150038496,-0.000516513756569426,0.00236766257909577,-0.000649802387828318,-0.0259130476667938,-0.297243322131667,0.00644585592259988,0.00408083663337263,0.0124015852901911,-0.00476009172388614,0.0980480095451577,-0.000891602702837024,-7.96514896063051e-07,6.47825595135123e-05,-1.21841195452285e-06,7.97508619571694e-07,-0.00744958975722662,-2.12579277056003e-05,-1.3783485053879e-06,3.65048120016701e-06,4.73823305379019e-05,2.25777059887935e-06,7.82300192710714e-05,-0.000783314561860093,0.0998268129548256,0.000273485952183798,-9.68167498642018e-05,-3.84966711787694e-07,2.4852869647291e-08,1.09435910476813e-15,6.63692284926141e-16,4.16633742266547e-06,2.794642584185e-16,6.45243657291983e-08,1.89340666620675e-05,-2.93638443456405e-06,-1.60393240074714e-05,1.59659181311454e-08,-0.000137192920202505,0.349982030761767,-5.69995108845928e-15,0.000548743857616042,1.20050850600089e-05,0.0159931896702319,-1.93178150568581e-05,0.000109102151074743,-1.12004767755573e-05,-6.76847640121998e-06,-8.09341444747401e-07,-1.64180073240716e-15,3.93296506473462e-14,1.6330524048504e-06,1.35913026028284e-14,-0.000212347858118274,0.427177197404256,-3.48926200292456e-14,1.41461221131303e-14,2.5086891980617e-14,-1.64432107120798e-14,9.79589894234903e-15,1.06064330645634e-07,-9.73703331852251e-07,-1.72732031186521e-15,6.78928334915911e-07,-5.96920905134042e-16,-1.73406699350513e-14,2.38916059827663e-15,-2.91929423930303e-07,5.03471705722601e-17,-3.76452444914099e-07,-2.17759804298636e-15,-4.28932882566861e-16,2.34505544213825e-15,-1.24694259302718e-15,-1.40885785177049e-15,2.24601174798424e-08,9.07995375840262e-16,1.4476603454052e-15,1.90581678532913e-15,-7.47378256659745e-16,-4.1965780388856e-07,-1.17133938351416e-14,1.15815168519451e-14,-0.707106781186541,-9.55897745317923e-14,1.65213545239849e-14,1.46949015975165e-14,0.10000000000007
"t47",-0.26481335970394,-0.0462516739335527,-0.0253124096173737,-0.000147777704478906,0.0116815801395655,0.00808890782323037,-0.000229035328143931,-0.00699010477978448,0.0117160319649695,0.000701566137655186,-0.000234217576122148,-0.00265326412762827,0.000154830267893951,-0.000436319128614956,0.00190333836072603,-0.000521511699356534,-0.0195351216162023,-0.221623395765246,0.0047750116422401,0.00297536864672174,0.00877036440339113,-0.00332956578409849,0.0669924089982079,-0.000597242621764746,-4.68968276950798e-07,3.14749437948256e-05,-5.74116915510938e-07,3.74590185390571e-07,-0.00348249077984488,-9.84663807067522e-06,-5.8244425955322e-07,1.00861727721802e-06,9.26831537419827e-06,2.91568885275422e-07,9.02285981944256e-06,-1.09177870522694e-05,-0.00511812714400353,-2.26003000142683e-05,1.83724717892043e-05,7.53745585631733e-08,-6.33629449089836e-09,6.61293664655082e-18,-5.73290691407481e-16,-1.57469758301014e-06,3.80074499607334e-16,-2.94250050161962e-08,-2.01804506974497e-05,3.5886250816333e-06,1.97532732465175e-05,-2.18605340114939e-08,0.000224136684378116,-0.589888724346126,8.10662772794418e-15,-0.000974902991121979,-2.2733941255196e-05,-0.031900094669249,4.71586483523519e-05,-0.000388083148160237,4.28512134923857e-05,8.38694939890558e-05,-2.18230559010006e-05,2.98294427568906e-15,-3.04756220259605e-14,4.3136852574342e-06,-5.74960821599635e-15,-9.00378068077571e-05,0.116455108441967,-4.79074123073052e-15,3.68856286090895e-15,0.707106781186555,-1.10374697584133e-14,-1.46278133670694e-14,-1.08488819196032e-05,-1.25713561377541e-05,3.03928484551498e-15,6.9482532713751e-06,6.62717739136096e-15,-7.81714984139912e-16,-1.24503240877324e-15,-1.77872628176025e-06,-4.98430751296088e-16,-1.93239474910413e-06,1.99804124356998e-16,1.15655688283732e-15,1.38150584922233e-15,-5.54860787979633e-16,4.884441066899e-17,8.94854725584118e-08,3.70315261856393e-17,2.11802008147299e-15,3.91860897049866e-16,-1.42991252620424e-15,-1.30957816514809e-06,3.83552930430077e-15,-6.69107762407639e-16,9.85170153548658e-15,1.65748209716655e-16,2.32392694933759e-15,-3.53486971995043e-15,0.0999999999999983
"t48",-0.26481335970394,-0.0462516739335528,-0.0253124096173737,-0.000147777704478921,0.0116815801395655,0.00808890782323014,-0.000229035328143745,-0.00699010477978458,0.0117160319649694,0.000701566137655106,-0.000234217576122239,-0.00265326412762808,0.000154830267894064,-0.000436319128615084,0.00190333836072567,-0.000521511699356535,-0.0195351216162022,-0.221623395765247,0.00477501164223982,0.00297536864672169,0.00877036440339107,-0.0033295657840986,0.0669924089982084,-0.000597242621764557,-4.68968277106996e-07,3.14749437948322e-05,-5.74116916363326e-07,3.74590184806879e-07,-0.00348249077984604,-9.8466380711411e-06,-5.82444260488032e-07,1.00861727746317e-06,9.26831537518324e-06,2.91568883790818e-07,9.02285981895052e-06,-1.09177870520135e-05,-0.00511812714400054,-2.26003000151423e-05,1.83724717886466e-05,7.53745582273056e-08,-6.3362943591944e-09,-1.49671049563672e-15,3.89613886495954e-17,-1.57469758355612e-06,8.19929651198255e-16,-2.94250060844337e-08,-2.01804506976112e-05,3.58862507700736e-06,1.97532732449498e-05,-2.18605342207391e-08,0.000224136684378824,-0.589888724346127,7.94695848406315e-15,-0.000974902991122595,-2.27339412545142e-05,-0.0319000946692489,4.71586483555589e-05,-0.00038808314815857,4.28512134915723e-05,8.38694939818375e-05,-2.18230558891245e-05,-2.1846191001487e-15,2.99482660892636e-14,4.31368526395218e-06,1.19956259222584e-14,-9.00378068451253e-05,0.116455108442049,-1.26901443248492e-14,3.92832018291829e-15,-0.70710678118654,3.99352120281592e-15,7.47950261077894e-15,-1.08488819520124e-05,-1.25713561365046e-05,-2.84139749249964e-15,6.94825328350232e-06,-2.30758904886994e-15,-4.91729575086862e-15,2.90965636526627e-16,-1.77872628180489e-06,-2.12026619354191e-16,-1.93239475189402e-06,-8.18912351091124e-16,-1.53085910436775e-15,3.13561406832985e-16,5.58400950799846e-16,2.59600830041986e-16,8.94854732443465e-08,-6.47791105426363e-16,1.87324699496613e-16,7.24907966303631e-16,2.81820573275794e-16,-1.30957816446954e-06,3.61265285621467e-15,-2.26384935571454e-15,9.42149011344451e-15,2.99301973612399e-16,1.64739771229101e-15,-7.19883654158624e-17,0.0999999999999975
"t17",-0.249561270669323,-0.0429188833989852,-0.0220204164091193,-0.000126558164120407,0.00980920429778563,0.0062019134308039,-0.000153378554066525,-0.00410590138865131,0.00590654358249195,0.000343031276531466,-0.000105833638595762,-0.00119399657844306,6.78375192373195e-05,-0.000142190943312543,0.000166984995467923,-4.14568583191608e-05,0.00492078108372205,0.0695866646044897,-0.00167556940592971,-0.00131891575340274,-0.0055032601008843,0.00231748538815233,-0.056715642724991,0.000584304140873417,9.11986238158885e-07,-0.000119263639617141,2.37394392744274e-06,-1.56273606869192e-06,0.0147210115099618,4.26869124384763e-05,3.2014332235575e-06,-1.33731776149301e-05,-0.000218139327491079,-1.25163043932021e-05,-0.000450857263469686,0.00606487346096069,-0.950866491015485,-0.00290153325047976,0.00159041732189337,6.5120341239349e-06,-5.86604878096542e-07,1.72381030582807e-16,-4.58968562901134e-16,-0.000433443502981153,-6.49552328279525e-16,6.16186027554798e-06,8.90535070255928e-05,-9.31843011825405e-06,-4.96473765547111e-05,3.32275659956233e-08,-7.81964691623672e-05,0.111198858469996,-4.0279455563966e-17,-5.6096943413249e-05,-7.25558159210127e-06,-0.0161522777464843,5.02413160288049e-05,-0.000642006525691391,7.3991333390553e-05,0.000183715906690729,-5.06678355019569e-05,-5.99383888423402e-16,-7.21644966006352e-15,9.83982309278061e-06,4.89499908098073e-16,-8.69160916273483e-05,0.00647229020544175,-9.86813649944421e-16,-5.73733639718476e-17,-1.78646839346477e-15,-4.17967455777521e-16,8.14037754745116e-15,-2.99989663079364e-05,-3.44018298607204e-05,-8.83604958533152e-16,1.89641729724285e-05,-9.73307341482159e-16,-2.20377615015687e-15,3.14868156683518e-16,-4.80450273431036e-06,-1.47408532591536e-16,-5.18748991752398e-06,-2.10818909406741e-16,-1.09059780341946e-16,2.65920781515005e-16,4.29706478926979e-16,2.21607313371608e-16,2.36811679846585e-07,2.29300262696467e-16,-9.51643775704191e-16,4.15888318677969e-16,-6.91342014251471e-16,-3.38292289833337e-06,2.54823644692235e-15,-1.23258518245214e-15,8.72993516829705e-15,5.03342181137637e-17,2.3728209585651e-15,-7.89767584675432e-16,0.100000000000003
"t1",-0.197575274558218,-0.0315637415496112,-0.0108296499731692,-5.44745168976901e-05,0.0034546505453803,-0.000168131348750614,9.93344846716858e-05,0.0054072452588592,-0.0129347579065895,-0.00081560536838476,0.00030513394593355,0.00347489793607309,-0.000209581465533729,0.000761330326068877,-0.00449782106325844,0.00123981341994225,0.0441240036417197,0.446686884811227,-0.00869882849948699,-0.00339206640226652,0.0125289638491816,-0.0100057429737537,0.569474795942801,-0.0103768311812055,5.33520170731297e-05,-0.00832430192934831,-0.0085583856478594,0.000283584732739284,-0.648283015525059,0.000474188729267383,0.00125438279634738,0.000122030579445888,0.000904223573306468,2.83423143067631e-05,0.000896250423573256,-0.0036167308827052,0.0536945435107676,-0.000422943244787228,0.00104278921078723,4.41625302662747e-06,-5.12425827651221e-07,-2.72244080306891e-16,2.45180028529144e-16,-0.000507117178390336,2.49352440837627e-16,8.04589145539832e-06,0.00015516936125,-1.62605705403449e-05,-8.65607070858667e-05,5.61535586361261e-08,-7.37897240948018e-05,0.0074852573815132,-4.24276084095511e-16,-0.0004642500748165,-2.24269003435926e-05,-0.00163253482949982,0.000124723122158958,-0.00155031784847922,0.000178692506112261,0.000450428963699079,-0.000125707384381217,-2.74004502764443e-16,-1.60982338570648e-15,2.47625691099089e-05,-1.78918727406705e-17,-0.000213074875099151,0.000900218327431378,-5.52784274244575e-16,2.22276583473301e-16,6.64154378890793e-16,-2.50618711150303e-16,4.43945316131089e-15,-7.78864911172438e-05,-8.99496539403026e-05,-2.15181331961248e-16,4.96797010095889e-05,-7.51232123524904e-17,7.30724897331551e-16,1.57891158663903e-16,-1.26699393124321e-05,-1.32433903301017e-16,-1.37225438341586e-05,-4.10429946226747e-16,-2.96392768890034e-16,1.69043548255999e-16,2.22242142151548e-16,5.36809683672591e-17,6.29830096260923e-07,-2.4298332873061e-16,-7.73885566115906e-16,5.10984359731164e-16,-7.28614840136292e-16,-9.04592807150432e-06,3.4098673657313e-15,-1.16298476346547e-15,9.09469792165222e-15,-1.49344741587158e-16,1.70453225677817e-15,-7.53887771369912e-16,0.099999999999997
"t58",0.0121496674259678,0.0411718699591373,0.315272091655012,0.0158638444258989,0.136796342364135,0.032287481880261,-0.000664629278479183,-0.0180140892920353,0.03168528053956,0.00212264783658433,-0.000473324385514614,-0.0065201205124608,-0.000167865487401317,-0.000877848315527705,0.00178907904487952,-0.000652802243036946,-0.00384936328230724,-0.00448448733535717,-0.000272034510948053,-0.00069968986046323,-0.00498123503045725,0.00182702602919377,-0.00405279316727011,-0.000608042544038611,2.57842644577459e-05,-0.024625055969966,-0.31045650701104,-0.00951200471860809,0.00176864763762594,-0.0102874939227952,-0.00136175876818917,-1.40499133506302e-05,2.46423689759975e-05,4.01368836033632e-06,0.000157507881287391,-0.0301759777587245,-0.00019036048773771,0.00014396228591502,-0.000120217675855493,-3.708906551422e-07,2.40319545559515e-08,5.97963939398663e-16,-1.90847855990515e-17,4.17984327732341e-07,-9.25141577459197e-17,1.40029284049223e-07,1.0747315286765e-05,-1.47256720776654e-06,-6.27516784541114e-06,5.16533444519856e-09,-6.50050302614961e-06,7.05395071844194e-06,-2.36572308090234e-15,-4.27082111851462e-05,-1.98438332165622e-06,-1.44910256155532e-06,7.25432328786711e-06,-3.62599083404298e-05,0.000287105197798224,-0.000136823782838076,0.518835851197257,5.58210614765517e-15,7.57727214306669e-15,1.57875523852328e-05,-1.36453071558767e-15,-0.000110679855663962,6.80521076110545e-06,3.30386280630216e-15,4.80051030459609e-15,8.86014484113978e-15,-5.14628351568257e-15,-4.13425624673541e-16,-3.1298303133943e-05,-4.34967227900359e-05,1.27852181555898e-14,1.91877796720634e-05,-0.707106781186549,7.78771398678538e-14,9.38393356152584e-15,-4.83155533938819e-06,-4.73595114271388e-16,-6.49228336310506e-06,-6.49279247649288e-15,-5.97820342375423e-15,-1.5421406889031e-15,-2.28684733732914e-15,-3.18640369181251e-15,2.99071327815832e-07,1.87021854133261e-15,-2.30159804887762e-16,9.4211822419086e-17,-1.08449682966884e-15,-4.37169292254387e-06,3.12866364322168e-15,-4.75088284782993e-16,9.18130518925399e-15,1.15781743450269e-15,3.12544459936363e-15,1.06527414738493e-15,0.100000000000004
"t59",0.0121496674259677,0.0411718699591373,0.315272091655012,0.0158638444258989,0.136796342364135,0.0322874818802609,-0.000664629278478989,-0.0180140892920353,0.03168528053956,0.00212264783658427,-0.000473324385514659,-0.00652012051246016,-0.000167865487401316,-0.000877848315527279,0.0017890790448797,-0.000652802243036878,-0.00384936328230724,-0.00448448733535721,-0.000272034510948099,-0.00069968986046341,-0.00498123503045769,0.00182702602919357,-0.00405279316727042,-0.000608042544038732,2.57842644580723e-05,-0.0246250559699655,-0.310456507011038,-0.00951200471860825,0.00176864763762629,-0.0102874939227951,-0.00136175876818896,-1.40499133508273e-05,2.46423689766299e-05,4.01368835990563e-06,0.000157507881287306,-0.0301759777587243,-0.00019036048773812,0.000143962285914845,-0.000120217675853949,-3.7089065650274e-07,2.40319546573228e-08,3.30276303949708e-16,-4.1138272451391e-16,4.17984326192217e-07,3.76686722827814e-17,1.40029283559736e-07,1.07473152870408e-05,-1.47256720788483e-06,-6.27516784688783e-06,5.16533483970676e-09,-6.5005030261124e-06,7.05395072384354e-06,-2.96191061003071e-16,-4.27082111843268e-05,-1.98438332119062e-06,-1.44910255392081e-06,7.25432328956323e-06,-3.62599083389153e-05,0.000287105197801674,-0.00013682378283879,0.518835851197259,3.89796984030334e-15,1.68545732925907e-14,1.57875523867026e-05,-2.24408765012776e-15,-0.000110679855662319,6.80521075831823e-06,1.53966585761262e-15,6.01121276934879e-15,1.51832991736284e-16,1.09927270581837e-15,-9.62133783515844e-15,-3.12983031303222e-05,-4.34967227996693e-05,-8.68030572108674e-15,1.91877796596517e-05,0.707106781186547,-8.64358677766694e-14,-1.03730342825042e-14,-4.83155531983577e-06,-1.2036299395774e-16,-6.49228334437525e-06,5.14158493747119e-15,4.75169006710594e-15,1.53968363146337e-15,1.45027416048023e-15,2.63797037200946e-15,2.99071324199325e-07,-1.0429483479414e-15,-2.70739653247466e-16,3.68616965445391e-16,-8.99889156802445e-16,-4.37169292478014e-06,3.69786697431683e-15,-1.35290161614163e-15,9.56988324787285e-15,-4.97458426298393e-16,7.9801587064565e-16,-1.89730415925383e-15,0.100000000000009
"t88",0.0122042843943668,0.0414023686099902,0.318400730309197,0.016036936497287,0.138454013782663,0.0328446217192978,-0.000680419521957935,-0.0185365311645238,0.0327649885875032,0.00219689447456544,-0.000490909282091541,-0.00676305515446656,-0.000174235226341912,-0.000916682969969784,0.00189020067013169,-0.000689961730881529,-0.00412631145232257,-0.00481876344531748,-0.000292723573778594,-0.000755486300288379,-0.00541328043587636,0.00199003081578804,-0.00443565909285304,-0.000668146571549811,2.90341988709885e-05,-0.0286246209101467,-0.3625430610935,-0.0111131129357684,0.00206780252279195,-0.0120437523168654,-0.00161487571870843,-1.74709660946297e-05,3.14795051622964e-05,5.24458693736632e-06,0.000206790486905315,-0.0410441630633249,-0.000265006460527467,0.000202694322999134,-0.000176050775619953,-5.44365373580929e-07,3.60644131686888e-08,-2.43438215562695e-16,2.25040937608231e-16,6.57619417478075e-07,2.00637815211209e-16,2.27194893023179e-07,2.26906627810556e-05,-3.35093163504176e-06,-1.43458786749505e-05,1.26539448749132e-08,-1.83487470805926e-05,2.05015389589469e-05,1.55602566717553e-15,-0.000130858294804302,-6.52468103256083e-06,-5.07701292318946e-06,3.49553512772692e-05,-0.000809409037609045,0.0248328433210282,0.000286826890860333,-0.479427019869158,-3.31840019890627e-15,-1.01550712283682e-14,-4.15241426290608e-06,1.3118675925691e-15,9.49714842720451e-06,-5.07940877407764e-07,-1.52024103295106e-15,-4.92314639626635e-15,-3.78563104269986e-15,3.3121609085943e-15,1.21556168862952e-14,-8.99591403360945e-06,-1.66158181474411e-05,-3.43101820484581e-15,7.78240496335007e-06,1.33974465395769e-15,1.51911888669963e-15,1.3110332027798e-15,-2.33614455297415e-06,1.14558295112899e-15,-3.36739812371145e-06,3.13082977930194e-15,6.81721019505815e-16,2.00724639184237e-15,1.27410390432398e-15,-1.73852985535699e-15,1.73428719294048e-07,-2.73938763907823e-15,1.54963025813886e-16,-7.52959840875741e-15,-3.03460990222488e-15,-2.83470717852953e-06,-0.707106781186544,-7.06359626744981e-15,2.16562360855813e-14,6.95501475504706e-15,-2.24917678362862e-16,6.26724291534368e-16,0.100000000000019
"t89",0.0122042843943668,0.0414023686099902,0.318400730309197,0.016036936497287,0.138454013782663,0.0328446217192978,-0.000680419521957795,-0.0185365311645239,0.0327649885875032,0.00219689447456558,-0.000490909282091377,-0.00676305515446675,-0.000174235226341855,-0.000916682969969799,0.0018902006701326,-0.000689961730881561,-0.00412631145232304,-0.0048187634453173,-0.000292723573778671,-0.000755486300288459,-0.00541328043587652,0.00199003081578793,-0.00443565909285324,-0.000668146571549557,2.90341988711001e-05,-0.0286246209101463,-0.362543061093499,-0.0111131129357684,0.00206780252279181,-0.0120437523168662,-0.00161487571870863,-1.74709660943314e-05,3.1479505162243e-05,5.2445869372643e-06,0.000206790486905567,-0.0410441630633258,-0.000265006460528494,0.000202694322999631,-0.000176050775619552,-5.44365373992202e-07,3.60644138477814e-08,3.16510054834216e-16,1.39425195355314e-16,6.57619417515522e-07,1.55125131399438e-16,2.2719489290494e-07,2.26906627808177e-05,-3.35093163496669e-06,-1.4345878674786e-05,1.26539452744694e-08,-1.83487470803791e-05,2.05015389612936e-05,2.26902341769926e-15,-0.000130858294805224,-6.52468103195001e-06,-5.07701292338028e-06,3.49553512792439e-05,-0.000809409037609107,0.0248328433210268,0.000286826890860674,-0.479427019869158,-5.59276368219248e-15,-1.19557141964322e-14,-4.15241426346499e-06,2.68263545161778e-15,9.4971484283795e-06,-5.079408691084e-07,-3.1679429461705e-15,-4.5152852741408e-15,-4.03543122324067e-15,-5.23435220474617e-16,1.65707040968359e-15,-8.9959140329367e-06,-1.66158181451749e-05,-9.9362241155362e-16,7.7824049624084e-06,6.25905943591881e-16,5.3216327460408e-15,-4.61213307641701e-16,-2.33614455005344e-06,-1.07236261149784e-15,-3.36739812811542e-06,-2.08641896369305e-15,-4.38080175300924e-16,-9.16350770578087e-16,9.68291636450935e-18,2.41935353485888e-15,1.73428723927084e-07,1.3419831866367e-15,-1.2463457930521e-15,7.59545421875515e-15,3.06941026604357e-15,-2.83470714717657e-06,0.707106781186551,4.51310684485676e-15,-2.87969275863471e-15,-7.49977893943508e-15,3.47778909104505e-15,-2.36319029283195e-15,0.0999999999999705
"t49",0.0119145198943906,0.040173668545877,0.301407229673512,0.0150926973711005,0.129363133836017,0.02971866618617,-0.000589174784342856,-0.0154433983981771,0.0262176958531775,0.00174472494609779,-0.000382692903303503,-0.00526727686443698,-0.000134885871597244,-0.000669281596063533,0.00120455651567474,-0.000437478587574634,-0.00208603112250708,-0.00232013040147095,-0.00013675054930622,-0.00032586703830193,-0.00194738436254186,0.000662749640743284,-0.00121630635578444,-0.00014867973818151,-4.81362805804699e-06,0.0280582589434589,0.416075260044812,0.0129563184727809,-0.00246740757274149,0.0150209461567749,0.0030151580748495,0.000179941404841823,0.00194168447853826,6.40395607350046e-05,0.00221402632460635,-0.253184408047297,-0.0013553940424802,0.000967876244463185,-0.000707315052206078,-2.17036278777972e-06,1.34448994008429e-07,-1.89415895910517e-16,1.91236421627435e-16,2.20807029420231e-06,5.55738737290249e-16,7.25832008993725e-07,6.01091270500749e-05,-8.72204788000927e-06,-3.73104617932429e-05,3.26251311086576e-08,-4.72221563720739e-05,5.28597114977839e-05,-1.79492373508971e-16,-0.000339079531784374,-1.70716604479865e-05,-1.34369907828884e-05,0.000101232584493837,-0.00549331359289443,0.374222675900991,4.42840363077128e-05,-0.00867873323065706,-3.24603777028566e-15,-2.86749790578966e-15,7.69559451990102e-06,9.38140089646743e-15,-7.23368087121781e-05,4.52097146463311e-06,-2.79606454861501e-15,-9.63595464832424e-15,7.23033683405562e-15,0.707106781186549,5.60251340343749e-14,-3.19486147993516e-05,-4.8302350789908e-05,-2.60869538126188e-16,2.17214843382628e-05,-5.05365305083317e-15,2.58233509551763e-15,1.1716130847799e-15,-5.79701258715718e-06,-1.04350574577737e-15,-7.97336422459256e-06,9.75317859431939e-16,6.53117064142592e-16,1.32187686098949e-15,8.18590791248193e-17,-9.66315690071698e-16,3.80641314134028e-07,-4.98457349926614e-16,-1.00955401723045e-15,6.20384658464875e-17,8.28823153183679e-16,-5.74043299958663e-06,5.46037739447021e-15,-1.33910402565555e-15,6.58040431434456e-15,2.78012345230282e-16,1.63724843711455e-15,-6.90229516616948e-16,0.0999999999999967
"t50",0.0119145198943906,0.0401736685458769,0.301407229673512,0.0150926973711005,0.129363133836017,0.02971866618617,-0.000589174784342912,-0.015443398398177,0.0262176958531775,0.00174472494609775,-0.000382692903303157,-0.00526727686443715,-0.000134885871597074,-0.00066928159606358,0.00120455651567518,-0.000437478587575171,-0.00208603112250657,-0.00232013040147095,-0.000136750549306531,-0.000325867038301585,-0.00194738436254228,0.000662749640743204,-0.00121630635578471,-0.000148679738181796,-4.81362805815017e-06,0.0280582589434593,0.416075260044812,0.0129563184727806,-0.00246740757274127,0.0150209461567745,0.0030151580748496,0.000179941404841527,0.0019416844785385,6.40395607352725e-05,0.00221402632460579,-0.253184408047297,-0.00135539404247998,0.000967876244462232,-0.000707315052206778,-2.17036278775236e-06,1.34448992613681e-07,8.32672060267579e-16,4.67131473690756e-17,2.20807029341352e-06,9.74905387142101e-17,7.25832009021185e-07,6.01091270502024e-05,-8.72204787975667e-06,-3.73104617935554e-05,3.26251282420253e-08,-4.72221563729825e-05,5.28597114968631e-05,7.56719541152681e-16,-0.000339079531782418,-1.70716604491323e-05,-1.34369907822326e-05,0.000101232584493971,-0.00549331359289783,0.374222675900994,4.42840363113796e-05,-0.0086787332306622,9.7535021308108e-16,3.9794556538908e-15,7.6955945154116e-06,-6.8129876318436e-15,-7.23368087149977e-05,4.52097141834983e-06,2.87862597981479e-15,1.06545370108805e-14,-8.54870790342942e-15,-0.707106781186546,-5.17289493994004e-14,-3.19486147944725e-05,-4.83023507823079e-05,-4.41566955934631e-16,2.17214843373474e-05,1.2850265303861e-15,-5.55004855986164e-15,-7.96270296631863e-16,-5.79701258720692e-06,1.20113349183588e-15,-7.97336422697084e-06,-1.08099651958549e-15,-3.8421503495021e-16,-8.50312790866504e-16,4.41633031070444e-16,6.43106502173552e-16,3.80641313933064e-07,2.66906206583642e-16,-3.4524479958626e-16,-2.80390374588237e-16,-1.85032846126583e-15,-5.74043300015075e-06,1.69949689854975e-15,-1.38190389822908e-15,1.06882295054576e-14,-1.09009067821527e-16,2.17825156666457e-15,-9.2098269248114e-16,0.0999999999999965
"t32",0.0118685663198525,0.0399807524518757,0.298844451350661,0.0149516336040502,0.128020730875733,0.0292800865732726,-0.000577222917348996,-0.0150614703253811,0.0254568331933721,0.0016927623258563,-0.000370593576426804,-0.0051002685026733,-0.000130531047272697,-0.000644129612897914,0.00114689583830066,-0.000416390379219167,-0.00195940893540294,-0.00217431411128898,-0.000127984885502537,-0.000303985156968149,-0.00180540041733983,0.000613074994628547,-0.00111990034536085,-0.00013636222142539,-4.30849662708722e-06,0.0242975231541264,0.358542993447566,0.0111591565038361,-0.00212355927454649,0.0129090024988727,0.00255526986293675,0.000144479242600671,0.00150913504167686,4.83786149468622e-05,0.00166241239589211,-0.181366661535572,-0.000939863373349895,0.000660279509319478,-0.000454669188644578,-1.39021545341721e-06,8.30959257140451e-08,1.10004115238648e-15,-1.97024013553671e-16,1.25778128373483e-06,-1.0881265116221e-16,3.9029174309642e-07,1.52692362699575e-05,-1.48744767091936e-06,-6.16925167796695e-06,2.85576992741997e-09,3.46462520780149e-06,-5.63968326725743e-06,-1.36877519504848e-15,5.65978988834372e-05,4.22169603423233e-06,4.29156466685843e-06,-6.8112178298404e-05,0.0103143837356301,-0.846628070256658,0.000577266282291748,-0.0364797025471864,1.23707355418893e-15,-4.37844205336546e-15,1.99330529446644e-05,-1.96324599518826e-15,-0.000165160373204407,1.02405660241209e-05,2.3899486784268e-16,-1.72851486768787e-15,-1.12222477801395e-16,-1.32737126172347e-15,-1.70878698874344e-15,-5.57750140735596e-05,-7.86635562232841e-05,-1.59348524988849e-16,3.47620439034907e-05,1.29766481996726e-15,2.61286358538397e-15,7.86762659739969e-17,-8.75286563254143e-06,-4.42034191575589e-16,-1.17240316396258e-05,-1.34841491780332e-16,-1.3554772451824e-15,4.07788583031495e-16,2.33477725344183e-16,2.0738526657557e-16,5.34231733769697e-07,3.61291236307456e-16,-2.90865081509103e-16,1.66133543817548e-16,-6.6977499259605e-16,-7.64219978710522e-06,2.44939760409908e-15,-6.17543385894916e-16,8.84577611258385e-15,-4.17795364803164e-16,1.73737368682478e-15,-1.10563029438628e-15,0.0999999999999993
"t16",0.0114580937705543,0.0382491667997934,0.275386874109728,0.0136545162972463,0.11560683958149,0.0251218276463092,-0.000460018981871248,-0.0112051805840522,0.017538569820886,0.00114894936772941,-0.000242207421264142,-0.00332691039788329,-8.40831010251729e-05,-0.000364011419208167,0.000437577936167384,-0.000156017510250592,-0.000114141995189123,2.86848262076572e-05,7.44749413186907e-06,5.48728780389959e-05,0.000867869447871567,-0.000379853570686832,0.00112776355901795,0.000204224059401288,-1.68922481198373e-05,0.0203560673440946,0.248415693808773,0.00757408105772174,-0.00139730182744345,0.00798861244456867,0.000705115406588349,-0.000134674269405203,-0.00269179794956038,-0.000130083448465891,-0.00483570215560117,0.912872054358015,0.00671615272476905,-0.00562113594715714,0.00762858200101019,2.4383881014733e-05,-2.4095568686149e-06,-3.04451701271417e-15,9.57036646210586e-17,-0.00236504915452363,-7.96459638707266e-16,2.69651296785107e-05,0.000370836874083478,-4.67725630480036e-05,-0.000198566839048274,1.56672092826215e-07,-0.0001913930351664,0.000207776165392152,4.81616948969423e-16,-0.00126420697892737,-5.95434349827193e-05,-4.42620687760333e-05,0.000255297810014106,-0.0034945059660129,0.0416071876348092,0.000791602698716374,-0.0208780104677487,7.35654810515381e-16,6.07153216591882e-16,4.01826180286871e-05,-5.26193897515086e-16,-0.000340807751048465,2.11613827239016e-05,-7.53322667222916e-16,5.24891132625381e-17,-2.69079346247612e-16,-1.74964379571206e-16,4.32756706220912e-15,-0.00011896907177733,-0.000167668438950606,-4.44595927407337e-16,7.40040136872323e-05,-8.78701884169686e-16,-1.42167779919301e-15,5.2362110564596e-17,-1.84880554223153e-05,-2.72268727335208e-16,-2.4618455754674e-05,-1.47937290079746e-16,-2.34119159853331e-16,3.72270144006056e-16,2.85397938390056e-16,-9.5113791170826e-17,1.10534772024807e-06,1.12316925902332e-16,-3.3181502281664e-16,4.91317193652647e-17,-4.19494113797039e-16,-1.54145417999483e-05,3.93930380770665e-15,-8.43238710331931e-16,9.94182211115201e-15,-3.83573345777975e-16,2.45144515763464e-15,-8.36711611647692e-16,0.100000000000003
"t7",0.022994574944249,0.140008286490465,-0.0699028457601013,0.16248613540181,0.013575973080351,0.0108769059055425,-0.000307214305294906,-0.0103888816997141,0.0313124644749735,0.00276444638056565,0.00130450929103412,0.0143861033927074,0.0002164709307653,-0.131309051620894,0.000414949152000231,-0.000814605492854839,-0.038071700437638,0.00265436600983687,8.48350074667843e-05,6.70875342219906e-05,-0.00138603946759355,-0.000842452659069517,1.16791045499456e-05,-1.40475517631944e-06,-0.0100547545506722,0.000611557693215502,0.000635495832997817,-8.32407113235151e-06,9.6141626068167e-06,-0.000154193433759598,-0.000241522764809406,-0.000134492709909289,-0.957246847093303,6.03399593038053e-05,0.00163473624307271,-0.00434831131737829,0.000436323197188221,-0.000492608964164247,0.00411442297402398,2.18151063338198e-06,-3.82569577338532e-07,1.88062808235643e-15,1.94039473837919e-16,-0.0327336369167086,-1.02206023962993e-15,3.62746686550951e-06,7.73178821880576e-05,-0.00685938527827784,-4.08196808192689e-05,2.24927293620315e-05,-0.0262281129144123,3.65181671377557e-05,1.99672263535344e-15,-0.00096066914949192,-0.000924488932070089,-9.39002593427704e-06,5.63232889966391e-05,-0.000695536279660456,0.000102237159445508,0.000198423948954747,-6.8601813902064e-05,-4.60184156041168e-16,-2.12330153459561e-15,1.06989415450704e-05,-1.25423080363228e-15,-9.14859608369837e-05,5.68432093562626e-06,2.51321276782591e-16,6.37930329858714e-16,-7.54280116543448e-16,-5.91572248042716e-17,-3.48955206498408e-16,-3.30867938708396e-05,-0.000171833708639254,-2.60806269620134e-16,2.09698494925477e-05,-4.00694098576281e-17,-1.76816678663467e-15,-7.4695100998028e-17,-5.33171957393527e-06,-3.39283649847936e-16,-2.5811291645583e-05,-4.48681152872901e-16,-2.6092015022049e-16,4.19759171184808e-16,2.82121134380642e-16,-5.23223575619991e-18,1.17492219658542e-06,-1.6176912477564e-16,-1.29897393735321e-16,2.37119089309748e-16,-5.24176974563602e-16,-1.67038764767664e-05,3.39388816787028e-15,-1.2036838377331e-15,9.07080218929661e-15,1.34347954474162e-16,2.04405944312937e-15,-7.98148014709138e-16,0.100000000000001
"t26",0.0238368175784648,0.146473144718918,-0.0759129814470367,0.178025658401753,0.0150387504475178,0.0126551674862369,-0.000382623774894023,-0.0137467921620866,0.0441841176848362,0.003948268223832,0.00191989896016533,0.0212047243964558,0.000322204519227407,-0.215231171972539,0.000859975635946642,-0.00170355931594959,-0.123635346085523,0.00958620103274526,0.000328100033655834,0.000314800563147962,-0.0111543557259849,-0.00917418731010029,0.00053313633944195,3.73562968238224e-05,0.330066099286578,-0.000451562469031391,-0.000425014222646046,5.51166106545725e-06,-6.27237691831501e-06,9.77931530029086e-05,0.000118066540326045,2.65735359057561e-05,0.105379507906906,-3.42156744386278e-06,-7.70589978097063e-05,-5.00093163828337e-05,1.79292438180255e-05,-2.64364455994909e-05,0.000372335054019715,2.01435541940133e-07,-4.18488026663054e-08,9.396455000692e-16,-5.14945622507702e-16,-0.00458965527680247,1.98097657633928e-15,5.71723645553702e-07,2.95169823791208e-05,-0.494836351116493,0.000135208674977101,0.0253664765695707,-0.00577777015260045,4.23449280370007e-06,-0.707106781186547,-0.000141640538456803,-0.000152128173921893,-1.64024198203577e-06,1.13413362869861e-05,-0.000159729170946513,2.38747696448274e-05,5.25929071472238e-05,-1.92649050549569e-05,-7.46171459485532e-16,-5.29437604868122e-15,3.21646349152229e-06,2.75380911319548e-16,-2.83088558041143e-05,1.76255041686625e-06,2.55579692902133e-16,3.04121372163792e-16,1.64346510191017e-15,-7.68754279867088e-16,3.56767819960861e-15,-1.12392416537615e-05,-6.05009092301106e-05,-1.62700060385186e-16,7.45873766388187e-06,4.36227941728906e-16,-1.96672895344612e-15,2.10186465878914e-16,-1.96987908373789e-06,-2.29630280570486e-16,-9.72697079671717e-06,-1.12045086330784e-16,-7.04695518566933e-16,1.86828701752533e-18,-4.01597994454891e-17,6.90677282609568e-16,4.60596675859097e-07,6.84397995463222e-16,3.92341627323686e-16,4.812215342426e-16,7.85839917484591e-17,-6.91163163148673e-06,3.55929435124907e-15,-7.33309758971838e-16,9.80613427309706e-15,5.45926228447191e-16,1.608582612659e-15,-9.29784456467437e-16,0.100000000000003
"t27",0.0238368175784648,0.146473144718918,-0.0759129814470367,0.178025658401753,0.0150387504475178,0.0126551674862369,-0.000382623774894027,-0.0137467921620868,0.0441841176848361,0.00394826822383165,0.00191989896016536,0.0212047243964559,0.000322204519227337,-0.215231171972539,0.000859975635946774,-0.00170355931594931,-0.123635346085523,0.00958620103274513,0.000328100033655631,0.000314800563147791,-0.0111543557259845,-0.00917418731010054,0.000533136339442353,3.73562968241109e-05,0.330066099286578,-0.000451562469030904,-0.000425014222644882,5.51166106612733e-06,-6.27237691887706e-06,9.77931530029888e-05,0.000118066540326668,2.65735359064829e-05,0.105379507906907,-3.42156744399616e-06,-7.70589978100228e-05,-5.00093163831932e-05,1.79292438204038e-05,-2.6436445600634e-05,0.000372335054019439,2.01435542308809e-07,-4.1848800275371e-08,-4.23285068204709e-16,-3.04345369101128e-16,-0.00458965527680491,1.84643733355824e-15,5.71723645672656e-07,2.95169823800093e-05,-0.494836351116491,0.000135208674970182,0.0253664765695843,-0.00577777015256462,4.2344928234023e-06,0.707106781186548,-0.000141640537991934,-0.000152128174001795,-1.64024199520579e-06,1.13413363023999e-05,-0.000159729170956605,2.38747696427815e-05,5.25929071482093e-05,-1.92649050505144e-05,7.95591661026335e-16,-7.7715611723761e-16,3.21646349208378e-06,3.56422749818506e-16,-2.83088558041747e-05,1.76255041893594e-06,-8.8136155445223e-16,1.45160755109283e-16,1.65734288971796e-15,2.02690866679718e-16,5.11505154017991e-15,-1.12392416528587e-05,-6.05009092295781e-05,4.40730944808677e-17,7.45873766139201e-06,-1.46155954098982e-15,-1.09273791543959e-16,-3.48711982783621e-16,-1.96987908451501e-06,6.4953183996466e-16,-9.72697079641354e-06,6.42165273492947e-17,-8.95542480561538e-16,1.79513186817029e-16,5.95352299264833e-16,-2.93744968648317e-16,4.60596675822876e-07,-8.39882987716853e-16,-6.18153160045025e-16,-6.31794337528292e-17,5.67961559133938e-17,-6.91163163046702e-06,3.17071629263296e-15,-8.90247323789699e-16,9.79572593224123e-15,1.95053145574234e-16,2.21852282913925e-15,-5.28043857409227e-16,0.100000000000002
"t24",0.0238157446010775,0.146311757678202,-0.0757642787227806,0.177641969333935,0.0150027237310504,0.0126118436641238,-0.00038081215599551,-0.0136670483470896,0.0438818973848294,0.00392052938086986,0.00190555056382709,0.0210457807444623,0.000319743712173352,-0.213306255259351,0.000850063166121112,-0.00168377821457494,-0.121801257873357,0.00943859053251149,0.000322939740325407,0.000309595277727802,-0.0109527308855648,-0.00900329812565844,0.000522580707979316,3.6579910028069e-05,0.321141142749468,-0.000435388675234807,-0.000409224376373979,5.30613572655224e-06,-6.03719951235322e-06,9.40878437254144e-05,0.000113138137925325,2.50518284957388e-05,0.0983065285102773,-3.16131796954104e-06,-7.10467097188296e-05,-4.53256389559188e-05,1.60464666138053e-05,-2.35048519808697e-05,0.000322675435749126,1.74289580417904e-07,-3.56050927149336e-08,-1.01110077917193e-15,1.37612821739435e-15,-0.00374161404081217,-5.01473953885995e-15,4.50320748716037e-07,2.80818283022518e-06,0.467872021162406,-0.000145795718997117,-0.731590390625303,-0.0141971527471825,9.46776416944873e-06,6.96222040998465e-15,-0.000281399424911274,-0.000273306639025007,-2.77352734990438e-06,1.66189922431534e-05,-0.000208945315529766,3.08454737633302e-05,6.2840970300015e-05,-2.24047330989322e-05,6.22622171624065e-16,4.25701141004708e-15,3.6440085176175e-06,-4.56480809476587e-16,-3.17686673785517e-05,1.97668575758206e-06,-2.5743070126496e-16,-9.29310040879187e-16,-1.64488993866952e-15,1.568865366195e-15,-1.58983919439583e-15,-1.22952971899723e-05,-6.5655143533569e-05,-4.28673760035837e-16,8.07691718339053e-06,-1.97106180631391e-16,1.82056730853623e-15,4.07019393675049e-16,-2.11732136654733e-06,-2.78665859487164e-16,-1.04177223232412e-05,-1.48611182140528e-16,4.68287370988501e-16,2.23582320878131e-16,-4.14077464443605e-16,-1.68446746099821e-16,4.90073334706747e-07,-1.47940116005162e-16,-1.84831176696344e-15,-2.23124279295485e-16,-9.78519062093964e-16,-7.29577197920629e-06,3.42657724932598e-15,-1.53751344543769e-15,8.26268626624279e-15,-6.38151982422723e-16,1.94950361108606e-15,-8.55920377292154e-16,0.0999999999999984
"t23",0.0238142795756545,0.14630053772086,-0.0757539402970796,0.177615293507918,0.0150002189673481,0.012608831460263,-0.000380686192634975,-0.0136615034881543,0.0438608822192883,0.0039186005225584,0.00190455281296181,0.0210347282000017,0.000319572592955644,-0.2131723946219,0.000849373781120869,-0.00168240248933039,-0.121673687409494,0.00942832324605166,0.000322580803684376,0.000309233201386779,-0.0109387052384113,-0.00899141031779846,0.000521846381612045,3.65258970764233e-05,0.320520101554594,-0.000434262881440023,-0.000408125256620633,5.29182918767179e-06,-6.02082878682283e-06,9.382991320789e-05,0.000112795020577924,2.49458293451112e-05,0.0978136694815183,-3.14317762619221e-06,-7.06276025301902e-05,-4.49989691276967e-05,1.59150975833806e-05,-2.33002607863592e-05,0.000319207050187262,1.72393526259153e-07,-3.51687717337076e-08,-2.02896959137798e-17,1.51107604233901e-16,-0.00368227764111671,-2.34550001056607e-16,4.41818135628799e-07,8.91106278292176e-07,0.539653129452945,-0.000166852107812738,0.680799956689004,-0.0147542452467199,9.81659284461775e-06,-6.76961820845721e-15,-0.000290793190161726,-0.000281503924832367,-2.8504648767573e-06,1.69800513834073e-05,-0.00021233053507698,3.1325204140909e-05,6.35486163448699e-05,-2.26217823795141e-05,-4.09085944553487e-16,1.04430353253804e-15,3.673594484787e-06,4.37450178047313e-16,-3.200817386974e-05,1.99150970954249e-06,6.09964592256178e-16,3.87286133166518e-16,-1.84486449792904e-15,-1.62260976917288e-15,-6.24984022720447e-16,-1.23684745189389e-05,-6.6012404778922e-05,-2.09078030054439e-16,8.11976919366919e-06,-6.97563421049554e-16,-9.2445439382096e-16,-1.01197958563288e-17,-2.12754486559382e-06,-3.66520009554005e-16,-1.04656246989159e-05,-4.20772133658134e-17,1.80142098597613e-16,2.25902368868793e-16,5.86695991118743e-16,-1.8261252704786e-16,4.92117985489826e-07,1.39818115404411e-16,-4.39756098312915e-17,8.46316074615156e-17,-7.61637029897116e-16,-7.3224256871647e-06,3.14541167367734e-15,-1.20399704379958e-15,9.36923107973437e-15,-2.64542165334547e-16,2.07644987478861e-15,-7.31340721093449e-16,0.099999999999997
"t28",0.0237164568660267,0.145549716388811,-0.0750558778284524,0.175810257679063,0.0148302813968924,0.0124020119432706,-0.00037189189023694,-0.0132685544822673,0.0423477211565285,0.00377930020234485,0.00183195905851158,0.020230272244422,0.000307087601530287,-0.203170708691395,0.000794857399735885,-0.00157337800729716,-0.110527730381536,0.00851199450131581,0.000290122284166337,0.000275331391938209,-0.00951806058669022,-0.0077469566691997,0.000438479135985152,2.98628763262973e-05,-0.396387403008598,-0.0004545257846041,-0.000418454973564663,5.41550249091171e-06,-6.14463890740314e-06,9.5274291932472e-05,0.000110134264563529,2.22039858517115e-05,0.0832251658219087,-2.57244382740571e-06,-5.73181942555411e-05,-3.41430126082942e-05,1.14880018984896e-05,-1.63805066880417e-05,0.0002018677104952,1.08279068564299e-07,-2.0522770802639e-08,5.82366884903563e-16,1.07420231111975e-15,-0.00174960431960191,9.02934251926591e-16,1.73087529867497e-07,-1.65738138382607e-05,0.00503363875127402,1.80537773980058e-05,-3.30009523867841e-05,0.843283599488504,0.000346202169311509,-2.00638962704457e-14,-0.00310520963411096,-0.00178200985977611,-1.4140478949428e-05,5.2367677844464e-05,-0.000472163233204777,6.72873335381685e-05,0.000109921965684748,-3.62864650298375e-05,3.33482104945751e-16,-5.23886489744996e-16,5.47282798426098e-06,2.52819676461073e-15,-4.6410102423725e-05,2.88224111824571e-06,3.78659429159812e-16,1.04715895832545e-16,3.79912811319906e-16,-3.22533835235801e-16,3.06798236972022e-15,-1.66569454561366e-05,-8.68170228859497e-05,1.55864701851082e-16,1.06114621464749e-05,-2.91962261428331e-16,-1.41086132224236e-16,-5.25687441341367e-16,-2.71931207474586e-06,-1.32427059274493e-16,-1.32334925747932e-05,-9.43568744478142e-17,-2.89487340570973e-16,6.11614427314119e-16,6.26539573998672e-16,3.24930898648547e-16,6.09978139967097e-07,2.24525626417263e-16,-6.75681618408482e-16,6.70239953805218e-17,1.56320525862224e-17,-8.85702984005604e-06,3.39732874408737e-15,-5.45144007842686e-16,9.40712344234472e-15,-1.99471829342513e-17,1.67272987055732e-15,-9.08808119797356e-16,0.0999999999999977
"t40",0.0238271136732218,0.146396655213062,-0.0758343062099797,0.177817615567085,0.0150186270292296,0.0126277839582674,-0.000381291897004376,-0.0136807667113664,0.0439038418176048,0.00392202226537546,0.00190565170794183,0.0210465250220223,0.000319717678808443,-0.212994470856503,0.000844780440627237,-0.00167295411333597,-0.11955313634291,0.00923472156678982,0.000315308517300972,0.000300523405029798,-0.0104746429344373,-0.00855066374555038,0.000487008353021678,3.33429869562579e-05,-0.457690200116155,-0.00055032884709476,-0.000510343512014649,6.60964951788043e-06,-7.5079361347985e-06,0.000116663311752916,0.000137726297879612,3.02547793683573e-05,0.119873841808312,-3.89971973910331e-06,-8.78816502304164e-05,-5.73863872596993e-05,2.06813577259377e-05,-3.05791643199978e-05,0.000435265562326719,2.3563219880051e-07,-4.92722872305211e-08,-3.4816318997776e-16,-4.25691671372616e-16,-0.00548252797815754,-3.41635015448751e-16,6.89468307999398e-07,3.08498050525318e-05,-0.00586683594915391,-2.05209717106363e-05,2.66687811274476e-05,-0.37923623845923,-0.000139260333798148,9.00155841552366e-15,0.00102432050630731,0.000451326687780332,2.80693374517943e-06,-1.75040132745371e-06,-7.06508007936077e-05,1.16812299148214e-05,3.82808226886243e-05,-1.52509198768224e-05,1.6290153005801e-14,3.24774929172378e-14,2.72069575610151e-06,0.707106781186547,-2.44541789852049e-05,1.52465193337275e-06,3.31146925949799e-15,6.65695864380302e-15,8.82670202704228e-15,-7.64967110817067e-15,4.74131814131971e-15,-1.02037560863713e-05,-5.56919367971887e-05,2.13567122012984e-17,6.89012506527003e-06,1.98059207884262e-16,-1.26388345306882e-16,-6.56449617759997e-16,-1.84139785475398e-06,1.39824493902896e-15,-9.14214703759942e-06,-6.37209227447752e-16,-1.47977398443205e-15,-3.28495353499929e-16,-1.83990415261771e-16,-4.14414916965177e-16,4.37073837481224e-07,-3.04970507879732e-16,-3.92094956061262e-16,7.30415530453134e-17,-1.78178251204357e-15,-6.63020547116865e-06,2.93024958632584e-15,-1.06780789974442e-15,9.20084839171243e-15,4.8281975772155e-17,-4.43220460297639e-16,-7.67712143005596e-16,0.0999999999999983
"t41",0.0238271136732218,0.146396655213062,-0.0758343062099796,0.177817615567085,0.0150186270292296,0.0126277839582674,-0.000381291897004381,-0.0136807667113664,0.0439038418176049,0.00392202226537534,0.00190565170794173,0.0210465250220224,0.00031971767880855,-0.212994470856503,0.000844780440627309,-0.00167295411333595,-0.11955313634291,0.00923472156678942,0.000315308517300914,0.000300523405029893,-0.0104746429344374,-0.00855066374555021,0.00048700835302194,3.33429869568861e-05,-0.457690200116155,-0.00055032884709534,-0.000510343512014761,6.60964951803256e-06,-7.50793613461895e-06,0.000116663311752804,0.000137726297878554,3.02547793686825e-05,0.119873841808314,-3.899719739121e-06,-8.78816502306293e-05,-5.73863872611843e-05,2.06813577257299e-05,-3.05791643198324e-05,0.000435265562325978,2.35632198709575e-07,-4.92722875960596e-08,-1.17490669460421e-15,5.55879577876465e-17,-0.00548252797815825,8.03807158115356e-17,6.89468308418897e-07,3.08498050502671e-05,-0.00586683594915415,-2.05209717124235e-05,2.66687811285193e-05,-0.379236238459226,-0.000139260333796725,9.28605306558354e-15,0.00102432050629908,0.000451326687781966,2.80693374317062e-06,-1.75040133014022e-06,-7.06508007904942e-05,1.16812299185835e-05,3.82808226845125e-05,-1.52509198823249e-05,-1.66159802099441e-14,-3.10480807730329e-14,2.72069577365991e-06,-0.707106781186548,-2.44541789885864e-05,1.52465197602739e-06,-3.85767523191465e-15,-6.45846654005027e-15,-8.78074125412228e-15,7.92814570610207e-15,-2.11430903574063e-15,-1.02037560845891e-05,-5.56919368012886e-05,-7.92370365933378e-16,6.89012506888739e-06,-1.14635148599761e-15,-5.18435850877639e-16,1.05948437436516e-15,-1.84139785516628e-06,-1.67634491016064e-15,-9.14214704191075e-06,5.25976377462437e-16,6.73980666636669e-16,9.56741052464819e-16,-4.89835255435888e-17,1.369013787203e-16,4.37073838501105e-07,1.35615932348372e-16,-1.25209000347884e-16,-3.83068523388675e-17,1.43340436667898e-17,-6.63020547044704e-06,4.23476164025219e-15,-1.02813550709426e-15,8.5659395995049e-15,-3.89505660400314e-16,4.03587209224651e-15,-5.51637369434763e-16,0.0999999999999992
"t86",0.0224096138425535,0.135415406058972,-0.0652307732170172,0.15015162851446,0.0123847151053161,0.00925776211066651,-0.000227614876338783,-0.00636825189891332,0.0137716216704581,0.00111215819272945,0.00039352336468182,0.0042623527612234,5.64734664618447e-05,0.0214334191773697,-0.000840390768109597,0.00173558383388084,0.555532097310673,-0.0592982368690833,-0.00251834747455888,-0.00493537855788948,-0.328543989922028,-0.147025090577378,0.00463436177347079,0.000243839972156966,0.00405035812620999,-0.00117677746749776,-0.00105794701259646,1.36575384691861e-05,-1.5438949842842e-05,0.000237670734665005,0.000255601584377658,3.29997835586721e-05,0.0378446757937613,4.65176124461954e-06,0.000158977156152425,-0.000937437902429289,0.000118525534595946,-0.000145145598467274,0.00147632746378777,7.89465811338723e-07,-1.49048943220848e-07,2.47323320706415e-16,5.08734880555844e-16,-0.014267131234454,-2.6409033236306e-16,1.66587298092035e-06,4.31742594568087e-05,-0.000608593667685392,-2.42904218598644e-05,2.07856553720663e-06,-0.0025673299795797,2.77498481505438e-05,1.22322239611864e-16,-0.000639310684868952,-0.000601043606585902,-6.08124131757856e-06,3.68001424205979e-05,-0.000467022683254008,6.89698525799001e-05,0.000139736775933522,-4.94493109537151e-05,1.56490654656665e-17,2.25514051876985e-16,7.94340901741668e-06,7.63017518260505e-16,-6.88153467813025e-05,4.27974998384269e-06,4.22530941191823e-16,2.08109819500055e-16,9.18119457472163e-16,-1.5896199974456e-15,4.30937189578126e-17,-2.59973906902193e-05,-0.000137349677565001,-5.50968493511754e-16,1.68436035740316e-05,-7.42302035264329e-16,-4.78116487045389e-16,1.26275211303816e-18,-4.3616315850026e-06,3.76900135569999e-16,-2.13173006710316e-05,-4.88408106810015e-17,-3.88603331618584e-16,-9.90401185248856e-16,-2.15981601210963e-16,6.02620477180157e-16,9.88954555941202e-07,3.88775907529094e-15,7.2761027191395e-16,1.49189034917933e-16,0.707106781186547,-1.44270918638471e-05,5.25027287283882e-16,1.66256562698871e-16,9.06650893715968e-15,1.03379324006542e-15,4.65816730537736e-15,2.86916143839843e-15,0.100000000000003
"t87",0.0224096138425535,0.135415406058972,-0.0652307732170172,0.15015162851446,0.0123847151053161,0.00925776211066656,-0.000227614876338831,-0.00636825189891329,0.0137716216704581,0.00111215819272942,0.00039352336468223,0.00426235276122337,5.64734664619397e-05,0.0214334191773695,-0.000840390768109559,0.00173558383388054,0.555532097310673,-0.0592982368690834,-0.00251834747455884,-0.00493537855788946,-0.328543989922029,-0.147025090577378,0.00463436177347052,0.000243839972156454,0.00405035812621033,-0.00117677746749746,-0.00105794701259665,1.36575384695333e-05,-1.54389498425713e-05,0.00023767073466486,0.000255601584378013,3.29997835587392e-05,0.0378446757937611,4.65176124464575e-06,0.000158977156151991,-0.000937437902428928,0.000118525534596276,-0.000145145598467382,0.00147632746378843,7.89465811444968e-07,-1.49048943331852e-07,-1.66675549289493e-16,3.80747029417878e-16,-0.0142671312344545,-5.74495410980703e-16,1.66587298101464e-06,4.31742594575299e-05,-0.000608593667686417,-2.42904218598415e-05,2.07856553746792e-06,-0.00256732997957872,2.77498481505151e-05,1.63955603038301e-16,-0.000639310684869873,-0.000601043606585969,-6.08124131922308e-06,3.6800142420385e-05,-0.000467022683254673,6.89698525802035e-05,0.000139736775932639,-4.94493109554398e-05,2.56363108722715e-16,2.42861286636753e-17,7.94340901797512e-06,-6.31700157891436e-16,-6.88153467818662e-05,4.27974998271409e-06,-4.85938661982011e-16,-2.5581905493387e-17,-7.80608506378183e-16,2.10187155942934e-15,3.88724094172242e-15,-2.59973906904549e-05,-0.000137349677564866,-2.32053402758246e-17,1.68436035753373e-05,-2.14946098567754e-16,7.52603017912142e-17,1.56550144664236e-16,-4.36163158586961e-06,-6.84698829565985e-16,-2.13173006670663e-05,2.29602540659384e-16,-1.84276462365248e-16,1.5964905675094e-15,5.84050067719529e-16,-8.00267380592908e-16,9.88954550404976e-07,-4.12601286248491e-15,-1.6364654457635e-15,1.05121304968581e-16,-0.707106781186548,-1.44270919017468e-05,6.65900949835641e-15,-2.61101738390708e-15,9.17059234571819e-15,-1.04928114410243e-15,-1.09655525561102e-15,-4.31898036105514e-15,0.0999999999999961
"t25",0.022728216455185,0.137865971599947,-0.0675035545278852,0.156007464541067,0.0129325338479982,0.00988524835110192,-0.000248612496820007,-0.00682746470689433,0.0116105652406758,0.000809812654959232,6.13807012266259e-05,0.000462551273038397,-1.53735965303783e-05,0.361541448716762,0.00188150103521196,-0.00361056137220243,-0.123383172857624,0.00796332982097971,0.000231461594171749,4.22114060359734e-05,-0.0319883014159069,-0.0182587467868891,0.000780756259823056,4.77261561648954e-05,0.00058116331753285,-0.000281435139472051,-0.00024357365691831,3.13105969168207e-06,-3.51674038737496e-06,5.3449009172922e-05,4.92940251995119e-05,4.28123168774953e-07,-0.00363041479323169,-1.67918616447892e-06,-6.310762085252e-05,0.000739063727461877,-0.000139623589456806,0.000206899154330303,-0.00420896268634996,-2.35032292638083e-06,7.14107363234622e-07,1.28770526919706e-15,-1.76373664121099e-14,0.673645824923401,2.00068963583312e-14,2.6316129631079e-05,0.000120598401952604,-0.00110281761276759,-6.30780838067768e-05,3.65520505568269e-06,-0.00479271706812897,7.8395402587855e-05,-3.09938361446462e-14,-0.0021716053330678,-0.58301020481925,-1.06985136481483e-06,5.28496257851452e-05,-0.000702803857055628,0.000103430908639571,0.000198402105655678,-6.78496187439388e-05,-1.53227358672206e-16,8.53483950180589e-16,1.04409962708507e-05,-9.91134776058604e-16,-8.88010349463072e-05,5.51543733572696e-06,-2.06598803833698e-16,-6.34648997209886e-17,-5.73637323252146e-16,-4.01950626561457e-17,2.07765795222387e-16,-3.16394673868991e-05,-0.00016358162978883,2.3693442023139e-16,1.9940223225265e-05,3.48987491615361e-16,3.07985233906591e-16,1.02948552108173e-16,-5.05139670706996e-06,4.98453619020617e-18,-2.44163571530505e-05,-9.97631415326989e-17,-1.77345789004897e-16,9.11608116817443e-17,1.21064524331843e-16,-3.14513125664328e-16,1.10880943103077e-06,-4.24764763327617e-17,-8.47481871121191e-16,-8.17256664946952e-17,-7.24195552790924e-16,-1.57378306954795e-05,3.68365674943533e-15,-1.25124659806639e-15,9.56134866484191e-15,-7.91530811950741e-17,2.11930409158354e-15,-7.51598586088743e-16,0.0999999999999986
"t91",0.0231308025257479,0.140921119752855,-0.0702034359639855,0.162896723802631,0.0135700459428444,0.010594647685655,-0.000273891410911152,-0.00769526873635854,0.013385795921007,0.000937450135874665,7.17626224642058e-05,0.000541053249538715,-1.80394993530589e-05,0.436898887257444,0.00241483571683381,-0.0046434632010559,-0.171821601116113,0.0112510184085366,0.000329822414328083,6.14348604907226e-05,-0.0485236365667366,-0.0281200936282632,0.00124261483351907,7.81400009165349e-05,0.00115955068420812,-0.000797637657534839,-0.00073628390150264,9.53002219779432e-06,-1.0814833158272e-05,0.000167714146844209,0.000192522988886696,2.98020613102955e-05,0.0277512174433348,6.52248889408208e-06,0.000221752317407702,-0.00149751366630318,0.000219036943810216,-0.000291588553359265,0.00433344044312744,2.38185454759614e-06,-6.24587167942418e-07,-6.83526037082179e-16,1.160097138331e-14,-0.449598689937256,-1.32229547339837e-14,-1.50617645999543e-05,-2.51012794033932e-05,0.000175891399075922,9.88977989203579e-06,-4.35247066946081e-07,0.000211949564755578,-1.9744330149458e-06,-6.83307165429346e-15,-4.62110858883699e-05,-0.104733400907691,2.65585815965516e-06,-4.16828275976034e-06,-8.48290244106327e-06,2.33881573655947e-06,2.09747694533043e-05,-9.92001103632734e-06,-7.72544510498889e-17,-5.30825383648903e-16,2.04372033902729e-06,3.26191438775717e-16,-1.92832516273967e-05,1.20616503359517e-06,-2.15120048969937e-16,1.10189809959029e-17,6.88621367000233e-16,4.21815080184431e-16,5.82269682251175e-16,-9.09740164053345e-06,-5.15030497290312e-05,-2.53206792491442e-16,6.43277589106982e-06,-1.409975813002e-15,3.36127289851869e-16,-2.86947579329583e-16,-1.7760300243474e-06,2.61639978906524e-16,-8.95296429218226e-06,1.99283636852614e-17,-6.806194474617e-16,8.62411409847511e-16,-1.58809628171629e-16,6.43774010955208e-16,4.39866854327287e-07,6.91245962250701e-16,3.00288306915991e-16,-4.17184104922865e-16,9.97590287973431e-16,-6.88578295344468e-06,9.6375997473953e-15,-0.707106781186549,-2.6137610188626e-15,-2.53747628692412e-15,7.56022410260048e-15,2.73668761267841e-15,0.0999999999999942
"t92",0.0231308025257479,0.140921119752855,-0.0702034359639855,0.162896723802631,0.0135700459428444,0.010594647685655,-0.000273891410911157,-0.00769526873635864,0.0133857959210068,0.000937450135874659,7.17626224642111e-05,0.000541053249538759,-1.80394993531903e-05,0.436898887257444,0.00241483571683386,-0.0046434632010559,-0.171821601116112,0.0112510184085369,0.000329822414327283,6.14348604907156e-05,-0.0485236365667367,-0.0281200936282633,0.00124261483351894,7.81400009164147e-05,0.00115955068420844,-0.000797637657534438,-0.000736283901502554,9.53002219771361e-06,-1.08148331583761e-05,0.000167714146844063,0.000192522988886639,2.98020613103004e-05,0.0277512174433346,6.52248889403754e-06,0.000221752317407696,-0.00149751366630372,0.000219036943809899,-0.000291588553359322,0.0043334404431277,2.38185454768263e-06,-6.24587168075845e-07,-4.42084185780062e-16,1.1571487071899e-14,-0.449598689937256,-1.33653952003746e-14,-1.50617646001227e-05,-2.51012794032398e-05,0.000175891399076367,9.88977989155652e-06,-4.35247067271377e-07,0.000211949564755315,-1.9744330160673e-06,-6.46531027738978e-15,-4.62110858881037e-05,-0.104733400907691,2.65585815866984e-06,-4.16828275965319e-06,-8.48290244089879e-06,2.33881573745594e-06,2.09747694531259e-05,-9.92001103686723e-06,-1.23947804536907e-16,-1.38430933382949e-15,2.04372033914742e-06,1.74106620709481e-17,-1.92832516278314e-05,1.20616503326725e-06,-3.33748141270263e-17,1.47785199638412e-16,-6.01145537388481e-16,5.67531852170005e-16,1.17207566408329e-15,-9.09740163972907e-06,-5.15030497301924e-05,-1.35472636932603e-16,6.43277589186124e-06,-3.2750836399219e-16,-2.23646762502174e-15,1.22908306891179e-16,-1.77603002563905e-06,-3.27714868143055e-16,-8.95296429481541e-06,-3.89985892175282e-16,-1.00719681616225e-17,-9.86368397054117e-17,4.77437480107394e-16,-6.58048888157579e-16,4.39866853956107e-07,-6.18831346774303e-16,-1.2115349073808e-15,7.26207340133387e-16,-1.76408650111982e-15,-6.88578296801234e-06,-2.7760814467114e-15,0.707106781186547,2.10825616629806e-14,2.55137398119991e-15,-3.73445372245779e-15,-4.24857497005838e-15,0.100000000000009
"t31",0.0228147385889692,0.138522808186315,-0.0680848333881671,0.157491187823998,0.0130698876393775,0.0100383485675329,-0.000254079805239819,-0.00701547825187156,0.0119958236460129,0.000837520677378217,6.36360742814695e-05,0.000479605684302581,-1.59528911120015e-05,0.377950776614529,0.00199811433695178,-0.00383643513673771,-0.134029354552521,0.00868655838492881,0.000253110176494007,4.64476631671338e-05,-0.0356408497154528,-0.0204388992189281,0.000883047482299459,5.44722389475536e-05,0.000710664947213816,-0.000398498093502284,-0.000355521571849575,4.58524243872479e-06,-5.17573549794342e-06,7.9438193889711e-05,8.20477854004668e-05,7.28784856521937e-06,0.00379168942995918,2.82255337393922e-07,5.17963966908791e-06,0.000192943580280391,-5.09245907369133e-05,8.28288841463448e-05,-0.00203270850671232,-1.14309092164815e-06,3.67779590424307e-07,-1.31532034212067e-16,-9.23379771550612e-15,0.373655736465064,1.09359147962955e-14,1.50149261056779e-05,6.84825859566762e-05,-0.000588589092983593,-3.34939601470441e-05,1.75108746018249e-06,-0.00117666064160864,1.16701864806262e-05,4.57608404942116e-14,0.000305148305269434,0.798844259960752,-2.29982400918004e-05,6.73835906848814e-05,-0.00068725994537987,9.94542692665302e-05,0.000177241856939061,-5.97730680353262e-05,3.90753095837631e-16,8.32667268468867e-16,9.12745757049307e-06,8.93549413646229e-16,-7.75343783768369e-05,4.81542411571745e-06,1.86495258787078e-16,1.20653375387696e-16,2.88533398341912e-17,-1.05084633289049e-15,3.41061605609469e-15,-2.76712466433751e-05,-0.00014339423973036,-6.95447115451536e-16,1.74929970748599e-05,-3.21495584376984e-16,-9.51339865750507e-16,1.29414579605273e-16,-4.44613885619737e-06,-4.24122171932827e-16,-2.15326652799337e-05,-1.40612650624651e-16,-1.94550822580002e-16,8.96223271002879e-17,2.7747354273515e-16,2.85941986214475e-16,9.82021807370983e-07,-1.70662242113168e-16,-3.05436661160064e-17,8.6891262981226e-17,-8.32931048736664e-16,-1.40284355754595e-05,3.07065569843479e-15,-1.02922711994631e-15,8.89893999225975e-15,-2.37404216822242e-16,1.58232595372881e-15,-7.61286278015595e-16,0.100000000000003
"t11",0.0206384011217866,0.12180887963287,-0.0525596623689191,0.117390175385209,0.00930158766893232,0.00552800970998425,-7.25841457877812e-05,0.000280106161230438,-0.00981893330679479,-0.0010108768347203,-0.000635121581636452,-0.0070856877042395,-0.000114216831589144,0.0581433193676912,-0.00198952775751045,0.00395840342336674,0.294639081962652,-0.0161021989801524,-0.000277329930841104,0.00165304561632316,0.509897372977486,0.324959967001036,-0.021024147460923,-0.00225760910905178,0.00366297778857322,-0.00419070847468769,-0.00363093414548679,4.67073676930551e-05,-5.25260742313691e-05,0.000800758436849735,0.000794648378077103,8.07634035876177e-05,0.0321610813584811,1.59068653922835e-05,0.00051176447850743,-0.00256659541779296,0.000310766989368769,-0.000374339834308236,0.00362114877554607,1.93071963897013e-06,-3.52380893303001e-07,-0.707106781186548,-8.95809950541835e-15,-0.0174262328556337,8.18491590023403e-15,4.6793789343341e-06,0.000101657219892432,-0.000504561050068167,-5.6850786151206e-05,1.72510175017843e-06,-0.00213548499075503,6.50815368114874e-05,-3.43749852895484e-16,-0.00147322768792331,-0.00071041151251197,-1.38887358212738e-05,8.31156667344528e-05,-0.00104046576672112,0.000153335439893138,0.00030494627014151,-0.00010682615733208,1.36915242087441e-16,4.30211422042248e-16,1.69345219105884e-05,3.94240067944816e-16,-0.000145825371559291,9.06514896720277e-06,-3.28215634723902e-16,-2.08635946956774e-16,5.5978464219004e-16,-3.99910463456604e-16,9.26517205021318e-16,-5.39325088350533e-05,-0.000282412327573412,-3.80125009272246e-16,3.45431086943395e-05,-2.12002869634314e-16,-1.40753915245768e-16,-4.64014223686175e-17,-8.85564540897813e-06,-1.12266151973954e-16,-4.30475822910272e-05,4.57688372466397e-17,-4.1785595932065e-16,2.50900508653921e-16,3.23736742455737e-16,-1.92971800205466e-16,1.97475356751027e-06,4.10004638720647e-18,-5.06443279391929e-16,1.70337393829364e-16,-4.59467512216766e-16,-2.83414604612112e-05,3.79939177442085e-15,-9.54893440465411e-16,9.03843101558847e-15,2.99484678573999e-17,1.75580948786751e-15,-7.53118706511772e-16,0.0999999999999992
"t12",0.0206384011217866,0.12180887963287,-0.0525596623689191,0.117390175385209,0.00930158766893231,0.00552800970998423,-7.25841457877651e-05,0.000280106161230388,-0.00981893330679482,-0.00101087683472038,-0.000635121581636426,-0.00708568770423946,-0.000114216831589113,0.0581433193676913,-0.00198952775751044,0.00395840342336685,0.294639081962652,-0.016102198980152,-0.000277329930841591,0.0016530456163239,0.509897372977486,0.324959967001036,-0.021024147460923,-0.00225760910905154,0.00366297778857273,-0.00419070847468701,-0.00363093414548629,4.6707367693174e-05,-5.25260742317065e-05,0.000800758436849621,0.000794648378075563,8.07634035879388e-05,0.0321610813584843,1.59068653924311e-05,0.000511764478507495,-0.00256659541778831,0.000310766989368854,-0.000374339834308645,0.00362114877554371,1.93071963966222e-06,-3.52380899725582e-07,0.707106781186548,9.74035463515112e-15,-0.0174262328556356,-8.82221076925661e-15,4.67937893233732e-06,0.000101657219892712,-0.000504561050067071,-5.68507861522591e-05,1.72510174877975e-06,-0.00213548499075598,6.50815368093035e-05,9.33006625423439e-16,-0.00147322768792242,-0.000710411512510772,-1.38887358234925e-05,8.31156667346064e-05,-0.00104046576672139,0.000153335439894084,0.000304946270142769,-0.00010682615733286,3.80866140571018e-17,-3.46944695195361e-18,1.69345219107237e-05,-5.67880358090913e-17,-0.000145825371559295,9.06514896589751e-06,3.06233181864626e-16,2.6628061980276e-16,-7.13068708307939e-16,5.09084637955284e-16,1.49550650514172e-15,-5.39325088351094e-05,-0.000282412327574163,-1.24538199395011e-17,3.45431086953113e-05,-2.95269596481193e-16,-5.70965337288018e-16,8.94995826022497e-17,-8.85564540872951e-06,-2.8548437866585e-16,-4.30475822903288e-05,-8.81518990590902e-17,-1.06975069075311e-16,3.194752834805e-16,3.85036567527056e-17,9.67886544907362e-17,1.97475356752632e-06,-8.71509128946743e-17,-4.51460293499371e-16,-4.93057500369441e-17,-7.99473313921862e-16,-2.83414604617051e-05,3.27203583772384e-15,-1.22030613232154e-15,9.18501514930853e-15,-1.75261148473037e-16,2.08073055215343e-15,-7.209060403294e-16,0.0999999999999993
"t55",0.0183155788792875,0.102919931974079,-0.025984295555168,-0.0894845121739374,0.00579965128527642,-0.00248861227966242,0.000456362047622023,0.0374366655296274,-0.300397108001615,-0.0337339696968724,-0.0392419837785997,-0.46491464505025,-0.0132914268222681,-0.0356564578145261,0.00626770753142648,-0.057173590675797,-0.0323357811800059,-0.0075144986072982,-0.000517851564861958,-0.0015981311174183,-0.0714748844398828,0.0817369755951245,0.000269771265415209,-0.000243609173170562,6.80279605487547e-05,-0.0028019823842692,-0.00251097664087375,3.2407426849595e-05,-3.66220370562054e-05,0.000563445417449325,0.000604956048376309,7.52141518756757e-05,0.00315858989213486,2.27953142756062e-05,0.000743777283914128,-0.00476330925824777,0.000765958460422537,-0.00112890931519811,0.377063999382351,-0.000151557531338652,1.31343024444033e-06,5.48832115752317e-16,1.01955651422785e-16,0.00158446851335613,1.06248649722609e-15,-2.72014947378071e-06,2.54134267890774e-05,-1.52856021802027e-05,-1.74364814760257e-05,5.94788913821717e-08,-8.93725824365163e-05,2.80710088003041e-05,6.03704647115244e-16,-0.00213810903052736,-2.67898970754948e-05,-5.65190799499057e-06,3.75135768946512e-05,-0.000519298490528032,7.75712543194701e-05,0.000171175857856181,-6.28314109188407e-05,3.8656150327572e-16,7.73686670285656e-16,1.05043631159615e-05,-4.15391264180192e-16,-9.24443516860113e-05,5.75558672978234e-06,-9.3146067427699e-17,-2.36598723730052e-16,-3.3134234942622e-15,-7.014513869974e-17,3.74731393219661e-16,-3.65747230829038e-05,-0.000670249289328839,0.707106781186547,2.40895459139001e-05,1.01222641451343e-14,-2.71266348006353e-15,1.08172982225079e-15,-6.34409383185249e-06,-2.61256532400848e-15,-0.000105714171979892,5.08674719588683e-16,-1.31602730238811e-15,-1.55441352595783e-15,-6.02480515605717e-17,-7.20483993023826e-17,4.93924788772853e-06,1.82655410843218e-17,-1.58003590983396e-16,1.45701552597183e-16,1.39743051305382e-17,-7.25638600658237e-05,2.01231311088621e-15,-1.33789206152631e-15,8.86214307053945e-15,-3.94794002852319e-16,1.88179569368888e-15,-6.1238895089249e-16,0.0999999999999994
"t56",0.0183155788792875,0.102919931974079,-0.025984295555168,-0.0894845121739374,0.00579965128527643,-0.00248861227966242,0.000456362047622065,0.0374366655296274,-0.300397108001615,-0.0337339696968725,-0.0392419837785997,-0.46491464505025,-0.013291426822268,-0.035656457814526,0.00626770753142652,-0.057173590675797,-0.032335781180006,-0.00751449860729818,-0.000517851564862066,-0.00159813111741838,-0.0714748844398827,0.0817369755951247,0.000269771265415298,-0.000243609173170509,6.80279605484555e-05,-0.00280198238426923,-0.0025109766408739,3.24074268493491e-05,-3.66220370560397e-05,0.000563445417449382,0.000604956048376467,7.52141518749585e-05,0.00315858989213463,2.2795314275463e-05,0.000743777283914212,-0.00476330925824794,0.000765958460423468,-0.00112890931519793,0.377063999382352,-0.00015155753133864,1.31343024461589e-06,8.07305913672559e-16,4.67051144312618e-16,0.00158446851335647,9.85096583079808e-16,-2.72014947365727e-06,2.54134267895526e-05,-1.52856021807414e-05,-1.74364814764751e-05,5.9478891900956e-08,-8.93725824360566e-05,2.80710087993835e-05,8.8516353109249e-16,-0.00213810903052689,-2.67898970764032e-05,-5.65190799663683e-06,3.75135768943714e-05,-0.000519298490527491,7.7571254319159e-05,0.000171175857855674,-6.28314109127083e-05,-2.81131272962055e-16,-4.19803081186387e-16,1.05043631169037e-05,1.44924418558277e-16,-9.24443516841578e-05,5.75558672774878e-06,1.87706216943157e-16,5.0336837645276e-16,2.6609641570019e-15,-3.96273152183375e-16,1.7347545983855e-15,-3.65747230874195e-05,-0.000670249288850592,-0.707106781186548,2.40895459135051e-05,-1.17491294399814e-14,2.31803460026921e-15,-1.02881339763748e-15,-6.34409383113679e-06,2.3196004746025e-15,-0.000105714171977867,-4.94466097816698e-16,7.98582036682479e-16,2.20648416215875e-15,4.43018636575845e-16,6.74202477433862e-17,4.93924788589689e-06,-2.28602583162636e-16,-5.86646739453678e-16,1.12926333314811e-16,-6.93792873754335e-16,-7.25638600660555e-05,4.30995435481738e-15,-1.11584745616933e-15,1.02499218513207e-14,2.31704734008246e-16,2.2098601192292e-15,-9.75360976584719e-16,0.0999999999999969
"t20",0.0180766901835269,0.101245805772662,-0.0252309426589033,-0.0866283470773065,0.00559374744939768,-0.00236196429244462,0.000424114798851685,0.034185244938771,-0.269537201067053,-0.0301724606406109,-0.03482882823993,-0.412471806175014,-0.0117631349596895,-0.0308363727963055,0.00516708633504013,-0.0470569702289577,-0.0249530148940517,-0.00573052996846696,-0.00039215194490286,-0.0011892737855509,-0.0513890188072621,0.0580258392170952,0.000186282966617192,-0.00016422430045661,3.86056365470693e-05,-0.00115008284010491,-0.000968696117398307,1.24192678019872e-05,-1.38947526656654e-05,0.00020962648289567,0.000180990253868806,-1.09725295153812e-06,-0.000734314100369473,-1.01299901413127e-05,-0.000366529011013763,0.00431857152016062,-0.000951357033246101,0.00161314108010859,-0.845564281782356,0.000348380709818507,-3.85013416145547e-06,-1.51337844305444e-15,-4.18729644821363e-16,-0.00792237699369539,-2.35693847940269e-15,2.01559273596165e-05,0.000227069053991661,-0.000107258769927001,-0.000120961186826101,3.5859375027444e-07,-0.000450090709934583,0.000137674104095963,3.34413548978644e-15,-0.0100570325345668,-0.000120316363840296,-2.45240049185722e-05,0.000145570715197907,-0.00175079125844184,0.00025635458270503,0.000482469006063275,-0.000164484928288303,-1.27571612593237e-17,-7.63278329429795e-16,2.524977867182e-05,5.34342933524554e-16,-0.000214535880673238,1.33238483398338e-05,-1.62295068527084e-16,-7.74166010375995e-17,1.48733184584898e-16,4.07223542854068e-16,1.82457627970797e-15,-7.61414500198046e-05,-0.00134128739468051,-8.6570953592956e-16,4.76816702481267e-05,2.16397444171253e-16,-5.99173593615062e-16,9.01801699164273e-17,-1.20642925702615e-05,-8.2165072933622e-18,-0.000196997192460492,-8.060672622328e-17,-3.17955795141059e-16,2.56870573299296e-16,1.8199670175235e-16,-7.75100598626193e-17,8.84989555800167e-06,-5.21816563277946e-17,-6.71248105529875e-16,-1.03672164865591e-16,-8.46385498098922e-16,-0.000123526688029393,3.69609879657243e-15,-8.31340396631206e-16,8.60362637095319e-15,-4.5588874077757e-19,1.634571256581e-15,-5.89948254374481e-16,0.100000000000004
"t18",0.0201373445426571,0.117464954903478,-0.0387831043196645,-0.149767651265399,0.0118594890857361,0.00544261013751778,-4.08192675258996e-05,0.00302210701891965,-0.034276344303689,-0.00383185693696785,-0.00418482797606461,-0.0493310561933498,-0.00135971444197045,-0.00137169529683728,-0.00331149396316778,0.0769677743246576,0.0312960332054935,0.00918074184940474,0.000725961824384827,0.00318406800714598,0.327355091316353,-0.576063197638979,-0.0328588966538346,-0.00298691798991673,0.000163998104400904,-0.00443142614723639,-0.00382708397010424,4.9214904883779e-05,-5.53200494323568e-05,0.000842603305038264,0.00082951615793051,8.01859366452219e-05,0.00293423533073325,1.85896154700446e-05,0.000588480672195894,-0.00284627966772538,0.000345646802606258,-0.000419975324687652,0.0139720338636076,-2.16777826126445e-06,-3.15301827659321e-07,1.05216618107632e-14,-4.50102480217158e-15,-0.00167958913330176,0.707106781186548,5.46196790804792e-06,0.000112718821466933,-5.69069604498297e-05,-6.44255837484804e-05,2.02475650596512e-07,-0.00031176370439366,0.000107120259055975,8.26390827438491e-15,-0.0256927314142223,-3.67872616906571e-05,-1.05625779061973e-05,7.79476865866497e-05,-0.00102987736366712,0.000152373841338331,0.000308996153778009,-0.00010879380032107,9.19025265640857e-17,-1.36696209906972e-15,1.7320688205359e-05,-4.82336518926078e-17,-0.000149371265965723,9.28651595582818e-06,1.721806857993e-17,-3.85069324425598e-16,2.71994034841233e-18,-4.49977765836814e-16,8.01289325346326e-16,-5.5562124609774e-05,-0.00411719351045914,-1.75110541353449e-15,3.49954898895572e-05,-6.83612416128751e-16,-3.33897309326384e-16,-5.46697387972663e-17,-9.07649306840006e-06,-4.67879707065464e-17,-0.000608334078579467,-1.69872712312335e-16,6.43790005925469e-17,2.50018839517823e-16,1.02701539434773e-16,1.95757924100746e-16,2.73673564634647e-05,-8.92665469560578e-17,-8.83892132617637e-16,3.09573530436626e-17,-7.18532019264644e-16,-0.000381724448249942,3.56352257934089e-15,-8.59211798708462e-16,8.99253718926124e-15,8.42999674942643e-17,1.87421769955596e-15,-6.39236018343298e-16,0.0999999999999986
"t19",0.0201373445426571,0.117464954903478,-0.0387831043196645,-0.149767651265399,0.0118594890857361,0.0054426101375178,-4.08192675259092e-05,0.00302210701891965,-0.034276344303689,-0.00383185693696788,-0.0041848279760647,-0.0493310561933499,-0.00135971444197047,-0.0013716952968373,-0.00331149396316781,0.0769677743246575,0.0312960332054936,0.00918074184940485,0.000725961824384761,0.00318406800714594,0.327355091316353,-0.576063197638979,-0.0328588966538342,-0.00298691798991664,0.000163998104400377,-0.00443142614723679,-0.00382708397010448,4.92149048843057e-05,-5.53200494323022e-05,0.000842603305038419,0.00082951615793023,8.01859366442388e-05,0.00293423533073353,1.85896154698633e-05,0.00058848067219678,-0.00284627966772632,0.000345646802607171,-0.000419975324688859,0.0139720338636115,-2.16777826011721e-06,-3.15301828398731e-07,-1.03088976887894e-14,4.53698064346344e-15,-0.00167958913325947,-0.707106781186548,5.46196789973518e-06,0.00011271882146763,-5.69069604560477e-05,-6.44255837475223e-05,2.02475655765749e-07,-0.000311763704392491,0.000107120259055083,8.40268615246299e-15,-0.0256927314142218,-3.67872616912653e-05,-1.05625779091203e-05,7.79476865860373e-05,-0.00102987736366741,0.000152373841339361,0.000308996153777735,-0.000108793800321459,-1.31162003565559e-16,1.38083988687754e-15,1.73206882053045e-05,1.66872059128748e-16,-0.000149371265966028,9.28651595728377e-06,4.55144331489199e-17,5.25628982313914e-16,-1.39527384681617e-16,2.57789412361763e-16,2.65397399768958e-15,-5.55621246094921e-05,-0.00411719351045959,-1.52906080859765e-15,3.4995489889652e-05,-2.11767630662955e-16,-1.22261045257216e-16,5.39299295264387e-17,-9.07649306839739e-06,-3.36051599085722e-16,-0.000608334078579673,-6.20329111602418e-17,-7.34813035195646e-16,3.41999828886947e-16,2.44828001474007e-16,-1.36451107455593e-16,2.73673564633599e-05,-9.72054201327474e-17,-4.63862462643893e-17,6.62673270267069e-17,-2.70973360991921e-16,-0.000381724448249681,3.46290861773203e-15,-1.22003428064345e-15,8.98559829535728e-15,-2.811867832228e-16,1.8534037993315e-15,-8.06966319061764e-16,0.0999999999999989
"t74",0.0238000696429523,0.145558922130076,-0.0598183467319397,-0.245148345538852,0.021005663546591,0.015130184600483,-0.00048875556407739,-0.0200565907822309,0.0897909745299986,0.00906807144988929,0.00805487788168969,0.0940971699289683,0.00245344943392494,0.00172136434532696,0.00920854145728319,-0.285980454468318,-0.00304435501657385,-0.000961337509304088,-7.68791262036198e-05,-0.000329023873030396,-0.0291410121935931,0.0477438244621602,0.00228803962858794,0.000175783162643086,-7.89755834918414e-07,-0.000175386610854872,-0.000169930211527294,2.20874838256954e-06,-2.52165326986107e-06,3.95316011978438e-05,4.85427314354828e-05,7.12084663317041e-06,0.000295057615257282,2.01809624521855e-06,6.47745271554417e-05,-0.000341263312753503,4.32988850852093e-05,-5.36077787860313e-05,0.00188557998802323,-2.93374007969549e-07,-4.38014967422693e-08,-3.24406360964244e-16,9.33941167378797e-17,-0.000244730631274043,-1.48821292122996e-17,8.17620445783765e-07,2.054181023603e-05,-1.11226728284038e-05,-1.26547607890014e-05,4.34147312400354e-08,-9.7093365129478e-05,3.95591533400837e-05,5.91226740069196e-15,-0.0183891809837809,1.59792864399233e-05,6.8469161152232e-07,7.31073177387712e-06,-0.000137207893850363,2.07841469756152e-05,4.78326143461986e-05,-1.75560950427662e-05,4.9651256468861e-16,-2.21350715534641e-15,2.92197208998333e-06,-2.5514193306233e-15,-2.56894802878993e-05,1.59945114888498e-06,-4.39235712343789e-16,3.82255713541539e-16,-1.84988487987413e-15,-1.69606445567739e-15,3.59586519369065e-15,-1.1189390801779e-05,-0.0524886989981502,-1.65917191905723e-14,-2.38637939748784e-06,-1.24976343166234e-14,-1.13112539530928e-14,1.14965360940927e-15,5.46141819786361e-07,1.48781036913434e-16,0.893403141345117,-5.29657843754194e-14,-1.35490655350934e-15,1.88023669971378e-14,4.49142633211146e-15,2.15994049492779e-15,0.0120180799943199,-2.72355078148353e-15,8.49894179131507e-16,-1.20984902528722e-15,1.96317751036992e-15,-0.000367008260013416,6.26837479196037e-15,5.23298026876581e-16,1.28028700944746e-14,-4.41360144899832e-16,6.21859231322119e-16,-9.38950707965301e-16,0.100000000000002
"t79",0.0238457587073636,0.145906266538318,-0.0600695172734936,-0.246278238307297,0.0211129675016389,0.0152392997476008,-0.000493556417129302,-0.0202950156632532,0.0910347829552191,0.00919682206762843,0.00817592264324268,0.0955150552333474,0.00249105796284699,0.00175181729641901,0.00941267487461739,-0.292361029774552,-0.00312822992828896,-0.00098866965769495,-7.91041249209538e-05,-0.000338952743704249,-0.0300874638110933,0.0493329626787297,0.00236805167641418,0.000182173741747073,-8.24958163293097e-07,-0.000184967390526748,-0.000179450419577899,2.33280684165055e-06,-2.66381986986208e-06,4.17763611077854e-05,5.14845822558755e-05,7.64665046848001e-06,0.00031890107766965,2.19241736496403e-06,7.0443368230844e-05,-0.00037391434712627,4.76610866274466e-05,-5.91366870193355e-05,0.00209500600689054,-3.26086116851108e-07,-4.88703071572241e-08,1.21428074118587e-17,2.16868109467714e-16,-0.000275118331748564,4.09107048249025e-16,9.23344442876917e-07,2.39136663643933e-05,-1.30328174332842e-05,-1.48336135095544e-05,5.11616224476485e-08,-0.000115494765122278,4.71368809719919e-05,7.51109060161887e-15,-0.0219756199333029,1.91641497324716e-05,8.23577861564645e-07,8.89642270788807e-06,-0.000170581718081452,2.5942134239641e-05,6.25386941062718e-05,-2.38353893250924e-05,1.08466766580499e-16,-5.09314812546791e-15,4.27176221867783e-06,1.05196272803797e-15,-3.94633970151256e-05,2.46735469244091e-06,9.24521849587915e-17,-7.20362290491288e-16,-1.8631296488613e-16,-6.81718017754312e-16,2.91841793268492e-15,-2.61539369460555e-05,-0.261020211766327,-8.76854316983622e-14,-2.5388030949052e-05,-1.26872050516351e-15,-5.91982213857236e-16,3.79661956759892e-16,-5.97499460407158e-07,5.91982269048313e-16,-0.229857927818085,1.3218322445315e-14,-1.3854445399041e-16,-5.01553226976864e-15,-2.24893739562184e-15,2.15220485071654e-14,-0.821490722961425,8.04106041934868e-14,2.48570142292073e-16,-7.0285207098418e-16,1.99243621849429e-15,-0.000227724021108817,5.80767595057366e-15,-1.98058486626443e-15,8.07165110093874e-15,-6.71159213379652e-16,2.13180820543826e-15,-1.88687168482103e-15,0.099999999999932
"t80",0.0238480281972882,0.145923516000325,-0.0600819794439754,-0.246334288120236,0.021118289142948,0.0152447056149415,-0.000493793961177739,-0.0203068009808066,0.0910962058812208,0.00920317909184271,0.00818189680687849,0.0955850335825165,0.00249291386268426,0.00175331838356524,0.0094227156429224,-0.292674851686263,-0.00313234509953152,-0.00099001011070868,-7.92132198646471e-05,-0.000339439291980958,-0.0301337938860725,0.0494107242804388,0.00237196389748384,0.000182486014030732,-8.26671937212156e-07,-0.000185431751488462,-0.000179911564108195,2.33881567395406e-06,-2.67070514632477e-06,4.18850580321564e-05,5.16267993338904e-05,7.67192728929228e-06,0.000320044002247619,2.20075443654369e-06,7.07143613322364e-05,-0.00037547011408763,4.78685238802339e-05,-5.93993599436747e-05,0.00210492523661664,-3.27635231600833e-07,-4.91099607958807e-08,-1.32196838046051e-16,1.02425690667086e-16,-0.000276550525080442,-1.81010307899809e-16,9.28317844102157e-07,2.40703415224428e-05,-1.31213461735103e-05,-1.49345810079875e-05,5.15198648163417e-08,-0.000116342632477985,4.74858056994441e-05,8.13139057182201e-15,-0.0221405776358461,1.93104377731067e-05,8.29950121072898e-07,8.96885994819921e-06,-0.000172094392721214,2.61755883227171e-05,6.31936703447268e-05,-2.4111626645203e-05,-1.4423886611892e-15,-2.79290479632266e-15,4.32982376460637e-06,2.27395938890013e-15,-4.00477473011897e-05,2.50413339125177e-06,2.69430362722259e-18,-4.9913608016061e-16,-1.50960704212978e-16,-1.08253464488045e-15,2.06436922827174e-15,-2.67352782019286e-05,-0.268488248961422,-9.21112656913537e-14,-2.61826398514428e-05,3.32267852378914e-15,5.25201974470669e-15,-8.21458648271686e-16,-6.27244586838241e-07,-7.81691220959891e-16,-0.246912979681302,1.47367141961091e-14,-1.12481279923965e-15,-4.17810101305686e-15,8.60483418034086e-16,-1.79428253709863e-14,0.403112562532093,0.707106781186509,-1.58726798166599e-15,1.93379760903135e-15,-6.96335419469129e-15,-0.000217537801599716,-3.65413201407401e-17,-1.0901313504646e-15,8.59980054846093e-15,-5.82631130056685e-16,2.15441346976369e-15,9.25351510524855e-16,0.10000000000003
"t81",0.0238480281972883,0.145923516000325,-0.0600819794439754,-0.246334288120236,0.021118289142948,0.0152447056149415,-0.000493793961177756,-0.0203068009808064,0.0910962058812211,0.0092031790918427,0.00818189680687845,0.0955850335825165,0.00249291386268432,0.00175331838356523,0.0094227156429225,-0.292674851686263,-0.00313234509953166,-0.000990010110708483,-7.92132198646972e-05,-0.000339439291981013,-0.0301337938860724,0.0494107242804389,0.00237196389748346,0.000182486014030663,-8.26671937316796e-07,-0.000185431751488552,-0.000179911564107969,2.3388156739883e-06,-2.67070514609578e-06,4.1885058032971e-05,5.16267993337698e-05,7.67192728943381e-06,0.000320044002247857,2.20075443651905e-06,7.07143613324022e-05,-0.00037547011408754,4.78685238799147e-05,-5.93993599436302e-05,0.00210492523661659,-3.27635231734763e-07,-4.91099609571241e-08,4.82144034441015e-17,1.50118853600331e-16,-0.000276550525080559,1.72873281876151e-16,9.28317843576368e-07,2.40703415218822e-05,-1.31213461736823e-05,-1.49345810077672e-05,5.15198647594174e-08,-0.000116342632478032,4.74858057000923e-05,6.97259528986959e-15,-0.0221405776358471,1.93104377732084e-05,8.29950120840445e-07,8.96885994803554e-06,-0.000172094392722119,2.6175588321716e-05,6.31936703453935e-05,-2.41116266434061e-05,-2.80986797771381e-16,1.0998146837693e-15,4.32982376507444e-06,1.8298701790231e-15,-4.00477473014478e-05,2.50413339197531e-06,6.55441474497977e-16,4.47955100722216e-16,9.1242478656079e-16,-1.19355694734309e-15,1.42295616889441e-16,-2.67352782014937e-05,-0.268488248961423,-9.16810542691835e-14,-2.61826398520774e-05,6.85898840304351e-16,1.75997814467096e-14,-1.1745031747095e-15,-6.27244585793547e-07,6.18915373709056e-16,-0.246912979681305,1.37377212832886e-14,1.52825162486325e-15,-6.23209174061299e-15,-1.69635121093523e-15,-5.95885955929853e-15,0.403112562531955,-0.707106781186586,-3.20021103837829e-15,-3.69820383843771e-16,1.22454058555157e-15,-0.000217537801600208,3.77291143310516e-15,-2.32525454174794e-15,7.61447761410606e-15,1.03587668498617e-15,2.22558942795784e-15,-6.43951641475535e-16,0.100000000000029
"t60",0.0237045753352266,0.144832711235667,-0.0592925674807715,-0.242782468180842,0.0207809045691197,0.0149013078624354,-0.000478667767339355,-0.0195549073967928,0.0871703720020083,0.00879674188576091,0.00779964676381069,0.0911073810851257,0.00237413338943428,0.00165703849465655,0.00877607172573014,-0.272461518918165,-0.00286603122614202,-0.000903194021066994,-7.21443237656163e-05,-0.0003078781705474,-0.0271223129842928,0.044352553835235,0.00211710464673792,0.000162118299087635,-7.14084213820359e-07,-0.000154659528798189,-0.000149315998276812,1.94009905549445e-06,-2.21374962154023e-06,3.46686699345315e-05,4.21543472791998e-05,5.96960526995117e-06,0.000242628971984981,1.63348566566343e-06,5.22585473670708e-05,-0.000268819305026237,3.35909579810795e-05,-4.12858875300306e-05,0.00141665477064289,-2.2010964670488e-07,-3.24209230900777e-08,5.1182063094841e-16,-5.16651158005331e-16,-0.000176167796180232,-1.97852718436209e-16,5.78370699632297e-07,1.27603133706321e-05,-6.69609089734902e-06,-7.60425347934153e-06,2.53964314554549e-08,-5.4037858339409e-05,2.18095686984902e-05,3.01638889007503e-15,-0.00997297370366305,8.48846158277269e-06,3.57420387269575e-07,3.54668057413079e-06,-5.69141854909998e-05,8.34386075666337e-06,1.13313132170839e-05,-1.60935151274034e-06,1.3042537485839e-15,7.74033614980851e-15,-6.59876598034806e-07,-1.83484718502465e-15,1.19229159948531e-05,-7.76215147260759e-07,-6.03510138056113e-16,9.43553339817902e-16,1.13165380416416e-15,5.017717038661e-15,-1.79992383270476e-15,3.96015511647633e-05,0.885844523816106,2.99208914929275e-13,0.000119872552407955,7.83394044303862e-15,-1.39431768830644e-14,6.47098354061011e-16,-8.20031878013222e-06,-1.21547243683366e-15,-0.16449912756525,1.04905416292577e-14,-3.61224448333688e-16,-1.74768505292786e-15,-4.96987464235533e-16,4.93935032026336e-17,0.0030122774274697,-1.04271584847728e-15,1.72272811255868e-15,7.48065744846888e-16,-7.26688240274403e-16,-0.00057128101972498,1.5131132338384e-15,-6.15150107453285e-16,8.50684368200371e-15,4.088716863661e-16,1.94155424374837e-15,-1.18459767940805e-15,0.100000000000011
