"","c1","c2","c3","c4","c5","c6","c7","c8","c9","c10","c11","c12","c13","c14","c15","c16","c17","c18","c19","c20","c21","c22","c23","c24","c25","c26","c27","c28","c29","c30","c31","c32","c33","c34","c35","c36","c37","c38","c39","c40","c41","c42","c43","c44","c45","c46","c47","c48","c49","c50","c51","c52","c53","c54","c55","c56","c57","c58","c59","c60","c61","c62","c63","c64","c65","c66","c67","c68","c69","c70","c71","c72","c73","c74","c75","c76","c77","c78","c79","c80","c81","c82","c83","c84","c85","c86","c87","c88","c89","c90","c91","c92","c93","c94","c95","c96","c97","c98","c99"
"Platycarpum_orinocense",-0.034241989469922,-0.0207327243016126,-0.0936823118970421,-0.0152639634991733,-0.0177691888358889,-0.00774395822116845,0.312727985131136,-0.0635652913496154,-0.0147597005562802,-0.106165771107769,-0.0267381425016661,0.485809746820134,3.32062594255558e-05,-0.127636314879445,-0.00808729776286727,0.037156205281857,0.707106781186337,0.331743206847054,-0.0112296002565743,-0.0297271146105554,0.00337027001553951,-0.00949599646139519,4.23055316711958e-05,0.0019594725372356,-0.000213233891941729,5.59804022098503e-16,-2.74630687943365e-17,4.09165646331174e-17,0.00521421239037449,0.000584620644906693,0.00143805592799349,-8.75548519292651e-06,0.00322908148121579,1.00245365882575e-15,0.000479940725021713,-0.00156716711489607,-0.000551762840623612,0.00109904978729548,-7.62085179844228e-05,-0.00242180046552748,0.000130395180636984,0.00101067804567717,0.000101301409893745,-0.000783840992822394,5.39309714177193e-06,0.000227178050231221,-4.04869848353073e-06,-4.51685162195735e-05,-4.02712661695082e-17,-8.78885073782669e-16,-0.000154237969317123,-7.88622768471101e-17,1.0519860832439e-05,-2.73163422356026e-05,1.03724906984449e-16,1.24584065625057e-16,-1.47019669348678e-16,4.21149449844722e-16,0,1.05218063216127e-16,0,0,-5.92595360730419e-17,0,0.000298302827603425,0.000650481151773127,-0.000127840712140674,-8.12618007365949e-16,-1.45062074994362e-16,-8.35489800684675e-06,-7.90292182451901e-06,-6.54441765218768e-17,-3.77029299092989e-16,1.06928386385338e-05,1.37911927624257e-15,-3.98028348534238e-05,4.02525206074227e-17,4.066797717253e-16,-4.10196671643647e-16,2.03492822878346e-16,-4.4164779141818e-05,-5.45417905874747e-16,-3.23968384050569e-16,-4.20792190716894e-16,-1.05702094703265e-15,1.89864067235137e-15,3.80941454941015e-17,7.95761177321455e-16,5.79868617127341e-16,-5.30739994817965e-16,5.87261895858601e-17,-5.3911008418619e-16,7.88908266487866e-16,-4.4618596525999e-16,-3.21295043599402e-16,-1.25897067399699e-15,-5.11951723867199e-17,8.99906582894812e-16,7.14953974774987e-16
"Streblosa_myriocarpa",-0.0342419894699217,-0.0207327243016128,-0.0936823118970445,-0.0152639634991732,-0.0177691888358877,-0.00774395822116734,0.312727985131141,-0.0635652913496161,-0.0147597005562847,-0.106165771107773,-0.0267381425016675,0.485809746820163,3.32062594317863e-05,-0.127636314879467,-0.00808729776284215,0.0371562052773156,-0.707106781186758,0.33174320684661,-0.0112296002565627,-0.0297271146105567,0.00337027001553596,-0.00949599646139767,4.23055316676063e-05,0.00195947253723607,-0.000213233891944351,-7.51987717028209e-16,-5.31569931870334e-16,-5.50482635799187e-16,0.0052142123903723,0.000584620644905964,0.00143805592799364,-8.75548519015073e-06,0.00322908148121555,9.12047311301791e-16,0.000479940725025188,-0.0015671671148948,-0.000551762840620601,0.00109904978729711,-7.62085179845641e-05,-0.00242180046552615,0.000130395180635744,0.00101067804567879,0.000101301409892919,-0.000783840992818933,5.39309714012358e-06,0.000227178050229919,-4.04869847951533e-06,-4.51685162181229e-05,2.73161466101936e-16,2.02689682415923e-15,-0.000154237969318865,7.98653007596657e-16,1.0519860831573e-05,-2.73163422362681e-05,-2.72155418553422e-16,9.62956697625366e-17,-1.14938433348187e-15,-6.07239518781257e-16,-9.45176525364922e-16,4.47740316694938e-17,-3.52673752272448e-16,2.02995634557187e-16,1.04674884528005e-15,1.58651571251795e-16,0.00029830282760294,0.000650481151774282,-0.00012784071214127,-2.6022209517346e-16,2.65598559905058e-16,-8.35489800673587e-06,-7.90292182412992e-06,-1.05736796866522e-15,-4.57853944072877e-16,1.06928386388791e-05,2.9065970205335e-15,-3.98028348545152e-05,-1.87075364411585e-16,4.05549128155881e-16,-3.17065410083172e-16,4.04650807254754e-17,-4.41647791422295e-05,-5.1699565714465e-16,2.38436595317697e-16,-2.40020811736465e-16,-1.29619467327158e-15,1.59289215973573e-15,-7.34760030252136e-16,3.72473118811617e-16,2.37809895030846e-15,-7.60676113961856e-16,-3.94612574681373e-16,-2.49997552912116e-17,8.78001011156598e-16,-9.26014125204519e-16,3.69483318951174e-16,-1.89380193607185e-15,-7.06444577056759e-17,1.73338262041745e-15,4.60123454007586e-16
"Galium_eriocarpum",-0.0588783233731872,-0.14470697743467,0.0149256348481642,0.00169937353625404,-0.0841613792837324,0.000276437286914728,0.0181583684978116,-0.0141842326460742,0.00874191409308155,0.0319724456462582,0.00406948031243415,-0.0503648133135317,-2.5153324499056e-06,0.00683198794489957,-2.40269268357945e-05,-0.569985315006563,1.80714471165189e-12,0.0695940999593988,-0.000133613526939622,-0.121520468835014,-0.001380903522238,0.000392705969390511,2.77805361440997e-07,0.000129494331743612,-1.46697803680589e-05,-1.38688867944791e-15,-3.5325745971047e-16,-2.81813579498099e-15,0.20902104107601,-4.31607046397567e-05,-0.000928438343679659,-6.06759847920161e-05,0.0989389354262571,3.25407488337986e-14,9.4375953713751e-06,-0.236344982146186,0.00107887812000617,0.00179117072661727,-4.21780034085067e-07,-1.40839388878033e-05,1.37766224608435e-06,1.7278224212472e-05,1.75870798647288e-06,-0.0147001978634853,1.20816430856876e-07,5.17975553522709e-06,-1.06178230164351e-07,-1.40730540323515e-06,-7.93692938777578e-16,3.66969026422154e-15,-5.92178345112487e-06,3.36243692675084e-16,4.44526746531726e-07,-1.18653857559821e-06,1.72725618552101e-14,4.29416239197601e-16,-1.39389568161719e-14,-4.75160696848575e-15,4.02803150758187e-16,-1.13067590729766e-14,4.82636417513818e-14,-2.68188149931877e-14,-3.24210478050128e-14,-5.77006302333372e-15,1.52972078936493e-05,3.42124936244191e-05,-6.88180002711085e-06,-0.707106781186544,-3.23754451341277e-13,-4.53608405385756e-07,-0.000113815261023973,-7.96082594534748e-14,-1.39024953238434e-14,6.04820546954366e-07,-1.13403086296898e-14,-2.33056092570781e-06,1.95250325994532e-15,-4.20200146279544e-15,-3.83003921033659e-15,1.90881938631199e-15,-2.62154305723148e-06,1.23622347232777e-15,-4.64149159880247e-15,-4.62418601073486e-16,-5.54308360122694e-15,-2.60815944649119e-15,-4.00155191211708e-15,-5.17316509735922e-16,3.60629321403538e-14,-9.93160797682149e-15,2.12690860960591e-15,-2.85899312769332e-15,-4.09730176577479e-15,-1.09134034213895e-16,4.5265719556563e-16,-1.34052927405717e-15,-1.73188163669232e-15,-4.53022617751962e-15,-2.81796033029472e-15
"Asperula_popovii",-0.0588783233731871,-0.14470697743467,0.014925634848163,0.00169937353625355,-0.0841613792837328,0.00027643728691286,0.0181583684978158,-0.0141842326460729,0.00874191409308214,0.0319724456462582,0.00406948031243297,-0.0503648133135329,-2.515332449979e-06,0.00683198794490254,-2.40269268347073e-05,-0.569985315006555,1.80749165634708e-12,0.0695940999593922,-0.000133613526939362,-0.12152046883501,-0.00138090352223836,0.000392705969388997,2.77805363755103e-07,0.000129494331744819,-1.46697803702654e-05,-1.13436865870415e-15,-6.80212116303763e-16,-2.13366515926752e-15,0.20902104107601,-4.31607046415172e-05,-0.000928438343682183,-6.06759847911853e-05,0.0989389354262548,3.36628478871406e-14,9.43759536879964e-06,-0.236344982146178,0.00107887812001644,0.00179117072662164,-4.21780043998898e-07,-1.40839388968329e-05,1.37766224217244e-06,1.72782242166728e-05,1.75870799186483e-06,-0.01470019786348,1.20816425076862e-07,5.17975553577576e-06,-1.06178232797934e-07,-1.40730540550165e-06,-2.52012855079256e-16,-2.47044906213731e-15,-5.92178347248641e-06,-3.07653319964129e-16,4.44526750587743e-07,-1.18653858752335e-06,-1.59687825387488e-14,3.13997850530655e-16,1.40874565807137e-14,2.86583494871826e-15,-2.35614032214646e-16,1.30854978888861e-14,-4.77011691385459e-14,2.80686294768974e-14,3.3446413888397e-14,5.18097366766586e-15,1.5297207905159e-05,3.42124937022645e-05,-6.88180086864269e-06,0.707106781186551,3.24072401927275e-13,-4.53608145063559e-07,-0.000113815260449828,7.70227093313721e-14,1.36282008374421e-14,6.04820339560852e-07,1.2004736520864e-14,-2.33056089866306e-06,-2.51610294881328e-15,4.5634272582596e-15,4.49191115715515e-15,-1.94658512521639e-15,-2.62154307286546e-06,-1.48510683759325e-15,4.85230259057851e-15,-4.05014043758818e-16,3.13490446286212e-15,5.32259369278193e-15,3.78361444700922e-15,2.19454963220914e-15,-3.72765585525249e-14,1.07280182264929e-14,-2.23566280978278e-15,1.4984187176139e-15,3.98471141275993e-15,1.05558202914651e-16,-7.84088564694084e-16,-2.46331613058785e-15,2.05333749276057e-15,5.16961401311259e-15,3.58492268478615e-15
"Mycetia_obovata",-0.0584083531016479,-0.142436183067242,0.0138277840350392,0.00156175807546455,-0.0753141388779373,0.000239029259682689,0.0151339729376551,-0.011384859127191,0.00664501676753523,0.0238683149690217,0.00293267299794393,-0.0352385634535887,-1.71092787367739e-06,0.00449845427221668,-1.40315872525402e-05,-0.322292413105474,1.02270969470908e-12,0.0388008786407619,-6.56602668920946e-05,-0.0313859159353499,-0.000328053706238679,5.81095808110933e-05,1.57550439662228e-08,-1.3309313545516e-05,1.58734955316748e-06,2.98937377704162e-15,3.65801071581682e-17,1.37925997501084e-15,-0.062459756889838,1.95377457563306e-05,0.000528891050622836,6.29775912424242e-05,-0.102839835178582,-3.83156532117247e-14,-1.85626990556183e-05,0.895993484803537,-0.159131259830795,0.0525153542709452,-7.53650404923466e-06,-0.000245275209279127,1.579537664848e-05,0.000131549614043539,1.3227357220324e-05,-0.0804093232130464,5.27279947220345e-07,2.23606540243889e-05,-4.13730182948048e-07,-4.70582990719614e-06,4.53776177172673e-16,-2.82685893340126e-16,-1.62106788205311e-05,1.03167887558847e-15,1.11063202172666e-06,-2.88880347838011e-06,-1.20009557183929e-15,-1.225845130238e-16,-2.61693815166952e-16,6.15311957769707e-16,6.30878083823893e-16,5.99739490544249e-16,-2.64123357202915e-15,-3.97235041661045e-16,-1.44505427523216e-15,1.69147740129347e-16,3.20617854353213e-05,7.01655500376615e-05,-1.38395341702395e-05,-3.14880680199136e-15,-3.97483791291974e-16,-9.05745248856598e-07,-0.000225925786068304,1.45608550745937e-15,-6.48581682718886e-16,1.16762539195151e-06,2.83068781977801e-15,-4.37651304763667e-06,-4.7591452461979e-16,8.35149372334658e-16,-9.19153678422076e-16,2.29101453874907e-17,-4.87040310087202e-06,-1.68025103113739e-15,-6.15921726929401e-17,-4.19453709816681e-16,-1.20554747026852e-15,2.22654741532344e-15,-4.40800188053447e-16,-3.03973308529898e-16,3.52270478413384e-15,-1.90434124015225e-15,-7.8558715688705e-17,7.69366706462999e-16,1.61180950752531e-15,-1.55018901027543e-15,-3.41688518094706e-16,-9.20485093455629e-17,1.75116642336622e-16,1.47490866362666e-15,1.12578329731257e-15
"Oldenlandia_laurentii",-0.0607687689491535,-0.154429934301524,0.0236647719408356,0.00292395809710034,-0.210226890064574,0.00222707304000673,-0.077441415139302,0.0208256167011006,-0.00582218523571402,-0.017486539745393,-0.00158915106328578,0.0153352120124579,6.15756551324018e-07,-0.00132309755067943,2.14649574033096e-06,0.0419013467468685,-1.29118937763906e-13,-0.00470288133750352,4.26355382535614e-06,4.27520589863948e-06,5.94622378916594e-07,-1.95187854080649e-06,-3.58226426934577e-09,-4.03417018833025e-06,4.67012387471504e-07,1.08069264277969e-15,1.62471906004011e-15,1.9150912069279e-18,-0.0119126495215266,3.36363330296403e-06,8.69815885629065e-05,9.21450736571374e-06,-0.0150420532686306,-7.42989550317317e-15,-2.21204807823175e-06,0.0637847544765279,0.328446526374128,0.0186733035602469,-1.19551032731402e-06,-3.65718262628768e-05,-3.74249335369636e-07,-5.19243389750368e-05,-5.52036657862368e-06,0.544274300193817,7.30620105495335e-07,2.95770821914651e-05,-3.93424373704706e-07,-3.32504210228462e-06,-6.07367910776216e-15,0.707106781186536,-9.15128800042987e-06,2.74909100174781e-14,5.87019528779591e-07,-1.50353686523028e-06,4.75360145966998e-15,-1.89360047647191e-15,8.47855070357958e-16,2.32081346849866e-15,-5.61720113915025e-15,-1.54635618191545e-14,1.48013073093008e-14,-5.94455213038659e-15,-8.15955679989642e-15,6.41847193533338e-15,1.56550900291753e-05,3.40625873211007e-05,-6.68936484796754e-06,-2.65675561568633e-15,6.05873214405476e-16,-4.37306248031425e-07,-0.00219654216672786,2.23237384596609e-15,5.17860885282075e-16,5.60104523463528e-07,-2.10251500227898e-15,-2.09309754067462e-06,7.60990989477426e-16,-2.76293491732188e-15,-3.99152692737224e-16,-1.37108636248783e-16,-2.32747219518885e-06,1.07651971421445e-15,-5.85360709668098e-16,1.18781039594262e-15,-8.78885403052277e-16,-3.4936576511492e-17,1.60303163053344e-15,8.42521476158193e-16,-7.4719156376125e-15,-4.56833181631098e-15,-2.92266781274291e-16,-5.00402310218735e-16,8.05055676502674e-16,-3.8429395203699e-16,-9.29334341426941e-16,5.23239456320914e-16,8.88424811795772e-16,1.23332713175767e-15,-2.62597690849228e-16
"Kadua_cordata",-0.0607687689491535,-0.154429934301524,0.0236647719408357,0.00292395809710062,-0.210226890064574,0.00222707304000863,-0.0774414151393018,0.0208256167011007,-0.00582218523571509,-0.017486539745393,-0.00158915106328461,0.01533521201246,6.15756551098456e-07,-0.0013230975506816,2.14649574049912e-06,0.0419013467468666,-1.32352462323126e-13,-0.00470288133750217,4.26355382125839e-06,4.27520589789615e-06,5.9462237885802e-07,-1.95187853735846e-06,-3.58226642117601e-09,-4.0341701875341e-06,4.67012385561816e-07,2.85992201613481e-16,-7.98005305801802e-16,4.11775286839634e-16,-0.0119126495215301,3.36363330346844e-06,8.69815885635682e-05,9.2145073673329e-06,-0.0150420532686268,-6.32526934289238e-15,-2.21204807563782e-06,0.0637847544765256,0.32844652637413,0.0186733035602479,-1.19551032978164e-06,-3.65718262474646e-05,-3.74249340866358e-07,-5.19243389824638e-05,-5.52036658103673e-06,0.54427430019379,7.30620107785308e-07,2.95770821893624e-05,-3.93424344626777e-07,-3.32504210230066e-06,5.543349230117e-15,-0.707106781186558,-9.15128798511834e-06,-2.6503619376142e-14,5.8701952207664e-07,-1.50353683460643e-06,-7.82251723958724e-15,4.07180481814968e-16,-1.54084656144282e-15,-3.67497595530508e-15,3.56596796974919e-15,1.61241996530372e-14,-1.20032486991856e-14,3.11287575905402e-15,7.12079942785769e-15,-4.7380043577845e-15,1.56550900440685e-05,3.40625873289444e-05,-6.68936484538384e-06,-8.76992114502859e-15,8.46959973188369e-17,-4.37306245221244e-07,-0.00219654216673569,-7.16909868582432e-15,-2.2839368629707e-16,5.60104533618033e-07,2.3819738146653e-15,-2.09309753977916e-06,-2.05072470636154e-15,1.75886231057582e-15,-1.57229049964151e-15,-1.08749430974592e-16,-2.32747218852508e-06,-2.22041645499289e-15,-2.31472766263218e-15,-6.37809646979741e-16,-5.17402819887552e-16,9.5632413680779e-16,-3.34308795052028e-15,1.12868284463358e-15,8.4432003615368e-15,2.95521446622241e-15,1.23748701171523e-16,-3.30167640071625e-16,1.10710864859144e-15,-2.3753815490815e-16,-1.29376421115622e-16,-1.56328863160098e-15,-6.15627698221474e-16,3.7679958888443e-16,1.43387412297552e-15
"Mitracarpus_hirtus",-0.0615520284781472,-0.158382473113107,0.0267369012337135,0.00334633579346922,-0.251073983325778,0.00281061655831521,-0.103716233212307,0.0296535122987101,-0.00906674254746159,-0.0280617487497797,-0.00270577677996205,0.0274551095158482,1.15722903245901e-06,-0.00263166295348586,5.3108545432097e-06,0.110269370232707,-3.49789641695963e-13,-0.0127198505033678,1.49659670491356e-05,-0.0010637371617949,-2.04052482946719e-05,1.42256757398055e-05,1.4522408174388e-08,9.21087161432895e-06,-1.05061771396651e-06,1.85171197368909e-16,-6.86175142510775e-16,6.26366585277124e-16,0.0176122419333676,-3.87149353742352e-06,-8.52901292951835e-05,-5.45626526812303e-06,0.0088945712309563,3.96018176628126e-15,6.00757421139936e-07,-0.000861856330008529,0.269331085167881,0.0293317786822994,-3.4177348971487e-06,-0.000110498563194303,6.99525572902109e-06,7.90528588072754e-05,8.11038242124639e-06,-0.354125407544186,-2.65131287034717e-07,-1.03998158684811e-05,9.97637854591903e-08,4.1968100632878e-07,1.34159365679757e-15,2.07066737166879e-15,-1.95240993801133e-07,-1.60924147037148e-16,4.99830439258995e-08,-1.54741224558701e-07,5.03474215611792e-17,-4.66086401907309e-16,-3.76589543409966e-15,6.99407909576251e-15,7.45827175662618e-16,-6.60818317369211e-15,6.93449582996978e-15,-1.05031846642928e-14,2.24129625139989e-15,-2.2855635332976e-15,3.0086348360897e-06,6.47367993640467e-06,-9.04561077500278e-07,-3.3571808751279e-13,-2.07933934729605e-14,-2.06998520144261e-10,0.82009964321544,9.08542392780519e-14,-8.44407717671159e-15,1.88864691129739e-07,7.65210652403289e-16,-6.94766649059614e-07,-9.6092591022674e-16,2.00470046813843e-15,-1.13943355952371e-14,-1.61221417620304e-15,-7.82218733308526e-07,-3.16238519830182e-15,3.25241117449554e-16,-1.20251324289639e-15,-2.00856591751674e-15,3.49218757409804e-15,9.90311432566279e-18,1.81007260026926e-15,-2.94785630600129e-15,7.13634645017028e-15,-5.60572950223134e-16,-6.96688394553835e-16,6.06117677343264e-16,-3.27908140415688e-16,-3.9877321733103e-16,-2.80321694028473e-15,4.35874397059779e-16,2.65338852467747e-16,1.46313433147784e-15
"Spermacoce_humifusa",-0.061560711705661,-0.15842606435218,0.0267695290382514,0.00335080069143448,-0.25149932598348,0.00281658236420655,-0.103979919482336,0.0297405406060851,-0.00909797165166841,-0.0281627742112027,-0.00271629465510737,0.0275679933672342,1.16222055985254e-06,-0.00264358945208707,5.3386240914541e-06,0.110863858296976,-3.52488871424583e-13,-0.0127892905404733,1.50557522188272e-05,-0.00107179613035345,-2.05622862239308e-05,1.43420918196793e-05,1.46477925862882e-08,9.29678047352651e-06,-1.06043954883815e-06,-1.01697742780753e-16,-4.69785956339089e-16,-2.00155807461941e-16,0.0177891890310625,-3.91226468124495e-06,-8.62164213969468e-05,-5.52132939678601e-06,0.00900066153881416,3.62601835715385e-15,6.08742431244604e-07,-0.000874524691438754,0.274081685767641,0.0298716210262214,-3.48223452750673e-06,-0.000112587517442548,7.13254551383429e-06,8.07056908838061e-05,8.28038188257598e-06,-0.362218143997432,-2.71821201648274e-07,-1.06638162577662e-05,1.02464684967552e-07,4.32647141501888e-07,-7.49431717858626e-16,4.31804780400454e-15,-2.03372922473971e-07,-1.20092420347012e-15,5.26337975305791e-08,-1.63743044554716e-07,4.68519565610723e-15,5.86215244071183e-16,1.21401324925679e-16,9.5374818568222e-15,-8.42484133932541e-15,-7.76914591093478e-15,4.28548282373433e-15,-3.42359058704515e-15,-4.83195235516181e-15,7.40515657609392e-15,3.59890494803981e-06,8.70491653696428e-06,-2.04021917409978e-06,8.51049958807378e-14,1.12576815695106e-14,-1.65976024512241e-07,-0.404608877880073,0.707106781186503,-7.43742842148757e-15,1.4172594401431e-07,4.65555265427637e-15,-6.03644249277453e-07,-2.33106758350989e-15,4.86424661772093e-15,5.55110826989924e-15,8.5187474188504e-16,-6.96433777678195e-07,3.59489220401573e-16,-4.10435857471787e-16,-8.41149021940107e-16,-1.30664892914537e-15,4.02886564008949e-15,1.85397046606811e-15,1.09893718058351e-15,2.06747678192044e-15,7.1828206409339e-15,-5.30858466047929e-16,7.73698061971964e-17,3.35976884369856e-15,-2.98900538417023e-15,1.71993834075779e-16,-1.79057951581463e-15,-6.86733454190072e-16,9.25684375726443e-16,-7.65807583414683e-16
"Spermacoce_densiflora",-0.061560711705661,-0.15842606435218,0.0267695290382514,0.00335080069143366,-0.251499325983479,0.00281658236420653,-0.103979919482337,0.0297405406060851,-0.00909797165166783,-0.0281627742112031,-0.00271629465510753,0.0275679933672342,1.16222055983224e-06,-0.00264358945208681,5.33862409153688e-06,0.110863858296977,-3.51461915126805e-13,-0.012789290540475,1.50557522189838e-05,-0.00107179613035199,-2.05622862244961e-05,1.43420918196657e-05,1.46477927209099e-08,9.29678047323914e-06,-1.06043954920126e-06,2.84827154728794e-16,-4.6200159286009e-16,9.80500814015055e-17,0.0177891890310615,-3.91226468291498e-06,-8.62164213975088e-05,-5.52132939648546e-06,0.00900066153881199,4.32915373223566e-15,6.0874243018514e-07,-0.000874524691437353,0.274081685767638,0.0298716210262212,-3.48223452693164e-06,-0.000112587517439513,7.13254551525101e-06,8.07056908836999e-05,8.28038188143961e-06,-0.362218143997435,-2.71821201625912e-07,-1.06638162558272e-05,1.02464683915669e-07,4.32647141864314e-07,-3.32973366641985e-16,1.37007334046941e-14,-2.03372923130544e-07,1.58860395246426e-15,5.26338014111782e-08,-1.63743039218772e-07,-1.05818658630386e-15,1.04616156039124e-16,1.05255963205125e-15,-1.12414720638885e-14,7.45832981867548e-15,9.66431582589135e-15,-1.09306328491534e-14,1.1299061364606e-14,2.23578848075874e-15,-3.17553270371057e-15,3.59890495516008e-06,8.70491655991347e-06,-2.04021915340654e-06,2.38204750976547e-13,8.24335964421464e-15,-1.65975997484794e-07,-0.404608877879917,-0.707106781186592,1.31741412234117e-14,1.41725966875979e-07,-1.41170254278724e-15,-6.03644247488003e-07,4.08287533744509e-15,-4.13649070359482e-15,4.36419334172863e-15,3.23882452090431e-15,-6.96433782464856e-07,-5.63630796383221e-16,4.35271547848309e-16,8.25101648072531e-16,-1.39123746716134e-15,4.237480808782e-16,-2.09835586693188e-15,-1.92449572937392e-15,1.47411146626704e-15,-1.7675951823207e-14,1.10740687727183e-15,3.2601244216915e-16,-5.65597234432097e-16,7.60757685460969e-16,-8.73176318159244e-16,3.02179586033518e-16,-7.54058971150875e-16,2.7807106777734e-15,2.29946520796435e-15
"Manettia_pearcei",-0.0618028829285017,-0.159653297158552,0.0277535350817315,0.00348661981252347,-0.264800976570221,0.00300959102078315,-0.112809077627814,0.0327529012401105,-0.0102283845346953,-0.0318714602493249,-0.00311275954972413,0.0319140645435942,1.35816116318864e-06,-0.00312190516973075,6.53486864859548e-06,0.136922445089892,-4.35963765088587e-13,-0.0158556122970933,1.92678485104457e-05,-0.00153375509357393,-2.97181207650771e-05,2.16368685974631e-05,2.30863230144577e-08,1.58207714001046e-05,-1.80932937006855e-06,-5.59504229613698e-16,-4.26792208543104e-16,-1.49561533775152e-15,0.0332894024754622,-7.89418993896506e-06,-0.000184343671350491,-1.50027493056131e-05,0.0244762468175885,9.04159590421015e-15,2.84960549900125e-06,-0.0710563650899591,-0.42035218899063,-0.0324568016105036,3.11983527793882e-06,9.95479438728427e-05,-4.74904107847656e-06,-3.26534029128114e-05,-3.28038773781914e-06,0.0603814633306667,-1.0462941868554e-09,-1.29789210310552e-07,9.26032474895584e-09,8.94302304961857e-08,-4.05115891766435e-16,-8.05491677594637e-15,-7.22896767541468e-08,-1.26292654593463e-15,2.21396091143176e-08,-7.18065037138488e-08,1.91078909330904e-15,3.76355907769353e-16,-2.57692174488281e-16,2.03841828477448e-15,-6.44343101170008e-16,3.26630828523649e-15,-2.62576679973899e-15,-7.14346071211893e-16,1.99185335893668e-15,-1.53572357517557e-15,1.884913917157e-06,4.53402352785409e-06,-9.71083086767531e-07,-4.02673588702016e-14,-1.11571030394359e-15,-6.55413823109281e-08,-0.00183743639622156,-6.79443332106829e-15,1.50650895148599e-15,9.59117414304812e-08,1.66686654411583e-15,-3.98438490365408e-07,-8.89707325533825e-15,1.12880264297975e-15,-1.69661616263057e-15,7.55154663362617e-16,-4.60925473948325e-07,5.827004184549e-15,2.5363973537065e-15,-1.05643774615232e-14,-7.69625509692349e-15,5.0530885193931e-15,1.01525768735362e-13,8.18642842920053e-14,-0.687935030714397,0.439786380169562,4.20493400080859e-13,-7.25094612412591e-15,2.19755931827879e-15,-2.27981734129452e-15,-8.81277957477117e-15,-3.39280907969127e-15,-4.767311329447e-15,1.08564330481301e-15,1.26425825728625e-15
"Manettia_tatei",-0.0618028829285017,-0.159653297158552,0.0277535350817316,0.00348661981252329,-0.264800976570221,0.00300959102078284,-0.112809077627815,0.0327529012401112,-0.0102283845346952,-0.0318714602493247,-0.00311275954972414,0.0319140645435939,1.35816116297543e-06,-0.00312190516973073,6.53486864832221e-06,0.136922445089891,-4.34985381048136e-13,-0.0158556122970937,1.92678485107608e-05,-0.00153375509357379,-2.97181207652209e-05,2.16368685974371e-05,2.3086324094171e-08,1.58207714002064e-05,-1.80932936981914e-06,-8.90406096032725e-16,4.99367032327597e-16,-1.71582803955499e-15,0.0332894024754633,-7.89418993923472e-06,-0.000184343671350837,-1.50027493060728e-05,0.0244762468175896,7.46242419618803e-15,2.84960549887117e-06,-0.0710563650899635,-0.42035218899063,-0.0324568016105044,3.11983527712844e-06,9.95479438728124e-05,-4.74904107863815e-06,-3.26534029136547e-05,-3.28038773795809e-06,0.0603814633306675,-1.04629337742519e-09,-1.29789210783561e-07,9.2603238091895e-09,8.94302310802536e-08,5.65055610857375e-16,-7.58480671395666e-15,-7.22896758813952e-08,2.30723942960955e-16,2.21396090732636e-08,-7.18065067506315e-08,-3.33044031082483e-15,5.33063132905101e-16,6.10688414349512e-16,-2.23550195177987e-15,-2.5941252966497e-15,-1.11427223243334e-16,-3.5785352248829e-15,5.92075379009438e-15,2.21848727922033e-15,1.60479794034146e-15,1.8849139156871e-06,4.53402353015993e-06,-9.71083088351364e-07,1.19825122262198e-14,1.36460619100006e-15,-6.55413884167024e-08,-0.00183743639620652,1.49659379615844e-14,-2.44092896534993e-15,9.59117318060156e-08,-1.95416507656361e-15,-3.98438496775349e-07,3.39227115684131e-15,5.57704140371446e-16,-7.77862209478291e-16,1.40933350440692e-15,-4.6092549713529e-07,1.07621354432238e-14,2.69140073802263e-15,7.06654459404527e-15,1.13411739425053e-14,-8.10979414232099e-14,3.0240412312366e-13,7.64420054141849e-14,-0.0368986621080409,-0.815662402836678,1.50019451678213e-12,3.39813553815595e-15,-2.16315788280214e-16,-1.1684151318151e-14,1.35628435171873e-15,8.35491188095803e-15,1.69144450312025e-15,4.4633096485183e-15,1.3569960626014e-16
"Manettia_lobbii",-0.0618028829285017,-0.159653297158552,0.0277535350817315,0.00348661981252342,-0.264800976570221,0.00300959102078307,-0.112809077627815,0.0327529012401112,-0.0102283845346956,-0.0318714602493252,-0.00311275954972381,0.031914064543594,1.35816116336261e-06,-0.00312190516973067,6.53486864846147e-06,0.136922445089891,-4.34242919400418e-13,-0.0158556122970955,1.92678485096417e-05,-0.00153375509357431,-2.97181207650533e-05,2.16368685966401e-05,2.30863233072327e-08,1.58207714003873e-05,-1.80932936988304e-06,-1.5565498635861e-15,-4.19395880782382e-16,-8.80464671682372e-16,0.0332894024754624,-7.89418993906476e-06,-0.000184343671350445,-1.50027493055228e-05,0.024476246817589,8.05804179419474e-15,2.84960549978524e-06,-0.0710563650899636,-0.420352188990627,-0.032456801610504,3.11983527890822e-06,9.95479438732771e-05,-4.7490410772886e-06,-3.26534029147281e-05,-3.28038773823442e-06,0.0603814633306664,-1.0462951196849e-09,-1.2978921015746e-07,9.26032240753724e-09,8.94302291910581e-08,4.16307523039193e-16,7.48560348359186e-15,-7.22896790266969e-08,-3.85843581648615e-16,2.2139605093448e-08,-7.18065031931161e-08,1.01312368470088e-15,5.57564938173783e-16,4.42692457729105e-16,-1.37930817132761e-15,3.60502641030901e-15,-1.32439506502186e-16,5.08175788756229e-15,-1.16180599327168e-15,-2.54795474759383e-15,-2.54825143638468e-15,1.88491391820652e-06,4.53402352603037e-06,-9.71083086900949e-07,3.41245226735878e-14,-2.01218640671723e-16,-6.55413872602674e-08,-0.0018374363962154,-6.19768844533257e-15,4.20537564357631e-16,9.59117324418125e-08,2.73018505629242e-15,-3.98438494201168e-07,6.26515704149332e-15,-5.7683115666723e-16,2.08472672980941e-15,-2.73539621645376e-15,-4.60925484946225e-07,-1.56589541481391e-14,-5.55653977426192e-15,1.70575792101826e-15,-5.48995496522408e-15,8.16670444224677e-14,-4.03641632616382e-13,-1.55652662077611e-13,0.724833692822442,0.375876022667116,-1.92054655040814e-12,1.90966077800908e-15,3.87394140863087e-16,1.28541132306319e-14,7.57441887059583e-15,-9.00683035687529e-15,3.05128219100972e-15,-2.4810080648827e-15,-1.41499518500655e-16
"Psychotria_iridensis",-0.0626856250877116,-0.164635546290968,0.0443307168838318,0.00704893808908163,0.229993625083141,0.00107668321700754,-0.0595941487257756,0.0191774188327739,-0.00625270005621579,-0.0195369011706166,-0.00189980185331449,0.0192563224076779,8.05981146259367e-07,-0.00180556318827876,3.19909850756626e-06,0.062389505030232,-1.9684254226604e-13,-0.00696543685838859,4.58867639919737e-06,-0.0141149774736629,-0.000175818197149518,6.89882936824988e-05,6.3368905750197e-08,4.43492705657283e-05,-5.0938398040439e-06,-1.47238724407523e-16,-8.27384019056393e-16,-2.23405830343463e-15,0.123852821140184,-4.76292984295662e-05,-0.00250372900283538,4.25857716420294e-05,-0.0692152563728051,-2.35491893926284e-14,-2.74483815761933e-08,0.00226146826971071,-0.000285268900447086,0.00726893403614559,4.31266008527618e-07,1.29094509278562e-05,-3.0549640773374e-07,-8.1113004359981e-07,-7.69982857541167e-08,-8.65773625062615e-05,7.51701024064574e-09,3.29726167752868e-07,-8.23090618952067e-09,-1.39294974605476e-07,-6.87478698188813e-16,-4.44997982254621e-15,-7.66349556691639e-07,3.54146426010855e-16,6.44224328512845e-08,-1.77483360247024e-07,-9.55077105672227e-15,-1.99536543775898e-15,9.03358149171584e-14,-0.0369987702144716,-0.563405764202783,-0.303783933280987,-0.33270643255409,-0.464082405266457,0.364361603244094,0.0713787831687561,2.74847115482836e-06,6.31530652721727e-06,-1.30190931510588e-06,-1.84597950635853e-14,6.08170687512273e-16,-8.65868202365116e-08,-9.26802884925222e-06,-9.64875500442798e-15,4.04959584295414e-16,1.20512285378836e-07,-1.39214337898444e-15,-4.8126631217565e-07,4.10312588752251e-16,1.33074339378168e-16,-8.30079460127866e-16,-2.2335756784551e-15,-5.49003219197485e-07,-1.1783585963589e-15,1.15848082880056e-15,-7.96929458961052e-16,-1.10270712281581e-15,2.66508267756934e-15,-1.53129513085334e-15,-5.90357032829624e-16,4.51315882027959e-15,1.03284002339751e-15,2.45496024103932e-15,-1.54007901905574e-15,3.70712757571913e-16,-3.61487870992146e-16,1.20931704237308e-15,-8.249022031408e-16,9.43217270662465e-16,2.07690606989671e-16,-6.24631526634517e-16
"Psychotria_hathewayi",-0.0626856250877116,-0.164635546290968,0.0443307168838318,0.00704893808908167,0.22999362508314,0.00107668321700748,-0.0595941487257753,0.0191774188327743,-0.00625270005621559,-0.0195369011706166,-0.00189980185331472,0.0192563224076786,8.05981146143252e-07,-0.00180556318827872,3.19909850739241e-06,0.0623895050302323,-1.97945826396762e-13,-0.00696543685838801,4.58867639930221e-06,-0.0141149774736628,-0.000175818197149957,6.89882936822796e-05,6.33689058975098e-08,4.43492705657887e-05,-5.09383980395526e-06,-2.80858375653696e-16,-1.00974188484146e-15,-2.02241426781944e-15,0.123852821140183,-4.76292984299844e-05,-0.00250372900283617,4.2585771642624e-05,-0.0692152563728049,-2.31844868297942e-14,-2.74483818394173e-08,0.00226146826971015,-0.000285268900444897,0.00726893403614636,4.31266008112096e-07,1.29094509290992e-05,-3.05496406788585e-07,-8.11130044341475e-07,-7.69982851337318e-08,-8.65773625054575e-05,7.51701181818938e-09,3.29726168944219e-07,-8.23090571711371e-09,-1.39294972910663e-07,4.47945528011689e-16,-6.3885333069503e-15,-7.66349562291348e-07,1.76398765838428e-15,6.44224329120015e-08,-1.77483375775523e-07,-6.38791568559267e-15,-5.31068225260714e-15,-5.05770140129709e-15,0.323773811633086,-0.331893267867378,-0.11168538978411,-0.109740865889109,0.257795371808029,-0.598378862030009,-0.45933101077285,2.74847114546305e-06,6.3153064894373e-06,-1.30190930478996e-06,1.22656271429159e-14,-1.48349838402479e-15,-8.65868192971043e-08,-9.26802884295398e-06,-5.67276879748924e-15,6.00737975953405e-16,1.20512289035257e-07,1.80029262399049e-15,-4.81266309382789e-07,-3.35668275258018e-15,2.84096851327399e-16,-4.9714029370484e-16,9.08453302390133e-17,-5.4900321963833e-07,2.00272628216312e-15,-9.25655263657632e-16,-6.77546083144802e-16,6.70835351030477e-16,-2.70951028071097e-16,1.92122404956438e-15,9.72636548773136e-16,7.18017535711968e-16,-6.06907342270529e-16,-6.68816411939263e-16,-1.18844245234297e-15,-1.28627622078897e-16,4.46580056491705e-16,1.53867062624908e-15,1.69151942118681e-16,-7.98356151510111e-17,1.27250160013083e-15,1.57436379588788e-15
"Psychotria_holoxantha",-0.0626856250877116,-0.164635546290967,0.0443307168838318,0.00704893808908169,0.22999362508314,0.00107668321700747,-0.0595941487257756,0.0191774188327746,-0.00625270005621612,-0.019536901170617,-0.00189980185331453,0.0192563224076779,8.0598114602702e-07,-0.00180556318827923,3.19909850724496e-06,0.0623895050302329,-1.97210303642947e-13,-0.00696543685838836,4.58867639915281e-06,-0.0141149774736633,-0.000175818197149854,6.8988293681595e-05,6.33689055016837e-08,4.43492705661589e-05,-5.09383980483144e-06,-1.87805441539669e-16,-7.03291331962344e-16,-1.939523441521e-15,0.123852821140183,-4.76292984302029e-05,-0.00250372900283565,4.2585771642907e-05,-0.069215256372806,-2.39513395517605e-14,-2.74483812491776e-08,0.0022614682697133,-0.000285268900444771,0.00726893403614582,4.31266008232758e-07,1.29094509290741e-05,-3.05496409320845e-07,-8.11130044398559e-07,-7.69982863949808e-08,-8.65773625067395e-05,7.51700931253559e-09,3.29726168925808e-07,-8.23090201924261e-09,-1.3929497452448e-07,-3.63126718825516e-16,-1.12023909527859e-14,-7.66349563667678e-07,3.9136319344536e-16,6.4422432415799e-08,-1.7748336694254e-07,-4.58122929717899e-15,-1.39948990129911e-14,-3.92219698504607e-14,-0.317078187629153,0.207706256507058,-0.491738925808798,0.4828759573798,0.189289230176806,0.290259241287605,-0.369137281716171,2.74847109342672e-06,6.31530648412661e-06,-1.30190931817656e-06,2.31319349964347e-14,-9.11001812012839e-17,-8.65868182871263e-08,-9.2680288498755e-06,1.60613090770968e-15,-7.7775748849122e-17,1.20512297267617e-07,2.51117321339871e-15,-4.81266310602044e-07,5.02301749250733e-15,-2.64922301842759e-16,4.85654484268509e-16,-6.16046590499373e-16,-5.49003221852163e-07,-2.85440532128571e-15,-1.15178968098877e-15,-6.76120680562508e-16,1.95332447178838e-16,1.24171161801708e-15,-1.50367891448411e-15,2.8697396708426e-15,-3.71246622193403e-15,-9.6426037831994e-16,-1.79033940311211e-16,6.37009744875344e-16,3.294254450474e-16,5.11532627635851e-16,1.12129529349746e-16,-1.30384371573326e-15,-1.01805334324395e-15,-7.6784285789647e-17,-7.70416093238459e-16
"Psychotria_stenantha",-0.0626856250877116,-0.164635546290968,0.0443307168838318,0.00704893808908169,0.229993625083141,0.00107668321700725,-0.0595941487257754,0.0191774188327742,-0.00625270005621555,-0.0195369011706164,-0.00189980185331461,0.0192563224076785,8.05981146215358e-07,-0.00180556318827849,3.19909850755786e-06,0.0623895050302327,-1.97945826396762e-13,-0.0069654368583879,4.58867639930633e-06,-0.0141149774736625,-0.000175818197149253,6.89882936816802e-05,6.33689054148772e-08,4.43492705660148e-05,-5.09383980480988e-06,-3.9975812902323e-17,-6.85343576662955e-16,-9.63537706324974e-16,0.123852821140183,-4.76292984298062e-05,-0.00250372900283509,4.25857716426714e-05,-0.0692152563728056,-2.35270314872918e-14,-2.7448380158931e-08,0.00226146826971084,-0.000285268900446653,0.00726893403614708,4.31266009878458e-07,1.29094509292866e-05,-3.05496405773088e-07,-8.1113004587161e-07,-7.69982862319066e-08,-8.65773625081775e-05,7.51701539994444e-09,3.29726167391655e-07,-8.23090813266448e-09,-1.39294971966147e-07,-6.68518077915232e-16,-1.76722996694808e-15,-7.66349558235049e-07,-3.26732946774933e-15,6.44224368524395e-08,-1.77483367322669e-07,3.60956611246663e-15,5.93416874334348e-16,-1.73818981437255e-14,0.195211378207367,0.0374294773851626,0.527499499685087,0.502561214957107,-0.533306300495482,-0.0182853861767807,-0.141131462112677,2.74847114627148e-06,6.31530649282901e-06,-1.30190931672829e-06,4.49894507937424e-14,-1.75190744365269e-15,-8.65868315832663e-08,-9.2680288537922e-06,-5.94338565974161e-15,2.09942290937927e-16,1.20512294707677e-07,1.47587903321027e-15,-4.81266314635102e-07,1.88329317268133e-15,7.362628090866e-17,-1.42831357453401e-15,-2.23185363217712e-16,-5.49003218948947e-07,-3.68259894717477e-16,5.43378564310061e-16,-9.32839503651979e-16,-1.03807562287872e-15,7.59974658095194e-16,4.37016185300241e-16,7.87802864525394e-16,-1.34933916678345e-15,-7.29209793781606e-15,-8.31349874706497e-16,-9.41527685395768e-16,1.23833354977137e-15,-6.62490864746566e-16,9.4899486860471e-16,-2.04477441007516e-15,1.27446568255387e-15,1.51288097509024e-15,6.66418990705176e-16
"Psychotria_ermitensis",-0.0626856250877116,-0.164635546290967,0.0443307168838318,0.00704893808908177,0.22999362508314,0.00107668321700746,-0.0595941487257753,0.0191774188327743,-0.00625270005621618,-0.0195369011706165,-0.00189980185331426,0.0192563224076786,8.05981146090849e-07,-0.0018055631882779,3.19909850710331e-06,0.0623895050302341,-1.97425409353968e-13,-0.00696543685838916,4.5886763984657e-06,-0.0141149774736638,-0.000175818197149388,6.89882936826187e-05,6.3368906156066e-08,4.43492705662461e-05,-5.09383980425339e-06,5.02944558297622e-16,-1.94634062124803e-15,-6.29852365733579e-16,0.123852821140182,-4.76292984298717e-05,-0.00250372900283521,4.25857716414201e-05,-0.0692152563728039,-2.35004323373484e-14,-2.74483823817115e-08,0.00226146826971031,-0.000285268900441556,0.00726893403615062,4.31266011252681e-07,1.29094509295112e-05,-3.05496408485207e-07,-8.11130045244189e-07,-7.69982870476336e-08,-8.65773625059016e-05,7.5170152727514e-09,3.29726167808685e-07,-8.23090568080583e-09,-1.39294974892852e-07,1.12973331694759e-15,2.91403382045307e-14,-7.66349558031151e-07,-8.76127308822371e-16,6.44224367850656e-08,-1.77483363079824e-07,3.28838722964676e-15,9.04010582647539e-15,-1.64473907761373e-14,-0.0721253830115659,0.318744082706244,0.437170702662562,-0.545416921990174,0.222064308713427,0.355025822061268,-0.322872119067014,2.74847113133763e-06,6.31530650231348e-06,-1.3019093139123e-06,-6.82671755058314e-14,1.71107987698719e-15,-8.65868278617108e-08,-9.26802883659717e-06,2.24575070889508e-14,-3.73313353820437e-15,1.20512279362038e-07,4.23961062033863e-15,-4.81266312986854e-07,-3.05573889234057e-15,-2.88652925385606e-16,-1.26834032970554e-15,3.92629992577799e-16,-5.49003216049342e-07,1.75542186133903e-15,1.56218088509623e-15,-2.17845905815603e-16,-2.73829827231312e-15,6.37975953122107e-15,1.93532023627952e-15,-1.17189727067465e-15,4.71395306262403e-15,9.75160467821051e-16,7.14033012992626e-16,6.55690788183083e-16,2.38016182859694e-15,-1.77130632376006e-15,-2.01855229328678e-15,-5.12451521147731e-15,-5.07421129835611e-16,6.75841182710216e-16,2.85590455754209e-15
"Psychotria_andaiensis",-0.0626856250877117,-0.164635546290968,0.0443307168838318,0.0070489380890817,0.229993625083141,0.00107668321700738,-0.0595941487257752,0.0191774188327743,-0.00625270005621478,-0.019536901170617,-0.00189980185331488,0.0192563224076786,8.0598114558688e-07,-0.00180556318827873,3.19909850784707e-06,0.0623895050302331,-1.97952765290665e-13,-0.00696543685838852,4.58867639854306e-06,-0.014114977473663,-0.000175818197149729,6.89882936816634e-05,6.33689056517828e-08,4.4349270566393e-05,-5.09383980425696e-06,-1.00162347758307e-17,-4.69613722191916e-16,-1.29905338910737e-15,0.123852821140183,-4.76292984293647e-05,-0.00250372900283543,4.25857716419358e-05,-0.0692152563728076,-2.29167598818408e-14,-2.74483822848685e-08,0.00226146826970876,-0.000285268900446637,0.00726893403614603,4.31266010617424e-07,1.29094509270184e-05,-3.05496408224583e-07,-8.11130044668355e-07,-7.69982856445121e-08,-8.6577362506291e-05,7.51700968947164e-09,3.29726166207606e-07,-8.23090359976282e-09,-1.39294973226749e-07,2.41698753976981e-17,-6.1040386568901e-15,-7.66349550258703e-07,-8.27998922485037e-16,6.44224301071613e-08,-1.77483367003726e-07,-7.3859760684493e-16,9.33362512526591e-15,4.82144028099715e-14,-0.326913464118986,0.476456930702565,-0.202533858383997,-0.239464798388161,-0.33339688742099,-0.505662345360575,0.275508864914834,2.74847114477644e-06,6.31530649588923e-06,-1.3019093167422e-06,2.18413007303079e-14,4.15670837032694e-15,-8.65868260485288e-08,-9.26802884364615e-06,2.30695919200425e-15,3.4775872028857e-16,1.20512295147995e-07,9.08780312477686e-16,-4.81266310243694e-07,-6.97566425508107e-17,2.59484829043611e-15,3.67707839194231e-16,2.60509423630013e-15,-5.49003218884608e-07,1.10881800914713e-15,-1.55030145453683e-15,8.2276295624436e-16,-1.15963903788246e-15,1.1434237266292e-15,6.4734050702339e-17,9.61430988312934e-16,-2.22494084128359e-15,-2.28178285832483e-15,-7.38675741234119e-16,-1.46246459111169e-16,-5.28447154356308e-16,-1.72488945996603e-15,-1.3415850337867e-15,-9.81647925355432e-16,-5.44953228538991e-16,1.27206511292438e-15,-1.09771133016651e-16
"Psychotria_winkleri",-0.0626856250877117,-0.164635546290968,0.0443307168838319,0.0070489380890818,0.229993625083141,0.00107668321700741,-0.0595941487257754,0.0191774188327746,-0.00625270005621587,-0.0195369011706166,-0.00189980185331472,0.0192563224076784,8.05981146628979e-07,-0.00180556318827788,3.19909850730052e-06,0.0623895050302338,-1.96793970008713e-13,-0.00696543685838974,4.58867639870216e-06,-0.0141149774736632,-0.00017581819714971,6.89882936806384e-05,6.33689063035188e-08,4.43492705654697e-05,-5.09383980407673e-06,1.09850970195987e-16,-3.64728072698687e-16,-1.19629987862389e-15,0.123852821140183,-4.76292984302304e-05,-0.00250372900283552,4.25857716434014e-05,-0.069215256372806,-2.26329837589877e-14,-2.74483821032646e-08,0.00226146826971177,-0.000285268900444407,0.00726893403614741,4.31266010478589e-07,1.29094509283471e-05,-3.05496404084689e-07,-8.11130042021733e-07,-7.69982861995455e-08,-8.65773625086782e-05,7.51701356952037e-09,3.29726167021761e-07,-8.23090800062626e-09,-1.39294975994482e-07,-7.16687178643717e-16,8.296510765892e-16,-7.66349554127381e-07,2.99790904921639e-15,6.44224300453647e-08,-1.77483367926972e-07,-3.12466344998889e-16,-6.3750989075492e-15,-5.86459280502202e-15,-0.437764618754304,-0.379724800220261,0.329943883966531,0.181968730200983,0.42719119280417,-0.0787756393114026,0.456615497731226,2.74847117008081e-06,6.31530650631703e-06,-1.30190931564318e-06,-9.41147741289025e-15,-1.36813557443649e-15,-8.65868306221963e-08,-9.26802883406934e-06,4.98537223891242e-15,1.62021540960326e-16,1.20512291311852e-07,-2.8880698285825e-15,-4.81266308530395e-07,2.68334825532283e-15,7.49691147490778e-16,-9.66467354998781e-16,-6.08215681131563e-16,-5.49003218246778e-07,-5.49710945543245e-16,-6.13643064070507e-16,-2.50944310832789e-16,-2.21514368643741e-15,1.20222112894017e-16,-1.41836001733596e-15,-8.39568186709137e-18,7.3623213220882e-16,3.95281331433584e-15,1.2859659027341e-16,-1.13004764324618e-15,2.64701150245127e-15,9.72750860653818e-16,-2.12152898107216e-15,-5.77199251156037e-16,1.02983112452318e-16,2.10876467089367e-15,4.45064785304384e-16
"Psychotria_costata",-0.0626856250877117,-0.164635546290968,0.0443307168838318,0.00704893808908172,0.229993625083141,0.00107668321700752,-0.0595941487257754,0.0191774188327745,-0.00625270005621574,-0.0195369011706164,-0.00189980185331486,0.0192563224076785,8.05981146206813e-07,-0.00180556318827877,3.19909850745508e-06,0.0623895050302317,-1.97911131927242e-13,-0.00696543685838804,4.58867639956492e-06,-0.0141149774736633,-0.00017581819714931,6.89882936827837e-05,6.33689057966301e-08,4.43492705662507e-05,-5.09383980389002e-06,-5.41038983287224e-17,-7.31721496633171e-16,-1.91625408598101e-15,0.123852821140183,-4.76292984304494e-05,-0.00250372900283572,4.2585771642303e-05,-0.0692152563728054,-2.34899912896375e-14,-2.74483819634331e-08,0.00226146826971042,-0.000285268900446842,0.00726893403614577,4.31266008732432e-07,1.29094509287168e-05,-3.05496407882439e-07,-8.11130044228112e-07,-7.69982861160274e-08,-8.65773625040706e-05,7.51701103622511e-09,3.29726170132244e-07,-8.23090636246265e-09,-1.39294973708312e-07,1.1307825276934e-15,-7.88646702845627e-15,-7.66349563052202e-07,-2.65537668159159e-15,6.44224308282102e-08,-1.77483373299788e-07,1.53767361678927e-14,9.65567998366616e-15,-5.66142122838896e-14,0.67189523388803,0.23468708498939,-0.184871979056287,0.0599231162836442,0.234445489680498,0.191455566285802,0.488968727853894,2.74847111576803e-06,6.31530651053129e-06,-1.30190931980068e-06,-2.01528851761386e-14,-2.22689988132987e-15,-8.6586818515736e-08,-9.26802884679888e-06,-1.02524387740681e-14,-3.04455486295539e-16,1.20512293795253e-07,1.0293544259057e-15,-4.81266313350415e-07,-3.71034338215451e-15,-4.92853906345904e-16,7.83956266395617e-16,2.12748889642488e-15,-5.49003221022763e-07,-3.19166333284231e-15,-1.35071189683261e-15,-1.54998356845418e-16,-7.79301470837804e-16,2.95062254966842e-15,-1.30081884239594e-15,9.08847811750996e-16,2.08367859217502e-15,3.4849161212324e-16,-7.03726904644164e-16,1.28420876015427e-16,4.00140370768716e-16,-2.24281337930895e-15,-3.4562221117073e-16,6.47142125639344e-16,-1.157052801636e-15,1.5233349206057e-15,1.60159865482525e-15
"Rudgea_itoupensis",-0.0611181776609082,-0.156539866936718,0.0340896991454255,0.00525562267868944,0.153964888501117,0.000617971827763207,-0.0283057358331373,0.00723227767296331,-0.00151121839586623,-0.00387314494938856,-0.000219408607534503,0.000929239720808859,-1.14578556241633e-08,0.000151956759969287,-1.03771708466363e-06,-0.0239869125730117,7.75352004822594e-14,0.00285660469038158,-2.86833044865428e-06,0.0196531419418796,0.000256909739521091,-0.000121448899664962,-1.3101159426666e-07,-0.000115730048271832,1.33870250895453e-05,-4.22644206726269e-16,3.34828079439298e-15,3.75112842231935e-15,-0.406929516288082,0.000182129210706821,0.0106103376154323,-0.000252790723705397,0.411247005559255,1.37484921206731e-13,2.61134774393356e-07,-0.0395125063418477,-0.0278124059431771,0.3128231552631,1.41467769437335e-05,0.000416756719941045,-7.40583091106577e-06,-1.41530125731579e-05,-1.32939071340414e-06,-0.00111786739139481,7.74898846064871e-08,3.36076730270987e-06,-7.52826911929062e-08,-1.07572966326963e-06,3.9867530972071e-16,8.1985684355153e-15,-4.67035411374264e-06,7.38993085338087e-15,3.49967349679156e-07,-9.32440501011688e-07,-0.707106781186547,6.07886017115365e-15,-5.54789528513939e-15,7.55062477860816e-15,7.6556622416649e-15,2.91990672989124e-15,2.72670867950067e-15,2.3877878364093e-15,1.27702353031112e-15,7.7967799078938e-15,1.17929492845009e-05,2.62768056428663e-05,-5.26693341020787e-06,-1.78395621208119e-14,4.89199127697394e-16,-3.46706990966076e-07,-3.67950156915138e-05,2.45268687998838e-15,-1.99797667446898e-16,4.59342416301622e-07,2.3422269158861e-15,-1.7603681990545e-06,4.66614077041006e-16,2.20612649427921e-16,1.65475642228868e-15,3.33362753001151e-17,-1.9759075586866e-06,-1.80604032505563e-15,-6.20831714276642e-16,-8.35571395523708e-16,-1.07827495525589e-15,8.78479980339324e-16,2.20583429131844e-16,3.03951585209503e-16,2.70662224436683e-16,1.9535635142018e-15,5.72285020352614e-17,3.64092313543607e-16,1.16211376823047e-15,-1.08129567185769e-15,-9.86720134762374e-17,3.55293154895264e-16,6.88377706679905e-16,1.16929446917932e-15,-4.07581555761211e-16
"Rudgea_insignis",-0.0611181776609083,-0.156539866936718,0.0340896991454255,0.00525562267868934,0.153964888501117,0.000617971827763084,-0.0283057358331373,0.00723227767296309,-0.00151121839586633,-0.00387314494938835,-0.000219408607535433,0.000929239720809012,-1.14578557833013e-08,0.0001519567599692,-1.03771708460378e-06,-0.0239869125730112,7.7111927954121e-14,0.00285660469038209,-2.86833044871359e-06,0.0196531419418795,0.000256909739520523,-0.00012144889966478,-1.31011595476611e-07,-0.000115730048271918,1.33870250895474e-05,-1.58690386314563e-16,3.00058394002047e-15,3.78742103248947e-15,-0.406929516288082,0.00018212921070686,0.010610337615432,-0.000252790723705626,0.411247005559256,1.37538316968553e-13,2.61134774806412e-07,-0.0395125063418451,-0.0278124059431776,0.312823155263101,1.41467769429134e-05,0.000416756719942349,-7.4058309134612e-06,-1.41530125722912e-05,-1.32939071255207e-06,-0.00111786739139034,7.74898848170614e-08,3.36076730235879e-06,-7.52826873949949e-08,-1.07572966633895e-06,1.60711965765167e-18,-4.3747073183646e-15,-4.67035411886991e-06,-5.41726090687929e-15,3.49967352935879e-07,-9.32440516532121e-07,0.707106781186547,-5.68724701050929e-15,3.95817883891437e-15,-7.63210876399009e-15,-8.10256581410815e-15,-6.17351373117404e-15,-9.94273176469365e-16,-3.95783063871353e-15,-3.50213964600804e-15,-5.63041347703584e-15,1.17929492775098e-05,2.6276805647535e-05,-5.26693342471926e-06,1.51271228166513e-14,-8.09140515853014e-16,-3.46706992556488e-07,-3.67950156896753e-05,-3.1123060309453e-15,-9.09586696087106e-16,4.59342414624304e-07,-7.53677201587529e-16,-1.76036819406189e-06,-1.20408703204272e-16,7.18609735119357e-16,-2.13187037449003e-15,-1.17699514367273e-16,-1.97590755475605e-06,1.70615954777609e-15,6.62285093374552e-16,1.75291718516679e-16,-9.08825920459251e-16,3.43810002398371e-15,-1.33959600178229e-15,1.55168612115591e-15,7.77201479422391e-16,-3.35642504576391e-15,-3.24547897576646e-16,-3.7339495624255e-16,1.18399728315245e-15,3.76121368261053e-16,1.94791719550178e-16,-3.30839724583398e-15,-3.95854918844607e-16,1.17051343855788e-15,2.16841374993105e-15
"Coelospermum_paniculatum",-0.0601386739207084,-0.151526281329933,0.0281733858640663,0.00422906027081521,0.111737761314497,0.000372868462529676,-0.0122616042574427,0.00135788605831477,0.000685011583444883,0.00324041697311528,0.000515004375894805,-0.00682874731247231,-3.47143145984797e-07,0.000928347036567061,-2.51821329516849e-06,-0.0531712376068436,1.68420832835636e-13,0.00612703900184058,-5.04956239444148e-06,0.0249588695271659,0.000319921428190651,-0.000139875690167243,-1.40435968357984e-07,-0.000110530683895337,1.27372115277181e-05,-5.41191460031101e-16,1.40743617922187e-15,4.11826268912411e-15,-0.339798991852055,0.000137025919015333,0.00736787730979984,-0.000124458272946344,0.20223197117357,6.86783560990299e-14,4.71211398800872e-08,0.00965345568831587,0.0542104603895616,-0.886650286984908,-5.06666517781093e-05,-0.00151788694373761,3.99066603019676e-05,0.000196169723960411,1.94511576241294e-05,-0.0287891868736108,6.26087325017061e-07,2.62467086279398e-05,-4.45703482242637e-07,-4.6328275555415e-06,-3.47253997775106e-16,1.0817849884271e-15,-1.46505471817829e-05,1.43354901307629e-15,9.72885683787761e-07,-2.51005121662951e-06,9.46595955371341e-16,-1.53650955048429e-16,3.91956287699027e-16,-3.65138547312771e-16,7.18858322192874e-16,2.29806559551174e-15,-1.40508305986651e-15,7.73526777499841e-16,2.93368049506634e-16,-6.50677262614777e-16,2.67262688092649e-05,5.81810368813931e-05,-1.14228380493737e-05,1.31346998108725e-15,1.44938464795996e-16,-7.46349688758197e-07,-7.87232271228335e-05,-1.06485265613626e-16,-7.84514222344041e-16,9.54983254289691e-07,1.31774674079085e-15,-3.55871676764183e-06,6.03575564749599e-16,3.10663069762367e-16,-5.41267772495719e-16,-1.0877563973293e-16,-3.95170755315856e-06,-2.3296561170566e-16,-1.04323507116055e-16,-5.14168551362555e-16,-8.16427820754777e-16,1.25724014688727e-15,-1.66467672892383e-16,1.27290144870252e-15,3.41691704887318e-16,-1.82323979187896e-16,-1.54651167487906e-16,-6.07785918196827e-16,1.05172304626406e-15,-1.78478137613454e-16,-1.98702161555246e-16,-1.7812614559323e-15,2.4838569703116e-16,1.22458368383926e-15,-6.11275242340091e-17
"Faramea_nigrescens",-0.0574739338716925,-0.137798344702519,0.0111486367928914,0.00125567667853387,-0.0132283366432734,-0.000372698317519658,0.0379871794756909,-0.0175926380103362,0.00807599287454654,0.0275153442928117,0.00308987708323122,-0.0346475295432584,-1.57685260569126e-06,0.00384298927132464,-8.59496443871986e-06,-0.175838254412959,5.58580959264532e-13,0.0200159877220275,-1.5203405442023e-05,0.0638559585679528,0.000809379427274568,-0.000337257136531689,-3.21485763552412e-07,-0.000226273000575758,2.59567460399639e-05,5.61536226994664e-15,2.29231865796431e-15,1.05981973623578e-14,-0.558493224516643,0.00016258265666473,0.00524254795827211,0.000451958483115392,-0.739519466922924,-2.41372663679804e-13,0.000172505769416522,-0.241964434219823,-0.0391026923314996,0.0911340865328866,-8.01417226178976e-06,-0.000264331101846759,1.86608153570624e-05,0.000158202152121984,1.58934121960371e-05,-0.0315720387345365,8.0685409639205e-07,3.40593656444738e-05,-6.14783999946313e-07,-6.9127113496058e-06,6.29659596483359e-16,-7.67736260416426e-17,-2.36907968852049e-05,-1.30374209615132e-15,1.61816922806853e-06,-4.20410435818094e-06,8.74819006996809e-16,8.68874723995134e-17,1.34616292789744e-16,8.71403470880759e-16,-1.17149305531902e-15,4.58286876314094e-17,-2.36339941645789e-17,7.68211403473888e-16,7.17754486466983e-16,-6.77992554931051e-16,4.61807388632504e-05,0.000100847453671524,-1.98493182743161e-05,-7.51501698849768e-16,-1.21193831018187e-16,-1.29800189481635e-06,-0.000137000136065238,1.02848851034024e-15,-6.08052100747278e-16,1.66643196320563e-06,8.09337446777684e-16,-6.22241569197967e-06,2.13779054809077e-16,3.84663656891837e-16,-7.0252253018568e-16,1.77847701056838e-16,-6.91365686455882e-06,-4.15182388575954e-16,-1.62529348966148e-16,-4.23103150229751e-16,-1.06726717393453e-15,2.0964678732357e-15,1.99492246354664e-16,3.73957885134397e-17,9.25619463780055e-18,-9.56229815710395e-16,1.77068672328965e-16,-1.12697151770533e-15,8.76238647355131e-16,-5.89621115799005e-16,-3.97231202590593e-16,-1.50227755089206e-15,-2.06399739424756e-16,1.42437737073617e-15,6.32623320657549e-16
"Lasianthus_lancifolius",-0.049635837936548,-0.0978124743445409,-0.0297758546574599,-0.0053656481472554,-0.0286551469870141,-0.00408851389113752,0.227021778953426,-0.0822217964638616,0.0309207148476695,0.100115355395946,0.0102518033946524,-0.106445221745273,-4.47593534994231e-06,0.00981181962146451,-8.64408502939903e-06,-0.053944115203503,1.70863323489812e-13,-0.00136060370235489,0.00013756824919319,0.93166514874764,0.0123875909130374,-0.00869492375363465,2.81094455238523e-05,0.00109420029015738,-0.000118894808587976,-2.47718196315634e-16,-4.8001753230336e-16,-2.90075347045864e-15,0.145367001366253,0.000220130296674668,0.0164855029652136,-3.27882860507533e-05,0.0492214371306448,1.70972728987103e-14,0.000178740123911095,-0.0168438693621845,-0.00496366405040748,0.00955804370440944,-2.75693598132982e-05,-0.000877116891054462,4.77052228534036e-05,0.000371641155174851,3.72563669661964e-05,-0.00603357755561065,1.97944830394349e-06,8.34016723442597e-05,-1.48907318524266e-06,-1.66525657672985e-05,1.48882375548593e-16,-1.28518939910837e-15,-5.70954240583856e-05,-5.49200523397443e-16,3.90464434256147e-06,-1.01481191192765e-05,9.02092502531507e-17,3.34837415676636e-18,-2.5394458592692e-16,-1.37221774834925e-16,2.8167927396424e-16,2.13580279495871e-16,-1.87253214968302e-16,7.36986066032563e-16,6.84634152253946e-16,-1.5068278502055e-16,0.000111604162985182,0.00024369666458823,-4.79579256943841e-05,-3.86569656734981e-15,9.2845614218038e-17,-3.13583039772508e-06,-4.27925327060132e-05,3.20369405369882e-16,-2.53454326601309e-16,4.02371720527986e-06,9.72819919781848e-16,-1.50135741537471e-05,8.17583645606392e-17,6.63297294569904e-16,-5.12934996225894e-16,2.68087093668381e-16,-1.66755003840565e-05,2.0724974523708e-16,-2.0160461485432e-16,-3.46155692007086e-16,-6.59197650759592e-16,2.03491518233656e-15,3.14296069319251e-16,8.79629633922042e-16,5.13676778566362e-16,-2.80049190161715e-16,5.67961157960588e-17,-4.93826443706413e-16,1.11914415153383e-15,-7.00694100663789e-16,-9.57234269785846e-17,-1.26317741681694e-15,-2.96255591470001e-16,1.1557076400315e-15,5.138081710203e-16
"Urophyllum_enneandrum",-0.0489469695886313,-0.0937162840952672,-0.039322436729871,-0.00704403473535156,-0.0338463219259257,-0.00570428261773921,0.33618283980145,-0.131411295321263,0.0567572191770769,0.194124380299756,0.0224926593583337,-0.264631453125493,-1.28574261446297e-05,0.0348091857887139,0.000534537670245851,0.148416836041524,-4.954786581024e-13,0.0438579517125597,-0.000267723074733379,-0.15188983894678,-0.00153433676996331,1.29928049369585e-05,2.05315899950464e-06,0.000144920861598925,-1.58331548103009e-05,1.03558310639334e-16,2.60360380482765e-15,1.18336059055792e-15,0.00888751205279843,-3.80557601654336e-05,-0.827997875886312,-1.31117717353442e-05,0.0187559384678116,5.96024772566934e-15,0.000102327249994654,-0.00649717097113827,-0.00207647203298722,0.00406425328296077,-1.70967480943666e-05,-0.000543943064863482,2.97323883366598e-05,0.000234301739328777,2.34988337076121e-05,-0.00274470297646353,1.29046208391791e-06,5.44183302376775e-05,-9.80211722307814e-07,-1.11399280938059e-05,8.07731760795854e-17,-1.49883897058283e-15,-3.92602561090486e-05,3.15780617828223e-16,2.72725983703294e-06,-7.12256990247275e-06,2.73866378818762e-17,-1.30552804174452e-16,-6.55827737794498e-16,3.10061315308438e-17,-2.87611460784304e-17,6.62065730724027e-17,1.58661521275382e-16,-6.94573649781602e-16,1.94775315744921e-16,2.07363831368574e-16,8.0908378950875e-05,0.000177624041548792,-3.51316031418428e-05,-4.54471640532745e-15,-1.86499976061992e-16,-2.30145040600414e-06,-2.37340511766967e-05,1.46894437278662e-16,-3.11229850423751e-16,2.98025255079651e-06,9.37556503585613e-16,-1.12083855505888e-05,-1.45799440109896e-16,3.73489778667549e-16,-5.70203231150636e-16,2.00553234330825e-16,-1.24886132349009e-05,-1.08667002431592e-16,-5.04331139172129e-16,-5.20160142424469e-16,-1.12005220235837e-15,1.54251643984721e-15,-5.0541568033683e-16,6.28926063908837e-16,9.34033818126996e-16,-4.2509845130084e-16,-8.05147836278546e-17,-4.65972170531899e-16,1.08165894664556e-15,-3.52555030312461e-16,-1.92341389027582e-16,-1.05832308590482e-15,-4.43673129989152e-17,9.29264058102125e-16,4.78114267243236e-16
"Ophiorrhiza_jojui",-0.0489923730720952,-0.0938881411163909,-0.0396752002888828,-0.00711399864850417,-0.034290865959253,-0.00580303356866746,0.343527748627163,-0.134900581575698,0.0586560837155654,0.201068935587947,0.0233999641848652,-0.276327339028054,-1.34734408451386e-05,0.0366270939691765,0.000571115722161697,0.159230160136031,-5.3147763967587e-13,0.0471384247504267,-0.000292450846720274,-0.179617087895861,-0.00183162967118007,1.62676585161906e-05,2.74104219961921e-06,0.00023233667344641,-2.56102866884087e-05,-6.50330803691145e-16,-2.14877535809766e-15,-4.0077893783939e-16,0.0276653457555305,0.00012568333315407,0.396091930540115,-6.36470368031612e-06,0.00911992161031049,0.70710678118655,7.106313324033e-05,-0.00501502360576963,-0.0017378275299332,0.00343856011421564,-1.45461572696822e-05,-0.000462965598815218,2.54951682783492e-05,0.000203055569714638,2.03728020575969e-05,-0.00240694041143347,1.14318974964806e-06,4.82338396309541e-05,-8.73409494333118e-07,-1.00126765108051e-05,4.59229573258009e-17,-3.8649662831916e-16,-3.57457943031199e-05,3.03895670425576e-16,2.49933372772859e-06,-6.5398242862667e-06,5.63146776682558e-17,-2.60393141059683e-16,-3.03252219459814e-16,5.69889045074977e-16,-4.03680983506482e-16,-6.21256294346624e-16,2.74559341947054e-16,1.53395071055558e-17,4.70194120788378e-16,-2.99157804638579e-16,7.51648661180047e-05,0.000165310792731968,-3.27497945979628e-05,-2.94886937276676e-15,9.54642422456899e-17,-2.14670589689788e-06,-2.21492472427492e-05,3.27152290679397e-17,-2.90637832371958e-16,2.78786033240637e-06,7.26633250602366e-16,-1.05099707098544e-05,-9.75071144998076e-17,2.32960419784245e-16,-4.74492382565258e-16,3.94350553873924e-16,-1.1721435215965e-05,-7.23902177093982e-16,-3.87373346118453e-16,-4.19500984484537e-16,-8.57028652146612e-16,2.06559591063614e-15,4.49480425870415e-16,8.5870713510385e-16,1.33191931652289e-15,-1.24339162299787e-15,-1.45282862996039e-17,-2.10515670351883e-16,1.10464146447126e-15,-5.60057336194712e-16,-3.1663622025312e-16,-1.14288457796546e-15,2.16107114861843e-17,1.21398797952353e-15,9.17634279389073e-16
"Colletoecema_magna",-0.0489923730720952,-0.0938881411163909,-0.0396752002888828,-0.0071139986485042,-0.0342908659592529,-0.00580303356866742,0.343527748627163,-0.134900581575698,0.0586560837155653,0.201068935587947,0.0233999641848653,-0.276327339028054,-1.34734408450192e-05,0.0366270939691764,0.000571115722162902,0.159230160136031,-5.31394372949023e-13,0.0471384247504266,-0.000292450846720659,-0.179617087895859,-0.00183162967117921,1.62676585149448e-05,2.74104220099164e-06,0.000232336673444771,-2.5610286689533e-05,-9.97949251646457e-16,-9.8129687911267e-16,-2.59772341622495e-15,0.0276653457555256,0.000125683333157636,0.396091930540115,-6.36470377849901e-06,0.00911992161077883,-0.707106781186545,7.1063133250983e-05,-0.00501502360577684,-0.00173782752993295,0.00343856011421523,-1.45461572677494e-05,-0.000462965598813478,2.54951682797932e-05,0.000203055569713505,2.03728020578453e-05,-0.00240694041143746,1.14318975094718e-06,4.82338396306019e-05,-8.73409494802779e-07,-1.00126765102459e-05,1.44011015834114e-16,-1.71876425786935e-15,-3.57457943017761e-05,-3.57207322885655e-16,2.49933372772198e-06,-6.53982428542964e-06,5.63146776685929e-17,4.71218762433237e-16,-3.43328721901984e-16,3.6692639838686e-16,-3.20414256659554e-16,7.95719899483622e-17,1.28842569964964e-16,2.92895263261918e-16,-7.92684569722909e-16,3.46159328424776e-16,7.51648661182003e-05,0.000165310792731796,-3.27497945974796e-05,-1.56109059198531e-15,-1.08903984696287e-16,-2.14670589661965e-06,-2.21492472430278e-05,-7.8607425159317e-16,-4.72205626850328e-16,2.78786033391669e-06,1.27950688036457e-15,-1.05099707088724e-05,-5.59594418975193e-17,3.44647228943568e-16,-6.22829676723957e-16,2.20120951103033e-16,-1.17214352164149e-05,-7.32024572718628e-16,-2.79408659258626e-16,8.99243244037803e-17,-8.86843999474092e-16,1.66109285419196e-15,-5.68176441618346e-16,6.50551797230705e-16,3.8822974559165e-16,-1.81740855700271e-16,1.05116982664092e-16,-3.7170774769517e-16,8.06880693202654e-16,-5.65078818472321e-16,-3.74278667409092e-16,-1.26481270702147e-15,-2.06559114214245e-17,1.42367877935937e-15,7.7459350623984e-16
"Coptosapelta_lutescens",-0.0374344189721245,-0.036630118668631,-0.0813816911255601,-0.0133887848656895,-0.0210662480606526,-0.00720741052098829,0.312007530013691,-0.0761563918392318,0.00031550443108746,-0.0413858580086667,-0.0156719708362488,0.311001809620045,2.20522178473927e-05,-0.086075220179326,-0.00418943217454575,-0.0736318196314334,5.19528864373342e-13,-0.871878034798141,-0.0105508834840363,-0.0691736280530921,0.00233422302076176,-0.00778718014605131,3.51841847816033e-05,0.00164295570489872,-0.000178825709066571,-5.75251430017901e-16,-5.59401774482081e-16,-1.2272168272549e-15,0.00951795544518086,0.00049041553501921,0.00253980595471042,-9.09647732785854e-06,0.00552896171711331,1.64869350559621e-15,0.000404907395714282,-0.00255847788049129,-0.000876183944800243,0.00173465663597854,-6.45492858316528e-05,-0.00205141035315913,0.000110535376729571,0.000857407105821715,8.59413343766516e-05,-0.00121403297389659,4.58127517703317e-06,0.000192990357220642,-3.44103362999584e-06,-3.84202776007498e-05,2.43431018347768e-16,-8.29462002970651e-16,-0.000131376848904529,-1.86163010020207e-16,8.96795426590243e-06,-2.32926497084924e-05,4.16172586288937e-16,1.24322692688984e-16,-3.56045238997689e-16,6.75862654021289e-16,-3.83241313599683e-16,-7.8752936112367e-16,9.57675170721309e-16,-4.21899643836221e-16,-2.95925767848471e-16,-3.23336238048125e-16,0.000254827854222895,0.000555857750571715,-0.000109277453858497,-5.39862570655934e-15,-1.30896528440183e-16,-7.1425335203803e-06,-1.1491674189956e-05,7.02670005344879e-16,-4.430611718692e-16,9.14644259880704e-06,1.55117566912448e-15,-3.40638489991826e-05,4.26431855933807e-16,2.01709856555734e-16,-6.97310369053558e-16,3.20463792817643e-16,-3.78047084202996e-05,-4.39675647446348e-16,-2.93774605307046e-16,-4.14301800549199e-16,-1.20803382469171e-15,2.37003730632434e-15,1.26675771505461e-16,6.31526238278345e-16,-7.76254013997121e-16,-1.06375172174246e-15,5.9805295448529e-17,-4.17356481913775e-16,1.33516332678397e-15,-6.95437385055718e-16,-5.16556211911307e-16,-1.38668618146237e-15,-1.86367418129487e-16,1.55826380705346e-15,7.71432856480063e-16
"Tarenna_vanprukii",-0.0916931035023095,0.123729374211798,0.133153855072919,-0.110179083549234,-0.0019808590010624,0.000210829182384871,-0.0325180271398679,-0.120672054309479,-0.000995710282832433,-0.00612677112124412,-0.136078247637041,-0.00265472981531895,9.05814438686311e-08,0.00402444519870601,-0.00166258200715514,4.06072953066869e-08,2.16840434497101e-16,-9.14427679251078e-06,1.00076783912426e-06,-5.65797249402815e-05,0.00292174857993645,-7.43238002518972e-06,5.62148356015396e-08,0.000204486083492205,-2.97307201557367e-07,4.19500541503872e-16,1.60579420154265e-16,-9.71492374803808e-17,1.3801673153529e-05,8.25910847800606e-05,4.87090258393972e-06,-3.8152703448904e-08,1.4079361810277e-05,-6.09774970628453e-16,2.689005063362e-06,-1.08830226262706e-05,-5.81166318565163e-06,1.36371446555717e-05,-2.35171792882162e-06,-0.000935318612299983,1.61578778723953e-06,0.000642772214865972,0.00415775830214418,-1.9690155102608e-05,1.82006280408863e-06,0.357097677517185,9.19388214704442e-08,-1.39558718283349e-08,4.38686328302172e-16,-2.15170182427206e-15,-0.201363146694925,6.66261812761069e-15,-4.43214274218759e-10,-7.06153206510867e-08,1.11658895482331e-15,-5.38573565301544e-17,-1.42017245690622e-15,-6.16988389035641e-16,3.50812872995882e-15,-5.37662663264549e-15,1.5623845294989e-15,6.09666968097833e-16,1.88427578447267e-16,-1.9037939708252e-15,0.121201393221773,-0.000814024851742998,0.000444163082196684,2.3638060086709e-15,-1.57177404881977e-15,-0.0394646088090768,1.29784390336748e-08,-2.8375823612573e-15,-4.23400906786586e-16,4.57594766662503e-08,3.93561157453101e-12,-0.226202082041409,1.0815573810997e-14,1.00931061106342e-15,4.75508503594193e-15,1.78052247094114e-17,0.00582250504971592,3.06292837060767e-15,-1.29989433970684e-15,-1.53464928995368e-16,-8.15292869258126e-15,1.87793553761098e-15,-4.4013716466976e-15,-9.17682333294766e-16,4.32986880910354e-15,2.98234665520243e-15,-3.78162539375162e-15,-2.03919205866091e-14,0.744015678437084,-0.336314342403766,2.93866947231367e-14,-3.92332665461294e-15,1.70008186062202e-15,2.15770151249385e-14,9.51904923493741e-15
"Tarenna_pubituba",-0.0916931035023095,0.123729374211798,0.133153855072919,-0.110179083549234,-0.00198085900106246,0.000210829182384823,-0.0325180271398676,-0.120672054309479,-0.000995710282832428,-0.00612677112124415,-0.136078247637041,-0.00265472981531894,9.05814429361731e-08,0.00402444519870607,-0.0016625820071551,4.06072963453526e-08,1.73472347597681e-16,-9.14427679322071e-06,1.00076783936534e-06,-5.65797249398466e-05,0.00292174857993619,-7.43238002525503e-06,5.62148356115583e-08,0.000204486083492075,-2.97307201562868e-07,2.79930373379538e-16,3.60067498530598e-16,-2.11916670701496e-16,1.38016731524047e-05,8.25910847797408e-05,4.87090258360359e-06,-3.81527035375034e-08,1.40793618104469e-05,-3.66913695554236e-16,2.68900506320505e-06,-1.08830226248133e-05,-5.81166318539195e-06,1.36371446556069e-05,-2.35171792862242e-06,-0.000935318612300005,1.6157877874326e-06,0.000642772214865726,0.00415775830214462,-1.96901551029012e-05,1.82006280447298e-06,0.357097677517187,9.19388216729576e-08,-1.39558724698616e-08,1.1474237673892e-16,-2.65130218535338e-15,-0.201363146694926,6.7826851823445e-15,-4.4321458279977e-10,-7.06153195219813e-08,1.25536684137322e-15,1.16011976626249e-16,-1.18255893965175e-15,-2.19677937466234e-15,2.80925200957349e-15,-2.14093366910497e-15,1.73845896230888e-15,2.11844271132754e-15,1.93746252311627e-15,-1.35900948420478e-15,0.121201393221772,-0.000814024851741745,0.000444163082196487,1.02602672713173e-14,-1.40487118910742e-15,-0.0394646088090763,1.2978438395754e-08,6.87375741927865e-16,-1.05359527526928e-16,4.57594746155386e-08,3.93460952284816e-12,-0.226202082041419,9.86957477926717e-15,1.66100788360294e-15,3.16503026467081e-15,-2.04826697060135e-15,0.00582250504971216,4.17115935750374e-15,-2.93931285980899e-15,-1.23678383898531e-15,6.77925331440791e-16,3.7696763495084e-15,-1.83045222616948e-15,1.01432275756174e-15,4.05231305294566e-15,6.77792162064197e-15,1.78334384130472e-15,1.37353552318571e-14,-0.663264603397255,-0.476179307138545,-1.95052533013266e-14,-1.76544845502654e-15,3.38567215496764e-15,-2.40897850370834e-15,9.94452825535494e-16
"Tarenna_alpestris",-0.0916931035023095,0.123729374211798,0.133153855072919,-0.110179083549234,-0.0019808590010624,0.000210829182384889,-0.0325180271398676,-0.120672054309479,-0.000995710282832411,-0.00612677112124404,-0.136078247637041,-0.00265472981531861,9.05814433606192e-08,0.00402444519870592,-0.00166258200715509,4.06072963449731e-08,-2.25514051876985e-16,-9.14427679302599e-06,1.00076783913885e-06,-5.65797249397596e-05,0.00292174857993632,-7.43238002509103e-06,5.62148357933025e-08,0.000204486083492064,-2.97307201638016e-07,4.27199121716895e-17,1.41617901447719e-16,-1.99258938353183e-16,1.38016731529667e-05,8.25910847801076e-05,4.87090258378457e-06,-3.81527034583448e-08,1.40793618096628e-05,-4.50180423675245e-16,2.68900506322313e-06,-1.0883022624057e-05,-5.81166318546219e-06,1.36371446558049e-05,-2.35171792866662e-06,-0.000935318612299795,1.61578778721558e-06,0.000642772214866741,0.00415775830214446,-1.96901551036042e-05,1.82006280397489e-06,0.357097677517186,9.19388214609753e-08,-1.3955871649976e-08,4.94841874833653e-16,-2.27660191454239e-15,-0.201363146694926,6.19053993039734e-15,-4.43213989662431e-10,-7.06153211178303e-08,-1.87923089705057e-16,-5.03077240171843e-16,-2.02927001063584e-15,1.52795153320107e-16,5.63424919020159e-15,-3.15769846646468e-15,-3.70314263175594e-16,5.08836166055428e-16,1.84010116802877e-15,-4.97529543002019e-16,0.121201393221773,-0.000814024851742997,0.00044416308219462,6.41612004855272e-15,-1.5701227986729e-15,-0.0394646088090798,1.29784379312343e-08,2.32495470325001e-15,-2.52165376634381e-15,4.57594762904006e-08,3.93478443839531e-12,-0.226202082041415,1.2571104447981e-14,1.59899366151013e-15,-6.5313446947473e-16,-2.999112795381e-15,0.00582250504971298,1.60922413785381e-15,2.64742048322372e-15,-4.23781051165035e-16,1.70347503390217e-15,6.13425292200096e-16,-1.14899144681057e-16,8.56957236774112e-16,-9.66934964203106e-15,-1.09266661751771e-14,9.97251813839443e-16,7.65799691572397e-15,-0.0807510750398197,0.812493649542308,-1.13095239170189e-14,5.62285376505118e-15,-6.37555181457116e-15,-1.42478707595123e-14,-7.64317456590275e-15
"Pavetta_kasaica",-0.0914954045228339,0.123209649225923,0.130698611676237,-0.107960456224559,-0.00193040528553557,0.000204131035334959,-0.0312859908806133,-0.115415723062728,-0.000945075422465822,-0.00580163848084008,-0.128303999183431,-0.00249467621601651,8.48640889179664e-08,0.00375815002303685,-0.00153654657301496,3.7438566289716e-08,-7.4419637119405e-16,-8.42221784871531e-06,9.14396427635644e-07,-5.05091516863098e-05,0.00260368373108437,-6.57614031175192e-06,4.94123405105391e-08,0.000177934959943278,-2.58622101340514e-07,4.77687874142595e-17,-1.9567813468448e-16,2.69856458934718e-16,1.18846867498765e-05,7.0622468051234e-05,4.14525593956493e-06,-3.19747970355226e-08,1.17990630811755e-05,5.86471806653127e-16,2.20987336936606e-06,-8.76637742055549e-06,-4.4911044667149e-06,1.04259283302018e-05,-1.78624044525412e-06,-0.000710093539016851,1.21443033204376e-06,0.000474583404408882,0.00306758794181888,-1.41527011746264e-05,1.26621209571912e-06,0.247914500992968,6.23781982782744e-08,-8.99225642868228e-09,4.87165113051193e-16,-1.96392797420354e-15,-0.112483829535153,3.47088021798244e-15,-2.13441364328453e-10,-3.18173329693395e-08,-3.29515596187903e-15,-1.2614929254499e-16,-1.18336112055206e-15,1.66006637818176e-15,1.51473401529382e-15,2.43612937504135e-15,-3.7807912130845e-16,-3.33215119769312e-15,2.30578361205519e-15,1.25169207397466e-16,0.00353421037662355,0.000104126227485316,-0.000148783241952003,-2.42951917579911e-14,-3.49739818874422e-16,0.0171460637837311,-6.88771756619194e-09,2.0332561401536e-15,1.68549826809229e-15,-5.93648357125808e-08,-1.58435540218979e-11,0.91092465430449,-4.33676834482572e-14,-2.19182158176733e-15,-1.29942786535556e-14,7.90058949890521e-15,-0.0516375031041428,-1.46542033666166e-14,-5.21666329225131e-16,6.06438650715413e-16,1.75235685337518e-15,2.81575891197609e-15,7.30757180828898e-15,2.69132421653753e-15,2.4596389561794e-15,-3.62656364413166e-15,1.61284248541922e-15,-1.76769639903736e-15,-5.53691052695728e-15,-8.0386403181785e-16,-4.54081356557024e-16,-5.83300238914994e-15,1.32016813482319e-15,-9.88396247048396e-16,-4.49878042052618e-16
"Oxyanthus_schumannianus",-0.0911362244239709,0.122264240809345,0.126193492987502,-0.103885272832817,-0.00183742805011094,0.000191739587140932,-0.0289981160380323,-0.105620401428835,-0.000850286444194922,-0.00519214459740147,-0.113693291528102,-0.00219327939929209,7.40785937973912e-08,0.00325483226644586,-0.00129687492173165,3.14043251704583e-08,3.59087759527199e-16,-7.04638299915033e-06,7.4905043386523e-07,-3.873013871298e-05,0.00198590102378655,-4.90619370071746e-06,3.60950011940802e-08,0.00012565405084303,-1.82434837652828e-07,-2.01777002387508e-17,-4.87904616274268e-17,8.55752451505989e-17,8.08745370408169e-06,4.68200226605348e-05,2.69823860014571e-06,-1.95484221614963e-08,7.21231487896232e-06,2.25836644659569e-16,1.23551788166656e-06,-4.41388011547699e-06,-1.71328635826602e-06,3.63177683109989e-06,-5.85613399938251e-07,-0.000231775955155258,3.57446000914481e-07,0.000112041552669626,0.000716743358050308,-2.04614303831598e-06,3.46164694306346e-08,0.00486334592227049,-4.20561346556655e-09,2.482160036393e-09,4.09334869067931e-16,-3.62770695477437e-15,0.107510828091178,-2.96546473323274e-15,3.93896866512594e-10,7.36137869427926e-08,-7.89116836754307e-16,-5.49023233895194e-18,4.70515817504438e-15,-1.09374219647787e-14,-1.85190971187351e-14,2.54966704993348e-14,-7.68695433210097e-15,-8.72526533196491e-15,-1.35942908465668e-14,1.20671769607195e-14,-0.513632543543074,0.00534578136944436,-0.0057349931186047,-1.43615989270226e-13,3.81188183534772e-14,0.792841990503808,-4.92595191347439e-07,1.24563454457589e-14,-3.29465546285882e-16,4.3040931685406e-07,1.74868613842148e-12,-0.100264868198087,5.15325760488253e-15,1.75235903001221e-16,-1.48310397564304e-15,4.82662873476167e-16,-0.0306544383461128,-5.20170518761388e-15,6.12177960633891e-16,-5.80392200285669e-16,-1.12352134348758e-15,2.31348592265854e-16,6.6879063420162e-16,2.12568737833173e-16,3.50751542196537e-15,-1.13016540560652e-15,-8.30172900696593e-16,-2.00054106169018e-16,2.39741497525781e-15,1.71924388078706e-15,-3.42074461466393e-16,-5.95630810070815e-16,-1.13805221793653e-16,1.34807398952607e-15,1.62549691692963e-15
"Aidia_endertii",-0.0913616637453819,0.122855395322398,0.128934500755802,-0.106356289705531,-0.00189319547980294,0.000199074030372928,-0.0303343712659053,-0.111268829697553,-0.000904021262000081,-0.00553582360518451,-0.121850229859719,-0.00236021706664075,8.00094573206146e-08,0.00352941423497792,-0.00142425414517141,3.45913017082739e-08,-7.97972798949331e-16,-7.77110733392967e-06,8.34292876389006e-07,-4.44028580608965e-05,0.00228178019312502,-5.68773833882658e-06,4.21908031284897e-08,0.000148740560299084,-2.16038952598095e-07,-2.30819555608151e-16,-3.67589152962529e-16,-8.28865726038112e-16,9.69881979033155e-06,5.66381636703855e-05,3.28324082149896e-06,-2.42333371704785e-08,8.94123745149798e-06,6.63969443801619e-16,1.5669467154689e-06,-5.71880746022614e-06,-2.28665968559556e-06,4.85285858681588e-06,-7.81210090343041e-07,-0.000309128236202825,4.73031906795745e-07,0.000142654589952166,0.000910178141454707,-2.05024673810246e-06,-1.10156199471215e-07,-0.0257040470942407,-1.90371388349936e-08,8.15768320963573e-09,1.09900910537141e-15,8.9107628697851e-15,0.592673759966269,-1.95098273158758e-14,3.82451980267421e-07,-8.89906946041793e-07,2.18482586519221e-15,1.13312715370318e-15,-1.56422313096915e-15,6.85233761719552e-15,7.49672847680756e-15,-1.08210358441855e-14,7.65217988601727e-15,5.45392551530388e-15,7.98858686931353e-15,-7.85448697814473e-15,0.237518901641147,-0.00134354795528442,0.000563596075085171,1.01496336914408e-14,-9.11428941057328e-16,-0.0393256057387233,5.77966938896333e-09,1.78844571767099e-15,2.31794045834403e-16,6.11161462278147e-08,3.61823237913764e-13,-0.0208037077265277,6.05053412157468e-16,2.65378470078455e-16,-3.54652272768167e-16,-1.67018756986894e-16,-0.00972490668972689,-1.27788992216147e-15,-7.36494949007128e-16,2.22992824686485e-15,-1.00664907706113e-15,2.28708710514358e-15,-1.05201561557679e-15,1.38303098634079e-15,1.82620241791968e-15,-4.48935271292394e-18,1.60860262489924e-16,-4.39375442363256e-15,-4.54934326287082e-15,6.64736238163589e-15,2.84528242962009e-16,6.46226705746163e-15,1.89677322938363e-15,-3.63775628134915e-14,0.707106781186548
"Randia_carlosiana",-0.0913616637453819,0.122855395322398,0.128934500755802,-0.106356289705531,-0.00189319547980287,0.000199074030372897,-0.0303343712659054,-0.111268829697553,-0.000904021261999828,-0.00553582360518458,-0.121850229859719,-0.00236021706664078,8.00094573304311e-08,0.00352941423497817,-0.00142425414517124,3.45913017499072e-08,-5.27355936696949e-16,-7.77110733414478e-06,8.34292876278635e-07,-4.44028580611047e-05,0.00228178019312517,-5.68773833904016e-06,4.21908028581524e-08,0.000148740560298895,-2.1603895255819e-07,-1.47439877698667e-16,-3.97855072730884e-16,-8.42688219537271e-16,9.69881979050502e-06,5.66381636701923e-05,3.28324082139078e-06,-2.4233337247672e-08,8.94123745142166e-06,8.58258455966778e-16,1.56694671532143e-06,-5.71880745925469e-06,-2.28665968501985e-06,4.85285858836575e-06,-7.81210090290352e-07,-0.000309128236203113,4.7303190657492e-07,0.000142654589952664,0.000910178141454931,-2.05024673870962e-06,-1.10156199423218e-07,-0.0257040470942404,-1.90371383367955e-08,8.15768355055633e-09,7.51585524131277e-16,7.23155054503955e-15,0.592673759966269,-1.95156236584815e-14,3.82451980544038e-07,-8.89906947154677e-07,4.97426122311507e-15,8.21769844678733e-16,-1.45694891656994e-15,8.71239486423068e-15,9.14818522593654e-15,-8.66824401051902e-15,5.47510192366493e-15,7.41589776663277e-15,7.89491180162351e-15,-8.67999851227457e-15,0.237518901641148,-0.00134354795528622,0.000563596075086062,1.69219941416543e-14,-1.68551857867827e-15,-0.0393256057387214,5.77966984911567e-09,-1.51446778058863e-15,2.37073503741149e-16,6.11161454684598e-08,3.61193854778945e-13,-0.0208037077265294,4.72441747937737e-16,-6.53710545381183e-17,5.55457915102102e-16,-1.33315562620508e-16,-0.00972490668972582,-1.67745152001893e-15,-1.9942690956478e-16,-3.96619250198342e-15,-8.11364614064256e-16,1.31155603219769e-15,4.91544476259924e-16,2.49032556324405e-15,5.42507045695599e-16,7.20625060247188e-16,3.35513512197486e-16,2.84700100459471e-15,5.39185010644882e-15,-7.37221544950924e-15,6.63111340458536e-16,-8.0369754831398e-15,-2.02254131149722e-15,3.88241605330044e-14,-0.707106781186547
"Amaioua_pedicellata",-0.0910274297549734,0.121978172444158,0.124840235035942,-0.102662252836712,-0.00180960336004332,0.000188043922537349,-0.0283180783231637,-0.102718184820259,-0.000822319725208655,-0.0050125517832269,-0.109398477958784,-0.00210485188793059,7.0919643513157e-08,0.00310769204876611,-0.0012272324717842,2.96534369036215e-08,3.78169717762944e-16,-6.64741267553332e-06,7.01333708928213e-07,-3.53802428719295e-05,0.00181040795143554,-4.43404697337433e-06,3.2346445896676e-08,0.000111040557232388,-1.6114380547635e-07,2.6552994502825e-17,-4.97199619795963e-16,2.73124109680752e-16,7.03396027296713e-06,4.02503203754103e-05,2.30027187895612e-06,-1.61713116359827e-08,5.96581744598113e-06,-2.51274941807942e-16,9.74974279495098e-07,-3.27066202995981e-06,-1.01383687963366e-06,1.94193123342962e-06,-2.89314878141174e-07,-0.000113799315711393,1.48711344555075e-07,2.58284005863672e-05,0.000158286456173582,7.17008715256282e-07,-2.30061382997619e-07,-0.0471447779610224,-1.77266131635232e-08,4.46287073041374e-09,1.82794887553029e-17,-8.55793427033924e-15,0.103609344116778,-3.39782265338652e-15,-4.19581727878013e-08,2.0486558995163e-07,-3.52835392365546e-15,8.21592411246733e-17,5.78055880436579e-15,-5.74275963560742e-15,-2.81751270164531e-14,1.4514184899647e-14,-1.27475072229789e-14,-7.85083504969029e-15,-1.64616747387864e-14,1.29928502331775e-14,-0.732106098404989,0.0077287707318168,-0.0106371247790943,1.10944400466506e-13,-3.08566916574078e-14,-0.602752290378661,-4.18181019272005e-07,-1.53617284541289e-14,1.11988691949193e-16,4.90303162751929e-07,1.01472668815563e-12,-0.0585411785552513,3.68843077405371e-15,-1.41770539067566e-16,1.0982849191554e-15,3.4728609068697e-15,-0.0386596062925564,-7.40377659382912e-15,-2.8615856285666e-16,5.34385320861157e-16,-7.14637811709851e-16,1.4507553077223e-15,-1.57449979627627e-15,-1.43637802956708e-15,-9.09260654425865e-16,3.50987950476455e-15,-3.35817084029249e-16,-4.56555265522263e-16,2.16068705033702e-15,-2.09852794324603e-15,-2.60474567649214e-17,-9.87056123078659e-17,-6.52338342196771e-16,1.29675580055106e-15,-2.82529139057669e-16
"Coffea_sahafaryensis",-0.0912725742617633,0.122621278646484,0.127830330995414,-0.105358604277596,-0.00187050811687721,0.000196061057162122,-0.0297797417006319,-0.108899845786989,-0.000881151621772107,-0.00538885606581072,-0.118330153160255,-0.00228763793509758,7.74129461282311e-08,0.00340826269122932,-0.00136652264945571,3.31371555325685e-08,3.60822483003176e-16,-7.43948432869231e-06,7.9434378705398e-07,-4.1515190038903e-05,0.00213008383840893,-5.27465065266804e-06,3.88700937605318e-08,0.000135511364502842,-1.96750663737409e-07,1.96639125798845e-16,-7.5818981226369e-16,5.36434788412251e-16,8.72001500135854e-06,5.04134043951363e-05,2.90071728789947e-06,-2.08126574650504e-08,7.67846344414098e-06,-4.92509993507972e-16,1.28050883350409e-06,-4.32498379213362e-06,-1.14914531893794e-06,1.83648084662928e-06,-2.19144180373694e-07,-8.43482374145666e-05,3.3257337888362e-08,-7.89993669221128e-05,-0.000538299989600835,8.12773976825018e-06,-1.82704230085207e-06,-0.377783389018714,-1.77763751161343e-07,-1.07016079101111e-06,-1.05611891386358e-15,2.76001335989934e-15,-0.178301864910649,5.59602606905457e-15,8.31967194258276e-08,-2.56471028262889e-07,-2.7778942558487e-15,2.09548587238713e-16,-1.77971896183044e-17,1.83450141291641e-15,2.5402023185253e-15,-5.01320454322442e-15,3.18071996310404e-15,7.70835775482702e-16,1.76639677190041e-15,-6.90746259005041e-16,0.0685458710742833,-0.000233803856806915,-7.88225709530453e-05,4.52923449692197e-15,-1.3386092139804e-15,-0.00102191250012995,-1.02680050220819e-08,-3.12460084935561e-15,-5.29817648428858e-15,-1.30214281381917e-08,-5.04373695136803e-13,0.0299488607878256,-6.99257401812193e-15,-1.31427473048102e-15,1.45701490465814e-14,-3.83228692756459e-14,0.855732973530418,1.26932309009898e-13,5.66357016340863e-16,-1.97972508048403e-16,-1.6509457641611e-15,-5.29761774444982e-16,3.65146754350373e-15,-6.14908319816822e-15,6.48067980347762e-15,-1.35255887522874e-14,5.85604446398661e-16,-4.12564959767766e-15,-2.20343603638222e-15,-1.99266728911852e-16,1.66102754479072e-15,-4.82316036933506e-15,2.07706209560379e-15,2.01161874970757e-16,1.15723752642163e-15
"Empogona_kirkii",-0.0913809052328648,0.122905099891573,0.129138264473415,-0.106536831602023,-0.001897036793663,0.000199540301787109,-0.0304118740266348,-0.111564964644597,-0.000906419103858906,-0.00555029246144703,-0.122154220065719,-0.00236577941733814,8.018522243037e-08,0.00353641443892016,-0.00142567543243462,3.46153620213148e-08,1.21257170970779e-15,-7.77546133325048e-06,8.33699617904256e-07,-4.40998620095626e-05,0.00226474731706199,-5.62869901740342e-06,4.16188682118401e-08,0.000145841217020644,-2.11782634928566e-07,8.15736470404776e-17,2.08982943569992e-16,4.13665799726062e-17,9.43443822866452e-06,5.47363276349228e-05,3.15697006273853e-06,-2.28248010217013e-08,8.42098053255501e-06,5.62654861132098e-17,1.41791805372689e-06,-4.83602126575498e-06,-1.31062972133139e-06,2.10513934010814e-06,-2.51970389414556e-07,-9.70036774805029e-05,3.84263287983454e-08,-9.20293363023603e-05,-0.000627295967599353,9.58449889489182e-06,-2.18605786058817e-06,-0.452433475451762,-2.15039034759298e-07,-1.32339080693298e-06,-1.36674819911017e-15,-3.31528167998368e-15,-0.233451710431348,7.62695669089092e-15,1.14940913456597e-07,-3.62323964653309e-07,7.50673428945059e-16,-5.70530602725648e-17,-1.89670035803546e-15,6.83739671904314e-16,4.83917824571559e-15,-3.57129682925225e-15,3.90028048724963e-16,1.15193743715967e-15,3.24299152860954e-15,-2.7545372720482e-15,0.138050029508867,-0.000556132003388139,-0.000244662782594761,-1.36230398702801e-14,2.65010351549588e-16,-0.00370541868337378,-4.43685517983978e-08,2.3185263820207e-15,1.94244534283827e-15,1.23569614658673e-07,4.66459753509644e-13,-0.0270791848648546,4.25786118737386e-15,8.95331358265824e-16,-6.49034040796249e-15,1.61930497364075e-14,-0.362162795161702,-5.44229938055025e-14,2.08989455074694e-16,-9.38816903279939e-16,-1.45808105969515e-15,1.82721271750729e-15,-3.42104761749006e-15,1.47152974842672e-15,-4.37889174509747e-16,7.39071198010404e-15,-8.40863291980902e-16,4.28781200031502e-16,-1.14742179228484e-14,1.14230131436628e-14,2.07890038477541e-15,2.7613581611482e-16,2.92023361653054e-15,0.707106781186549,3.6376608527457e-14
"Tricalysia_pynaertii",-0.0913809052328647,0.122905099891573,0.129138264473414,-0.106536831602023,-0.00189703679366293,0.000199540301787142,-0.0304118740266343,-0.111564964644597,-0.000906419103859027,-0.00555029246144718,-0.122154220065719,-0.0023657794173377,8.01852224743053e-08,0.00353641443892015,-0.00142567543243457,3.46153631034028e-08,3.83373888190874e-16,-7.7754613337015e-06,8.33699618055922e-07,-4.40998620093334e-05,0.00226474731706207,-5.62869901759504e-06,4.16188679852086e-08,0.000145841217020764,-2.11782634944882e-07,5.44987206340832e-17,3.22568622639555e-16,1.49084874550143e-16,9.43443822776937e-06,5.47363276351164e-05,3.15697006328794e-06,-2.28248009416871e-08,8.42098053207968e-06,-3.39401543626235e-17,1.41791805407846e-06,-4.83602126481822e-06,-1.31062972153837e-06,2.10513934002682e-06,-2.5197038977038e-07,-9.70036774806053e-05,3.84263287963391e-08,-9.20293363022872e-05,-0.000627295967599183,9.58449889400885e-06,-2.18605786081038e-06,-0.452433475451761,-2.15039034462801e-07,-1.32339080660249e-06,-1.05701900697986e-15,-2.39934768466793e-15,-0.233451710431348,7.78284579475651e-15,1.14940913812084e-07,-3.62323964029368e-07,9.72718044584111e-16,-4.81646625796476e-16,-1.7921245755272e-15,9.99350924208837e-16,5.02913046633379e-15,-1.93631995317136e-15,7.1355397699282e-16,1.5691384331309e-15,2.20953001781299e-15,-1.02707795062621e-15,0.138050029508867,-0.00055613200338811,-0.000244662782594843,-3.89471061700218e-15,5.43901230502994e-16,-0.00370541868337385,-4.43685535749274e-08,2.78491574272297e-16,4.90941032659216e-16,1.23569614151601e-07,4.66014205813349e-13,-0.0270791848648579,2.7269687563943e-15,1.71478469270809e-15,-6.44444802315512e-15,1.6689238898578e-14,-0.362162795161703,-5.42532473792106e-14,-8.31311678161809e-16,8.72906089928136e-17,-3.696339902261e-16,3.8890409644759e-15,-1.07870921198296e-15,5.69337222271847e-15,-4.21264745823695e-15,1.59673557034388e-15,2.1249640595458e-16,2.13287544829063e-15,1.45778159787626e-14,-1.31664401565853e-14,-4.87073693829337e-15,-9.46260670470506e-16,-4.74996164535776e-15,-0.707106781186546,-3.57669051783364e-14
"Vangueria_senegalensis",-0.0882883518625955,0.114579299492424,0.0814754861549711,-0.0623047486691034,-0.000796038216021506,3.43516045783996e-05,0.0045383387348127,0.0626025698262275,0.00125594574562575,0.00970907057461033,0.325509883810024,0.00887626177430321,-4.2196571230755e-07,-0.0287195649007171,-0.0637965808189589,7.41441022549384e-07,-9.47159017883337e-16,-0.000138556807388571,7.02916748495806e-06,-0.000194385751308255,0.00974351843643719,-2.2282509754289e-05,1.55148897615052e-07,0.000506554473974906,-7.34208106246418e-07,2.1538250185111e-16,-1.02705867960842e-17,-1.63629812279082e-16,3.10521250714518e-05,0.000175201205671947,9.94592471068132e-06,-6.93002731142188e-08,2.55657643927027e-05,5.12528824755016e-16,4.21736548956203e-06,-1.45058903022765e-05,-4.56394593827119e-06,7.92330950489679e-06,-9.82459588277047e-07,-0.000378386799897107,5.10550576303017e-09,-0.0109482041878432,-0.358463592912794,-1.95094380083707e-05,1.40946285588819e-07,0.00718880745178304,-7.19138294163779e-08,-7.78210220565475e-07,3.86936045240388e-17,1.71850843351366e-15,-0.00304133985170508,3.53038193487653e-16,1.54025851450628e-07,-3.82843516411959e-07,8.91651121621372e-15,3.35204265436791e-16,-2.29031989331435e-15,-7.82368747379173e-16,3.95033794856731e-15,-1.21965760858746e-15,3.35286356280478e-15,-2.51547655229606e-15,5.09455346397668e-15,6.20995584285554e-15,-0.00303105244164639,-0.00241520402237449,0.845455934518598,5.0379995222812e-13,4.14969503548881e-15,-0.00167851706707296,-1.01819997644326e-06,1.24398731289371e-14,-5.40416829267152e-15,6.22474556510457e-07,2.46168782119443e-14,-0.00143443777449378,-1.50022813044962e-15,-8.8725595045727e-16,1.18437049516197e-15,7.85335381299498e-16,-0.00147298888964499,-1.05285357565705e-16,-4.13801058228537e-16,1.61823160055287e-15,-8.9078757921361e-16,2.32074653126588e-15,-2.78806006116913e-16,-5.9949602285426e-16,5.35283044361223e-16,-1.59878010487709e-15,-3.21253491863442e-16,-5.05152108043953e-16,5.19664777486364e-16,6.87731875478191e-16,-7.40544643779294e-16,-1.83035549905941e-15,3.01371733447182e-16,9.56687740282388e-16,1.22047428949552e-15
"Keetia_zanzibarica",-0.0884016755819847,0.114866503364484,0.0823871180923763,-0.0630675874514776,-0.000808445022546341,3.50244883795853e-05,0.0046451400701335,0.0643080517355772,0.0012962502717686,0.0100351024200123,0.33733686617056,0.00921794454504703,-4.39031077688726e-07,-0.0299418689091932,-0.0669453572080297,7.7921773483701e-07,-5.89805981832114e-17,-0.000145708890709268,7.42949256172113e-06,-0.000208531175070153,0.0104644181390969,-2.40420138527988e-05,1.6811809821108e-07,0.000552537823769274,-8.01023412123473e-07,-1.90925825690071e-16,9.08166926760722e-16,-9.68887708110795e-17,3.41051895142477e-05,0.000193324399956976,1.10096127682781e-05,-7.75049830768604e-08,2.85933839673282e-05,-2.64620346628691e-16,4.77986036518722e-06,-1.66692986452916e-05,-5.40017952876981e-06,9.4475835246424e-06,-1.17700382360675e-06,-0.000453464249623049,6.16340892237597e-09,-0.0133906875466385,-0.438671938384123,-2.43449600469095e-05,1.80310390185765e-07,0.00921133841125444,-9.38109632072828e-08,-1.057998810018e-06,-5.156909084107e-17,-1.00161480271133e-15,-0.00467482229723062,7.79381612993276e-16,2.72968170056469e-07,-7.27233721630196e-07,-3.80954099109152e-15,-4.43648613970543e-16,2.77243608135352e-16,1.0092468188917e-15,-1.60655562636588e-15,-1.21172522687061e-15,-2.82498629468542e-16,1.59811621426984e-15,-4.08680363066009e-15,-1.705814157935e-15,0.010824522953595,0.00283160952349175,-0.376498162991137,-2.28614315249173e-13,-3.4653346539845e-16,0.000475140547819228,1.75207904213661e-07,-4.74217561097464e-15,1.02426604253e-15,1.12376523448471e-07,1.29225820055412e-14,-0.000548073254030631,-9.06472753380334e-16,-4.09757014185076e-15,-3.92609308994501e-15,2.77382076076943e-15,-0.000646712553762097,-6.48807655822487e-15,0.707106781186548,7.79362820971753e-15,-9.17030464263434e-15,4.61818117345684e-15,8.64520817362235e-16,1.24421233896944e-15,4.3658786377972e-15,2.05849224884421e-15,-3.14537569927942e-16,-5.56366249412876e-16,3.97990026356033e-16,-3.84487245952176e-15,-5.18719136068997e-16,-1.09413183129453e-15,1.35238415002246e-15,5.65307657665836e-16,7.45618803419027e-16
"Psydrax_subcordatus",-0.0884016755819847,0.114866503364484,0.0823871180923763,-0.0630675874514776,-0.000808445022546252,3.5024488379551e-05,0.0046451400701335,0.0643080517355772,0.0012962502717687,0.0100351024200122,0.33733686617056,0.00921794454504741,-4.39031077713903e-07,-0.0299418689091932,-0.0669453572080297,7.79217734143121e-07,-6.1409211049579e-16,-0.000145708890708966,7.42949256155818e-06,-0.000208531175070104,0.010464418139097,-2.40420138530863e-05,1.68118097668178e-07,0.000552537823769175,-8.01023412233255e-07,-1.16032941288724e-16,5.00111746833793e-16,4.55639301084065e-17,3.41051895140291e-05,0.000193324399955722,1.10096127687655e-05,-7.75049830338091e-08,2.85933839677462e-05,-2.92375921766733e-16,4.77986036575169e-06,-1.66692986455831e-05,-5.40017952936392e-06,9.44758352462852e-06,-1.17700382350193e-06,-0.000453464249622881,6.16340873370446e-09,-0.0133906875466382,-0.438671938384125,-2.43449600498294e-05,1.8031038962125e-07,0.00921133841125273,-9.38109628611415e-08,-1.05799881198612e-06,-2.80607203304734e-16,1.02454221722958e-15,-0.0046748222972307,7.252237004615e-16,2.72968168802902e-07,-7.27233723117265e-07,-3.08789602736518e-15,6.27223231733778e-16,6.48203029933498e-16,8.45315450469259e-16,-2.54330630339268e-15,1.01912916325031e-15,-2.15946943047451e-15,3.3870697071139e-16,-1.67380327558535e-15,-3.61227525803395e-15,0.0108245229535941,0.0028316095234925,-0.376498162991138,-2.1910803060082e-13,-2.98751881600738e-15,0.000475140547820581,1.75207904982344e-07,-5.56269981511184e-15,2.82727645580426e-15,1.12376524781238e-07,9.6902519664325e-15,-0.000548073254030767,2.4032992569194e-15,6.34271546348756e-15,2.6782046381012e-15,-4.07331313606366e-15,-0.000646712553761076,4.84167700777775e-15,-0.707106781186547,-1.03562161614499e-14,7.0370341975234e-15,-1.39899159677285e-15,-1.07132481257807e-15,1.80262636723692e-15,-3.70405497244589e-15,-2.42403321308134e-15,5.44787326268411e-16,-3.73147909652479e-16,1.35560809494665e-15,1.72703066513511e-15,3.80722530175298e-16,-9.11904847349558e-16,-1.839389174553e-15,1.55439140942403e-15,1.08381742897995e-16
"Ixora_salwenensis",-0.0884490630770227,0.114987987814893,0.0828055665477604,-0.0634212425901041,-0.000814381616848991,3.53589293856376e-05,0.00470025831666073,0.0652200818102667,0.00131883570348524,0.0102204586714715,0.344243474881519,0.00942173895601544,-4.49406322123688e-07,-0.0307006833266094,-0.0690371928867642,8.04720353203385e-07,-1.07205910815367e-15,-0.000150569887667588,7.71677921873265e-06,-0.000220525902922286,0.0110838684478845,-2.56391913580178e-05,1.80520933140073e-07,0.00060033293351421,-8.70657405498899e-07,4.19576890648211e-17,2.80472172943851e-17,-1.25719142958377e-17,3.7580847224294e-05,0.000215323035508874,1.23603831395591e-05,-8.96787872488136e-08,3.30876271095768e-05,8.35088763518312e-17,5.82824893314587e-06,-2.20243254518268e-05,-1.08691370960283e-05,2.59144997784766e-05,-4.60772878209926e-06,-0.00183818979958563,3.58092695890497e-06,0.0132483791566488,0.402306982110351,-2.62035284555744e-06,7.39215868899795e-08,0.00387510639042063,-4.77556731571544e-08,-6.42745840331093e-07,-1.78204597119405e-16,-5.84641753159319e-16,-0.00321227445991689,-6.11721881585104e-17,1.91467826427576e-07,-5.09927616042736e-07,-2.42912783555866e-15,-7.51471274843962e-16,-1.29043716871402e-16,3.84480429476809e-16,5.41292368367996e-16,-1.13406660099586e-15,5.15519526744262e-16,4.16360971937196e-16,5.97541695638055e-16,2.94101819720619e-16,0.00589795412921764,0.00115036190600123,-0.0225718405860017,-1.12188263094166e-14,1.88760145222898e-16,-0.000125014944394399,-1.46624790835765e-07,1.88602831631666e-17,-3.98843460231057e-15,2.28785122009516e-07,1.2212689986999e-14,-0.000715230952945884,5.17655180442892e-15,-1.60650701168334e-13,-0.802233773146288,0.151946174318866,-0.000790171855324972,3.96185329698466e-15,-5.12103861075169e-15,-7.0049747536245e-16,-3.68150353895201e-15,2.25289586741808e-15,1.51467891965959e-16,-7.68707721979428e-16,3.01987136210297e-15,3.12553476116052e-16,-2.10203145542865e-15,5.56828969080218e-16,1.99058487945003e-15,-3.24725851965669e-15,-8.44882980165948e-17,-5.6531619105955e-16,-4.35824637853545e-16,1.05876052119326e-15,1.37586404375825e-16
"Ixora_patens",-0.0884490630770227,0.114987987814893,0.0828055665477602,-0.0634212425901042,-0.000814381616848987,3.53589293856042e-05,0.004700258316661,0.0652200818102668,0.00131883570348533,0.0102204586714715,0.344243474881519,0.00942173895601539,-4.49406322108956e-07,-0.0307006833266093,-0.0690371928867641,8.04720353855641e-07,-1.03736463863413e-15,-0.000150569887667952,7.71677921863442e-06,-0.000220525902922088,0.0110838684478845,-2.56391913581442e-05,1.80520933054955e-07,0.000600332933514207,-8.70657405551917e-07,2.94517859101565e-16,-2.82952385425949e-16,-3.03482248592882e-16,3.75808472235862e-05,0.000215323035508981,1.23603831392862e-05,-8.96787872510853e-08,3.30876271089887e-05,-1.48076707753459e-16,5.82824893310851e-06,-2.20243254506402e-05,-1.08691370956215e-05,2.59144997782792e-05,-4.6077287819895e-06,-0.00183818979958529,3.58092695904013e-06,0.0132483791566487,0.402306982110351,-2.6203528443028e-06,7.39215867849288e-08,0.00387510639042132,-4.77556732289392e-08,-6.42745839611624e-07,6.97683442812791e-16,-1.36873676430084e-15,-0.00321227445991736,-3.23605736705705e-16,1.91467825629879e-07,-5.0992761614279e-07,1.40114160107163e-15,5.29763273821401e-16,-1.1743986459372e-16,-6.11413476119491e-16,-2.29671523833079e-15,1.12367600297254e-15,3.70236435630282e-16,-4.33653531292219e-16,1.42066798499839e-15,-1.36960641395792e-15,0.00589795412921835,0.00115036190600165,-0.0225718405860043,-1.77552643668972e-14,7.02246954896043e-16,-0.000125014944390583,-1.46624771250104e-07,-1.47673170530394e-16,4.18280597253995e-15,2.28785124972565e-07,1.2175875703627e-14,-0.000715230952931872,-6.03988123872237e-15,8.71121766148508e-14,0.532706133541139,0.618781740159095,-0.000790171855327686,2.62932731210214e-15,-1.01149973759938e-15,4.8407698068295e-16,-8.04007243359703e-16,9.64171360870944e-16,3.38677161125222e-16,1.21383166672617e-15,1.01453102387267e-15,3.68064627348915e-16,5.46650368347399e-16,2.21501169101226e-16,-7.88440063538153e-16,2.37324437430949e-15,-9.6728941635995e-16,-1.86100137093496e-15,-4.21050208493133e-16,1.40113286823528e-15,1.05183925123963e-15
"Ixora_laxiflora",-0.0884490630770227,0.114987987814893,0.0828055665477602,-0.0634212425901041,-0.00081438161684913,3.5358929385572e-05,0.00470025831666116,0.0652200818102669,0.00131883570348529,0.0102204586714715,0.344243474881519,0.0094217389560153,-4.49406322096788e-07,-0.0307006833266094,-0.069037192886764,8.04720354218415e-07,-8.84708972748172e-16,-0.000150569887668132,7.71677921848285e-06,-0.000220525902922044,0.0110838684478846,-2.5639191358277e-05,1.80520933084822e-07,0.000600332933514482,-8.7065740563862e-07,9.62251292788222e-17,-2.83472149352308e-16,-5.2916215398898e-16,3.75808472240374e-05,0.000215323035509095,1.23603831393254e-05,-8.96787873037032e-08,3.30876271087806e-05,1.43356836187374e-16,5.8282489329391e-06,-2.20243254508623e-05,-1.08691370945235e-05,2.5914499778328e-05,-4.60772878205963e-06,-0.00183818979958571,3.58092695886216e-06,0.0132483791566491,0.402306982110353,-2.62035284605054e-06,7.39215867457742e-08,0.00387510639042069,-4.77556730027997e-08,-6.42745840251905e-07,1.94045460292253e-16,-1.31322561306958e-15,-0.0032122744599179,-1.84525752547432e-16,1.91467825942267e-07,-5.09927616360064e-07,2.63163001466708e-16,3.13985970458488e-17,-3.3672338003368e-16,7.71269554428309e-16,2.42606942501579e-15,4.89634572497117e-16,-2.56866100935711e-16,5.63378786525169e-16,-9.06897238889883e-16,4.0523254240102e-16,0.00589795412921618,0.0011503619059985,-0.0225718405860024,-1.96842768721834e-14,-2.04185304083635e-15,-0.000125014944393254,-1.46624779170255e-07,-2.33689419721305e-15,-1.02131342833082e-15,2.28785122936448e-07,1.49303398385452e-14,-0.000715230952926794,1.06625368733503e-15,7.44782154688314e-14,0.269527639605147,-0.770727914477959,-0.000790171855385935,-8.22634311309015e-15,4.37567588880112e-15,-6.44969167540072e-16,1.61847768170474e-15,2.85853830670554e-15,-1.79344435159146e-15,9.28169369151497e-16,-1.93449888528832e-15,-2.40749293421337e-15,1.71834060908665e-15,-1.78071387473721e-15,1.72344036045652e-15,-7.1673228713379e-16,4.31294706346145e-16,-1.92956880455649e-15,6.95361896562352e-16,8.57344475351213e-16,8.81857196736031e-16
