"","c1","c2","c3","c4","c5","c6","c7","c8","c9","c10","c11","c12","c13","c14","c15","c16","c17","c18","c19","c20","c21","c22","c23","c24","c25","c26","c27","c28","c29","c30","c31","c32","c33","c34","c35","c36","c37","c38","c39","c40","c41","c42","c43","c44","c45","c46","c47","c48","c49","c50","c51","c52","c53","c54","c55","c56","c57","c58","c59","c60","c61","c62","c63","c64","c65","c66","c67","c68","c69","c70","c71","c72","c73","c74","c75","c76","c77","c78","c79","c80","c81","c82","c83","c84","c85","c86","c87","c88","c89","c90","c91","c92","c93","c94","c95","c96","c97","c98","c99","c100","c101","c102","c103","c104","c105","c106","c107","c108","c109","c110","c111","c112","c113","c114","c115","c116","c117","c118","c119","c120","c121","c122","c123","c124","c125","c126","c127","c128","c129","c130","c131","c132","c133","c134","c135","c136","c137","c138","c139","c140","c141","c142","c143","c144","c145","c146","c147","c148","c149","c150","c151","c152","c153","c154","c155","c156","c157","c158","c159","c160"
"t7",0.00507662036917633,-0.117576638414343,-0.0247785683213904,3.78111429220877e-05,-0.000603557327909698,0.000775008331642422,0.00326452691626344,-0.00451365135964462,0.00113259194057851,-0.00347849385329783,0.0383291416489863,0.00333428732713258,-0.0277734930796863,0.0687154233794882,0.00819166043215362,0.00167268660903136,-0.162446781664553,-0.0309939326201229,-7.65063956274748e-05,-0.00386191056877847,0.000655208855951011,0.00287451967639577,-0.00626819025403301,-0.00827006297860079,0.0724932567308957,-0.290023413352801,-0.0156643716565421,-0.0894286553189537,-0.00149359149535676,0.0320595764131704,0.00226900190820879,-0.0202683575033021,-0.0334481004377011,0.219672574695892,0.0270477777898008,0.000157459321367566,-0.0573153540034767,-0.0252861678227785,0.00198285885831078,0.00829459753865292,-0.0969206715831105,-0.000315619942725946,-0.000210209804092636,0.0012081899619071,-0.000223061190915244,-0.00360330027120553,0.000178248776790155,2.96949316642834e-08,-0.00163489629968644,0.00179113556086843,0.0001878745153332,0.0262001195505117,0.000100813565240107,0.00141170169032054,3.81567303273019e-06,-0.000122841851316745,-0.000190025088348251,8.75178093700593e-06,0.0211572446858781,3.70884217753753e-06,-0.000222296120217351,0.0741023256173779,-0.000313445411607838,0.0558661172975907,-0.00147784693111423,-0.0422551330697793,-0.000277338842716225,-4.40026577248088e-06,5.63155082917509e-08,-0.0057397011767786,-1.35207553043606e-15,2.0717103250258e-05,1.24492361829958e-06,-0.000443690563534868,-9.93046895678562e-06,0.0772561054309432,0.0225738357888701,0.000279334941048783,-6.87569110298167e-05,-0.000491387557913267,8.54839615543856e-05,2.26846658396458e-05,-0.415520954639293,-0.00109188280602798,-0.000102944905066513,0.00011090723961841,-1.68058056395876e-05,0.015458881918498,0.1567656462293,-7.96630948876982e-06,0.000946735570392932,1.21516806595493e-06,-5.62148314354277e-06,-0.00334657089196897,2.92507985737764e-06,-4.69662418042441e-05,4.45683077484544e-05,6.27195215729902e-06,-0.114718569526767,9.63386841862019e-06,8.09558622194032e-15,0.00032017930469424,0.00105735480175404,-1.62913812233735e-14,-0.00983319762117275,0.741714588286212,-0.00887176721191805,0.036510279978575,-0.00245567695530624,0.0415544586877541,0.00154360580958251,-0.000815211040463833,8.60553082404446e-07,0.000259958122646937,8.76160385495663e-08,-0.0009728234458715,8.7274935511379e-05,-0.00146238754625128,-8.98055566220843e-07,-4.94745867562348e-16,0.000707742588827211,2.69705975179267e-06,-3.91862946056238e-15,-5.25277182592435e-05,0.000646520943418093,-2.05289435633236e-15,-5.21193249381553e-15,-0.00926754714251513,0.00319101120278378,-1.97798416384388e-15,-7.561492366944e-16,-5.35930532584257e-07,6.71778867684787e-06,-1.26632094803811e-05,2.04884919738412e-15,-0.000152724795972984,1.0663594582956e-16,2.6689621622872e-06,-8.32315515113667e-16,1.15701067437461e-15,1.54101588362667e-15,-4.51078225408225e-07,-1.55502069425607e-06,1.66335062591383e-15,-2.74097817085183e-06,1.28153740987025e-05,1.36440749113547e-16,-1.2346626999655e-06,-3.0630221855453e-15,1.74499684559563e-15,-6.58986811307138e-08,-9.74457249837749e-16,1.33824837806428e-15,2.02866831588584e-15,1.95492834200811e-07,-2.87633555825996e-16,-2.36983607092711e-15,1.92719613614242e-15,-3.92654393464946e-15,-4.99872927184739e-15
"t10",0.00532776522070806,-0.128244370702729,-0.0279162047871025,5.20082777433523e-05,-0.00130133731455861,-0.00785730496092934,-0.0265286214206071,-0.00164200684969743,0.000821150174633565,-0.00292147993819635,0.0512262755561962,0.0025099043878757,-0.0228292001183944,0.060166500604371,0.00734567281080559,0.00152752212464152,-0.158868590812127,-0.0307656045205106,-7.70232212408319e-05,-0.00399794805419068,0.000680125406235687,0.00308976726392168,-0.00737607598503577,-0.0100742241651993,0.0912015698531202,-0.392729106457164,-0.0214910449365915,-0.122814393697315,-0.00223755925992258,0.049459181817749,0.00359545750492428,-0.0434733348315086,-0.0359637492995203,0.270492124960083,0.0334681513274548,0.000195911483439098,-0.0752541873365642,-0.0342848464846788,0.00317099001660119,0.014165908827304,-0.168154652130686,-0.000563700660065797,-0.000419999896115829,0.00275522161527976,-0.00057981968678218,-0.0033522529054376,0.000549374115733046,9.24847933505956e-08,-0.0069223982052453,0.0192731741640846,0.00324926476762593,0.000367173358594924,0.000323202563402918,0.0118203048347726,0.000121128731075263,-0.00422359863362332,0.00350045811372995,-9.45532367699627e-05,-0.0891581550211814,-3.51930505762847e-05,0.00200900171311553,-0.525317516153179,0.00125195799407415,-0.207754302660945,0.00375625318650703,0.0946113460703719,0.000600011551140925,8.48044497680184e-06,-8.27480525288428e-08,-0.104376437447608,-5.13549636437405e-16,-3.16980026477543e-05,-1.76338338002508e-06,0.000634631671731979,1.62689368195377e-05,-0.468711146983567,-0.0851685405007511,-9.6211019765603e-05,3.1182965565926e-05,0.000223598419428603,-3.98170432268189e-05,-1.07991208109503e-05,0.205646566085328,0.000529949406871306,4.94815636844134e-05,-4.96205723083533e-05,6.80822402768977e-06,-0.00601839494574098,-0.060614290492706,2.98430971194442e-06,-0.000347329605868091,-4.45698763869276e-07,2.05657229772481e-06,0.0228433856349878,-1.02849098582922e-06,1.70248880553637e-05,-1.62768210220222e-05,-2.34087736707744e-06,0.140829235485856,1.15084574053191e-06,1.0644286567598e-16,-2.84432741304136e-05,-0.000127404093751346,3.24337476137473e-15,0.00121029197786683,-0.0911509191216427,0.00101453636052946,-0.00408199928920309,0.000253097462328831,-0.00411895139117969,-0.000125467768749066,5.51357101076301e-05,-4.79374027933045e-08,-1.30406508945362e-05,-2.81457550795518e-09,1.87129824407991e-05,-1.32856827876319e-06,-0.00102752287430016,1.73204031691885e-09,-3.11985092598806e-16,0.000522649582855329,2.23962133904719e-08,-3.45685667969725e-15,-2.0243808110241e-06,2.55199892079741e-05,-2.36486842777519e-16,4.56524264065287e-16,-0.000398170245042176,0.000189202077672273,-8.64566721049308e-16,-2.83919793661779e-16,-4.04104593230981e-08,6.47436629298973e-07,-1.30252400778055e-06,-7.55508031067547e-16,-1.68404850375939e-05,-2.08798704520404e-15,3.02366413368033e-07,4.29339678536667e-16,-1.30268237576854e-16,8.48502235456094e-16,-6.05261782761186e-08,-2.09185598446213e-07,-9.68908290683889e-16,-4.10629720000323e-07,1.99082504599842e-06,3.43137886857309e-15,-1.9506462559321e-07,5.9553919362206e-16,1.0926188731241e-16,-1.12583813442269e-08,-1.26755926569494e-15,4.18044057396562e-16,-1.03808800816647e-14,3.66805276968207e-08,-3.1360598464001e-15,-3.70273398012451e-15,1.43721878818125e-15,-2.0857571155709e-15,-6.62002286129008e-15
"t13",0.00567102083600229,-0.143096772093677,-0.032340659651133,7.29840188702107e-05,-0.00237007594117614,-0.0214699806924583,-0.0735440933380334,0.00320968338998127,0.000209305971271053,-0.00160051667122615,0.064335391762878,0.000634797918058951,-0.00892731866064775,0.02761444785353,0.00351266883711032,0.000749830394518936,-0.0836774227017298,-0.0163879913452327,-4.14321259401653e-05,-0.00218817881896555,0.000372833501980105,0.00172609314005072,-0.00430794404498091,-0.0059886510102042,0.0551843774896615,-0.24903011745118,-0.0137560076710244,-0.0786677452345689,-0.00153699241684917,0.0348601314578664,0.00259574613409853,-0.0403888160056313,-0.00288158078002684,0.0644514498160355,0.00813635988838809,4.86796265997474e-05,-0.0223117930010277,-0.0110117015941229,0.00128004210401849,0.0059574092537471,-0.0712457905835085,-0.000241687163137351,-0.000185517428389857,0.00123689088816588,-0.000262036992443636,0.00243444879324164,0.000245301341126499,4.1507178730675e-08,-0.0031273706357196,0.00922297607929517,0.00165992909572073,-0.0404607957845569,2.5164441188926e-05,0.00413605455485393,4.81090741431086e-05,-0.00167871812311106,0.00139223892560399,-3.77328526302149e-05,-0.0519246958949524,-1.271502861674e-05,0.000734199064569457,-0.196491572086881,0.000447843056825979,-0.0734712702382945,0.00120878220273095,0.0290453912530019,0.00018173868517745,2.48236574415122e-06,-3.48099914384614e-08,0.0739627089247289,1.67421375639393e-15,-3.79790034819839e-06,-5.67683932270241e-08,-0.000134423899506388,-7.34000900630088e-06,0.581422177184976,0.104911597347675,-0.000236871857594823,4.08466133025748e-05,0.000289702002244687,-4.7476401455571e-05,-1.17476576124759e-05,0.167880276177182,0.000293566843221696,2.56621659565591e-05,-1.69919121351894e-05,8.57792396615553e-07,-7.98235033960476e-05,0.000596725036458419,-4.30593132488089e-07,0.000103957434323938,1.34690734610372e-07,-6.91614566874911e-07,-0.0970477497378347,8.87427877826867e-07,-1.85105337148476e-05,1.85525430628272e-05,3.00480545959383e-06,-0.608752998970979,-1.88864690823322e-05,1.53100879264459e-14,-0.0002289896617593,-0.000446258150970136,5.62624569383952e-15,0.00340246071470479,-0.236627463879426,0.00195206404984823,-0.00752550657165922,0.000417726418807668,-0.00653755361731389,-0.000174203165689672,7.10421249807204e-05,-5.85353975841979e-08,-1.55732003646541e-05,-3.15392734004318e-09,2.01516096157108e-05,-1.41341270634606e-06,0.0334202466536448,1.83271657682522e-09,7.93179728053076e-15,-0.0226574610087379,2.73803007408936e-08,-1.2460474364153e-14,-1.9288921263272e-06,2.42751765601531e-05,-5.23059754921317e-15,-6.65163945020433e-16,-0.000376402527151076,0.000174078105623525,-1.2221608883137e-15,1.04396256324044e-15,-3.62967186223439e-08,5.65440959819686e-07,-1.12847159517572e-06,-6.60515701954915e-15,-1.44618186723211e-05,-9.80719038648257e-16,2.58749152010953e-07,8.44230439688106e-16,-7.79281862074593e-16,-4.54422901719849e-15,-5.06275165941562e-08,-1.74912834181701e-07,-5.24439543435536e-16,-3.38165512529142e-07,1.63093207856093e-06,1.62332487963362e-15,-1.59409824741807e-07,5.04800080669942e-15,-4.40332950206326e-15,-9.09518241400001e-09,3.94066803700589e-15,-9.45112463098108e-16,1.51360837674742e-14,2.92192309589741e-08,5.12406700401219e-15,-1.36007796893e-15,7.09959241887665e-16,-4.60648459198793e-15,-5.5744009683885e-15
"t31",0.00609888246177526,-0.161768783184673,-0.0379390252772559,0.000100289070836443,-0.00380084214774263,-0.0402035050420469,-0.138293406010476,0.0104999385907154,-0.00108278271432927,0.00307853164909928,-0.0695885405936114,-8.52659453778482e-05,-0.000476487921707736,0.00508137120033628,0.000794607952357924,0.000191764226047817,-0.0292860544111294,-0.00602949096677902,-1.59270177879212e-05,-0.000910010500239589,0.000156169636131918,0.000789090521109681,-0.00241225565921004,-0.00361234270965974,0.0356750967905287,-0.18856849704292,-0.0107103115194252,-0.0613781103227801,-0.00143078765805766,0.0342685846127999,0.00267398398772925,-0.0587370168458961,0.0393361038624723,-0.170575060383187,-0.0206285547687518,-0.000117649251879596,0.0344851149780105,0.01317882121102,-0.000407779482109676,-0.00100889707914411,0.0100858708449647,2.3311458886782e-05,-4.9902645952162e-06,0.000140469000626227,-4.43131881749462e-05,0.00920768476947174,4.63632942218309e-05,8.37249955094491e-09,-0.000843503015845895,0.00306245427985813,0.000563524324662124,-0.0148595711381511,6.11906683013599e-06,0.00144002040168061,1.80091932554112e-05,-0.000629899313128227,0.000566604087805475,-1.58888949871225e-05,-0.0227522505433509,-5.50065473984537e-06,0.000318549074898237,-0.0872087251963783,0.000219148792205307,-0.0365682826083838,0.00068002358157439,0.0174093022945354,0.000111289890037801,1.67756102344831e-06,-3.53647915967662e-08,0.132636834725955,2.42266604539001e-15,-2.2561113118859e-06,-3.84148051766176e-08,-0.000104194030601255,-6.04173621479691e-06,0.517617538956031,0.0806703329304607,-0.000244201874884527,4.57488297697337e-05,0.000325196282544586,-5.42764225675208e-05,-1.37466924376964e-05,0.217335130441638,0.000481334456395448,4.4395652429988e-05,-4.40895649452509e-05,6.63379429121182e-06,-0.00628741372512125,-0.064273136705271,3.4524105070427e-06,-0.000442579366684221,-5.68911466468114e-07,2.67867418526925e-06,0.0663798197192522,-1.89731117430171e-06,3.44714471170204e-05,-3.36784480339551e-05,-5.13306388957293e-06,0.697132633364905,1.84822969803503e-05,-1.94088861950306e-14,0.000183643619702709,0.000291036139164724,-5.96011169671615e-15,-0.00200151682425723,0.132903897605207,-0.000863590447600454,0.00318043665437231,-0.000153670676160956,0.00227026223609192,4.72854144710229e-05,-1.60143142572242e-05,1.11598902068048e-08,2.73862216045498e-06,4.1762025721633e-10,-2.11662635639864e-06,1.37173077771559e-07,-0.00112503131247443,-1.29816006451542e-10,1.24128258655562e-15,0.000281572745649313,-1.27938689307498e-09,1.73076894625615e-14,1.29461186795687e-08,-1.30583084582611e-07,1.20905710683528e-14,-4.65115673799023e-16,1.70079848369961e-07,3.74306258495377e-06,1.13453856261268e-14,1.36808718548715e-16,-1.50919075840055e-09,3.71495104047622e-08,-8.20928324901888e-08,1.35411152994405e-15,-1.16541060179929e-06,1.26400959649374e-15,2.16627890916557e-08,-3.553095840098e-16,9.0674760892792e-16,4.65369564980802e-15,-5.28923537091712e-09,-1.83310045869233e-08,3.55012560461848e-15,-4.0259024284237e-08,2.0229817154364e-07,-6.5194776342425e-15,-2.01477596822363e-08,-7.68510254300301e-16,7.78026721155803e-15,-1.25109448380165e-09,-6.92083084466404e-15,-3.34244808740328e-15,3.97212213549904e-15,4.42731257085482e-09,6.13516137454271e-15,-4.13052899534152e-15,-1.64092293663271e-15,-3.67643235651519e-15,-5.70521532838847e-15
"t35",0.00621415624563393,-0.166764020312471,-0.0394294350393168,0.000107428763554102,-0.00416981140090285,-0.0449813415387128,-0.154802797488343,0.0123134693057424,-0.0013917599099439,0.00418024772469445,-0.100927797520495,-0.000210159840133768,0.000876504240237034,0.00226486401745058,0.000509197715744248,0.000143320593929056,-0.0297942357317443,-0.00641580235562472,-1.76283099264387e-05,-0.00108153535726329,0.000186824460959758,0.00102302192664167,-0.00376890825545474,-0.00602511857693566,0.0630582226436976,-0.375750087431271,-0.0217552239072271,-0.124850369529039,-0.0032433398574324,0.0799777742189978,0.00638944810061692,-0.161124085703726,0.148707823686688,-0.719351619018808,-0.0874901693117674,-0.000502275425293045,0.15895849783844,0.0644057704995467,-0.00341444962256573,-0.01275830052312,0.145698599615241,0.000456672548534638,0.000273882649199758,-0.00149025094572059,0.000275169090342551,-0.0990616317249978,-0.000138627995820977,-2.85776061746842e-08,0.00237338943702014,-0.0060123091418239,-0.00107010655295049,0.0269764956837174,-1.09965052625658e-05,-0.0024954527518014,-2.79127400619672e-05,0.000972334428738221,-0.000760805599269841,2.01725514466316e-05,0.0278614867423138,6.62623792568782e-06,-0.000382402007623795,0.101292238447253,-0.000220682474192591,0.0359984092360665,-0.000583420656855605,-0.0142168188651779,-8.97173465358223e-05,-1.30389695815324e-06,2.78743177432588e-08,-0.110351310206846,1.44985177620173e-15,1.34913001870992e-06,2.19061163228791e-08,5.49783004943847e-05,3.07742371904075e-06,-0.252635315192606,-0.0359718664591564,0.000109499697536422,-1.98022934206645e-05,-0.000140629967097651,2.32956612760017e-05,5.84498539100613e-06,-0.0889585803997699,-0.000183164456763594,-1.66619781155545e-05,1.52725575295417e-05,-2.08511355965904e-06,0.00189751797140027,0.0192544834542917,-9.96403410024766e-07,0.000123652616947346,1.5886715917608e-07,-7.4369200302941e-07,-0.0200573929417337,4.75565618819892e-07,-8.55197683949636e-06,8.33337625894896e-06,1.2612132781217e-06,-0.160002756105203,-4.09500725215328e-06,5.43369460795159e-15,-3.8666944709261e-05,-5.76910468351714e-05,2.75661401564826e-15,0.000383926873117364,-0.0251056116006953,0.00014990195930381,-0.000542640075667402,2.4840432022403e-05,-0.00035856843801596,-6.73534636008271e-06,2.10279964427156e-06,-1.35959306053391e-09,-3.21720148121765e-07,-4.31923120589657e-11,1.97789256985137e-07,-1.23923609381079e-08,9.1712236067107e-05,1.03952764242408e-11,-1.86488824391173e-16,-2.03151819771508e-05,9.22230629141795e-11,-8.01703587117975e-16,-6.27774311848518e-10,6.23618775770583e-09,-4.1553502947449e-15,5.06522011600504e-16,-7.65455175980034e-09,-1.2002502186451e-07,-3.8876550602829e-15,-9.57660905663836e-16,2.89299987608345e-11,-8.01756415567147e-11,-2.58841223582719e-10,3.24891125459706e-17,-1.07859053665975e-08,-1.08667464234919e-15,2.54649465024313e-10,-3.10978353407548e-16,-1.82655858042546e-16,-1.44889766054596e-15,-1.5446964207834e-10,-5.40598299787012e-10,-8.41852644273055e-16,-1.70931867394245e-09,9.54750993771369e-09,2.11417798284756e-15,-9.9662981536749e-10,-2.78702717858054e-16,-2.57844449162861e-15,-7.57878146242806e-11,6.10789537792171e-16,2.01257885823512e-16,4.81635887999247e-16,3.33361117068602e-10,-4.40712145245195e-15,-4.43284676981896e-16,3.331293412133e-15,-3.74082836206759e-15,-4.84293119610377e-15
"t69",0.00643686397009415,-0.176602151977109,-0.0424037883759786,0.000122375399244766,-0.00497073196933984,-0.0556547676453387,-0.191709345948683,0.0166349250513025,-0.00221226131068655,0.0072687864878668,-0.193813871030163,-0.000675158305873284,0.00723148797810141,-0.0169524196916484,-0.00194547852561114,-0.000385258912416249,0.0337092076505727,0.00631862384231549,1.53691319827102e-05,0.000758362450242506,-0.000128438683813096,-0.000555033887468869,0.00124188097471327,0.00169601642928277,-0.0155381024702533,0.0715805306716174,0.00398497718358284,0.0228036113722807,0.000479002095754089,-0.011181495074656,-0.000855118808199401,0.0168735539831253,-0.00930882465279109,0.038308229419172,0.00462099864680478,2.62770202618542e-05,-0.00745367491132966,-0.00278301864482807,7.40438053163869e-05,0.00017498646680582,-0.00174540059115848,-4.10818098413893e-06,-1.1401542646507e-07,-3.07156002388631e-06,-3.14755146951751e-06,0.240225084901278,-0.000208505446001301,-2.22250420169557e-08,0.000188207371645154,-0.000363243741198992,-6.32429684833849e-05,0.00154350656653113,-6.24267055040435e-07,-0.000137459137356589,-1.36050264929479e-06,4.71260869899132e-05,-2.7558901867272e-05,5.88330747995767e-07,0.000659617993614872,1.38406808110963e-07,-7.75194247567509e-06,0.00141032553562093,6.413878912425e-06,-0.00142429985835641,9.24744852875602e-05,0.003731534288598,2.7425064344357e-05,7.19132079193879e-07,-4.68243204320022e-08,0.292295393944738,-6.56054526985457e-15,1.19094135121894e-06,1.12140403751858e-08,1.54209376604425e-05,4.96618601346975e-07,0.042400226272019,-0.846957491287367,0.000105902050323812,-1.35166957975863e-05,-9.5426592771679e-05,1.51218272954868e-05,3.61640515705409e-06,-0.0478398361874895,-8.48171983284958e-05,-7.56962776773025e-06,6.41986441453477e-06,-8.43342351560816e-07,0.000770214716713877,0.00783524893617045,-4.16504665280313e-07,5.49299670955886e-05,7.06798872678835e-08,-3.37210099717575e-07,-0.0828107597211044,3.6051871287312e-08,-1.42010970677562e-06,1.48554405960158e-06,2.55710754724887e-07,-0.0440828409096249,-1.17036129824542e-06,-5.42158023434189e-16,-1.13473610032016e-05,-1.71848199996823e-05,6.79246904120471e-16,0.00011489441370872,-0.00752558439853807,4.51874621745329e-05,-0.000163686777576534,7.50443198534374e-06,-0.000108374223747643,-2.0381280246138e-06,6.3661088479613e-07,-4.11736644194853e-10,-9.74422834973924e-08,-1.30841180972264e-11,5.99632286911521e-08,-3.75758300178369e-09,2.78240082851067e-05,3.15230561213326e-12,7.23222618195337e-16,-6.16769937672159e-06,2.79970959097732e-11,-1.40906536738031e-15,-1.9106739325062e-10,1.89820747705308e-09,-1.56766974872985e-15,2.213467180028e-15,-2.33078150269767e-09,-3.66167187035825e-08,1.22292425167763e-15,-1.01891557065635e-15,8.84575872590172e-12,-2.45977175192496e-11,-7.95141614430193e-11,1.34732242226086e-15,-3.31806934712579e-09,5.57872707694247e-16,7.83845572572047e-11,-2.07626872288957e-15,-2.05759170707235e-15,8.19806277477129e-16,-4.77685144191565e-11,-1.67197688270522e-10,-8.00781286963629e-16,-5.3071365149175e-10,2.9687816677948e-09,-3.34687006409656e-16,-3.10126547695012e-10,-1.50133397736945e-15,-3.23362996529361e-16,-2.36690742615667e-11,6.20050105371833e-16,1.47157118877464e-15,1.09217320504714e-14,1.04678938145009e-10,-2.46156598029091e-15,-8.26314305577951e-16,2.10334537001615e-15,-1.39824842720295e-15,-5.30914399715025e-15
"t107",0.00645327872082429,-0.177324337556809,-0.0426215239839748,0.000123458832224674,-0.0050283662893246,-0.0564184805994418,-0.194349753540137,0.0169403191542963,-0.00226910784001211,0.00748076086764931,-0.200129519671475,-0.000705690610361073,0.00763634280272753,-0.0181303653698266,-0.00209316310105191,-0.000416566591330722,0.0372212493408645,0.00701128017674602,1.71349557461436e-05,0.000853587598137259,-0.000144701231946849,-0.000632932454793139,0.00146100296790681,0.00201804518959143,-0.0186759176665286,0.0878281703488934,0.00490542298290215,0.0280774809978549,0.000600486193254801,-0.0140836615111213,-0.00108114016975356,0.0217936987004633,-0.0125632607893813,0.0523832690689893,0.00632296400351133,3.59823750338575e-05,-0.0102944312962287,-0.00386769778596037,0.000107757915078797,0.000260814682485268,-0.00261727198066207,-6.23089447332416e-06,-1.8114598296594e-07,-5.1681175921455e-06,-5.60954106542478e-06,0.461662572692862,-0.000402362086837036,-4.29990962823236e-08,0.000411812164770802,-0.00101835003570152,-0.000183570836955339,0.00471978853696353,-1.93326349469169e-06,-0.000446877289794926,-5.34581894712363e-06,0.000186732314682618,-0.000162782964803294,4.54660484437828e-06,0.00651455435926632,1.57688818467073e-06,-9.1350090275933e-05,0.0251263128999965,-6.71742694672814e-05,0.0114205715211183,-0.00026498778503936,-0.00809283176709934,-5.53244072066379e-05,-1.15382287808343e-06,5.88822024281299e-08,-0.349457984888032,3.73441016036196e-15,-9.27908364917199e-07,-6.60959018582109e-09,-6.1648158912721e-06,-1.64822194873653e-07,-0.0109898880780014,0.166639619612977,-1.52661881431485e-05,1.37154196648894e-06,9.58147737792867e-06,-1.38944790252848e-06,-2.94671115841197e-07,0.00199727431092026,-2.13425737381047e-06,-2.77683825331099e-07,6.2436971069268e-07,-1.34050687118767e-07,0.000139927068783183,0.00145452844744744,-8.53603087387674e-08,1.21404623717458e-05,1.56391922529925e-08,-7.5569190003459e-08,-0.0207800518861767,9.44386403872296e-09,-3.79575087476767e-07,3.98830687323206e-07,6.94312782466377e-08,-0.013095874472189,-3.61515496891137e-07,1.06900335366149e-14,-3.68552624808873e-06,-5.87805349165405e-06,2.39932449751747e-15,4.03063784817823e-05,-0.00266975290278089,1.69466191085151e-05,-6.20152783097465e-05,2.92918834617244e-06,-4.2807282276471e-05,-8.43998108936123e-07,2.72107663371084e-07,-1.80547391655188e-10,-4.32204446401451e-08,-6.01614870981534e-12,2.8209574700117e-08,-1.78042174717512e-09,1.34475012422035e-05,1.54195294048581e-12,5.30361972411389e-14,-3.04185025245651e-06,1.36876421193906e-11,0.707106781186546,-9.88419089101189e-11,9.83375978994764e-10,7.66311579107635e-15,3.37814040598234e-14,-1.21391864670115e-09,-1.95325541844276e-08,-7.33553934160407e-15,4.56182656523354e-15,4.83494309874467e-12,-1.38005521067474e-11,-4.50286547383302e-11,6.07488514549869e-15,-1.89711700784644e-09,7.22673471359942e-16,4.49848948396121e-11,-2.54201895989608e-15,-2.51752126017319e-15,1.79868085798285e-15,-2.81513155772756e-11,-9.85567798917529e-11,3.1908317278919e-15,-3.18659349466575e-10,1.79433309725019e-09,-5.79173604991525e-16,-1.88020104723786e-10,3.9362586737271e-15,-1.23754390450334e-15,-1.45605194694884e-11,1.61219589749603e-16,-4.03024688595155e-15,-5.25133463600392e-16,6.56562060054752e-11,1.39313614531195e-14,-2.25512641538317e-15,1.80696141650626e-15,-4.08099017826103e-15,-6.10818347288799e-15
"t108",0.0064532787208243,-0.177324337556809,-0.0426215239839748,0.000123458832224715,-0.00502836628932467,-0.0564184805994417,-0.194349753540136,0.0169403191542966,-0.00226910784001254,0.00748076086764928,-0.200129519671475,-0.000705690610361154,0.0076363428027267,-0.0181303653698254,-0.00209316310105183,-0.000416566591329995,0.0372212493408642,0.00701128017674497,1.71349557468514e-05,0.000853587598136781,-0.000144701231947155,-0.000632932454792158,0.00146100296790631,0.00201804518959058,-0.018675917666528,0.0878281703488937,0.00490542298290164,0.028077480997854,0.000600486193255048,-0.0140836615111205,-0.00108114016975365,0.0217936987004634,-0.0125632607893809,0.0523832690689867,0.00632296400351146,3.59823750332251e-05,-0.0102944312962278,-0.00386769778595997,0.000107757915078532,0.000260814682484843,-0.00261727198066126,-6.23089447370952e-06,-1.81145983351008e-07,-5.16811759051914e-06,-5.60954106519746e-06,0.461662572692857,-0.000402362086834686,-4.29990979519562e-08,0.000411812164769483,-0.00101835003570199,-0.000183570836954765,0.0047197885369607,-1.93326349251532e-06,-0.000446877289797904,-5.34581894892303e-06,0.000186732314682192,-0.000162782964803525,4.54660484315995e-06,0.00651455435926855,1.57688818626004e-06,-9.13500902768277e-05,0.0251263129000098,-6.71742694688103e-05,0.0114205715211208,-0.000264987785038394,-0.0080928317670911,-5.53244072039032e-05,-1.15382287638949e-06,5.88822026780971e-08,-0.349457984888035,4.82944744024878e-15,-9.27908363260137e-07,-6.60958934950247e-09,-6.16481588776175e-06,-1.64822199304202e-07,-0.0109898880779956,0.166639619612972,-1.52661881458348e-05,1.37154196507813e-06,9.58147737736638e-06,-1.38944790429931e-06,-2.94671109477374e-07,0.00199727431091781,-2.13425737262108e-06,-2.77683822839312e-07,6.24369705981837e-07,-1.34050683994039e-07,0.000139927068784384,0.00145452844746953,-8.53603055447579e-08,1.21404623711303e-05,1.56391820872372e-08,-7.55691974512601e-08,-0.0207800518861406,9.44386125533766e-09,-3.79575092684045e-07,3.98830684767589e-07,6.94312663277856e-08,-0.0130958744721566,-3.61515498272863e-07,-6.68881544865187e-15,-3.6855262478151e-06,-5.8780534996187e-06,9.85790288099346e-16,4.03063784576982e-05,-0.0026697529027895,1.69466190967982e-05,-6.20152783063997e-05,2.92918833491869e-06,-4.28072822813352e-05,-8.43998110492184e-07,2.72107672466368e-07,-1.80570453442586e-10,-4.322046338411e-08,-6.01623784184582e-12,2.82095810054167e-08,-1.78045459243111e-09,1.34475013288338e-05,1.52055515650578e-12,-5.34103424709331e-14,-3.04185026794423e-06,1.39316110825533e-11,-0.707106781186549,-9.88437227701891e-11,9.83393331684416e-10,-8.38817606171865e-15,-3.88795104370942e-14,-1.21378429648791e-09,-1.95325899103528e-08,5.21990753639995e-15,-5.46006326536824e-15,4.82161449892278e-12,-1.38281789334609e-11,-4.50314616356873e-11,-9.2135519657025e-15,-1.89710791389066e-09,-1.22314545628699e-15,4.49915578971309e-11,2.37081710865078e-15,4.02663246462825e-15,-1.61466535275075e-15,-2.8146154300563e-11,-9.85537722645809e-11,-5.28401647687406e-16,-3.18663456655115e-10,1.79433855205598e-09,3.34762170342268e-15,-1.88036719134254e-10,-3.42880342253988e-15,1.48911638930244e-15,-1.45713735009708e-11,-5.04886418027953e-16,4.15071155348582e-15,-5.82843581607727e-15,6.56511600492279e-11,-1.24328850034137e-14,-2.09271487457334e-15,1.59378853156225e-15,-4.07048863089342e-15,-5.37076350841763e-15
"t64",0.00643024700750398,-0.176310974955797,-0.0423159884262198,0.000121938315306134,-0.00494747319244947,-0.055346487915788,-0.190643514910967,0.0165115839631386,-0.00218928377861024,0.00718307429214244,-0.191259224067959,-0.000662793045145953,0.00706737266235716,-0.0164744249526505,-0.00188552403708041,-0.000372544911341404,0.0322813669525847,0.00603696629762753,1.46509746486497e-05,0.000719625562859457,-0.000121823091095446,-0.000523341549671819,0.00115280377468913,0.00156520147377953,-0.0142645816229408,0.0650033197286198,0.00361256432191652,0.0206698850059909,0.000430023751775159,-0.0100127452995692,-0.000764183621798161,0.0149072036889069,-0.0080381751386259,0.0328719155382873,0.0039640327603552,2.25333645165397e-05,-0.00636739085771918,-0.002371224791536,6.2397789192244e-05,0.000148611821217844,-0.00149021808623253,-3.5664120558972e-06,-2.82646589265509e-07,-1.68814564769494e-06,-1.75573891799736e-06,0.12218992558226,-0.000105351415981962,-1.11823025681546e-08,7.22858012477247e-05,-2.43631682902064e-05,-9.27859076477256e-07,-0.000104611926350287,5.52920134959876e-08,2.34986560361665e-05,7.30237439994123e-07,-2.61404882556589e-05,4.45858891089106e-05,-1.54226266425985e-06,-0.00251252171961615,-6.43445438524656e-07,3.77175461412014e-05,-0.0115794045075559,4.83481348631515e-05,-0.00880337317074723,0.000311839173139281,0.01124964640663,8.06346414181811e-05,1.97619044970184e-06,-1.22246300219683e-07,0.757235462598212,-7.85066204482937e-15,3.0346678114861e-06,3.0264760769951e-08,5.68353254086837e-05,3.04571784862838e-06,-0.272274657569267,0.445294362892926,3.46091536704605e-05,-8.71859205719957e-06,-6.21153837437648e-05,1.05189319263496e-05,2.69249762798292e-06,-0.0424917923246845,-8.77270177090523e-05,-7.96189390390291e-06,7.19465473443058e-06,-9.81532288187271e-07,0.000905646094770677,0.00922859677437208,-4.94672428221263e-07,6.57734071413896e-05,8.46451790699495e-08,-4.04558798673015e-07,-0.104780407827914,3.17822534988393e-08,-1.55681934767136e-06,1.64712690589089e-06,2.88821485493202e-07,-0.0516547076215834,-1.37721180425844e-06,1.99558009824735e-15,-1.33949499999862e-05,-2.03200823087371e-05,-3.52758652040914e-15,0.00013591339032245,-0.00890334462203789,5.34593380966074e-05,-0.000193631089145815,8.87315707620272e-06,-0.000128108169699113,-2.4059422853097e-06,7.5055732173682e-07,-4.84843829795417e-10,-1.14676676385363e-07,-1.5381207853517e-11,7.03132567382619e-08,-4.40393367382073e-09,3.25619896764911e-05,3.68960028134552e-12,1.94972037331736e-16,-7.20624146750457e-06,3.27136155166897e-11,-7.65609682314078e-15,-2.22277390214353e-10,2.20798920743819e-09,-9.5742714407389e-16,7.52740704959257e-16,-2.70975522576045e-09,-4.24652015876574e-08,5.98491206302275e-16,1.92615983171647e-15,1.0239457468239e-11,-2.83585644150644e-11,-9.15784740904315e-11,4.61439768531086e-16,-3.81665601703143e-09,-8.64619514415683e-16,9.01170546007996e-11,1.09907731555562e-15,1.02625121995919e-15,-9.35703794129696e-16,-5.47282400496754e-11,-1.91532528555205e-10,-9.83419195593949e-16,-6.06350278600463e-10,3.38859807411324e-09,8.77295318433592e-16,-3.53820153670054e-10,8.26914480588023e-17,-7.75205268808094e-16,-2.69428842317447e-11,3.56934668625621e-16,-4.75238523201546e-16,8.27710120836749e-15,1.1879869320756e-10,-1.08528541403888e-15,-2.21162710537058e-15,1.44424037291007e-15,-2.94071181483986e-15,-5.29050706161612e-15
"t91",0.00645746222615766,-0.177511130150286,-0.0426784031149826,0.000123751872081675,-0.00504435121755374,-0.0566344021184402,-0.195096604359292,0.0170302745215357,-0.00228693547070504,0.00754917726169862,-0.202225616013705,-0.000716878888182151,0.00779706298535904,-0.018644955152483,-0.00216057843372802,-0.000431380333455286,0.0391470579037699,0.00740409944889636,1.81692152067725e-05,0.000913057341929039,-0.00015492103100563,-0.000685986505117511,0.00164394306613543,0.00230746589359755,-0.0216872797119581,0.10567518743415,0.00593841918669357,0.0340056046382681,0.00075448305851395,-0.0178822276812528,-0.00138469820510769,0.0294637387295315,-0.0196419820038554,0.0865381418929425,0.0104762946867185,5.98215369135299e-05,-0.0178184079463374,-0.00690852814766359,0.000263014248702533,0.000819120552872104,-0.00891295341590116,-2.54216997327647e-05,-9.61470433902833e-06,1.53603201566799e-05,6.97835273328261e-06,-0.278091605095195,0.000234263415182192,2.4514657825708e-08,-9.45523180936724e-05,1.77193034854188e-05,6.36370743077479e-07,6.61669187310711e-05,-3.43287676181033e-08,-1.36383088570132e-05,-3.4101068574524e-07,1.21069966548268e-05,-1.52831242088872e-05,4.62959890337871e-07,0.00068927195709196,1.6922426745933e-07,-9.83028228786208e-06,0.00276387509882111,-7.47537702430096e-06,0.00125702443679567,-2.46857164756523e-05,-0.000664741435350439,-4.34839307372372e-06,-7.53813255152052e-08,2.80032950684143e-09,-0.0151651312619216,2.69854218882309e-16,-2.1665875795774e-09,1.84955985570407e-10,4.30558158996986e-07,1.59457747652554e-08,0.000101773887070382,-0.00407394626323156,-7.23831847933062e-07,3.0377243569826e-07,2.18979016871776e-06,-4.06922998092418e-07,-1.16341452845925e-07,0.00274538092289077,1.08048599650611e-05,1.09608522039503e-06,-1.82760913088013e-06,5.25100533459727e-07,-0.000685216809853065,-0.00747112438026088,5.828855180085e-07,-0.000116210234579372,-1.50658900343535e-07,7.84895001044998e-07,0.871311347625623,1.51409145320957e-06,-1.82268255965812e-05,1.65649884557515e-05,2.14200507117051e-06,-0.128310265712703,-2.69819288734365e-06,-3.02350029935878e-15,-2.08848340111639e-05,-2.64964165592249e-05,-2.02341917628474e-15,0.000164822954704392,-0.0104827516104995,5.53937464459742e-05,-0.000196586278581685,8.52493708843128e-06,-0.000120613121382106,-2.10837586553218e-06,6.31250187386651e-07,-3.95884954839339e-10,-9.25033480414888e-08,-1.19515077539569e-11,5.37293496225883e-08,-3.34632688312687e-09,2.43832623151752e-05,2.75858618441211e-12,-8.18170204036577e-16,-5.32402177937205e-06,2.41688406634461e-11,2.0835353951136e-14,-1.5998111357696e-10,1.58797059367639e-09,-1.20279434030338e-15,8.73680037452353e-16,-1.94416470325042e-09,-3.01678886029067e-08,-2.00941152642313e-14,-2.49307170205841e-15,7.22239856279627e-12,-1.98309079439748e-11,-6.39462900065937e-11,1.92331101063197e-15,-2.66088310011133e-09,-3.11079667353901e-15,6.27866604819973e-11,4.05974831665886e-16,1.74355005494753e-15,-6.21905493187089e-16,-3.8008111471977e-11,-1.33018492609935e-10,-1.13900193169986e-15,-4.20639112595337e-10,2.35039571326031e-09,3.17240228349175e-15,-2.45408295081858e-10,5.5449085457442e-16,-2.16822548714597e-15,-1.86889543178143e-11,3.59607855678947e-16,-1.07245554152867e-15,-6.8627280895266e-15,8.25097769136644e-11,-4.65160612961106e-15,-3.38134590249173e-16,3.59411959969838e-15,1.18179507959684e-15,-4.39015824064594e-15
"t150",0.00647473179069148,-0.178271735415881,-0.0429078894810261,0.000124896780656469,-0.00510537589861917,-0.0574442936591845,-0.197896770321887,0.0173552479723528,-0.00234776603426962,0.00777662432122837,-0.209020768640829,-0.000750074654434466,0.00824139457438349,-0.0199539759393159,-0.00232571731141067,-0.00046657414727971,0.0431914296937231,0.00820660033125512,2.02274289695873e-05,0.00102545748415768,-0.000174141125090561,-0.000779641708500389,0.0019208519773028,0.00272284611070219,-0.0258139841345015,0.127992166560468,0.00721203638794691,0.0413070321681867,0.000930162867883329,-0.0221309496567468,-0.00171894715242399,0.0372055951038466,-0.0256600000481853,0.114169706736364,0.0138281120368156,7.90055473280692e-05,-0.0236823091818068,-0.00922421707680631,0.000362962400398237,0.00114919679448121,-0.012556131250943,-3.6089173179039e-05,-1.40711001775944e-05,2.32972166698154e-05,1.09486489451677e-05,-0.454849935441172,0.000384004901930265,4.023919608179e-08,-0.000165020633006637,3.43058514060261e-05,1.24780491765501e-06,0.000132133375272802,-6.8849864663877e-08,-2.77956803997896e-05,-7.35067090283861e-07,2.61562544958756e-05,-3.60937805857862e-05,1.14192640140389e-06,0.00175360801440027,4.37004874058581e-07,-2.54679266882996e-05,0.00739379922438926,-2.38204852671062e-05,0.00414835920506637,-0.000108646791173618,-0.00343620754108409,-2.36946204675598e-05,-5.06755915594597e-07,2.64198654799998e-08,-0.157347771370533,-2.5563115826797e-16,-4.22623291136394e-07,-2.96406716569067e-09,-2.64718820319997e-06,-7.54014700119299e-08,-0.000369763535554513,0.0118842213706401,1.7561978294699e-06,-6.33469292954504e-07,-4.54909119687246e-06,8.19846177796644e-07,2.25748362979202e-07,-0.00460169110180937,-1.39538220060857e-05,-1.35005081577008e-06,1.72522126676433e-06,-3.6222174095477e-07,0.000414270792792623,0.00440889197457372,-3.03939470082108e-07,5.41903855392473e-05,7.01268372735131e-08,-3.57865794333095e-07,-0.320957759303447,-5.05298159492367e-07,5.78211921463079e-06,-5.19440631841815e-06,-6.51697529688338e-07,0.0292729289959984,5.23908354486095e-07,1.17286657604642e-15,3.12504111663934e-06,2.72225226228753e-06,3.06573387422029e-15,-1.31011590476084e-05,0.000724756587871682,-9.46538563789093e-07,1.46370661493166e-06,1.7885518323324e-07,-3.90708071106504e-06,-1.64830763187227e-07,6.89575052879412e-08,-5.3275417815418e-11,-1.34949727681402e-08,-2.18191540409969e-12,1.10097630018731e-08,-7.0987947077392e-10,5.66241704728074e-06,6.44548379314448e-13,1.78282300716723e-15,-1.34614415381795e-06,6.11754470145862e-12,-2.6185902257176e-15,-4.8285335760184e-11,4.81650644566203e-10,4.59257771177499e-16,4.73548735214895e-15,-6.00217238216037e-10,-1.00620747987465e-08,-4.56204123461079e-15,-8.10474102208803e-16,2.5676278738405e-12,-7.67331424084653e-12,-2.53164532271436e-11,-2.38780159907473e-15,-1.07989641335017e-09,2.90715090567716e-15,2.57322720190296e-11,-3.27770823941339e-15,-7.96647372280868e-15,-6.59351158332973e-15,-1.66306860980908e-11,-5.82403387192740e-11,8.20775715634247e-15,-1.92362645538522e-10,1.09119898937379e-09,-8.04838168245184e-15,-1.14732717871837e-10,6.44279786807507e-16,-3.31182997766757e-14,-9.03798124250252e-12,1.5890123664532e-14,-3.2618094251051e-14,-0.707106781186544,4.13904764255053e-11,1.6483121646557e-13,3.78789595316772e-14,3.50685780315977e-15,-1.60905526862736e-15,-9.32772040253083e-15
"t151",0.00647473179069149,-0.178271735415881,-0.042907889481026,0.000124896780656103,-0.00510537589861936,-0.0574442936591845,-0.197896770321887,0.0173552479723527,-0.00234776603426998,0.0077766243212279,-0.209020768640829,-0.000750074654433996,0.00824139457438256,-0.0199539759393151,-0.00232571731141105,-0.000466574147280329,0.0431914296937249,0.00820660033125482,2.02274289692591e-05,0.00102545748415866,-0.000174141125090509,-0.000779641708501009,0.00192085197730305,0.00272284611070339,-0.0258139841345023,0.127992166560467,0.00721203638794643,0.0413070321681869,0.00093016286788334,-0.0221309496567466,-0.00171894715242545,0.0372055951038479,-0.0256600000481854,0.114169706736366,0.0138281120368154,7.90055473270016e-05,-0.0236823091818083,-0.00922421707680554,0.000362962400401696,0.00114919679448084,-0.0125561312509437,-3.60891731784269e-05,-1.40711001779016e-05,2.32972166699387e-05,1.09486489472495e-05,-0.454849935441171,0.00038400490192947,4.02391950973648e-08,-0.000165020633007774,3.43058514061733e-05,1.24780491818472e-06,0.00013213337527697,-6.88498646811582e-08,-2.77956803990893e-05,-7.35067089477679e-07,2.61562544934816e-05,-3.60937805846852e-05,1.14192640145659e-06,0.00175360801440312,4.37004876471996e-07,-2.54679266887636e-05,0.0073937992243838,-2.38204852668495e-05,0.00414835920506789,-0.000108646791174666,-0.00343620754108058,-2.36946204675746e-05,-5.06755916695084e-07,2.64198630422628e-08,-0.157347771370552,2.37402994595331e-15,-4.22623291436117e-07,-2.96406717526514e-09,-2.6471881993035e-06,-7.54014688639524e-08,-0.000369763535575086,0.0118842213706449,1.75619782804234e-06,-6.33469291070464e-07,-4.54909119357122e-06,8.1984617887092e-07,2.25748361982964e-07,-0.00460169110179937,-1.39538220037111e-05,-1.35005081472442e-06,1.72522126826538e-06,-3.62221748063475e-07,0.000414270792795716,0.00440889197457187,-3.03939467812019e-07,5.41903855390374e-05,7.01268289011394e-08,-3.57865787744696e-07,-0.320957759303431,-5.05298161928112e-07,5.78211921523715e-06,-5.19440632208172e-06,-6.51697524920645e-07,0.0292729289960064,5.23908353111685e-07,2.6103074681836e-15,3.12504111929795e-06,2.72225225562784e-06,8.53111895800625e-16,-1.31011590433534e-05,0.0007247565878803,-9.46538567631505e-07,1.46370661602844e-06,1.78855175940869e-07,-3.90708071279066e-06,-1.64830767101617e-07,6.89575055060149e-08,-5.32785276282543e-11,-1.34949658482978e-08,-2.1818814709366e-12,1.10097649259796e-08,-7.09901966133478e-10,5.66241705592379e-06,6.57694313715176e-13,-1.6578885584191e-15,-1.34614414887767e-06,6.10711361072717e-12,-7.73803408243906e-15,-4.82790625426971e-11,4.81647489375251e-10,-2.0356947346366e-15,-4.43495492394888e-15,-6.00225311076993e-10,-1.00620702654804e-08,1.80870474345133e-14,4.68868452072328e-16,2.58384416763283e-12,-7.68644211089323e-12,-2.53252212990733e-11,7.17472915851311e-16,-1.07989913415214e-09,-3.36675799938525e-15,2.57351252751352e-11,3.94003570385941e-15,5.89880783436921e-15,7.35250550344505e-15,-1.66232429018466e-11,-5.8243991554656e-11,-8.41181001512126e-15,-1.92378153433296e-10,1.09117905450928e-09,9.38170388413715e-15,-1.14750983177762e-10,-2.13089922414446e-15,3.18035680071407e-14,-9.02335722042179e-12,-1.47902823768873e-14,3.24719265784918e-14,0.70710678118655,4.16734808166937e-11,-1.66809529128592e-13,-4.40141823724142e-14,3.28222732121039e-16,-7.28060693663131e-15,-1.47998348411846e-15
"t49",0.00608826971749043,-0.160762098281446,-0.0375173705827166,9.58015533186912e-05,-0.00344835739259478,-0.0341565355617728,-0.117264769082074,0.00652395045249874,0.000486077106043674,-0.0056452167182347,0.351319944443524,-0.00425415055379408,0.0211226618666898,-0.0362295399513989,-0.00380432845403935,-0.000709055793493094,0.0511959303008114,0.00924631826363998,2.17284851095859e-05,0.0010032034902016,-0.000168826346658649,-0.000672262655200386,0.00121145437362794,0.00151769379006683,-0.0128055935411081,0.0487217625636403,0.00262217793902891,0.0149671162039958,0.00025401144183978,-0.00555612718288415,-0.000401975849237892,0.00533624159357405,0.000128359077733094,-0.00440081936749448,-0.000554221560491576,-3.30518433926247e-06,0.00142934962325149,0.000666304499083825,-4.00563048050725e-05,-9.73168866830183e-05,0.000896901625493274,1.34521395836231e-06,-4.24743357282856e-06,7.29096594668974e-05,-2.56958409541369e-05,0.000433039139994741,3.95686216633302e-05,6.79384792388626e-09,-0.000957946813703508,0.0142757164078016,0.00412845726817493,-0.633165467773547,-0.00175556137123787,-0.0136668586485585,-3.54380964828649e-05,0.00119423377089781,-0.000148369818017129,-1.71630141293305e-05,-0.608651477008673,3.38034462883785e-05,-0.00160392289851889,0.183674770264106,-0.000172386843977179,0.0263261000508832,-0.000308581722101737,-0.00669216669420166,-4.07654148303393e-05,-5.11921386143017e-07,6.6369917659747e-09,-0.0142358643842887,-1.66123508680204e-15,6.01567113280776e-07,8.24167761092669e-09,1.75297850963036e-05,9.15255639335231e-07,-0.0687889012330939,-0.011724347083083,2.5470542732055e-05,-4.2225153021456e-06,-2.99175689262032e-05,4.86293581251038e-06,1.19117550387985e-06,-0.0163550575374009,-2.66356832746701e-05,-2.29968774639252e-06,1.43636544676558e-06,-7.75551510926122e-08,2.23678671580394e-05,0.000135340048575034,1.77507538724219e-08,-5.10496969931453e-06,-6.62145729026454e-09,3.43704427533455e-08,0.00522927071580766,-4.33869879624975e-08,9.02830041330571e-07,-9.03727997420331e-07,-1.45788260792836e-07,0.0279881480061609,8.40626952568277e-07,-1.14860211612283e-15,9.70065405400656e-06,1.77875911219432e-05,1.37173013531496e-16,-0.000131102316526868,0.00897362023281544,-6.77399890564837e-05,0.000256445280029664,-1.34452700835466e-05,0.00020533959108679,4.91369499249546e-06,-1.84760305452133e-06,1.42095669529183e-09,3.66832733536796e-07,6.93175167166278e-11,-4.66311566062899e-07,3.53743892059593e-08,0.0744401914114231,6.9817883668126e-11,1.79173042207052e-14,-0.0519359850981699,1.04483311448306e-08,8.25708415622741e-15,9.64290840958372e-10,-9.9599154731241e-09,-4.72110205659987e-16,4.13813394780547e-15,1.40118876490718e-08,3.87193663202142e-07,-4.31110863678634e-15,-1.30496784812537e-15,-1.78314872499248e-10,4.95964835603792e-09,-1.13100324355221e-08,-3.48127708472494e-16,-1.66032162920945e-07,-1.49845142719064e-15,3.126742437052e-09,-8.86807455349092e-16,-2.57415163860185e-16,2.19752328391179e-16,-8.29059473081099e-10,-2.87688587109325e-09,1.99198608867578e-16,-6.66827598231701e-09,3.41345932636003e-08,9.74351486370883e-16,-3.42931182489824e-09,3.92831177867386e-16,1.07447713818044e-15,-2.21851807853011e-10,-6.65352188240906e-16,-4.24669945961524e-16,4.33400168316791e-15,8.26013604279371e-10,-4.95705745900957e-15,-2.90060920064985e-15,2.28522475744792e-15,-3.66189206111676e-15,-5.52107870686554e-15
"t97",0.00612131529984774,-0.162165694767285,-0.0379295433555113,9.76299673527202e-05,-0.00353503207558568,-0.0351770298183067,-0.120781582065742,0.0067872202966025,0.000513954083240483,-0.00601532846635211,0.377244121746628,-0.00470174704523326,0.0239395306190849,-0.042410149926024,-0.00452383442862341,-0.000854399842780855,0.0654046843866371,0.0119826186946774,2.85567684339774e-05,0.00135717092558492,-0.000229054709633592,-0.00094778939424948,0.00190138801391611,0.00248554537788829,-0.0218186639097029,0.0905269989857739,0.00494294901947561,0.028244072624354,0.000521495999027494,-0.0116775345301729,-0.000861211091989972,0.0128439684511077,0.000415460845630657,-0.0158884977117874,-0.00201255279990916,-1.20833184533525e-05,0.00565847534989576,0.00280713156628868,-0.000322701433719512,-0.00148962832573415,0.0177863884281375,6.01929664423039e-05,4.61624249735822e-05,-0.000313546101968907,6.91242205857837e-05,-0.000787550174731304,-7.07313290505646e-05,-1.20166611037812e-08,0.00114370323501491,-0.0112339813893663,-0.00314232239554967,0.462852881581533,0.00127295669541244,0.00966539025118146,2.51033164936407e-05,-0.0008495114330015,0.00038198834190902,-1.32578407069278e-05,-0.166778141420339,6.27474494388556e-06,-0.000274850119984872,0.0148649298062034,9.22691486446948e-08,1.89387264744115e-05,-9.16408146065895e-06,-0.000301156742525517,-2.01396928533966e-06,-3.28674055530116e-08,5.36952953153337e-10,-0.00120179770204983,-4.34622731222568e-16,6.84345712882337e-08,1.08276300972685e-09,2.67440075423836e-06,1.47508098868683e-07,-0.0117653553899408,-0.00211128767968896,4.79103207067798e-06,-8.22877879595884e-07,-5.83543320288134e-06,9.55236633102299e-07,2.3600762221494e-07,-0.00334830309069416,-5.75702263275112e-06,-5.01622767601635e-07,3.28228370135368e-07,-1.8495075389437e-08,5.40755439431801e-06,3.27920572750398e-05,4.34414129700352e-09,-1.25821940824497e-06,-1.63215306307104e-09,8.48148555505151e-09,0.00130061869008069,-1.08080526338024e-08,2.24974195780708e-07,-2.25204384362168e-07,-3.63296222113279e-08,0.00693885607351589,2.07088297804376e-07,-5.09783077253272e-15,2.35594845469153e-06,4.20940312328666e-06,-1.86126437906322e-15,-3.04387003905251e-05,0.00206211555562857,-1.44160630591457e-05,5.34538264900636e-05,-2.58511343906282e-06,3.77885729318534e-05,6.62842866985721e-07,-1.39995931183382e-07,-6.56828126796003e-12,-2.10020057838636e-08,-2.60554801806773e-11,4.71343288338392e-07,-5.068549683901e-08,-0.464332432024442,-6.85670733961968e-10,1.36293437949793e-13,-0.576371559874049,1.15084019902603e-07,-2.2232745628608e-14,1.28467409536446e-10,-1.757280264025e-09,1.44197443384824e-14,-1.83095824452944e-14,4.1788796819632e-09,1.97985563348663e-07,-1.13193574980051e-14,-8.68701746673022e-15,-9.96333701648194e-11,2.84758191075663e-09,-6.51226386213594e-09,1.61087787003964e-16,-9.58027641151324e-08,2.6286883825749e-15,1.80533877407071e-09,-9.26067003449767e-16,1.84883502702526e-15,3.04912788169904e-15,-4.80252526734998e-10,-1.66658575829655e-09,1.31664396197856e-15,-3.87285546244968e-09,1.9847253641475e-08,3.59787866320294e-15,-1.99509873231673e-09,1.49330318428934e-16,-1.87210887689454e-15,-1.29484105867183e-10,7.76284498698552e-15,2.16644842091121e-15,5.6210264018875e-15,4.84652227255084e-10,-6.20337841310817e-16,-2.42699324783817e-15,2.39038103562495e-15,-1.27967770209017e-15,-7.16787378097875e-15
"t98",0.00612652883191274,-0.162386574889267,-0.0379942942657626,9.79154608312308e-05,-0.00354850552006602,-0.035335119465827,-0.121326343906353,0.00682770255662889,0.000518191179085997,-0.0060712788758773,0.38114237356529,-0.00476776988857399,0.0243484502089732,-0.0432900398387445,-0.00462533838711199,-0.000874751422680611,0.0673333271373297,0.0123513839705493,2.94707000344471e-05,0.00140390371314105,-0.000236995820994722,-0.000983499872577289,0.00198704953222811,0.00260389520577375,-0.0229061467694286,0.0954375577030742,0.00521441940317302,0.0297966589545507,0.000552071311113233,-0.0123731422403771,-0.000913152269492768,0.0136712370214107,0.000445502737964659,-0.0170727780009609,-0.00216278325323243,-1.29868300980906e-05,0.00608961624269701,0.00302387666861766,-0.000349933887245826,-0.00162051959867076,0.0193645002056719,6.56293250278199e-05,5.06156376689483e-05,-0.000345968962874656,7.67083128917393e-05,-0.000879798566377953,-7.90432527908723e-05,-1.34316159862744e-08,0.00129009633555229,-0.0128488787491657,-0.00359969669129016,0.531401368312315,0.00146223705020087,0.0111236757651877,2.90745480129668e-05,-0.000984142460584775,0.000446609154014197,-1.55648395471985e-05,-0.196350991523896,7.39712720366844e-06,-0.000324104990915204,0.0175770025380832,1.10562058456754e-07,2.27468318322096e-05,-1.11858547723895e-05,-0.000370179543682175,-2.48060578873926e-06,-4.07694634899139e-08,6.71749472464758e-10,-0.00150634258650147,2.60082153678603e-15,8.72950854924703e-08,1.3985856329598e-09,3.51688873990586e-06,1.95620844171926e-07,-0.0157716899967618,-0.00286178626435929,6.56635173012337e-06,-1.13964520936888e-06,-8.08405029766965e-06,1.32634971215014e-06,3.28642396058486e-07,-0.00471909480358947,-8.32000913205747e-06,-7.28637425688946e-07,4.92175244176902e-07,-2.90046034781306e-08,8.66229121809523e-06,5.27421842461401e-05,7.13809737836368e-09,-2.10981931600899e-06,-2.73775944489675e-09,1.42817157730344e-08,0.00228247116688948,-1.93502220715829e-08,4.0701300149302e-07,-4.08409396821452e-07,-6.62996347212574e-08,0.013463592397808,4.16065830451605e-07,3.48549330227491e-15,5.00485288118616e-06,9.65059094398436e-06,1.95446362494793e-15,-7.31616395673564e-05,0.00507514462150131,-4.13841710207412e-05,0.000159281266853354,-8.81602314538514e-06,0.000137978218565682,3.72468639796172e-06,-1.56746414499595e-06,1.36413660021832e-09,3.77439828485305e-07,9.78382804132697e-11,-9.79867348099042e-07,8.97472090432256e-08,0.534536927729733,7.35959509108568e-10,-9.32489314024973e-14,0.421901649656454,-8.39759553584347e-08,2.77364071989884e-14,-1.89455110298075e-11,2.37663663665085e-10,-1.43656004083426e-14,2.06072356621945e-14,-3.82760796365303e-10,1.54490564994699e-08,8.12154191008193e-15,5.94431674654728e-15,-2.03939113049527e-11,9.40326545076738e-10,-2.36025290428686e-09,-1.29696861175255e-15,-3.79593245167195e-08,-3.26751759220737e-15,7.38705271896576e-10,9.77505564153499e-16,-1.23859017398251e-15,-1.04691623851067e-15,-2.3421169844816e-10,-8.14677897355218e-10,-9.98367946670165e-16,-2.07666485355648e-09,1.0949894592941e-08,-6.84737619863648e-16,-1.11492793399339e-09,-1.36951641818022e-15,1.5120298633424e-15,-7.6546688790638e-11,-5.85986348843474e-15,-3.19666951449006e-15,-4.10458926114178e-15,3.0454525201304e-10,-2.41195741894137e-15,-7.25378626826449e-16,2.53831605210663e-15,-4.17191384272997e-15,-3.62469387451924e-15
"t78",0.00609688427566856,-0.161129893537123,-0.0376257513416926,9.62882034487359e-05,-0.00347162888661744,-0.0344323582873606,-0.11821545470707,0.00659612033289042,0.000493884284970966,-0.00574988230891845,0.358720203277148,-0.00438617296166501,0.0219752249138031,-0.0381570154316771,-0.00403173682410574,-0.00075549046947241,0.0559322130209184,0.0101669286113585,2.40459867790811e-05,0.0011253925256614,-0.000189650721887946,-0.000769484834713356,0.00146666691058657,0.00188132523135075,-0.0162368225350296,0.0650423334089374,0.00353161258990297,0.0201713536507025,0.000360963797788044,-0.00801593445748452,-0.000587235365529681,0.00842901447749516,0.000251174069247838,-0.00936434354393516,-0.00118463422865832,-7.10195302833999e-06,0.0032699548341202,0.00160213246295361,-0.000167273913677695,-0.000732245011327744,0.00862292676004844,2.84173872193378e-05,1.94193688550945e-05,-0.000112143915570385,2.03734872581524e-05,-0.000167110201405044,-1.46880065430973e-05,-2.46143799281263e-09,7.85713224881223e-05,0.00242667131244726,0.000808854039175677,-0.148212575908955,-0.000427260846171961,-0.00382041239394572,-1.59619032768742e-05,0.000549454951450852,-0.000455622442757092,2.09493983927754e-05,0.323073781965899,-1.34448327451986e-05,0.000602114723265647,-0.0409000567062798,-3.40627601954964e-06,0.000991839862886101,-3.32096593476346e-05,-0.000823494976076038,-5.16085753626523e-06,-6.98017009762563e-08,9.56247959165798e-10,-0.00206875674449981,-6.74409423124958e-16,9.07460366407664e-08,1.23602262580589e-09,2.526844353324e-06,1.28152548120689e-07,-0.0092019742367956,-0.00148174144687011,3.01118021396279e-06,-4.64126701235633e-07,-3.28158460450334e-06,5.24243519845212e-07,1.25545194762159e-07,-0.00155315927254215,-1.912462978209e-06,-1.53872189800645e-07,5.06168946268434e-08,8.95451206916442e-10,-7.65341804837794e-07,-5.21877963760315e-06,-1.09362386354188e-09,4.26556336256084e-07,5.55687872290507e-10,-3.02787857556181e-09,-0.000694744286381589,6.70131325372732e-09,-1.49607445385591e-07,1.52092268551176e-07,2.55210047444954e-08,-0.00672704110321694,-2.32748705460319e-07,-3.02296473689154e-16,-3.24235907602847e-06,-7.29728295536677e-06,-3.01201409944699e-15,5.97632353176004e-05,-0.00429154091546974,4.17481602954908e-05,-0.000166115040499815,1.01530236513521e-05,-0.000165440162654234,-5.26121061375517e-06,2.47369027382481e-06,-2.3462518323538e-09,-6.7236810703193e-07,-1.87580160547186e-10,1.80671938032127e-06,-1.57163804504417e-07,-0.57557600115917,-6.3608296233303e-10,-1.77846859271997e-13,0.593731246863886,-1.20733429471521e-07,-4.07408464808134e-14,8.47378002801156e-09,-8.37700546517503e-08,1.6182781076472e-15,-2.83456319120137e-14,1.01779406963846e-07,1.76123916178627e-06,1.15322064911352e-14,7.48976465285061e-15,-6.08607739847684e-10,1.31118040439502e-08,-2.80938647711599e-08,5.22026283868718e-15,-3.86750184976896e-07,3.05501656494438e-16,7.10803683746702e-09,3.34416168939803e-15,3.66776962862976e-15,-1.20208895096901e-15,-1.63073211950872e-09,-5.64697798140593e-09,-7.0571674962544e-16,-1.201970924856e-08,5.98550194866836e-08,-3.47222792103654e-15,-5.93784436213001e-09,-1.75467823916709e-16,-3.02603698887307e-15,-3.62889695341619e-10,-2.06855059058222e-15,9.34361396409105e-16,2.95738148663582e-15,1.26651813191579e-09,2.62374746791744e-15,-1.84909952826442e-15,-4.31130421349636e-15,-2.15719562310468e-15,-8.43557386777918e-15
"t79",0.00611699236797871,-0.161980546267841,-0.0378748690577554,9.73826644193347e-05,-0.00352314415863489,-0.0350355709302359,-0.120293966460769,0.00674989696572769,0.000509865790085821,-0.00596021064887093,0.373326030345324,-0.00463053386116909,0.0234729450869135,-0.041337540668056,-0.00439634007399997,-0.000828210608461687,0.0626695213740843,0.0114482035327796,2.72048316339885e-05,0.00128520457182148,-0.000216778393080566,-0.000889804534891956,0.00174488223202903,0.00226042116463974,-0.0196768274833186,0.0801724668629371,0.00436451651582774,0.0249333868934346,0.000452528301937899,-0.0100857839780683,-0.000740995324270617,0.0108058164332376,0.000331999329623349,-0.0124850183666494,-0.0015800868814372,-9.47737284482902e-06,0.00438777830505506,0.00215832963710647,-0.000231718087177902,-0.00102818781874533,0.0121484831548656,4.02850396876145e-05,2.81989728671026e-05,-0.000167333642917517,3.11638057285066e-05,-0.000263213093510573,-2.31697775863301e-05,-3.88645148632849e-09,0.00012921598848164,0.00425122724779268,0.00142736997993728,-0.264259870643729,-0.000763632953163552,-0.00688894471833389,-2.96545895979123e-05,0.00102198887662379,-0.000885590609621634,4.15458635355437e-05,0.649607594776,-2.72100106954592e-05,0.0012202779482872,-0.0840255173942636,-7.48388291261373e-06,0.00220573617532337,-8.04414065363394e-05,-0.00207259602135632,-1.31367532438073e-05,-1.8487993956227e-07,2.66057964138636e-09,-0.00582035994861306,-6.13021064803045e-16,2.8413157470876e-07,4.19637601666231e-09,9.70917290540884e-06,5.23996107541981e-07,-0.0408968370245389,-0.00721634553959041,1.61734578816426e-05,-2.754261231212e-06,-1.95280873035068e-05,3.19189756029644e-06,7.8725720159799e-07,-0.0111086818949175,-1.90267671862919e-05,-1.65816537859002e-06,1.09226951326266e-06,-6.28367292219964e-08,1.86104647288309e-05,0.000113152937711863,1.5211155351382e-08,-4.47186335612932e-06,-5.80233829865747e-09,3.02403524811092e-08,0.0047927254148232,-4.05013152283523e-08,8.50624827271292e-07,-8.53260907123455e-07,-1.38398773157683e-07,0.0279199466811037,8.60412691373532e-07,1.99072830831935e-15,1.03138152475234e-05,1.98174094492307e-05,3.47413713271886e-15,-0.000149974539170304,0.0103953507196109,-8.43957082724009e-05,0.000324514598489557,-1.79010329125523e-05,0.000279693646434854,7.47090417650245e-06,-3.09957061742696e-06,2.64088667233271e-09,7.20135661434661e-07,1.70687122559146e-10,-1.45910585506859e-06,1.22206417474442e-07,0.400893010391673,4.34833912617034e-10,1.10654093927783e-13,-0.366150881802534,7.43929293542733e-08,3.05302561238259e-14,-3.72542112537385e-09,3.64093457842768e-08,-2.58727591413573e-15,2.00558752832908e-14,-4.23528196313774e-08,-5.87876622956435e-07,-6.07025922187826e-15,-5.37658402536808e-15,1.57480559691486e-10,-2.21691968865369e-09,4.01774103857109e-09,-3.49501917898493e-15,4.41279138823416e-08,-8.85101837454342e-16,-7.29000644579162e-10,-2.72636122159164e-15,-3.37055094689182e-15,5.32132627227989e-17,4.34230814462231e-11,1.43634422474412e-10,6.96257189184886e-16,-3.1465350953513e-10,2.64108616732919e-09,3.26719567224956e-15,-3.12118249086967e-10,-7.2238012765539e-16,1.0326670509284e-15,-3.35375918051948e-11,1.19729593542949e-16,-4.00198725653204e-17,-8.58792592636087e-16,1.79517270935618e-10,-7.54518771305202e-16,-2.18224899595287e-15,6.61516905062872e-15,-3.72887074700614e-15,-1.96230711740985e-15
"t9",0.00523373534892294,-0.124193235324467,-0.0267084709821098,4.59545597805e-05,-0.000915699849336265,0.00855443009802453,0.0368800525412877,-0.00189726025574954,0.000829680067206138,-0.00268775513802694,0.0296191678925052,0.00292664695055832,-0.0253561159688153,0.0657798176204851,0.00804158268287086,0.00168171012637534,-0.198221369325928,-0.0425051293366753,-0.00013157301789585,0.00426916726800315,-0.00039558913061174,0.00159582955846362,-0.00511313575905185,-0.00701285342835627,0.0630672457791401,-0.262194842470271,-0.0142309424155798,-0.0812736331119839,-0.00138830003879338,0.0299352495065324,0.00212523943923604,-0.0188848535714556,-0.0354450180067205,0.235014311067599,0.0289546337418127,0.000168682774368416,-0.0619673157582303,-0.027551976845247,0.00247464621565263,0.00146600297735507,-0.0702859508408404,-0.000291807127368327,-0.000225154379894424,0.0013672951876252,-0.000261954898644447,-0.00488033069975912,0.000218132242975077,3.63533815268755e-08,-0.00207841374054149,0.00191650577639508,0.000123773710184156,0.0492709487354414,0.00016886208727871,0.00192752100374197,-5.85813724493062e-07,4.18714490983271e-05,-0.000777692377976256,3.37713630890407e-05,0.07624391626713,1.59440934962878e-05,-0.000956657475897838,0.346619764150663,-0.000270938519570776,0.168082526935063,0.0057134254713333,-0.0938053390085283,-0.00248747773510174,1.6350591873716e-05,-8.7410660555409e-08,0.00619270238132053,-9.98291014513336e-16,-7.25934934348365e-06,-1.86489860378592e-08,-0.000132514182382681,-4.09726576413696e-06,0.039867448618626,0.0144924688121106,0.000221761048189981,-6.21939242887812e-05,-0.000445958875869677,7.96811871251908e-05,2.18546225092129e-05,-0.456868606502181,-0.00156263057278976,-0.000155613218924403,0.000248995116922625,-0.000659706022752896,-0.000522646030222567,0.0805008425791895,-1.98947593409184e-05,0.00462595080461746,6.0069452994746e-06,-3.18819521746926e-05,0.0298167967737117,-2.30953218309465e-05,0.000275785015163266,-0.000247305015721177,-3.04443809878525e-05,0.227568923959519,-1.79203129189541e-05,-1.07654131758739e-14,-0.000427435899143986,-0.00103907144243734,1.12044490185532e-14,0.00694105660042436,-0.587729294994887,0.00497573425674852,-0.0191402251869175,0.00104413908488253,-0.0161528684601746,-0.000398018891635382,0.000147288820100267,-1.06122743410722e-07,-2.57688621162624e-05,-2.04141805553664e-06,-1.47947922951668e-05,2.4452974915265e-06,1.55843167477818e-05,-6.09565804234353e-08,1.27146444527135e-15,1.57078968132447e-05,2.59753903380302e-07,1.47968021683399e-14,-8.94234377170531e-06,0.000111415692463328,-8.71854486425547e-16,2.36190008786837e-15,-0.0016687023789341,0.000684215937737426,2.41740568552432e-15,-1.76073030072454e-15,-1.31709719260045e-07,1.90325811679601e-06,-3.72639451162766e-06,1.39342498066498e-15,-4.6801353080338e-05,-1.52854423300093e-15,8.30872316900137e-07,1.05876730400388e-15,-1.40782815551192e-15,-1.21064306761669e-15,-1.54930017843647e-07,-5.34882963021573e-07,-1.03419229532828e-15,-1.00317819875256e-06,4.78892346390766e-06,4.39878805006449e-16,-4.65850880021771e-07,6.73688668412944e-16,-2.69931414452223e-15,-2.59967281869554e-08,1.5888539154078e-15,-1.9243471869968e-15,8.51095438268902e-15,8.13094974718659e-08,-4.80401392525486e-15,-4.90395770744973e-16,3.83628109856918e-15,-1.36388187837946e-15,-4.60945561978831e-15
"t17",0.00560546988334254,-0.139994345689483,-0.0313481863291688,6.61124925398545e-05,-0.00172808582623688,0.0243753394521003,0.106616709142038,0.00465057067982395,3.6647848395809e-05,-0.000613526310322341,0.00996271699103695,0.00156460554943773,-0.0159498810662476,0.0480646759410722,0.0062930135451241,0.00139773375309521,-0.238694836574009,-0.0596900319322824,-0.000228373920634915,0.0218510550848139,-0.00270351381836357,-0.00172014877086589,-0.00103193184569197,-0.00208280239408559,0.0224354392227295,-0.114955708702812,-0.00638563470504404,-0.0365284336355333,-0.000691614025799038,0.0152460178700957,0.00110051709605693,-0.0106052410646958,-0.0227598749842587,0.156891943681422,0.0193683053880139,0.000113097008588345,-0.0426865469170317,-0.0193818732433773,0.00233770248287857,-0.014544298822247,0.0253577768433054,-8.70644558280623e-05,-0.000136999290916769,0.000955346502046665,-0.000197540551072727,-0.00395883992649309,0.000177566356694325,2.96568672346972e-08,-0.00185541677115293,0.00195787612508336,0.000128451481889003,0.0522951776241236,0.000180175473078739,0.00209732116179505,-6.82128880938095e-07,4.88885204569804e-05,-0.00101193562709486,4.64198900922554e-05,0.109165984774031,2.33009158649702e-05,-0.00140440759737003,0.533355621602463,0.000278289277628482,0.197517438642273,0.014919692877621,-0.0710913338841591,-0.00399113961542564,4.11058082360256e-05,-2.95599562834721e-07,0.0223916670624251,4.20042097098092e-16,-6.3029187306484e-05,-3.08042945309571e-06,0.000888917310634755,1.83885081078922e-05,-0.125369490981999,-0.034665468741163,-0.000425956120547357,0.000100182439018891,0.00071519998161842,-0.000123351154806314,-3.23977464729395e-05,0.571985300544961,0.00143133773952914,0.00013412819572647,-0.000141366617536191,-7.38969014422309e-05,-0.0367651628568338,-0.373571251372263,2.22618829728836e-05,-0.00371531598529685,-4.80568415463819e-06,2.44478982462508e-05,-0.0167685773251247,1.17159683881533e-05,-0.000133396322317405,0.000118375289264705,1.4189568203909e-05,-0.0853375462528935,6.0759982875182e-06,-1.58144302740646e-15,0.000126039282542463,0.000260864015048869,-2.35436369524024e-15,0.00227840147726914,0.129962550186792,-0.000876731852813435,0.0032171492968638,-0.000150826619905909,0.00218190985232255,3.90333034760796e-05,-1.08151804555715e-05,5.68484752247717e-09,1.15350921051455e-06,0.000136484180709983,-9.47578567338009e-09,1.50313958254106e-08,3.33331636017676e-07,-1.45471498187467e-09,-1.97588788476649e-15,5.80556684838678e-07,9.62721441829326e-09,-4.96526028106337e-15,-6.59143534068793e-07,8.33363185697389e-06,-2.00043761445478e-16,-2.44000767373092e-16,-0.000131563153314014,6.65817133361875e-05,-5.27787353780438e-15,9.02634478204996e-16,-1.51294303009914e-08,2.60445580050077e-07,-5.34537125125771e-07,-2.30825887237458e-15,-7.0619475746417e-06,1.51425765248144e-15,1.27871455114162e-07,-1.74797078402629e-15,3.55552834926615e-16,5.43132716477635e-16,-2.69945178287509e-08,-9.33708051708717e-08,-1.11294440433312e-15,-1.89567925669948e-07,9.29487159953234e-07,-8.95470435164987e-17,-9.15497533785006e-08,-2.95612834824129e-16,-1.00977961532477e-16,-5.41230759477785e-09,7.05166407073961e-16,-3.53914858099491e-16,-2.43682105600257e-15,1.81388616357444e-08,-1.0422098377037e-15,-1.2681819633847e-15,1.12151950886823e-15,-3.08817585723512e-15,-4.87311092744465e-15
"t45",0.00589051269871038,-0.152080645828412,-0.03489063238195,8.13868500768482e-05,-0.00233948929846924,0.0362101510331287,0.15877511931762,0.00947092590308715,-0.000527010747844326,0.000828584973916744,-0.00334864184792658,0.000777813003174116,-0.0119680268638911,0.0479569592484136,0.00703182377205613,0.00171131787295436,-0.441738191286464,-0.123667706319163,-0.000533030988848065,0.0676801092456649,-0.00864518053417283,-0.00937342841971158,0.00765210820804569,0.0084106496393877,-0.0646801442961573,0.210233638272174,0.0110482906512025,0.0629512663902748,0.000921112957962938,-0.0191766780146797,-0.00132565259916103,0.0103490950030517,0.0163921107464981,-0.106067422357984,-0.0130570220461068,-7.59976577297961e-05,0.0277423749990599,0.0123425619122312,-0.00154241800167517,0.0177206531022765,-0.0671030161360811,-6.01158027218156e-05,1.87745893098937e-05,-0.000153577736495416,2.88116498732807e-05,0.000481917482407244,-2.13908740839043e-05,-3.54943968562962e-09,0.000161160351760345,-8.42249170797955e-05,-4.94488022889943e-06,-0.00168674362472409,-5.55375477710998e-06,-5.37722728701213e-05,6.17428529757881e-09,-4.12024576058062e-07,-1.4157316922535e-05,1.09905659170133e-06,0.00329848998709645,7.7555204682117e-07,-4.7669952042648e-05,0.0215459375479158,5.3523827784229e-05,0.00876624398696877,0.00157434080797033,0.00115624556086571,-0.000314776115917234,4.68145535307246e-06,-3.94379615101855e-08,0.0030746549334611,-3.16316439099903e-15,-1.08490233527951e-05,-6.08532905005897e-07,0.000210614912756811,4.73216971854284e-06,-0.0358153639480151,-0.011035078282536,-0.000151393330689957,3.96555459285668e-05,0.000283935778902587,-5.01683782845478e-05,-1.35895192316579e-05,0.274495698148039,0.000946667183913941,9.5600559049609e-05,-0.000185699165443556,0.00122169576419637,0.086141017669879,0.754177115696771,-2.61370409237215e-05,0.00314360142675356,4.04760148996165e-06,-1.95704746136045e-05,0.00882023162680179,-5.30186101656475e-06,5.62952498599253e-05,-4.91958954742153e-05,-5.67162153389039e-06,0.0249527295240969,-1.54503827444324e-06,-5.78569136995142e-16,-2.65781514333437e-05,-4.47520198846654e-05,1.40950863664915e-15,0.00366912534497516,-0.0189579279118965,9.7691431976331e-05,-0.00033928184001829,1.33616570664036e-05,-0.000179125064809346,-2.24241435838176e-06,4.52449904923546e-07,-1.68581177545671e-10,-2.80955468567767e-08,0.000104100287946923,-1.98596985075605e-11,7.84548633825773e-11,4.596210222748e-09,-2.20710759400552e-11,-7.05719756966466e-16,1.3028083398225e-08,2.1659040634778e-10,1.31155302823204e-14,-2.80556721769637e-08,3.59635699720309e-07,-5.85455112718535e-16,-7.26260741352265e-15,-5.96653415044733e-06,3.68611958464316e-06,6.61386748904467e-15,1.10702737720503e-15,-9.81501112258175e-10,2.0006550094317e-08,-4.2989709213167e-08,1.13291130249246e-15,-5.96771845267475e-07,1.32255966734521e-15,1.10172634227825e-08,-5.30115829693975e-16,3.54985352234133e-16,1.22274284183529e-15,-2.62998305971525e-09,-9.11379996366173e-09,-1.02527450174297e-15,-2.00387716572016e-08,1.00957793453385e-07,1.23796944057169e-15,-1.00706886813373e-08,-5.04219655267457e-16,-2.37330894294676e-15,-6.31672299496391e-10,2.07170896067517e-16,-1.36627585458159e-15,1.11170912573762e-15,2.27497484720968e-09,-2.54857799089963e-15,-2.77713289078687e-15,1.53602508866881e-15,-2.10729698765759e-15,-5.07052007639462e-15
"t46",0.00592805372961608,-0.153635578473189,-0.0353387052965002,8.31908676748288e-05,-0.00240745699381013,0.0374559398497811,0.164257923924707,0.00990743972838062,-0.00056108069167092,0.000889437353492659,-0.00362371652910651,0.000866808445931002,-0.01366858490515,0.0564478405351911,0.00839452526347205,0.00206689525524308,-0.56020888018269,-0.158620668017675,-0.00069117786561409,0.089695234606169,-0.0114817124211508,-0.012796418182512,0.0112034151786958,0.0126281836353662,-0.0993024239556167,0.337693107051319,0.0178728386310971,0.101889467663366,0.00155022510156528,-0.0326051152803889,-0.00227237641008813,0.0185721054209664,0.0322966508907812,-0.214838626841793,-0.0264833710442276,-0.000154390896025385,0.0573832815549275,0.0258658205467549,-0.00355938214606619,0.0429751043521804,-0.164791294403322,-0.000151164735536931,5.19813522686501e-05,-0.000478996327515782,0.000101344348210875,0.00198935009839029,-8.9088059149381e-05,-1.48646188348482e-08,0.000886026226905936,-0.000869011664982808,-5.65869640502843e-05,-0.0228028415596308,-7.83816293297453e-05,-0.000904831018428215,2.8694904971051e-07,-2.05473804735891e-05,0.000413562326013478,-1.8814790829189e-05,-0.0440969027047007,-9.40505814150745e-06,0.00056682129569961,-0.215495960574138,-0.000304235784458464,-0.0463296858610826,-0.00563758165127309,-0.00363997209447274,0.000957466346470156,-1.2757117966818e-05,9.55851528398464e-08,-0.00727466023192317,2.5852862664464e-15,2.10809254384324e-05,1.0512072596868e-06,-0.000314904903565896,-6.66093111302395e-06,0.0469544094670048,0.0135253473787204,0.000174404661711329,-4.32630327027918e-05,-0.000309329757497491,5.40367548955401e-05,1.44320775315776e-05,-0.275499254173008,-0.000854891142554189,-8.46472989096603e-05,0.000146931241251387,-0.000846125571349935,-0.0564689477069309,-0.489486942079233,1.61316251983697e-05,-0.00185618845439315,-2.38827490697724e-06,1.14548683299939e-05,-0.00476446522012549,2.76478440780577e-06,-2.88449183124144e-05,2.51075088724759e-05,2.86502458706e-06,-0.0115083520361558,6.80897286319508e-07,1.80856086719869e-15,1.09748382586056e-05,1.71194864208846e-05,-1.92646626843131e-15,-0.00134662261546663,0.00682493446613565,-3.16289307489931e-05,0.000107506636605855,-3.95741961144102e-06,5.15379151715257e-05,5.67089051642047e-07,-1.03343569241777e-07,3.50517151021523e-11,5.57931833665678e-09,-1.75868925423278e-05,2.94319673884227e-12,-1.1134691984356e-11,-5.69876946847347e-10,2.67541710562773e-12,1.28418965253961e-15,-1.37073055195887e-09,-2.27615217637519e-11,-9.10089647849589e-15,1.65438016875482e-09,-2.06997054079562e-08,-2.93580008023318e-16,4.72446256411218e-15,3.11993969182803e-07,-1.02478527332431e-07,-4.67668433658661e-15,-1.51719002716595e-15,3.78161761758494e-12,5.41463606708091e-10,-1.57179660331307e-09,-8.99248108748585e-16,-2.82783860669389e-08,-2.68899439328955e-15,5.70619578901524e-10,6.81069903816553e-16,-7.92378914445488e-17,-8.4306788810522e-16,-2.15974931009757e-10,-7.52932481483913e-10,1.22982192966043e-15,-2.09738034054078e-09,1.13701400600433e-08,6.19957293859937e-16,-1.17240796956997e-09,2.29557051735258e-16,1.21237495231036e-15,-8.51625586983304e-11,-8.0380103130627e-16,7.09647827452381e-16,4.52054709511911e-15,3.61173404073618e-10,1.43679750631539e-15,-1.76329807411275e-15,2.26878514671875e-15,-4.13116999487533e-15,-6.18371883105522e-15
"t41",0.00612771078998441,-0.162386635903587,-0.0379627530446787,9.54859982716343e-05,-0.00293187731796305,0.0481353202394054,0.211381758646648,0.0147896815289102,-0.00125806895977814,0.00286659802080586,-0.0239764802024005,-0.00110123030410803,0.00530379976277089,-0.00468039451766919,-0.000118324270289715,5.42686012659494e-05,-0.0626776360596498,-0.0191441070094123,-8.75997202043501e-05,0.0119393514499272,-0.0015314706788318,-0.00169362613047061,0.00112680549574949,0.00102145156204653,-0.00596833191246206,0.00266705586267081,-2.83771953804588e-05,-0.000234348575590002,-9.58358548050391e-05,0.00259373366248281,0.000214573719666447,-0.00356183639984994,-0.0160298778952144,0.135598117476451,0.0169143103502049,9.99634651920751e-05,-0.0433426202595105,-0.0218545198250087,0.00748372740827576,-0.174606542223409,0.836365902306139,0.00134389107655876,0.00034159633699295,-0.00130209695285564,0.000196820345087565,0.00307286872149405,-0.000136373596428871,-2.26296990078784e-08,0.00112552381132706,-0.000955435087984619,-6.1613754902295e-05,-0.0245402451017956,-8.41529672464926e-05,-0.000964031258453023,3.01804677970107e-07,-2.16093062764972e-05,0.000445525040932837,-2.09629699851758e-05,-0.050895361271307,-1.10864940479932e-05,0.000671486249311283,-0.270608824587465,-0.00208825687858646,0.213900763086843,-0.00516836178805163,-0.19483510922617,-0.00249585869452999,4.25220618314821e-06,-1.49660034201525e-09,-0.000126061805361791,1.65299466233426e-15,3.28116274705391e-06,1.94971772918813e-07,-6.22335807540888e-05,-1.31364530344079e-06,0.00908481483892032,0.00253066402639789,3.12255590595832e-05,-7.37013728656282e-06,-5.26209294488127e-05,9.08400764752332e-06,2.38900560256306e-06,-0.042513252519488,-0.000110694061706122,-1.05220053415647e-05,1.34433944044735e-05,-3.83980829968126e-05,-0.00135347004461905,-0.00975495065473696,-1.90133893010575e-08,3.86011930156671e-05,5.04363434482091e-08,-2.84049008355109e-07,0.000301686165683629,-2.24881450755975e-07,2.61308685160462e-06,-2.32754833028103e-06,-2.81363612246017e-07,0.0017242138740466,-1.20931827048993e-07,8.40936706939582e-16,-2.41439048453924e-06,-4.72352289994361e-06,-3.64453357042081e-15,0.00650923504644101,-0.00208468417160831,1.26465599916249e-05,-4.49996469847392e-05,1.89823697902625e-06,-2.61343975026913e-05,-3.62447890760241e-07,7.81212400559128e-08,-3.06606323145085e-11,-5.227987921208e-09,0.000251939706818081,-4.14521302889324e-12,1.65945169347339e-11,1.00900005006992e-09,-4.87236026256571e-12,1.98931126576851e-17,2.96937303873946e-09,4.93781895376748e-11,-2.9401974501647e-15,-6.97276685280526e-09,8.96069640009498e-08,-2.23371756163073e-16,8.98733118252975e-16,-1.50059170699274e-06,9.67121340976403e-07,5.45882577213556e-16,-4.53081921747558e-16,-2.67913452964078e-10,5.73373389737071e-09,-1.25000095923556e-08,-1.60380620631376e-16,-1.76356474171429e-07,-6.03930620260571e-16,3.27707836587864e-09,6.07650098081193e-17,-1.99281910789479e-16,-5.27982791494952e-16,-8.17150962854983e-10,-2.83367555899841e-09,2.10610275013337e-16,-6.42276220210041e-09,3.27072865881313e-08,1.11487116231086e-15,-3.27917064667651e-09,2.19619926019906e-16,-4.36795832928462e-16,-2.10709920335788e-10,-7.2920813664821e-18,-7.91066524764506e-16,2.01953713341215e-15,7.82345553763424e-10,1.972432347058e-16,-2.47893556892979e-15,1.29081161765778e-15,-2.61365691559802e-15,-4.80207960772038e-15
"t48",0.00618656810699012,-0.164950386204376,-0.038728255186166,9.90187944238434e-05,-0.00308086883462556,0.0511427392412643,0.224649497775955,0.0161380829749392,-0.00144460738036865,0.00338779043493439,-0.0292606925972157,-0.00158333329255199,0.00971375507670991,-0.0179217319173887,-0.00189767432297521,-0.000353598448329419,0.0243462279641796,0.00431590488551049,9.95950476034316e-06,0.000418324544883997,-7.04710523913798e-05,-0.000260288045969445,0.000318694224453434,0.000312692886294757,-0.00191772404293359,0.000910592260233874,-9.7502339012045e-06,-8.05561549847298e-05,-3.37471605963411e-05,0.000916910312666387,7.60455373808966e-05,-0.00127002571542125,-0.00561532067463601,0.0469929205255839,0.00585837579193242,3.45991773269619e-05,-0.01487913017419,-0.0074542762465512,0.00240727904983125,-0.0541246729407844,0.256667703805949,0.000404405402674551,9.39913479138965e-05,-0.000313761758911467,4.03455189851678e-05,0.000480163501269322,-2.09410694785609e-05,-3.43681081406255e-09,7.93095217507041e-05,8.90120376054518e-05,7.12686830006447e-06,0.0036589240481193,1.32268086715474e-05,0.000181123771135321,-9.16475125537099e-08,6.66924053141142e-06,-0.000234624397974799,1.36645874122803e-05,0.038208741313082,8.88882912124442e-06,-0.000546015425369716,0.252415328704936,0.0042563808778072,-0.54117297038711,0.00891024806158295,0.685771573195283,0.0105299937171126,-3.71378695370531e-05,1.66624307039393e-07,-0.0117495521596797,-9.59484999154872e-16,2.12165173860016e-05,8.50924604480856e-07,-0.000200047645005205,-3.83463069256913e-06,0.0240538327923336,0.00618618285194715,7.15412374201483e-05,-1.60444782172958e-05,-0.000114409583249628,1.95531112477106e-05,5.07990423068577e-06,-0.0863352409454191,-0.000208475264570201,-1.95659241862064e-05,2.34065559885199e-05,-6.26428022388614e-05,-0.00215686045674224,-0.0154822218372323,-2.9589471009295e-08,5.91101327452961e-05,7.7213991715473e-08,-4.33628851501996e-07,0.00044856084399156,-3.30845727607763e-07,3.82501566017548e-06,-3.40324089931002e-06,-4.10226047087102e-07,0.0024572740430924,-1.70755084384079e-07,4.2616554581143e-15,-3.3790468703509e-06,-6.72902020522703e-06,-2.4458735276358e-14,0.037426658090833,-0.00242451575238489,1.6206306477905e-05,-5.76147621037723e-05,2.41598980957425e-06,-3.3157126328978e-05,-4.53006755723094e-07,9.65367744382358e-08,-3.75228028232437e-11,-6.36952683287760e-09,0.00106371089985375,-4.92847448507576e-12,1.96780878449592e-11,1.18616574407756e-09,-5.72010368168691e-12,7.96083023339428e-16,3.45984336959284e-09,5.7529318572425e-11,5.37111095091117e-15,-7.95027004944067e-09,1.02101964454238e-07,8.94831910800662e-16,1.54070284593945e-15,-1.70566660463169e-06,1.08695736062583e-06,-5.57097717559255e-16,2.62647794444987e-17,-2.97843258194105e-10,6.28633179072322e-09,-1.36469698618653e-08,-5.38008222251398e-17,-1.91619165147849e-07,-9.08841590205205e-16,3.5537869520145e-09,6.76902027329146e-16,4.32624632350516e-16,2.06626690721111e-16,-8.74511161813213e-10,-3.03193665279203e-09,1.66079498414357e-15,-6.80743541193661e-09,3.45491405468739e-08,9.06118701161444e-17,-3.45826700494798e-09,-3.68225625689775e-16,-3.48547593207324e-16,-2.20506392206408e-10,8.41657064577612e-16,6.48232941344493e-16,2.46672253155979e-15,8.10632237342293e-10,-3.47713318079503e-15,-2.16811846924867e-15,1.67946079502722e-15,-2.60794141584023e-15,-5.55032169460378e-15
"t102",0.00632986354108241,-0.171157176588911,-0.0405744818857288,0.000107425207372369,-0.0034319236889987,0.0581751580160079,0.255668604221959,0.0192396893591633,-0.0018627999687693,0.00454229247738488,-0.0408288947529981,-0.00259460334616148,0.0186409205464514,-0.0435823791163474,-0.00527629815494579,-0.00111514270187269,0.175795585704417,0.0444835619931359,0.0001743978080425,-0.0184006769488403,0.00230869894611323,0.00198316162656051,-0.000824890437379865,-0.000654457841801084,0.00343428764295626,-0.00126287432669949,1.30624858347597e-05,0.000107652887169242,3.80283007180331e-05,-0.000992787953649926,-7.98482738556392e-05,0.00114076190767007,0.00391469109162266,-0.0307647611265728,-0.0038237377477486,-2.25043992539893e-05,0.0093142982560067,0.00454319225982908,-0.00123301461886065,0.0256835987138822,-0.119606027679162,-0.000182340167690534,-3.75846597235375e-05,0.000110959130421025,-1.28862057701576e-05,-0.000137506816895784,5.96521958710446e-06,9.7579715338815e-10,-1.97216782088525e-05,-1.87382993705633e-05,-1.47646470385266e-06,-0.000741904808264636,-2.66909119550735e-06,-3.59338415271707e-05,1.73220701102835e-08,-1.25852295652315e-06,4.25057956934549e-05,-2.46752187588899e-06,-0.0069343624845332,-1.62090097101671e-06,9.96910381056618e-05,-0.0468565874998043,-0.00104580799122189,0.149735496307878,0.00277726729740543,0.0692602720097517,0.000834240416735655,-1.40950316349779e-06,2.80146959922441e-09,-0.0001644435288288,5.36604393678428e-16,2.71328467875498e-08,-1.03783155639587e-09,3.6030116977773e-07,6.0860235874928e-09,-2.79640272550265e-05,-4.29923605791555e-06,-2.11824520557375e-08,5.59505813623537e-10,3.40302417302448e-09,1.58666964325624e-10,2.31812192204671e-10,-6.0632026839375e-06,1.31910148722181e-07,1.77595597857899e-08,-8.66069656578357e-08,6.89117157648503e-07,3.44570150646268e-05,0.000263890713188684,6.92077015873541e-10,-1.80745118369531e-06,-2.37104956866755e-09,1.39705548511495e-08,-2.31986602948647e-05,2.10821667402964e-08,-2.70839690730676e-07,2.46817257645445e-07,3.16625671484501e-08,-0.000341167839562452,3.31437851752237e-08,-4.12982247430253e-14,1.17835691232434e-06,7.54069007952513e-06,4.18524473832026e-13,-0.661012347673188,-0.00844073873832851,9.11892787794134e-06,-2.86299663587004e-05,9.16065629524563e-07,-1.15909866943301e-05,-1.25761522412329e-07,2.43980879376025e-08,-9.16873268971736e-12,-1.54428418206976e-09,0.611492217274899,-8.97396411602682e-13,3.4481387344815e-12,2.1245280971212e-10,-1.01328790444272e-12,-1.53506189144593e-15,6.25033989680186e-10,1.03864775190943e-11,1.18332792032801e-14,-1.44309724833603e-09,1.85364631711766e-08,-6.83809903243447e-15,-9.98942205731847e-16,-3.09883147067968e-07,1.98441871957285e-07,-1.39874498890174e-14,-1.59327266786868e-15,-5.47867004619069e-11,1.17179546662566e-09,-2.55643008889951e-09,2.01781114955273e-15,-3.61132316731475e-08,5.45668285893074e-15,6.71496544745721e-10,4.27996130304103e-16,-1.03626960564831e-16,5.35127714959568e-16,-1.68544734100966e-10,-5.84554443706554e-10,5.42031792732478e-16,-1.33417990332455e-09,6.81402782890707e-09,3.00873993267279e-15,-6.84162596988619e-10,-2.92972342799102e-16,-8.73163769179183e-16,-4.4298917088819e-11,-2.22402140062728e-15,2.02586533177588e-15,3.55236598846353e-15,1.66422217850412e-10,-2.06035156008176e-15,2.96560445764463e-16,4.80442335153059e-15,-4.17904033044491e-15,-4.50625946849379e-15
"t103",0.00633252652798987,-0.171272483762403,-0.0406087724592107,0.000107581216650287,-0.00343843488233634,0.0583055333412186,0.256243667118074,0.0192971353069722,-0.00187053400665256,0.00456362925637113,-0.0410425495535387,-0.0026132368232048,0.018805100502782,-0.0440532539985404,-0.00533823360673275,-0.00112909161026892,0.178560621908074,0.0452163854108337,0.000177395817698938,-0.0187433333604293,0.00235201347997964,0.00202394143832773,-0.00084560359071577,-0.000671955310938841,0.00353102318595343,-0.00130209048313776,1.34739954598798e-05,0.000111047853684826,3.9321356865361e-05,-0.00102718129845709,-8.26552399492384e-05,0.00118411899096228,0.00408580642657939,-0.0321605275231565,-0.00399753155370046,-2.35293934490886e-05,0.00974850439196253,0.00475849753611483,-0.0012983430662469,0.0271163772373989,-0.126362095212003,-0.000192878434436121,-3.99520016701517e-05,0.000118626124376946,-1.38514298757329e-05,-0.000148789628289551,6.45693027525552e-06,1.0564640103732e-09,-2.15600098623689e-05,-2.08186845063178e-05,-1.64359472451277e-06,-0.000828202221896575,-2.98152203186605e-06,-4.02384802503581e-05,1.95621091047277e-08,-1.42175244670609e-06,4.86554865783946e-05,-2.84235332516311e-06,-0.00802317581100921,-1.87938380370028e-06,0.000115641459611782,-0.0545987992894028,-0.00124767084006108,0.179444723969071,0.00344409551694638,0.0873484787656078,0.00105756268596852,-1.8209043775643e-06,3.71128724051295e-09,-0.000219152700279654,-8.3335194058087e-16,3.85259978171178e-08,-1.55926099248543e-09,6.01190221513866e-07,1.08208811242659e-08,-5.49623246663229e-05,-9.68606908710243e-06,-5.77865177650789e-08,2.00883730062038e-09,1.23333471576365e-08,6.24232567859213e-10,1.028662803097e-09,-7.22040825469989e-05,-3.43272420691902e-07,-3.35870288704364e-08,3.20099481042794e-08,9.99087577624687e-08,8.83163701310452e-06,7.21040870627604e-05,2.40207508581505e-10,-7.22001062558975e-07,-9.48943411379685e-10,5.70983515828787e-09,-1.11348583691083e-05,1.06489366048826e-08,-1.39898707148447e-07,1.28102967570575e-07,1.66318188240694e-08,-0.000195300084103747,1.95985143078158e-08,-3.28657436952048e-14,7.23554901778843e-07,4.79096481519358e-06,2.63611343419382e-13,-0.426233529233584,-0.00547611767858881,6.07052798582725e-06,-1.91300113962612e-05,6.17258267617641e-07,-7.82620007966502e-06,-8.45427830496138e-08,1.5962331506985e-08,-5.51627660235581e-12,-8.80058509420163e-10,-0.782616684928626,-8.98870597908479e-13,3.65974201953463e-12,2.06686865214002e-10,-1.0041580058179e-12,-4.66733779042389e-15,5.8057140110777e-10,9.64853378304904e-12,7.98878603418221e-15,-1.29277833879354e-09,1.65985462058489e-08,6.26098632156049e-16,-3.36253626249594e-15,-2.77109365336338e-07,1.76868254675188e-07,1.56763873899279e-14,-2.98867584331157e-15,-4.88136816277159e-11,1.04662978464227e-09,-2.28572957875895e-09,1.24900983359013e-16,-3.23319755061917e-08,3.07489524545782e-16,6.01534784437396e-10,2.20352328081371e-15,4.90010937066858e-16,-7.27645560640793e-16,-1.516574525785e-10,-5.25976443598195e-10,-1.26663644886855e-15,-1.20460565333553e-09,6.16010701531014e-09,2.34690833455665e-16,-6.18892824201253e-10,1.59481946607847e-16,8.31415773559113e-17,-4.01968615168946e-11,1.57811465861468e-15,-2.47000949972067e-15,2.67281877781471e-15,1.51597236624339e-10,-2.16196366832619e-15,-2.65533992873341e-15,1.63363064885619e-15,-9.40840733940108e-16,-6.25118058389308e-15
"t152",0.00634485118271069,-0.171806073504622,-0.0407674403313051,0.000108302879916099,-0.00346854760401728,0.0589083870565233,0.258902739481263,0.019562668654844,-0.00190626318611999,0.00466217390894683,-0.0420290721712773,-0.00269919640639967,0.019561930484323,-0.0462219359389314,-0.00562336897017235,-0.00119328733882711,0.191268405868677,0.0485833075301075,0.000191165936923501,-0.0203162606500364,0.00255083289440928,0.00221099041518903,-0.000940442505357407,-0.000752021441328175,0.0039734365921943,-0.00148125443721517,1.53537257567729e-05,0.000126555500529191,4.52226786461719e-05,-0.00118411255263135,-9.54607069306836e-05,0.00138172309297861,0.00486422522604183,-0.0385066587669544,-0.0047876994364126,-2.81894749758386e-05,0.0117219392267119,0.00573680960469305,-0.00159468515978092,0.0336104392265138,-0.156977803788309,-0.000240615780302825,-5.06604706871287e-05,0.000153251300579007,-1.82041562952336e-05,-0.000199583198389345,8.67034639666486e-06,1.41954316247656e-09,-2.98153363516431e-05,-3.01276001152299e-05,-2.39113199387606e-06,-0.00121397031852555,-4.37796836300391e-06,-5.94690979997478e-05,2.95528514348481e-08,-2.14972106207877e-06,7.60163001647312e-05,-4.50823302240493e-06,-0.0128586809703964,-3.02693047466947e-06,0.000186448872167936,-0.0889435048666151,-0.00214002801462589,0.310696563910206,0.00637755298316607,0.166773447577357,0.00203763709309671,-3.6230064889253e-06,7.68762364564038e-09,-0.00045813772930072,1.94733411879859e-15,8.80616799410544e-08,-3.81879591141989e-09,1.63999849566976e-06,3.11928875000393e-08,-0.000170785389382632,-3.27260405564231e-05,-2.13873490532974e-07,8.17141836692261e-09,5.03023661917662e-08,2.60243361461528e-09,4.41185631921853e-09,-0.000352088475538161,-2.3402013450889e-06,-2.49064502779312e-07,5.25404772021712e-07,-2.32030836019823e-06,-9.57969754250632e-05,-0.000710065119431838,-1.59151258360757e-09,3.65265688545959e-06,4.7819979101331e-09,-2.75433322085881e-08,3.68554515031813e-05,-3.06165761806987e-08,3.76438837267255e-07,-3.39696429335972e-07,-4.24899722289178e-08,0.000368331232715652,-3.22104111694925e-08,2.792688873342e-14,-9.87800373909993e-07,-5.32624332105015e-06,-2.66638073493273e-13,0.425639074955001,0.00520583876138232,-4.4261835345373e-06,1.32258796314122e-05,-3.61304558024916e-07,4.26412357003742e-06,3.32474447911039e-08,-4.77764568516628e-09,1.26716957581759e-12,1.72983668660887e-10,0.0823880820605824,3.99641918272546e-14,-1.06012129684561e-13,3.33213450863686e-12,-2.04376414508841e-14,5.26396060853146e-16,3.57788311917137e-11,5.99566740370435e-13,-1.92035667707741e-14,-2.10599852499727e-10,2.7515632089833e-09,2.10408918635725e-16,2.84129393909305e-15,-4.88767113671562e-08,3.95510742124577e-08,-1.47742226411424e-14,1.98047095289098e-15,-1.30205607916503e-11,3.33198843287484e-10,-7.62005968973963e-10,3.14705119001577e-15,-1.13175997879907e-08,2.35727450805368e-17,2.1456884772146e-10,-1.85799705773763e-15,3.44486858983767e-15,2.19406184470643e-15,-6.07380851621257e-11,-2.11027684444523e-10,-7.23605607681192e-15,-5.19251265691879e-10,2.71938355898854e-09,4.46879781862879e-16,-2.76231685279935e-10,-3.6386072192137e-15,8.75216067139122e-15,-1.88457917311803e-11,-2.02189557018853e-14,1.14575016158511e-14,1.65517563813299e-13,7.51641978619574e-11,0.707106781186545,-4.00870605322848e-15,1.04502126257967e-15,-1.09079446951869e-14,-1.38973193774655e-14
"t153",0.00634485118271069,-0.171806073504622,-0.0407674403313051,0.000108302879916113,-0.00346854760401727,0.0589083870565233,0.258902739481263,0.0195626686548439,-0.00190626318611988,0.00466217390894688,-0.0420290721712774,-0.00269919640639965,0.0195619304843226,-0.0462219359389312,-0.00562336897017215,-0.00119328733882648,0.191268405868676,0.0485833075301073,0.000191165936923555,-0.0203162606500361,0.00255083289440931,0.00221099041518924,-0.000940442505357849,-0.000752021441328603,0.00397343659219419,-0.0014812544372148,1.53537257567246e-05,0.000126555500529595,4.52226786464518e-05,-0.00118411255263189,-9.54607069313181e-05,0.00138172309297881,0.00486422522604215,-0.0385066587669546,-0.00478769943641239,-2.81894749756849e-05,0.0117219392267121,0.00573680960469312,-0.00159468515978093,0.0336104392265136,-0.156977803788309,-0.000240615780303577,-5.06604706875855e-05,0.000153251300578796,-1.82041562947095e-05,-0.000199583198385657,8.67034639569216e-06,1.41954289660298e-09,-2.98153363522204e-05,-3.01276001161846e-05,-2.39113199394528e-06,-0.00121397031852474,-4.37796836324675e-06,-5.94690979991094e-05,2.95528523027861e-08,-2.14972106255371e-06,7.60163001658827e-05,-4.50823302255573e-06,-0.0128586809703918,-3.02693047698553e-06,0.000186448872168455,-0.0889435048666205,-0.0021400280146256,0.310696563910201,0.00637755298316596,0.16677344757735,0.00203763709309464,-3.62300648863472e-06,7.68762287341628e-09,-0.000458137729300278,1.54947507190511e-15,8.80616818354527e-08,-3.81879596359792e-09,1.63999849383986e-06,3.11928867545339e-08,-0.000170785389369381,-3.27260405516248e-05,-2.13873491938939e-07,8.17141925100849e-09,5.03023659946405e-08,2.60243695176543e-09,4.4118566423238e-09,-0.000352088475533878,-2.34020134646439e-06,-2.4906450231997e-07,5.2540477438207e-07,-2.32030835949425e-06,-9.57969754260301e-05,-0.000710065119435751,-1.5915112409847e-09,3.65265688628649e-06,4.78199947029741e-09,-2.75433323870234e-08,3.68554514981493e-05,-3.06165739932112e-08,3.7643883792589e-07,-3.39696428489923e-07,-4.24899729570838e-08,0.000368331232717015,-3.22104127092627e-08,2.92214855633926e-14,-9.87800373826155e-07,-5.32624331715717e-06,-2.66668568007398e-13,0.425639074955002,0.00520583876138626,-4.426183528911e-06,1.32258796312216e-05,-3.61304555416556e-07,4.26412356806531e-06,3.32474404844462e-08,-4.77764685337209e-09,1.27036075622701e-12,1.72983233640435e-10,0.082388082060582,3.64738655131511e-14,-1.08796480295149e-13,3.32794851246911e-12,-1.92713105866385e-14,5.30818874179664e-15,3.57805681513567e-11,6.01982329542756e-13,7.08790223113037e-15,-2.10599144538366e-10,2.75155751421817e-09,3.41914450304789e-15,7.00775091671362e-16,-4.88766968454336e-08,3.95510623168964e-08,9.1932887580266e-15,1.61620623811952e-15,-1.30146869409535e-11,3.33192322566838e-10,-7.62003043891952e-10,-5.56591736094403e-15,-1.13176094514322e-08,-6.55571388789507e-15,2.14560303185475e-10,-5.33005908010588e-16,-2.73743654945922e-15,-7.11124419131331e-16,-6.07342233375834e-11,-2.11037363501307e-10,8.36560065568855e-15,-5.19271651729639e-10,2.71937212463562e-09,6.19425896530079e-16,-2.76230150714014e-10,2.67917615536486e-15,-9.6359609512774e-15,-1.88902774867665e-11,1.9679318963765e-14,-1.19021378807894e-14,-1.66598715109413e-13,7.58250640365939e-11,-0.70710678118655,-2.25982853019012e-15,3.60360371833874e-16,5.2169437334439e-15,2.91844092306008e-15
"t118",0.00632014773209762,-0.170735272964151,-0.0404487702973726,0.000106849330205334,-0.00340776826698842,0.0576896182733615,0.253526776796498,0.0190239632637303,-0.00183337824069119,0.00446063367451614,-0.0400063843029875,-0.00252133169560588,0.0179839379211916,-0.0416577434138138,-0.00502064625026511,-0.00105709992944672,0.163901012834609,0.0413070650798116,0.000161307742147961,-0.0168827956668359,0.00211655759708704,0.00179898148047956,-0.000727076098732585,-0.000570524364875833,0.0029638635763695,-0.00106689367920116,1.09972959661817e-05,9.06097352228984e-05,3.13863498933788e-05,-0.000815073938062947,-6.52760493774519e-05,0.00090973236379863,0.00295509725112853,-0.0228222312802413,-0.00283405883587488,-1.66626342658697e-05,0.00681630164926117,0.00329614720964125,-0.000835956202982363,0.0167659063665632,-0.0773070969128288,-0.000115632670651328,-2.19394502176552e-05,5.77037626573361e-05,-5.86296140500665e-06,-5.06669996055212e-05,2.16958475376679e-06,3.52006013945249e-10,-4.30642377164125e-06,1.18340776071051e-06,1.49653102192874e-07,0.000117095762838633,4.5754618548966e-07,8.00982744414192e-06,-7.17007826108075e-09,5.3109043893321e-07,-3.25076718711234e-05,2.34429204124626e-06,0.0075559104936054,1.87898171415993e-06,-0.000117086551900224,0.0623135058452781,0.00241710258566884,-0.379837141743264,-0.0133432964122577,-0.44539605810275,-0.00586125827449418,1.37084072979373e-05,-4.28576979108477e-08,0.00282074924197124,-1.26948369948058e-15,-2.9636219788749e-06,-8.49150195772721e-08,1.23454579243205e-05,1.84991272445292e-07,-0.000812284315486947,-0.000131217593909563,-7.49318175250456e-07,2.5760395711612e-08,1.58166449930623e-07,8.01445337482953e-09,1.32474010057467e-08,-0.000960313152754044,-5.42161765712536e-06,-5.60668868813171e-07,1.01001679929878e-06,-3.7155164536394e-06,-0.000141959008055827,-0.00103723315988494,-2.15852847595777e-09,4.6256433228509e-06,6.04898651167116e-09,-3.43944896715501e-08,4.01090414464595e-05,-3.11598349149696e-08,3.69797481260757e-07,-3.30982853427497e-07,-4.05183858983981e-08,0.000281810235695346,-2.14729908553651e-08,6.02403895159785e-15,-5.12194306507489e-07,-1.75763326020962e-06,-5.96669889464763e-14,0.0933382573483432,0.000860609541363279,7.36588483259872e-07,-3.20716878131225e-06,1.82771112075136e-07,-2.69730791241981e-06,-4.4541158227999e-08,1.03431878100623e-08,-4.25802567748195e-12,-7.41144297143829e-10,0.0024058075092284,-6.46019323376646e-13,2.5965424867976e-12,1.61384129746932e-10,-7.73593553955296e-13,-3.88146842083986e-15,4.87048795066482e-10,8.10882278986225e-12,2.30113212674992e-15,-1.21070906475321e-09,1.55850486085621e-08,7.0875365202182e-15,-8.95892362031175e-16,-2.62594516043686e-07,1.74000281646209e-07,0.707106781186548,-2.214817550267e-14,-4.94699178488853e-11,1.0942878434167e-09,-2.40944476471831e-09,9.99268320951336e-15,-3.43763082777189e-08,1.07316406032487e-14,6.41698660000571e-10,-8.39904567327875e-15,-1.60234147553534e-15,1.24321349717709e-14,-1.65029575683245e-10,-5.72597846891945e-10,-3.27313412288612e-15,-1.32700688611345e-09,6.81190095438225e-09,-1.06743259850835e-15,-6.85554960394001e-10,-5.75491778549893e-16,4.99302514197784e-15,-4.48729660336618e-11,-3.92502172938468e-15,-2.4716544995152e-15,-7.88986223373295e-15,1.7063945305036e-10,1.46036845014151e-14,-2.06561524030737e-15,-3.90557894164093e-15,-5.39776655534666e-17,-4.50020352480748e-15
"t119",0.00632014773209761,-0.170735272964151,-0.0404487702973726,0.000106849330205378,-0.00340776826698847,0.0576896182733615,0.253526776796498,0.0190239632637303,-0.00183337824069123,0.00446063367451611,-0.0400063843029875,-0.00252133169560587,0.0179839379211917,-0.0416577434138138,-0.005020646250265,-0.00105709992944579,0.163901012834609,0.0413070650798114,0.000161307742147738,-0.016882795666835,0.00211655759708678,0.00179898148047976,-0.000727076098732251,-0.000570524364876185,0.00296386357636993,-0.00106689367920127,1.09972959654722e-05,9.06097352228888e-05,3.13863498932501e-05,-0.000815073938063392,-6.52760493774149e-05,0.000909732363799067,0.0029550972511289,-0.0228222312802414,-0.00283405883587499,-1.6662634264924e-05,0.00681630164926123,0.00329614720964035,-0.000835956202983254,0.0167659063665616,-0.0773070969128276,-0.000115632670651491,-2.19394502174457e-05,5.77037626554463e-05,-5.86296140406292e-06,-5.06669996066175e-05,2.16958475192312e-06,3.52004187069855e-10,-4.30642377290312e-06,1.18340776017711e-06,1.49653102519201e-07,0.000117095762841006,4.57546185058556e-07,8.00982744472297e-06,-7.17007849283076e-09,5.31090439399846e-07,-3.25076718712251e-05,2.34429204106328e-06,0.00755591049360865,1.87898171286732e-06,-0.000117086551899965,0.0623135058452747,0.00241710258566753,-0.379837141743267,-0.0133432964122572,-0.445396058102751,-0.00586125827449408,1.37084072966967e-05,-4.28576993994187e-08,0.00282074924197402,-2.41347199317566e-15,-2.96362197616288e-06,-8.49150204419406e-08,1.23454579228518e-05,1.84991268058941e-07,-0.000812284315477925,-0.000131217593909667,-7.49318171101542e-07,2.57603993274793e-08,1.58166449324886e-07,8.01445429631636e-09,1.32473962806925e-08,-0.000960313152750569,-5.42161765792683e-06,-5.60668870335898e-07,1.01001679495322e-06,-3.71551645126995e-06,-0.000141959008056415,-0.00103723315987203,-2.1585347167267e-09,4.62564332586437e-06,6.04898360057475e-09,-3.43944876507016e-08,4.01090414175616e-05,-3.11598400050405e-08,3.69797480643701e-07,-3.30982855576557e-07,-4.05183815060208e-08,0.000281810235714419,-2.14729912923789e-08,8.79645807404565e-15,-5.12194299740582e-07,-1.75763325263867e-06,-5.68298209508683e-14,0.093338257348343,0.000860609541360447,7.36588488495213e-07,-3.20716878053216e-06,1.82771105574236e-07,-2.6973079171658e-06,-4.45411683588383e-08,1.03431962067609e-08,-4.26313895941017e-12,-7.41143416486639e-10,0.0024058075091986,-6.36728281658652e-13,2.574928573229e-12,1.6138438559154e-10,-7.86719971232957e-13,4.77586119147467e-15,4.8707622250831e-10,8.09443893329316e-12,-1.01179700782025e-14,-1.21080060604624e-09,1.5585097715858e-08,-7.37246869271967e-15,-7.1838432220579e-16,-2.62594575801224e-07,1.74000448106804e-07,-0.707106781186546,1.99504205844455e-14,-4.94891302138502e-11,1.09433117935865e-09,-2.40941372198396e-09,-1.09315748793784e-14,-3.43763062573403e-08,-1.34772761605717e-14,6.41676917061293e-10,7.74496199822521e-15,7.84806309448402e-16,-1.27787536689794e-14,-1.65039884427069e-10,-5.72573437391748e-10,2.625306964649e-15,-1.32700589644116e-09,6.81191008866025e-09,1.13238809601495e-15,-6.85558292424435e-10,5.7998781505246e-16,-4.10647641342065e-15,-4.48603299529556e-11,3.10340152246886e-15,2.01146846517469e-15,1.47239929991007e-14,1.7064474248057e-10,-9.18978269508293e-15,-1.0540587306929e-15,7.67172795357239e-15,-8.27638284720115e-15,-5.91394624394244e-15
