"","c1","c2","c3","c4","c5","c6","c7","c8","c9","c10","c11","c12","c13","c14","c15","c16","c17","c18","c19","c20","c21","c22","c23","c24","c25","c26","c27","c28","c29","c30","c31","c32","c33","c34","c35","c36","c37","c38","c39","c40","c41","c42","c43","c44","c45","c46","c47","c48","c49","c50","c51","c52","c53","c54","c55","c56","c57","c58","c59","c60","c61","c62","c63","c64","c65","c66","c67","c68","c69","c70","c71","c72","c73","c74","c75","c76","c77","c78","c79","c80","c81","c82","c83","c84","c85","c86","c87","c88","c89","c90","c91","c92","c93","c94","c95","c96","c97","c98","c99","c100","c101","c102","c103","c104","c105","c106","c107","c108","c109","c110","c111","c112","c113","c114","c115","c116","c117","c118","c119","c120","c121","c122","c123","c124","c125","c126","c127","c128","c129","c130","c131","c132","c133","c134","c135","c136","c137","c138","c139","c140","c141","c142","c143","c144","c145","c146","c147","c148","c149","c150","c151","c152","c153","c154"
"t1",0.00694286603329543,0.0271609630163539,-0.049738598428003,-0.0307010240760504,0.0510593033505707,-0.109990503488396,-0.233287552336186,0.137343512733778,0.119481502874523,0.303286003605981,0.0114179106504368,6.0255018691983e-05,0.00464976589223201,-0.00133155148961692,0.00133015799686625,0.00352351311090103,0.0223878753033174,0.0158062781211101,-0.00642438484936263,0.00439368990726872,-0.011394003719768,-0.00174741677757952,0.000303615867414509,-0.00293193669020628,0.0031964445582343,-0.000793920569813779,0.0141945177030525,-0.00265401342571553,4.84816569609352e-07,-3.961457095166e-05,0.00070388827588287,-0.000100536337273994,0.169232089512747,-0.0531191890732637,-0.439587998772574,0.0047254818594249,-0.00119561539677657,-1.1240023843141e-06,0.000514083274440867,3.64661384979718e-06,-0.00439776759476701,-5.00943413785029e-05,0.0358429027784463,-0.0177938504661714,-0.0121415239073611,0.0219987507459281,-0.00428872463408045,-0.000496126663448394,3.37755932555034e-05,-0.00113284708984503,-0.000396655211538218,0.00655446804536534,-0.000388012321851125,0.000580959068971384,4.42566671565055e-06,0.000188009422076248,-0.000763002994085659,-0.00014441001103534,0.00134439468219247,-0.0001296299296544,-3.4868096992779e-05,-0.00107452670544687,3.55534144982072e-05,0.000968190132564415,-1.57163663604384e-05,0.00152980251087432,0.00228832691953755,-0.00381384548336479,0.000315701753866341,0.0520805613607535,1.47075084305551e-06,-0.000432514166920506,2.35399546141778e-15,9.25882419383711e-16,8.23883414192293e-16,1.48414777802542e-17,5.3155732047004e-05,-3.86966411724942e-06,-6.18203678757041e-06,2.39796664816246e-07,7.75202313773348e-07,0.000286844552908782,-1.75832867197908e-06,-0.000143893960061781,-1.47387208052792e-06,-1.71428483698949e-05,-1.12261240909389e-07,3.31128725090905e-07,-1.26912281776324e-06,5.65918445438842e-07,-0.00017620552401279,1.00736026106039e-08,-4.50536213944651e-05,0.00151750581807191,-9.4877168031121e-16,-1.16851101958461e-10,1.61662793961257e-15,1.58700507017501e-06,-3.98483675355686e-10,-6.30836920679386e-15,0.000768783653556145,2.28145824706354e-08,1.94359285125927e-05,0.00124645748065935,3.88895269955403e-05,8.33846895541847e-07,-0.000704017136513604,0.750904097898602,0.00501325060904835,0.000140874033568623,-1.19569210455808e-13,-9.31808241528177e-06,3.37179125443502e-05,2.7726677487054e-16,-3.79938451618305e-15,-2.27567397919135e-05,-5.59665646239611e-05,-3.86040608661669e-05,-1.80514557021533e-15,-2.88038416892672e-06,-2.34685008102898e-07,7.83974959522134e-05,-1.40921839546425e-15,6.69187744442073e-15,-3.09720058222804e-06,-5.1093243899431e-08,-9.35326011859966e-15,0.00697349995645669,-1.03817387163589e-15,-1.06633646738924e-06,9.24253696437151e-07,-4.24682132668654e-15,1.849556730563e-15,-4.41749054977241e-06,3.95062791827398e-06,-3.16101374525114e-06,1.33574864474879e-15,1.60457777484848e-15,2.52148955899309e-15,4.72481438711565e-15,-1.57380964675283e-06,1.10237079589482e-15,-2.9362328977548e-15,-1.5154913935646e-15,2.23153325990349e-07,9.34284097324001e-16,4.88366722773267e-16,2.28519682930366e-15,2.22116255862245e-15,1.84364030448647e-15,-3.95997497075175e-07,-5.510435694979e-15,2.20594703874013e-13,0.0805822964025354
"t2",0.00696068221448443,0.0272695968578462,-0.0503877804754378,-0.0312336261608217,0.0520917236572858,-0.112290804530958,-0.238799175848627,0.141324445970165,0.123339950282819,0.313793078934966,0.0118169132261081,6.26404139501748e-05,0.00484875155796997,-0.00139565098875175,0.00140071288975636,0.00374978947513114,0.0238471065789327,0.0168945617046174,-0.00688020942329818,0.00474943819451504,-0.0123510078328067,-0.0019355714032444,0.000338968361631261,-0.00328419975172764,0.0035923792536396,-0.000894690070158078,0.0161134401186953,-0.00303894482018649,5.58830738412918e-07,-4.58159938859646e-05,0.000817053419802122,-0.000118329820534196,0.202615984001382,-0.0646083401031314,-0.536298593527861,0.00581671764268498,-0.00152912344005493,-1.45328695738894e-06,0.000678000321438558,4.82254196057669e-06,-0.00582267025085774,-6.71278993318586e-05,0.0496571001037232,-0.0249440885690034,-0.0171574203372833,0.0314548541987034,-0.00619737787087619,-0.000727687130304768,4.9922065952317e-05,-0.00170340104105376,-0.000611860088175055,0.0101589465560964,-0.000605642615969918,0.000908644422312435,7.00902583059839e-06,0.000305810519796199,-0.00127680338627505,-0.000242678580213966,0.00227146561340428,-0.000222270593104151,-6.03895217961463e-05,-0.00191475229622984,6.49205276666201e-05,0.001779357312299,-2.93945685502104e-05,0.00286986404249611,0.00437989260823839,-0.00737170438273814,0.000611093817565005,0.102557440340682,3.11467517047304e-06,-0.000916045492461666,1.90866357739468e-16,-1.77282625052257e-15,-1.58618793942966e-16,-3.42340319430839e-16,0.000136637234323407,-1.10681615075433e-05,-1.90152770230884e-05,7.61982373678875e-07,2.66523414966767e-06,0.00099114111127493,-6.5626111300578e-06,-0.000598291484431696,-7.93959428335772e-06,-0.000111376979151655,-8.85328569363618e-07,3.18829222040417e-06,-9.85615673854374e-05,-1.7605804458751e-05,0.00381163175134413,-1.69987057969826e-07,0.00042572149778789,-0.0143008599515392,1.04467775657649e-15,7.03153774932832e-10,-2.15087961750849e-15,-3.63471070130989e-06,8.94196891697065e-10,4.52955393374613e-15,-0.00130844724881061,-3.76826873319022e-08,-2.60431703864973e-05,-0.00158391314439842,-4.80863699366344e-05,-8.68471156643486e-07,0.000655059870174398,-0.658295810766955,-0.00434597702535954,-0.000120112717184734,1.05015621968628e-13,6.98484965024315e-06,-2.34532801235694e-05,2.00942131903262e-16,3.75480628736221e-15,1.09350418316943e-05,2.41945986367986e-05,1.21885557232142e-05,1.56071105939822e-15,8.00625027581346e-07,6.22709707492779e-08,-1.89464485338041e-05,1.2011340577694e-15,-8.33616398395309e-15,4.38077585294898e-07,7.0666038696212e-09,-1.19929548911939e-17,-0.000304758451332246,4.20669900702717e-16,-4.93059110470265e-09,3.39783174276025e-08,3.693782752195e-15,-3.4247900788055e-15,-4.27774242774177e-07,4.6125554013767e-07,-4.9982465168276e-07,-1.29219758558641e-15,-2.54328502572057e-15,-4.2033920937007e-15,-4.78184523185445e-15,-3.41561372883786e-07,1.51459938102086e-15,-2.65591383398008e-15,4.56191914245475e-15,6.22972483131548e-08,-5.24282612963809e-15,-1.1852941440707e-15,2.62009394205686e-15,-2.98952323175362e-16,2.98211167332299e-15,-1.25817122750409e-07,-7.98459363973336e-15,2.20149653218622e-13,0.0805822964025418
"t3",0.00703494395456139,0.0277274602543074,-0.0533289843435893,-0.0337344026711698,0.0570592437732076,-0.12342504240152,-0.266114721685489,0.162023397257299,0.144024107877439,0.371380876775069,0.0140100701021534,7.63562507871486e-05,0.0060302273435976,-0.001797938186745,0.00186770967483733,0.00545701937933752,0.0349893553653548,0.0256033947912613,-0.0106303929000162,0.00812360710481042,-0.0218619093503646,-0.0048865027206827,0.00103939975019639,-0.0111294340660879,0.0136557419800812,-0.00379058833158201,0.10094763509087,-0.0494981084129333,-2.70426540817906e-05,0.00070881905652263,-0.00714192778766164,0.000363335452849279,-0.312852300935919,0.0625876184675394,0.478914444172598,-0.00413189631616322,0.000412439802975116,2.83421600267323e-07,-5.90996470674351e-05,-3.58821164975626e-07,0.000402525151435352,1.23687424738737e-06,0.0046806157581655,-0.00318334550006515,-0.00255620905786243,0.00562502386491635,-0.00126686467589271,-0.000174012744515832,1.28105439829373e-05,-0.000502823602999258,-0.000216032933696431,0.00369955120540875,-0.000230630451910681,0.00035040965580961,2.91834578236407e-06,0.000149337506045295,-0.000740417084162638,-0.000144502246319613,0.00139969684092183,-0.000150900179553067,-4.39526117784725e-05,-0.00173721823897841,7.41871532214216e-05,0.0021819955879233,-4.49792495234833e-05,0.00458760686905949,0.00998296263062852,-0.0212694020831339,0.00183522487400166,0.605473456368968,-5.50277267469765e-06,0.00161536536468692,4.19145152210906e-15,-5.74795409003258e-15,4.37291969679614e-15,-2.54478698941826e-15,-4.31002531290021e-05,2.07981587818511e-06,2.60973717000846e-06,-9.12464867923948e-08,-2.29774334979693e-07,-8.36713310739958e-05,3.97013727172596e-07,2.14283846578066e-05,-8.03053779232107e-10,-1.69875039368022e-06,-2.29183605910285e-08,1.0693554927983e-07,-5.42567087330494e-06,-1.0902533632407e-06,0.000242783513179948,-1.10814447564316e-08,2.9601526024889e-05,-0.000994692671046474,9.06927621428485e-16,5.14806627966972e-11,-1.27241399519505e-15,-2.6535730917593e-07,6.49933770051152e-11,-2.26130455987589e-15,-8.61939336730159e-05,-2.44254762194088e-09,-1.4400943159108e-06,-8.26914775810309e-05,-2.42820677758886e-06,-3.2756967815065e-08,1.78015518231964e-05,-0.0137147959358588,-8.50775533797576e-05,-2.12305288286346e-06,7.2230861048021e-16,9.05986553447233e-09,2.26302374268291e-07,8.5356249964504e-18,-1.79280742830939e-15,-9.02113422395904e-07,-2.66524229167842e-06,-2.62546560478481e-06,-4.11080730371154e-16,-2.15990016215334e-07,-1.815553859136e-08,6.4189816131646e-06,2.19024062251626e-16,-3.91769639440926e-15,-3.15852043862166e-07,-5.244012765108e-09,-2.11327539517168e-15,0.000860057918319207,1.17708939095507e-16,-1.43569388268954e-07,1.31675102462376e-07,-2.23930379910093e-15,-6.85463005182543e-16,-6.97230174081415e-07,6.44582316176099e-07,-5.51982111795386e-07,1.17233349177366e-15,-2.04067804906078e-15,5.60773482432253e-16,-1.83752930172917e-15,-3.02141062177855e-07,2.98300488849507e-15,-5.08681691846027e-15,1.30991270550315e-15,4.72665451635835e-08,-4.22589161753489e-15,6.30227830444708e-17,-1.900522767443e-16,1.80535423605193e-15,9.27976151871676e-16,-8.91088686741053e-08,-6.2631183376292e-15,2.21282916904872e-13,0.0805822964025367
"t4",0.0070015789003709,0.0275224254337821,-0.0520394501552078,-0.0326491098196125,0.0549182397243074,-0.118634202345678,-0.254438401447214,0.153290908435771,0.13536923141589,0.347425798062143,0.0130984622643736,7.07217612114816e-05,0.0055488472840244,-0.00163629015602096,0.00168247427157334,0.00480006927795216,0.0307131611641268,0.0222952092889535,-0.00921425036393748,0.00688576829358145,-0.0184038471990937,-0.00389012519711046,0.00080974420977836,-0.00858985268704693,0.0104403971548718,-0.00287536578175274,0.0749373519018395,-0.0357833052589401,-1.91415086270751e-05,0.000496262870907944,-0.00494021252078828,0.000239554430835925,-0.193480418393139,0.0362841900521615,0.274005508873709,-0.00227136019934942,0.000185481943090446,1.19062768622292e-07,-2.15599219579621e-05,-1.28108428385251e-07,0.000142381822610716,3.94650387630796e-07,0.00102706623920786,-0.000581910381274128,-0.000402518463901571,0.0006729767116374,-0.000107691669586369,-6.10432294659894e-06,1.130234220732e-07,2.571272809121e-05,3.10664604088418e-05,-0.00059781428341188,4.33897701867481e-05,-6.86141702594371e-05,-7.11922656078759e-07,-5.23423065352552e-05,0.000347806395743143,7.05265820934429e-05,-0.000716197733892643,8.71231453043097e-05,2.73896884483764e-05,0.00131707693603351,-6.53000349125159e-05,-0.00199318513162807,4.52530500136625e-05,-0.00469026758853068,-0.0113143624538914,0.0252958906915401,-0.00219792030674954,-0.78637734311476,9.74949297312507e-06,-0.00286313957483257,-6.76543885800371e-15,6.8010700721703e-15,-4.98894538356861e-15,3.0109996969074e-15,0.000151790150023215,-1.03397859742022e-05,-1.64076129384173e-05,6.38454388355318e-07,2.10333220987167e-06,0.000779561785980151,-4.9265615296689e-06,-0.000426164921670451,-5.17535857097416e-06,-6.94403397154831e-05,-5.32819737633081e-07,1.86515346098854e-06,-5.19976191148434e-05,-8.85433320685602e-06,0.00188895345362877,-8.31088711729502e-08,0.000198393364427152,-0.00666249953220936,-7.75683370508443e-16,3.08025112706085e-10,8.78494027867408e-16,-1.18641704556655e-06,2.88764472381077e-10,4.57726817051102e-15,-0.000352285209629456,-9.89559814109304e-09,-5.49755488109346e-06,-0.000311135120265839,-9.06939744930663e-06,-1.17020315584892e-07,6.18646178092998e-05,-0.0469999360061659,-0.000290802634794167,-7.22919830971611e-06,8.48687240057897e-15,2.99838063419583e-08,7.37315187824734e-07,5.26566598076764e-17,6.59833447794499e-16,-2.74606169969059e-06,-7.97937713950677e-06,-7.53263556452908e-06,2.82135860654574e-16,-6.10716733330491e-07,-5.10809869547391e-08,1.7890285124243e-05,-5.32169500151119e-16,3.1613824177557e-15,-8.44161976085791e-07,-1.39962971935412e-08,-2.82309686585759e-15,0.00219914856271478,7.20607492723967e-16,-3.58669531786802e-07,3.23732996251567e-07,3.03814468132896e-15,-5.47352343476835e-16,-1.66160755173943e-06,1.51977578004515e-06,-1.27200246314692e-06,-1.10837865513342e-15,3.54390716675356e-15,-1.48866557779449e-15,3.07821714808829e-15,-6.72866085219082e-07,-4.76253511678941e-16,1.74140126065394e-15,-3.8335993593124e-16,1.01309773935518e-07,-3.68096938115166e-16,-3.17997833483802e-16,4.73418725864615e-15,9.34461116732549e-16,3.41266374865413e-15,-1.86278293984528e-07,-6.52044669343132e-15,2.19378494417229e-13,0.0805822964025353
"t8",-0.02696495016526,0.00441438791946425,-0.0211856169998309,-0.0133687759740254,0.0228858754509808,-0.0600343568338146,-0.07156614424638,-0.0253012179597817,0.00507858358214326,0.00792463987189954,-0.000887254866255559,-3.8442301177547e-05,-0.000378242271909882,0.00167856730690214,-0.000383462904205318,-0.00658796961106639,-0.015233672088017,-0.0109932342289564,0.00493338698004944,-0.0165086023491398,0.0140819393970559,0.0120387369515628,-0.00128967592529533,0.0266235825752343,-0.0318635782040889,0.00858306525792461,-0.18592840223399,0.16304054629324,-0.00439603631044838,-0.00153888741697725,0.0141600632586087,-0.000130874316468568,0.124398892608721,-0.000139685048406413,0.0636621783487691,0.0017672856945377,0.000841664136351258,2.59934059179658e-05,-0.00724012964095429,-4.51967226830588e-05,0.0176410958763358,0.000238080309248995,-0.260508667632661,0.147203520757947,0.122203787110344,-0.246245141282648,0.0275872063057802,0.00911123944111974,-0.000745394450785667,-0.00819033760226207,-0.0562290667234534,0.158118037983357,0.00100596047116848,0.0191064649050072,-0.000167887602124014,-0.00957334623737104,-0.208036143996852,-0.0178762006474174,0.589368627024026,0.00113908533615711,0.099987872161261,0.440229674664687,0.00216562613854859,0.0210969373228444,-0.000449297769814862,0.0223097118381325,-0.17493045025001,-0.168334443811267,0.0247823261210156,0.00444014711972848,-2.26645399351557e-05,-0.0186801355608944,2.52373307995091e-17,-4.0254048552199e-15,1.40229162169141e-15,5.00315112726427e-17,0.000889365062659418,0.00204423376444761,-0.000103259667204342,4.04083200199443e-06,1.39388934546904e-05,0.00730465075286246,0.00170480989541223,-0.00272213354238762,0.00388567225253247,-0.000613354847595495,0.0014463430406472,-0.210770832116146,-0.000332755482525127,-7.08095375167328e-05,0.0125170605589047,-2.63005003171501e-05,0.00208337623636602,-0.0528877132674068,3.75116213060817e-15,8.52600208022847e-07,-2.05163575604339e-15,-0.000304945344882456,1.9798809658105e-09,-9.90251147799889e-16,-0.00158369770831756,-1.91764442048411e-06,-0.000845944189736934,-0.00121243645456225,-0.00126541741486987,-3.38523632060432e-07,9.59489852757563e-05,-0.0052889560080405,0.00361100817883198,1.00577489590452e-05,7.05771796158533e-16,-2.73665594100701e-06,1.93157163333766e-05,-2.30943749602132e-15,-1.70179364869123e-15,-2.05938920641847e-05,-7.59296431652184e-05,-0.00110548875799967,2.0302178960343e-16,-3.84679871358004e-06,-4.24021422494165e-07,0.00237113853959132,-1.96127260080053e-15,-1.13819409464171e-15,-9.59397928301651e-05,-8.29073270171183e-08,-2.32639887797063e-14,0.0162052016407516,2.94022639674615e-16,-1.87162940022681e-06,1.70148311312404e-06,-6.52252530616823e-15,-2.01433330017552e-15,-1.14445928206033e-05,0.000143039155103228,-6.45727704197968e-06,2.31549982665351e-15,-3.79184874548557e-16,-3.23195755669928e-15,2.27621008112882e-15,-4.35721090540572e-06,2.64801894204831e-15,-6.03361562695604e-15,-1.88228691034672e-15,4.87870627496871e-07,-5.21694742474561e-15,-1.72412991892359e-16,4.36580978224904e-15,8.8520403526391e-16,1.17853062786311e-15,-1.13739884524096e-06,-6.80294096176186e-15,2.19777718324036e-13,0.0805822964025478
"t11",-0.0551555924149482,-0.0156033797412483,-0.012432182726997,-0.0105530995351513,0.0249731778605801,-0.0799029700743439,-0.066362452301237,-0.122422314006946,-0.0106241339897928,-0.00615846794747859,-0.00872856949663611,8.31749636190108e-05,1.09343345475112e-05,0.000916051762692193,-7.37687939277161e-05,-0.00594418946162243,-0.00457178210327002,-0.00370960317850324,0.00174514315505049,-0.0176589279899128,0.00571423918896757,0.0135816994462311,-0.000901465268147173,0.0299607951184275,-0.0356506943026266,0.00951772466695158,-0.185496407668033,0.225435585611051,-0.00890907806721939,-0.00193409370106243,0.0175706081349565,0.000364381907371051,-0.093498730468217,5.36268469866073e-05,-0.0218878576774254,-0.0171983289330242,-3.93379503733073e-05,-2.02189533845441e-06,-0.000645917636077971,-4.48476431381928e-06,0.000571422733925082,1.23452582659626e-05,-0.0245622774048346,0.0157610828592428,0.0141199609962209,-0.0316630524339148,-0.001386132813719,0.00138052763389328,-0.000120533152997138,-0.0063608987603895,-0.0182611721820304,0.0726330903454626,-0.00191199660423122,0.00788917369578107,-5.21476564252722e-06,-0.00128703327736261,-0.0453076912359304,-0.00315575456499216,0.115237351752904,0.000285929684133614,0.0138593563412454,0.0313108161895706,0.000391546050244709,0.00432014545157653,-0.000144467282482694,0.00814780947165342,0.105297016507168,0.0204111568974278,0.00060856212436264,0.000111473782168373,2.57087764391933e-05,-0.00216686955181746,-1.39266814921116e-15,-5.82452584673519e-16,-2.63128357996277e-15,-1.36190414435443e-15,0.000140351038994194,-0.0019707823096629,-1.77188939822674e-05,7.00466737232254e-07,2.4672719116983e-06,0.00129449815217034,-0.00281066376517949,-0.000499395540832292,-0.01026801105304,-0.000118277416922659,-0.00530889037259036,0.88168676264434,-6.5990969008046e-05,-1.42279404846319e-05,0.00252403036901615,0.00034076432460466,-0.0111181125093772,-0.0111519785479925,-2.32328607585697e-15,-7.7865142160996e-05,-1.08754424064939e-16,-0.00345978455607441,4.24457210788799e-10,-2.66970899163188e-15,-0.000344125844727935,-1.52131722122225e-05,-0.00561642809461536,-0.000263637012777961,0.0213100070216385,-7.59655785682785e-08,2.18510436289624e-05,-0.00130790270058448,0.0186903462604637,2.11081475986843e-06,2.31670340924107e-15,-6.1563371773072e-07,4.37493735420273e-06,6.31779739786123e-16,3.00397317516661e-15,-4.79354712047936e-06,-1.78414230683257e-05,-0.00428414790322153,1.02516385290876e-14,-1.02109846777916e-06,-1.20461149877035e-07,0.225360564262888,-4.88831750354655e-15,1.07431366914536e-14,-0.000292709920459987,-1.84482839711424e-08,-1.31122045943296e-14,0.00374252280237243,-3.67491677559608e-15,-4.37372802042309e-07,4.00422801056911e-07,1.24455885382013e-14,5.63132470122555e-15,-2.72718865754503e-06,0.000381604650781932,-1.55821850298489e-06,3.19002857079872e-16,2.37097155915036e-15,6.95291565107897e-15,-2.08418552243008e-15,-1.06476936909548e-06,-1.28247999173116e-16,1.76037395115938e-15,1.2525768483435e-15,1.20929301879825e-07,-6.66510994414394e-17,-1.8706657275727e-15,2.0161907743073e-15,1.99476853359408e-15,1.25461202830512e-15,-2.84622880757959e-07,-6.80834530176988e-15,2.20413972446617e-13,0.0805822964025123
"t12",-0.0563363962505917,-0.0161370386939173,-0.0141023255049562,-0.0126622282771346,0.0313279233547303,-0.101427955812587,-0.0886774849333005,-0.187524748086515,-0.0184471838469871,-0.0121208654874926,-0.0175148387768075,0.00027478495351215,0.000136680415979201,-0.00110248207555656,4.8026149865636e-06,-0.00322005296319462,-0.00259242175323621,-0.00240934624642817,0.00120237382303529,-0.0147286015909516,0.00496819134594476,0.0149296872028054,-0.00106216480333961,0.0363163373066411,-0.0444418651342596,0.0121389593874074,-0.251532287157142,0.328924426393689,-0.0137703003495474,-0.00307992676786053,0.0289182303593525,0.000684744398252345,-0.211517019665169,0.000148858800681947,-0.0635352334988026,-0.0576290945205288,-0.000402406741434999,-5.21894030724353e-05,0.00893605486949587,5.09170068759068e-05,-0.00602726062634567,-7.4332407710922e-05,0.0641877016932638,-0.0336084964920011,-0.0265594076084243,0.0501847155964991,0.00190063442221843,-0.0015550672888105,0.00012282178884134,0.00515963557663627,0.0101454984992577,-0.0372158861711265,0.000861048914672716,-0.00341496632277974,1.70544933878762e-06,0.0001357849151938,-0.00658746564512845,-0.000587214787396845,0.0276417475534094,0.000114329257058121,0.00725538712743126,0.0307801920209456,0.000638798999141842,0.00812236761159786,-0.000418132952144983,0.0256718673766262,0.692009446948544,0.247486691551207,0.0083679272744524,-0.00316897925630297,-6.72879623593645e-05,0.00566556010894782,-2.63435960057502e-15,6.19868299710752e-15,-2.71719853312908e-15,2.87167795038758e-15,-0.000145960252151103,0.00165045130386329,1.32962710323928e-05,-5.03773656688956e-07,-1.62197944271411e-06,-0.000846617733763386,0.00170858620123374,0.000278755801282799,0.00493362944867578,5.26239928684136e-05,0.0022216729825265,-0.351306163068263,2.20854166655522e-05,4.4095005474998e-06,-0.000764465617556841,-0.000101078061995346,0.00307003735862591,0.00307808529337442,1.64882715784004e-15,1.97140501573579e-05,4.56622848396433e-16,0.000630650829575595,-7.66272079657916e-11,3.01132426173121e-16,5.38151693147277e-05,2.33913952738254e-06,0.000770070043702006,3.65824271737364e-05,0.0114857548287168,8.30786107318076e-09,-2.18080911970235e-06,0.000123762203113477,-0.00175031984686243,-1.94614081005259e-07,1.43638351867311e-15,4.98222063519408e-08,-3.25366220396041e-07,-3.23848953886284e-15,-1.61360595191119e-15,1.96022657506837e-07,5.38049186734193e-07,-7.97131200064769e-05,4.57196022277809e-15,-7.44526370041163e-08,-1.43463748182115e-08,0.172025448139806,-4.45633867475452e-15,9.86992531306857e-15,1.43871679279203e-05,8.69319270434398e-10,-3.57498217587416e-15,-2.46642490275719e-05,-1.05478309398813e-15,-3.78253968899436e-09,7.33789597071717e-09,5.27485226227896e-15,-2.34109915932173e-15,-9.90181080698976e-08,1.61653994004234e-05,-8.60597400369029e-08,2.58475914033422e-16,-4.38953503445706e-16,6.15018436522072e-16,3.21451759913804e-16,-7.93360539977877e-08,1.05392991899715e-15,-4.05696344470944e-15,1.0066965563434e-15,1.16670931742905e-08,2.46947168653369e-16,-2.60461393708273e-16,2.8953238010139e-15,1.81928083958352e-15,3.70198116405819e-15,-3.16373570419309e-08,-6.80440897285316e-15,2.20127616274961e-13,0.0805822964025261
"t98",-0.0591654672842861,-0.0174365859519076,-0.0186352709912036,-0.0187125516113126,0.0502750599621804,-0.166220849725616,-0.158455500175146,-0.407908212479023,-0.046343547239868,-0.0342176377827137,-0.050241404835983,0.00104853387606228,0.00067562297467888,-0.0107336994227929,0.000422871363618442,0.0163665721689094,0.0120790380639944,0.00851552629813274,-0.0037339642810561,0.0289853667872648,-0.0088045121399456,-0.0148887737935913,0.000912303274419079,-0.0294658720258626,0.0341642144050981,-0.0089457356365953,0.166781758643966,-0.194899696060185,0.00754122114090824,0.00162431479899194,-0.0146617180924788,-0.000302637290792218,0.0807313284927971,-5.04904861337403e-05,0.0210982577902047,0.0180361131228041,0.000101606636113081,1.25235033686238e-05,-0.00197510392463926,-1.11384444195394e-05,0.00131285489406745,1.55266579467303e-05,-0.0122533804193804,0.00627662151869909,0.00490303642746783,-0.00915741248044337,-0.000345316677373622,0.000284058141346367,-2.26373151800978e-05,-0.000988916490982635,-0.00221169612088213,0.00842602495548393,-0.000208525165681853,0.000845636713427138,-5.04072652954184e-07,-0.000101846801353264,-0.0029867508797247,-0.000203008183452304,0.00719334066798105,1.65539099312209e-05,0.000767135147053367,0.00158143505095868,1.9487169080711e-05,0.000217557208725157,-7.93602995218941e-06,0.000459580041100073,0.00841687724888895,0.00249086673039143,8.1897722001359e-05,-2.21289797032731e-05,-8.83065828281842e-08,7.41452948961759e-06,8.17719093549507e-16,8.60974442146938e-16,2.50141704721263e-15,5.53759635500702e-16,-9.29056634279214e-08,3.00480386939256e-06,3.45726060437207e-08,-1.47102120134433e-09,-5.84460574451682e-09,-3.08353106454519e-06,7.13056256799468e-06,1.31443518400842e-06,2.59246556388644e-05,2.73197030485833e-07,1.08824688289273e-05,-0.00156939317125167,2.02892429137569e-08,-9.16464378227444e-09,2.45353251001702e-06,4.39132420531116e-07,-2.810312436691e-05,-2.82790193376814e-05,-2.52233958327585e-15,-3.4345065630497e-07,7.3384706716196e-15,-6.81984704857791e-05,8.73450880918088e-12,-5.67739294685389e-15,-1.4878846454654e-05,-7.34277267156532e-07,-0.00105127253496619,-0.000148768576159663,-0.823969492476377,7.01354777908319e-09,-1.23721647225692e-06,6.15293572449951e-05,-0.000852035639023794,-9.19938266205596e-08,-4.27986805463306e-15,1.98707714774187e-08,-1.21657327176928e-07,4.03165343037433e-15,-3.94352225815722e-16,6.50113971274026e-08,1.79160439512854e-07,-2.85706413993061e-05,1.05714621337298e-16,-2.80782878694786e-08,-5.52604447962803e-09,0.0694118817463926,-4.61297873928123e-16,4.83727867283335e-15,8.31438785551813e-06,5.11693301920381e-10,-2.47833703713807e-15,-6.17432475641291e-05,-3.810004309072e-15,5.83548096490638e-09,-4.63182353673233e-09,5.29522823022415e-15,4.82256663730113e-15,2.34465247901981e-08,-2.92516128376244e-06,8.97230386128194e-09,4.28814518208347e-16,2.59295923390756e-15,1.66560879221231e-15,3.59129580521577e-16,3.20444675606667e-09,1.82008994638034e-15,5.11823656450046e-15,-1.08725623587334e-15,9.63641263499988e-12,1.07282414521053e-15,2.35583116886926e-17,1.79954386095034e-15,2.93513091295878e-16,7.79190320118521e-16,-6.1764996276193e-10,-6.50077656932748e-15,2.21306438658698e-13,0.0805822964025309
"t135",-0.0592656806930955,-0.0174826181391437,-0.0187958095165182,-0.0189268155386729,0.0509460209348905,-0.168515292652124,-0.160926397502626,-0.415711775133425,-0.0473313071779791,-0.0350000348972728,-0.0514001775299127,0.00107593018758321,0.000694705428639015,-0.0110747191885747,0.000437674728470523,0.0170602174846116,0.0125986259423471,0.00890245903650094,-0.00390880623221175,0.0305341509984823,-0.00929253283583376,-0.0159466814375117,0.000982399717129439,-0.0318019591708282,0.0369566367802534,-0.0096949708125177,0.181659144548641,-0.213551560823469,0.00830085076377858,0.00179208904488713,-0.0162169961287416,-0.000337976548294222,0.0912381651912093,-5.76949476102668e-05,0.0241604070898932,0.020783725285138,0.000120301661488073,1.49434418876992e-05,-0.00239046667326937,-1.35074094759242e-05,0.00159340545590108,1.90085814755996e-05,-0.0153676408926022,0.00793978778317821,0.0062386711662386,-0.0117528854131122,-0.000446644774506009,0.000371469849103304,-2.97720550474251e-05,-0.00131726611625848,-0.00300269295194348,0.011480455636767,-0.000285619641868279,0.00116003700596116,-6.98012042920023e-07,-0.000143903833753738,-0.0043121271804213,-0.000294040457601881,0.0104620153840273,2.43490757017943e-05,0.00113709847408798,0.00239611555839256,3.00904292698259e-05,0.000337623593179235,-1.24853246690788e-05,0.000724740312843705,0.0134835419300791,0.00402115736412253,0.000132362516151677,-3.62523274898691e-05,-1.53280398302523e-07,1.28709798245393e-05,-7.26373061873511e-16,-1.22811401395152e-15,-3.43548290170587e-16,-8.12920092269234e-17,-1.88847296711026e-07,6.67766028358032e-06,8.17060117223208e-08,-3.57423639273381e-09,-1.51947948225681e-08,-8.05116682631273e-06,1.9905338931219e-05,4.03329132765201e-06,0.000100198252532777,1.25134384035894e-06,5.95308716088073e-05,-0.0103235280055991,8.8528070530574e-07,2.01574645480696e-07,-3.63385590529052e-05,-4.97793409173536e-06,0.000170794626208958,0.000171366506673432,3.6562841016066e-16,1.27486715187751e-06,-4.56504110746542e-15,8.11125272250268e-05,-1.01171775390022e-11,3.1077892770262e-15,1.18330448699206e-05,5.59276093092809e-07,0.00058174534393634,7.54504214169554e-05,0.399058192619019,-2.48470945996463e-09,3.46727263937569e-07,-1.50385040974185e-05,0.000202700841256136,2.10109121904233e-08,1.66928410953152e-15,-3.17518403409711e-09,1.50646150937538e-08,-4.36426762861034e-15,-5.2850899968897e-15,1.24991871319487e-09,9.18699468614189e-09,-3.67820843596257e-06,1.37668645163492e-15,-4.31937242579367e-09,-8.96401920308766e-10,0.0123505810041721,-2.0736379537097e-15,2.68596436500878e-15,2.03265869776237e-06,1.26166090760365e-10,1.30060290032997e-15,-1.90993353440605e-05,-2.6113975106193e-15,1.99217553990528e-09,-1.67999502085273e-09,-2.28348353992848e-14,-3.41613077428513e-14,9.43819317124753e-09,-1.21612362416731e-06,3.97621450723474e-09,-1.08197327831038e-16,8.45182179301862e-15,-4.27810943620705e-14,-2.95795985289241e-14,1.545180270438e-09,2.77679037651555e-14,0.707106781186541,-2.80392694516731e-13,4.98584982144347e-12,4.17549543163619e-15,-2.38114267118565e-14,-1.32521127908257e-15,-4.77582661704317e-15,-2.39926458735125e-15,-3.39046815247879e-10,-9.09502856777775e-15,2.25386694843773e-13,0.0805822964025555
"t136",-0.0592656806930955,-0.0174826181391437,-0.0187958095165182,-0.0189268155386733,0.0509460209348901,-0.168515292652124,-0.160926397502627,-0.415711775133425,-0.0473313071779795,-0.0350000348972728,-0.0514001775299127,0.00107593018758321,0.000694705428639072,-0.011074719188574,0.000437674728470865,0.0170602174846116,0.0125986259423498,0.00890245903650212,-0.00390880623221232,0.0305341509984822,-0.00929253283583554,-0.0159466814375113,0.000982399717129037,-0.0318019591708281,0.0369566367802528,-0.00969497081251831,0.181659144548642,-0.213551560823467,0.00830085076377939,0.00179208904488675,-0.0162169961287417,-0.000337976548295811,0.091238165191209,-5.76949476113787e-05,0.0241604070898936,0.0207837252851387,0.000120301661487939,1.4943441889454e-05,-0.00239046667327089,-1.35074094775471e-05,0.00159340545590056,1.90085814778032e-05,-0.0153676408926024,0.00793978778317773,0.00623867116623813,-0.0117528854131116,-0.000446644774506537,0.000371469849102109,-2.97720550481869e-05,-0.00131726611626001,-0.003002692951944,0.0114804556367643,-0.000285619641869749,0.00116003700596266,-6.9801204239323e-07,-0.000143903833754338,-0.00431212718041726,-0.000294040457598107,0.0104620153840235,2.43490757019104e-05,0.00113709847408718,0.00239611555839151,3.00904292704849e-05,0.000337623593175741,-1.24853246666521e-05,0.000724740312846268,0.0134835419300767,0.00402115736412292,0.00013236251615248,-3.62523274972659e-05,-1.53280398990366e-07,1.28709798238976e-05,-2.71452124996813e-16,6.54280389387263e-16,-1.20824067670651e-15,-7.92076417352581e-16,-1.88847300481168e-07,6.67766027775003e-06,8.17060149103969e-08,-3.57423657682214e-09,-1.51948025006789e-08,-8.05116682933862e-06,1.99053389343427e-05,4.03329132606134e-06,0.000100198252530539,1.2513438414063e-06,5.95308716064246e-05,-0.0103235280055931,8.85280698444844e-07,2.0157464336238e-07,-3.63385590467176e-05,-4.97793409789011e-06,0.000170794626208349,0.000171366506667823,2.64517548136209e-15,1.2748671673163e-06,-3.0755397016282e-15,8.11125272440901e-05,-1.01168523553094e-11,2.91950433427852e-15,1.18330448764984e-05,5.59276099002173e-07,0.000581745343942377,7.54504214190521e-05,0.399058192619006,-2.48470511302102e-09,3.46727268243749e-07,-1.50385040981471e-05,0.000202700841280646,2.10109139736377e-08,1.92084108339386e-15,-3.1751992618099e-09,1.50646190012252e-08,-3.48677960189946e-16,4.15077734994527e-15,1.24993700083356e-09,9.18699737466555e-09,-3.6782084300718e-06,1.43432411099551e-15,-4.31936306655712e-09,-8.963970864977e-10,0.0123505810041776,9.69697210475412e-17,-4.70146522119668e-15,2.03265868471926e-06,1.26154388452919e-10,-1.73815950446329e-15,-1.90993353497866e-05,6.54875358692969e-15,1.99219916213157e-09,-1.67999534564496e-09,1.93789287594771e-14,2.71469629363298e-14,9.43818163155436e-09,-1.21612371788816e-06,3.9762051843292e-09,3.31707770638596e-16,-1.08961650138377e-14,4.09520492414747e-14,3.03773685509421e-14,1.54519385339221e-09,-2.49386305797147e-14,-0.707106781186553,2.84059987813876e-13,5.09600702844766e-12,-1.12882277957349e-14,2.29208502523023e-14,7.47011509148349e-15,7.97878234320064e-15,8.01640960062028e-15,-3.39042161756063e-10,-4.02396700833439e-15,2.1509221203784e-13,0.080582296402515
"t17",-0.0568497883601993,-0.0163708471525993,-0.0148729620949754,-0.0136620471451268,0.0343982972253081,-0.111877358965312,-0.0997185692043444,-0.221061459089576,-0.022587132351326,-0.015340605932474,-0.0222721315718727,0.00038311350332919,0.000210124247695819,-0.00235455262450238,5.67201189576538e-05,-0.00105192476507678,-0.000985612320697585,-0.00126218264560988,0.000696869763783292,-0.0108016141783015,0.00378402146046496,0.0132964880101949,-0.000977794645149944,0.0338463822744693,-0.0419033358787802,0.0115499910393802,-0.244853775087035,0.328237113891314,-0.0139905932049387,-0.00315692956178351,0.029921698645294,0.000733541665909111,-0.236226005276198,0.000172764283437996,-0.0742940803780354,-0.0688986963161251,-0.000532301097777479,-7.12307477119359e-05,0.0129613789184962,7.45100169743475e-05,-0.00885351765082198,-0.000113715168653804,0.111629536319096,-0.0615954041596712,-0.0505767623645605,0.101550695496536,0.00408332524719047,-0.00367347093426692,0.000306457094509473,0.0148179814375279,0.0384973377681666,-0.150817614399161,0.00388943306713385,-0.015960469967714,1.0236554406275e-05,0.00242032726358058,0.0841056279826353,0.0058649780935977,-0.214763628115831,-0.000541136081489624,-0.0266996508281578,-0.0661029036924705,-0.000960699479140571,-0.0112203635492327,0.000464459296029925,-0.0275065366195533,-0.587954590069917,-0.188394263110436,-0.00626863468461198,0.00196373557278021,1.77809739744363e-05,-0.00149516525085497,3.54341164426941e-15,-4.11542262203336e-15,2.95478528359812e-15,-4.63471580515239e-16,-1.87186846490076e-05,0.000382253414192409,3.76369525554095e-06,-1.52488199768547e-07,-5.57301081195077e-07,-0.00029285894106699,0.000646668067430661,0.000115866032939907,0.00236245238872411,2.68531205372144e-05,0.00118837575121011,-0.194754744763504,1.37426558062384e-05,2.87370755455778e-06,-0.000504924707688044,-6.75667057204282e-05,0.00213609651859996,0.00214219391010156,5.86604785649163e-16,1.43715259750199e-05,-6.67362533583981e-16,0.000541755291564184,-6.61320454283933e-11,-3.25287385047305e-18,4.98285810262164e-05,2.18471735517014e-06,0.000779752765741895,3.97653090335291e-05,0.0294754337312591,8.68849611018264e-09,-2.38638854406982e-06,0.000138607922282236,-0.0019688862727972,-2.20345156449831e-07,-2.88316991385013e-15,5.93956249003427e-08,-4.00162825535471e-07,-2.87884497236665e-15,-3.89565750031666e-15,2.86099864556155e-07,8.29649797530371e-07,-0.00014735148145635,1.45213472217568e-14,-1.49364953881985e-07,-2.96908546313893e-08,0.379809734747406,-8.47997330996773e-15,1.70593097959062e-14,4.88798022856157e-05,3.01466440187148e-09,-9.7125610918937e-15,-0.000387517617921948,-2.92243194396559e-15,3.78705798964699e-08,-3.07929066680273e-08,5.29711210757862e-15,-3.8836075068307e-15,1.64618296301657e-07,-2.1020296860075e-05,6.88275933597384e-08,1.87885150048179e-15,2.38240727303803e-15,5.08533040509039e-15,1.73814208228567e-15,3.01195924083287e-08,2.05596736309582e-15,6.41843704868077e-16,1.01832829685142e-15,-1.26555664125951e-09,-3.73897723357525e-16,-1.00234020979101e-15,4.34705638264006e-15,2.47747150906972e-15,1.34337585858377e-15,-4.06673572835213e-10,-7.66757780307865e-15,2.20569192642907e-13,0.0805822964025141
"t18",-0.0565366842206677,-0.0162306067800003,-0.0144625707766034,-0.0131640399612435,0.0329427690133216,-0.106985793598086,-0.0948119887093867,-0.207816804449043,-0.0210863375169153,-0.014250665414761,-0.0206766185217507,0.000352220569716565,0.000191888711706782,-0.00212636762667363,5.07034657948924e-05,-0.000918839458182469,-0.000859213106800684,-0.00109202707743475,0.000600326160364547,-0.00911620694015558,0.00317394167682159,0.010630200097144,-0.000768078834533444,0.0263902763731762,-0.0324301825309668,0.00888443734584013,-0.185272419725638,0.243560915568214,-0.0102261291313948,-0.00228991114885038,0.02152418714311,0.000511165471384109,-0.158237936803237,0.00011154467688345,-0.0476254532424378,-0.0432478607284375,-0.000304822104506275,-3.97181957860183e-05,0.00688109572198878,3.92868924827116e-05,-0.00465466033055355,-5.80008652291501e-05,0.0522616549833887,-0.0279562512751483,-0.02247102187347,0.0437130791266662,0.00170781406718459,-0.00147436504072384,0.000120375771435328,0.00554256138686409,0.013359781089844,-0.0515947408633069,0.00130250901686346,-0.00531209892769807,3.27820779792422e-06,0.000711945910953434,0.0224999348800833,0.00154627659116798,-0.0555663437950882,-0.000132862302353208,-0.00631954191358045,-0.0140339352193017,-0.000184607243946342,-0.00209767511130445,8.0371278847201e-05,-0.00469485726779293,-0.0912673511384546,-0.0278513654108459,-0.000919967960809035,0.00026328381711533,1.4858772345555e-06,-0.000124846399473449,9.23737919469778e-16,-1.02459022745785e-15,-5.29315401109804e-16,-3.59014183098415e-16,5.49912414808566e-07,-3.0803107422849e-05,-4.20495496430561e-07,1.90284198886207e-08,8.60236049520667e-08,4.57265764230992e-05,-0.000117910573204089,-2.49379806208908e-05,-0.000659720331029144,-8.46422367938173e-06,-0.000410405123723436,0.0721456932185027,-6.40938109451859e-06,-1.47093245617973e-06,0.000265502174323561,3.63941945816592e-05,-0.00124663891737435,-0.00125077658563416,-2.72658299740558e-15,-9.19852176209678e-06,-7.35526211317312e-16,-0.000471221726782302,5.79927272960137e-11,2.01786509684505e-15,-4.90186977187436e-05,-2.17739587026071e-06,-0.000853177809340607,-4.4577871418586e-05,-0.0334605137457677,-1.06830225928875e-08,3.09404670394661e-06,-0.000184829883141651,0.00263937976909843,2.97705201475826e-07,1.5524839087182e-15,-8.52665550821763e-08,5.94951306214528e-07,8.45301250999257e-15,4.65862473103669e-15,-5.0344313643094e-07,-1.52860142144204e-06,0.000308712871400186,-3.23791091855687e-14,3.28350193651516e-07,6.63827314130973e-08,-0.877628247016427,1.96418180682437e-14,-4.47361214898781e-14,-0.000132678431901559,-8.22973077826722e-09,2.19314651469408e-14,0.00128903186470273,6.20608994613005e-15,-1.4285548060686e-07,1.27944177456802e-07,-1.96329819841418e-14,9.12353627696361e-16,-8.51964042092904e-07,0.000118795793328957,-4.83920463129466e-07,-3.56569361724489e-15,-3.37710093607729e-15,-1.5781843819336e-14,-1.17524014239928e-15,-3.32608267514421e-07,1.54596923234448e-16,-4.24358995669478e-15,2.27307235571376e-15,3.83709957332963e-08,-7.94788139416509e-15,1.87750296475927e-15,-9.82677237714303e-16,-2.19452386409782e-15,3.68934001841588e-15,-9.15773624322128e-08,-5.30069551419635e-15,2.20070611876774e-13,0.0805822964026015
"t13",-0.0799732118847319,-0.0341547510195652,0.00158314104005682,-0.00112599042211709,0.00727876471427328,-0.0332920983995024,0.0112774580699848,-0.00956014997739806,-0.00093470047935374,-0.000779910961981695,0.0121082643525801,-0.000432865640887878,-2.05941367376918e-05,0.00717552069946629,-3.88683072225992e-05,-0.0160349907045528,-0.00142076184702283,-0.00156044826986601,0.000756152418819235,-0.0344523468282692,0.00133215481594701,0.0164557625512891,-0.000352962325283145,0.0263496379696921,-0.0280829723723216,0.00639177743117828,-0.0603055516362924,0.0728476383180399,-0.0028225633098256,0.000314311927772749,-0.00633463689900383,9.28928272930507e-05,-0.0158895844279369,7.16985478676959e-07,0.000880767781575361,0.0856264497017275,8.79812440712901e-05,0.000139086461532438,-0.0267902015719588,-0.000153547165167642,0.0026600908497829,4.30412406570424e-05,-0.0658798386597731,0.0421279762744323,0.0383494765310212,-0.0915603859524953,-0.0589990874032473,0.00412354507715241,-0.000391050420680953,-0.0654372108944201,-0.123923234765162,0.594748602197873,-0.0241468049751261,0.0602350919890417,0.000230697795613378,0.00273985042274852,-0.113386248114713,-0.00077675697802768,0.138180558714669,0.00089945831437888,-0.0601225565516623,-0.708518929193987,-0.00171790826733717,-0.0153554604741178,0.000306825593384735,-0.0157330155076039,-0.0572208525248419,0.00790509520725691,-0.108621192542167,-0.000893768205184498,0.001957132142851,0.00317239801550836,-4.22094187655088e-15,-4.89361261830189e-16,2.29989907030382e-15,4.18942534294819e-17,-8.61456122411291e-05,0.0230517587655991,6.99223009980625e-06,-2.59624861996984e-07,-7.95609329148024e-07,-0.000414011366020138,0.0107355265396058,0.000121275442573139,0.0142561247488962,1.79930352371492e-05,0.00198833949790965,-0.102250794940061,4.41114786858369e-06,6.84540654335625e-07,-0.000108123902852222,0.000327025469881307,-0.0129674321059186,-0.000139502698707392,4.64580301258124e-16,-0.000102177978659246,-9.04270155837627e-16,-0.00651836247091807,1.93630621816035e-11,-5.93858429669908e-16,-2.21694480826456e-05,-2.93196731527019e-05,-0.0113661002968799,-2.18368881611975e-05,-0.000671552313218515,-7.6794520512083e-09,2.82142683205137e-06,-0.000397260440587601,0.0426155327957545,-1.44122091886235e-07,2.30196246950778e-15,-5.33336203559097e-08,4.20973775197125e-07,1.40722686578459e-15,-3.68832913607265e-16,-5.6877624690991e-07,-2.19177235684547e-06,-0.00956708761911999,-6.38567795713089e-16,-1.23371465904606e-07,-1.38564458241469e-08,0.00117144218018309,8.19357430662185e-16,-1.42939874816561e-16,-0.000765225704593874,-3.01971296139044e-09,-1.15019126486053e-16,0.000643411754298035,1.17593192008764e-15,-7.76443404608827e-08,7.27043526066182e-08,-2.29360944113456e-15,-1.1012264292382e-15,-5.17448838689598e-07,0.00100415064134816,-3.09602252679581e-07,5.31239564529628e-16,-4.46744496076543e-16,-1.86561925006619e-15,5.74538319011091e-16,-2.2156615721681e-07,9.33872860497007e-16,-3.36111182804825e-15,1.34492231630462e-15,2.64579046046904e-08,-3.97324647117125e-15,-3.99534546545361e-16,2.15677530058962e-15,1.7072876161766e-15,1.59541202140426e-15,-6.42869665477229e-08,-6.92287721658302e-15,2.18907482883085e-13,0.0805822964025476
"t23",-0.0861071459948493,-0.03850119760545,0.00270537116832145,-0.00274161869244553,0.0261318047361783,-0.136218870022923,0.111377940195415,0.0400249905145315,0.00186429464167482,0.00107983285302247,-0.0160784704242755,0.000326796547883104,1.1008759143025e-05,-0.00215760979956905,6.26389532426881e-06,-0.000614406448541258,-7.27063831624803e-05,-0.000150605540059772,9.08910488391639e-05,-0.00752496511848974,0.000326486331779307,0.00767602040215567,-0.000224878352162929,0.0223574941603446,-0.0940129816918611,-0.00140170720713079,-0.0238395064226902,0.0414589088178663,-0.00198731001821717,0.000260818998381522,-0.0648848675501072,8.58109958146716e-05,-0.0238952704416223,2.13320169441429e-06,0.00320631113516776,0.881984691529211,-0.000132596200419865,0.364821154517962,0.0206321768682764,0.000113111169040723,-0.00192400220520225,-2.6133609659198e-05,0.0271765031322558,-0.01550617894457,-0.0131279699311199,0.0283622067402327,0.0168144815566061,-0.00105812901913666,9.60598900516633e-05,0.0482966734729046,0.0208403161837789,-0.097483766355966,0.00380298199930075,-0.00937648817310758,-3.33794201363261e-05,-0.000339904515884373,0.0121659169528742,8.19384335136825e-05,-0.0143243829814851,-9.59412735107636e-05,0.0375204401108424,0.0434384381736557,9.36149865000831e-05,0.000805055420048357,-1.43673692218409e-05,0.000721785690780514,0.00227510260095762,-0.000291757919576205,0.00396425328068906,2.83746443262844e-05,-2.84305979488975e-05,-4.60188250332829e-05,2.70589710824159e-16,9.43873914130686e-16,-9.32755264356766e-16,-2.28124697161873e-17,-1.37003736583886e-06,0.000623368383373719,2.32425678560039e-07,-9.27762090938087e-09,-3.27759943362078e-08,-1.71890530266469e-05,0.000496029850840355,6.32350018087317e-06,0.0153156352266501,1.08784026721316e-06,0.000131470875531998,-0.00714256332676832,3.62003119374071e-07,5.98252715705091e-08,-9.62357017292042e-06,2.95878777064876e-05,-0.00123986308295972,-1.33426682900017e-05,-6.3943040345881e-16,-1.04345400848735e-05,-4.4924228457344e-16,-0.00970839689636793,1.83566894246552e-12,-3.98823532604061e-16,-3.2910270760054e-06,-4.4451386368457e-06,-0.00207006125958723,-4.23899603334798e-06,-0.000135315982070886,-2.21859084807195e-09,1.4331840356922e-06,-0.00045233456588601,0.0667268671154369,-5.55945107603612e-07,4.39858542893291e-15,1.23753567178794e-08,-4.23062502762265e-08,-4.45746253352952e-16,-1.53373431758162e-15,-2.2487630006245e-08,-1.13668853413958e-07,-0.000706681070542123,2.03238781461679e-16,-9.81250518766028e-09,-1.12685234312266e-09,9.90470620093929e-05,-1.31541259395491e-15,-7.42066024685473e-16,-7.41410903638844e-05,-2.9366266431113e-10,-2.99184466657619e-16,6.92838185755085e-05,-1.37570588418858e-16,-8.76022014467464e-09,8.45034547827501e-09,-5.92344958617584e-16,-1.70727957162868e-15,-6.34595981609343e-08,0.000125315320054142,-4.00510431075912e-08,-9.18348894966462e-17,-5.66324646440879e-17,-2.29444358403609e-15,7.4764268100844e-16,-3.01635707898229e-08,1.10910049855999e-15,-2.83489324013182e-16,1.64310206951693e-15,3.8041260343445e-09,-2.30711870297403e-15,2.82943167814856e-17,2.98425664566976e-15,1.49140579591832e-15,2.36417282088939e-15,-9.56996990384751e-09,-5.92982027480464e-15,2.20528086371323e-13,0.0805822964025418
"t32",-0.0881380528357432,-0.0399512024038629,0.00309875675635825,-0.00332207955638599,0.0330207294458161,-0.173984281400431,0.148712810970184,0.0591466451977004,0.00296693053758809,0.00182390021485396,-0.0273783925598188,0.000641111798118779,2.43828175541978e-05,-0.00626446077303906,2.68825814619209e-05,0.00711355588189174,0.000608609371584355,0.000585989905793488,-0.000263574498621441,0.00834457485576581,-0.000286196130012946,0.000164786366431621,-8.18959925482064e-05,0.014684118927759,-0.132819832766174,-0.0083127330861326,0.0214009604330158,-0.0148052191603343,0.000455027770171951,-5.37201123366165e-05,0.0260414927396739,1.71071837503601e-06,-0.00196594928447308,2.61707184015005e-07,0.000413585242154343,0.128090698672669,-2.51572410705236e-05,-0.460130999065329,0.00407849359150825,2.24290525118089e-05,-0.000381927351540375,-5.20983699952242e-06,0.00517673209169451,-0.00284534234138496,-0.0023306291823816,0.00473380103925894,0.00261324311912938,-0.00014439885830999,1.21532990261543e-05,0.0138300302185083,-0.000393849897545596,0.00365896566793356,-0.000264473053911054,0.000747804714856049,5.16531539337244e-06,0.000143032989303648,-0.013877349896846,-0.000111056802618606,0.024720218235526,0.000414465213159123,-0.801311808329273,0.131322529703582,0.00017130006174649,0.0013587727347778,-2.05206874692271e-05,0.00100739520841527,0.00280196393325019,-0.000342641479385763,0.00462590048480904,3.09654655952576e-05,-2.62339554810993e-05,-4.24568693859228e-05,1.37729699857182e-15,-1.16756989556037e-15,6.11347230489551e-16,-4.14500481535778e-17,-1.09749314486776e-06,0.000489020954782389,1.81415864368678e-07,-7.23778540762372e-09,-2.56369820298813e-08,-1.34497157621364e-05,0.000391332110276974,5.10825051990952e-06,0.0361885368033857,6.96521584570849e-07,9.19580353929825e-05,-0.00514910451553815,2.76849134605568e-07,4.67699915067554e-08,-7.57445235487991e-06,2.34337770882429e-05,-0.0010044153345644,-1.08104318512121e-05,-7.94707708818697e-16,-8.71577949202117e-06,-1.87099135210238e-15,-0.0196493016144324,9.43065682339373e-13,-1.48197073824453e-15,-3.41771224228106e-06,-4.68748110126663e-06,-0.00246438834711476,-5.23876846681594e-06,-0.000170731176459738,-3.28587433930152e-09,2.45801932621216e-06,-0.000855777692101906,0.128865319959384,-1.10843792377174e-06,8.96752125558873e-15,3.42039524378239e-08,-1.57953116134516e-07,6.26348154034892e-16,-7.69870639650571e-16,5.5920174144165e-08,1.65219790138343e-07,0.000348041449175021,5.39986407069001e-16,3.32017235649464e-09,3.32445136374033e-10,-2.20242659556961e-05,-1.7540174955001e-15,-5.49928195907638e-16,6.14399574267484e-08,-1.31982307033249e-12,-4.18383188731296e-17,9.43018973215796e-06,1.83282820382147e-15,-1.63883765292718e-09,1.83046478840623e-09,1.97903940516074e-15,9.747465373836e-16,-1.6781427198197e-08,3.49035411395448e-05,-1.22326154105126e-08,-8.65697077170592e-16,-6.72644921897067e-18,-3.79859505166263e-15,6.2895993617127e-16,-1.02292244672677e-08,1.66009757302062e-15,-7.66470505025187e-16,1.81837773120317e-15,1.40753473956352e-09,-2.09093356615448e-15,-4.00261963962261e-16,2.14006045185115e-15,-8.71488681513685e-16,1.99873448171451e-15,-3.7058437584182e-09,-6.21186766138615e-15,2.17612099286051e-13,0.0805822964025429
"t33",-0.0883349322734802,-0.0400906735920696,0.00313467211534504,-0.00337368289895125,0.0336219144841248,-0.177264979900999,0.151897493057357,0.0607170922744548,0.00305527742088815,0.00188243893637751,-0.0282652868400029,0.000664860348647852,2.53655559236355e-05,-0.00655160289729507,2.82541545845609e-05,0.00756342946940984,0.000647754678685906,0.000626118038989301,-0.000282259061315466,0.00903454904176577,-0.00031090918929772,0.000184042017092086,-9.24617602023595e-05,0.0166564505972737,-0.151379187340653,-0.00951193666678905,0.0247573825680324,-0.017359502656463,0.000539313674939627,-6.40286460221207e-05,0.0312317994429951,2.10312503154717e-06,-0.00249887170426342,3.44151917641439e-07,0.00054768036309262,0.173255337653033,-3.78911487331926e-05,-0.71897430571516,0.00687652542127314,3.82574908433421e-05,-0.000654721931357679,-9.43803490806428e-06,0.0113954480320627,-0.00685287856383176,-0.00602095563262668,0.013788318249893,0.00867453361214728,-0.000609359133174832,6.03760931559394e-05,0.120779123734061,0.0108499023366413,-0.0538964093329183,0.00226436756331306,-0.00569311799983224,-2.2740161420121e-05,-0.000303477452283398,0.0170688899099919,0.000127111040268245,-0.0258654377381121,-0.000342675301611214,0.56714803727112,-0.0599938090677877,-5.25799107440216e-05,-0.000372466507186188,4.01671413895336e-06,-0.000184980341279266,-0.000312314670956568,2.76801344099048e-05,-0.000353854300271283,-9.04015910754841e-07,-3.01615811082407e-06,-4.88777979682743e-06,-1.18682720260429e-15,-4.42800326867171e-16,-5.91132428853033e-16,1.29024869800348e-15,-3.28744231407091e-07,0.000171909788716211,6.84950394985947e-08,-2.80437017093369e-09,-1.04598871435273e-08,-5.50309438756318e-06,0.000166449984897386,2.26575364882577e-06,0.0171370273451248,3.39815591921105e-07,4.5864143314306e-05,-0.00261117714889627,1.47937299337667e-07,2.54972910776728e-08,-4.15274639627613e-06,1.29122535175278e-05,-0.00056254772625274,-6.05521131555019e-06,1.86986384742082e-15,-4.97053592813953e-06,-4.35787505391676e-16,-0.0118317115009398,5.69259765701777e-13,-5.56662112828055e-17,-2.0980621519593e-06,-2.88319012286964e-06,-0.00153651694196975,-3.2774149584228e-06,-0.000106996513063005,-2.08140559866832e-09,1.56762659686384e-06,-0.000547693532195619,0.0825268889939157,-7.10538458172575e-07,4.89126042958821e-15,2.20852609944681e-08,-1.02403030993465e-07,1.02230009152889e-15,-1.44542925868294e-15,3.69147411672193e-08,1.09563458468137e-07,0.00023355320509476,8.55476697518463e-16,2.23724192854811e-09,2.24327700972361e-10,-1.49019844730881e-05,-1.28457415726411e-15,-6.68294420591935e-16,4.20823112400396e-08,-9.05700247330751e-13,1.00337358925599e-16,6.54514241922106e-06,-5.23924082310262e-16,-1.14555963037509e-09,1.2858516749968e-09,9.43256655908607e-16,1.27839799861086e-15,-1.1904162446636e-08,2.48436309373839e-05,-8.77099685520064e-09,5.16332604601744e-17,-2.48454398123985e-16,-4.42711767286893e-15,3.79201035364644e-17,-7.41663570050304e-09,1.16349912573752e-15,-2.04420725887269e-15,8.08500558492685e-16,1.03359155988449e-09,-2.59920607836991e-15,3.94010156605992e-16,2.43518938049766e-15,1.22749458559412e-15,2.42078646644881e-15,-2.74442588381186e-09,-7.12062901359425e-15,2.21621394480884e-13,0.0805822964025391
"t129",-0.0890565583414472,-0.0406057059440518,0.00327394147130329,-0.00357871744020052,0.0360508661597165,-0.190574265410826,0.165028505614573,0.0674101410744736,0.00343984797075473,0.00214120602342254,-0.0321935739436728,0.000773401788417772,2.99589426866096e-05,-0.00794686171435496,3.51724841340543e-05,0.0100517340414917,0.000866104456124381,0.000857466493430477,-0.000392102024076893,0.0135164701072992,-0.000476759623185579,0.000360159219090625,-0.000204634534550418,0.0391447702922373,-0.380084556654294,-0.0253485643074433,0.0798659186669401,-0.0768758277462966,0.00347171327257871,-0.000544649436434817,0.417580104917389,-1.97529117879026e-05,0.00657485927525195,-4.91963933509434e-07,-0.000710505096121593,-0.173062800325317,1.46530659026366e-05,0.21412255636565,-0.00122625031356608,-6.31103389176379e-06,0.0001044233872338,1.02483592397911e-06,-9.53069310108188e-05,-0.000117063478179452,-0.000193683491896654,0.000710349407183432,0.000576037612896386,-5.11403236494974e-05,5.52676687021378e-06,0.0127338486916179,0.00129016619140734,-0.00649648211623208,0.000277241827050328,-0.000699523829528029,-2.83043465472512e-06,-3.68151969291579e-05,0.00182150934695914,1.31374890659336e-05,-0.00254886128032374,-2.81284415263306e-05,0.0383347624724106,-0.000359954345542331,4.57311256517761e-06,4.54715241625261e-05,-1.02975785280152e-06,5.32324776554749e-05,0.000193774684204742,-2.61641689573387e-05,0.000357958511780472,2.75215266552081e-06,-3.33436955768379e-06,-5.39815852907682e-06,2.86376318748831e-16,-2.72148885584761e-16,7.60699572245823e-16,-8.31561377719752e-16,-2.04039137967283e-07,0.000100430820762805,3.91376224596224e-08,-1.59086833293787e-09,-5.85704690575188e-09,-3.0794460132894e-06,9.23655614037597e-05,1.24765191474261e-06,0.00935231697606095,1.84942079447975e-07,2.49251630566395e-05,-0.00141800287566714,8.03146837273134e-08,1.38531522989753e-08,-2.25697283662741e-06,7.01987114054914e-06,-0.000306219572257508,-3.29614596046403e-06,1.22058518302574e-15,-2.71064339894993e-06,-2.44463752276719e-16,-0.00650745187800735,3.17727429663027e-13,-1.37924424407908e-15,-1.15879185906573e-06,-1.59316809109977e-06,-0.000851930286530185,-1.81882675630918e-06,-5.94065755110486e-05,-1.15916279948776e-09,8.74813989039335e-07,-0.000305973748579359,0.0461138466820103,-3.97151153448875e-07,3.55417556120658e-15,1.23736580221262e-08,-5.74516837624227e-08,2.62886944292791e-15,-5.77148744021143e-16,2.08464489249195e-08,6.19815782442829e-08,0.000132763439670742,2.86867585048225e-16,1.27400389634914e-09,1.27823492646683e-10,-8.50126297004027e-06,2.56506688081961e-15,2.98260976006862e-15,2.41413916387131e-08,-5.13313863066938e-13,5.23704329927467e-15,3.77919036425586e-06,2.74901197452201e-15,-6.63885615036742e-10,7.47179701134488e-10,-1.81243189457938e-14,-2.16696145590242e-14,-6.95471948778882e-09,1.45426051525232e-05,-5.15653820718067e-09,1.25652010922528e-14,-1.26881949304029e-13,-0.707106781186552,1.16203231600222e-13,-4.39053370640158e-09,-1.15219818903364e-14,-4.32539229659396e-14,-1.23692104823659e-14,6.170140857747e-10,-2.84886804699987e-14,-1.58089524134232e-15,1.15131961367766e-15,7.30543613753713e-15,1.47108111486816e-14,-1.6479942968526e-09,-8.40280883073603e-15,2.10333194176085e-13,0.0805822964025311
"t130",-0.0890565583414472,-0.0406057059440517,0.00327394147130327,-0.00357871744020055,0.0360508661597165,-0.190574265410825,0.165028505614573,0.0674101410744737,0.00343984797075462,0.00214120602342246,-0.0321935739436726,0.000773401788417343,2.99589426853838e-05,-0.00794686171435459,3.51724841342504e-05,0.0100517340414924,0.000866104456124944,0.000857466493429511,-0.000392102024076103,0.0135164701072992,-0.00047675962318539,0.000360159219091045,-0.000204634534550832,0.0391447702922371,-0.380084556654297,-0.0253485643074434,0.0798659186669401,-0.0768758277462973,0.00347171327257826,-0.000544649436434757,0.41758010491739,-1.97529117877954e-05,0.00657485927525287,-4.91963934317816e-07,-0.000710505096122374,-0.17306280032532,1.46530659032189e-05,0.214122556365652,-0.00122625031356627,-6.31103389143189e-06,0.000104423387232219,1.02483592381735e-06,-9.53069310085711e-05,-0.000117063478182223,-0.000193683491896984,0.000710349407184906,0.000576037612895705,-5.11403236498064e-05,5.52676686908467e-06,0.0127338486916173,0.0012901661914069,-0.00649648211623088,0.000277241827047753,-0.000699523829527089,-2.83043465682365e-06,-3.68151969297578e-05,0.00182150934695967,1.31374890677228e-05,-0.00254886128032118,-2.81284415298909e-05,0.0383347624724141,-0.000359954345539732,4.57311256358671e-06,4.54715241617437e-05,-1.02975785212709e-06,5.32324776561194e-05,0.000193774684204511,-2.61641689587207e-05,0.00035795851178093,2.75215266356404e-06,-3.33436955646629e-06,-5.39815852841351e-06,-1.93430159736785e-16,-3.80539850501007e-16,7.29650467918309e-17,-1.6863174144429e-16,-2.04039137441742e-07,0.000100430820758775,3.91376230180106e-08,-1.59086969248558e-09,-5.85704425515341e-09,-3.07944601242849e-06,9.23655614025849e-05,1.24765191882652e-06,0.00935231697605978,1.84942074966372e-07,2.4925163061627e-05,-0.00141800287567462,8.031468397868e-08,1.38531508683119e-08,-2.25697283991195e-06,7.01987113861209e-06,-0.00030621957225907,-3.29614596356109e-06,-1.78300523466266e-15,-2.71064339395617e-06,-7.35775612576849e-16,-0.00650745187800237,3.07186085225907e-13,4.62338643878967e-16,-1.1587918647121e-06,-1.59316808891408e-06,-0.000851930286526971,-1.81882675734571e-06,-5.94065755094221e-05,-1.15914747201506e-09,8.74813999405239e-07,-0.000305973748586333,0.0461138466820701,-3.97151142439154e-07,2.04140713193725e-15,1.23736548034518e-08,-5.74516921954269e-08,-2.49805822154444e-15,-1.07250035017328e-15,2.0846442988405e-08,6.19815649535095e-08,0.000132763439671384,-2.28148099712046e-16,1.27400553512709e-09,1.2782147838655e-10,-8.5012629949665e-06,-3.244315040771e-15,-3.60910779171493e-15,2.41413890594978e-08,-5.29689298171228e-13,-5.6348486810758e-15,3.77919034631882e-06,-5.55051227521152e-16,-6.63887374499357e-10,7.47141526286493e-10,1.81545258511214e-14,2.07594933428062e-14,-6.95464872733355e-09,1.45426051886917e-05,-5.15655138928727e-09,-1.28099659342116e-14,1.27135381161069e-13,0.707106781186543,-1.15313693552942e-13,-4.39046986893877e-09,1.34420445512834e-14,4.01793373346409e-14,1.41981748838083e-14,6.17020252994398e-10,2.42520924460634e-14,9.58681019877309e-16,4.0968068111731e-15,-4.53793478922577e-15,-1.0625831179349e-14,-1.64799451414224e-09,-5.30931724021315e-15,2.31088965481524e-13,0.0805822964025428
"t29",-0.0875611553629095,-0.0395453885517039,0.00299908564846795,-0.00318234310976832,0.0314207249037328,-0.16529045245999,0.140418275684137,0.0552042528092491,0.00275057424037539,0.00168320249330327,-0.0252520115226685,0.000586437077789285,2.21896294420676e-05,-0.00566042509431057,2.41786623227932e-05,0.00639829796860883,0.000547945039401077,0.000530585131171784,-0.000239828382598555,0.00797542241166029,-0.000281313764030169,-0.00159566087684753,2.02554095518523e-05,-0.000692140418531338,-0.00731122605458616,-0.000853077227986146,0.0030802279684671,-0.00100340714237248,-8.03184783257987e-05,2.72894753425551e-05,-0.0396677620401111,-1.8592940075068e-06,-0.000486921353505637,7.03329025453919e-08,0.000109482713366433,0.031720278122395,-3.46569632529273e-06,-0.04630990807492,0.000109792624670269,3.5920822588133e-07,-4.33087719981919e-06,2.0565758953279e-07,-0.00109822225585645,0.000830824182686983,0.000829155359987347,-0.00222546283764175,-0.00158314579851684,0.000130319160979459,-1.40806642873221e-05,-0.043760964839455,-0.00223699968819446,0.0116481559653529,-0.000511793411266536,0.00129884785634542,5.37421787204548e-06,7.0291841450651e-05,-0.00327686409127953,-2.31696775181273e-05,0.0043498740716044,4.05822376441768e-05,-0.0415132019341459,-0.00768878737992877,-2.35297704690643e-05,-0.000212623912299559,4.22004498449943e-06,-0.000215333831526103,-0.000743593320449719,9.91404749512426e-05,-0.00135447019618919,-1.0309074593394e-05,1.2732749236661e-05,2.06147826281074e-05,1.05997201186833e-16,1.31958515236642e-15,-3.88007245818742e-16,2.30281319605664e-16,8.92615275156342e-07,-0.000472121759984581,-1.92505646966505e-07,7.97828114797604e-09,3.0732552362213e-08,1.62035128724655e-05,-0.000507256756098746,-7.28684728440269e-06,-0.0881709029921975,-9.79750128055913e-07,-0.000150046670706788,0.00902260476136311,-5.92150139924093e-07,-1.08460778059502e-07,1.79905660948505e-05,-5.68763107114047e-05,0.00262468406775209,2.82615430705143e-05,-2.26407532754501e-15,2.48971947292407e-05,5.21264475294233e-15,0.0898166742190583,-2.81039152821289e-12,9.05614106190674e-15,1.57299833177996e-05,2.19629212041262e-05,0.0131679301982564,2.9006422620311e-05,0.000963188462965466,2.09876552049989e-08,-1.71455112970274e-05,0.00626742932386199,-0.952633425915162,8.30923742323255e-06,-6.32457732590994e-14,-2.86976530072428e-07,1.42020109628749e-06,-3.72796643136846e-15,9.98484624140804e-15,-7.42417488100259e-07,-2.49552003400175e-06,-0.00824439646673041,-3.94987557001012e-15,-9.82844969048595e-08,-1.07640148178851e-08,0.000869087951077646,8.59716317498768e-15,-1.08651256372137e-15,-0.000474769892183012,-1.86377285708024e-09,-1.89423122864023e-16,0.000342230033465106,-1.03676929872168e-14,-3.85060023994491e-08,3.44839731152345e-08,-3.69821244413687e-15,-9.82199928934355e-15,-2.26699193179935e-07,0.000428964030195141,-1.2571336307971e-07,3.03449794209411e-15,2.11917275623046e-15,3.94040856281836e-14,7.83008750918946e-16,-8.40079092203699e-08,1.94599259239266e-15,-1.75075413459125e-14,-1.93664002176198e-15,9.37633100974703e-09,-1.12342365589578e-15,-8.70110724598648e-16,2.10552166296828e-15,1.56318765154146e-15,4.18923338924153e-15,-2.19015683293036e-08,-5.99123830107449e-15,2.20331879906546e-13,0.080582296402536
"t78",-0.0895167902779578,-0.0409385188291174,0.00337214404455384,-0.00372985003213414,0.0378973428045173,-0.200769101421648,0.17539635279422,0.0730378390762389,0.00377674406195686,0.00237486109594129,-0.0357546782602537,0.000878204134735996,3.46036783430201e-05,-0.00947890209464385,4.34230227374031e-05,0.0137532736474724,0.00119803752283111,0.00124146688892124,-0.000584591634412165,0.024261438846843,-0.000924868642060112,-0.0142010072947322,0.000487416982098848,-0.059685086720112,0.39611265816009,0.019759718409061,-0.0280181991652606,0.00529157414813495,0.0003194553824995,-9.64622575950816e-05,0.125038877482648,4.1371517106675e-06,0.000790325222350778,-9.0833618501384e-08,-0.000135930032530512,-0.0353404223812679,2.63630864019322e-06,0.0321386650182843,-6.53004667931518e-05,-2.0936090697198e-07,2.50283523561212e-06,-1.09057515832455e-07,0.000466619538986931,-0.000327736025151972,-0.000311236971384219,0.000777402185365756,0.000518816515317482,-3.90562157368204e-05,4.03033849770593e-06,0.0113000214047364,0.000494269613402909,-0.00249831898539708,0.000105008251467399,-0.000263095211348527,-1.00416246729501e-06,-1.09461044277849e-05,0.000411392566603128,2.80953513111706e-06,-0.000503960695212892,-4.11865686779107e-06,0.00381864074658195,0.000507929103167765,1.05425546373162e-06,8.35842684794034e-06,-1.03780105114929e-07,4.75558498260565e-06,4.14569624198995e-06,2.38077973409474e-07,-4.83531264357404e-06,-1.79690949252131e-07,9.63936117761365e-07,1.56229479183497e-06,-1.78569607571502e-15,1.66849123700184e-15,3.26152802138942e-15,6.71619887066404e-15,2.20568766883849e-07,-0.000173874702626932,-9.06737030323022e-08,4.18474980979021e-09,2.09238768032649e-08,1.12181776922598e-05,-0.000458124838765599,-9.96719119203425e-06,-0.837420005775663,4.83018183570647e-06,0.000338048314557554,-0.0142150114069528,4.53854802726897e-07,6.78419117110505e-08,-1.06652426735828e-05,3.21896874535088e-05,-0.00128490138819442,-1.38242236009129e-05,-3.30403328239663e-16,-1.04612277363787e-05,-1.52967842975378e-16,-0.0242623905132825,7.54675868021838e-13,-1.19696530891628e-15,-3.61508982397145e-06,-4.96329119344788e-06,-0.00264021819082934,-5.63901376221744e-06,-0.000184280052765474,-3.62811133201879e-09,2.77060194180448e-06,-0.000977154146439806,0.147525456874488,-1.27396354071851e-06,8.50981607915665e-15,4.07058853793094e-08,-1.92531706431868e-07,8.78441241293969e-16,-1.94444540390787e-15,8.0566284197705e-08,2.54381981861174e-07,0.00070140722061219,2.20936817166949e-15,7.79358660718704e-09,8.32349399516031e-10,-6.39479660103275e-05,-7.18106149049236e-16,-2.47477627492281e-15,2.70019041763623e-05,1.04981204184468e-10,1.85927714746566e-17,-1.33705225096967e-05,2.39998751915459e-15,1.14026277263433e-09,-7.9489568246928e-10,-1.13958115212973e-15,-8.93409542717353e-16,2.29738132811856e-09,-2.42148352135703e-06,-5.08173588885031e-10,8.07214702423054e-16,-8.77360744860382e-16,-7.26992515282265e-15,-1.39570252694239e-17,-1.57820503584254e-09,1.20292499974545e-15,8.20288563446179e-16,3.50470446210335e-16,3.35276077871785e-10,-2.31677350734928e-15,-1.19251932478218e-16,2.61527478581446e-15,1.01531779006517e-15,1.30177299881505e-15,-1.03273680995406e-09,-5.94298402768622e-15,2.21309354877437e-13,0.0805822964025449
"t139",-0.0898013738619802,-0.0411416869040198,0.00342729613586881,-0.00381131486648597,0.0388651577240807,-0.206076241181713,0.180649800424552,0.0757377175181578,0.00393286152517512,0.0024804533627996,-0.0373587838268129,0.00092307242520573,3.65217359651025e-05,-0.010073516940761,4.6441267299234e-05,0.0149256538979942,0.00130180576798974,0.00135554027087529,-0.000640082286012619,0.0269205788147696,-0.00103040047143358,-0.0163383639592884,0.000567604055521134,-0.069863443712391,0.466077707392187,0.0233497305647164,-0.0334965112370585,0.00641558390932646,0.000391584118283329,-0.00011890807835423,0.155084740754594,5.25519002450044e-06,0.00103499499051625,-1.22490798396251e-07,-0.000184370346062179,-0.0487670848201742,3.93578725626505e-06,0.0491438930014281,-0.000104507373292711,-3.37249860241418e-07,4.04288668914545e-06,-1.81403741135756e-07,0.000846864741687741,-0.000614897532100331,-0.000597751186394251,0.00154707719423439,0.00106738910070004,-8.44066017086612e-05,8.94440560320624e-06,0.0266926437995816,0.00129291845756411,-0.00667006324511351,0.000289197485455642,-0.000731208424144243,-2.95911089317641e-06,-3.70813764476706e-05,0.00166181871086342,1.16870722299542e-05,-0.00217946675607926,-1.99839953913656e-05,0.0202181469652625,0.0036407972774426,1.09139425837413e-05,9.81345689734293e-05,-1.92357580178168e-06,9.79566459564581e-05,0.000334130260493431,-4.43095607095411e-05,0.000604905689584802,4.56574739444299e-06,-5.51206609229764e-06,-8.924073885328e-06,1.16620911182241e-15,-6.28551213493811e-16,-1.13027343730412e-15,-3.27290435541751e-15,-3.96209083112612e-07,0.000223203102278797,9.70224376716251e-08,-4.16301068244185e-09,-1.77512818326948e-08,-9.42840593126525e-06,0.000336181509366973,6.19538647428433e-06,0.378887748923341,-1.82521255272785e-06,-0.000109423993762256,0.0040281877406968,-7.2387942622085e-08,-7.68822289018194e-09,1.0707047741761e-06,-2.86441931516599e-06,6.69653460757767e-05,7.17602775867116e-07,4.34561975292099e-16,1.2318653521852e-07,-1.25837958057184e-15,-0.00258027148287592,8.19515645532656e-14,4.9341807502092e-16,-5.32038810870703e-07,-7.50861338508335e-07,-0.000474179997463872,-1.05243684228489e-06,-3.50555676413016e-05,-7.70157752808638e-10,6.26656238224179e-07,-0.000227980194271931,0.0346146731028265,-3.01403141380023e-07,3.71332471764563e-15,1.02290517561235e-08,-4.99552266182108e-08,2.98114793914806e-15,-1.72630929136445e-15,2.3818124705429e-08,7.74968697360814e-08,0.000230091075381342,6.35933712497242e-16,2.61983710600127e-09,2.82103746991598e-10,-2.2011624734053e-05,-5.08969605937596e-16,-1.70166292421053e-15,9.93501825916239e-06,3.87065786479901e-11,7.38715119607226e-15,-5.25995094656075e-06,6.85693339074418e-17,4.64031506865829e-10,-3.30945215841945e-10,5.72262429124692e-15,7.54752083069334e-15,9.98846571875477e-10,-1.06826010712287e-06,-2.31160846402869e-10,7.21994422562076e-16,2.8635887531651e-15,2.50386973303793e-14,-2.55018795334018e-14,-7.50520400455674e-10,-3.71370068404433e-15,4.90520319681514e-15,-2.31739558353754e-15,1.67674770069193e-10,-0.707106781186549,-6.14024020437448e-14,4.87886589679686e-14,-8.67380231645142e-15,-1.23403422315426e-15,-5.31266594059883e-10,7.11057601626876e-15,2.20571602264007e-13,0.080582296402513
"t140",-0.0898013738619802,-0.0411416869040199,0.00342729613586882,-0.00381131486648594,0.0388651577240808,-0.206076241181713,0.180649800424552,0.0757377175181578,0.00393286152517516,0.00248045336279987,-0.0373587838268127,0.000923072425205548,3.65217359652004e-05,-0.0100735169407612,4.64412672994818e-05,0.0149256538979942,0.00130180576798952,0.0013555402708753,-0.00064008228601254,0.0269205788147703,-0.00103040047143327,-0.0163383639592895,0.000567604055521411,-0.0698634437123913,0.466077707392186,0.0233497305647161,-0.0334965112370592,0.00641558390932631,0.000391584118283623,-0.000118908078354412,0.155084740754593,5.25519002478823e-06,0.00103499499051674,-1.22490798338572e-07,-0.000184370346061453,-0.0487670848201741,3.93578725650088e-06,0.0491438930014279,-0.000104507373292513,-3.37249859722691e-07,4.04288668974038e-06,-1.81403741337229e-07,0.000846864741687437,-0.00061489753210123,-0.000597751186394137,0.00154707719423416,0.00106738910069973,-8.44066017079128e-05,8.94440560168603e-06,0.026692643799581,0.00129291845756318,-0.00667006324511077,0.000289197485455884,-0.000731208424141878,-2.95911089157859e-06,-3.70813764477493e-05,0.00166181871086506,1.16870722307273e-05,-0.00217946675607511,-1.99839953915624e-05,0.0202181469652633,0.00364079727744305,1.09139425839153e-05,9.81345689733662e-05,-1.9235758031755e-06,9.79566459572275e-05,0.000334130260490386,-4.43095607106474e-05,0.000604905689584327,4.56574739847448e-06,-5.51206609208912e-06,-8.92407388536347e-06,8.79103837054695e-16,-1.07624877345183e-15,-1.52171584470211e-15,-3.0766596161001e-15,-3.96209082134953e-07,0.000223203102280865,9.70224391624758e-08,-4.16301033525742e-09,-1.77512822177918e-08,-9.42840593168326e-06,0.000336181509369372,6.19538647461054e-06,0.378887748923341,-1.82521255270037e-06,-0.000109423993758686,0.00402818774069525,-7.23879418728237e-08,-7.68822331784046e-09,1.07070477443895e-06,-2.86441931422763e-06,6.69653460766851e-05,7.17602778635139e-07,2.32172373696109e-16,1.2318653093735e-07,-7.42108925366949e-16,-0.00258027148287708,8.23384241381413e-14,-9.39842902246111e-16,-5.32038813809272e-07,-7.50861338372902e-07,-0.000474179997461758,-1.05243684028365e-06,-3.50555676364588e-05,-7.70159218801075e-10,6.26656239463775e-07,-0.000227980194278138,0.034614673102828,-3.01403142361064e-07,1.00066971404006e-15,1.02290480911622e-08,-4.99552274627687e-08,-2.37719707431474e-15,6.11625130988642e-16,2.38181240299735e-08,7.74968689892262e-08,0.000230091075368002,-2.44407467275739e-15,2.61983511548511e-09,2.82100348145757e-10,-2.20116247437952e-05,-8.37959768367775e-16,2.07219245191144e-15,9.93501825696788e-06,3.87046869283433e-11,-8.28316674463401e-15,-5.25995093442346e-06,3.80531181409493e-16,4.64012030374271e-10,-3.30944031405818e-10,-4.30151231329504e-15,-7.15039537978764e-15,9.98841711914252e-10,-1.06826009907555e-06,-2.31153668894794e-10,-1.97136379712524e-15,-2.78050114380403e-15,-2.77444114995261e-14,2.5600268106017e-14,-7.50531749919155e-10,6.55020760855472e-15,-1.027015777103e-14,5.43230163507317e-15,1.66915493144385e-10,0.707106781186546,6.05043974967439e-14,-4.36782456376627e-14,1.11982911659433e-14,6.24156696865833e-15,-5.31268635932489e-10,-2.06474907236178e-14,2.19876796170473e-13,0.080582296402552
"t40",-0.0886687394710134,-0.0403295650174207,0.00320048218498329,-0.00347152227752167,0.034789055642363,-0.183671337077471,0.158262326690842,0.0640100250420404,0.00324639079384137,0.00201201130366642,-0.0302342626110005,0.00072015903785796,2.77349032286449e-05,-0.00728811361905153,3.19967634364765e-05,0.00901178888965868,0.000775847640535176,0.000766386857495491,-0.000350298369994682,0.0122272844127337,-0.000436464330902781,-0.00204835931534642,-1.38198453578794e-05,0.00681976017532766,-0.0832313950845059,-0.00587851659457887,0.0163510339710634,-0.00566694942070537,-0.000525660860760744,0.000198172127065481,-0.331277731267226,-4.65689190793418e-05,0.00608136220409864,-3.2572403534754e-07,-0.000445246458260679,-0.0925592303969642,3.10541928822754e-06,0.0277138831332211,-1.62326525980413e-05,-3.2477244361077e-08,2.87023509648918e-07,3.73478614352275e-08,-0.00103848749143527,0.00108025856342993,0.0013204764359535,-0.00476690446818566,-0.00449367764194286,0.000589107121482187,-8.62296345127041e-05,-0.870997133475945,0.0249321328350185,-0.102883636791405,0.003488587459069,-0.00832243218806907,-2.53684363807354e-05,-0.000219117246628402,0.00770449548579969,5.26459968296994e-05,-0.00948253464332333,-7.98637380220856e-05,0.0767708149167345,0.0122199899251317,3.35673199623025e-05,0.00029556690254307,-5.49266385745991e-06,0.000277284436369042,0.00089528940364392,-0.000115778321178928,0.00157488370097542,1.14028224554863e-05,-1.18024866815993e-05,-1.91046422072545e-05,4.85594521739792e-16,5.21870034478382e-16,3.02539044986565e-16,3.58273473051853e-16,-6.05877627818003e-07,0.000284913388509061,1.08670510508596e-07,-4.38312409065373e-09,-1.58994486303883e-08,-8.35298975302802e-06,0.000248187873153518,3.33562336898141e-06,0.0310760883802223,4.23373460959905e-07,5.93221897610076e-05,-0.00339982746774134,1.92866102299127e-07,3.32434768533026e-08,-5.41597310966146e-06,1.68468839289655e-05,-0.000735862722948078,-7.92092787449816e-06,5.14481600031058e-16,-6.54333399586512e-06,-8.97788248984259e-16,-0.0398821656151591,-1.23522395459352e-12,-2.24880777793419e-15,-2.58965163579447e-06,-3.59236461044306e-06,-0.00200212454239558,-4.3096996240185e-06,-0.000141347857541229,-2.83144723004378e-09,2.17754285748715e-06,-0.000769899356704084,0.116278790431852,-1.00463480662197e-06,8.25411059608566e-15,3.21566927334355e-08,-1.51991363248159e-07,5.17915097582918e-16,-2.324964052821e-15,6.22515625345644e-08,1.94281349748889e-07,0.000510087587207548,1.17136030000597e-16,5.52245742505828e-09,5.83728868511729e-10,-4.38633827009506e-05,-1.19803060463119e-15,-1.01490878898254e-15,1.5763554539283e-05,6.08012513159079e-11,-2.71254901871762e-17,-4.76670564685111e-06,1.41357264270043e-15,1.28876813552528e-10,1.42359983774824e-10,-1.96060543390261e-16,5.46284170603181e-16,-4.34042177140925e-09,1.04900019838863e-05,-4.53264626449547e-09,-2.81575090928387e-16,6.64920850489265e-18,-5.91348653561873e-15,2.47199464407875e-16,-4.54209255812168e-09,1.52749226790493e-15,1.76499264426977e-16,1.12368431264488e-15,7.05717664801825e-10,-2.87484429964967e-15,7.0073862056113e-16,2.43716414213591e-15,1.32988620819448e-15,1.83921651794851e-15,-1.96537582945621e-09,-6.72474008054282e-15,2.20657424416332e-13,0.0805822964025339
"t72",-0.0889490917004778,-0.0405292956967096,0.0032538670022292,-0.00354967323604112,0.0357113481632719,-0.188720305747213,0.163225621586476,0.0665217421315565,0.00339007131024537,0.00210838783204786,-0.031696749589806,0.00076032357286238,2.94277074953019e-05,-0.00779899965917105,3.45165068562316e-05,0.00991084980519159,0.000854720794285992,0.000849957731753028,-0.000390012354675853,0.0138789026442679,-0.000498442842568585,-0.00246457349559964,-1.69912390081694e-05,0.00846539100525694,-0.104339846719442,-0.00743095684895148,0.021159826839518,-0.00755711689261554,-0.000718695465442564,0.000274574855142649,-0.465937295958105,-6.97586461577168e-05,0.0100037347730345,-5.96761980189726e-07,-0.000835458917897283,-0.187569549655977,1.08119003289749e-05,0.129024570737601,-0.000260485755554915,-8.3676268744418e-07,1.00133024901175e-05,-4.43813829560627e-07,0.00212372070816079,-0.00159499824077533,-0.00160297584080341,0.00444479300593596,0.0033570446586753,-0.000326027038639467,4.09542479240918e-05,0.292042250656092,-0.0046880211747948,0.0170865643692428,-0.00047485881490901,0.00106544161594443,2.08568096925288e-06,9.17464229330159e-07,0.000445911505455475,3.46125549437908e-06,-0.000714583001268849,-7.9319933968665e-06,0.00874879808052464,0.00182621876650738,5.8460086665694e-06,5.31914352335597e-05,-1.06794325455296e-06,5.45541059510747e-05,0.00018885845725017,-2.51473190396843e-05,0.000343461921367793,2.59981954921218e-06,-3.06321872021489e-06,-4.95906522733814e-06,-7.5731687208555e-16,-7.73532435574465e-16,7.07490183202244e-16,-8.19813779143776e-16,-1.79818180091007e-07,8.61992793198748e-05,3.29507215124487e-08,-1.3276001666679e-09,-4.78316175080791e-09,-2.5113820934779e-06,7.37675336723261e-05,9.70183861551569e-07,0.00843567368958381,1.08398279195156e-07,1.42504158314724e-05,-0.000764234230359332,2.7226263813331e-08,2.74283408542186e-09,-3.30580989842409e-07,6.67511210395245e-07,3.79215891992768e-05,4.13245709363728e-07,4.2365542618719e-15,1.4236096278058e-06,3.37632010824954e-15,0.726792050114521,5.99439083838209e-11,2.09509013232455e-14,-7.41747551791986e-06,-9.43014823015215e-06,-0.00351986246079852,-7.08474356905019e-06,-0.000225238314884299,-3.86163146871161e-09,2.75495737494957e-06,-0.000942015248900144,0.141438517851854,-1.2116722396634e-06,1.08943281231379e-14,3.65997569986454e-08,-1.6818599067051e-07,1.03086854797578e-15,-1.30139865840515e-15,6.24060987625434e-08,1.91011123690992e-07,0.00048025723396266,4.18040789115331e-16,5.1327567978967e-09,5.40262708901183e-10,-4.02854172617051e-05,-8.88137238716574e-16,-3.43852790729732e-15,1.40446388672517e-05,5.41278371011985e-11,3.98942199484825e-16,-4.13780524971037e-06,3.59710817641686e-15,1.10589763151392e-10,1.21286175607886e-10,2.87781287866078e-16,-1.80140347282462e-15,-3.65271424696408e-09,8.79487791363928e-06,-3.77273114324528e-09,-6.18512204651836e-16,1.31949901402603e-15,-9.2225351701374e-15,-1.55849188202739e-17,-3.74663554310534e-09,4.66560399606245e-16,9.76681334048853e-15,9.73497755147876e-16,5.77635091843761e-10,-2.0973384238393e-15,1.82967753132548e-16,2.75210308280775e-15,9.57277394631128e-16,2.62519532618554e-15,-1.60255771554002e-09,-6.81756903494927e-15,2.19975819787706e-13,0.0805822964025556
"t73",-0.0890501233764677,-0.0406010391949535,0.0032726502889911,-0.00357690008752752,0.0360305412836519,-0.190464886921637,0.164929863215251,0.0673735094696538,0.00343842101825957,0.00214064132137376,-0.0321858417804769,0.000773609800806275,2.99834570529604e-05,-0.00796461252359176,3.53238350393224e-05,0.0101912711620428,0.000879264564276804,0.000875732604489179,-0.000402198411889701,0.0143733986580679,-0.000516861126534313,-0.00258111765976594,-1.78595353092848e-05,0.0089116501204411,-0.110008945824831,-0.00784458066451537,0.022413519679421,-0.00803713884305027,-0.00076671980005307,0.000293383229802274,-0.498705636161454,-7.51529128464919e-05,0.0108646519864226,-6.5299253698952e-07,-0.000915510341822523,-0.206419086002472,1.21197200938386e-05,0.145398793247326,-0.000296397301964203,-9.53400049811312e-07,1.14155537472082e-05,-5.08962241056542e-07,0.00247590265355858,-0.00187044533048212,-0.00188733888453149,0.00526421635969289,0.00399710279006572,-0.000391115723826815,4.93217859611792e-05,0.354788972773741,-0.00577002558430162,0.0210816802742973,-0.000588011613878026,0.00132069378343391,2.6020588496906e-06,1.16053759406389e-06,0.000572455358433326,4.4533552875397e-06,-0.000922008099614455,-1.03139030837564e-05,0.0114362301466404,0.00242339492069142,7.85907015329857e-06,7.17543728737253e-05,-1.45420834459816e-06,7.44061095832576e-05,0.00026037657300882,-3.48539564499744e-05,0.000476405396718946,3.63975634851826e-06,-4.46177592132887e-06,-7.22359117542333e-06,9.49721107393765e-16,3.13878286586349e-16,-1.11385224060596e-15,1.10653272665009e-16,-2.9166774637394e-07,0.000148496761997095,5.9153455191889e-08,-2.42779258103759e-09,-9.14785627824829e-09,-4.81671425269502e-06,0.000147822183520552,2.06679071093296e-06,0.0207627874166768,2.95183221801788e-07,4.28982374504603e-05,-0.00253655981946868,1.64118735866426e-07,3.042638682117e-08,-5.07915383924777e-06,1.61716383227441e-05,-0.000773318501642113,-8.32904121953227e-06,-3.89519382933488e-15,-7.91143678836258e-06,-4.35298180121826e-15,-0.67878348257664,-5.38076814602831e-11,-2.01744149301692e-14,3.71058312114307e-06,4.38880109697677e-06,0.00090266955951579,1.49951013889695e-06,4.27270319316181e-05,2.59631076709516e-10,1.80669480250915e-09,-3.11454304855463e-05,0.00550448770485199,-5.74956593531677e-08,-8.34776581539229e-16,3.96828015846457e-09,-2.35405597394736e-08,-4.7694107994034e-16,-3.97207630777962e-16,1.6392466528197e-08,5.53122264903271e-08,0.000169879784518417,-2.63152524693598e-16,1.92092534668827e-09,2.05880834961865e-10,-1.58660273415906e-05,-5.31336548686112e-16,2.11173921486566e-15,6.28288883639037e-06,2.42971569353142e-11,-1.0731809568377e-15,-2.06349639386851e-06,-1.85614709033955e-15,5.79233573379663e-11,6.55395896194467e-11,1.21344939905447e-15,2.00954606861044e-15,-2.08607150123789e-09,5.11186174488973e-06,-2.27181109271387e-09,4.91708348054222e-16,-1.38170687543244e-15,1.40196359228488e-15,5.35183847480929e-16,-2.36689648330549e-09,2.00089411113529e-15,-1.17656318997316e-14,1.51767036896544e-15,3.82764099624015e-10,-2.91585581693492e-15,-1.00465737190697e-15,1.99785262545124e-15,1.27741224561175e-15,1.88890699137158e-15,-1.09240619185747e-09,-6.51487361877747e-15,2.20509056203405e-13,0.0805822964025222
"t71",-0.0938272239773019,-0.0445025904246564,0.00966826749177549,0.00515783553754413,-0.0124178828068189,0.0471500864075367,-0.00730977377363706,-0.00329944479386805,-0.00168618412949165,-0.00799581423281608,0.22449815223423,-0.30908728248783,3.36757858559093e-05,-0.052188096474529,2.64497231061378e-05,0.0332653197260723,-0.000483669286475173,0.000538285041785524,-0.000287936285823445,0.0368781075879383,0.000597731032943784,-0.008238451140941,4.53254858226141e-05,-0.00854809519428051,0.00196397505791401,-0.0021600851963446,0.00499042741952622,-0.00564829329765152,0.000204472879955551,-0.000230015188279938,0.000397608356493959,-5.2936805642865e-06,0.000735846564273076,-2.71751025055118e-08,-3.20501446984117e-05,-0.00272075188222771,-1.67732825231881e-06,-2.15503503927866e-06,0.000788126048515586,4.16539805638498e-06,-2.10461847696265e-05,-2.76308234290861e-07,4.5595578564667e-06,8.46168942525083e-05,0.000130257285886866,-0.00050665654068837,-0.00085499859394657,3.52646382467443e-05,-3.85985315163944e-06,-0.000824796445222699,-0.00216785633045593,0.0110480756789842,-0.000494013886911946,0.00107402684023995,5.79105603312636e-06,0.000135231889984866,0.00105715846655634,0.0001967488168934,-0.00574035193078631,-1.07805138586972e-05,0.000328961724022926,-0.00176843382698477,-9.76299984989704e-06,-9.66947709624581e-05,2.38791982664543e-06,-0.000126549278933067,-0.000646731000542341,0.000549082509309403,0.00499412702709475,-4.77426431708117e-06,-0.000267752961299842,1.53905127046799e-05,1.6283138130204e-15,6.10895650953176e-15,1.13295764520671e-14,-1.55636088904076e-14,3.73074523148475e-06,-0.910040435983027,1.20024481764946e-06,-3.45894776166984e-08,-7.77307605251738e-08,-3.99673676728492e-05,0.00853440803348092,8.74495865898251e-06,0.000858683751492953,1.13017023221658e-06,0.000685316531554766,-0.00622860360652851,2.64852156345192e-07,4.14829865101242e-08,-6.60220804768302e-06,0.000139347685314516,-0.00530665736746973,-0.000142296866661752,-1.7428279105596e-15,-0.0146245705656441,5.31173023374193e-16,-0.00036429139459788,1.15192129873992e-12,3.17552891739972e-15,-1.35476474879897e-06,-1.01795889451518e-05,-0.0038313997972203,-1.10558841378267e-06,-3.61981722489477e-05,-4.48325952626837e-10,1.66049839896521e-07,-2.29710581160433e-05,0.00242608909216442,-7.47475101046247e-09,-1.43983300904715e-15,-3.29565376642544e-09,2.60517135006767e-08,-3.60348092539202e-16,-8.71186524707145e-16,-3.62191391298129e-08,-1.41496612785201e-07,-0.00331350134871609,4.84847266659878e-16,-7.08804711896315e-09,-8.19735876500479e-10,7.13181417662905e-05,-8.52113242646214e-16,-4.62672707726248e-16,-0.000261081641872344,-1.91290463156316e-10,2.71677871186926e-16,4.20157651949244e-05,-1.44866064530412e-15,-5.13209879759097e-09,4.84560119889035e-09,1.23395584009322e-17,-3.37865239186569e-15,-3.50793486021909e-08,0.00033900540434447,-2.13376095201528e-08,1.16247256972184e-15,1.49909624600739e-15,-3.34906266795456e-15,-5.98311751070057e-16,-1.55759582419181e-08,-1.96851598333214e-16,1.11067237390175e-15,-1.100981458503e-16,1.90418943763095e-09,-1.03801098928943e-15,1.30112486658462e-15,1.70691581415929e-15,9.59894658706531e-16,2.76214008313853e-15,-4.70306050661659e-09,-6.16860511315226e-15,2.21408853681308e-13,0.0805822964025381
"t122",-0.0944442480879374,-0.0449604457124281,0.0100007375926163,0.00539632921877058,-0.0130923843400517,0.0498040164451845,-0.00777805386084526,-0.00356265222476336,-0.00183744886797753,-0.00877046728691301,0.246455967558072,-0.343794053317306,3.78016084455896e-05,-0.0594941346285154,3.05897622752489e-05,0.0397881262504873,-0.000580215874753748,0.000653099999261723,-0.000351648288094932,0.0464956602024668,0.000761055214571424,-0.0113697396147808,6.45601323151433e-05,-0.0123433617621452,0.00287571492184982,-0.00319976098263165,0.00763295077120456,-0.00898821236523898,0.000335897270680124,-0.00038417659416753,0.000676426624482812,-9.69712745886676e-06,0.0014913917068901,-6.11974267867091e-08,-7.37775008720389e-05,-0.00670077451093762,-5.97077325279355e-06,-8.82136602005641e-06,0.00446559389016155,2.49424066237874e-05,-0.000129137274367537,-2.28525421395425e-06,0.00323176961152587,-0.00201548905479389,-0.00181353360545859,0.00436257110301056,0.00546509205951398,-0.000164692308107679,1.58025862218498e-05,0.00263900481110536,0.00520261663988803,-0.0253114466038542,0.00106029476351027,-0.00226392951999808,-1.09808510463987e-05,-0.000210282997630248,-0.00137264169086309,-0.000249218299951478,0.00704983336769904,1.22132549330176e-05,-0.000353727201306479,0.00165688143908865,8.21141422074481e-06,7.91482943854224e-05,-1.82014318038659e-06,9.53162061123082e-05,0.000451048604929627,-0.000369341064032858,-0.00334173496810596,3.00514499689333e-06,0.000133170283681333,-7.65237364424358e-06,-8.83861549708696e-16,1.84552965485683e-16,-1.55808886117349e-15,3.67739239025447e-15,-1.1147651918865e-06,0.214364283313572,-2.43029630745914e-07,6.55912889489636e-09,1.26292555872217e-08,6.43150832179579e-06,-0.00118624177154709,-9.94820071744374e-07,-6.06851867969241e-05,-5.57138637273749e-08,-2.23577914098217e-05,0.000121287138990465,7.1301872956141e-09,2.02955106691096e-09,-3.71284676806248e-07,8.83967619792785e-06,-0.000521710874224892,-1.40330953044693e-05,-1.16856462083994e-14,-0.496119266899474,-2.17809707284217e-15,-3.94544642276121e-05,1.30789987669032e-13,-1.37570190403251e-15,-1.78483480960959e-07,-1.36460833660461e-06,-0.000574346291173908,-1.70095410489886e-07,-5.64220205276102e-06,-7.54608383234518e-11,2.92687689256682e-08,-4.143224610096e-06,0.000439442226618796,-1.36234642603353e-09,-8.66009293398398e-16,-6.28873388521533e-10,5.09633870139814e-09,1.10615552179679e-15,-3.95835245040535e-15,-7.87240255210487e-09,-3.15395115616141e-08,-0.000787136513443135,-2.07906663345979e-15,-1.72047604562706e-09,-2.00439064647749e-10,1.76811282090407e-05,3.05339425020437e-15,-1.60484811937182e-15,-6.87953032417502e-05,-5.05133666348553e-11,-1.99326473838626e-15,1.17958900526722e-05,-4.15448376020964e-16,-1.48915069747958e-09,1.43813296852723e-09,1.86524089364099e-14,0.707106781186545,-1.0878120730661e-08,0.000106687808588809,-6.93216523525242e-09,3.64242797069132e-15,-4.64866660034666e-15,-1.954980863072e-14,-5.15621913324141e-15,-5.30499363623564e-09,4.7469677536482e-15,2.1871851020178e-14,-2.48702822839538e-15,6.83513613153382e-10,3.29365149752916e-15,-1.06605746161758e-16,7.36008947182654e-15,2.35793298126292e-15,2.96744841902403e-15,-1.74676918284837e-09,-6.07264276885065e-15,2.17699356966342e-13,0.0805822964025391
"t123",-0.0944442480879373,-0.0449604457124281,0.0100007375926163,0.00539632921877057,-0.0130923843400517,0.0498040164451845,-0.00777805386084519,-0.00356265222476334,-0.00183744886797757,-0.00877046728691303,0.246455967558072,-0.343794053317305,3.78016084455719e-05,-0.0594941346285155,3.05897622750917e-05,0.0397881262504873,-0.000580215874753589,0.000653099999261719,-0.000351648288094987,0.0464956602024665,0.000761055214571349,-0.0113697396147804,6.45601323147672e-05,-0.0123433617621453,0.00287571492184953,-0.00319976098263091,0.0076329507712051,-0.00898821236523864,0.000335897270680372,-0.000384176594167284,0.00067642662448239,-9.69712745905728e-06,0.00149139170689019,-6.11974264445349e-08,-7.37775008714178e-05,-0.00670077451093927,-5.97077325316026e-06,-8.82136602232889e-06,0.00446559389016114,2.49424066244394e-05,-0.000129137274365744,-2.28525421399055e-06,0.00323176961152313,-0.00201548905479466,-0.00181353360545865,0.004362571103012,0.00546509205951386,-0.000164692308108986,1.58025862217963e-05,0.00263900481110563,0.00520261663988869,-0.0253114466038532,0.00106029476351039,-0.00226392951999826,-1.09808510459314e-05,-0.00021028299763032,-0.00137264169086144,-0.000249218299952568,0.00704983336769942,1.22132549354614e-05,-0.000353727201306038,0.00165688143908915,8.21141422033428e-06,7.91482943855327e-05,-1.82014318041978e-06,9.53162061097148e-05,0.000451048604932636,-0.000369341064032744,-0.00334173496810618,3.00514499651863e-06,0.000133170283685303,-7.65237364395993e-06,-3.39578657147096e-15,-1.62382302410943e-15,-4.60347849877279e-15,5.91251056221945e-15,-1.11476519300506e-06,0.214364283313576,-2.43029629300533e-07,6.55912539514251e-09,1.26292545838406e-08,6.43150832021724e-06,-0.00118624177154958,-9.94820071877602e-07,-6.06851867945647e-05,-5.57138609086629e-08,-2.23577914098942e-05,0.000121287139000851,7.13019408684835e-09,2.02955022948662e-09,-3.71284673802367e-07,8.83967619576581e-06,-0.000521710874226201,-1.40330953109057e-05,-1.02450427579872e-14,-0.496119266899468,-1.6230949231504e-15,-3.94544642329246e-05,1.30187479832408e-13,-3.31510546292396e-15,-1.78483486723722e-07,-1.36460834162965e-06,-0.000574346291173673,-1.700954128116e-07,-5.6422020624752e-06,-7.54650719556507e-11,2.9268773466317e-08,-4.14322460485714e-06,0.000439442226631862,-1.36234796685931e-09,5.04421315499873e-16,-6.28869762365466e-10,5.09633788554988e-09,1.6364368875288e-15,6.10665961331263e-15,-7.87239208634455e-09,-3.15395078878164e-08,-0.000787136513441984,3.17816659050701e-16,-1.72046836042182e-09,-2.00429573492583e-10,1.76811282073059e-05,-3.58791813220472e-15,2.47166594127682e-15,-6.87953032075962e-05,-5.04947334311093e-11,2.55640411525702e-16,1.17958900549296e-05,3.61232661089893e-15,-1.48911659722214e-09,1.43807344156918e-09,-1.15423439425454e-14,-0.70710678118655,-1.08739242419155e-08,0.000106687808499972,-6.93212211537189e-09,-5.35705475458e-15,2.71036729001253e-15,2.27382367220524e-14,6.52527739849393e-15,-5.30499089966786e-09,-1.01012626250296e-15,-3.93708265757072e-14,5.04539692833154e-15,6.83509001503812e-10,-1.1278025700676e-14,3.34908176734798e-16,-1.91826742920883e-15,-8.12008809066639e-16,1.24441389443231e-15,-1.74676756657176e-09,-8.60493764989909e-15,2.2243687250142e-13,0.0805822964025268
"t117",-0.0944311049272099,-0.0449506959592603,0.00999367144250161,0.00539126501728708,-0.013078070628353,0.0497477052355178,-0.00776812359009476,-0.00355707703430264,-0.00183424706551872,-0.00875407847181135,0.245991450456679,-0.343060554743469,3.77144718772893e-05,-0.0593400071642256,3.05025150852999e-05,0.0396509894956426,-0.000578186473059898,0.000650688472212368,-0.000350310701528327,0.046294173971992,0.000757635784737032,-0.0113045086195126,6.41601762288831e-05,-0.0122645064909345,0.00285678631087211,-0.00317819021083819,0.00757822011926592,-0.00891918092926085,0.000333185269837101,-0.000380998000442984,0.000670682889113355,-9.60672383622009e-06,0.00147594612635067,-6.05046777736075e-08,-7.29285267573807e-05,-0.00661998303121194,-5.88449003753763e-06,-8.6877872984063e-06,0.00439230208019003,2.45286333878565e-05,-0.000126985332598765,-2.24539205204142e-06,0.00316833497459863,-0.00197434933913216,-0.00177554488403106,0.00426773766493867,0.00534238761256184,-0.000160827508400671,1.54234338795483e-05,0.00257256357796588,0.005062366548219,-0.0246206226154877,0.00103082959806054,-0.00220069259731735,-1.06643912443834e-05,-0.000203820647264662,-0.00132762865780263,-0.000240968525645485,0.00681367144357906,1.17908550609893e-05,-0.000341230140349883,0.00159481293588072,7.88860485033821e-06,7.59978103943981e-05,-1.74524360964192e-06,9.1371719021783e-05,0.000431680808092588,-0.000353199102940751,-0.00319530844360599,2.86941275646699e-06,0.000126380401601304,-7.2621445487026e-06,2.61831808307823e-15,-3.05112369543844e-15,-2.16654937225752e-15,1.62986735190062e-15,-1.03974300035431e-06,0.19791427670402,-2.22780450334912e-07,5.99306506241253e-09,1.1447053538744e-08,5.8264662769141e-06,-0.00106604158400505,-8.83788547554715e-07,-5.24000479188883e-05,-4.71108750089297e-08,-1.85027481567016e-05,9.82251801761357e-05,5.01035390595671e-09,1.23336215558575e-09,-2.10461990823997e-07,4.6140185825568e-06,-0.000137860550817264,-3.67558630786122e-06,1.17400059793351e-14,0.503744582096718,1.4648576031985e-15,-5.53716683054978e-05,1.77095860324519e-13,-5.22015977003844e-17,-2.26742291689884e-07,-1.72110720907246e-06,-0.00069516354485035,-2.04155683121929e-07,-6.74457306777993e-06,-8.82456730044456e-11,3.38244380552591e-08,-4.76176821408505e-06,0.000504547007550037,-1.5619323266448e-09,9.32139518548557e-16,-7.13722996217114e-10,5.75415586331837e-09,3.52495428957112e-15,1.54228125016646e-15,-8.71651269436679e-09,-3.47758558852928e-08,-0.000859446792450912,-8.16184017673822e-16,-1.87272825629525e-09,-2.17950334165357e-10,1.91896152661598e-05,4.14989664272043e-15,1.11307520820993e-15,-7.40772763090798e-05,-5.43770675930615e-11,-4.76916551691821e-16,1.26073436885918e-05,7.94356074540781e-15,-1.585923836212e-09,1.52804554774048e-09,0.707106781186544,-1.29953166982223e-14,-1.15052555049024e-08,0.000112700095616083,-7.3014759498757e-09,7.11668383156722e-15,1.57474312269269e-15,-2.00586521918857e-14,4.66002587324644e-15,-5.56481748020762e-09,-3.10682281738363e-15,2.33703592929505e-14,1.8657272176151e-15,7.13957716056096e-10,3.94610632695757e-15,-5.95597373480536e-15,1.09423702719408e-15,1.08662797037259e-15,-2.90940745200423e-16,-1.81988021380443e-09,-4.4364182610165e-15,2.19313135964578e-13,0.0805822964025429
"t118",-0.0944311049272099,-0.0449506959592603,0.00999367144250168,0.00539126501728706,-0.0130780706283531,0.0497477052355179,-0.00776812359009471,-0.00355707703430258,-0.00183424706551868,-0.00875407847181126,0.245991450456679,-0.343060554743469,3.77144718773347e-05,-0.0593400071642256,3.05025150853649e-05,0.0396509894956424,-0.000578186473059876,0.000650688472212403,-0.000350310701528668,0.0462941739719916,0.00075763578473675,-0.0113045086195128,6.41601762285922e-05,-0.0122645064909345,0.00285678631087183,-0.00317819021083776,0.00757822011926626,-0.0089191809292607,0.000333185269836743,-0.000380998000442403,0.000670682889112987,-9.60672383597041e-06,0.00147594612635027,-6.05046774800055e-08,-7.29285267582237e-05,-0.00661998303121313,-5.88449003773962e-06,-8.68778730050197e-06,0.00439230208019137,2.45286333881647e-05,-0.000126985332598626,-2.24539205208627e-06,0.00316833497459885,-0.00197434933913327,-0.00177554488403237,0.00426773766494048,0.00534238761256156,-0.000160827508401401,1.5423433878541e-05,0.00257256357796748,0.00506236654821947,-0.0246206226154907,0.00103082959806043,-0.00220069259731918,-1.06643912437439e-05,-0.000203820647264665,-0.00132762865780133,-0.000240968525648013,0.00681367144357495,1.17908550595134e-05,-0.000341230140351788,0.00159481293587925,7.88860485076288e-06,7.59978103942638e-05,-1.74524360962691e-06,9.13717190212855e-05,0.000431680808099649,-0.00035319910293773,-0.00319530844360692,2.86941275135302e-06,0.00012638040159951,-7.26214454859784e-06,1.17621656536605e-15,-1.47698677625296e-15,-1.61072771916024e-15,2.80026753013402e-15,-1.0397429998123e-06,0.197914276704021,-2.22780449604928e-07,5.99306392252383e-09,1.14470527398349e-08,5.82646627787214e-06,-0.00106604158400554,-8.83788549342776e-07,-5.24000479163162e-05,-4.7110875128837e-08,-1.85027481560705e-05,9.82251801878746e-05,5.01034956543357e-09,1.23336052894442e-09,-2.10461993039846e-07,4.6140185814869e-06,-0.000137860550818398,-3.67558630715335e-06,1.16364631643085e-14,0.503744582096708,4.0950659898571e-16,-5.53716683068745e-05,1.75405337166214e-13,2.77698277887254e-15,-2.26742293348247e-07,-1.72110720579714e-06,-0.000695163544854376,-2.04155688389725e-07,-6.7445730743085e-06,-8.82402280181883e-11,3.38244453325511e-08,-4.76176822213764e-06,0.000504547007555021,-1.56193701881769e-09,2.59996927798314e-16,-7.13712091851541e-10,5.75415371579741e-09,-5.64307024505469e-15,-4.23092310110411e-15,-8.71650149250217e-09,-3.47758616156321e-08,-0.000859446792450487,1.48304381609376e-15,-1.87274075049159e-09,-2.17943123021847e-10,1.91896152990623e-05,-3.81973488501852e-15,-4.84825941324058e-15,-7.40772763130229e-05,-5.43672118728584e-11,1.0930672687548e-15,1.26073436717457e-05,-9.47471839746378e-15,-1.58580575260084e-09,1.52779583301592e-09,-0.707106781186551,1.72582607231547e-14,-1.150524028047e-08,0.000112700095641541,-7.30144238349722e-09,-5.92024988742837e-15,-5.39973996746575e-16,1.57895439644455e-14,-3.62151152892145e-15,-5.56481713257439e-09,5.90062934795189e-15,-1.87209711281508e-14,2.48024083049422e-16,7.13963155313712e-10,-6.00426753124583e-15,3.44540127276784e-15,3.72354397199186e-15,2.18019666026852e-15,4.62410829129974e-15,-1.81988042768163e-09,-7.6807612740455e-15,2.2111770279122e-13,0.0805822964025432
