"","c1","c2","c3","c4","c5","c6","c7","c8","c9","c10","c11","c12","c13","c14","c15","c16","c17","c18","c19","c20","c21","c22","c23","c24","c25","c26","c27","c28","c29","c30","c31","c32","c33","c34","c35","c36","c37","c38","c39","c40","c41","c42","c43","c44","c45","c46","c47","c48","c49","c50","c51","c52","c53","c54","c55","c56","c57","c58","c59","c60","c61","c62","c63","c64","c65","c66","c67","c68","c69","c70","c71","c72","c73","c74","c75","c76","c77","c78","c79","c80","c81","c82","c83","c84","c85","c86","c87","c88","c89","c90","c91","c92","c93","c94","c95","c96","c97","c98","c99"
"Galium_labradoricum",0.106411044714042,-0.0858255582015203,-0.0064766109140716,-0.11474046077019,-0.010917061369733,0.00294862626592169,-0.0394272879887764,-6.64695068095051e-05,0.000696092343949581,0.000586942901426153,-4.81932188963842e-06,-0.00943991764263761,-3.86250874122946e-06,-1.74296139884602e-05,0.000329640002475324,3.4312665621874e-05,-1.16065347318209e-07,0.00285327502921423,-0.000114923374790678,0.00042733751407946,-1.71551115979819e-05,-0.111853292073053,-1.93503915686814e-05,1.88962574480919e-16,6.45553176765652e-06,0.00170723981497024,3.47317275425215e-16,8.50295021449569e-06,-3.89772901552658e-06,5.2999555138069e-06,4.30140671995201e-06,-0.120126983203846,3.37097413637769e-15,0.00391115636871956,1.60973716848624e-15,-1.60788956908414e-15,4.94761692272524e-15,-7.95979850287302e-16,0.0580989868669117,3.25645269483342e-15,-3.65617924183477e-15,-0.00050451730937946,0.000168811348684162,0.254905156200161,-1.70641811840197e-14,3.30844344011539e-15,-8.16875747261884e-15,7.81792427762375e-15,-1.52451253988601e-05,4.18180046739424e-15,-0.0981900321751885,-3.44471417134106e-07,-0.143853943155326,-0.174134344360659,0.0775493505301699,-0.0152127651849465,0.719539826831823,0.525373303100898,1.35475573369019e-07,-0.00908401028598425,0.0136947859796399,-8.69729360956278e-08,1.86671125029587e-06,-0.00281396628760824,-2.02375456660778e-06,-2.5155860316145e-16,-7.66759809966728e-16,0,4.53091020742778e-15,-1.89987470288555e-16,1.18150566771559e-15,1.04374207515565e-06,1.56652572928289e-06,-0.00857211454397021,-5.28243918781184e-16,6.03054976140968e-16,2.65576751542893e-15,-0.000108605334651063,2.70102637119599e-15,0.000893110807469065,-1.89682341018121e-05,1.11679815578976e-07,2.5999610436202e-17,-1.32296934224268e-15,-2.45664597218462e-16,-1.2674482938773e-15,1.04581124296616e-15,1.04860122803917e-15,-1.55001135364045e-15,-8.69746072212336e-16,2.23603415084946e-16,-2.0672666907333e-15,-2.47045533982869e-15,1.41735452331025e-15,3.68731387812957e-15,-1.57715392747493e-15,7.96495109998817e-16,-9.66876203371629e-15,-2.22532811167073e-15
"Galium_ciliare",0.106411044714042,-0.085825558201521,-0.00647661091407143,-0.11474046077019,-0.0109170613697332,0.00294862626592098,-0.0394272879887769,-6.64695068096511e-05,0.000696092343951673,0.00058694290142635,-4.8193218887526e-06,-0.00943991764263943,-3.86250874218405e-06,-1.7429613988033e-05,0.000329640002476031,3.43126656233202e-05,-1.16065346640856e-07,0.00285327502921251,-0.000114923374790719,0.000427337514079855,-1.71551115965008e-05,-0.111853292073057,-1.93503915715073e-05,2.04935860029417e-16,6.45553176737279e-06,0.0017072398149696,-2.08204227731667e-16,8.50295021622296e-06,-3.89772901980272e-06,5.29995552017806e-06,4.30140671583247e-06,-0.120126983203845,3.82780237705365e-15,0.00391115636872069,-6.31858965918012e-15,8.94629589893884e-16,-2.45850166609255e-15,2.335009070607e-15,0.0580989868669163,-6.52640968434709e-15,-4.33396755756905e-15,-0.000504517309362307,0.000168811348684492,0.254905156200137,-1.44163660012613e-14,-1.38353376525792e-14,-1.46478524366347e-14,1.75083764014426e-15,-1.52451254065588e-05,7.59584869915623e-16,-0.0981900321754298,-3.44471501816721e-07,-0.143853943155629,-0.17413434436993,-0.846413110164934,-0.0126794032847827,-0.267156223894476,0.109779923961075,1.35474747185479e-07,-0.00908401028606991,0.0136947859796886,-8.69730485156416e-08,1.86671123136916e-06,-0.00281396628768788,-2.02375458117436e-06,-6.52923314647505e-15,-7.23906045149219e-16,6.8188193008829e-15,-1.0123839916528e-14,8.41310826377102e-16,-6.94485776941801e-15,1.04374207237524e-06,1.56652569362497e-06,-0.00857211454394496,-1.2924268815381e-15,5.9132581064777e-16,2.76055940244873e-14,-0.000108605334650008,-5.10425511443752e-15,0.000893110807464614,-1.8968234079114e-05,1.11679806655455e-07,-6.3645351792901e-16,1.66050613931811e-14,-7.37320637738086e-16,-1.70227865689477e-15,-1.6471148910212e-15,5.88878439716894e-16,-4.0136555117204e-15,-4.59200844601221e-15,-9.61264267491929e-15,-5.1597972501547e-15,3.67377526115457e-15,-3.58652730232528e-15,3.25899748583535e-15,7.43846559937774e-15,8.66641613694558e-16,-1.31328017171485e-14,1.34623931876475e-14
"Galium_tenuissimum",0.106411044714041,-0.0858255582015206,-0.00647661091407165,-0.114740460770191,-0.0109170613697332,0.00294862626592175,-0.0394272879887758,-6.64695068094454e-05,0.000696092343950311,0.000586942901424637,-4.81932188883254e-06,-0.00943991764263661,-3.86250874078951e-06,-1.74296139890217e-05,0.000329640002475317,3.43126656213268e-05,-1.16065348961526e-07,0.00285327502921814,-0.000114923374791119,0.000427337514079722,-1.71551115986166e-05,-0.111853292073054,-1.9350391570004e-05,2.02001495453401e-16,6.45553176825433e-06,0.0017072398149712,-6.6764298219382e-16,8.50295022318973e-06,-3.89772902447863e-06,5.29995551316834e-06,4.30140671004764e-06,-0.120126983203838,4.11305435971388e-15,0.00391115636871794,-6.43040966037401e-15,-2.88452623996219e-15,5.64598025732568e-15,-1.08619667462425e-15,0.0580989868669224,-4.36458153806463e-15,-3.13999407584557e-15,-0.000504517309369543,0.000168811348692447,0.254905156200201,-1.51777930733524e-14,3.84996176457415e-15,-1.56392888401432e-14,9.65418747941134e-15,-1.52451253841571e-05,5.39908195790724e-15,-0.098190032175132,-3.44471469191401e-07,-0.143853943155768,-0.174134344359492,0.370175062855137,-0.723905014230119,-0.369413309712832,0.0496564177172087,1.35475322039588e-07,-0.00908401028600336,0.013694785979592,-8.69729678813599e-08,1.86671124311443e-06,-0.00281396628757627,-2.02375456854134e-06,-4.05344656217262e-15,-3.58901956119295e-15,3.66529373462424e-15,-1.61512271960992e-15,8.56534972105285e-15,-4.91963817640683e-16,1.04374207238262e-06,1.56652573375048e-06,-0.0085721145439855,2.31977362210689e-15,-2.36982243400071e-15,-2.63621678329567e-15,-0.000108605334646736,-5.75083475938682e-16,0.000893110807485115,-1.89682341027814e-05,1.11679830006197e-07,-3.67235760079565e-16,-8.1470279060292e-16,1.25765375457639e-15,3.44877036715949e-15,1.48955958528755e-15,1.9048584132949e-16,-2.29036350321107e-15,-6.55859551066308e-16,5.71753507134977e-15,1.80810433961686e-15,-6.68146463795276e-15,-5.56513749296814e-16,4.50769222142455e-15,9.23364196055183e-16,8.0462911143338e-16,-1.13187277511462e-14,-1.20886206547666e-14
"Galium_sterneri",0.106411044714041,-0.0858255582015195,-0.0064766109140715,-0.114740460770191,-0.0109170613697334,0.00294862626592159,-0.0394272879887777,-6.64695068097145e-05,0.000696092343949738,0.000586942901425786,-4.81932189004167e-06,-0.00943991764263706,-3.86250874073584e-06,-1.74296139891027e-05,0.000329640002474081,3.4312665622436e-05,-1.16065347160643e-07,0.00285327502921526,-0.000114923374790687,0.00042733751407982,-1.7155111597266e-05,-0.111853292073056,-1.93503915679425e-05,1.21136557270384e-15,6.45553176763422e-06,0.00170723981497054,-2.28747106621754e-17,8.5029502179176e-06,-3.89772900858188e-06,5.29995551471247e-06,4.30140671955134e-06,-0.120126983203845,2.78220758820968e-15,0.00391115636872306,1.0881787117731e-15,-2.73614347370243e-15,6.66839925692626e-15,1.21392105257528e-15,0.0580989868669141,6.76038222542955e-16,-1.39780301405004e-15,-0.000504517309375123,0.000168811348691124,0.254905156200227,-1.5584190028843e-14,5.22991943571334e-15,-5.65763066734312e-15,-1.9262953049096e-16,-1.52451254004844e-05,7.82322093670799e-15,-0.0981900321751359,-3.44471442486291e-07,-0.14385394315518,-0.174134344360148,0.374079905079313,0.686518803926752,-0.409576005955527,0.144926366880168,1.35475332643103e-07,-0.00908401028605901,0.0136947859795983,-8.69729671007619e-08,1.86671125474132e-06,-0.00281396628760554,-2.0237545611866e-06,2.9342491640702e-15,1.42393566112763e-15,-2.29783411418112e-15,1.96421090953338e-15,1.40178863239682e-15,-1.19808745560719e-15,1.04374208522817e-06,1.56652572656415e-06,-0.00857211454397218,-1.11215966354038e-15,-2.28884106706876e-16,5.12859224040437e-15,-0.000108605334660346,-1.97671097601295e-15,0.000893110807474329,-1.89682341046022e-05,1.11679832126638e-07,-3.35978896169045e-15,-2.66064871282288e-15,6.93837882354018e-16,1.59457851316091e-15,7.97737029935248e-16,1.11525181868998e-15,3.78174415551028e-15,2.73395925073494e-16,1.12733981223558e-15,8.01087723772223e-17,-3.03797300580016e-15,-3.96002850563517e-16,3.24689311665737e-15,-6.27039639185258e-15,9.92291227295618e-16,-8.41284350454277e-15,-5.9579037307446e-15
"Galium_nuttallii",0.106411044714041,-0.0858255582015204,-0.0064766109140719,-0.11474046077019,-0.0109170613697331,0.00294862626592158,-0.0394272879887764,-6.64695068090667e-05,0.000696092343949915,0.000586942901425703,-4.81932188960585e-06,-0.00943991764263665,-3.86250874075058e-06,-1.74296139884969e-05,0.000329640002474606,3.43126656221182e-05,-1.16065347806371e-07,0.00285327502921216,-0.000114923374790237,0.000427337514080222,-1.71551115985523e-05,-0.111853292073054,-1.93503915684718e-05,-3.0644764572646e-16,6.4555317665778e-06,0.00170723981497041,1.19839668154801e-15,8.50295021674049e-06,-3.89772901639386e-06,5.29995551403912e-06,4.30140671917565e-06,-0.120126983203841,2.41370666109975e-15,0.00391115636872279,-2.08652845952532e-15,-5.63634716785817e-16,6.33236585764303e-15,1.64669463625236e-15,0.0580989868669073,5.96720305128047e-15,-3.75795709592616e-15,-0.00050451730937406,0.000168811348685486,0.254905156200148,-1.43532364237064e-14,2.07503651637851e-15,-9.23736300007389e-15,1.7114940637722e-15,-1.52451253992356e-05,-7.26041682296499e-15,-0.0981900321751422,-3.44471416121627e-07,-0.143853943155178,-0.174134344360294,0.0246087917078448,0.0652783787730787,0.326605712732959,-0.829736011660553,1.35475586274076e-07,-0.00908401028592876,0.0136947859796099,-8.69729657421245e-08,1.86671127408654e-06,-0.00281396628760019,-2.02375456072288e-06,7.3126853820027e-16,3.87414584455889e-16,-1.021119581225e-15,-4.45408438823015e-15,9.06700100226528e-15,-3.36903385924948e-15,1.04374207186915e-06,1.56652572254178e-06,-0.0085721145439777,-2.66106091940803e-16,-3.48367560459763e-17,-1.28498610003615e-14,-0.00010860533463941,9.81458523883819e-16,0.000893110807467158,-1.89682341018361e-05,1.11679817532874e-07,2.12239462483394e-15,-1.98017070225221e-15,-1.3359533489677e-15,1.70572767900324e-15,1.39466300312507e-15,1.02312055665052e-15,4.65219966073618e-16,-9.47700541082389e-17,1.72782806773021e-15,-7.06643805999825e-16,-7.11164003961029e-16,2.79496471632598e-15,2.31774435832875e-15,-4.44458382966739e-15,-6.44212869485741e-17,-1.01935937627409e-14,4.93994825813285e-15
"Galium_porrigens",0.106504117894991,-0.0859686193974826,-0.00649521395208777,-0.115502664289976,-0.010994533208156,0.00297585366462371,-0.0399970363629351,-6.76838627131197e-05,0.000711643467528135,0.000600558444631007,-4.95839883231873e-06,-0.00974342333083379,-3.99168405889297e-06,-1.80902880624455e-05,0.000348796710878668,3.63667540772737e-05,-1.2389820726058e-07,0.00305788108032831,-0.000123711613786469,0.000465516675101981,-1.88133687310818e-05,-0.12312359979543,-2.16973149665654e-05,-1.37106447210252e-15,7.3516904679055e-06,0.00199781449236086,9.52022576856132e-16,1.08973786944766e-05,-5.12191710117955e-06,7.31815490435846e-06,6.03784537077332e-06,-0.174840165165578,4.17876709856235e-15,0.00724559012805157,-5.5092765584526e-17,1.76197124822034e-15,2.78161315670195e-15,-5.85790259838571e-16,-0.0453118596104358,1.82531465269109e-15,-2.06733362227488e-15,-0.000133625856553679,4.5648120468511e-05,0.0758140658677202,-5.11171813261176e-15,-3.67093643721597e-16,-4.18913633778429e-15,2.39911661566923e-15,-6.13774726490034e-06,-4.58250269011202e-15,-0.068156530999871,-2.42862877351508e-07,-0.164727986046309,0.751749321003338,-6.31786289950753e-12,3.15861052591071e-13,-1.38514893999186e-12,8.23729973120635e-13,8.31861488738137e-08,-0.552656655372049,0.00852331554359853,-5.69120044810883e-08,1.30023204521063e-06,-0.00210799826278914,-1.56529207375279e-06,4.87047715504841e-16,-1.6598434348844e-15,1.64530959460793e-15,-3.8958165666846e-15,9.66907074201081e-16,1.43649000266746e-15,8.33440135873289e-07,1.25315859243261e-06,-0.00689713885293576,-5.10364754589474e-16,2.48639756795702e-16,9.3904319840499e-15,-8.90156649451614e-05,1.05757208788492e-15,0.000735989333552342,-1.56551735461037e-05,9.2232060545129e-08,4.53430527396289e-16,5.38660805431839e-16,2.39486675391322e-15,1.02071252678237e-15,1.77033581522354e-15,5.08145474308928e-16,7.24109991108937e-17,3.13088263659723e-15,-5.23276873557594e-16,-2.40927114609794e-15,-1.84114620292972e-15,2.35005152867258e-15,2.06148126080759e-15,-5.74379613746877e-15,4.4669779075661e-16,-8.33169695772713e-15,-7.09267593868688e-15
"Galium_palustre",0.106741750870968,-0.086333917114245,-0.00654272274006915,-0.117450091557023,-0.0111924843179998,0.00304544120036836,-0.0414540850175639,-7.07907561744025e-05,0.000751448643543523,0.000635412531614842,-5.31463628612963e-06,-0.0105211052654001,-4.32271844093179e-06,-1.9784155049377e-05,0.000398006822827767,4.16441700639383e-05,-1.44036134373877e-07,0.00358410427654376,-0.000146322965791654,0.000563849672163997,-2.30867091887755e-05,-0.152176105615277,-2.77559173292653e-05,5.42904065627799e-16,9.66774624594655e-06,0.00275015197048894,-3.27036712690049e-16,1.71275415550965e-05,-8.31072646638102e-06,1.25855474375717e-05,1.05725276600159e-05,-0.317894785524724,1.08692188424611e-14,0.0160135650066093,-3.05369911684174e-15,2.55364746373811e-15,-1.77738671060014e-14,4.00634788951352e-15,-0.322620299664963,-4.6094247851363e-15,2.74311374641629e-15,0.000881768477703863,-0.000291663841788093,-0.415635737843988,2.54644574823868e-14,1.02921383573277e-15,1.69372333378392e-14,-8.56742906707691e-15,1.9128467081574e-05,-2.5518535159717e-15,0.0355961603263429,1.19347876471667e-07,0.0475869559601875,-0.1988065835399,1.71276881566484e-12,-9.40773067087397e-14,3.73666375619308e-13,-2.35927596903274e-13,-1.55809926950201e-08,-0.104673880480882,-0.000216888534198182,-8.25571816359313e-10,1.1826628188463e-07,-0.000491509551311431,-4.86846297823125e-07,-3.0249647815352e-15,-5.72539042414177e-16,2.42813651367648e-15,-1.42497005440179e-14,4.1843816717336e-15,3.72441362579205e-15,3.2852067517443e-07,5.00030257255462e-07,-0.00285906316545454,-2.42679205323241e-14,-5.35399496528921e-15,0.70710678118655,-4.13611458014772e-05,-1.31693237268035e-14,0.000352855410320713,-7.57110514506451e-06,4.47655091439512e-08,-3.24450543954738e-14,-7.83826570927823e-14,-1.29465533399403e-14,2.64231130236307e-15,-5.52529261388479e-15,4.61141355437291e-15,3.86910282953189e-15,-3.46317227692754e-15,4.20543835062735e-15,-5.49036822410149e-15,-1.05778273655408e-14,-3.53344050736974e-15,7.77783129313361e-15,1.6527365839445e-14,-2.02287681402675e-15,-1.03957291297242e-14,-1.2596299823535e-15
"Galium_trifidum",0.106741750870968,-0.086333917114245,-0.00654272274006899,-0.117450091557023,-0.0111924843179996,0.00304544120036863,-0.0414540850175631,-7.07907561743184e-05,0.000751448643543182,0.000635412531614694,-5.31463628496746e-06,-0.0105211052653991,-4.32271844059046e-06,-1.97841550492071e-05,0.00039800682282782,4.1644170063209e-05,-1.44036134890211e-07,0.00358410427654283,-0.00014632296579173,0.000563849672163878,-2.30867091895502e-05,-0.152176105615277,-2.7755917329421e-05,6.75971849015739e-16,9.66774624810924e-06,0.00275015197048915,2.68543867469103e-16,1.71275415546063e-05,-8.31072646584583e-06,1.2585547436179e-05,1.05725276592219e-05,-0.317894785524724,9.03799775950547e-15,0.0160135650066067,-8.77821930055054e-16,2.00983785649011e-15,-1.81376378506114e-14,1.2705473489044e-15,-0.32262029966496,-4.57946670348104e-16,1.19804730559103e-15,0.000881768477704145,-0.000291663841781689,-0.415635737843983,2.54968549612991e-14,-1.11223638259055e-15,1.70662783018426e-14,-1.26452776900496e-14,1.91284670783184e-05,-1.56149542555973e-15,0.0355961603263378,1.19347878129668e-07,0.0475869559601792,-0.198806583539906,1.68079439255564e-12,-8.79433244976857e-14,3.58359175667289e-13,-2.13634665513496e-13,-1.55810136382059e-08,-0.104673880480908,-0.000216888534202477,-8.25576595553531e-10,1.18266272389649e-07,-0.000491509551336279,-4.8684630057292e-07,-6.93982478020004e-16,-6.81622525246753e-15,-2.93860403282918e-15,1.84797001773344e-14,-3.86452287711598e-15,-3.09160699388525e-15,3.2852066652863e-07,5.00030191141889e-07,-0.00285906316527864,2.41875849062636e-14,4.74332844302881e-15,-0.707106781186546,-4.13611458913697e-05,1.45538333511791e-14,0.000352855410270541,-7.57110508090811e-06,4.47655006567215e-08,3.11102766662931e-14,7.16202457113463e-14,1.07848368734419e-14,-4.20697272478851e-15,7.97131143070954e-15,-4.41690227183778e-15,-5.86895604102694e-15,2.41108806507664e-15,-5.04682695039156e-15,-1.47959403093432e-15,6.53131347148907e-15,8.04863201799102e-15,2.10610203468426e-16,-1.5418432994214e-14,2.47555943246306e-15,-9.45690733547623e-15,-2.13532479385059e-15
"Galium_bifolium",0.106554232465936,-0.0860456701207707,-0.00650523730958914,-0.11591384942379,-0.0110363329941064,0.00299055423864065,-0.0403051576934335,-6.83413545152832e-05,0.000720073559706969,0.000607941134187927,-5.03393265842579e-06,-0.00990841173509022,-4.06192996700757e-06,-1.84499999505114e-05,0.000359280281989113,3.74913285563811e-05,-1.28194133388424e-07,0.00317020358051364,-0.000128541128069076,0.000486554386310158,-1.97284425153911e-05,-0.129347803541682,-2.29982907758078e-05,5.80005342739828e-16,7.84991087716935e-06,0.00216011711744313,1.87874806216041e-16,1.22516641228703e-05,-5.81625396320826e-06,8.46846450980827e-06,7.02901299644327e-06,-0.206164138812986,8.02352153267415e-15,0.00918140392114006,-6.97391607276181e-16,-2.30550557383401e-15,-5.09783254656201e-15,-9.28155626951999e-16,-0.108188683034495,8.32767503693139e-16,1.76431795819235e-15,0.000102469693047535,-3.28160629623902e-05,-0.0387616451167739,-1.77319926003272e-16,8.3066060348871e-16,-6.00609550941666e-16,7.23784023457987e-16,-1.76022701171653e-07,-3.63461633390673e-15,-0.0399721012754581,-1.43405890513288e-07,-0.0985323380006263,0.446946962582674,-3.79649089943257e-12,2.2610494206099e-13,-9.17793618882001e-13,5.68586844273966e-13,4.70464729309889e-08,0.819864089905489,0.00904923756689416,-5.54287397772297e-08,1.17170658433016e-06,-0.00184379342039965,-1.37456440354541e-06,6.44788258768851e-15,2.93995217920395e-15,8.6076156642528e-16,1.82264929175647e-15,-1.44402914657816e-15,2.93475355907338e-15,7.39378924956017e-07,1.11252171444124e-06,-0.00613753371537606,-2.17556387847727e-15,3.36578786593728e-17,-1.5019254720487e-14,-7.9865656964969e-05,-5.80266620490128e-17,0.000662036468843111,-1.40925369369194e-05,8.30514461018037e-08,9.18517467041346e-16,3.76372974242312e-15,1.6708458961553e-15,-2.41359648298403e-16,-2.62548502902117e-15,6.96189969334766e-16,-2.60399093346739e-15,1.17191829487736e-15,-3.83104562873497e-16,-2.51860609282981e-15,-4.70942712196787e-16,3.63791040057368e-16,3.184956357212e-15,-2.13191420259862e-15,3.02067801815216e-15,-8.76697767316017e-15,-1.82575094835237e-15
"Galium_album",0.108109452510391,-0.0884674384350261,-0.00682653097096727,-0.129962078097834,-0.0124757886254053,0.00351645930861561,-0.0524735133054347,-9.64251323844234e-05,0.00111416458746615,0.000960033733052308,-9.18649378036244e-06,-0.0198548993772375,-8.46278892966257e-06,-4.44909590521206e-05,0.00278603316846605,0.000357319373320476,-8.97176826536479e-05,-0.0575450530142793,0.00108786136296251,-0.00170508590296686,5.21318665579263e-05,0.300858100679584,3.37240375112712e-05,-6.16832103595609e-16,-8.8186217372941e-06,-0.00172970022447627,5.6908644049098e-16,-5.06783273219894e-06,2.1256530052082e-06,-2.51349385159309e-06,-1.96295032849973e-06,0.0508943339544481,-2.86211597669156e-15,-0.00123731992014135,-1.57968362024791e-15,1.28885548384119e-15,-4.39145261543416e-16,3.83898293259699e-16,-0.00973193448660254,1.22436819464234e-15,-1.34949479313392e-15,5.59124521897533e-05,-1.85925954737803e-05,-0.027190560562249,2.49252267439286e-15,-1.02865923196676e-16,2.33818354300312e-15,-7.04232386459673e-16,1.38236983597306e-06,-8.32185883322403e-16,0.00208280487305316,6.57671887575592e-09,0.00046184572932759,0.000184556362450849,-5.94108096052537e-14,9.58781665172381e-15,-9.73526814718184e-15,1.21664830987633e-14,8.09058878411997e-10,-0.000193179037917733,0.000414384525433316,-2.92235880433749e-09,7.32097298294022e-08,0.503369975968689,-4.53876392676688e-07,-5.91414625640177e-15,1.09690777389681e-14,-3.76094485658756e-15,-2.77909061421585e-14,1.93491676471201e-14,1.6297828769133e-14,5.96598522083448e-07,1.10731520020618e-06,-0.311855159066414,-1.30235010429496e-14,6.20762251141999e-15,-2.74616513255326e-14,-0.046675099041888,5.95114636136869e-15,0.0120454228892526,-2.86933590861406e-07,2.41780338104205e-09,-3.50549813368349e-15,2.35637329863258e-15,3.34726422358636e-16,1.27486002857162e-14,-4.66923489802611e-15,-1.70164198965122e-15,-3.96954390712834e-17,6.00442604210322e-15,3.22880410157577e-14,-1.99823788703787e-14,2.13020406553473e-13,-1.12502060555247e-13,-3.23040506615517e-13,-0.70710678118654,-1.41066521299358e-14,-3.43871045082302e-14,2.26510432226046e-14
"Galium_mexicanum",0.108109452510391,-0.0884674384350261,-0.00682653097096723,-0.129962078097834,-0.0124757886254052,0.00351645930861594,-0.0524735133054346,-9.64251323847138e-05,0.00111416458746669,0.000960033733051632,-9.18649377969706e-06,-0.0198548993772367,-8.46278892892671e-06,-4.44909590522437e-05,0.00278603316846567,0.000357319373321352,-8.97176826544194e-05,-0.0575450530142783,0.00108786136296279,-0.00170508590296657,5.21318665577799e-05,0.300858100679583,3.37240375112199e-05,-1.71324589747112e-15,-8.81862173722159e-06,-0.00172970022447733,9.35402428783892e-16,-5.06783273052708e-06,2.12565300420278e-06,-2.51349385275847e-06,-1.96295032984718e-06,0.0508943339544502,-1.75729473574287e-15,-0.00123731992013951,-1.37011817378548e-15,9.34881109401819e-17,-3.8766670978661e-16,3.82001555540874e-16,-0.00973193448660378,1.41863221730927e-15,-2.24914483180967e-15,5.59124521886575e-05,-1.85925954758668e-05,-0.0271905605622463,7.43547060878852e-16,5.81184983027028e-17,7.89442092765892e-16,-6.98811707999737e-16,1.38236983608528e-06,-2.2035752592519e-15,0.00208280487305782,6.57672036613344e-09,0.000461845729321841,0.000184556362457493,-4.73093786368395e-14,1.68528385691147e-14,-6.5294991635767e-15,8.05171901374635e-15,8.09055996092982e-10,-0.000193179037919656,0.000414384525433404,-2.92236136376867e-09,7.32097211891648e-08,0.503369975968675,-4.53876389097027e-07,-7.11797266231508e-15,8.8991031682806e-15,1.91902186902756e-15,-2.65478390001394e-14,2.31006088054681e-14,1.68384179737543e-14,5.96598518494604e-07,1.10731520244538e-06,-0.311855159066393,-8.33885519797585e-15,-1.02100492315568e-15,-5.93805632835059e-14,-0.0466750990419033,7.49272775587498e-15,0.0120454228892563,-2.86933588572366e-07,2.41779627610227e-09,4.41272560777058e-16,8.09026392670895e-15,-3.5103667799981e-16,-4.87508279808411e-15,-2.26050249305702e-15,-2.71318879253139e-15,-5.93894108502083e-15,-2.21178311258223e-15,-3.02043669147167e-14,1.71954056362481e-14,-2.18397217183173e-13,1.1619923329133e-13,3.25378055504354e-13,0.707106781186556,1.59189472126775e-14,1.1331745476491e-14,-2.07937831700959e-14
"Galium_aparine",0.107993460571442,-0.0882873603898517,-0.00680274881574315,-0.128936750337979,-0.0123709037236081,0.00347843846883369,-0.0516101276512074,-9.44590366666465e-05,0.0010869590225971,0.000935798213920458,-8.90602884072406e-06,-0.0191903250514275,-8.16997537612233e-06,-4.27828810262915e-05,0.00263632080970946,0.000337688086079046,-8.43364114674424e-05,-0.0539406223421147,0.00101657994061509,-0.0015809452521885,4.81366285782272e-05,0.27718305644122,3.07522237330286e-05,-3.0824227431115e-16,-7.97916892635595e-06,-0.00154629633566278,-2.44251387376074e-16,-4.39700441674417e-06,1.8328116016685e-06,-2.14439057000216e-06,-1.66953366193084e-06,0.0430205152808115,-4.96147733791794e-16,-0.00101811055549687,-1.88316865059352e-16,2.80171834446031e-16,-3.52381973543878e-15,2.13662404998527e-16,-0.00745432853701977,1.51359287791597e-15,3.47804943647145e-16,4.06493926613344e-05,-1.35064712085741e-05,-0.0196719862286355,4.30188645808134e-16,1.31522733011507e-15,1.65293688322013e-15,1.91764266309729e-16,9.79754461930908e-07,1.65283193245773e-17,0.00127675702350937,4.00414234539184e-09,0.000265014439529237,0.000104913811022542,1.83186799063151e-15,6.7389670233009e-15,-3.72618602639818e-15,5.64999436125646e-15,4.44750837162447e-10,-9.65516265156443e-05,0.000190688982286526,-1.28928186439329e-09,2.83160139136147e-08,0.090849321313231,4.05556664677296e-08,-3.91326685936587e-15,-1.88526645380004e-14,-1.12430823532722e-14,-2.93498453302872e-16,-2.76691322325357e-15,-1.48671892167316e-14,-5.78927890802986e-07,-1.19922439958925e-06,0.48966997940842,3.21122561529101e-15,4.70101130986947e-15,4.72139120534118e-15,0.747368746479423,-5.5340618091322e-14,0.249064709123645,-3.74343941277693e-06,2.74597072920256e-08,8.79273272205032e-14,3.35007407877295e-14,4.61828619014811e-15,8.43849349106624e-15,-6.43783102304597e-15,-1.0594297098782e-15,6.46349224060095e-16,-3.08985168877718e-15,3.74252206868479e-15,1.66869324430671e-15,1.08527814860283e-15,3.77375795357048e-15,6.45748648274604e-15,1.66413569681414e-16,-8.82191078757479e-16,-5.83713144737346e-15,-9.58289512437968e-15
"Galium_saxatile",0.108045745679618,-0.0883685725219073,-0.00681348197884203,-0.129400523403376,-0.0124183573820948,0.00349566146931411,-0.052002359621517,-9.53540337118077e-05,0.00109936923226392,0.000946858336295364,-9.03437487162062e-06,-0.0194949160997846,-8.30425882434952e-06,-4.35677696473959e-05,0.00270568359178909,0.000346789337934027,-8.68380814828981e-05,-0.0556187092023051,0.00104981870003955,-0.00163906697891991,5.00111890580388e-05,0.288304215069819,3.21557131929567e-05,-5.09886586824416e-16,-8.37723400227754e-06,-0.00163381967038697,-3.99148310555826e-16,-4.72228373092014e-06,1.97528708690662e-06,-2.32500522410948e-06,-1.81335424668745e-06,0.046892989264988,-1.10963038435282e-15,-0.00112754190901127,9.61758578457915e-16,-1.1808120557217e-15,1.5206823618651e-15,1.11674169020102e-15,-0.00863929224988673,-1.41036068545579e-15,7.19551198678674e-16,4.88474570237416e-05,-1.62396766539063e-05,-0.0237227341880002,1.24602399580383e-15,-1.17248071772242e-15,-3.10151267957892e-16,-2.20296604270195e-15,1.19953340753293e-06,1.08477841354787e-15,0.00176414998262728,5.56797295034094e-09,0.00039060402982323,0.00015614237143749,2.45498066320238e-14,-1.05978593956113e-14,-6.65439925384703e-15,7.59808882477842e-16,6.86224188764537e-10,-0.000166994487046766,0.00037062776166332,-2.68072339382542e-09,7.62545087307457e-08,-0.171850114116538,-3.99355308116818e-08,5.50265973029186e-15,-1.52242768451158e-14,8.33953144643975e-15,-5.2482059960486e-16,1.51817556280946e-14,-1.15379058845647e-15,-1.26302924968403e-07,-2.83945234578321e-07,0.138025547567583,-5.39667186582593e-16,-1.25940145951984e-14,5.09097538370766e-14,0.0499402056215454,3.75865136679009e-14,-0.900182230898354,-1.64846135463872e-05,7.50397599356511e-08,-1.07377780174829e-13,-1.84643089785218e-13,-7.81412446101343e-15,-3.09718729875609e-14,1.48908442856845e-14,8.44013298709329e-15,-1.08353589541176e-15,1.56339889146036e-14,-3.72556798946481e-15,3.72661278900356e-15,-1.26260485568099e-14,7.65909358937109e-16,3.02211855001052e-15,-1.5958457247614e-15,-3.7430409458571e-15,-7.06380407444069e-15,1.05456605125485e-14
"Galium_divaricatum",0.108152873405933,-0.0885349128004206,-0.00683545463201895,-0.130348473590991,-0.0125153347491945,0.00353082892476708,-0.0528016603524663,-9.71753483857543e-05,0.00112458802160524,0.000969327046221104,-9.29462365247967e-06,-0.0201118963994591,-8.57615501567987e-06,-4.51548741332609e-05,0.00284517906748703,0.000365085039332043,-9.18580396028713e-05,-0.0589828500470959,0.00111638559189207,-0.0017551651995076,5.37505141554668e-05,0.310472159963449,3.49438979910923e-05,3.65869466835119e-16,-9.16603540468971e-06,-0.00180658191354691,-5.62212764244251e-16,-5.35828696108319e-06,2.25331908946238e-06,-2.67630386417588e-06,-2.0928206374641e-06,0.0544035117090623,-1.05387643731838e-15,-0.00133804437627671,1.59586723067476e-15,7.53517671690336e-16,-1.84684979323369e-15,-1.68347469671432e-15,-0.0108710247054636,4.0803990244874e-16,1.07963693030681e-15,6.40602768989193e-05,-2.13104534907131e-05,-0.0312293154638077,2.26458043406548e-15,-1.27816592160901e-15,1.43784081549009e-15,-5.27262667034556e-16,1.60449257560103e-06,3.96476867224093e-16,0.00262801151040742,8.33482357812389e-09,0.000609441916953904,0.000245193911657927,1.06997743998249e-14,-1.19348975147204e-15,5.8564264548977e-15,-6.82613687796874e-15,1.10239925401807e-09,-0.00028552065893637,0.000667132701634609,-4.94902546251406e-09,1.51762245056859e-07,-0.475822651199967,-2.07710111203716e-07,-3.62673175360293e-16,1.04111354734445e-14,6.24312645602652e-15,2.39778398005274e-14,-1.34241598238085e-14,-1.08376751501407e-14,4.85444206407764e-07,9.18308188255658e-07,-0.274333054757464,-7.83160053816849e-15,5.36417935802438e-15,-2.94975972634824e-14,-0.0221854987023988,-2.37364348242703e-15,0.20965356949626,3.00174858921104e-06,-1.21532890287245e-08,1.92784470987351e-14,5.11690384496031e-14,1.32318398376169e-15,7.1894008636856e-15,-1.03922385139848e-16,-2.47576090596193e-16,-2.68964060170082e-15,-3.85244676199526e-15,-4.98867876627502e-14,8.52001085498815e-15,-2.7123794731585e-14,1.89085153836728e-14,7.01339411041004e-15,-2.37840949360913e-14,2.20496832895818e-14,2.49506474476489e-13,-0.707106781186552
"Galium_murale",0.108152873405933,-0.0885349128004206,-0.00683545463201897,-0.130348473590991,-0.0125153347491945,0.0035308289247672,-0.0528016603524661,-9.71753483852847e-05,0.00112458802160566,0.000969327046220806,-9.29462365254089e-06,-0.0201118963994591,-8.5761550155023e-06,-4.51548741339102e-05,0.00284517906748776,0.000365085039331737,-9.18580396024858e-05,-0.0589828500470965,0.00111638559189328,-0.00175516519950721,5.37505141561234e-05,0.310472159963449,3.49438979914436e-05,1.15512447667002e-15,-9.16603540454054e-06,-0.00180658191354678,-5.1940122530617e-16,-5.3582869611077e-06,2.25331909002715e-06,-2.67630386297153e-06,-2.09282063723822e-06,0.0544035117090621,-1.35259949630604e-15,-0.00133804437627506,1.99939361237888e-16,3.55043283900146e-16,-4.35754268304838e-16,-1.43560186546603e-15,-0.0108710247054631,-1.05199783186058e-16,8.19909178896479e-16,6.40602768986962e-05,-2.13104534896495e-05,-0.0312293154638092,2.78366634429047e-15,-1.27184441955925e-15,7.71589744531752e-16,-1.018598396077e-16,1.6044925755345e-06,7.56749602403597e-17,0.00262801151041103,8.33482303279113e-09,0.00060944191695677,0.000245193911665782,3.64430707833208e-14,-7.99360577730113e-15,1.2490009027033e-15,4.43221848112074e-16,1.10239434905291e-09,-0.000285520658940436,0.000667132701633744,-4.94903166952541e-09,1.51762244771207e-07,-0.47582265119997,-2.07710113628834e-07,3.98298296913586e-15,6.7842408895103e-15,4.26319293757123e-15,2.26396755232267e-14,-1.92498690088829e-14,-8.65197009646159e-15,4.85444205400482e-07,9.18308183656163e-07,-0.274333054757454,-3.68063628809464e-15,1.09592718601204e-15,-3.06633314393388e-14,-0.022185498702399,-8.77788792719934e-16,0.209653569496283,3.00174858822904e-06,-1.21532844286066e-08,2.56813820817813e-14,3.39776382277379e-14,-5.74062353046846e-15,6.74886847402047e-15,-1.49227126619564e-15,-1.17891703723806e-15,-9.24160945249131e-16,-4.63686232063066e-15,4.54052758436636e-14,-1.9163502202915e-14,2.36214544133125e-14,-2.30147977523365e-14,2.0430270783799e-15,1.95553690259752e-14,-1.70996336816834e-14,-2.75705248681222e-13,0.707106781186543
"Galium_uliginosum",0.107973616319252,-0.0882565497000377,-0.00679867929999257,-0.128761237064368,-0.0123529490042544,0.00347192858723973,-0.051462230745126,-9.41221359311637e-05,0.00108229562200657,0.000931643627777118,-8.85792827554649e-06,-0.0190763196746462,-8.11973933419399e-06,-4.2489740806543e-05,0.00261059204801614,0.000334313989837443,-8.34110876941667e-05,-0.0533206790135825,0.00100431661756157,-0.001559573349067,4.74485621077965e-05,0.273104897143956,3.02398419789944e-05,-2.4944250362473e-16,-7.83433395942016e-06,-0.00151461786379303,-2.68339891764186e-16,-4.28080942930316e-06,1.78205772026313e-06,-2.08035334623602e-06,-1.61861217542292e-06,0.0416532060043193,-4.31680195141256e-16,-0.000979940364738786,-3.17893224643417e-15,4.54721432989858e-16,-2.28051552317515e-15,5.9127815286373e-16,-0.00705463180877086,1.15371346367164e-15,1.14800168052154e-15,3.79540635592623e-05,-1.26082150363588e-05,-0.0183434555959773,1.19135448491058e-15,7.45429229452762e-16,5.3065671020333e-16,8.99648769008946e-17,9.0842411620646e-07,1.40729929834368e-15,0.00113080805323436,3.53778547413064e-09,0.000228935402065294,9.02877848404302e-05,6.17561557447743e-15,-8.02786656595167e-15,5.00988139862102e-15,-1.08055925318595e-14,3.77345626466142e-10,-7.82495451563488e-05,0.000147183106963803,-9.66423177494572e-10,1.8786559873894e-08,0.0507847763948722,1.15364887623853e-07,4.56553538282806e-15,-1.05924907923737e-14,-3.15400622534658e-15,1.13740222768392e-14,-1.55855183321291e-14,3.9217608511666e-15,-7.7639027209417e-07,-1.58929054008303e-06,0.628940426298751,3.27647233408617e-14,-4.66637757625276e-15,1.13852573948689e-13,-0.658486381152338,1.12671104465625e-14,0.198576802256609,-5.07481038752575e-06,3.41687371891232e-08,-2.23088650005081e-14,5.50473971312994e-14,9.08618099768101e-15,-2.42841734345001e-15,4.08935894702756e-15,2.88058756038089e-15,9.53258759240044e-16,-1.27708873293049e-14,-1.63349170100979e-15,-5.59333616902913e-15,3.50081399668769e-15,2.77524381679237e-15,2.9454090433897e-15,-1.73642417935093e-14,2.7072820819877e-15,-7.06988759242185e-15,-9.86217754924891e-15
"Cruciata_glabra",0.106366595466567,-0.0857568962606879,-0.00646761278418292,-0.114362024014228,-0.0108784674352705,0.00293483830271732,-0.0391255481736816,-6.58016038298514e-05,0.000687137162808147,0.000579019506818189,-4.73180385008449e-06,-0.00923835834133231,-3.77471222956185e-06,-1.69379632871691e-05,0.000294868260842649,2.98492322020494e-05,9.92044750027656e-07,0.00355239464766007,-0.000127783651838516,0.000445153455015603,-1.76440179334818e-05,-0.114469360070309,-1.95009841188896e-05,4.19137692676233e-16,6.45490604456205e-06,0.0016901690431213,3.79860311540335e-16,8.22196558911273e-06,-3.74765566722693e-06,5.0406850089389e-06,4.07638602087371e-06,-0.11295110028193,3.20043561687747e-15,0.00347869949205908,1.12516505101396e-14,-1.25745425743399e-15,9.71398190092736e-15,-3.27706710017316e-15,0.0664318450790913,1.39768875792816e-15,-2.46337998781971e-15,-0.000506089933224865,0.000169148395071448,0.253971196059345,-1.31884551998159e-14,2.03406627671462e-15,-3.94829931073964e-15,6.0550816983762e-15,-1.47806939542862e-05,-4.32629064200875e-16,-0.0563354521691859,-1.77354212728693e-07,0.923903959485504,0.0666823217163604,-7.0755901138142e-13,-3.8111224245907e-13,-3.33795491247457e-13,2.13643339130876e-13,2.89447780775523e-07,-0.00750669082418187,0.0177297282598426,-1.09967126260744e-07,2.26236904398245e-06,-0.00261260807778885,-2.26442133853569e-06,-1.57795195486825e-16,-3.98757503689671e-16,-3.38171949566599e-15,2.41950913854249e-15,8.86298317529783e-16,-3.62583783450212e-15,1.14371567985987e-06,1.71397786547187e-06,-0.0081586400574165,1.41502657655647e-15,5.70070075138105e-16,-3.39237108384384e-15,-0.000103904682944333,5.90061779494966e-15,0.0008556858547932,-2.0466274681549e-05,1.20458093453516e-07,6.04696965467485e-16,1.9435149417721e-15,2.6062047661341e-15,-2.60001881888388e-16,1.14843751695186e-15,7.57111959867195e-16,-2.63860861028352e-15,-4.17654278924599e-16,-3.22565575750919e-15,-3.17206670298498e-16,-5.66455497605276e-15,6.16305252137077e-16,2.89803359939353e-15,2.39934840525649e-15,1.67536844450735e-15,-9.29523477315029e-15,-3.87841278345508e-15
"Sherardia_arvensis",0.106078736698972,-0.085310773511039,-0.00640885131361971,-0.111849473059465,-0.0106217027527443,0.00284219263620305,-0.0370451754390105,-6.11021443331582e-05,0.000622652089588816,0.000521673960383246,-4.07555627020858e-06,-0.00769304085513741,-3.09546947375266e-06,-1.30072906089359e-05,-3.95800872198212e-05,-1.39199498236111e-05,1.29038867311717e-05,0.0115073722159635,-0.000284722120450033,0.000718181197984809,-2.64601078799839e-05,-0.16687942296233,-2.62930466919632e-05,2.71301746678536e-16,8.47206220171326e-06,0.00220049574345771,-5.06945704812583e-17,1.38920289359279e-05,-7.97102226269068e-06,0.000123743297829883,-2.11123242385688e-05,0.111099932930566,-2.85099944046583e-15,0.00019510065609919,5.00290821241528e-15,-2.71251404459597e-15,3.90262290569933e-15,-1.7553756634916e-15,0.0661098579402467,-1.77002495424377e-15,1.0251725264541e-15,-0.000225780579188147,7.42598241588816e-05,0.10208030430962,-5.85564883492675e-15,-2.36068706326149e-15,-3.97698939361354e-15,4.48155222815736e-15,-2.91202897667504e-06,3.59379297953384e-15,0.895687314860176,4.51574777194072e-06,-0.0381725248830257,0.0015773143927299,-2.1348200984761e-13,1.39126991177685e-14,-2.54865573090512e-14,3.60709725977237e-14,8.43104286338331e-07,-0.00304336646860091,0.313842727270894,-5.74987782966673e-08,3.53590333324543e-06,-0.00118469642173228,-3.4436146304138e-06,-2.40552720602322e-15,3.63762620487905e-15,-5.12053913748958e-16,2.17311481950198e-15,3.37148962819156e-15,-1.08950517891977e-14,1.64621472712784e-06,2.45493085803146e-06,-0.00452952016147135,1.61548670974609e-16,1.28277012462766e-15,-2.17261803188585e-15,-6.04152491376471e-05,6.15244559010773e-17,0.000504187505414296,-2.81775105603519e-05,1.65651159699884e-07,-6.04823354298348e-16,-8.71546406559995e-16,-3.87943020485913e-15,-2.37394417027122e-15,4.58554315092729e-16,1.18183990151758e-15,-1.66583833204669e-15,-2.60004568140369e-15,1.48961650276762e-15,-3.00100251114583e-15,-5.77197056880332e-15,1.90058251326351e-15,5.64492949810182e-15,-4.78693714806729e-15,-5.97593240916447e-16,-9.91591734771221e-15,-3.95704890042761e-15
"Asperula_glomerata",0.106504789418847,-0.0859642528893725,-0.0064935418608084,-0.115280001876286,-0.0109698734964434,0.00296366664183159,-0.0395353142112971,-6.63137828883802e-05,0.000687850005900995,0.000578440171448059,-4.63028571880641e-06,-0.00886336902395469,-3.58591678947545e-06,-1.53532902713361e-05,-5.07443645485827e-05,-1.79715791356146e-05,1.71703289702335e-05,0.0155672810664488,-0.000392358843064755,0.00103955063526115,-3.93669362475216e-05,-0.252089406289551,-4.28024547207107e-05,1.12797564135637e-16,1.46750179347019e-05,0.00424435134883178,-1.16877104465778e-16,3.82241925718321e-05,-2.42019066787016e-05,0.000458289912008158,-8.36611025120903e-05,0.513058987163729,-1.46062004552202e-14,0.00376540767733812,-4.29268992937619e-15,1.30305817838349e-15,-8.18126379323832e-15,2.47181976921412e-15,-0.141107800557031,2.24704099600267e-16,-3.37767357536752e-15,0.00023725520704486,-7.73653571542386e-05,-0.101800484650285,5.99161466494967e-15,5.28735906036664e-16,3.90528352693479e-15,-2.71436337846484e-15,2.36248141291584e-06,-2.09933065735858e-15,-0.216668299465697,-1.02916429716249e-06,0.00467376831089956,-0.000169611359970991,6.58639809358874e-14,2.31954212781549e-15,1.01307850997046e-15,-1.06433958868557e-14,-4.69403648675411e-08,-0.000357726492826293,0.2277408282543,1.49335107967374e-07,-6.32125696180762e-07,-7.63660425205425e-05,-4.96601817038074e-07,-2.88051871444307e-15,5.6524440568292e-16,-4.1052908343704e-16,1.21820366790086e-15,-4.43589523879907e-15,-3.06198521918039e-15,3.7048649277916e-07,5.64065735137878e-07,-0.00110937450401735,-1.23388675851573e-15,-1.48511112235505e-15,-3.7903652316032e-15,-1.77958982258199e-05,2.1019624532943e-15,0.000156024069372453,-8.83932885936664e-06,5.22579253136994e-08,1.64615491022013e-15,-1.2190814403903e-15,-2.93238329281235e-15,4.40290782681714e-15,4.57551775826929e-15,7.71613902362717e-15,8.27636369777569e-16,2.3293818448721e-15,0.707106781186546,-2.97651903318377e-14,1.54079754359141e-14,-5.13957838748513e-14,-9.81904604771965e-15,2.98687464428597e-14,3.27530224106148e-15,-1.00614095725862e-14,-4.90698410903636e-14
"Asperula_molluginoides",0.106504789418847,-0.0859642528893725,-0.00649354186080838,-0.115280001876286,-0.0109698734964434,0.00296366664183158,-0.0395353142112971,-6.63137828884755e-05,0.000687850005901072,0.000578440171448138,-4.63028571873073e-06,-0.00886336902395472,-3.58591678915509e-06,-1.53532902716939e-05,-5.07443645487016e-05,-1.79715791356952e-05,1.71703289703978e-05,0.0155672810664484,-0.000392358843065115,0.00103955063526155,-3.93669362465761e-05,-0.252089406289551,-4.28024547205932e-05,4.88379524327759e-16,1.46750179343946e-05,0.00424435134883075,3.8167990117515e-17,3.82241925710804e-05,-2.42019066779261e-05,0.000458289912008549,-8.36611025119387e-05,0.513058987163728,-1.40008554752339e-14,0.00376540767733869,-2.85432003663482e-15,4.85598747684773e-17,-7.05775885269139e-15,2.21401789631557e-15,-0.14110780055703,9.89477130922916e-16,-1.61864605109528e-15,0.00023725520704327,-7.73653571538152e-05,-0.101800484650286,5.82546606290231e-15,-3.51017531696166e-16,4.06413274522426e-15,-1.91848134623325e-15,2.36248141427353e-06,-1.18141933586065e-15,-0.216668299465694,-1.02916429717007e-06,0.00467376831089559,-0.000169611359971625,8.12128142513302e-14,-1.94115556961805e-15,1.98452365651747e-15,-1.31856331408997e-14,-4.69403630001057e-08,-0.000357726492826297,0.227740828254302,1.49335109107622e-07,-6.32125696172272e-07,-7.63660425147393e-05,-4.96601824633342e-07,9.35901883223555e-16,-2.54854179021212e-15,9.53598572785991e-17,-1.91184385874978e-15,2.2662985388109e-15,-3.55577471870631e-15,3.70486492990502e-07,5.64065742648357e-07,-0.0011093745040161,1.42612736711548e-16,1.57500786135769e-15,5.36897472155431e-15,-1.77958982207357e-05,-2.10643828804421e-15,0.000156024069376861,-8.83932885805663e-06,5.22579270615547e-08,-3.9972809655937e-15,-6.58631435259956e-16,1.92250686618407e-15,-5.16489106289389e-15,-3.17786915734449e-16,-5.50661226851994e-15,-3.67329404459594e-15,-3.28092592093785e-15,-0.707106781186548,2.4759899304226e-14,-1.81927891170567e-14,5.19863448983611e-14,1.77132830650655e-14,-3.30115101143475e-14,-1.15037576135379e-15,-9.8467138792043e-15,4.59097386663188e-14
"Crucianella_gilanica",0.10624719390284,-0.0855692642658977,-0.00644237334530029,-0.11321005081111,-0.0107598229679021,0.002890434902993,-0.038036708873627,-6.31811987342775e-05,0.00064871140403676,0.000544372215885057,-4.297940297406e-06,-0.00816289379846728,-3.29248062433068e-06,-1.39514679772811e-05,-4.4109248798022e-05,-1.55646866754901e-05,1.46405514556868e-05,0.0131623755739362,-0.000328669953737134,0.000849935665118493,-3.17633089592002e-05,-0.201932674696929,-3.31227903954146e-05,-7.60203157227499e-16,1.10493025015053e-05,0.00305555458586593,-2.34915040816151e-16,2.42565179272028e-05,-1.49119590082463e-05,0.000267788283930212,-4.80984275136946e-05,0.285234181956333,-8.08813831716835e-15,0.00177102952929666,-8.45138121395683e-17,-2.50609531140179e-15,-2.67430578410906e-15,-1.08311365018668e-15,-0.0307516258737294,6.8618704123629e-16,-1.90344605513626e-15,1.84106904310667e-06,-3.38875522257662e-07,0.0013379016079718,-1.36482727930708e-15,3.68703620146359e-16,1.37240749228517e-15,5.79680223411133e-16,-2.45870039271016e-07,3.59214986191885e-15,0.193432047615331,9.64902057564763e-07,-0.00638091847192144,0.000244216267209527,-1.19348975147204e-13,6.75024272589475e-15,5.759281940243e-15,3.04686831320566e-14,8.09737247925693e-08,0.000974383005237936,-0.892273410216495,-7.0222274306322e-07,5.39749164190212e-06,-0.0010612585535402,-2.84105877897867e-06,1.72402784284067e-15,-2.62822981878431e-15,3.07994821378683e-15,1.99604816901561e-15,6.19180897952695e-15,1.41885310292599e-14,1.31039347102308e-06,1.95214523597016e-06,-0.00359235092012777,4.33010347741815e-16,-1.01587945564226e-15,3.23552857700149e-15,-4.7778939681602e-05,3.67378789073864e-15,0.000398967147953562,-2.23031042154554e-05,1.31132934300274e-07,8.26834314124557e-16,1.90180371838129e-15,2.60493897851601e-15,1.07518379338645e-16,-2.62585852873708e-15,-7.895190284078e-16,-1.69759849272861e-15,-1.43964498988309e-15,-1.8226706982411e-15,-1.20605060157969e-15,-3.89587545515196e-15,-6.99000571400162e-16,3.47992647671419e-15,-2.4762320001565e-15,1.3230611288054e-15,-1.00507975235366e-14,-3.42364164021497e-15
"Rubia_tinctorum",0.104211653400551,-0.0824303376283952,-0.00603213503647832,-0.0961154837590528,-0.00901855530103153,0.00227199585361605,-0.0247197049882055,-3.41048642695978e-05,0.000265272510296141,0.000206391598822699,-6.67203065528984e-07,4.34781376220678e-05,2.5379127478967e-07,5.31345376450685e-06,-0.00113202406295443,-0.000151042694653634,4.30294342202612e-05,0.0288487691160571,-0.000563260329272228,0.000889534539058933,-2.60121664001682e-05,-0.144034891869679,-1.01539728291237e-05,1.02524782546345e-16,4.85369705310733e-07,-0.00101437385097321,-1.72982825542639e-17,-2.70932879686355e-05,1.78400063914585e-05,-0.000287682557135069,4.38735625766076e-05,-0.0518512695007919,5.69749902936871e-16,-0.0246909509743342,1.37690408741486e-14,4.23079129049423e-15,2.97814022578821e-14,-7.96492842181398e-15,0.842056595691849,6.87587979702788e-16,2.23072477610227e-14,0.000142217441552166,-8.74451079936493e-05,-0.471114565172778,2.53596736589643e-14,-2.56183151390034e-15,1.15489175410797e-14,-4.43359594044397e-15,0.000257469813919851,-4.25483606893147e-15,-0.0790384371982074,8.24334266335471e-07,-0.00396347352121829,0.000192813402455836,4.41036096532343e-14,1.46603649359145e-14,-8.38912272982384e-15,-3.15285991758785e-16,1.56138906840309e-06,-0.000745962607896665,0.0145050417940444,-7.03480062623506e-07,1.30385576799273e-05,-0.000707883132790457,-1.07858275937182e-05,-7.82921795460254e-16,-7.69458157771726e-16,2.4439283019402e-15,-2.86479179030027e-16,1.48944671890148e-15,-1.17302283634632e-15,4.97525960418907e-06,7.39591173361593e-06,-0.00318305923227297,-1.43967084318193e-16,-1.69433840707866e-16,1.97139945338997e-15,-4.42075383696482e-05,1.80767313411498e-15,0.000373159404200888,-8.16183220155043e-05,4.79276393212354e-07,1.76705946745041e-15,8.41574818858675e-16,4.8801289320875e-16,-8.28046208506562e-16,8.96560385574389e-16,3.34438103681083e-16,-1.88173683904344e-15,1.31559851082066e-16,1.22203920451957e-16,-1.51592887887754e-15,-1.02013107312077e-15,-5.84721310752827e-16,3.05387765270631e-15,7.12200809123191e-16,1.52687251463069e-15,-9.56887772981242e-15,-2.63052040805375e-15
"Coprosma_propinqua",0.0905479125484775,-0.0601314307182805,-0.00284293450786449,0.0871409869145295,0.0104851669724562,-0.0064285116164426,0.40563365846774,0.00577459905484931,0.0196266033494969,0.0139020234710716,-6.78206720459552e-05,-0.118803601866314,-4.73296743236094e-05,-0.000204616735441685,0.00674586595643943,0.000820356766750704,-0.000161013254552296,-0.0886391580542565,0.00137884720167159,-0.0009866842128351,1.07805342760933e-05,0.000747715423964006,-3.37712370057995e-05,-1.71798331078944e-16,1.63912707381222e-05,0.00598763402164312,2.90350071457356e-17,6.03217363682342e-05,-3.63854885026543e-05,0.000518435192991002,-7.52008501677376e-05,0.00270122310191413,-8.68916079108689e-16,0.179755664366451,-1.15015264154227e-15,-1.13634873212098e-15,1.19799457125221e-15,-1.27152109402652e-15,0.00167557992522164,1.5181622255654e-16,-1.19049937327664e-15,-3.59112776434518e-06,1.13393273470351e-06,4.71143294451526e-05,4.41243707906354e-16,2.46064181781428e-16,4.04257205287707e-16,-1.77814199659917e-16,4.79013329592532e-06,-2.82195320128968e-16,-0.000117723962094598,1.45162509048301e-07,-8.77182054865103e-06,4.44896015895646e-07,1.90264470845136e-14,1.75163702986758e-15,5.14172038279526e-15,-2.1163626406917e-15,2.63454564802865e-07,-2.53864583912226e-06,5.71938857211012e-05,-1.58974903149954e-07,3.17857417843486e-06,-4.54750225485333e-06,-3.51725656275948e-06,-1.07193350004035e-15,-2.0080856190507e-16,2.75456602018362e-15,-5.98591516996267e-15,-5.19660242512899e-16,1.19728751481868e-15,1.79825261400362e-06,2.68363316852823e-06,-3.00290109815243e-05,8.95816228377166e-16,6.33072130137597e-16,9.96759601891798e-14,-3.55036825467469e-07,3.28957985853182e-14,-2.2606679063775e-06,0.500901853691776,1.00858830660152e-06,1.87601853350142e-13,0.707106781186487,1.72665657022423e-14,-6.26727684723406e-15,-1.86933840827361e-14,1.41856878794491e-15,-4.38642902620221e-15,-1.02653395838434e-14,2.63649892738146e-16,-6.97424854352869e-15,-8.33307247159393e-15,1.31313862118847e-15,9.01430078539451e-15,-4.85692608068858e-15,4.92219495283582e-16,-1.25830638808781e-14,6.7966475925278e-15
"Coprosma_repens",0.0905479125484775,-0.0601314307182806,-0.00284293450786445,0.0871409869145293,0.0104851669724562,-0.00642851161644265,0.40563365846774,0.00577459905484917,0.0196266033494969,0.0139020234710718,-6.78206720456828e-05,-0.118803601866314,-4.7329674323667e-05,-0.000204616735441858,0.00674586595643946,0.000820356766750816,-0.000161013254552313,-0.0886391580542568,0.0013788472016713,-0.000986684212835749,1.07805342759301e-05,0.000747715423963978,-3.37712370055723e-05,8.9818299483439e-16,1.63912707385177e-05,0.00598763402164406,2.82691936976136e-18,6.03217363684454e-05,-3.63854885023111e-05,0.000518435192990747,-7.52008501673011e-05,0.00270122310191353,-6.77315146629217e-16,0.17975566436645,6.99301516675926e-16,-4.70969979892208e-16,4.36608478118885e-16,-8.78660645532977e-16,0.00167557992522661,2.25285886428413e-16,-1.06953855939315e-15,-3.59112776527342e-06,1.13393273516697e-06,4.71143294524662e-05,2.33686369234946e-17,-2.79311561498569e-16,-1.51363838606652e-15,-3.94096009267263e-16,4.79013329555877e-06,-3.8539760570094e-16,-0.000117723962097066,1.45162509036267e-07,-8.77182054927379e-06,4.44896018719776e-07,-3.41393580072236e-15,-4.75964753721136e-16,-1.19002030452009e-15,1.08160008727154e-15,2.63454564896324e-07,-2.53864583451592e-06,5.7193885717594e-05,-1.58974898752541e-07,3.17857417548914e-06,-4.54750225139199e-06,-3.51725656525923e-06,2.59602920777098e-16,-1.93610704042086e-15,-1.480563178561e-15,1.77870193947793e-16,-2.13527678111362e-15,-7.07277366437762e-15,1.79825261724812e-06,2.68363316993095e-06,-3.00290109832636e-05,-7.58579745735621e-17,-3.40085578192514e-15,-5.05927261938351e-14,-3.55036857513306e-07,-4.05787081381894e-14,-2.26066761806881e-06,0.500901853691602,1.00858837064497e-06,-2.02140452566288e-13,-0.707106781186609,-4.92519095042883e-14,1.22758653227724e-15,4.06144639771788e-15,2.20356277106335e-15,-2.70115778003241e-15,-8.73736938345985e-15,-3.40033876897657e-16,1.57886545600119e-15,-3.15590676071186e-15,1.74823546068977e-15,2.8135989435102e-15,7.6704742842808e-16,7.75936011008018e-16,-1.13382215005126e-14,-1.07067122800788e-14
"Coprosma_robusta",0.0905571500950022,-0.0601430687119599,-0.00284387616979299,0.0872063417718231,0.0104935465417141,-0.00643511841357973,0.406267931801672,0.00578578708397344,0.0196721345430286,0.0139353650877163,-6.80173485781637e-05,-0.119181280129981,-4.74852029636012e-05,-0.000205362699834479,0.00678027041056085,0.00082463418887823,-0.000161929640265698,-0.0891659309498215,0.00138741844432948,-0.000993497538648438,1.08588834052699e-05,0.000753294836254888,-3.40533399041961e-05,6.50282328742105e-16,1.65391401926496e-05,0.00604777870178388,-5.22359105397134e-17,6.10774621001893e-05,-3.68598255728933e-05,0.000525637048856933,-7.62641063294494e-05,0.00274074485088106,-9.00758944642602e-16,0.182765039762223,-6.92125268670565e-16,-1.1562637008464e-15,1.69616383019945e-15,-1.64680982818798e-15,0.00171256220520037,-4.78665836580063e-16,-5.01967219453809e-16,-3.6834528868376e-06,1.16314609431192e-06,4.83411260408136e-05,-8.2849765523984e-16,7.04739696289192e-16,-1.18610315846837e-16,9.82453277736289e-16,4.92144145732856e-06,-2.32993201982818e-16,-0.000121997634637514,1.50488177826016e-07,-9.12202166530526e-06,4.62877457590646e-07,-1.20042864537595e-14,-1.28412905309183e-15,-3.47291639890557e-15,2.48672610281275e-15,2.74558302765109e-07,-2.65729211608489e-06,6.00747120111427e-05,-1.67258639175534e-07,3.35998263621604e-06,-4.891890299186e-06,-3.86807215132653e-06,7.57529438778376e-16,-3.48554421281858e-16,1.29495120897189e-15,5.14513264407673e-15,5.83603695098839e-15,5.17250911701421e-16,2.11321803791632e-06,3.17869563577792e-06,-3.67562292728832e-05,-2.43564328421672e-16,1.07025877335241e-16,-3.27681778914607e-14,-7.13563058804836e-07,-3.29640223161038e-15,1.16634168569174e-05,-0.499093198838018,-5.59317748542753e-07,3.68749062276744e-14,9.69643000151436e-14,-0.707106781186532,-2.09688485132264e-14,1.28646326118682e-14,8.79853806015475e-15,1.98290974708948e-15,-1.85960709294797e-14,-3.28286754472808e-15,-5.71781404043312e-16,-1.95442509221246e-15,3.2159431919372e-15,-1.37279793393771e-15,-1.03420734685668e-15,2.72848058007761e-15,-1.00319478960043e-14,-6.0444713783707e-15
"Coprosma_rhamnoides",0.0905571500950022,-0.0601430687119599,-0.00284387616979298,0.0872063417718232,0.0104935465417141,-0.00643511841357968,0.406267931801672,0.00578578708397358,0.0196721345430285,0.0139353650877162,-6.80173485780223e-05,-0.119181280129981,-4.74852029637906e-05,-0.000205362699834391,0.00678027041056096,0.000824634188878068,-0.000161929640265936,-0.0891659309498218,0.00138741844432884,-0.000993497538648551,1.08588834052378e-05,0.000753294836254846,-3.40533399043096e-05,-7.11508159202785e-16,1.653914019306e-05,0.00604777870178369,-2.2631100998146e-16,6.10774620995044e-05,-3.68598255731745e-05,0.000525637048857543,-7.62641063304197e-05,0.0027407448508819,-5.71833712317791e-16,0.182765039762225,-5.29784838094389e-16,-6.36389497451178e-16,1.12976925902709e-15,-1.59486421551088e-15,0.00171256220519942,-5.19030515813733e-16,-4.78072789565171e-16,-3.68345288529497e-06,1.16314608961419e-06,4.83411260391899e-05,4.89961831915697e-16,1.2956270743899e-16,-7.96155422044013e-17,-6.85959167488746e-16,4.92144145795735e-06,4.04478754764801e-16,-0.000121997634633269,1.50488177749085e-07,-9.12202166810858e-06,4.62877453035263e-07,-1.37251321419285e-14,-5.76361874893294e-16,-1.82839854367955e-15,9.04658292721905e-16,2.74558306486524e-07,-2.65729211656139e-06,6.00747120165923e-05,-1.67258642801109e-07,3.35998263869317e-06,-4.89189030536974e-06,-3.86807215495365e-06,-1.91888935768785e-15,-1.05754008151208e-15,-4.87860405214587e-16,7.43332218039081e-16,3.20491260085592e-15,4.55314707477746e-15,2.11321803601125e-06,3.17869563714733e-06,-3.67562292843621e-05,-3.46001300349666e-16,1.82428941315821e-15,-9.14818304256052e-15,-7.1356305478022e-07,1.3066020067133e-14,1.1663416844102e-05,-0.499093198837973,-5.5931771627193e-07,-2.32705224239034e-14,2.64070247150256e-14,0.707106781186563,2.47895226993202e-14,3.88226274445701e-15,-1.04496493054559e-14,3.82757575857725e-16,3.57101314257538e-14,1.42170252212048e-15,-1.79352551206389e-15,4.8440703883537e-15,-3.56494494710593e-15,3.74608908609385e-15,-1.84192843628014e-16,-1.01884919961671e-15,-5.49781651331913e-15,8.33707203877493e-16
"Opercularia_varia",0.0894152703213702,-0.0586991499531613,-0.00272639210051132,0.0789116063696697,0.00942786183701005,-0.00558687447729592,0.322971305805347,0.00429269608149886,0.0134933837180135,0.00939508711288238,-4.06275790528694e-05,-0.0659127067213478,-2.54410752302094e-05,-9.78540589166967e-05,0.00146026002554498,0.000159408729219077,-1.59007330882403e-05,-0.00411867129027293,-1.64738028043715e-05,0.000164793460986264,-2.73177953062748e-06,-0.000225199037590941,1.80561602059352e-05,-5.56091293817418e-16,-1.19098949934436e-05,-0.00631009586735918,5.39470784307667e-16,-0.000124818980060112,8.47202580448305e-05,-0.00146062422897616,0.000223570772183443,-0.008925824658304,5.0218012952994e-15,-0.928353279534238,1.39199386274048e-15,3.775523304405e-15,-7.70029815636055e-15,7.09543970211154e-15,-0.0353649982390527,1.38368181285118e-15,3.70816861991721e-15,-0.000556891829587015,0.000159900327122169,0.00455525417449107,-1.20922856023352e-15,-1.69093421396258e-15,3.79387014510129e-16,5.87725014891483e-16,0.000189612807851437,2.42715549339908e-16,-0.001328857146211,1.60424553179889e-06,-8.38069555991142e-05,4.17394617947993e-06,-2.77555756156289e-15,3.81194641824179e-15,-2.70616862252382e-16,-1.96804378349569e-15,2.33367313166228e-06,-2.00000906617744e-05,0.000420850118365745,-1.13825385807074e-06,2.13426181699115e-05,-2.65612328213884e-05,-1.89516919199581e-05,-4.67391811683931e-16,-6.59976224982234e-16,1.4150484717817e-15,1.15655240757648e-16,2.30523455142945e-15,-1.34563385138467e-15,9.01205370558994e-06,1.34179903379152e-05,-0.000149624660664345,-4.52315024746541e-16,5.4729650325032e-16,3.62353677917672e-15,-2.22882370950063e-06,1.22421447788573e-15,1.92481403592619e-05,-0.00255608884077263,8.97568198674073e-07,1.34811977724208e-15,9.00130495630389e-16,1.62388888774187e-15,-2.4440935125792e-16,4.63148944212993e-16,1.39478583313338e-15,-1.80855100534227e-15,-1.07782617335144e-15,-7.83959969076322e-16,-1.91678173602583e-15,-2.96911672262045e-15,1.10995330404822e-15,3.30438635204904e-15,-6.44456374572179e-17,1.13381890762257e-15,-9.49035225708226e-15,-1.52859886337487e-15
"Spermacoce_leptoloba",0.084706871393153,-0.0521879771830089,-0.00204865375706161,0.0729191445598899,0.00822008704190484,-0.00385436536669122,0.0939094513864998,-0.000220900657776063,-0.00666983987591277,-0.00563897007528411,5.86253590049974e-05,0.137031878551377,6.01985137651804e-05,0.000349011341947411,-0.0294784535049422,-0.00383912958836421,0.00100894492811064,0.65235656770099,-0.0122036884595796,0.0150700209860948,-0.000234317777637437,0.102864842208791,-0.00389446293050849,-0.707106781186548,0.00046655107447726,0.0830461894657834,4.8979751154625e-16,0.000360137105045105,-0.000187844959491674,0.00205648828999182,-0.000273929309579352,0.005084755589634,-3.46247419685294e-16,0.0484392289603044,-1.08145429420187e-16,-4.26345157099975e-16,-1.24039710164378e-15,2.47926527514679e-16,-0.0176854476082574,1.62719125163322e-16,-6.87438672175067e-16,-0.000586712956614345,0.000168696225263164,0.00308329370614347,-6.36402272427439e-16,-9.80083391249465e-17,2.84075571457459e-17,-1.81242556929073e-16,0.000214916130751518,-2.34065895284241e-16,-0.00117310568463432,2.18481925828449e-06,-7.71514376809307e-05,3.86093111222861e-06,-5.35682609381638e-15,1.97704266152732e-15,8.2572837456496e-16,-4.91360424570431e-16,3.33394596018297e-06,-1.94126882869905e-05,0.000416682910198308,-1.71246011657187e-06,3.2637365696894e-05,-2.82604485655025e-05,-3.07711870392089e-05,-9.13948060411446e-16,-1.34388842621354e-15,1.78818890529705e-17,1.50531083493917e-16,1.55244309286551e-15,-8.40201762953466e-16,1.50258521547667e-05,2.24077263109483e-05,-0.000170666261923289,1.96792829307992e-16,-1.65059229783047e-16,1.63053836139628e-15,-2.59789073971881e-06,5.84578990877774e-16,2.25554250987821e-05,-0.000180400199940419,1.55077085575996e-06,-5.15513922232203e-16,-3.5551001868244e-16,-2.38148215836516e-16,-2.25020348244923e-16,6.08728181170657e-16,9.046287176839e-16,-1.05787155328423e-15,-6.04911451181478e-16,-6.94161309026315e-16,-2.11190432981693e-15,-2.22848463348188e-15,4.77832295304904e-16,3.77557113578914e-15,-2.05695887186195e-15,8.29634616678558e-16,-1.02078375678441e-14,-1.55245793981295e-15
"Knoxia_sumatrensis",0.084706871393153,-0.0521879771830089,-0.0020486537570616,0.07291914455989,0.00822008704190484,-0.00385436536669123,0.0939094513864998,-0.000220900657776172,-0.00666983987591281,-0.00563897007528422,5.86253590053243e-05,0.137031878551377,6.01985137650046e-05,0.000349011341947697,-0.0294784535049421,-0.00383912958836587,0.00100894492810959,0.652356567700991,-0.0122036884595818,0.0150700209860949,-0.000234317777640009,0.102864842208793,-0.00389446293052386,0.707106781186547,0.00046655107450315,0.0830461894657831,-2.82218660512317e-16,0.000360137105045917,-0.000187844959490459,0.00205648828999253,-0.000273929309579595,0.00508475558963464,-2.98629412041415e-17,0.0484392289603042,6.9817724738154e-16,3.70009800345191e-16,3.01360872381392e-18,-8.61810311156377e-16,-0.0176854476082572,-4.76243911467445e-16,-7.44405359561254e-16,-0.000586712956613484,0.000168696225262995,0.00308329370614374,1.29888992515534e-16,-4.59272552969082e-17,-3.62129846188919e-16,2.34011021590794e-16,0.000214916130751667,-1.3432542151686e-16,-0.00117310568463442,2.18481925877376e-06,-7.71514376814823e-05,3.86093111401364e-06,-5.99520433297585e-15,1.3872366796952e-15,1.30451205393456e-15,-8.90346824045096e-16,3.33394596022714e-06,-1.94126882885983e-05,0.000416682910197446,-1.7124601149216e-06,3.26373656970689e-05,-2.82604485632115e-05,-3.07711870389098e-05,-5.73021804814162e-17,-8.30838041667493e-16,5.85640217140745e-16,1.28107864480408e-16,1.48096724598771e-15,-5.18102280501045e-16,1.50258521545611e-05,2.24077263127368e-05,-0.000170666261923127,-2.08967015908086e-16,-7.96443733020052e-17,1.42237154427906e-15,-2.59789073958769e-06,4.33516607038809e-16,2.2555425098276e-05,-0.000180400199941133,1.55077085675116e-06,-3.69818298970692e-16,7.75529687672418e-16,6.77785779468037e-16,3.12308278211907e-17,8.82426579822824e-16,5.24505971782697e-16,-1.07434618903491e-15,-4.75794829315618e-16,-8.32939187105058e-16,-2.06896566525592e-15,-2.44361116564157e-15,1.24777167456122e-15,3.37614224416785e-15,-1.12714708873838e-15,9.42310547434152e-16,-9.7673067633142e-15,-2.2394084362998e-15
"Psychotria_penangensis",0.0865498059908356,-0.052775154919579,-0.00155963605653585,0.258221367285291,0.0315041129345391,-0.0336800757890176,-0.139074758459778,0.00149090594093719,0.00892571537609569,0.00665870742315639,-3.95262096588906e-05,-0.0748130090678351,-3.08843050824508e-05,-0.000186948912807663,0.00301621421994136,0.000359134193413371,-6.08692691097005e-05,-0.0292943273833963,0.000359977667375455,7.24273667246039e-05,-5.23172497372698e-06,-0.00134054150794735,-0.000259970985069669,3.20681142290654e-16,4.99328025746855e-05,0.0440278094434134,5.54034528568663e-16,6.20257260183351e-06,-1.47543259121215e-06,-0.222376467707647,-7.52756801052177e-05,0.000288722850448685,5.22354697466351e-16,0.00238925113348696,-9.90085144177907e-16,-1.83427945924987e-16,-3.19739021350532e-16,-2.30019969945742e-17,-0.00114116179253732,1.40336315046047e-15,-1.05288961023962e-15,-0.183262128193734,-0.000221586163188735,-0.000111843319930584,0.51639208324377,-0.109386270428029,0.599082051952033,-0.403081325831342,2.28196618055591e-05,1.37956925519215e-15,-7.88327871801284e-05,3.41802186021835e-07,-5.40279260019712e-06,2.71638935674806e-07,-4.29517532651857e-15,-7.5658880202556e-15,-2.22391549620227e-15,2.10009960810442e-15,5.4367498474518e-07,-1.43183762469105e-06,3.13540542155244e-05,-2.92227010642126e-07,5.65368902981181e-06,-2.29831586992323e-06,-5.66611817216043e-06,-5.96336803365234e-16,-7.17203942134535e-16,6.61540635340288e-16,2.21990929514639e-16,1.7915192957699e-15,-2.28742553925904e-16,2.85594605037565e-06,4.26773641772669e-06,-1.51652993311881e-05,-4.62473642502175e-16,1.9864031266219e-16,3.42082992863736e-15,-2.38401365945079e-07,7.52681026169071e-16,2.09142802543497e-06,-1.67779792458199e-05,3.07855169142965e-07,-2.62790662874024e-16,-4.66613375044914e-16,-2.95812349580717e-16,-2.08725135381793e-16,6.30164869181855e-16,4.32669249993134e-16,-1.33509265606963e-15,-7.55288897659088e-16,-6.27383730840383e-16,-2.07298197721192e-15,-2.13800654605349e-15,9.07873100390824e-16,3.4318552250666e-15,-3.30040955355433e-17,7.9693115792581e-16,-1.00375113692115e-14,-1.73953459608543e-15
"Psychotria_limonensis",0.0865498059908356,-0.0527751549195791,-0.00155963605653585,0.258221367285291,0.031504112934539,-0.0336800757890176,-0.139074758459778,0.00149090594093725,0.0089257153760959,0.00665870742315633,-3.95262096587911e-05,-0.0748130090678349,-3.08843050825743e-05,-0.000186948912807825,0.00301621421994135,0.000359134193413585,-6.08692691096442e-05,-0.0292943273833965,0.000359977667376202,7.24273667244668e-05,-5.23172497422056e-06,-0.00134054150794612,-0.000259970985069734,7.43504087059809e-17,4.99328025745598e-05,0.0440278094434127,4.21355564608239e-16,6.2025726020368e-06,-1.47543259163071e-06,-0.222376467707646,-7.52756801054719e-05,0.000288722850447226,4.23535966299757e-16,0.00238925113348801,4.69255140091112e-16,-4.44101623599129e-16,-3.10689013891893e-16,6.14185689971297e-17,-0.00114116179254734,4.16952331355226e-16,1.7063518281604e-15,-0.183262128193741,-0.000221586163188294,-0.000111843319995626,0.0565485662141967,0.0736851478944133,0.212143399663598,0.863925886067822,2.28196618094733e-05,-1.91942662741013e-15,-7.88327871818406e-05,3.4180218473905e-07,-5.4027925978084e-06,2.71638930460227e-07,-9.83241266183654e-15,3.9526758602304e-15,-4.6525283625698e-15,-2.72655162336655e-15,5.43674985840335e-07,-1.43183762788977e-06,3.13540542154617e-05,-2.92227011218327e-07,5.65368903019295e-06,-2.29831586972528e-06,-5.66611817276953e-06,-2.12237621949423e-16,-1.16087059122866e-15,5.16683793912798e-16,-2.86965636953508e-16,2.18587600073341e-15,1.09715452164921e-16,2.85594605045283e-06,4.26773641777225e-06,-1.51652993322216e-05,1.39160775490879e-16,-2.64987010727147e-16,-5.48217384397593e-16,-2.38401365940217e-07,6.94430731999265e-16,2.0914280234604e-06,-1.67779792452691e-05,3.0785516954099e-07,4.25230118210155e-16,1.91091982267811e-17,1.27411239617984e-15,3.60763714653987e-17,4.00936679359688e-16,4.39952072330936e-16,-1.01995871461591e-15,-7.98192456479219e-16,4.05561441473641e-18,-1.83970730357872e-15,-2.57238869322242e-15,6.57137567545658e-16,3.43571031365326e-15,-1.02179647684226e-15,6.56025435899035e-16,-9.94786527328697e-15,-2.32240168401356e-15
"Psychotria_micrantha",0.0865498059908356,-0.0527751549195791,-0.00155963605653584,0.258221367285291,0.031504112934539,-0.0336800757890177,-0.139074758459778,0.0014909059409372,0.00892571537609583,0.00665870742315624,-3.95262096588901e-05,-0.074813009067835,-3.08843050826356e-05,-0.000186948912807575,0.00301621421994161,0.00035913419341379,-6.0869269109744e-05,-0.0292943273833963,0.000359977667375794,7.24273667244774e-05,-5.23172497386165e-06,-0.00134054150794594,-0.000259970985069635,5.35337269940771e-17,4.99328025746331e-05,0.0440278094434129,6.62345588574184e-16,6.20257260202898e-06,-1.47543259150582e-06,-0.222376467707646,-7.52756801053881e-05,0.000288722850449332,1.28954233344155e-16,0.00238925113348574,6.98423429729308e-16,-2.23098229255717e-16,5.61350723271513e-17,-6.95718122679234e-16,-0.00114116179254329,-7.24969879225017e-16,-1.94305891948008e-15,-0.18326212819375,-0.000221586163188866,-0.000111843319998785,0.0182691923329159,0.794820827847332,-0.348984626826088,-0.214792500964628,2.28196618166949e-05,-1.37193047504839e-15,-7.88327871775324e-05,3.41802185614886e-07,-5.40279259477524e-06,2.71638933020679e-07,-1.57304724801577e-14,-2.93710368526323e-16,-3.04617442381527e-15,1.30494573480355e-15,5.43674986048989e-07,-1.43183762773208e-06,3.13540542157056e-05,-2.92227011160778e-07,5.6536890290388e-06,-2.29831587119592e-06,-5.66611817249142e-06,-1.23463301129818e-16,-7.04044859767027e-16,4.70818101137496e-16,2.39823579596982e-16,2.24615000347789e-15,1.21715544526929e-16,2.85594605059481e-06,4.26773641776881e-06,-1.51652993331983e-05,2.02871876616258e-16,-1.80837315938747e-16,1.31140618184957e-15,-2.38401365809618e-07,4.61756436532361e-16,2.09142802552013e-06,-1.67779792457371e-05,3.07855169837674e-07,-1.66187283657093e-16,7.40754164233248e-16,3.07871420060545e-16,-7.16810813383808e-16,9.5741906404144e-17,6.34141842156113e-16,-1.28586563953189e-15,-4.21823802999367e-16,-1.41147874198221e-15,-2.09672118942647e-15,-2.13589623766441e-15,5.11954366425512e-16,3.19549791269238e-15,-1.90303600263849e-15,7.26421561997109e-16,-1.00381796383455e-14,-1.94770141320253e-15
"Psychotria_chagrensis",0.0865498059908356,-0.0527751549195791,-0.00155963605653584,0.258221367285291,0.031504112934539,-0.0336800757890177,-0.139074758459778,0.00149090594093724,0.00892571537609586,0.0066587074231562,-3.95262096587747e-05,-0.0748130090678352,-3.08843050824759e-05,-0.00018694891280772,0.0030162142199414,0.000359134193413705,-6.0869269109532e-05,-0.0292943273833964,0.000359977667375865,7.24273667244723e-05,-5.2317249735632e-06,-0.00134054150794581,-0.000259970985071479,9.59059381455434e-16,4.9932802575164e-05,0.0440278094434123,3.87287847014301e-17,6.20257260156981e-06,-1.47543259117364e-06,-0.222376467707648,-7.52756801057233e-05,0.000288722850448304,-9.81967225412715e-16,0.0023892511334885,-1.31104208277581e-15,-5.35781918701709e-16,-4.7049411786004e-17,-2.69295627190701e-16,-0.00114116179254409,1.00137040399761e-15,1.51815061612151e-15,-0.183262128193764,-0.000221586163185542,-0.00011184332002686,-0.822408097669544,-0.202453061505425,0.197524145016214,-0.208906416632546,2.28196617684336e-05,2.08532287654442e-15,-7.88327871797095e-05,3.41802184701331e-07,-5.40279259443697e-06,2.71638932361484e-07,-3.04617442381527e-15,-3.26355695939862e-15,-2.72698530423554e-15,-5.50774703622636e-16,5.4367498514035e-07,-1.43183762784754e-06,3.13540542165168e-05,-2.92227012103448e-07,5.65368903023735e-06,-2.29831587026462e-06,-5.66611817247381e-06,9.83375385469089e-17,-9.81637656825955e-16,8.50499629121407e-16,-5.96351342761721e-16,2.19238490123407e-15,-1.82350786359123e-16,2.85594605028583e-06,4.26773641789575e-06,-1.51652993320631e-05,7.16181141990055e-17,-7.24350820543962e-16,2.90735177974824e-15,-2.38401366394125e-07,5.57270935656131e-16,2.09142802604224e-06,-1.67779792454101e-05,3.0785516949442e-07,-3.92928734371386e-16,5.60342922732062e-16,8.76860720181365e-16,-4.08448806352563e-16,3.37901142148488e-16,2.9862171428126e-16,-1.39739369748642e-15,-3.57303004130069e-16,-1.76355627086988e-16,-1.66710371960745e-15,-2.47260050861484e-15,8.54335849140359e-16,3.63116430658149e-15,-2.20487788745844e-15,7.7949459013184e-16,-9.98180886617485e-15,-1.39258990088989e-15
"Psychotria_brachypoda",0.0865498059908356,-0.0527751549195791,-0.00155963605653586,0.258221367285291,0.0315041129345389,-0.0336800757890177,-0.139074758459778,0.0014909059409372,0.00892571537609575,0.00665870742315611,-3.95262096587736e-05,-0.0748130090678351,-3.08843050824811e-05,-0.000186948912807328,0.00301621421994134,0.000359134193413842,-6.08692691094972e-05,-0.0292943273833963,0.000359977667375731,7.24273667247269e-05,-5.23172497368219e-06,-0.00134054150794625,-0.00025997098506981,-1.93246589978581e-17,4.99328025746855e-05,0.0440278094434118,-3.62685723074476e-16,6.20257260159031e-06,-1.47543259144962e-06,-0.222376467707647,-7.52756801056938e-05,0.000288722850448788,2.22401991134208e-15,0.00238925113348796,-6.14861640482389e-16,1.92559636266501e-15,1.12731353310982e-15,-4.37944499735699e-16,-0.00114116179254849,2.24775461012126e-15,2.28798990357937e-15,-0.183262128193748,-0.000221586163180255,-0.000111843319998538,0.231198255878681,-0.556666643808291,-0.65976496980575,-0.0371456426393018,2.2819661789917e-05,-1.69391139451527e-15,-7.88327871802837e-05,3.41802185398956e-07,-5.40279259037598e-06,2.71638932583529e-07,5.84948756099379e-15,4.7161710300947e-15,2.26207941267376e-15,1.05384451165591e-16,5.43674984258457e-07,-1.43183762688098e-06,3.13540542135724e-05,-2.9222700954755e-07,5.65368903020712e-06,-2.29831586827202e-06,-5.66611817250601e-06,1.76515695315784e-16,-1.02753253474427e-15,7.86345561150801e-16,2.39244377988602e-16,1.7587518028695e-15,2.45545402375261e-16,2.85594605056159e-06,4.26773641784842e-06,-1.51652993308819e-05,7.21616894716588e-17,-4.56203969276645e-16,2.96286293097952e-15,-2.38401364716096e-07,5.20235226757992e-16,2.09142802685588e-06,-1.67779792464264e-05,3.07855169687023e-07,1.86802157506064e-16,1.59423811441641e-15,1.37868519415023e-16,1.37125854805123e-16,3.49844592380203e-16,5.28936556190288e-16,-9.97505999613864e-16,-6.03138702894576e-16,-5.83944307205081e-17,-1.80486409289034e-15,-2.45108569902391e-15,7.37733380378878e-16,3.49136533363801e-15,-1.79548314712794e-15,6.25289950153803e-16,-9.76186271319237e-15,-2.2946461083978e-15
"Psychotria_flava",0.086982211938688,-0.0532793456139403,-0.00158544493624139,0.268266765376837,0.0328159775183976,-0.0355222599822953,-0.151260443240136,0.00165896521206791,0.0101795641517422,0.00763388871040225,-4.69247057213331e-05,-0.0906668962874869,-3.77356086615858e-05,-0.00023501426975765,0.00434020664031525,0.000523137703748123,-9.36211945219706e-05,-0.0464726489173947,0.0005917895900903,0.000131686226904503,-1.01053523014598e-05,-0.00268152191601172,-0.000628680745946013,-1.41057207931081e-16,0.000145495732961787,0.195939429739535,-4.5088161287939e-16,-4.69516538345819e-05,6.68577528612982e-06,0.57738983966535,0.000172345955441261,-0.000529178369545886,-2.28434868077698e-16,-0.00211462859128276,8.14680454061355e-16,-1.27930773384332e-16,-3.5477196950608e-16,8.97946210974255e-17,0.000237686518105536,-1.02128775351699e-15,3.30757433837949e-16,0.00769857102220008,8.90784725508622e-06,3.48001376898437e-06,-9.53577420085003e-16,-5.15163444453568e-16,-3.69715746395195e-16,-3.26380058864597e-16,2.13912917285637e-07,7.28694281975714e-19,-1.27806784787146e-05,5.6836640359724e-08,-1.06305748015425e-06,5.45469864762782e-08,4.5102810375397e-16,-5.38197958421804e-16,8.60422844084496e-16,3.2612801348364e-16,1.16317049054386e-07,-3.47253300559715e-07,8.16261055976131e-06,-7.82361993289094e-08,1.61533188127491e-06,-7.54709830557207e-07,-2.02091747193942e-06,-9.11421731536843e-16,-1.11407559761349e-15,2.12306715138517e-16,-1.45381530621251e-16,1.42397158451302e-15,-1.7346107610003e-15,1.1180383103355e-06,1.68008258119632e-06,-6.07874371677368e-06,3.59216951447754e-16,1.99175140879502e-16,-9.8881737043741e-16,-1.01431236003592e-07,5.05222281414584e-16,9.05998633570977e-07,-7.30559930211121e-06,1.34336010619379e-07,-5.73309231056225e-17,1.31131663819048e-16,-1.93992464294013e-15,-4.3714359854711e-16,4.67324284602209e-16,6.81330018585178e-16,-1.29070670692659e-15,-9.77672679665964e-16,1.74284175645052e-15,-1.59368073273086e-15,-1.93090790024263e-15,3.69232044797839e-15,3.33745781528437e-15,1.45975710159025e-14,-0.707106781186546,-3.93109560472493e-13,-2.28380411295069e-14
"Psychotria_tenuifolia",0.086982211938688,-0.0532793456139403,-0.00158544493624139,0.268266765376837,0.0328159775183977,-0.0355222599822953,-0.151260443240136,0.00165896521206797,0.0101795641517422,0.00763388871040211,-4.69247057212518e-05,-0.0906668962874871,-3.77356086614381e-05,-0.00023501426975761,0.00434020664031513,0.000523137703748068,-9.36211945220321e-05,-0.046472648917395,0.000591789590090213,0.000131686226904659,-1.01053523014687e-05,-0.00268152191601124,-0.000628680745946008,-4.04735176160486e-16,0.000145495732961396,0.195939429739535,-4.09158695704416e-16,-4.69516538341774e-05,6.6857752860143e-06,0.577389839665349,0.000172345955441492,-0.000529178369546101,-2.47421166102193e-16,-0.00211462859128227,7.34188148657244e-16,-3.01355761372797e-16,-3.49947409539346e-16,1.40264449866055e-16,0.000237686518104745,-1.1193770445887e-15,2.51395608077956e-16,0.00769857102219995,8.90784725508857e-06,3.48001376920641e-06,-1.10536572471224e-15,-6.86250547206381e-16,-5.37983923799086e-16,-2.77807801320869e-16,2.13912917147492e-07,-1.08794920484999e-16,-1.27806784767023e-05,5.68366406421027e-08,-1.06305748126447e-06,5.45469850607438e-08,6.45317133063372e-16,-3.16153353496773e-16,1.2490009027033e-15,-4.5102810375397e-16,1.16317049099301e-07,-3.47253303442825e-07,8.16261056083077e-06,-7.82361993540403e-08,1.61533188090126e-06,-7.54709829477504e-07,-2.02091747158787e-06,-7.16097100282508e-16,-1.38093013725938e-15,4.51345025050772e-16,-1.71191981590446e-16,1.00139062437499e-15,-1.71569537987411e-15,1.11803830974293e-06,1.68008258106478e-06,-6.07874371503071e-06,-2.46123019288591e-16,1.65151913434069e-16,3.54921924271792e-15,-1.01431232592069e-07,5.1336315125506e-16,9.05998626867735e-07,-7.30559930186105e-06,1.34336009127703e-07,-2.2272682002444e-16,3.94809632090675e-16,1.80707806508812e-15,-6.82271431756199e-16,1.88094732940436e-15,9.01526629361547e-16,-1.55893734334763e-15,1.07772515769761e-16,-2.68417255424153e-15,-2.27729834948947e-15,-2.54661768775845e-15,-1.95035785027599e-15,3.8968365777075e-15,-1.53368172855532e-14,0.707106781186548,3.73379928396467e-13,1.76018325424644e-14
"Psychotria_loniceroides",0.0864868157086282,-0.0527019201360722,-0.00155590378286749,0.256788667414607,0.0313173237577093,-0.0334198368541933,-0.137386264745988,0.00146794770192924,0.00875701768992568,0.00652792369398324,-3.85549075040835e-05,-0.0727574434814116,-3.0000334303663e-05,-0.000180851984000102,0.00286092087549836,0.000340029957392786,-5.71676364065132e-05,-0.0273853374394167,0.000334706166556153,6.62980996324467e-05,-4.74274463697405e-06,-0.00120829354564378,-0.000226679729470984,-4.85480295244956e-16,4.19547114127102e-05,0.0330955678621693,-1.23258516755981e-17,8.16179824049648e-06,-1.70432996417919e-06,-0.23163864306378,-7.68564058740314e-05,0.000284946546487524,5.63093219666243e-16,0.00209774261641225,7.23194408389574e-16,-7.29122560794646e-16,-4.52899489694291e-16,3.24132587692675e-16,-0.000468286255349171,-4.30726931489e-16,-3.37072039184354e-15,0.912080553332739,0.00125879027933972,0.00173149037494839,-1.9201160517594e-14,-3.96059909577275e-16,-7.42082959842786e-15,-3.71464874472544e-15,8.88665036350893e-05,9.31762654412343e-16,-0.00011694624506073,5.02965131744042e-07,-7.54957932373734e-06,3.77299934831501e-07,4.28823643261467e-15,4.00352494211997e-15,7.13665238016858e-15,1.55669747925469e-15,7.41409179006847e-07,-1.88583690284919e-06,4.05279868565273e-05,-3.75009374374367e-07,7.13714612835008e-06,-2.80618913078127e-06,-6.79003395363948e-06,-1.40526946112319e-15,-6.25077633134975e-16,8.18282385635144e-16,-1.02009178165722e-16,1.3124556829182e-15,-2.28635822451381e-16,3.35425301221673e-06,5.00647919785105e-06,-1.77233962277702e-05,-2.40652964564265e-16,4.56516656981738e-16,2.25437551893547e-15,-2.75227246698084e-07,5.49526336590405e-16,2.40576350410503e-06,-1.92798489348924e-05,3.53610316363396e-07,-5.52439243789945e-16,-1.99277489140312e-16,-7.05119639627298e-16,2.81885800584324e-16,1.39493698058474e-16,9.35014417642175e-16,-1.33309444539295e-15,-6.16243881383075e-16,-1.57675347218824e-15,-1.96256621495941e-15,-2.01578174447031e-15,7.84554525238845e-16,3.65687878565969e-15,-4.31512125682027e-16,8.64383446438694e-16,-9.87197304011809e-15,-1.72154274836176e-15
"Palicourea_guianensis",0.0841284715580222,-0.0499509515453041,-0.00141499819336517,0.201837418094289,0.0241393295057424,-0.0233287132846045,-0.0704464371509031,0.000542779214118029,0.00183851457453398,0.0011443852302484,2.42572159158237e-06,0.0152338982533608,8.05567980654794e-06,8.68791581800113e-05,-0.00461611209944594,-0.000587341432032198,0.000129102505915267,0.0706390884944016,-0.000993222356131063,-0.00027698807710468,2.36849720889072e-05,0.00664514940022076,0.00198142897178887,-2.51574667296007e-16,-0.00054337531090964,-0.946291129877406,-3.10816656437888e-16,0.000619214860674856,-0.000292407442751238,0.179760544473322,-0.000307164006265011,0.00220630227853503,-1.11188555279847e-15,0.0201110021754625,-1.0646989773262e-15,-5.45116286992833e-16,-1.06480596247695e-15,2.196158600681e-17,-0.00692614744257298,-8.04720228185379e-16,-1.4707966035899e-16,-0.00767954227558275,0.000148299006795397,0.00117507613731113,2.27905728743207e-16,4.50063963723136e-16,7.12677525695139e-16,-3.37849657970915e-16,0.000198626287217985,-4.82104090987946e-17,-0.000444926651643258,1.91877881421168e-06,-2.9202031862542e-05,1.4610472568715e-06,-1.3392065234541e-15,-4.51244944188467e-16,1.59594559789866e-16,-6.70036942596042e-17,2.87864703378064e-06,-7.33077361420145e-06,0.00015723125956767,-1.45289475433646e-06,2.75264594907396e-05,-1.06425018789286e-05,-2.53612841034874e-05,-6.8161480131311e-16,-8.02176613589112e-18,8.08898910327788e-16,1.02120249163518e-15,1.35632134455979e-15,-5.60280789779342e-16,1.22465199689946e-05,1.8250147315211e-05,-6.42691715527865e-05,-1.12521893057696e-16,-1.76717406595549e-18,1.55321412292991e-15,-9.78944544552298e-07,1.28238915140795e-15,8.50183043860398e-06,-6.80045018569828e-05,1.24626889355811e-06,9.32906009800643e-16,3.53351193317171e-17,-1.47467453755018e-16,1.34938147144174e-16,4.70154211296856e-16,4.86353695912823e-16,-1.17295260483852e-15,-9.95612751016714e-16,5.10778542269144e-17,-2.27060055443251e-15,-2.99504055041514e-15,9.82271352888038e-16,3.61256607824983e-15,-1.8008106157868e-15,7.83424755956657e-16,-9.5755987561993e-15,-2.06959679646545e-15
"Coussarea_contracta",0.0812850425147749,-0.0465402584184615,-0.00123260106839134,0.119951621485701,0.0132529946331713,-0.00666252877497697,0.0682644099803242,-0.00177250365449342,-0.0199937457796792,-0.0167890960282218,0.00021203399909928,0.649259740890542,0.000332498209588608,0.00587878496418412,0.0285962710235309,0.00319195302626836,-0.000437637402802093,-0.193135984839067,0.00218676505980077,0.000370329560969247,-2.46705231544228e-05,-0.00605667078928813,-0.000947680874753496,8.95242653245913e-17,0.000144030565165957,0.0375170965119465,1.1375041325897e-16,0.000159815392479592,-8.57092784515345e-05,0.00117890452142235,-0.000130021329817869,0.000918352261361798,-1.73852065271191e-16,0.00990512698750225,1.48321403677065e-16,-1.75141468475117e-16,-2.60865816245903e-16,-1.32323040669594e-17,-0.00424655174469008,3.87496313159948e-16,-1.20187827222088e-16,-0.000430582603800045,0.000104271483200469,0.000787691712106825,-3.27360735833209e-16,-3.49948368475124e-17,-4.08851863960215e-16,5.67971290942473e-17,0.000134719177037664,1.30370005502401e-16,-0.000326574503588576,1.41167554092526e-06,-2.18618683423179e-05,1.09637498897815e-06,-2.81719092498633e-15,-1.65199885021616e-15,-1.01307850997046e-15,8.75167993630299e-16,2.17682904637743e-06,-5.63891438215656e-06,0.00012226568151426,-1.13495941191813e-06,2.17458649326312e-05,-8.64125141177547e-06,-2.09828888224105e-05,1.40281853541606e-16,-1.29351457528458e-15,5.08282500778259e-16,7.35063940543428e-16,2.45546441674897e-15,-5.62249582120438e-16,1.03764044274032e-05,1.54868563556177e-05,-5.48116515588e-05,-0.707106781186548,1.27965717856033e-13,-2.16353619879641e-14,-8.49596598953746e-07,3.25800897449856e-15,7.41964659928878e-06,-5.94441258690542e-05,1.09012521781266e-06,-5.34430771931062e-16,1.98541941819395e-15,-7.86263602417897e-17,-2.63734916938785e-15,6.30933625465491e-16,5.90597929064166e-16,-1.4812991875935e-15,-8.60767368976411e-16,-1.10352472907447e-15,-2.11988211930649e-15,-2.08081250939148e-15,1.00070885780014e-15,3.21946601994908e-15,1.41841660413823e-15,6.55340011149913e-16,-1.01418662476678e-14,-1.49176134663049e-16
"Coussarea_suaveolens",0.0812850425147749,-0.0465402584184615,-0.00123260106839135,0.119951621485701,0.0132529946331713,-0.00666252877497702,0.0682644099803242,-0.00177250365449351,-0.0199937457796791,-0.0167890960282218,0.000212033999099218,0.649259740890542,0.000332498209588601,0.0058787849641842,0.0285962710235308,0.00319195302626847,-0.000437637402802354,-0.193135984839067,0.0021867650598009,0.000370329560969132,-2.46705231549305e-05,-0.00605667078928835,-0.000947680874753547,4.07846023167645e-16,0.000144030565165362,0.0375170965119464,-4.98301146763039e-17,0.000159815392479265,-8.57092784514928e-05,0.00117890452142221,-0.00013002132981812,0.000918352261361992,1.56749226285981e-16,0.00990512698750163,-7.34760304115202e-18,-2.92422506855924e-17,-2.1679084178871e-16,-9.81789940550577e-17,-0.00424655174469073,2.67059466309595e-16,-5.89031785679332e-17,-0.000430582603799717,0.000104271483200463,0.000787691712105854,-1.00979322218969e-16,-3.60038648158436e-16,-5.67029983374041e-17,-3.03157992170917e-16,0.000134719177037753,-3.53735800162037e-16,-0.000326574503589403,1.41167554153446e-06,-2.18618683447691e-05,1.0963749905394e-06,-4.71844785465692e-15,1.60234239071633e-15,-1.52655665885959e-16,1.17007098454636e-15,2.17682904619763e-06,-5.6389143801368e-06,0.000122265681515156,-1.13495941234165e-06,2.1745864932821e-05,-8.64125140722079e-06,-2.09828888227085e-05,-1.17265993150114e-15,-3.7342794508243e-16,5.49834683494739e-16,-6.43370706007594e-17,5.79242007265589e-16,-6.99850910434306e-16,1.03764044284667e-05,1.54868563584634e-05,-5.48116516039683e-05,0.707106781186548,-1.27805087557701e-13,2.66489312423743e-14,-8.495965735016e-07,-2.05571072880485e-15,7.41964659201435e-06,-5.94441258700653e-05,1.09012521817524e-06,2.28439676438218e-16,-1.28843746183193e-15,1.71173820304536e-16,2.31339959859692e-15,6.49887083339274e-16,5.12603950635455e-16,-1.15706253738662e-15,-4.50020412082828e-16,-2.10572800655647e-17,-1.8609479748695e-15,-2.25949926438567e-15,7.12378958636491e-17,3.57203874216489e-15,-3.52207585544371e-15,1.08555269454508e-15,-9.3281239976987e-15,-4.34720694652687e-15
"Pavetta_australiensis",0.0352924265979499,0.199748929414112,-0.0248696235523726,-0.0321205081597501,0.00437549998019485,-0.155843404119096,-0.000239559258216551,0.000601278539308457,0.00340487858897001,0.00250067218834612,-9.90468496749858e-06,-0.00267948366853655,3.6012966077363e-06,0.000345679055997316,0.0556631876078425,-0.00768196068697367,-0.00281437497494644,0.00228657894974717,0.000232716299584312,-0.0118349386491903,-3.10190354218271e-06,-3.98368050241564e-06,1.93029111147895e-05,3.34934605149208e-16,8.17288760603174e-10,-8.34166145751462e-06,-2.31806784445028e-17,-0.000466839090397845,0.10241572422128,-2.57020157725333e-05,0.129990087019577,1.95135442824712e-05,7.93487172804025e-17,4.40876748126926e-05,3.31676803381869e-16,-6.42360770265119e-16,6.05642538332693e-16,-5.4112953536799e-16,5.48759752681727e-05,1.53738374291731e-15,-6.44873122587027e-15,2.95046740780222e-05,-0.000177909956239246,-8.21683734375626e-05,1.62251660304111e-14,1.47297317048398e-14,-1.36982995276981e-16,4.84646736609886e-15,-0.574925009060971,-2.34451006480426e-16,-8.99833559179618e-06,-0.749180936242935,-7.58332380710637e-07,3.72941760824058e-08,3.5377950569071e-14,7.33961502685787e-15,3.70502239999126e-14,-1.22356551973679e-14,1.33560565311752e-06,-1.64882769802929e-07,3.40386231355316e-06,-5.8197270438469e-07,1.06400642405272e-05,-2.09435931793739e-07,-8.90949266125464e-06,-8.16600891965973e-16,-2.59535714016924e-15,5.34753692745973e-16,6.40749611070314e-16,-9.69828131402428e-17,-1.8759984250175e-15,0.0190385291360526,5.53447284865335e-06,-1.17806916130408e-06,3.02916557792016e-16,8.32941202574054e-16,2.05983887656911e-15,-1.82038811367167e-08,8.04248890658554e-16,1.58337976390975e-07,-1.26853599568234e-06,0.00143598889572011,4.58381140091057e-17,7.28973807963119e-16,4.50657634191164e-16,-1.04506969865756e-15,4.0432099352596e-16,1.23242100626838e-15,-3.94543924450889e-16,-5.96946553914868e-16,-9.05212823793705e-16,-2.23194406021193e-15,-2.13319748980622e-15,8.61275794640602e-16,3.50661415566438e-15,9.32279664925016e-18,8.60835853165307e-16,-1.03784635362252e-14,-2.5920545285221e-15
"Atractocarpus_sessilis",0.0356270203069013,0.203380118087126,-0.02565602332475,-0.0345408502945397,0.00472900479225157,-0.172514800355196,-0.000281459451800323,0.00073873504315283,0.00439228031269665,0.00325963188235528,-1.38505498023355e-05,-0.00390810149549913,5.34151963200995e-06,0.000543991764223085,0.117939592700259,-0.0167478087778463,-0.00699452734366151,0.00614316154316383,0.000686317624441832,-0.0466121876476707,-1.48984675691837e-05,-2.1714063909899e-05,0.000283370186984622,6.63366033121037e-16,-4.16573768191481e-08,5.44430690549652e-05,-6.66685388975923e-16,0.00132096736428097,-0.387712421929529,-1.67608400635655e-05,0.00399370324802023,-7.16914799493793e-06,9.62478548943688e-16,-2.14170082597891e-05,1.06829841431144e-16,-1.65294922111377e-16,-2.61278871709586e-16,-1.41542022419505e-16,-1.42120923249727e-05,3.6626355897624e-16,-7.92291695433297e-17,-4.82935449456015e-06,2.89179143997719e-05,1.28828565882314e-05,-2.35352670785283e-15,-1.80369185090747e-15,-3.57795561619107e-16,-7.08477899673384e-16,0.074969910077624,1.01875712698899e-16,1.6864875088422e-07,0.0115274908631804,-7.45200872710738e-09,4.94739175842251e-10,1.17267306976032e-14,4.45769723217415e-15,-6.72552291636208e-15,2.16840434497101e-16,3.28542269577866e-08,-8.28556462323512e-09,2.28444653576395e-07,-4.32739005414085e-08,9.87350209733581e-07,-3.03619191895755e-08,-1.79524815594594e-06,1.09038014488261e-15,-1.90822847123929e-15,5.91896271797596e-16,1.36551006481223e-15,-2.72387012826699e-15,-7.60160194211221e-15,0.224469758603183,-6.57541906547562e-06,1.58976328825668e-07,-2.23311088834062e-17,1.73228551576932e-15,5.35882071489722e-15,-7.09126607775485e-10,1.13553551847408e-14,-2.43508815346245e-08,1.10613392916068e-06,-0.832320430073611,6.94412710203299e-14,-3.69643937765514e-14,1.93830954970579e-14,-4.11972938203807e-15,1.37289262572997e-15,1.6792557720401e-14,1.1237650432979e-15,6.45307514269105e-16,-1.49629129285663e-15,-1.79836241694067e-15,-2.81710422100041e-15,1.84604303365352e-15,4.95564719920902e-15,-5.01921071197303e-15,2.17769053460599e-17,-1.35650629920992e-14,9.04671549671676e-16
"Tocoyena_pittieri",0.0356325731146698,0.203440257027802,-0.0256690074263071,-0.0345804375080131,0.00473478031211352,-0.17278577037485,-0.000282132219233179,0.000740923265773661,0.00440786115305923,0.0032715862787551,-1.39119817624732e-05,-0.00392710541684197,5.36836968514783e-06,0.00054702589798879,0.11886036630238,-0.0168814908848572,-0.00705548009828951,0.00619906664194333,0.000692851361554492,-0.0471052572748794,-1.50643597192582e-05,-2.19623298369064e-05,0.000286998398293979,8.62475795067544e-17,-4.22335473293648e-08,5.5281861806044e-05,-6.19268976302613e-16,0.00134637603923653,-0.395474107753092,-1.71185089943528e-05,0.00408045320270964,-7.33032636652219e-06,1.45370681903097e-15,-2.19684272287765e-05,8.47783928572737e-17,-6.18135174114041e-17,7.17773671190896e-17,2.36032374185228e-16,-1.46955298368314e-05,1.05559451338734e-16,3.65331198038718e-16,-5.02098479219969e-06,3.00678049990181e-05,1.34006721331185e-05,-2.51074245237964e-15,-2.06199925978885e-15,2.52569940361704e-16,-9.94199039794406e-16,0.0781439579796823,9.36649472211886e-16,1.78138439307311e-07,0.0121831139620167,-7.91381687612058e-09,5.25787156868684e-10,-1.45231049408778e-14,3.29358935957647e-15,5.82173198537816e-15,6.21031004399697e-16,3.50055702591887e-08,-8.88831267555111e-09,2.46381457742262e-07,-4.67913338055955e-08,1.07542911777978e-06,-3.39833494132272e-08,-2.08005888562345e-06,-9.41959703330938e-16,-4.93989931876527e-15,-2.73602386074382e-15,-2.48104065440874e-15,-4.36609919354933e-17,-1.36708773023195e-15,0.289014134818852,-8.57471474620697e-06,2.18687037879513e-07,-2.7574755808416e-15,1.42999403980408e-16,-6.0136832013628e-15,-2.53332968910669e-09,-4.06771365682147e-15,4.22265534686704e-08,-7.77100617888157e-07,0.390693090627105,-3.04011837784466e-14,2.25748479382248e-14,-3.16123482658728e-14,0.707106781186547,4.2806557257534e-15,1.31106867042442e-14,-6.95558357800208e-15,-5.78172626815248e-16,-5.16474779110364e-15,-2.30599936482868e-15,-2.4505973706729e-15,-5.64202503809186e-16,2.67893580352757e-15,1.03761974612758e-14,1.54868973737113e-15,-7.60774306807686e-15,-2.84815367762399e-15
"Randia_hebecarpa",0.0356325731146698,0.203440257027802,-0.0256690074263071,-0.0345804375080132,0.00473478031211349,-0.17278577037485,-0.000282132219233362,0.00074092326577364,0.00440786115305934,0.00327158627875515,-1.39119817625248e-05,-0.00392710541684171,5.36836968526998e-06,0.000547025897988822,0.11886036630238,-0.0168814908848573,-0.0070554800982896,0.00619906664194363,0.000692851361554368,-0.0471052572748793,-1.50643597192181e-05,-2.19623298370903e-05,0.000286998398294028,2.56250480169371e-16,-4.22335473623322e-08,5.52818618054447e-05,-5.79957761685426e-16,0.00134637603923683,-0.395474107753091,-1.71185089948146e-05,0.00408045320270836,-7.33032636747975e-06,9.9153468443688e-16,-2.19684272287334e-05,9.86088164545829e-17,-1.1638479741127e-16,-1.75034605443193e-16,-1.4794734922393e-16,-1.46955298369147e-05,-3.33028671148184e-17,-9.18259151541789e-17,-5.02098479142143e-06,3.00678049984772e-05,1.34006721356928e-05,-2.18461443904647e-15,-2.5789468556128e-15,7.90975926916597e-17,-6.33376556717757e-16,0.0781439579796837,-1.09177676028903e-15,1.78138435990519e-07,0.0121831139620171,-7.9138181632854e-09,5.2578758361066e-10,-9.85322934354826e-15,1.37845464209807e-15,3.35148575558719e-15,-1.96197225132977e-15,3.50055695640145e-08,-8.88831347742704e-09,2.46381456423873e-07,-4.67913319952558e-08,1.07542911720046e-06,-3.39833447902434e-08,-2.08005888420997e-06,1.81090437233459e-15,-5.89799144376993e-15,-1.58077932480376e-15,-3.09012677713241e-15,-1.0624003559224e-15,-5.05154629608367e-16,0.289014134818845,-8.57471474808889e-06,2.18687026612267e-07,2.14832269750376e-15,-8.59944554089596e-17,9.04394020832722e-16,-2.53332163580372e-09,-3.38349779031505e-15,4.22265994884312e-08,-7.77100624096319e-07,0.39069309062711,-3.67767442094872e-14,1.47445230079556e-14,1.46900233930492e-14,-0.707106781186548,-4.00265014759073e-15,-2.36907150451846e-14,2.51009649098597e-15,-1.39342695945708e-15,4.52194809875449e-15,-6.27278659907685e-16,-2.08018630499008e-15,8.01987790079031e-16,3.31417662499561e-15,-7.38043203882285e-15,1.11856991394021e-15,-6.2821706904443e-15,-3.11183164597278e-15
"Rothmannia_urcelliformis",0.0355943202530013,0.203025818718059,-0.0255794820797683,-0.0343070434385979,0.0046948863169154,-0.170912414977217,-0.000277471405220932,0.000725741741043001,0.00429960389842205,0.00318850070252108,-1.34841863948003e-05,-0.00379462403617998,5.18111308044086e-06,0.000525835798222313,0.112393262647583,-0.0159421495360769,-0.00662638566058743,0.00580511947738175,0.000646760732163458,-0.0436176177390161,-1.38892817129386e-05,-2.02024242872707e-05,0.000261188424214541,3.02928660257977e-18,-3.81240419474917e-08,4.92749628414476e-05,-6.95719021978451e-16,0.00116261082216236,-0.339224654321482,-1.4517577797233e-05,0.00344899105757683,-6.15477338958715e-06,7.32627124138561e-16,-1.79123309060858e-05,-1.20761984316394e-16,-1.8530418009307e-16,-4.77701272817416e-17,3.33015713903799e-16,-1.10614270286879e-05,7.93908805363347e-16,2.19395262162145e-15,-3.55864148604554e-06,2.12909583142615e-05,9.44377021816316e-06,-1.47115430728859e-15,-1.48345679984455e-15,-2.85394907645782e-16,-5.41702043903484e-16,0.0537500753818892,-1.05684550872517e-15,1.02404296218987e-07,0.00694211212824628,-4.17000343283513e-09,2.73564509586932e-10,6.38378239159465e-16,1.20911852578842e-14,-2.42514341941558e-15,3.68433582254024e-15,1.7394721904708e-08,-3.85303039636669e-09,9.40743396975544e-08,-1.66874732878443e-08,3.04238016326243e-07,6.94980137823961e-10,1.01281352477487e-06,-4.29951539984589e-15,1.03920448315897e-14,7.87175694563308e-15,6.05035943610703e-15,1.16444987815883e-14,7.94394853523247e-15,-0.884058956552523,3.09296208680257e-05,-1.6305193629678e-06,6.63290111879322e-16,-1.91489409118895e-15,6.85907751548785e-15,-1.03024504573511e-08,-2.02154207997959e-15,8.3301670632294e-08,-7.01509559709229e-07,0.0442056565378279,-1.88439569805041e-15,2.92555761896941e-16,-2.09584018687884e-15,4.29718956398628e-15,6.13703283911967e-16,-4.77681509933328e-15,-1.46396712337049e-15,-1.02738519703244e-15,-8.43082622133393e-16,-2.78289595339714e-15,-1.75567626967337e-15,9.78645455014972e-16,3.16580586509521e-15,-3.18248317130628e-15,5.16921864576384e-16,-1.11920232624007e-14,-2.82828911038243e-15
"Gardenia_ovularis",0.0355843102404377,0.202914867780883,-0.0255546887545286,-0.0342233370345388,0.00468252996942614,-0.170300588427509,-0.000275753691889556,0.000719669376785262,0.00425259787809529,0.00315181813868814,-1.3274326054893e-05,-0.00372576046069888,5.08160257370014e-06,0.000513711712433986,0.107413648328901,-0.0152017394459153,-0.00625313018924882,0.00544398233055888,0.000602007077005115,-0.0396906206604808,-1.24557750178713e-05,-1.79594467913211e-05,0.000220624460809546,-2.84627068934946e-16,-3.04726840447596e-08,3.43204021943466e-05,2.08385048326379e-16,-0.000176497152982567,0.272981099876492,0.000109575611217235,-0.391133391040123,-3.9271353412901e-05,-8.307754816416e-16,-4.09749383456028e-05,1.47232193746593e-16,-1.05478532259347e-16,-4.424528717235e-16,-4.8316029896389e-16,-1.94300195670749e-05,6.26445966156697e-16,1.07495735854594e-15,-6.17177431922651e-06,3.69292372848969e-05,1.63914800011319e-05,-2.65919091694386e-15,-2.25702475035336e-15,-5.79693785392306e-17,-1.01207031358987e-15,0.0938261152708788,-4.508799582131e-16,1.97154402986014e-07,0.0134468403784934,-8.54735961782621e-09,5.66098069462728e-10,-8.79851747015437e-15,-2.87140103361061e-15,1.60635393875452e-15,8.38738800634786e-16,3.72863664181338e-08,-9.21456897644366e-09,2.50233839878321e-07,-4.70654243131711e-08,1.05242372778402e-06,-2.9850879920866e-08,-1.5375057254687e-06,-2.91627305950889e-16,-2.65850520382011e-15,6.01560455572332e-16,-1.73616642304829e-16,2.46087257695775e-15,-9.8409492203596e-16,0.00995980816804692,9.56861100831505e-07,-2.46238689617683e-07,-2.66329855847599e-16,-9.57752025460456e-16,-3.94880795913137e-15,-4.38869746935778e-09,2.6679008515404e-15,3.95743630399214e-08,-3.20744181821965e-07,0.000835329621144085,-2.80841721726491e-16,1.38704854276972e-15,9.51374762943577e-16,5.50811181201275e-15,-4.83035660179439e-15,0.0144862402842615,0.816368063748877,5.37645661909117e-15,-3.20700420170676e-15,4.8730744440097e-16,-2.71896992276245e-15,9.87345184769699e-16,5.33236314481108e-15,2.27624136019392e-15,9.92826695192354e-16,-1.0562952314999e-14,-3.06948406893506e-15
"Gardenia_ternifolia",0.0355843102404377,0.202914867780883,-0.0255546887545287,-0.0342233370345388,0.00468252996942617,-0.170300588427509,-0.000275753691889612,0.000719669376785277,0.00425259787809533,0.00315181813868806,-1.32743260549249e-05,-0.00372576046069887,5.08160257384023e-06,0.000513711712433955,0.107413648328901,-0.0152017394459154,-0.00625313018924885,0.00544398233055906,0.000602007077005001,-0.0396906206604805,-1.24557750178976e-05,-1.79594467913367e-05,0.000220624460809538,-2.325853645932e-16,-3.04726840624375e-08,3.43204021940968e-05,1.29110748028681e-16,-0.000176497152982533,0.272981099876492,0.000109575611217081,-0.391133391040123,-3.92713534139158e-05,-1.00443664373771e-15,-4.09749383442383e-05,-1.28984447431569e-16,-1.70026104413477e-16,-2.4166714107029e-16,-4.24191774742426e-16,-1.94300195677246e-05,4.84991426366698e-16,8.61872515678566e-16,-6.17177431967614e-06,3.69292372846692e-05,1.63914800013296e-05,-2.72857985636222e-15,-2.60917361593018e-15,-2.52258408032121e-16,-5.74919997463396e-16,0.0938261152708781,1.31663820630244e-16,1.97154402371055e-07,0.0134468403784929,-8.54736172898468e-09,5.66097334807336e-10,-3.99680288865056e-15,1.68040494713528e-15,6.01949046163952e-16,-7.13405029495462e-16,3.72863653499779e-08,-9.2145715298482e-09,2.50233838980981e-07,-4.70654240647223e-08,1.05242372726355e-06,-2.98508791842319e-08,-1.53750572638172e-06,2.28835535930134e-16,-3.36299561296794e-16,7.51359968622555e-16,1.13803770089847e-16,2.06649116228051e-15,7.22327443707798e-16,0.00995980816804356,9.56861097818158e-07,-2.46238687858348e-07,-6.12020966176935e-18,-4.36467961962333e-16,4.93818862845223e-16,-4.3886958799644e-09,-2.44051604950003e-16,3.95743688860039e-08,-3.20744189475453e-07,0.000835329621153246,-9.44140733902324e-16,2.44733133600572e-16,9.00569586170216e-15,-2.08916725255284e-14,-8.22110566660043e-15,0.699752361902713,-0.420729483965937,-4.02956617882257e-15,-5.47949195523144e-15,-3.38275452759535e-15,-3.32087990850834e-15,2.09310992072733e-16,1.06226156363033e-15,-2.42832870665515e-15,7.84999018827189e-16,-9.12811802240122e-15,-1.16128824536052e-15
