"","c1","c2","c3","c4","c5","c6","c7","c8","c9","c10","c11","c12","c13","c14","c15","c16","c17","c18","c19","c20","c21","c22","c23","c24","c25","c26","c27","c28","c29","c30","c31","c32","c33","c34","c35","c36","c37","c38","c39","c40","c41","c42","c43","c44","c45","c46","c47","c48","c49","c50","c51","c52","c53","c54","c55","c56","c57","c58","c59","c60","c61","c62","c63","c64","c65","c66","c67","c68","c69","c70","c71","c72","c73","c74","c75","c76","c77","c78","c79","c80","c81","c82","c83","c84","c85","c86","c87","c88","c89","c90","c91","c92","c93","c94","c95","c96","c97","c98","c99","c100"
"t42",0.0415890968778646,-0.033892617941621,-0.12846724409387,-0.135335647152302,0.0968345487027493,-0.447004976015803,-0.120619070289571,0.0179703857441929,0.000959322634611076,0.00241839468663476,-0.000799090721694941,0.0172926396070303,0.0110373774852146,0.00989201075661564,-0.000752549804317624,0.0398784828201618,-0.012160499414592,0.00715037375953076,0.170801129501515,-5.35111112782191e-05,-3.57086218946245e-05,1.80553183375106e-05,1.00851511391621e-05,-0.000241207939940433,4.98698977584839e-05,-0.000258553668646992,-7.72934825046055e-05,3.17450462145906e-05,-7.74246464169684e-05,0.000187972619669142,0.000471531589618476,3.44114269155713e-06,0.000441767817047435,0.000204426691453137,-1.52373511455877e-05,-7.54338849915862e-06,5.96242471398463e-17,0.000134640396360646,-8.50581156509361e-16,-0.000140686534421254,1.12036602135719e-05,-5.8276753813723e-05,0.000121653418717013,-0.00037805702845515,-0.00102421113075305,0.000324144525023919,-0.000653703141143368,-0.00162102653877255,0.834711156410305,1.68928195837739e-14,-1.22920391795569e-14,-1.09484678237303e-06,-0.00036375557713235,-0.000101684470657502,-1.30374291072282e-15,-6.96285453548954e-05,-1.50703633024894e-06,0.00166481275716724,0.000225709571479935,-6.01744711741543e-16,-6.99558631572297e-05,8.26785249193251e-05,-4.09457396628462e-06,-3.96376206506185e-16,1.51969054130411e-15,-3.28837745058555e-05,1.70056491779577e-16,7.83062192635108e-05,4.18087917214559e-06,-1.84694001346319e-05,9.69253753867838e-16,-1.12298268019267e-05,-1.30011313696652e-15,-9.41106423115017e-16,-2.23612656202699e-05,8.39172723975921e-16,0.000165539856150168,2.36435106003903e-05,-5.70327035944034e-05,1.53971367454337e-15,-1.12974986343615e-05,-1.07324363859818e-05,-4.00271492809104e-16,1.6736938650257e-15,-1.26045815931064e-15,-1.7458202452951e-15,4.31221018303915e-16,-3.74583100597154e-16,-3.09344603327292e-06,-1.37447078000582e-15,-1.25866611339707e-15,-7.10234697132663e-16,2.02818150802572e-16,-2.9597544885616e-15,2.24546644386068e-16,-7.93495222015032e-07,-6.89481636546951e-15,7.72466724610898e-13,3.53966442314698e-14,-0.0999999999999998
"t111",0.0418243877391468,-0.0346093059338074,-0.131542887071863,-0.139636686510887,0.101003188889079,-0.468239771423152,-0.12661073282714,0.0192786906581973,0.00103427886887164,0.00263125571530728,-0.000880972349333254,0.019662784467509,0.0125522932628972,0.011891860934707,-0.000912425272336179,0.0493193713375824,-0.0153932445278103,0.00914405617712524,0.22339951011291,-7.17956607530829e-05,-5.1343310399712e-05,2.66169864825919e-05,1.51491562748426e-05,-0.000373402662109722,8.36551552598797e-05,-0.000475520768413887,-0.000155382147426277,7.44051537850032e-05,-0.000186451387882879,0.000528147271212805,0.00137317811867996,1.13563755632161e-05,0.00198572846526989,0.00116576180761273,-0.000121157236339148,5.2464010339419e-05,-1.21402722330641e-16,-0.000353087648616415,3.99368820076978e-16,0.000353328936446672,-2.59118771189632e-05,8.97594830019014e-05,-0.000162885002506108,0.000415491247382063,0.000874445302204504,-0.000207051130130069,0.000376842426361435,0.000796222749865748,-0.388630175109596,-8.03973972001106e-15,6.09596000598026e-15,3.02170075631387e-07,9.52530236147817e-05,6.63716412975698e-06,2.41984495846687e-15,7.5659483930576e-07,1.60606035130029e-08,2.92515027568738e-06,3.60770708189097e-06,4.00476744816454e-16,-5.43694872000673e-06,8.70550291108512e-06,-4.70892456389059e-07,-5.69251092958055e-17,-1.22944403069626e-15,-4.96363792160509e-06,-3.65662853952448e-16,1.55328487340918e-05,9.1398224622495e-07,-4.30119566858054e-06,-5.68406677861778e-16,-2.97308921902968e-06,-6.87538811312456e-15,1.86183784923293e-15,-6.56073609421095e-06,-7.42104309986877e-16,5.65154659153876e-05,8.40195894480948e-06,-2.20561872600272e-05,2.30122659605679e-16,-4.55605961074031e-06,-4.55653574718469e-06,2.29257854389436e-14,4.04800579529961e-15,-5.19338748018148e-15,-8.97964809283359e-16,2.67657271447564e-15,1.03705077500117e-14,-1.4524685773218e-06,2.14284836269121e-14,1.96939340162449e-14,7.10951375424906e-15,1.5424546538985e-14,5.97459943993023e-15,2.77970588048078e-14,-3.91335998383342e-07,9.36447573186359e-14,0.707106781187311,1.01134173558412e-12,-0.0999999999945783
"t112",0.0418243877391475,-0.0346093059338073,-0.131542887071863,-0.139636686510887,0.101003188889079,-0.468239771423151,-0.126610732827139,0.0192786906581987,0.00103427886887166,0.00263125571530794,-0.000880972349332118,0.0196627844675087,0.0125522932628972,0.0118918609347053,-0.000912425272334636,0.0493193713375817,-0.0153932445278102,0.00914405617712799,0.223399510112907,-7.17956607525398e-05,-5.13433103998462e-05,2.66169864820214e-05,1.51491562730992e-05,-0.000373402662111763,8.36551552682144e-05,-0.000475520768417477,-0.000155382147426544,7.44051537862542e-05,-0.000186451387885041,0.000528147271213673,0.00137317811868174,1.13563755623601e-05,0.0019857284652694,0.00116576180761093,-0.000121157236339948,5.24640103312128e-05,2.66234599457728e-16,-0.000353087648622851,9.46412551509025e-16,0.000353328936443229,-2.59118771197804e-05,8.9759483000171e-05,-0.000162885002508083,0.00041549124738669,0.000874445302198862,-0.000207051130138332,0.000376842426352953,0.000796222749866054,-0.388630175109585,-7.56759676224761e-15,5.81975860009349e-15,3.02170079481114e-07,9.52530236138871e-05,6.63716412894843e-06,-7.58753438411974e-16,7.56594854235647e-07,1.60605983096762e-08,2.92515028875402e-06,3.6077070545823e-06,-5.65264939370304e-17,-5.43694871859275e-06,8.70550291378327e-06,-4.70892460948642e-07,2.56296076345005e-16,-3.65317373190084e-16,-4.96363792487142e-06,3.82258072845365e-16,1.55328487285026e-05,9.139822408483e-07,-4.30119566186427e-06,-4.34366236425922e-16,-2.97308922426451e-06,4.87132893915995e-15,-5.92949362828918e-16,-6.56073609664877e-06,-5.75583117009675e-16,5.65154659073505e-05,8.40195897308469e-06,-2.20561872721418e-05,-1.5041841010658e-15,-4.55605961484709e-06,-4.55653579452999e-06,-2.26984198744514e-14,-4.95532184753366e-15,4.50305595227243e-15,-8.00799788115309e-16,-2.00752225698927e-15,-1.12014111390446e-14,-1.4524685834013e-06,-2.13136041273516e-14,-1.86643141694566e-14,-6.80002787276256e-15,-1.47149371325049e-14,-1.10339429730717e-14,-2.70596888406879e-14,-3.91335903221737e-07,-1.05716021605614e-13,-0.707106781185785,-9.42027946680872e-13,-0.100000000005421
"t12",0.0401457399048158,-0.0292829587669167,-0.108513494578363,-0.106743714545423,0.068123534125132,-0.298669768494666,-0.0784739762782307,0.00805131049878692,0.000380926535724583,0.000720676778530369,-0.000113067555398397,-0.00516054062132645,-0.00332404726573499,-0.0145726592212712,0.00129139496207176,-0.0947653884910005,0.0409887351111968,-0.0279409979503647,-0.922571185981353,0.000421513203247028,0.00111619525664385,-0.00169484748416402,0.00387885329876726,-0.0120607862125463,0.000985685655876659,-0.00374077718901749,-0.000991143985899216,0.000384759638587974,-0.000938997416724695,0.00236556401734585,0.00602090330306525,4.67734202406124e-05,0.00736737534658501,0.00410450377451854,-0.000405670411376208,0.000140235580249336,4.02918897729487e-17,-0.000794662442941603,3.74019504603093e-16,0.000785723414838831,-5.62351779694269e-05,0.000166429800912001,-0.000280461799274681,0.000627551308016386,0.00103998222459581,-0.000151438710611615,0.000204003000776163,0.000166722854098772,-0.0340866184049647,-6.42695199445336e-16,1.36899179055502e-16,-4.43802941260938e-07,-0.000159168749181444,-8.81347908760262e-05,5.76494867360653e-18,-6.8109941673284e-05,-1.47480240136074e-06,0.00167065964476356,0.000232886322426224,-7.20284676239513e-17,-8.05341138216906e-05,9.94354868431055e-05,-4.99744637712138e-06,-1.66891164004469e-16,-6.35152365299265e-17,-4.22583072892933e-05,4.97197130593167e-17,0.000107015815892165,5.85363171562933e-06,-2.62848877729149e-05,-1.7392636313219e-16,-1.65416478396016e-05,1.95143988802029e-15,-2.85393396721622e-16,-3.38944754701222e-05,3.05446597545583e-17,0.000261988941877088,3.78500725067124e-05,-9.35150262896821e-05,8.37137517876002e-17,-1.87411622805739e-05,-1.80539644975692e-05,-1.93109085472648e-16,1.21289182458529e-15,-6.35648482107988e-16,-1.00927788282436e-15,5.04265818409811e-16,-2.11455599658712e-16,-5.33913980438071e-06,-6.55621810423157e-16,3.33728090483264e-17,-3.9473011802131e-16,3.40980275660107e-16,-3.04356385844164e-15,5.28015116870792e-16,-1.38520357469458e-06,-6.18133765606116e-15,7.6813555516253e-13,3.47684857031899e-14,-0.100000000000004
"t15",0.083683873674132,-0.0208465661107707,-0.0976357919292522,-0.266775812322439,-0.0560469892770558,0.114066463412009,0.020692737644907,0.0147249561396409,0.000104832819849702,0.00030782994964812,-0.000104143026709933,0.00145696344039271,0.000925345883200688,-0.00623048345141531,0.000238220442648121,-0.0779492539272219,0.329296613006749,0.00656083977155866,0.0304560545375161,6.77554397887822e-05,5.96256533748398e-05,-0.000433530332190765,0.000212573871310621,-0.000622501974812993,0.00013251427109161,2.22396650371143e-05,5.73778954112386e-05,-7.43775383502492e-05,0.000211809043341445,-0.00122111750813367,-0.0129401313905146,-4.63416896542235e-05,-0.876292851117858,0.011542728907922,-0.000630539205329066,9.74226674822053e-05,3.41758562788418e-16,-0.000460924276554992,-2.82680893067065e-15,0.00168277118830269,-3.14647210885635e-05,8.64184082467742e-05,-0.000142021317556195,0.00113088507448324,0.00177809574049241,-0.000238113614145988,0.000302907127913579,5.04500774207052e-05,-0.00235409718701191,-5.71538065389488e-16,-1.18418628703328e-16,-2.13600989048559e-07,-7.60591647780166e-05,-4.2151921739552e-05,-1.05420075138296e-16,-4.58877971853121e-05,-3.51517939364167e-06,0.0362236646062515,0.000168111921233101,-3.15116371675011e-16,-0.00010837677409775,0.000136326083378255,-1.90358144860467e-06,-4.72485114127438e-16,5.85580175591269e-16,-5.83809530863336e-05,2.97295835304861e-16,4.11011693991479e-05,8.03448480890178e-06,-1.00671501642408e-05,-6.77999854421546e-17,-6.31196003789977e-06,-1.40687184918258e-15,-1.61541487017775e-16,-1.28862475531978e-05,7.98476173085369e-16,0.00448149428000215,4.99666839305873e-05,-0.000122827157776716,-7.47208829911176e-17,-6.96872932045458e-06,-6.69006718979061e-06,5.5852892118698e-20,-8.93774666121024e-17,-5.92326525769765e-16,-1.32386082544137e-15,4.75245442057747e-16,3.8500794532763e-17,-1.96372901499814e-06,-1.4151333343919e-16,5.37305012560635e-16,-7.51399448929844e-17,1.75181391208675e-16,-3.42745623100496e-15,5.7212531135065e-16,-5.07543187360429e-07,-6.4998258846965e-15,7.67337582363581e-13,3.47570409768569e-14,-0.100000000000009
"t66",0.084302450036441,-0.0214337290597939,-0.100760289136273,-0.27822173746624,-0.0593517430328188,0.121531373337213,0.0221127980363171,0.016252027057101,0.000116584967934568,0.000347230914464773,-0.000119975402402258,0.00176831156470489,0.00112342267554376,-0.00840242384985408,0.000326969176362384,-0.111665864308216,0.497687221606361,0.0101645808469846,0.0499904098165323,0.000119400716926671,0.000132638332964693,-0.00106947464061782,0.000572081233381416,-0.00196797583562218,0.000815483916037068,-0.000861208010191991,-0.000260072112707342,0.000126592054283122,-0.000322665336859622,0.00113746829247483,0.0109985423312715,2.9810054341628e-05,0.335580002172993,-0.00326095719393124,0.000126648455217203,3.7916435074557e-06,3.16309332737897e-16,-6.23288663377094e-05,1.009178779449e-15,0.000235967833477352,-4.71486918412316e-06,1.71181473007666e-05,-3.0468155290386e-05,0.000268133713522092,0.000470061166931954,-6.97060882207907e-05,9.14529516021351e-05,1.59060510469182e-05,-0.000752108818142957,1.17502674441558e-15,6.94268474015968e-17,-7.55821024401605e-08,-2.71272130957976e-05,-1.68673490439486e-05,-1.54867472011092e-15,-1.89905311300489e-05,-1.45493722859333e-06,0.0151103741820293,7.07597571923008e-05,1.69319195311783e-15,-4.7466013452762e-05,6.0800228690573e-05,-8.54474072429507e-07,-1.97139940894097e-15,-4.69519357699396e-15,-2.68465458802703e-05,1.53925063101234e-14,1.95261135937826e-05,3.871425209897e-06,-4.89999866595035e-06,2.15633479879595e-14,-3.14305516807734e-06,0.707106781186546,3.42102282177615e-14,-6.55188964596999e-06,-3.14416923370801e-15,0.00236142381469269,2.66088423060351e-05,-6.70051492405151e-05,-2.69910448551484e-16,-3.85100069084176e-06,-3.7596197669499e-06,6.63925821430479e-16,-1.26268883079945e-15,6.16224734625155e-16,-8.73211440519979e-16,-9.77448653957722e-16,-2.68304041623487e-15,-1.14431387707257e-06,-1.75668010153518e-15,2.2659302444711e-15,1.9315556152574e-15,7.59295121910384e-16,-3.53250999974529e-15,-3.64783100003967e-16,-3.01584406366449e-07,-5.4058851722345e-15,7.72687469563493e-13,3.45453291844729e-14,-0.100000000000005
"t67",0.084302450036441,-0.0214337290597936,-0.100760289136273,-0.278221737466239,-0.0593517430328186,0.121531373337213,0.0221127980363169,0.0162520270571008,0.000116584967934173,0.000347230914464956,-0.000119975402402193,0.00176831156470474,0.00112342267554313,-0.00840242384985431,0.000326969176362437,-0.111665864308217,0.497687221606359,0.0101645808469843,0.0499904098165288,0.00011940071692686,0.000132638332965354,-0.00106947464061869,0.00057208123338159,-0.00196797583562256,0.000815483916037466,-0.000861208010190409,-0.000260072112706117,0.000126592054281557,-0.000322665336858717,0.00113746829247595,0.0109985423312727,2.9810054340031e-05,0.335580002172993,-0.00326095719393085,0.000126648455217511,3.79164350794355e-06,-5.82336060036224e-16,-6.23288663393005e-05,1.60577348264256e-15,0.000235967833479384,-4.7148691828788e-06,1.71181472991145e-05,-3.04681552899339e-05,0.000268133713519267,0.000470061166935491,-6.97060882169589e-05,9.14529515989602e-05,1.59060510474213e-05,-0.000752108818143429,-8.35077379511438e-16,3.11545013134764e-16,-7.55821034338108e-08,-2.71272130955011e-05,-1.68673490505099e-05,1.18900426105616e-15,-1.89905311370089e-05,-1.45493722554239e-06,0.0151103741820225,7.07597572004643e-05,-2.1893709230354e-15,-4.74660134617971e-05,6.08002287123696e-05,-8.54474072051126e-07,1.37370065467065e-15,4.20398479038509e-15,-2.68465458548998e-05,-1.53956323716617e-14,1.95261135834726e-05,3.8714252110311e-06,-4.89999868669353e-06,-2.14270850117319e-14,-3.14305540842036e-06,-0.707106781186549,-3.41957979281684e-14,-6.55188965798954e-06,2.47309620856715e-15,0.0023614238146736,2.66088422910247e-05,-6.70051492409529e-05,5.04449245892157e-16,-3.85100068941911e-06,-3.75961976403497e-06,-1.2052718894762e-15,2.69538348565979e-15,-2.39485802190621e-15,-1.67206974434476e-15,1.59566852509939e-15,1.45351592224099e-15,-1.14431387226856e-06,1.37181349867177e-16,-3.70588746276251e-15,-1.88840297268592e-15,5.89429813103946e-17,-1.57253477973667e-15,9.74783357580531e-16,-3.01584404270106e-07,-7.26273404410226e-15,7.61203600152527e-13,3.50955898471012e-14,-0.0999999999999963
"t58",0.0856174734040486,-0.0228427932316272,-0.108432327759796,-0.308252552472026,-0.0689440025028756,0.144129528421215,0.0265027516671188,0.0222971243380303,0.000166210904701431,0.000536638918104018,-0.000214770791246386,0.00599655352409701,0.00383185062362921,0.0165851352155877,-0.000474465614447838,0.0919167854572437,-0.237894478505265,-0.0038912913445338,-0.0117459420227965,-1.52879794496411e-05,2.72819213656093e-06,-5.2843781175195e-05,3.79595218958448e-05,-0.000171796801963322,9.72709586358773e-05,-0.000114543644985825,-3.50853172473675e-05,1.59460714865252e-05,-3.98507483057749e-05,0.00012169359981461,0.00113022020613036,2.606937081996e-06,0.0163134751195036,-6.28640945789725e-05,-2.54071891597473e-06,1.44936732055415e-06,-3.99556778758758e-16,5.76127282263081e-07,3.3449505392361e-15,-4.79800795078875e-06,1.9628703311156e-07,-2.68927385961925e-06,6.21483687753662e-06,-7.49300560512731e-05,-0.000186500397818794,3.97273910757062e-05,-5.88472895220723e-05,-1.23059215174694e-05,0.000618105127039262,1.78464866716403e-15,-1.86651724194701e-15,1.09418140388252e-07,4.14890742935893e-05,9.92485021781396e-05,1.25186148378028e-14,0.000417438218629937,3.23157156013457e-05,-0.878550110455469,0.00490597532776469,6.76313695703595e-15,-0.00032004307184017,0.00029473168914735,-3.77374895327562e-06,6.68466362583535e-15,-2.05160070936574e-15,-8.96116361008308e-05,-1.21428165172659e-14,4.97636160508528e-05,8.99496033553034e-06,-1.073516886694e-05,8.50058654962242e-16,-6.1468155825744e-06,2.3934287090261e-15,1.16239623291967e-15,-1.18478042802246e-05,-1.11484301968113e-14,0.104785202686113,3.17879899622881e-05,-8.51396995678404e-05,-3.65048344637841e-16,-4.79031248672769e-06,-4.52303071451379e-06,-3.22359215068388e-16,-1.06733330314045e-15,5.35124318547546e-16,2.49924469064515e-16,-5.77279164360771e-16,-4.15343704371542e-16,-1.28024920858723e-06,7.34193342489522e-16,-1.84053386403751e-15,-4.96079811136314e-16,-9.40614831870041e-16,-8.98898324890947e-16,-1.17420167093958e-15,-3.25457224604687e-07,-5.74382721276281e-15,7.58067220107961e-13,3.55990455282519e-14,-0.0999999999999784
"t76",0.0859815014016832,-0.0232047404337247,-0.11037652903545,-0.315578320022092,-0.0711586226183133,0.149234001781923,0.0274838236281777,0.0235013396920412,0.000175834717966537,0.000571572331125224,-0.00023100001620987,0.00659842443283894,0.00421697601978635,0.0190077858914521,-0.000547139940566455,0.107526477109974,-0.282984223510246,-0.00466274142732146,-0.0143021027587125,-1.89532868903132e-05,3.54942230042884e-06,-6.99391394536222e-05,5.08865292467435e-05,-0.000235037059188517,0.000140348380386932,-0.000175316285062463,-5.67360699298455e-05,2.82142136346477e-05,-7.15913337511916e-05,0.000237521122244887,0.00224679369202853,5.51028750755648e-06,0.0394224475627618,-0.000165689697731207,-7.39810816736833e-06,9.50831507682988e-06,3.11846437495011e-16,-6.3982598723903e-05,-1.81985914477006e-15,0.000237504024499073,-4.58375504465089e-06,1.4697582687853e-05,-2.54501266315601e-05,0.00021788113398882,0.0003751002745689,-5.56566787544154e-05,7.34137472450775e-05,1.29438358123446e-05,-0.000615710469369535,2.86386549204731e-16,2.05193835077843e-16,-6.81025606471281e-08,-2.47733951052443e-05,-2.77582344769112e-05,-2.7058240814435e-15,-8.50222009455284e-05,-6.57286140953096e-06,0.164182571386798,-0.000825970591476949,-1.93092793774095e-15,3.00205836883661e-05,-1.89373803136125e-05,2.05858748860828e-07,5.83003407346209e-16,2.63553866720893e-15,2.03480501303213e-06,6.450984068329e-15,2.24697249017455e-07,6.59072257679428e-08,-4.26226415234574e-08,-5.13996083351079e-15,1.98322911124506e-07,1.02595860003433e-14,9.69371926171382e-16,1.75099423169025e-06,5.63791630535048e-14,-0.849026373224786,6.92750783354228e-05,-7.41489561441244e-05,-2.52059472785296e-15,-3.60644004578263e-06,-3.09100108744615e-06,-2.40078979755265e-15,3.59513846359008e-15,-1.23523191189971e-15,-2.94320151992363e-15,3.50033051747377e-15,-1.60395914143131e-15,-8.1898556538095e-07,-3.98031197377078e-15,-8.64063908830574e-16,-5.27679443420125e-15,1.77967834681627e-15,1.62394721507976e-16,1.04666778921003e-16,-2.07888065495899e-07,-9.22093221398094e-15,7.73235642181902e-13,3.56131548936607e-14,-0.0999999999999472
"t97",0.0861214814542074,-0.0233431415171872,-0.111119217504515,-0.318369149467866,-0.0719990866030286,0.151168320520183,0.027855331227456,0.0239539984578282,0.000179446346853078,0.000584643198494489,-0.000237046849907643,0.00682055095635146,0.00435910321703408,0.0198877425387847,-0.000573475813433204,0.113153448715827,-0.299141570404074,-0.00493847814681106,-0.0152107539615855,-2.02484656145949e-05,3.83527408290469e-06,-7.58596222917382e-05,5.53469726757917e-05,-0.000256734030055776,0.000154921850709019,-0.000195585585460886,-6.38699266518475e-05,3.21848981245267e-05,-8.18356926690555e-05,0.000274375497033111,0.0026010255617461,6.42282519235483e-06,0.0465567486320968,-0.000197116104274779,-8.86743887062197e-06,1.18244888663935e-05,1.19053998601783e-16,-8.18220960814336e-05,-4.82241261316881e-16,0.000304284811092014,-5.89431087193957e-06,1.93181727949543e-05,-3.37562513930896e-05,0.00029313041416127,0.000515164749867466,-7.85238045801305e-05,0.000104643670362087,1.87597122085939e-05,-0.000897474170499526,-8.18284661497321e-16,-1.35577644069317e-17,-1.05205713242395e-07,-3.84966333037387e-05,-4.90983584537367e-05,-3.66298049991673e-15,-0.000160498340569334,-1.24113987386227e-05,0.315736510317831,-0.00162526952101197,-2.61122713970297e-15,6.76063828462696e-05,-4.66455999574772e-05,5.26933902035331e-07,-3.18895569611674e-15,-9.01104900175064e-16,6.30812026376017e-06,4.05989478194564e-15,1.1773350069423e-06,5.95886422694344e-07,-1.05197714367123e-06,1.70388917294131e-15,-1.10077718576361e-06,-9.66498360220883e-15,-1.67049882210528e-15,-3.35589440230424e-06,-2.35354607068934e-14,0.366157549727733,-1.60291665605689e-05,-5.85871670818874e-06,3.70354438434033e-15,-7.02246882596758e-07,-9.67394170522606e-07,1.11379338307691e-14,3.55129469526441e-15,-2.00709411616911e-15,6.93275430278874e-15,2.7105661879185e-15,-2.89780010659577e-14,-4.01932977075926e-07,1.45940561559441e-13,0.707106781186548,-6.49109213926222e-16,2.47726065133701e-15,4.53848634952376e-15,5.4479985457029e-16,-1.1619292980485e-07,-3.06333099433647e-15,7.48338890854683e-13,3.61310063993884e-14,-0.100000000000035
"t98",0.0861214814542074,-0.0233431415171872,-0.111119217504515,-0.318369149467866,-0.0719990866030283,0.151168320520183,0.0278553312274563,0.0239539984578283,0.000179446346853391,0.000584643198494728,-0.000237046849907619,0.00682055095635106,0.00435910321703418,0.0198877425387849,-0.000573475813433273,0.113153448715827,-0.299141570404075,-0.00493847814681128,-0.0152107539615855,-2.0248465614209e-05,3.83527408220855e-06,-7.58596222920923e-05,5.53469726756746e-05,-0.000256734030056434,0.000154921850707783,-0.000195585585460744,-6.3869926651446e-05,3.21848981240279e-05,-8.18356926677479e-05,0.000274375497032641,0.0026010255617459,6.42282519167084e-06,0.0465567486320955,-0.0001971161042735,-8.86743887022069e-06,1.1824488867897e-05,3.70618995815346e-16,-8.18220960798848e-05,1.87143873048993e-16,0.00030428481109217,-5.89431087076842e-06,1.93181727948821e-05,-3.37562513951702e-05,0.00029313041416167,0.00051516474986653,-7.85238045778008e-05,0.000104643670364524,1.87597122078926e-05,-0.000897474170501643,-7.8015912116331e-16,1.74361678182761e-15,-1.05205714394249e-07,-3.8496633303594e-05,-4.90983584543582e-05,-4.72682877315852e-15,-0.000160498340569462,-1.24113987381031e-05,0.315736510317834,-0.00162526952101394,-1.90428230683548e-15,6.76063828448458e-05,-4.6645599966424e-05,5.2693389741265e-07,-3.52040897535871e-15,2.49976806515433e-16,6.30812026652385e-06,1.55208899906914e-15,1.17733500547413e-06,5.95886423946377e-07,-1.05197714684621e-06,2.41815412334184e-15,-1.10077717958924e-06,-3.55875696677047e-15,-1.3970720576766e-16,-3.3558944063358e-06,-2.21592844129478e-14,0.366157549727735,-1.60291665542284e-05,-5.85871670838265e-06,-1.97985179877616e-16,-7.02246890406238e-07,-9.67394160828972e-07,-8.55462152934321e-15,-4.48125474655008e-15,3.85467775382544e-16,-8.45224982788306e-15,-3.97547039842774e-15,2.93547220410084e-14,-4.01933049198121e-07,-1.44764853292486e-13,-0.707106781186546,5.03517776422475e-15,-2.24841895212647e-15,-1.42400568285268e-14,1.8073577360984e-15,-1.16192947432439e-07,-7.04325844609694e-15,7.86808118657945e-13,3.25278147550198e-14,-0.100000000000033
"t46",0.132844494139832,0.0140854000746826,0.0428366538146107,0.038269516008809,0.000369042276918021,0.000754374305178152,0.000111894725738379,-0.313233316493693,0.00017934044882291,0.000302639145478223,-9.65385856297582e-05,0.00244825200073133,0.00156438572437455,0.029351214029669,-0.000152938593956737,0.0507538844303987,0.0104184221319997,-0.000424513644465967,-0.00194634059973374,-0.000470785223782771,3.65779684363439e-06,-0.00407342634483706,2.19164408257473e-05,-9.14475966143217e-05,0.00203174376657214,-5.22978508144424e-05,-1.5987024768976e-05,7.75438421489012e-06,-1.99716518495601e-05,0.000134426249089498,0.00868012453559688,-4.15866231831081e-08,0.000195454794597912,2.69808470210849e-05,-2.46475669963116e-06,-7.04161118058892e-07,2.40259964205756e-16,2.39883330219858e-05,-2.2796950372158e-16,-0.00186997114073814,1.49869678642178e-06,-1.12316900488071e-05,2.74957971448571e-05,-0.00969495961174767,-0.328627088890003,-0.00262073791777894,0.00252348079781928,1.39687877465247e-05,-0.000605659336253887,6.85564521107431e-16,-2.65169824230368e-15,-3.14819270098824e-08,-1.06211488739424e-05,3.82495897944535e-06,-1.60844618259585e-14,2.14598904402451e-05,3.15650853768783e-05,-0.00394576882655261,-0.828011236600268,-5.91697326454177e-14,-0.00163437070261219,0.270808850013177,-2.55752231827224e-07,3.26250911801537e-15,-6.24354211210116e-15,-0.000348928587526224,5.80411544756596e-16,1.1876560461948e-05,0.00425347411064698,-2.74434229625726e-06,-2.04672669651856e-15,-1.64622929899514e-06,-1.88807146923618e-15,-1.29030311877282e-15,-3.24967461796616e-06,9.90733368489915e-16,8.44762601169272e-05,0.000213566688651627,-0.000505188309266075,-1.87076858508073e-15,-1.62433617982202e-06,-1.54593996392179e-06,-3.64497306589401e-15,1.4155416333758e-15,-8.89133847005142e-16,-2.02966180320318e-15,6.7720954098164e-16,-1.09435532523276e-15,-4.48113181506095e-07,-2.9595519307096e-16,-4.25078771664204e-16,-7.59050916106973e-16,1.01813720432341e-16,-3.1400015803492e-15,-5.22042323236609e-17,-1.15421250776923e-07,-6.13201035050006e-15,7.84271952936066e-13,3.56258123069448e-14,-0.0999999999999976
"t56",0.132963652038251,0.0141319721263479,0.0429966140961197,0.0384579060581875,0.000371478934632641,0.000759849411291483,0.000112742329821695,-0.316642475056163,0.000181425828687761,0.000306570486366442,-9.79810410872103e-05,0.00249581823100964,0.00159481755849225,0.0301504100256251,-0.00015728042698708,0.0523304342964075,0.0107741009556332,-0.000439571283747289,-0.00202101675586994,-0.000490359404338117,3.84051616429139e-06,-0.00428872365572858,2.31217129555981e-05,-9.67840139862715e-05,0.00216765305721134,-5.6270484831436e-05,-1.73307148100722e-05,8.50315294438773e-06,-2.19406884613902e-05,0.000149111068774097,0.00964799283550208,-4.65287573567899e-08,0.000221577870054081,3.08237305903708e-05,-2.83881040884652e-06,-8.47933587631318e-07,-2.45295062609613e-16,3.00547501986977e-05,-2.45068394119742e-15,-0.00234950865618504,1.89388449604598e-06,-1.47238420905737e-05,3.66499053866088e-05,-0.0132896677897311,-0.471414903606266,-0.00403173213534935,0.00400259762272498,2.34173385235527e-05,-0.00103676259705906,-1.05600775730419e-15,1.26267197558438e-16,-7.24360399197057e-08,-2.55043895361116e-05,-1.49166905703982e-05,2.49206346141904e-15,-1.9719523222901e-05,-2.88563011462157e-05,0.00263456279923028,0.371108119975466,2.24627968654474e-14,-0.000171700197978421,0.0667448073991854,-7.35970912820433e-08,6.14714927080605e-15,-7.09025685419995e-15,-0.000144180418259937,-0.707106781186548,6.33022297216972e-06,0.00243900245225343,-1.64379090510257e-06,3.17569517931186e-17,-1.06822993239725e-06,1.6838812204807e-14,-2.3122232110731e-15,-2.23230003021474e-06,-1.79158859966846e-15,6.24856704523448e-05,0.000160805439968558,-0.000394053036535342,4.07439291566011e-16,-1.28800170658345e-06,-1.2496898465793e-06,-1.04464355875769e-15,-2.05899503557472e-15,-6.60620369677793e-16,-6.85570597373993e-16,2.23233703142415e-15,2.66725939123955e-16,-3.75164894254434e-07,-1.42355937559346e-15,4.50204538595004e-16,2.36000705175801e-15,1.06055111895887e-17,-2.93590154240482e-15,1.33011393775479e-15,-9.81810005730594e-08,-7.62064851377861e-15,7.60738694260965e-13,3.54824706818182e-14,-0.100000000000006
"t57",0.132963652038251,0.0141319721263479,0.0429966140961196,0.0384579060581875,0.000371478934632553,0.000759849411291348,0.000112742329821868,-0.316642475056163,0.000181425828687846,0.000306570486366041,-9.79810410870873e-05,0.00249581823100984,0.00159481755849283,0.0301504100256253,-0.000157280426986877,0.0523304342964066,0.0107741009556339,-0.000439571283747547,-0.00202101675586979,-0.000490359404337103,3.84051616430604e-06,-0.00428872365572826,2.31217129562151e-05,-9.67840139867095e-05,0.00216765305721047,-5.62704848306096e-05,-1.7330714809806e-05,8.50315294471711e-06,-2.19406884596853e-05,0.000149111068774465,0.00964799283550331,-4.65287569124456e-08,0.000221577870053825,3.08237305894316e-05,-2.83881040835673e-06,-8.47933588058211e-07,-4.77642588394533e-16,3.00547501984049e-05,-2.91966935595234e-15,-0.00234950865618688,1.89388449596467e-06,-1.4723842091082e-05,3.66499053861244e-05,-0.0132896677897319,-0.471414903606273,-0.00403173213535004,0.00400259762272139,2.3417338527936e-05,-0.00103676259705921,-1.8388437309972e-16,-4.43796972603011e-15,-7.24360395375421e-08,-2.55043895338184e-05,-1.4916690563911e-05,9.00286195959388e-15,-1.97195232403088e-05,-2.88563011395122e-05,0.00263456279921123,0.371108119975464,2.31609407711515e-14,-0.000171700197983973,0.0667448073991656,-7.35971070373707e-08,5.57181280554478e-16,9.3583319619908e-15,-0.000144180418278848,0.707106781186546,6.33022297889412e-06,0.0024390024523153,-1.64379090466227e-06,3.65917370485327e-15,-1.06822993105937e-06,-1.38380377443668e-14,-9.23808760191709e-17,-2.23230003165769e-06,7.45246219123386e-16,6.24856704587594e-05,0.00016080543997065,-0.000394053036533425,1.08050277210738e-15,-1.28800170799583e-06,-1.24968984468326e-06,1.74124110570058e-15,4.44690945481808e-16,-7.42025043346674e-16,-7.34778822588023e-16,-3.05445746541749e-17,-2.79940787300778e-16,-3.75164892824727e-07,-1.14142299792316e-16,-1.77024151065531e-15,-2.84933965610275e-15,2.84904446719084e-16,-2.13285276472271e-15,9.80948302231294e-18,-9.81809952090262e-08,-6.28461633035408e-15,7.61515850378203e-13,3.36044217598499e-14,-0.100000000000005
"t59",0.133320968495532,0.014274196832072,0.0434867024233118,0.0390403511876294,0.000379109906839462,0.000777082607483118,0.000115416736207849,-0.327678661986547,0.000188215991122193,0.000319508595131994,-0.000102801776496543,0.00266057958224915,0.00170024883713453,0.0331009085299013,-0.00017346538049109,0.0583406600138633,0.0121659738602196,-0.000499173292560215,-0.00232412279248775,-0.00057208552027207,4.66352790187516e-06,-0.00528507854957746,2.88135637183833e-05,-0.00012281244449809,0.00288941588591094,-7.94868937839313e-05,-2.59299345287399e-05,1.40867835698952e-05,-3.70180925323753e-05,0.00027951523359236,0.0185380296804044,-9.75067716909971e-08,0.000575884029087917,9.43523113087806e-05,-1.0828970825238e-05,5.34691873456083e-06,2.70928261043726e-16,-4.61964531646646e-05,6.28990093107132e-16,0.00340136820810887,-2.44472703523159e-06,1.05855501414632e-05,-2.12659703532964e-05,0.0056001139159443,0.126292885988957,0.000580695472407376,-0.000444032002004509,-1.60633689386342e-06,5.88153741084632e-05,1.9656015582201e-16,4.57854507408606e-16,-7.87782330196058e-10,-3.48771317132696e-07,7.00080362091829e-07,-1.02160385502824e-15,3.16341014879728e-06,4.6481504992862e-06,-0.000539053168228336,-0.0989049580659769,8.48386138343049e-16,0.000324285210109004,-0.668862345520955,-1.7507961702929e-06,-1.2720508199211e-14,1.00270531152135e-14,-0.000318900334037547,-3.60051173343038e-14,8.51539071932307e-06,0.618898719840011,-1.46642496831712e-06,4.99096866612696e-15,-9.56917237323789e-07,-1.05380147151297e-14,-5.27883997929757e-15,-1.92134648758214e-06,5.48915944652162e-15,5.14154100856214e-05,0.000131236967067387,-0.000317678692942695,-1.60560515996877e-15,-1.03460106790246e-06,-1.00147232785992e-06,1.35521573068769e-15,-1.0674382269465e-15,-1.30319639378955e-15,-5.66843440227622e-17,-2.89620861521393e-16,-4.10044171070245e-15,-3.01177349317843e-07,2.04301409405279e-16,4.5722414749406e-15,5.33917362838301e-15,7.5306396008189e-16,-2.17745384994071e-15,-8.05168775192316e-17,-7.91132480803543e-08,-6.74768551047739e-15,7.64090180016552e-13,3.39716385503017e-14,-0.100000000000006
"t61",0.133389363388206,0.014301265654465,0.0435798840611364,0.0391507832650992,0.00038055104920166,0.000780332180902621,0.000115920660812119,-0.329742176165011,0.00018948340442584,0.000321915942362211,-0.000103694721987899,0.00269078599098106,0.00171957693832623,0.0336323669056055,-0.000176373112434162,0.059414004011211,0.0124128496335867,-0.000509713787873191,-0.00237738543930976,-0.000586346059078342,4.80455587811287e-06,-0.00545475256991927,2.97784455645269e-05,-0.000127193452200173,0.00300874520593802,-8.32541550106199e-05,-2.73025859498698e-05,1.49561250937643e-05,-3.93562053401115e-05,0.00029932291948882,0.0198825120943254,-1.05109272172041e-07,0.00062727725862826,0.000103420006738919,-1.19503467173506e-05,6.14119483111816e-06,1.00449110744102e-16,-5.52397234422354e-05,-2.74155223436087e-16,0.00407968650039081,-2.95081945976265e-06,1.33387864028002e-05,-2.73731664114854e-05,0.00749178503960158,0.181435486450217,0.000957167671567847,-0.000788481673884683,-3.37259396308495e-06,0.000133515737268681,-9.57768015051059e-19,-2.8570187547871e-16,2.26975785677452e-09,6.56650318134169e-07,3.07920317996102e-07,-3.64549743262066e-16,1.75594799024829e-06,2.58176800300394e-06,-0.000310404355557687,-0.0590568961161164,-4.13471155839239e-15,0.000216549905860453,-0.460850002825097,-1.21647692259689e-06,-9.67469827226328e-15,-4.99421765171724e-16,-0.000224955792666445,2.85456527534707e-14,5.25360906784095e-06,-0.778273522334937,-1.66591931284775e-06,-1.04747379120451e-14,-8.82469377550004e-07,-8.3181629791809e-15,1.29894278800434e-14,-1.73047109515012e-06,-6.81945771871558e-15,4.62360631100538e-05,0.000118270957466612,-0.000288090434722561,3.57532974599972e-15,-9.4171564751886e-07,-9.16039716163456e-07,1.47888804329418e-15,1.99112654681917e-15,-3.49457551444617e-16,-1.8805073255095e-15,1.37115654252734e-15,3.18886875726952e-15,-2.78353767624537e-07,-1.14623483910667e-15,1.84035580864111e-15,-3.32704883718414e-15,-6.79082590362723e-16,-2.5759602768617e-15,6.31593108743332e-16,-7.35050740581221e-08,-5.70328581381901e-15,7.6904108081699e-13,3.60687884728643e-14,-0.100000000000001
"t82",0.133736972297575,0.0144387460345773,0.0440530892894213,0.0397114051780255,0.000387863771268667,0.000796818357706452,0.000118477016051237,-0.340200704836657,0.000195905754249951,0.000334110195680645,-0.000108215519953547,0.00284353441684388,0.00181731508488303,0.0363145052044465,-0.000191043449952647,0.0648257400980684,0.0136566449820974,-0.000562801173353816,-0.00264545710111057,-0.000658064995451048,5.51244194414991e-06,-0.00630587046389525,3.4616174009356e-05,-0.000149142720981748,0.00360550209876968,-0.000102058645810654,-3.41432016110531e-05,1.92781300516103e-05,-5.09759431116016e-05,0.000397571416010756,0.0265486376255436,-1.4275552973451e-07,0.000881140635483886,0.000148148432406859,-1.74738300333372e-05,1.00251804780196e-05,4.48807101031154e-16,-9.92088441458754e-05,2.34655653542092e-15,0.0073764591668712,-5.40864121420096e-06,2.66478198713087e-05,-5.6837234897317e-05,0.0165897328953781,0.445422278040172,0.00274835292553765,-0.00242336516389662,-1.17226279920395e-05,0.000486175624413918,3.83270387617242e-16,3.18088764356897e-15,1.64949258733965e-08,5.32714864307207e-06,-1.44791685677071e-06,3.4443372183936e-15,-4.41555408160958e-06,-6.47810403276432e-06,0.000685912145943394,0.113199392967689,6.13381081342818e-15,-0.00022555797951791,0.359157482267211,8.50593181723278e-07,5.79643694489512e-15,-2.11444794326803e-15,0.000100198949543964,3.09891051087825e-15,-9.83239369504483e-07,0.0749156085847364,6.28671352090819e-08,9.90815945935292e-16,-6.96596031026551e-08,6.14638462486848e-15,-6.54874471365924e-16,-2.94200951952969e-07,-2.81071214224402e-16,1.38509834474276e-05,3.93569156905907e-05,-0.000115597632000551,-4.57309225696836e-15,-4.09033821425789e-07,-4.34357049311359e-07,0.707106781186547,-3.4180304865588e-15,8.58932523345696e-15,-8.70727301670356e-15,-3.62025036070848e-15,2.6509774880034e-16,-1.52972464607527e-07,-6.04038535793378e-16,-1.25965649584421e-14,-1.39966563461411e-14,6.04354441727366e-15,-5.35725350560798e-15,-1.06885583122179e-15,-4.30063328040897e-08,-6.12583418838788e-15,7.4005732098037e-13,3.04984988983141e-14,-0.0999999999999913
"t83",0.133736972297575,0.0144387460345773,0.0440530892894213,0.0397114051780255,0.000387863771268561,0.000796818357706362,0.000118477016051392,-0.340200704836656,0.000195905754250663,0.000334110195680227,-0.00010821551995372,0.0028435344168439,0.00181731508488322,0.0363145052044462,-0.000191043449953593,0.0648257400980681,0.0136566449820963,-0.000562801173353241,-0.00264545710111039,-0.000658064995450728,5.51244194391522e-06,-0.0063058704638944,3.46161740099075e-05,-0.000149142720982305,0.00360550209877073,-0.000102058645811924,-3.41432016110754e-05,1.92781300506989e-05,-5.09759431118142e-05,0.00039757141601028,0.0265486376255449,-1.4275553061264e-07,0.000881140635483463,0.000148148432406951,-1.74738300331941e-05,1.00251804780439e-05,-1.18924942062155e-16,-9.92088441467004e-05,2.17713637892708e-15,0.00737645916687139,-5.40864121388771e-06,2.66478198707219e-05,-5.68372348965055e-05,0.016589732895377,0.445422278040172,0.00274835292553432,-0.00242336516389965,-1.17226279903464e-05,0.000486175624413328,4.53549377587666e-16,3.33536977300984e-15,1.64949280146111e-08,5.32714863962619e-06,-1.4479168558529e-06,2.69692628872018e-15,-4.41555408410021e-06,-6.47810402564201e-06,0.000685912145944443,0.113199392967693,8.77326670905453e-15,-0.00022555797951998,0.359157482267207,8.50593181941815e-07,6.10338294769659e-15,-3.21702193107267e-15,0.00010019894954901,5.65242346751609e-15,-9.83239373261583e-07,0.074915608584736,6.28671300879036e-08,2.64920576549618e-15,-6.96596101585715e-08,7.65212460201635e-15,-3.39785723579415e-15,-2.94200955520307e-07,9.31475072129574e-16,1.38509834519665e-05,3.93569156854828e-05,-0.000115597631989051,3.69134509156179e-15,-4.09033838916238e-07,-4.34357132382412e-07,-0.707106781186548,5.68211588258796e-15,-9.36703826191433e-15,5.93021434466342e-15,2.4374883589362e-15,-1.01194373784325e-15,-1.5297247453427e-07,-1.82655714121042e-16,7.20703824330906e-15,1.20156235558325e-14,-4.53792538154047e-15,-9.90558502732679e-16,1.63568110467258e-15,-4.30063303868372e-08,-5.79497899890435e-15,7.85708303974175e-13,3.91197042676991e-14,-0.09999999999999
"t13",0.132522674750196,0.0146220905777242,0.0453832028739182,0.0449002843074951,0.000679814601928649,0.00245125088253727,0.000727337156984849,0.0340391674506471,-7.15095662662738e-06,2.60016668142108e-06,-1.45253831071809e-08,-0.000377145118967019,-0.000242789991947351,-0.0511250444240964,3.19284281884411e-07,-0.0319777307003709,-0.00967539038085819,0.000446600705343735,0.00259381459256952,0.00480637852200014,-1.09499431948792e-05,0.0520888936574284,-5.91264770567992e-05,0.000341038667683658,-0.0409558458213976,0.000461157138241421,0.000213268825866096,-0.000214347896760591,0.000634338297037407,-0.011110253285889,-0.972151767625442,8.42929540184161e-05,0.0202489779338136,0.0021974391908789,-0.000191558798327629,4.77849128776793e-05,1.24820042237126e-15,-0.000490294036533402,-9.40658155410189e-15,0.0984499729368054,-6.31614015169532e-06,4.13314896017693e-05,-7.33140538752918e-05,0.0534741112827898,0.0174709315031395,-0.0109966292116398,0.0135645052407061,2.19796481244881e-05,-0.00103407233454172,5.79824892439046e-17,7.99840517383425e-16,-9.59806012761794e-08,-3.41803916942042e-05,-1.78472453972375e-05,5.72308680308335e-16,-1.40111949023742e-05,-7.79933313321122e-05,0.00121141404506176,0.0034241223308271,-6.37257847764894e-16,-0.00416193113541827,0.00133568788865647,-9.44411836085645e-07,-1.11872312300831e-16,1.44339378736361e-15,-0.00202877948032558,1.16509924898802e-15,1.98639606984641e-05,7.26592728474299e-05,-4.83358346248677e-06,-2.12387589448287e-16,-3.01446868914552e-06,-1.32983990530374e-15,1.68114706619602e-16,-6.12542495147472e-06,-7.8754495872402e-17,0.000165268402415332,0.00144164340894217,-0.00341682328441644,-7.05372476880257e-17,-3.25993527879253e-06,-3.12352062338526e-06,-9.71168314591272e-16,5.69037902259576e-16,-6.19750470683511e-16,-1.186651662881e-15,6.76939470079065e-16,-8.2430786344441e-16,-9.10745031469231e-07,-6.03290337099174e-16,7.83105476643351e-17,-4.88819976085929e-16,4.47497936162415e-16,-2.16918414292785e-15,1.85242001381915e-16,-2.34474048084279e-07,-6.2011920468161e-15,7.65314894790592e-13,3.49901807140962e-14,-0.100000000000007
"t35",0.139719824612734,0.0181721585368242,0.0583139480831786,0.0638156796733646,0.00114320300986445,0.00444793000416503,0.00137286436498411,0.113634062274432,-2.90830541227805e-05,1.77921965434436e-05,-2.28100680223454e-05,0.00113868687087539,0.000729293028098379,0.132298820717312,0.000235414829933186,-0.00239249060887425,0.00166589912192402,-8.19348375165525e-05,-0.000370334386131216,0.198286745360263,2.55363506751371e-06,-0.02179128225599,4.45355818634539e-06,-4.29950359796483e-05,0.0775796038118993,1.71467566285073e-06,-5.96972940856798e-07,-4.61843449354542e-07,1.89972019703866e-06,-6.91322485609628e-05,-0.0064330809124232,6.04581045604716e-07,0.000101812719960783,3.957119823145e-06,6.08064128509705e-07,-3.0915521424479e-06,-3.90379373301317e-16,0.000161835476782166,3.32324715272586e-15,-0.0488577712764477,-2.02593079900221e-06,-1.87562799296238e-05,6.08842157259318e-05,-0.487314519169614,0.0150981384584657,0.73859601447023,0.316529039026182,1.0655295429938e-05,-0.000506302571670295,5.01837444930078e-15,-7.65513244836879e-15,-3.80135094524885e-08,-1.33297369271028e-05,-5.85100310465084e-06,-1.88743590139411e-15,-4.44083497326988e-06,-0.000233891181947242,0.000380695372512481,0.00106774416901845,-1.93360465157464e-15,-0.00283854104892236,0.0003974423652026,-2.8042554357642e-07,1.19488454935182e-15,1.80144558398554e-15,-0.00493303617201163,6.56194308076665e-16,5.71776135335666e-06,2.08439136140889e-05,-1.3836685351865e-06,4.23074652612476e-16,-8.60082883363871e-07,1.30876067537912e-15,4.5453543206551e-16,-1.74707025520437e-06,3.29623797073016e-16,4.8267546658006e-05,0.0230281833511536,-0.00196347662570368,2.14560770061408e-16,-9.15850917988917e-07,-8.85062054958615e-07,-2.20685966706273e-15,-8.67133393236527e-16,-7.48088991100203e-16,-9.37533374573836e-16,6.90279750560523e-16,2.8431929950424e-16,-2.62145848897582e-07,-6.90081965355117e-16,1.66662240425545e-15,-1.05254552651424e-15,4.95473075822195e-16,-2.58674532681741e-15,2.57668801239134e-16,-6.81433748268263e-08,-5.60563756479905e-15,7.59874801969929e-13,3.46240632525903e-14,-0.0999999999999971
"t77",0.140943867440451,0.0187755441882358,0.0605116927377425,0.067031107402607,0.00122203524863242,0.00478777808459713,0.00148276905289365,0.127255636380537,-3.28433059816616e-05,2.04077908080531e-05,-2.67677850176218e-05,0.00141194057807877,0.000904582011377718,0.18229814686666,0.000329910656609461,-0.00349046501488662,0.0025518509033709,-0.000128296918125923,-0.000609506231747773,0.34607726822716,5.30505814381076e-06,-0.0485075250092538,1.04689153228654e-05,-0.000110879473417935,0.266645754257436,9.20436235245468e-06,-6.52966181684141e-06,7.94718742320671e-06,-2.29720194195956e-05,0.000324580092494264,0.0266957595874216,-1.81886346834115e-06,-0.000195708350778377,-6.24625893676839e-06,-8.0479299832844e-07,2.10200796385252e-06,-1.06675688897188e-16,-7.42594464778469e-05,-1.98152723977736e-15,0.0218838180868543,8.65042856556282e-07,6.09440894837093e-06,-1.77307013491527e-05,0.119826465726904,-0.00290790492837651,-0.102605235083279,-0.0386121041035472,-1.041146154304e-06,4.56550839321741e-05,-1.70922817105269e-15,1.47210736457778e-15,1.16470095367955e-09,3.45849365998036e-07,-2.45796590716902e-07,1.02643024185876e-15,-2.70771067708327e-07,-1.42778638833479e-05,2.48564405857851e-05,7.48477644304807e-05,-4.67487667134418e-17,-0.000254586623747727,3.86701452787096e-05,-2.79609906604042e-08,5.45707813669103e-16,1.35068119868575e-15,-0.000527135833276935,1.3307753987382e-15,6.22847705870989e-07,2.19036781319742e-06,-1.37605101969492e-07,-8.55539109989961e-15,-6.1486104165822e-08,8.03824404071273e-15,5.57388715019516e-16,-1.02803288223751e-08,5.73827062384041e-15,-4.07982257872898e-05,-0.831474159722913,-0.00170224971725498,2.49025325704428e-15,-6.33857471526892e-07,-5.30612951139396e-07,3.36884920683745e-15,-9.1705117021481e-15,-1.87543731185846e-15,1.44763077552606e-15,-1.03186653352611e-15,-3.39147135962312e-15,-1.4098168525198e-07,1.4289708340448e-15,-3.99969129078679e-15,6.67812388070995e-15,2.62151774450337e-15,-3.88687761625725e-15,1.41348050335304e-15,-3.61860057806803e-08,-5.19011153511573e-15,7.52932438619069e-13,3.4492501361269e-14,-0.0999999999999823
"t85",0.141098573758292,0.0188509301773328,0.0607857159777972,0.0674297618462673,0.00123173174986541,0.0048294513952183,0.00149622588440487,0.12889795203898,-3.32951114724602e-05,2.0720096798031e-05,-2.72361404481437e-05,0.00144362788701366,0.000924906830906063,0.187899681236511,0.000340443913880238,-0.00361144846409051,0.0026481956817977,-0.000133310261242181,-0.000635055130814066,0.361654627591857,5.58529326145613e-06,-0.0511970802420843,1.10693470814122e-05,-0.00011756609875155,0.284662313042778,9.89404563544919e-06,-7.05993992162026e-06,8.66590500872684e-06,-2.50827139542179e-05,0.000356787016188688,0.0293850858088098,-2.01081811887352e-06,-0.000218163437868061,-6.99522515201738e-06,-9.05542029509123e-07,2.42002385015309e-06,3.82668401277406e-16,-8.69729383357518e-05,-1.74659518035474e-15,0.0256592459610786,1.01656389956847e-06,7.25754480168586e-06,-2.12303690245828e-05,0.144704639287725,-0.00355493096378404,-0.127434890325738,-0.0482432551949186,-1.3134426834736e-06,5.77855052641581e-05,6.40558815941084e-17,6.79537657124874e-16,1.52359067887769e-09,4.53913314302723e-07,-3.46014245675817e-07,1.33068380553263e-16,-3.94169005789773e-07,-2.07877899195232e-05,3.65243336131867e-05,0.000111247504883515,-2.01485003120307e-16,-0.000403603317165334,6.38201143080045e-05,-4.69191966201985e-08,-1.10778769235809e-15,-1.52929206342272e-15,-0.00095559548512313,3.74184226052293e-16,1.3354052396217e-06,5.28059476389335e-06,-3.72002432921615e-07,1.61536400558668e-15,-2.67700512923376e-07,-7.25622204558175e-15,2.53053600461491e-15,-6.44356174876517e-07,-2.29570367616372e-15,3.9006866458052e-05,0.39246961875625,-0.000133433803505032,-1.27012540471729e-15,-1.52319559368593e-07,-2.0571200799555e-07,-5.44730548610244e-15,-0.707106781186542,1.62092655425549e-14,-4.05322561909251e-14,1.03692174781826e-14,-7.12530171174879e-15,-8.1906679457791e-08,-2.841513524868e-15,4.99031769455232e-15,-1.0249070922523e-14,-8.47303699696684e-16,-8.73867350216491e-15,-1.15017697672919e-15,-2.34276484700134e-08,-3.02424772884223e-15,7.82379369623776e-13,4.06239825858249e-14,-0.100000000000009
"t86",0.141098573758292,0.0188509301773328,0.0607857159777972,0.0674297618462671,0.00123173174986544,0.0048294513952182,0.00149622588440491,0.12889795203898,-3.32951114725194e-05,2.07200967979741e-05,-2.72361404480366e-05,0.00144362788701426,0.000924906830906067,0.187899681236512,0.000340443913879799,-0.00361144846409023,0.00264819568179753,-0.000133310261241583,-0.000635055130812856,0.361654627591857,5.58529326155394e-06,-0.0511970802420845,1.10693470806305e-05,-0.000117566098751132,0.284662313042777,9.89404563559853e-06,-7.05993992213787e-06,8.66590500886613e-06,-2.50827139542623e-05,0.000356787016188822,0.02938508580881,-2.01081811984998e-06,-0.000218163437868822,-6.99522515191703e-06,-9.05542029746592e-07,2.42002385017073e-06,1.54484770224805e-18,-8.69729383328429e-05,-1.44280652172905e-15,0.0256592459610785,1.01656389870283e-06,7.25754480108845e-06,-2.12303690244482e-05,0.144704639287725,-0.00355493096378646,-0.127434890325735,-0.048243255194918,-1.313442683249e-06,5.7785505261752e-05,-5.29037018289812e-16,1.46493326267546e-15,1.52359165449668e-09,4.53913315357348e-07,-3.46014245611593e-07,1.88967553570683e-16,-3.9416900424293e-07,-2.07877899161507e-05,3.6524333611491e-05,0.000111247504885679,9.54782809189216e-16,-0.000403603317165991,6.38201143065735e-05,-4.69191974923309e-08,-9.98383526831553e-17,1.31293109605722e-15,-0.00095559548512321,-2.15157315497002e-15,1.33540524310197e-06,5.28059476680854e-06,-3.72002431011836e-07,5.74714993571726e-15,-2.67700513712553e-07,-3.05819123371788e-15,-2.79434196821002e-15,-6.44356174183459e-07,-3.94033319025168e-15,3.90068664625883e-05,0.392469618756233,-0.000133433803516496,-7.9021280999412e-16,-1.52319567707024e-07,-2.05712019339395e-07,3.64264552753159e-15,0.707106781186553,-1.64728055255228e-14,3.59652565306814e-14,-8.51011494878985e-15,9.47637976182205e-15,-8.19066730726089e-08,2.54418069439704e-17,-2.45511546434027e-15,4.57470526916084e-15,-8.49475718399476e-16,4.43753502638441e-15,6.88756320947813e-16,-2.34276464275682e-08,-1.0438073227961e-14,7.73310235291369e-13,2.95461497790918e-14,-0.100000000000003
"t32",0.139305201884458,0.0179625842184404,0.0575471254788701,0.0626793324932128,0.00111482349985702,0.00432468329955327,0.00133286408826886,0.108481799368923,-2.76479661071725e-05,1.67771578264243e-05,-2.12359016167659e-05,0.00102327547759978,0.000655232937516617,0.108538305059542,0.000189634396141354,-0.00183527805627867,0.00118978807919497,-5.63587629185603e-05,-0.000230187759144218,0.105136295873065,3.70709600513553e-07,0.00159002587848471,-1.25368818971477e-06,3.14743393301606e-05,-0.278862567478362,-8.17128664428531e-05,-1.79698395576779e-05,7.17349219953126e-06,-1.8194417966312e-05,0.00012476609269064,0.00849852431401821,-2.34365663782531e-07,3.75602575575145e-05,2.27037060602678e-06,4.33756763192156e-07,-3.16926456703469e-06,3.04514151643318e-15,0.000184949183424631,1.5518214041787e-15,-0.0561935438412577,-2.36017941896202e-06,-2.37714352574629e-05,8.0712754447078e-05,-0.713042416681605,0.0307139375236407,-0.579598123691536,0.0450352652219374,5.81490923055908e-06,-0.000309718698975083,-1.54656691111611e-15,2.05406493146118e-15,-3.27236536758679e-08,-1.16128996347721e-05,-5.67797562902094e-06,1.33361498289797e-15,-4.39002808507867e-06,-0.00023123035552716,0.000377797440658976,0.00106405856728065,6.45405724375857e-16,-0.00287507671089871,0.000405126329067007,-2.86453573005687e-07,2.24149332606018e-17,2.4152956229637e-15,-0.00507610344218131,-8.3855076737214e-16,5.93335459604922e-06,2.1698100040651e-05,-1.44331243673747e-06,1.17369639750556e-15,-9.00648315778479e-07,-9.02455281592987e-16,-4.54720397624068e-16,-1.83355445625811e-06,-4.64572173467486e-16,4.99900159193177e-05,0.00533669995396124,-0.00211894989905233,-4.00501797692852e-16,-9.85974145901211e-07,-9.52364005698297e-07,1.56806081705049e-15,1.86374766223725e-15,-6.67229710739249e-16,-8.60950381767627e-16,1.01478173238882e-15,-5.90844338790749e-16,-2.82411696383679e-07,-7.31045809783232e-16,-1.0889921959312e-15,-9.72623846755578e-16,3.10123863320334e-16,-1.81949411031281e-15,1.19194176447876e-15,-7.34702305374061e-08,-6.33619557061817e-15,7.65975824434939e-13,3.44972571034967e-14,-0.0999999999999973
"t100",0.140215231411334,0.0184037328587909,0.059148954540209,0.0650021838191701,0.00117102687887751,0.00456568408945433,0.00141059694348156,0.117836737596755,-3.02120359494111e-05,1.85365707800157e-05,-2.38431089780808e-05,0.00119361023896795,0.000764464554796038,0.135890096415686,0.00024006140278858,-0.00238454588921547,0.00159447086062961,-7.65732019635954e-05,-0.000322498386578083,0.15259549336361,5.94356366943733e-07,0.00264608679824932,-2.14675477595659e-06,5.64746653034878e-05,-0.570421529170787,-0.000196863211428748,-5.15939163756018e-05,2.95058070738761e-05,-8.05655590349512e-05,0.000929896959716797,0.0742428241253021,-4.68117434265771e-06,-0.000454826330142846,-1.39406033160443e-05,-1.73769977540251e-06,4.13819530634383e-06,-5.55403471401688e-16,-0.000142866485193093,-2.69366212966449e-15,0.0420883199818743,1.66344746916928e-06,1.19076621663883e-05,-3.53103267747051e-05,0.253046089157122,-0.00802858503493724,0.0989322950912866,-0.00642648830704741,-5.99007328843687e-07,2.81168949832628e-05,-1.99141235698309e-16,3.02327784889743e-17,-1.55054103890323e-10,-1.41995879947063e-07,-6.94245318539997e-07,-5.97432077364824e-16,-6.79571450519028e-07,-3.58235357139737e-05,6.13860379794496e-05,0.000182176375571571,2.06446727282326e-16,-0.000603392323004944,9.2194486127533e-05,-6.69924182932382e-08,-2.46396597320238e-16,9.89477701101327e-16,-0.00130700952450915,2.43837543754279e-15,1.71701670310862e-06,6.58048174932087e-06,-4.51992250834874e-07,-5.96908661858135e-16,-3.0220467646948e-07,-2.90763223915653e-15,1.13149596303801e-15,-6.52780253753472e-07,-1.31388384164718e-15,1.95521728957848e-05,0.00214279024771502,-0.000900995713084258,-1.02896549236504e-15,-4.3174932215564e-07,-4.32739235776607e-07,1.23876789648504e-14,-7.38370988593183e-15,-3.68887194984098e-15,2.62411978540465e-15,4.79832522002201e-15,2.7040069602102e-15,-1.3837236016875e-07,-4.32287246311542e-14,3.60335027538313e-15,0.707106781186547,-1.78839969592428e-14,-2.4333374666062e-14,1.50001584660954e-14,-3.74023221198567e-08,-1.63248990419272e-14,7.56891077591249e-13,3.45259996291376e-14,-0.0999999999999986
"t101",0.140215231411334,0.0184037328587909,0.0591489545402091,0.0650021838191702,0.00117102687887753,0.00456568408945426,0.00141059694348155,0.117836737596755,-3.02120359494416e-05,1.85365707800293e-05,-2.38431089778576e-05,0.00119361023896796,0.000764464554796196,0.135890096415686,0.00024006140278824,-0.00238454588921574,0.00159447086063007,-7.65732019630909e-05,-0.000322498386577687,0.15259549336361,5.94356367028085e-07,0.00264608679824934,-2.14675477565909e-06,5.64746653026892e-05,-0.570421529170787,-0.000196863211428315,-5.1593916374843e-05,2.95058070737651e-05,-8.05655590341884e-05,0.00092989695971687,0.0742428241253027,-4.68117434348229e-06,-0.000454826330142644,-1.39406033165393e-05,-1.73769977530084e-06,4.13819530762242e-06,-1.74210663227035e-15,-0.000142866485193504,-3.09607589668047e-15,0.0420883199818748,1.66344746875736e-06,1.19076621648998e-05,-3.53103267756064e-05,0.253046089157124,-0.00802858503493775,0.098932295091286,-0.00642648830704593,-5.99007330030807e-07,2.81168949822844e-05,5.4961921950995e-16,6.73756861688273e-16,-1.5505567380011e-10,-1.41995881901615e-07,-6.94245319840744e-07,-1.34409399140938e-16,-6.79571448083475e-07,-3.58235357162175e-05,6.13860379807542e-05,0.00018217637557148,-4.5141069835525e-17,-0.000603392323004664,9.21944861232568e-05,-6.69924214837626e-08,-4.30094784875434e-16,-1.17233044302665e-16,-0.00130700952451179,-2.79355056600332e-15,1.71701670636088e-06,6.58048175731531e-06,-4.51992252663594e-07,-3.77909721416642e-16,-3.02204677189761e-07,1.03365949826277e-15,-1.07033642353312e-15,-6.52780253364464e-07,2.17216952445739e-15,1.95521729042634e-05,0.00214279024770388,-0.000900995713075152,1.42881944848169e-15,-4.31749320870207e-07,-4.32739237785609e-07,-1.38552177798239e-14,7.29898965039624e-15,2.6433453235797e-15,-5.04197709274066e-15,-3.89617130836111e-15,-3.90472899848476e-15,-1.38372367147011e-07,4.21502570060221e-14,-2.39185405759278e-15,-0.707106781186548,1.84304756417169e-14,1.80401828063512e-14,-1.44637303564718e-14,-3.74023368918922e-08,3.23355590110217e-15,7.70758457058207e-13,3.56081997438374e-14,-0.099999999999996
"t41",0.140282890253678,0.0184530267928822,0.0593393045411489,0.0653258325333791,0.00118060809622383,0.00460987718354753,0.00142534922402656,0.120304708678118,-3.09364458012231e-05,1.90979429022971e-05,-2.48269906407314e-05,0.00128675218381751,0.000824313007578418,0.165153347336971,0.000300442254586252,-0.00326099024126626,0.00257407713981224,-0.000138573829082613,-0.000995851413617399,-0.258596091670872,1.97788682242782e-06,-0.0185040058301557,3.91736479567833e-06,-3.83795656405354e-05,0.0443971139201278,-1.57766018127626e-05,-6.77006925582382e-06,4.46024485551605e-06,-1.21491131548418e-05,0.000129633675586611,0.0100551988177806,-5.61496258148956e-07,-3.64423751678345e-05,-7.39555843672648e-07,-3.90560166088734e-08,-6.70665534213009e-07,3.15085887829672e-16,4.61698503382173e-05,2.62257851165519e-15,-0.0140423470710348,-5.89277652811088e-07,-5.41190912204476e-06,1.66713046908685e-05,-0.109584740336056,0.000127724286059964,0.141876904518333,-0.585467005478874,1.95512907636592e-05,-0.000741828196686601,-2.38196015693259e-15,1.79903458544276e-16,-3.30652743899995e-08,-1.14334081386385e-05,-4.63147745193594e-06,5.21488023577903e-15,-2.11878006104429e-05,-0.679506234882791,0.000269133611768004,0.000794670568408,-7.13396617054415e-15,-0.00223028791559744,0.000324892344340133,-2.35380130524627e-07,3.48719857995048e-15,5.38397849895191e-14,-0.119425083760892,3.59486905737468e-16,3.81848919591267e-06,1.44349923342872e-05,-9.72924898536689e-07,-1.08288183169073e-15,-6.1791529048674e-07,-2.31689556731447e-15,-1.2808107125073e-16,-1.2703172203167e-06,2.60055534065913e-15,3.49848523324627e-05,0.0021016578690552,-0.00150539085983295,-4.78081244208348e-16,-7.02874030160878e-07,-6.82232840181677e-07,-2.79677539734739e-15,2.00251023424364e-15,-1.02901393991629e-15,-7.03683010271048e-16,4.48379220693756e-16,-1.47816205025076e-16,-2.0463412645513e-07,-3.85904162991639e-16,-1.35427748765936e-15,2.66600685383564e-16,3.39250824162592e-16,-2.47928760247348e-15,-2.17069329108417e-16,-5.3589079200523e-08,-7.53903651921236e-15,7.71953681533155e-13,3.50641276427978e-14,-0.100000000000009
"t43",0.140364819250131,0.0184933543687771,0.0594861589281099,0.0655405685990672,0.00118586951298054,0.00463255529648079,0.00143268265560187,0.121213518339727,-3.11873657032435e-05,1.9272572669341e-05,-2.50915849852305e-05,0.0013051472284079,0.000836113876176759,0.168655007174466,0.000307142105731381,-0.0033421978690814,0.00264624191350942,-0.000142653191549002,-0.0010283146959343,-0.267978341146563,2.0706629175771e-06,-0.0194472700050727,4.12938649878262e-06,-4.06568856949378e-05,0.0476954414702501,-1.72525156997306e-05,-7.54641260888284e-06,5.16588994095289e-06,-1.41778845172668e-05,0.000158788272844934,0.0124744176672838,-7.32077982565135e-07,-5.63286725109878e-05,-1.40587248645982e-06,-1.29357035754813e-07,-3.70215954715472e-07,7.13752995215013e-16,3.37834667750658e-05,1.45778798213386e-15,-0.0103610149169754,-4.41397700895705e-07,-4.30794988408688e-06,1.34906148808582e-05,-0.0904627119068038,0.000107646829411145,0.121798570906427,-0.505310125888489,1.69982096331564e-05,-0.000646363568293449,-4.17711739220124e-15,6.04192812303834e-15,-2.92553487887933e-08,-1.01262005160716e-05,-4.06330744921387e-06,-3.4700424103902e-15,1.5926192082368e-05,0.730906839269929,0.000300953392405263,0.000806560532675351,6.19202983492699e-15,-0.00217683728939685,0.000322242452819285,-2.36382849150493e-07,-1.56973897328086e-15,7.87739714970957e-14,-0.177808467393236,-6.91520143516715e-15,3.32359211615847e-06,1.2884031948007e-05,-8.77115580573595e-07,2.56693807274443e-15,-5.64730212552687e-07,-6.65997795867061e-16,8.13624790425456e-16,-1.17004427001751e-06,-2.74240530342768e-15,3.2522490627203e-05,0.00195807861681203,-0.00140894589527874,8.34459830936504e-16,-6.59307919184351e-07,-6.41694756995973e-07,3.65140679793051e-15,-1.30254606509632e-15,-6.96846385087505e-16,-1.95860683833688e-15,-6.97562698574492e-16,3.27536015401356e-16,-1.93522268227304e-07,-2.26932582259739e-16,-1.07074562991026e-15,-1.67818208869647e-15,1.13137050878034e-16,-2.39306883541299e-15,4.5588100693127e-16,-5.0817371541743e-08,-7.44124373911684e-15,7.66523997053348e-13,3.58809208550746e-14,-0.0999999999999922
"t60",0.140828131303803,0.0187219331237864,0.0603188745049201,0.0667595638432512,0.00121578416837395,0.00476157429916105,0.00147441591062404,0.126401219032371,-3.26206517910726e-05,2.02713182601645e-05,-2.66075301025299e-05,0.00141096065254618,0.000903997214549348,0.188934324446583,0.000345981590386317,-0.0038140271548783,0.00306660744668079,-0.00016644192883699,-0.00121807311694261,-0.322963018882456,2.6179785796909e-06,-0.0250243239012803,5.38501080668207e-06,-5.41776958099907e-05,0.0674013972606321,-2.61272907209769e-05,-1.2240552908281e-05,9.46780879837586e-06,-2.65622200359238e-05,0.000337944138328214,0.0273610712099136,-1.78636137755943e-06,-0.000180283883364587,-5.57919220184476e-06,-6.97742635159793e-07,1.56867323429048e-06,5.74071771839909e-16,-4.77231921369998e-05,-1.63249980133883e-15,0.0138949932517578,5.35520798961706e-07,3.0999363243133e-06,-7.99288082332317e-06,0.0400311398194187,-3.14357880789307e-05,-0.0200237867850043,0.0650359542801647,-1.38147771336531e-06,4.35978931727695e-05,-1.50368244680338e-15,-5.01172220705995e-16,-7.26932552356768e-10,-3.10185566982606e-07,-2.73130086741151e-07,-1.04615792624919e-15,6.42265461838872e-07,0.0293440824540932,8.41171249647906e-06,7.78717355607965e-06,2.12188472143307e-15,0.000394540230917101,-0.00014113833604529,1.44284855193581e-07,-6.0899461907942e-15,-3.97885893082319e-13,0.890213332424291,1.21654542787089e-14,5.0988674370533e-06,1.5108984074664e-05,-9.13287966854582e-07,1.93838153348543e-15,-4.99640894523843e-07,1.5172399581878e-14,8.76147985079697e-17,-9.54425476936074e-07,-4.61549095414007e-15,2.4771571525996e-05,0.00147592343269528,-0.00104761478424877,1.66158464208606e-16,-4.88749546709381e-07,-4.75364331594925e-07,2.99270341593712e-15,2.77468156495916e-16,-1.26078195501324e-15,-1.35916622089532e-15,1.14123803292157e-15,3.04903767250019e-16,-1.44393484956248e-07,-1.3991454538233e-15,1.66535805610551e-15,-1.84093178334178e-15,1.22548414990715e-16,-2.58432273428139e-15,4.77959198279483e-16,-3.81891015914522e-08,-5.41135172968717e-15,7.64843050005126e-13,3.40208792715027e-14,-0.0999999999999862
"t93",0.141275124380022,0.0189414975795344,0.0611181323455878,0.0679270756773531,0.00124434912513061,0.00488462792180381,0.00151419703078678,0.131317298149469,-3.39771111539564e-05,2.12142690441205e-05,-2.80339120727987e-05,0.00150975247513679,0.000967373287958633,0.207618921354814,0.000381697374161497,-0.00424598360394998,0.00344950145232874,-0.000188062943825771,-0.00138972875152607,-0.372445408109408,3.10403091730967e-06,-0.0299547810234011,6.49139217350268e-06,-6.60301619246424e-05,0.0844548814247126,-3.37057994776621e-05,-1.62028231259972e-05,1.30362253513637e-05,-3.68064887200368e-05,0.000484036610153694,0.0394641690474253,-2.63535651346195e-06,-0.000278248377487935,-8.84210115612529e-06,-1.13718662976684e-06,2.98274000066297e-06,-8.11138453527966e-16,-0.000104369207154288,-2.60920066044681e-15,0.0306967914567629,1.20770821023929e-06,7.99145757054737e-06,-2.19274423044922e-05,0.122252981619264,-0.000115264171529306,-0.100318081269428,0.379848367095508,-1.10970674500346e-05,0.000402715553154779,3.43067438511471e-15,-1.88602879833681e-15,1.16905995733558e-08,3.87470091932038e-06,5.45377580975253e-07,-1.82378977672065e-16,-8.74777584472903e-07,-0.0399077724346249,-1.04668413564413e-05,-8.73641353128613e-06,-1.0702502586981e-15,-0.00027189627293892,7.55560631321098e-05,-7.00766206072047e-08,1.88215134790259e-15,1.27118105908585e-13,-0.284230867001779,-2.18535477586058e-15,-6.84571660721486e-07,-9.8134214893003e-07,1.74315063148465e-08,-1.10748330673877e-15,-3.7674242985797e-08,-4.93268083650038e-15,-1.20467621304414e-15,-1.45195045833157e-07,2.21481779647851e-15,6.59070716787613e-06,0.000437173348227883,-0.000376796388603061,5.10731646911655e-16,-1.91089729074083e-07,-2.04030435911715e-07,-2.63210154666952e-15,-7.77222645211936e-15,-1.72264824807994e-15,-4.53991776371962e-15,4.2985534568479e-15,0.707106781186547,-7.26790627670502e-08,1.62042337547977e-14,2.93526629850726e-14,-2.18718634084703e-15,-4.70565141378856e-15,-1.05022473368595e-15,2.1549848918309e-15,-2.05870050415457e-08,-6.04877008954719e-15,7.55914428274274e-13,3.54996516114924e-14,-0.100000000000013
"t94",0.141275124380022,0.0189414975795344,0.0611181323455878,0.0679270756773531,0.00124434912513065,0.00488462792180373,0.00151419703078675,0.131317298149469,-3.39771111540665e-05,2.12142690440122e-05,-2.80339120728938e-05,0.00150975247513671,0.00096737328795859,0.207618921354813,0.000381697374161391,-0.00424598360395026,0.00344950145232857,-0.000188062943825529,-0.00138972875152631,-0.372445408109407,3.10403091807263e-06,-0.0299547810234016,6.49139217330047e-06,-6.60301619242066e-05,0.0844548814247134,-3.37057994783853e-05,-1.62028231259334e-05,1.30362253514716e-05,-3.68064887205119e-05,0.000484036610153563,0.0394641690474258,-2.63535651366846e-06,-0.000278248377488718,-8.8421011563189e-06,-1.13718662934544e-06,2.98274000086327e-06,-7.24624268049879e-16,-0.000104369207154661,-3.4948474586192e-15,0.0306967914567629,1.20770821017745e-06,7.99145757049383e-06,-2.19274423044015e-05,0.122252981619264,-0.000115264171529192,-0.100318081269427,0.379848367095506,-1.10970674496058e-05,0.00040271555315481,3.32649510266405e-15,-1.85053759369247e-15,1.16905995743392e-08,3.87470092007181e-06,5.4537758142284e-07,2.30673149454609e-16,-8.74777584972629e-07,-0.0399077724346243,-1.04668413560905e-05,-8.73641352974733e-06,-4.80309633409857e-16,-0.00027189627293921,7.55560631332355e-05,-7.00766210979745e-08,1.76473551181312e-15,1.27090402804921e-13,-0.284230867001777,-2.43515495640123e-15,-6.84571660872837e-07,-9.81342155878742e-07,1.74315060357108e-08,-1.54228817600603e-15,-3.76742424436878e-08,-9.28336731425021e-15,3.48609999698122e-16,-1.45195045075369e-07,1.25513515814126e-15,6.59070716993229e-06,0.000437173348233401,-0.000376796388611084,-4.38501632936167e-16,-1.91089730814671e-07,-2.04030434705513e-07,-1.32758949281473e-15,8.57233816537329e-15,1.18979378656218e-15,2.7098841557029e-15,-3.98170474277441e-15,-0.707106781186549,-7.26790590107145e-08,-1.67294931985044e-14,-2.98985520603912e-14,4.33537388253614e-15,5.53134700342858e-15,-5.16322625561346e-15,-1.53581214214475e-15,-2.05869972076231e-08,-5.93452012375391e-15,7.76906317057069e-13,3.42559026355639e-14,-0.100000000000008
"t21",0.137395340975587,0.0169833600860941,0.0539536441340712,0.0573066030221768,0.00097866729375351,0.00372956783707058,0.00113908295694178,0.0824629435698489,-2.03166964708975e-05,1.14674003031123e-05,-1.26574696572833e-05,0.000299827001462043,0.000190527722651286,-0.183555084467776,-0.000537149727210665,0.0552108672523338,0.00732099528147983,-0.000259159627459318,-0.000868038596826033,-0.00233350258497984,-5.1275616228794e-06,0.192447176721283,8.35574759348637e-05,-0.000163782025660997,0.0137727954870577,-2.4663755556598e-05,-2.78506119071688e-06,-4.22113801537856e-06,1.44808915011781e-05,-0.000359020899645143,-0.0321224826954612,2.761584947746e-06,0.000426966320066772,1.62879525019501e-05,2.49484325214199e-06,-1.58879966168642e-05,1.72549695771803e-15,0.00243925979940764,1.02591346780224e-13,-0.931006126536011,-9.42678405850709e-05,5.65060909689865e-05,-8.5512115665605e-05,0.118244745285252,0.00985268851710514,-0.0166293558313954,0.0195842818927354,1.09623346851885e-05,-0.000515425678424112,-2.99654815605336e-16,-1.18642171694003e-15,-4.58111048473487e-08,-1.62543754075799e-05,-8.13167740284936e-06,-9.90769677679793e-17,-6.35461937834918e-06,-8.16254973459422e-05,0.000549503626672498,0.00155595872725341,3.25571136009596e-16,-0.0341171483052319,0.000554581304971396,-3.97410734643574e-07,1.9188279241239e-17,1.0353118222446e-15,-0.00192113142966865,-1.02981197929704e-15,8.52311209891231e-06,3.12080948525251e-05,-2.0773912257259e-06,-2.97498364881987e-16,-1.29759742264391e-06,-2.28676486302199e-15,-6.6275430529631e-18,-2.6420125883082e-06,-3.57623595163422e-16,7.17545265224227e-05,0.00130188487193639,-0.00859774240362436,4.48084577271686e-17,-1.40094016244601e-06,-1.35742610845582e-06,-2.80238621313187e-16,3.01291651300116e-16,-6.16029038606543e-16,-1.164845571654e-15,3.10396578392138e-16,-2.34200335789627e-16,-4.01102462447692e-07,-5.61107311737822e-16,-1.09767505623442e-16,-5.12581251962219e-16,2.23424815898856e-16,-2.71660017298626e-15,4.97477442098965e-16,-1.04013518614599e-07,-6.6286757798654e-15,7.69646499310106e-13,3.48010966146718e-14,-0.100000000000009
"t50",0.138387865074002,0.0174489719808877,0.0556330063295879,0.0596929711947376,0.00103449887316137,0.00396541325008974,0.00121457011139795,0.0906637544794375,-2.24970853028011e-05,1.28680583365379e-05,-1.44848240057204e-05,0.000359912586587025,0.000228771220354407,-0.241922738359221,-0.000718794865667532,0.0766232821298237,0.0106241946179068,-0.000383799912450532,-0.0013465726737627,-0.00382604769094614,-9.95316123173522e-06,0.400166569194015,0.000183579572967678,-0.000395771478006831,0.0453205853502352,-0.000137879877237503,-4.66728730430275e-05,3.00593727886508e-05,-8.28289931493812e-05,0.000984344837855228,0.0788766507421002,-5.01544992737479e-06,-0.000491755679275292,-1.51345540900794e-05,-1.89662146044445e-06,5.08859249057334e-06,-4.15809510674341e-16,-0.000407401563010338,-1.60358604723854e-14,0.148475741651576,1.3678360605373e-05,-4.28648137979458e-06,4.57573716845766e-06,-0.00285490413225014,8.68512280070012e-05,-0.000649296658760127,0.000931830833484455,6.41769326929212e-07,-3.17287543949232e-05,4.8732162406177e-16,-1.64255724899467e-15,-3.38843279645079e-09,-1.19553624677193e-06,1.35459056530107e-07,1.45814386753635e-15,9.93960470123908e-07,1.28414228539571e-05,-0.000121198272667208,-0.000506684903934254,-1.52141893227952e-15,0.837034696516589,0.00098071427773654,-5.46840574214261e-07,-3.37784715715658e-15,1.85597521355824e-15,-0.00164837545371688,3.56950616731952e-15,5.688566244907e-06,1.96640829789466e-05,-1.26978951145964e-06,-4.36697645322464e-16,-7.57249237495742e-07,-5.88243504176465e-15,-1.18565311728657e-15,-1.50581100846507e-06,-4.64304420162268e-16,4.02931571651368e-05,0.000730963861924814,-0.00485044654017649,1.89220202100003e-16,-7.94215568230211e-07,-7.75931105204968e-07,-9.88508636765601e-16,1.07427204411661e-15,-6.71110707330268e-16,-9.78777966303483e-16,4.06233029892177e-16,-4.44936229570438e-16,-2.34715592380242e-07,-6.61339534489995e-16,-1.49132540183102e-15,-2.98255046598016e-17,2.00459286288788e-16,-2.98802289556616e-15,1.63226279721454e-16,-6.17838708933274e-08,-6.80436912380818e-15,7.67740038210007e-13,3.52225457922309e-14,-0.100000000000004
"t68",0.138565858527469,0.0175316729377567,0.0559307814486407,0.0601141022810491,0.00104428562142676,0.0040066462986362,0.00122775081641661,0.0920767814070003,-2.28716499473317e-05,1.31073579094727e-05,-1.47945751935861e-05,0.000369914281222627,0.000235136510208348,-0.251334668921088,-0.000747946808635431,0.0800222610233312,0.0111419450660004,-0.000403229352828517,-0.00142028037573314,-0.00405289966465409,-1.06613773632072e-05,0.430282016928602,0.00019795046690264,-0.000428631615619656,0.0496290565186993,-0.000152746513122926,-5.223499717352e-05,3.41679845928819e-05,-9.43852887825552e-05,0.00113629745389398,0.091301281062657,-5.85663004968131e-06,-0.000584328947648877,-1.81671933646933e-05,-2.3010575063627e-06,6.5383274941073e-06,-3.34936659838628e-16,-0.000550242335234482,-2.15259557528726e-14,0.201239755030551,1.86718604497513e-05,-6.12025647163114e-06,6.66581663911368e-06,-0.00430010404195438,0.000137950562488213,-0.00111643076587043,0.00165729692631077,1.21187344780087e-06,-6.12588743190007e-05,-7.07835299579268e-18,1.56879477173561e-15,-8.75977189624114e-09,-3.21356452601238e-06,-2.71635242415633e-06,-6.64772883232548e-16,-2.70692654915978e-06,-3.48131072955022e-05,0.000253667485606154,0.000803642843052189,9.14617944514758e-16,-0.386085224072683,-0.00020007152805546,7.16012351985748e-08,9.89202120885577e-16,-1.00553279492353e-15,-0.000140968723033895,-2.49303238783399e-15,1.62048781891865e-06,6.89351525754304e-06,-4.97403235971743e-07,6.58256880625463e-15,-3.56843855787633e-07,-3.71992704744836e-14,0.707106781186548,-7.99683274109844e-07,1.46257585537706e-15,2.469893178056e-05,0.000462987646245988,-0.00327302124006434,5.99679267586366e-16,-5.51545580107257e-07,-5.56986215842411e-07,-2.80256217599697e-16,3.03941547557943e-15,-6.08815005367964e-16,-1.66165896974042e-15,3.26852701745086e-16,5.01607867339789e-16,-1.78679231198484e-07,-4.95306061402586e-16,9.79692975904055e-16,-1.41906868605053e-15,3.94787522784669e-17,-2.90726393392362e-15,-3.76814048718818e-17,-4.8274853035604e-08,-6.09451125762457e-15,7.6542765181653e-13,3.49152951445032e-14,-0.099999999999997
"t69",0.138565858527469,0.0175316729377567,0.0559307814486407,0.060114102281049,0.00104428562142673,0.00400664629863614,0.00122775081641661,0.0920767814070003,-2.28716499473027e-05,1.31073579094565e-05,-1.47945751936553e-05,0.000369914281222688,0.000235136510208213,-0.251334668921088,-0.000747946808635551,0.0800222610233312,0.0111419450660003,-0.000403229352828328,-0.00142028037573257,-0.00405289966465364,-1.06613773634366e-05,0.430282016928603,0.000197950466902675,-0.000428631615619704,0.0496290565186995,-0.000152746513122673,-5.22349971729836e-05,3.41679845928159e-05,-9.4385288782162e-05,0.00113629745389379,0.0913012810626568,-5.85663004986832e-06,-0.00058432894764848,-1.81671933647823e-05,-2.30105750649281e-06,6.53832749433392e-06,-5.54373969612925e-16,-0.000550242335234787,-2.19044259020718e-14,0.201239755030552,1.86718604496873e-05,-6.12025647211145e-06,6.66581663879561e-06,-0.00430010404195443,0.000137950562490152,-0.00111643076586925,0.00165729692630989,1.21187344891557e-06,-6.1258874320777e-05,-1.86399924817201e-16,1.13003873053908e-15,-8.75977225735184e-09,-3.2135645272138e-06,-2.71635242523501e-06,-1.99919535055358e-16,-2.70692654904458e-06,-3.48131072944609e-05,0.000253667485604171,0.000803642843051307,5.32868372583192e-16,-0.386085224072685,-0.000200071528061828,7.16012355925544e-08,1.88834002770188e-15,-5.60215188446353e-17,-0.000140968723033634,-1.37277907457511e-16,1.6204878173119e-06,6.89351523797154e-06,-4.97403234924538e-07,-6.09383913138261e-15,-3.56843844406475e-07,4.12379862152837e-14,-0.707106781186546,-7.99683274195754e-07,-1.41066649271876e-15,2.46989317786095e-05,0.000462987646245207,-0.00327302124006434,-4.19184060870312e-16,-5.51545579679399e-07,-5.56986212688176e-07,2.07202881547842e-15,-2.35904394914786e-15,-6.56309626218792e-16,-9.74409291890845e-16,4.31766123385772e-16,-1.38577113580537e-15,-1.78679231801203e-07,-3.77710416467442e-16,-6.47477644562257e-16,1.06928371666639e-15,5.68686329940871e-16,-2.82193159688057e-15,7.90559756921608e-16,-4.82748542517359e-08,-7.06019386735898e-15,7.67852795235946e-13,3.47296149762477e-14,-0.0999999999999973
"t81",0.139114017439243,0.0178087586538524,0.0569437590133092,0.0616092313240963,0.00108123778461609,0.00416618100480932,0.00127935954163659,0.0983657789066156,-2.4589326075588e-05,1.42677990171229e-05,-1.64265787847019e-05,0.000434706081989267,0.000276420401110171,-0.346002141898469,-0.00106523818253198,0.125304181770666,0.020286584514011,-0.000800375762582153,-0.0036724141551313,-0.0185746814022828,1.73344490739605e-05,-0.355105210873414,-0.000103748346458548,0.000104145800251181,0.00409238124144262,-3.45793216393928e-05,-1.53457352827547e-05,1.19421309817385e-05,-3.35370416468417e-05,0.000428032651439774,0.0346667120826742,-2.26481488124279e-06,-0.000228732902704443,-7.08513690172818e-06,-8.87894730125962e-07,2.13693272852578e-06,-1.42209780826217e-16,-0.000120171234330457,-4.57103821001282e-15,0.0418024509606833,3.44267956063815e-06,2.86511781421343e-07,-1.62958444442427e-06,0.00449830140104991,0.000596867355617695,-0.00138725234835765,0.00177492912028597,1.10652913042061e-06,-5.36712676325532e-05,-6.2553390419112e-16,4.32107375920962e-16,-5.90660741825515e-09,-2.12672043702469e-06,-1.2709927911304e-06,2.00272396241626e-16,-1.02775091747036e-06,-1.3202922949134e-05,8.9397131625768e-05,0.000254432776494647,3.00734860743144e-16,-0.00231386084013876,9.75720705722129e-05,-6.9181764026941e-08,-1.69785268565819e-16,6.29083404656e-17,-0.000324905877606763,-8.63875157473752e-16,1.34117908519293e-06,4.62816331462643e-06,-2.89945717173466e-07,2.00961498140043e-16,-1.41478412971437e-07,-5.71222796648654e-16,-8.64173558088361e-17,-1.52493819938294e-07,5.04438538213811e-15,-1.4495082262734e-05,-0.000567832653637558,0.829643088788074,8.81970855765397e-15,-2.64764777109389e-06,-1.40971556834613e-06,6.57538881441664e-15,7.30908989226407e-15,1.06320702392307e-15,8.93810318383606e-16,-5.12000164022132e-16,-5.05791336054859e-15,-2.81357933176736e-07,1.71364285903116e-15,-1.63607980900021e-16,5.21824104308647e-15,8.49324275986851e-16,-2.30537068424546e-15,1.15894046728056e-15,-6.7307327182797e-08,-3.39703848754352e-15,7.60278992539831e-13,3.38471910479233e-14,-0.099999999999959
"t108",0.139318489476671,0.0179044578181736,0.0572888479886653,0.0620994542290455,0.00109271210925774,0.00421467383193689,0.00129488515309304,0.100062130187065,-2.50412631746346e-05,1.45594403721395e-05,-1.68103297242982e-05,0.000447720478124973,0.000284705661976877,-0.360164230613404,-0.00111053261685022,0.131085548863215,0.021305568104662,-0.000841975381617086,-0.00387706449672404,-0.0196855745164627,1.85494470703539e-05,-0.381218484985298,-0.000111637501694355,0.000112468415035791,0.00445833143695674,-3.80040077449572e-05,-1.69911354343466e-05,1.33657605692817e-05,-3.75978431537449e-05,0.000483932204685843,0.0392619003905305,-2.57905215867379e-06,-0.000263180965391423,-8.19925436488705e-06,-1.03352791773102e-06,2.55861322862375e-06,-1.57089110628682e-16,-0.00014691359628227,-5.00549488401906e-15,0.0511744527600235,4.22596880902853e-06,3.57348761644088e-07,-2.045792228404e-06,0.00570468346861429,0.000767980996333876,-0.00181835369295857,0.00234274675508215,1.47693175561568e-06,-7.1910348466063e-05,5.51086119655598e-16,-8.62441265054021e-17,-8.21784771955643e-09,-2.96995828998252e-06,-1.91821770843029e-06,-4.45913484218411e-17,-1.60811518827124e-06,-2.06618187909422e-05,0.000141278276416211,0.000406986838724427,-1.39487746355748e-16,-0.00395709240824669,0.000173767911882083,-1.25257354808357e-07,-6.98199977965344e-17,4.09773739237584e-16,-0.000634011561122586,1.40475368695984e-15,3.04934211884072e-06,1.16220864449649e-05,-7.97874050705351e-07,-4.87119763575625e-16,-5.39853069358699e-07,6.62092119898644e-16,2.43361189661499e-16,-1.20693575850127e-06,-1.63176524764252e-15,4.3674311094805e-05,0.00094755543614971,-0.394678065557924,-4.40185283568641e-15,4.6610314997563e-07,-1.12674919155636e-07,-3.86943544065411e-15,-6.37591276833497e-15,-2.15230934335741e-15,-1.99074841702227e-15,9.02701495617682e-16,2.07169471106076e-15,-1.10770064686141e-07,-7.41111202700138e-16,2.08252577511171e-15,-1.26421718034311e-14,2.97823288350663e-15,2.57168219729838e-15,-1.99208667502455e-14,-3.3402018432715e-08,-0.707106781186555,8.7035587070794e-13,3.22338148058614e-14,-0.0999999999999745
"t109",0.139318489476671,0.0179044578181736,0.0572888479886653,0.0620994542290456,0.00109271210925777,0.00421467383193695,0.00129488515309308,0.100062130187065,-2.50412631746038e-05,1.45594403720348e-05,-1.6810329724202e-05,0.000447720478125137,0.000284705661976815,-0.360164230613404,-0.00111053261685016,0.131085548863215,0.0213055681046622,-0.000841975381617295,-0.00387706449672388,-0.0196855745164631,1.85494470707061e-05,-0.381218484985297,-0.000111637501694276,0.000112468415036229,0.00445833143695635,-3.80040077450064e-05,-1.69911354340421e-05,1.33657605691482e-05,-3.75978431537059e-05,0.000483932204685843,0.0392619003905307,-2.57905215865276e-06,-0.000263180965391695,-8.19925436529931e-06,-1.03352791759532e-06,2.55861322864578e-06,-1.59208142586023e-17,-0.000146913596281891,-5.51348290411264e-15,0.0511744527600231,4.22596880866973e-06,3.57348761548904e-07,-2.04579222835921e-06,0.00570468346861433,0.000767980996332415,-0.00181835369295854,0.00234274675508003,1.47693175543095e-06,-7.19103484650707e-05,5.42703410866641e-16,-1.29953069424699e-16,-8.21784769388135e-09,-2.96995828962186e-06,-1.91821770777183e-06,2.4641912614481e-16,-1.60811518802423e-06,-2.06618187908526e-05,0.00014127827641648,0.000406986838725192,-7.54787094363053e-17,-0.0039570924082464,0.000173767911881801,-1.25257354480506e-07,-2.96060754671986e-17,2.10519402540451e-16,-0.000634011561123951,1.41874996448755e-16,3.04934211894309e-06,1.16220864458844e-05,-7.97874050730848e-07,1.9335772081802e-16,-5.39853069366202e-07,-1.09344803778988e-15,-3.25621462293502e-16,-1.2069357604457e-06,-3.90121051908483e-15,4.36743110899041e-05,0.000947555436151275,-0.394678065557928,-3.53752086822784e-15,4.66103149484565e-07,-1.12674918144443e-07,-3.2674863941299e-15,9.23803473124238e-16,-8.59481584057159e-16,-2.5092534826974e-15,5.90872390151179e-16,1.86354194436048e-15,-1.10770074610674e-07,-2.15410990502479e-15,-2.0704022263767e-15,7.14755391816713e-15,-3.05147991374095e-15,-8.46436072212315e-15,1.97287299073803e-14,-3.34022682823438e-08,0.70710678118654,6.70991040507829e-13,3.86172326368439e-14,-0.100000000000064
"t19",0.115141357323148,0.00595124024709444,0.0137843172142429,-0.00120980985915097,-0.000427726852371014,-0.00224090754534231,-0.000772712031806986,-0.0516967793862752,-2.08713854927223e-05,-0.000170517067920638,0.000113218216486497,-0.00677668497691235,-0.00434566451032822,-0.145197008018783,0.00155123672497001,-0.636686810746777,-0.19381718035184,0.00961028025528695,0.0739321661943371,-0.00637068985626032,0.000192777661716364,-0.0287502736966966,0.000775353709751286,-0.00259665997081716,0.0116852533313398,-0.000958622235299076,-0.000267362351584694,0.000114497372895774,-0.000286664551863782,0.00125593153863575,0.0547230736734378,8.55204096417535e-06,0.0067423455011839,0.000952135589830521,-9.94896438577348e-05,3.70583964760757e-05,1.57493745187578e-15,-0.000229664325761033,0.707106781186547,0.00639105363047894,-1.45232363879266e-05,4.49401505037299e-05,-7.6324029589035e-05,0.00486024072192737,0.00785438631747116,-0.00107705125371047,0.00137761911582729,3.02843724103941e-05,-0.00142133133889988,7.26962807776855e-16,-1.54384246232428e-16,-1.3387119162606e-07,-4.77769015025438e-05,-2.59130556575394e-05,2.34616055410574e-16,-2.05403846955186e-05,-1.10114049816625e-05,0.00177366177560948,0.00185398180430862,-1.07391283008872e-16,-0.000616353329147151,0.00075572104372172,-1.45142038476293e-06,-1.21835676449381e-17,3.52009794535998e-16,-0.000317861355465669,7.36287623321521e-16,3.1267680604107e-05,4.33803763424666e-05,-7.6963005941873e-06,-3.926900337582e-16,-4.85359699185988e-06,9.08457865131604e-17,3.35401019858861e-17,-9.96540276083712e-06,2.4055454185261e-17,0.000273641737424443,0.000271436001932255,-0.000664568082524166,2.45090427175758e-16,-5.55659229896903e-06,-5.36475620146459e-06,8.46065647212906e-17,2.48008464633022e-16,-7.67388268615996e-16,-1.36305688754982e-15,5.94214096424678e-16,-5.8907944109599e-16,-1.59412255969547e-06,-5.39387857347555e-16,1.96431896629681e-16,-3.79690531340833e-16,2.87207408506001e-16,-2.74888250310193e-15,5.24129368525595e-16,-4.14707063076299e-07,-6.02828748744075e-15,7.67396562961764e-13,3.49349149495322e-14,-0.0999999999999963
"t38",0.115141357323148,0.00595124024709445,0.0137843172142429,-0.00120980985915087,-0.000427726852370946,-0.00224090754534233,-0.000772712031806965,-0.0516967793862751,-2.08713854925733e-05,-0.000170517067920798,0.000113218216486437,-0.00677668497691256,-0.00434566451032825,-0.145197008018783,0.00155123672496996,-0.636686810746777,-0.193817180351839,0.00961028025528724,0.0739321661943369,-0.00637068985626018,0.000192777661716478,-0.0287502736966969,0.000775353709751592,-0.00259665997081714,0.0116852533313402,-0.000958622235298977,-0.00026736235158452,0.000114497372897105,-0.000286664551863802,0.00125593153863645,0.0547230736734367,8.55204096491157e-06,0.00674234550118819,0.000952135589831261,-9.9489643858657e-05,3.70583964748201e-05,-1.53966815806836e-15,-0.000229664325801344,-0.707106781186548,0.0063910536303245,-1.45232363941694e-05,4.49401505022124e-05,-7.63240295916256e-05,0.00486024072193568,0.00785438631747894,-0.00107705125370866,0.00137761911582517,3.02843724106087e-05,-0.00142133133890167,-6.80039960003087e-16,2.47219161766491e-16,-1.3387119253867e-07,-4.77769015021161e-05,-2.59130556564936e-05,-1.14737149834792e-16,-2.05403846958167e-05,-1.10114049822646e-05,0.00177366177560467,0.00185398180430766,2.30993708039975e-16,-0.000616353329147088,0.000755721043722692,-1.45142038442881e-06,-1.78757672799442e-16,6.11678069777408e-17,-0.000317861355466144,-2.6291309884116e-16,3.1267680604106e-05,4.33803763435399e-05,-7.69630059424556e-06,3.50931533636764e-16,-4.85359699199365e-06,-2.56098908682201e-16,8.90512525230113e-17,-9.96540276186804e-06,-1.981714910952e-16,0.000273641737426944,0.000271436001932787,-0.000664568082524689,1.18675461935066e-16,-5.55659229957417e-06,-5.36475620161238e-06,2.16445549032537e-16,7.82303303118622e-16,-7.69471780208288e-16,-9.43882025829466e-16,2.50201654308044e-16,1.63790560706495e-16,-1.59412255974537e-06,-5.68509502309442e-16,1.4092074539841e-16,2.30932140036908e-16,2.58649171798622e-16,-2.86593441927438e-15,4.39523880707573e-16,-4.14707062919768e-07,-6.5001337247607e-15,7.66994107115337e-13,3.48883616821775e-14,-0.0999999999999995
"t20",-0.0247144178042203,-0.0778118781601365,-0.290048167629304,0.180547828866014,-0.12875600347235,0.03805840515299,-0.0236719531651715,0.00128989796931537,0.00107504429093467,0.00298344097845703,-0.00115013828579726,0.117503784586491,0.0779759884664309,0.000111873014388868,-7.77504859863904e-05,0.000924800502929284,-0.000259803190367052,0.000702954453446571,0.00132823799533747,4.41155702446458e-07,2.57580054078383e-05,-3.7304930430837e-06,3.33027713053839e-05,9.57171081846389e-05,-1.01907841125419e-05,0.000679377269344788,0.00031690955129877,-0.00024955929513566,0.000677085291323335,-0.00290640921444213,-0.00129964273703018,-0.00010196349445329,-0.00878142176179347,-0.756324928628987,-0.00405120381627598,0.000345345472166566,1.60928591597074e-16,-0.00159649258760118,7.117103238929e-16,0.000248122603458816,-0.000112406888674979,0.000424600697578047,-0.505929839432034,7.24601903143966e-05,0.000172869624036844,-2.54915231487914e-05,3.30972984918614e-05,0.000114197507748494,-0.000944174618684103,4.22156494630126e-16,-9.68864548246352e-16,-5.32014441078312e-07,-0.000189119671290754,-9.65189197351937e-05,-3.25468515145213e-16,-7.27118354984787e-05,-2.61021246314293e-07,0.000296511040772818,4.11866638569534e-05,-1.64302532907044e-16,-1.40265206394565e-05,1.72028189592486e-05,-5.18822149228624e-06,-9.03235243336853e-17,-2.10021319520303e-16,-7.23157341949096e-06,-4.73900151046738e-16,0.000108240692933651,9.86018015207357e-07,-2.63061162778864e-05,-1.03036652041964e-16,-1.64003334428864e-05,-8.67597827030262e-16,1.9317774591537e-16,-0.00416123927216781,-4.83875639331368e-16,4.29432947890786e-05,6.18797978344873e-06,-1.52019736977118e-05,-7.75897731706387e-17,-1.78036029310837e-05,-1.70471441539639e-05,-4.16551930389429e-16,5.07712276082958e-16,-8.43296344461035e-16,-1.30802556120481e-15,2.38051249596048e-16,-2.10795938613503e-16,-4.9796467069028e-06,-4.82809795669159e-16,-4.33957256049327e-17,3.43377152658285e-16,2.70998751471179e-16,-2.70898567805608e-15,2.35412514511266e-16,-1.28403534120047e-06,-6.33651851532246e-15,7.68429590791708e-13,3.50097725696373e-14,-0.100000000000008
"t25",-0.0248221371822153,-0.0791216308959254,-0.295608944818087,0.185221366255164,-0.133384088560824,0.0395830865602192,-0.024668451048181,0.00137383436100944,0.00115107600166061,0.00322684735678524,-0.00126334252924359,0.134431137393808,0.0892306713555563,0.000140666339570194,-9.94951513404661e-05,0.00123812638908258,-0.000370055842720574,0.00103271897936113,0.00211060034221738,7.83259141865881e-07,7.93969470680687e-05,-1.79391678433636e-05,0.000316438598911189,-0.00100399701206834,9.90950331769767e-06,-0.000130481154260946,1.94814884325096e-05,-6.13453611777461e-05,0.000179286926156417,-0.000982776559976686,-0.000454341865200129,-3.87355566362791e-05,-0.00367974685907939,-0.32746565577916,-0.00179263837797391,0.000148012128904863,-1.21936138041352e-16,-0.000498855009409702,-1.46882012976726e-15,7.38458708268384e-05,-2.9561414643298e-05,-0.000129971091867422,0.841489192996086,0.000204274624844135,0.000221901800446922,-2.59454242606581e-05,3.22934603037832e-05,0.000106315590937727,-0.00086846627480215,-1.16801465659308e-15,1.21707838086779e-15,-4.57411579270595e-07,-0.000161989475931574,-7.95542759585993e-05,1.27267718818635e-15,-5.95343304436473e-05,-2.13711762123422e-07,0.000242453906846468,3.3631044629014e-05,1.62929457972721e-16,-1.13977813041846e-05,1.39569113679105e-05,-4.2073324182196e-06,1.3527846718184e-16,5.23510884345073e-16,-5.85665429489249e-06,-1.79943718220869e-17,8.75951547893901e-05,7.97980356231354e-07,-2.12932369962618e-05,-2.01108015932616e-17,-1.32893682040309e-05,-3.32471559588795e-16,-9.42275683776177e-17,-0.00713445315794124,9.9947051612623e-16,3.48580338725312e-05,5.02824021108654e-06,-1.23849679951943e-05,1.31332352163289e-16,-1.45268935504529e-05,-1.39400496484567e-05,5.1577541250804e-16,4.29071054579694e-16,-4.24878034289447e-16,-1.04594795531395e-15,7.54769205804987e-16,-2.93760555798503e-16,-4.09411664282478e-06,-7.03113808432941e-16,-1.69321575653381e-15,-5.65890830906197e-16,3.18826876306878e-16,-2.75498446713977e-15,3.63325946068185e-16,-1.05918961960386e-06,-6.52254912570465e-15,7.66038274480074e-13,3.4990600188792e-14,-0.0999999999999889
"t70",-0.0250523776893249,-0.0819110734910097,-0.307444380406613,0.195150570375768,-0.143191574752887,0.042810826479833,-0.0267769996864407,0.0015505273152819,0.00131094117387304,0.00373753090043161,-0.00150011059074868,0.169575888751281,0.112596824303689,0.000199659538491034,-0.000143956347230882,0.00187575695638714,-0.000593183025077097,0.00169846779681862,0.00368162227054352,1.46606350380038e-06,0.000184709217144367,-4.56715227567327e-05,0.000866617008317137,-0.00312582399279189,4.79714495439037e-05,-0.00163193327488686,-0.000521003153277013,0.000269438674197176,-0.000690596941710969,0.0022744460945034,0.000966936579771297,6.50834713533296e-05,0.00426841412552147,0.3180339546363,0.00147411672955466,-6.03425077035988e-05,3.5719582276994e-16,0.000124892179469197,2.66075070314303e-17,-1.7895483358912e-05,6.70871479524568e-06,1.95733629958205e-05,-0.10510285712648,-1.83715559935792e-05,-1.06922476714379e-05,1.38744710789466e-07,2.69521752915022e-07,2.99211854063833e-06,-2.98183016442756e-05,3.12163849398705e-16,8.72077825753028e-18,-3.84455809677552e-08,-1.42616730891076e-05,-1.17307605530836e-05,-1.51839136619801e-15,-9.81158754207312e-06,-3.52351350284141e-08,4.09328439052945e-05,5.82958560443404e-06,-7.32927797041578e-16,-2.19088154833053e-06,2.78897436519257e-06,-8.51049113588809e-07,1.25922401776745e-15,-1.07839810658702e-15,-1.22751467658915e-06,1.02742630180115e-15,1.83947816182849e-05,1.6124107850319e-07,-4.03363230647536e-06,2.50174997349331e-15,-1.20569088038778e-06,-7.61367849250689e-15,-6.04912475933304e-17,0.820546184671109,-4.20516507105738e-15,1.68158857242956e-05,2.31789970703286e-06,-5.51841932832505e-06,8.79093101543333e-16,-6.47323213774903e-06,-6.26921473678439e-06,-2.36661139027956e-15,4.15180685738384e-17,-1.06683184603069e-18,-1.91706930001868e-15,1.02188426939489e-15,-8.12933642838192e-17,-1.91230130285879e-06,-1.27537833079571e-15,-1.94846777446857e-15,1.59064374612928e-16,-1.5248225821422e-16,-3.06637148594529e-15,4.12872737948653e-16,-5.0751488333445e-07,-5.25804533507962e-15,7.64991368862322e-13,3.47770662924932e-14,-0.0999999999999717
"t74",-0.0250605293355948,-0.0820086280390027,-0.307857398787547,0.195494981575805,-0.143528878896702,0.0429214690833542,-0.0268491620428593,0.0015564742975104,0.00131630167067011,0.0037545380313219,-0.00150791884048053,0.170709237644251,0.113350245697477,0.000201489840059275,-0.000145327916429748,0.00189517013336868,-0.000599874622723894,0.00171830411248277,0.0037277745457243,1.4858115765875e-06,0.000187634101225813,-4.64310650850826e-05,0.000881531362015236,-0.00318242373626641,4.89462168426529e-05,-0.00166876624892738,-0.00053376541357278,0.00027680338593873,-0.000709780947117598,0.00234278861061686,0.000996444011558385,6.71663258632246e-05,0.00441722709378677,0.329634520941999,0.00153031951512113,-6.3139019729949e-05,-1.15322866078796e-17,0.000131471049437122,9.85873692286733e-16,-1.88456878127301e-05,7.07059172020154e-06,2.0727810633065e-05,-0.111523234889441,-1.95547484931952e-05,-1.14327224039624e-05,1.49240871071971e-07,2.9057379184814e-07,3.23784344484942e-06,-3.23084264803701e-05,9.57954630644277e-16,-7.57713001546218e-16,-4.22053613878809e-08,-1.56773579630393e-05,-1.32843222247109e-05,2.61428635684618e-16,-1.12805617861203e-05,-4.05132746625585e-08,4.72658781606033e-05,6.76779738901846e-06,2.3294884452735e-16,-2.62559123229066e-06,3.41383473560494e-06,-1.05121256669031e-06,-1.04809204963167e-15,3.17516647082264e-16,-1.58575136065118e-06,1.05784984848527e-15,2.66633810190732e-05,2.57971339277147e-07,-7.24480928032961e-06,-1.97604742598528e-15,-5.49113307271084e-06,6.27459762136305e-17,1.41594173151712e-15,-0.404125968856552,-0.707106781186546,9.95135364957866e-06,1.54960295803597e-06,-4.26019613933464e-06,-8.14589151470001e-16,-5.2202382701519e-06,-5.26377017951026e-06,3.68709540150907e-16,-2.49830905239124e-16,-1.10281793721153e-15,-8.64860603802938e-16,-5.75370100349964e-16,-2.56505347481899e-16,-1.69442850722438e-06,-4.85935793563571e-17,7.14263841259795e-16,-2.20743871004069e-15,4.89109883126022e-16,-2.98317180338891e-15,8.77287299318085e-16,-4.58216492426609e-07,-7.7671244262369e-15,7.67181457250743e-13,3.49184960456106e-14,-0.100000000000015
"t75",-0.0250605293355948,-0.0820086280390026,-0.307857398787547,0.195494981575805,-0.143528878896703,0.0429214690833542,-0.0268491620428594,0.00155647429751044,0.00131630167066996,0.00375453803132202,-0.00150791884048065,0.170709237644251,0.113350245697477,0.000201489840059014,-0.000145327916429999,0.00189517013336898,-0.000599874622724406,0.00171830411248282,0.00372777454572457,1.48581157639285e-06,0.0001876341012259,-4.64310650851645e-05,0.00088153136201531,-0.00318242373626571,4.89462168435715e-05,-0.00166876624892805,-0.00053376541357295,0.000276803385938666,-0.000709780947117829,0.00234278861061669,0.000996444011558322,6.71663258632156e-05,0.00441722709378822,0.329634520942,0.00153031951512127,-6.31390197300667e-05,5.34690297570202e-17,0.000131471049437222,7.91584666618154e-16,-1.88456878132296e-05,7.0705917203605e-06,2.07278106334403e-05,-0.111523234889443,-1.95547484938129e-05,-1.14327224037141e-05,1.49240870367113e-07,2.90573790464126e-07,3.23784344434441e-06,-3.23084264820927e-05,-3.42702127260535e-16,5.3140643087989e-16,-4.22053614114312e-08,-1.56773579631008e-05,-1.3284322225567e-05,7.37677550086713e-16,-1.12805617866898e-05,-4.0513269088693e-08,4.72658781540779e-05,6.76779739058744e-06,3.55309158667817e-17,-2.62559123183045e-06,3.41383473563966e-06,-1.05121256594906e-06,-5.09426002577835e-16,3.92340608861116e-16,-1.58575135349132e-06,-1.2736185032276e-15,2.66633810171855e-05,2.5797132669891e-07,-7.24480927937157e-06,-4.89465101341402e-16,-5.49113307395228e-06,5.82202791645663e-15,-1.31191098840131e-15,-0.404125968856546,0.707106781186549,9.95135374258486e-06,1.54960296807905e-06,-4.26019614839913e-06,5.2857571748453e-16,-5.22023827485337e-06,-5.26377018014884e-06,1.47893256444212e-15,1.59938436535818e-15,-9.5417721367289e-16,-4.06341788558366e-16,5.76233709274355e-16,-1.10305029456104e-15,-1.69442850948107e-06,-1.60884779927559e-16,2.15408432632046e-15,1.41466388845574e-15,5.48070830643224e-16,-2.10268240203629e-15,-2.30469755117178e-16,-4.58216492303909e-07,-5.75483798083294e-15,7.67165844739459e-13,3.48497042299533e-14,-0.100000000000016
"t29",-0.023620928497412,-0.063132789110165,-0.22654943660133,0.124222734202806,-0.0682238911126944,0.017429306019495,-0.00996020506517418,-0.00011482495078111,-0.000262717453255282,-0.00174437780389317,0.001434874009465,-0.533616776898903,-0.356556529964047,0.00552441573789756,-0.00224738011720577,0.0159192492032128,-0.00355226694621373,0.00916761897119404,0.0166923356248624,5.76445968506017e-06,0.000564714265576517,-0.000130719228484473,0.00237203596273971,-0.00801635134160996,0.000106047037399359,-0.00311453285376745,-0.000870874242988126,0.000359256349628864,-0.000884023570437101,0.00228108296373356,0.000912760826240437,4.89080134374152e-05,0.00149320365212967,0.0315892030281897,-0.000266571777994012,0.00013397836372106,4.85086177042115e-17,-0.000783162104302049,8.27157619617564e-16,0.000122391670657623,-5.58298131283304e-05,0.000167115571383307,-0.00209678473842673,0.000101655746106202,0.000168557239017505,-2.38512122604396e-05,3.09875169808936e-05,0.000107592541608138,-0.000892151465410435,8.86452565831398e-15,0.707106781186547,-5.19554089467008e-07,-0.000185274380994493,-9.96373134249618e-05,9.83927903048788e-17,-7.63524332292903e-05,-2.74108806159231e-07,0.000312638695051668,4.36313063328384e-05,2.52084686495918e-16,-1.51772506008232e-05,1.87989068361468e-05,-5.68968299111694e-06,3.88014694132547e-16,1.86727649898785e-16,-8.0371819006751e-06,2.13411544366205e-15,0.000122511302943315,1.12494207198656e-06,-3.01829229196277e-05,-7.76267344943159e-16,-1.90556680943865e-05,-2.68483142819403e-16,-4.57654223371363e-16,-0.000263622561102171,-6.55255678126574e-16,5.1615412999932e-05,7.48213477094012e-06,-1.86348322539731e-05,-6.98626539394539e-17,-2.19846736382657e-05,-2.12518344494654e-05,1.11090921165595e-16,3.73741650952694e-17,-8.44333681138644e-16,-1.37749252145008e-15,7.8904197029721e-17,-2.41227227039958e-16,-6.33539432425471e-06,-8.54502172421952e-16,1.16460116658484e-15,2.06530416529865e-16,3.6596029181833e-16,-2.64689897162955e-15,9.22924845605976e-16,-1.65129043471187e-06,-6.36034886171248e-15,7.66616804759312e-13,3.47352757907448e-14,-0.0999999999999979
"t30",-0.023620928497412,-0.063132789110165,-0.22654943660133,0.124222734202806,-0.0682238911126944,0.017429306019495,-0.00996020506517418,-0.000114824950780962,-0.000262717453255293,-0.0017443778038932,0.00143487400946499,-0.533616776898903,-0.356556529964047,0.0055244157378976,-0.0022473801172056,0.015919249203213,-0.00355226694621378,0.00916761897119399,0.016692335624863,5.76445968497995e-06,0.000564714265576354,-0.000130719228484151,0.00237203596273973,-0.00801635134161039,0.000106047037398511,-0.00311453285376735,-0.000870874242987986,0.000359256349629033,-0.000884023570436903,0.0022810829637329,0.000912760826239951,4.89080134375242e-05,0.00149320365213025,0.03158920302819,-0.00026657177799443,0.00013397836372055,8.34753864708917e-17,-0.000783162104300876,-1.40818087837936e-16,0.00012239167066021,-5.58298131285853e-05,0.00016711557138382,-0.00209678473842476,0.000101655746109118,0.000168557239025713,-2.38512122690788e-05,3.09875169708657e-05,0.000107592541609608,-0.000892151465431505,-8.77635211475085e-15,-0.707106781186547,-5.19554083842867e-07,-0.000185274381001824,-9.96373134251506e-05,1.99007548368279e-16,-7.63524332292166e-05,-2.74108799842786e-07,0.000312638695054762,4.36313063345198e-05,-3.76186827433777e-16,-1.51772506042602e-05,1.8798906837979e-05,-5.68968299070487e-06,-6.04003286375269e-16,-1.51903690922357e-16,-8.03718190143322e-06,-2.05697647429792e-15,0.00012251130294355,1.12494207337686e-06,-3.01829229190648e-05,6.67730023989548e-16,-1.90556680942686e-05,-3.97936882214175e-16,5.34607629775195e-16,-0.000263622561101903,5.07009036042895e-16,5.16154130003863e-05,7.48213476983962e-06,-1.86348322532749e-05,1.98695539961423e-16,-2.19846736383832e-05,-2.125183444875e-05,-2.9223228739124e-16,1.02269708267185e-15,-4.48994263143677e-16,-1.07367573247632e-15,5.85861937880501e-16,-4.94496813177588e-16,-6.33539432405411e-06,-3.07259709630862e-16,-8.8931142897176e-16,-6.67770225632601e-16,2.75065954284819e-16,-2.89978913184556e-15,-1.52396298858153e-16,-1.65129043465612e-06,-6.16430707447566e-15,7.66869207025067e-13,3.50549684351535e-14,-0.0999999999999985
