"","c1","c2","c3","c4","c5","c6","c7","c8","c9","c10","c11","c12","c13","c14","c15","c16","c17","c18","c19","c20","c21","c22","c23","c24","c25","c26","c27","c28","c29","c30","c31","c32","c33","c34","c35","c36","c37","c38","c39","c40","c41","c42","c43","c44","c45","c46","c47","c48","c49","c50","c51","c52","c53","c54","c55","c56","c57","c58","c59","c60","c61","c62","c63","c64","c65","c66","c67","c68","c69","c70","c71","c72","c73","c74","c75","c76","c77","c78","c79","c80","c81","c82","c83","c84","c85","c86","c87","c88","c89","c90","c91","c92","c93","c94","c95","c96","c97","c98","c99","c100"
"Hydnophytum_mamberamoense",-0.0299721242785456,0.0173955858171048,0.065017447578992,0.120623189792124,0.0346817325797574,0.0828671805463624,-0.0243575509676842,0.0302435703526574,-0.351944207953838,-0.0118018140853238,0.0203953505391849,0.00491967758933389,0.0278072600693618,-0.0300157083548123,-0.000137290376251122,0.104220739976634,0.111538521808938,0.548879445177607,-0.441467919641162,0.560239198409001,-0.00532151219833929,-0.00498307541382605,-0.00534633912963623,4.34488087382757e-16,-7.40661173492502e-17,0.0141902148444707,-0.0255410639365615,-0.000730805775232793,-4.78335370149947e-06,6.20835492701583e-16,9.07734479293859e-18,1.13276173957563e-16,0.00022687125187547,-3.24387676896969e-05,3.83533401247781e-07,-0.00529694843086172,-6.05849451533303e-05,-0.000366570286166602,-7.92450202525982e-05,0.00433451584717889,-0.00239136877624168,9.21523285367361e-05,-0.00121882140701473,0.000222135436111631,-0.000662266469981704,0.000732181021485379,-3.91598471594022e-06,0.000139573577437731,-3.92969333310246e-05,-6.38867664394436e-05,4.20009721266798e-07,-0.00059407927751498,0.000802161995043017,-4.72410270444176e-05,-1.55806517273923e-06,1.38686331980642e-16,5.68085647410528e-05,1.71874349609435e-16,2.75004656100885e-17,-2.19791057418035e-05,7.39678251697334e-05,3.64204815908511e-06,2.82555215866389e-05,-1.3220613516289e-16,2.82672857916564e-16,-7.05147950912031e-18,-4.14243625302126e-17,1.82089491837856e-07,0.000194484568489566,2.99792092600772e-16,0.000157824196743409,-9.89003180371995e-18,3.76276615963298e-16,9.52834255481378e-17,-2.05309546948893e-16,-4.29751319382584e-16,0,-9.62197302902426e-17,2.57093557049268e-16,-6.30472894934199e-05,-2.70104047664912e-16,3.63221771223782e-05,1.57714165360264e-16,-0.000101443297230951,1.94352305197832e-16,6.02084355274485e-16,-8.18754471000475e-17,5.71766579984321e-16,-3.11268493464532e-16,-1.20310617313555e-16,-4.03790764727222e-17,-8.49988899159289e-16,-4.9680183236204e-16,7.4918608334555e-16,-4.69753887126424e-16,7.43274985081762e-16,-1.52157993859724e-15,2.3150304969762e-16,4.38309524565486e-15,-0.0999999999999978
"Zuccarinia_macrophylla",-0.029972124278546,0.0173955858171048,0.065017447578991,0.120623189792122,0.0346817325797569,0.0828671805463624,-0.0243575509676836,0.0302435703526566,-0.35194420795383,-0.0118018140853289,0.020395350539183,0.00491967758932909,0.0278072600693474,-0.030015708354818,-0.000137290376273026,0.479633693195611,-0.0251328289803537,0.319413607687033,-0.0161367597203525,-0.707366769648111,-0.00532151219834991,-0.00498307541381356,-0.00534633912963814,-7.05282588409835e-16,-3.19058163051394e-16,0.0141902148444649,-0.0255410639365633,-0.000730805775231571,-4.78335370084169e-06,1.45483696981838e-16,2.69189037973417e-16,-1.26299326237775e-15,0.000226871251876321,-3.24387676911723e-05,3.83533402732295e-07,-0.00529694843086125,-6.05849451544045e-05,-0.000366570286166808,-7.92450202533422e-05,0.00433451584717961,-0.00239136877624268,9.21523285363619e-05,-0.00121882140701377,0.000222135436110831,-0.000662266469982027,0.000732181021486981,-3.91598471846028e-06,0.000139573577437597,-3.92969333307792e-05,-6.38867664391979e-05,4.20009722120592e-07,-0.000594079277515924,0.000802161995042977,-4.72410270426463e-05,-1.55806517303214e-06,-1.12891121318268e-16,5.68085647413752e-05,1.10538442453047e-16,1.54663065967743e-16,-2.19791057402735e-05,7.3967825169846e-05,3.64204815888434e-06,2.82555215859382e-05,3.26687636707706e-16,6.52048306409244e-16,-3.57699234424542e-16,-2.38179818703039e-16,1.82089491034855e-07,0.000194484568489751,1.89650688422772e-16,0.0001578241967447,3.65113889855182e-16,-8.1805472812019e-16,1.76217353626286e-16,-6.46610105749533e-16,-2.87985800911344e-16,4.81028909638347e-17,-6.3700981397766e-17,1.13715724633823e-15,-6.30472894936798e-05,-1.94530591013362e-16,3.63221771224444e-05,2.51129366103355e-16,-0.000101443297231581,2.52289429188123e-16,7.51510117602902e-16,-7.58972780094929e-16,7.40993326016451e-16,-2.32637962254288e-16,2.47371397233931e-16,-1.25299329955682e-16,-6.9093173065927e-16,-2.07408388568042e-16,1.37511653325887e-15,-3.9467472657552e-16,3.05706376845032e-16,-1.43823226924555e-15,-8.95990012037781e-16,4.37280744710029e-15,-0.0999999999999982
"Tarennella_sanguinea",-0.0299721242785468,0.0173955858171048,0.0650174475789921,0.120623189792124,0.0346817325797579,0.0828671805463625,-0.0243575509676844,0.0302435703526573,-0.351944207953833,-0.0118018140853225,0.0203953505391847,0.00491967758933013,0.0278072600693666,-0.0300157083547939,-0.000137290376231816,-0.728159308503802,0.161541470332388,-0.164373847332602,-0.37607498134539,-0.329500462601489,-0.00532151219835218,-0.0049830754138347,-0.00534633912963456,1.24814027898842e-15,-1.27388644904411e-15,0.0141902148444723,-0.025541063936563,-0.000730805775234641,-4.78335369993873e-06,-1.01400102257049e-15,-1.22628321700099e-16,-1.29232304882188e-15,0.000226871251874191,-3.24387676898721e-05,3.83533402872855e-07,-0.00529694843086398,-6.05849451533487e-05,-0.0003665702861652,-7.9245020252169e-05,0.00433451584717745,-0.00239136877623967,9.21523285365594e-05,-0.00121882140701465,0.000222135436112308,-0.000662266469982006,0.000732181021483875,-3.91598471632722e-06,0.000139573577437576,-3.92969333289238e-05,-6.38867664390318e-05,4.20009721909619e-07,-0.00059407927751451,0.000802161995042756,-4.724102704429e-05,-1.55806517179712e-06,-2.37727743613609e-16,5.6808564741904e-05,-1.76170605475752e-16,2.5916068135046e-16,-2.19791057411382e-05,7.39678251693303e-05,3.64204815874125e-06,2.82555215879334e-05,-1.56409851916534e-15,-1.95384615803434e-16,7.56640511090947e-16,-1.23141520706251e-15,1.82089491566535e-07,0.00019448456848999,-2.62250260057221e-16,0.0001578241967428,1.05799379588298e-16,3.24338284851636e-16,-4.72042336665747e-17,7.54585522887506e-16,3.59642279772109e-17,-1.01748628123077e-16,1.74735050025156e-16,1.03141460228361e-16,-6.30472894936559e-05,-3.79002334859607e-16,3.63221771230293e-05,-7.51709654319875e-16,-0.000101443297232071,2.26412974337673e-16,5.67067913945502e-16,-6.03524039608157e-16,8.09707364550112e-16,-2.45960900225446e-16,7.17897901623115e-16,-1.22275025676873e-16,-7.86949633930784e-16,-5.215517825985e-16,7.17396132536914e-16,-3.99668844181295e-16,7.37493172597326e-16,-1.38996948296827e-15,2.23967338112143e-16,4.19772269441207e-15,-0.099999999999997
"Micrasepalum_eritrichoides",-0.0299721242785461,0.0173955858171043,0.0650174475789921,0.120623189792124,0.0346817325797569,0.0828671805463624,-0.0243575509676843,0.0302435703526573,-0.351944207953839,-0.0118018140853237,0.0203953505391817,0.00491967758933295,0.0278072600693609,-0.030015708354821,-0.000137290376265629,-0.241683355844739,-0.751511095748968,0.100945557368108,0.426530878094428,0.134294327083392,-0.00532151219835405,-0.00498307541382476,-0.005346339129634,1.7169717931475e-16,1.35430913742511e-16,0.0141902148444677,-0.0255410639365612,-0.000730805775231194,-4.78335370149722e-06,5.24742087493853e-16,-9.06437533192518e-16,-7.38973592155914e-17,0.000226871251876012,-3.24387676899388e-05,3.83533400897397e-07,-0.00529694843085815,-6.05849451534707e-05,-0.000366570286168712,-7.92450202532786e-05,0.00433451584717902,-0.00239136877624088,9.21523285364881e-05,-0.00121882140701492,0.000222135436110942,-0.000662266469979432,0.000732181021485187,-3.9159847156656e-06,0.000139573577435366,-3.92969333312447e-05,-6.38867664392329e-05,4.20009719894804e-07,-0.00059407927751572,0.000802161995043828,-4.72410270454119e-05,-1.55806517229826e-06,1.81875275152444e-17,5.68085647426727e-05,1.02628702820712e-16,-1.45023923854796e-16,-2.19791057416779e-05,7.39678251702248e-05,3.64204815988228e-06,2.82555215864658e-05,9.24592656449195e-16,-9.37421157056548e-16,-4.32927176049237e-16,1.46808255965052e-15,1.82089491653281e-07,0.000194484568490977,4.6709844580795e-16,0.000157824196744739,-4.75334415441079e-18,1.36386663590113e-15,-2.01181827389415e-16,2.40554887098913e-16,-2.75240019443357e-16,-3.97444979141136e-16,2.80611889840031e-16,-8.53676869082177e-17,-6.30472894934127e-05,-2.43137960020027e-16,3.63221771224914e-05,-5.73969393017579e-17,-0.000101443297229978,1.42094735970874e-16,8.20393882201914e-16,-4.22366047948955e-16,9.6348071760847e-16,-2.84030300415017e-16,-3.49441893522204e-16,-1.08084607386816e-16,-1.12356272607865e-15,-4.25583538536308e-16,1.20345032669478e-15,-6.99652380854485e-16,4.82651135956592e-16,-1.87893500022428e-15,-8.3173604851032e-18,4.23195102254319e-15,-0.0999999999999988
"Pitardella_sikkimensis",-0.029972124278546,0.0173955858171054,0.0650174475789911,0.120623189792124,0.0346817325797573,0.0828671805463623,-0.0243575509676843,0.0302435703526575,-0.35194420795384,-0.0118018140853222,0.0203953505391866,0.00491967758933485,0.0278072600693597,-0.0300157083548098,-0.000137290376250933,0.41204807852177,-0.115147596624697,-0.745647977954256,-0.242855689311146,0.187938693337323,-0.00532151219833661,-0.00498307541382982,-0.00534633912963988,-1.09027423956492e-15,1.05991641131058e-15,0.0141902148444718,-0.0255410639365628,-0.000730805775231145,-4.78335370224104e-06,-6.58051729925703e-16,-8.50436446612342e-16,-9.75568668056712e-16,0.00022687125187408,-3.24387676899405e-05,3.83533402167373e-07,-0.005296948430862,-6.05849451537329e-05,-0.000366570286165589,-7.92450202514927e-05,0.00433451584717812,-0.00239136877624191,9.21523285366144e-05,-0.00121882140701435,0.000222135436112102,-0.000662266469980308,0.000732181021485201,-3.91598471642754e-06,0.000139573577437114,-3.92969333315319e-05,-6.38867664397607e-05,4.20009721055808e-07,-0.000594079277515522,0.000802161995043729,-4.72410270444889e-05,-1.5580651722389e-06,5.10454421977149e-16,5.68085647403803e-05,1.89328518720331e-16,4.58857577023292e-17,-2.19791057409243e-05,7.3967825169398e-05,3.64204815904531e-06,2.82555215867229e-05,-1.02506320227827e-15,2.4084149321558e-16,2.26430760501867e-16,1.22902132226287e-16,1.82089491827341e-07,0.000194484568489638,4.72615639657464e-16,0.000157824196743588,-4.6795726013403e-17,4.15908083479729e-16,5.48156099642734e-16,-4.42921700632012e-16,-2.33396881478629e-16,6.57174452974314e-18,-4.79726307376447e-16,7.16628427169172e-17,-6.30472894936764e-05,-1.48184602269653e-16,3.63221771222092e-05,1.49758718344642e-16,-0.000101443297231173,2.70305573157635e-16,5.13556588655207e-16,-2.06994226250451e-16,6.91151159337546e-16,-5.07337739489146e-16,-5.14897490813599e-16,8.00662296366552e-17,-8.58047737926995e-16,-7.34545170158744e-16,6.19093701987162e-16,-6.95120478319476e-16,9.64950682793846e-16,-1.49641446429391e-15,7.48098221247802e-16,4.26154143323689e-15,-0.0999999999999988
"Tournefortiopsis_cuatrecasasii",-0.029972124278546,0.0173955858171048,0.0650174475789921,0.120623189792124,0.0346817325797571,0.0828671805463622,-0.0243575509676843,0.0302435703526574,-0.351944207953837,-0.0118018140853225,0.0203953505391855,0.00491967758933251,0.0278072600693615,-0.0300157083548135,-0.000137290376250317,-0.026059847345475,0.618711529212697,-0.0592167849458833,0.650004471923618,0.154395013419865,-0.00532151219834223,-0.00498307541381753,-0.00534633912963558,-1.23659786014726e-15,3.94855623084105e-16,0.0141902148444726,-0.0255410639365618,-0.000730805775228089,-4.78335370110637e-06,4.07919692009312e-16,1.2761067545485e-15,1.25258759664756e-15,0.000226871251876395,-3.24387676882088e-05,3.83533402617747e-07,-0.00529694843086271,-6.05849451535964e-05,-0.000366570286166577,-7.92450202530801e-05,0.00433451584717864,-0.00239136877624253,9.21523285363949e-05,-0.00121882140701493,0.000222135436112744,-0.000662266469981394,0.000732181021484523,-3.91598471472767e-06,0.000139573577437096,-3.92969333318966e-05,-6.38867664393275e-05,4.20009721105656e-07,-0.000594079277515451,0.000802161995043027,-4.72410270449921e-05,-1.55806517227567e-06,1.82984445356947e-16,5.68085647415708e-05,2.25940211337688e-16,-1.56157942304529e-16,-2.19791057417697e-05,7.39678251688204e-05,3.64204815936403e-06,2.82555215855489e-05,2.51932984128159e-16,-6.46546809048084e-16,5.81140397068243e-16,-1.04433277895027e-16,1.8208949285721e-07,0.00019448456848957,1.23117101159419e-16,0.000157824196743508,3.16242961771702e-16,-1.21354565858296e-15,5.30738092082609e-16,1.19302503554842e-17,-6.61786926862348e-17,1.95035557405006e-16,-6.61734777358772e-17,3.54718621233067e-16,-6.30472894933125e-05,6.53796433505582e-17,3.63221771221583e-05,9.88798845532646e-17,-0.000101443297231342,-8.02716567056766e-17,2.60329795768711e-17,-4.3668040561298e-16,4.23571957477542e-16,-1.32841424305964e-16,3.36209226302247e-16,-2.79952571439959e-17,-6.9736252170352e-16,-4.29488862693741e-16,7.94173250934935e-16,6.50240903905134e-19,3.26759546437357e-16,-1.68297899078071e-15,4.0375156021947e-16,3.705008981715e-15,-0.0999999999999986
"Galium_duthiei",-0.0837258516028227,-0.0990606504479318,-0.0137976979186806,0.0672560723156726,-0.117129005659204,-0.120763256606197,0.0670215827831318,0.0273645397474397,0.0063380004490167,0.357633181031272,-0.00142290423797709,-0.00136369909004515,0.111221815418438,0.00575951485815858,-0.0130455564941113,7.52869988573934e-16,-1.90938844596422e-15,8.89479462307108e-16,8.56519716263549e-17,-5.44703171456717e-16,-6.46143900395807e-06,-1.17948047359799e-05,-4.39000532670652e-05,2.68952023935296e-16,5.96442178051047e-17,0.000133725758295736,-0.000432662739362531,-1.29216943641912e-05,-1.09954518023146e-07,1.46051057887484e-15,4.12314884007325e-16,-3.34128695679109e-16,1.05679272327535e-05,-2.80474952695528e-06,1.5749318808887e-07,-0.0591392510275546,4.28919879738431e-06,-0.00365896753529548,6.57975216189005e-08,1.19514387613665e-06,-0.00479194627070345,2.6732464695065e-06,-0.00653633482519304,0.00129658923112592,-0.0338459381211927,0.126601746223377,4.97376246005547e-08,-6.72269030762444e-07,1.59198032458842e-07,1.8625520633955e-05,-2.38332938174217e-07,6.40747271342496e-08,-7.32255188150333e-08,0.523113816975668,-5.45733481628204e-08,2.00905002976211e-16,0.000554619888717702,2.71715594660632e-15,2.07112445008359e-15,-6.47567107347751e-07,2.12618634688546e-06,1.03470815454629e-07,7.65363361852524e-07,-2.39660330796592e-15,-1.92114607021811e-15,8.91512850177727e-15,-1.38285244711244e-14,5.05505079418083e-09,5.49125286376666e-06,1.78456058773122e-15,4.573221575942e-06,1.70772296647552e-14,-0.707106781186549,1.04856238065907e-14,2.6900300959593e-15,-1.53706141262744e-14,-1.23229453254866e-14,6.79853282296617e-15,-7.43493931028127e-15,-2.01417953997485e-06,1.21260966389468e-15,1.17025325754961e-06,6.82097707935542e-15,-3.34962171837687e-06,-1.1713818330567e-15,-1.59611074509783e-15,-1.26256799739965e-15,-1.19604450097671e-15,8.94911201622313e-16,2.42118986882668e-15,-2.29268737798654e-15,-2.62624295061135e-16,6.33006632950579e-16,8.00540238684597e-16,4.57749653794923e-16,5.39550876491231e-16,-1.46313915977205e-15,-8.05033831918336e-16,3.19060611177787e-15,-0.1
"Galium_estebanii",-0.0837258516028227,-0.0990606504479318,-0.0137976979186806,0.0672560723156725,-0.117129005659204,-0.120763256606196,0.0670215827831322,0.0273645397474395,0.00633800044901646,0.357633181031273,-0.00142290423797673,-0.00136369909004543,0.111221815418439,0.0057595148581583,-0.0130455564941105,1.56819002228303e-15,4.44956571588051e-16,1.21083698623181e-15,7.89516022003944e-16,-1.67053870736567e-15,-6.46143900367254e-06,-1.17948047364993e-05,-4.39000532666838e-05,-1.86664106432574e-16,-4.52266329727685e-16,0.000133725758295242,-0.000432662739363476,-1.29216943625989e-05,-1.09954518085703e-07,4.35645097170323e-16,4.2836120761484e-17,-2.82683549324286e-16,1.05679272331103e-05,-2.80474952615223e-06,1.57493188493143e-07,-0.0591392510275522,4.28919879782787e-06,-0.00365896753529527,6.57975221446294e-08,1.19514387679974e-06,-0.00479194627070433,2.67324646992882e-06,-0.00653633482519491,0.00129658923112631,-0.0338459381211913,0.126601746223377,4.97376227365211e-08,-6.72269034053684e-07,1.59198029887109e-07,1.86255206371724e-05,-2.38332935097539e-07,6.40747229848117e-08,-7.32255131429081e-08,0.523113816975674,-5.45733504731279e-08,8.03343505786402e-16,0.000554619888711256,9.16628297164348e-16,-1.75549999314264e-15,-6.47567118428614e-07,2.12618635420927e-06,1.03470808220244e-07,7.65363351362812e-07,-3.04731521576326e-15,-1.6158461925499e-15,-6.31967503053064e-15,9.69844919170546e-15,5.05504127984183e-09,5.49125287755563e-06,-4.9963464097949e-15,4.5732215920339e-06,-1.67925844339975e-14,0.707106781186545,-1.24204502161818e-14,-3.53569743992048e-15,1.37414469292277e-14,1.08135488515112e-14,-8.55760975162561e-15,1.1920571407165e-14,-2.01417952388001e-06,-6.02900642333081e-16,1.17025324464481e-06,-7.78232235120156e-15,-3.34962173146914e-06,1.32098432168807e-15,1.49206561536104e-15,2.49094377894679e-16,1.28881481757577e-15,-1.06093012564049e-15,-1.44796327319427e-15,1.86009669593372e-15,-7.77318931862752e-16,-1.43785938219107e-15,1.04061004657793e-15,-2.07159372302763e-15,6.43686850458901e-16,-2.07877450971245e-15,-6.96824139152912e-16,5.39592627976614e-15,-0.0999999999999974
"Rubia_edgeworthii",-0.0838456661926841,-0.0993125477799182,-0.0139127645605767,0.0681268349078533,-0.118833581635729,-0.122741180592522,0.0681676359568858,0.0278647551174813,0.00650079244544839,0.368762881636292,-0.00147988145966283,-0.00142315074737642,0.11613558985533,0.00604481153214902,-0.0137186165109438,1.47624967805626e-15,-6.4997920240506e-16,1.43201422941885e-15,-7.60893084650327e-16,-2.83800760669806e-15,-6.84843880232953e-06,-1.25338787580536e-05,-4.71942413721866e-05,-9.87337575169038e-17,-1.34185925126949e-16,0.000144107676550173,-0.000473522349944257,-1.41636905000271e-05,-1.21798538739398e-07,-1.77119521433785e-16,8.87326316128578e-18,-4.13993158394187e-16,1.2039296633018e-05,-3.23616921800795e-06,1.83396101932307e-07,-0.069000513495658,5.04963762734125e-06,-0.00439020556709731,7.94849925609928e-08,1.44533670014837e-06,-0.00590501906516794,3.68455721504194e-06,-0.00951773571643688,0.0019292182041253,-0.0592119535536271,0.231916387902178,1.32184003715175e-07,-2.41648170206679e-06,6.09272348106384e-07,8.85737870416471e-05,-1.33144883087445e-06,1.11334772486899e-06,1.85124384964981e-06,-0.470867491224484,1.37116799314667e-08,-1.26687355339007e-15,-9.56445233002221e-05,-1.95726720718032e-15,6.14255559933948e-16,1.80596233235499e-08,5.1412918784265e-08,5.46381146969658e-09,2.09970539920329e-07,-5.58155310448161e-17,3.57894850598023e-15,-7.72152410443507e-16,-1.62520527408703e-15,2.39963644572367e-09,2.86559732672717e-06,-1.51909120069509e-15,2.63330553878057e-06,-2.67384834271654e-15,9.3910140135879e-15,-1.4655371990757e-15,-1.4683562632651e-15,3.87192762648754e-15,6.38547555241264e-15,2.00606871643656e-15,2.33924415810645e-15,-1.41352121565531e-06,3.36656652975184e-15,8.30493936677434e-07,0.707106781186547,-2.44791732438767e-06,2.77631737964149e-15,-1.01510559676352e-14,-1.28993849544447e-14,1.84788212961043e-15,4.65562344394597e-15,-2.16333068353372e-15,2.79900091097057e-15,3.0440626722488e-16,-9.85832463963782e-16,2.92622383242974e-15,-2.8708755056452e-16,3.15271466369245e-16,-9.54188920932702e-16,9.62316412209264e-15,6.86292701961463e-15,-0.100000000000001
"Rubia_occidens",-0.0838456661926842,-0.0993125477799182,-0.0139127645605768,0.0681268349078533,-0.11883358163573,-0.122741180592522,0.068167635956886,0.0278647551174814,0.00650079244544876,0.368762881636292,-0.00147988145966308,-0.00142315074737654,0.11613558985533,0.00604481153214916,-0.0137186165109443,2.4312149515815e-15,-2.55871712706579e-16,1.84314369322536e-15,-1.88868018446975e-16,-2.53269627492614e-15,-6.84843880203406e-06,-1.25338787580149e-05,-4.71942413721533e-05,-3.7631869054483e-16,4.79663537761438e-16,0.000144107676549674,-0.000473522349943416,-1.4163690499622e-05,-1.21798539301834e-07,-2.63075012217579e-16,-2.46365514478073e-16,5.07305404061851e-17,1.20392966327043e-05,-3.23616921758549e-06,1.83396101798032e-07,-0.0690005134956569,5.04963762599551e-06,-0.00439020556709605,7.94849929097609e-08,1.44533669873589e-06,-0.00590501906516695,3.68455721436774e-06,-0.00951773571643666,0.00192921820412369,-0.059211953553626,0.231916387902177,1.32184004304564e-07,-2.41648170234767e-06,6.0927234731051e-07,8.85737870435427e-05,-1.33144883065978e-06,1.11334772541257e-06,1.85124384797203e-06,-0.470867491224484,1.37116776548915e-08,-1.9409564639909e-15,-9.56445233017654e-05,-2.84799810156293e-15,-1.25175486006133e-15,1.80596207961726e-08,5.14129195275804e-08,5.46381210565151e-09,2.09970537773021e-07,4.99449319460411e-15,1.27358237218719e-15,1.95716834109309e-17,1.57546353797872e-15,2.39963736200951e-09,2.86559732849251e-06,4.7911945010904e-15,2.63330553512649e-06,1.78319991334151e-15,-5.1563770559536e-15,5.71699524871343e-15,3.13035723287841e-15,-3.1265966968007e-15,-4.85177421432193e-15,-1.34446570264504e-15,-4.41781477902224e-15,-1.41352119980775e-06,-4.89500916772885e-15,8.30493939628953e-07,-0.707106781186548,-2.44791989531619e-06,-2.6076615355013e-15,1.24085294997142e-14,1.36743650383782e-14,7.40518012777729e-17,-6.48973024838969e-15,1.79290334073554e-15,-2.74075542446212e-15,-1.99624074250406e-15,-1.75474332571582e-16,-1.15052291104118e-15,1.46622030567975e-16,1.08951048684348e-15,-1.54674048407208e-15,-9.08362773685595e-15,1.96609636981521e-15,-0.0999999999999996
"Staelia_nelidae",-0.0829498583861217,-0.0974281299252938,-0.0130493953535392,0.0615778738071396,-0.106003011735897,-0.107839179985618,0.0595299021847157,0.0240923890950349,0.00526845618116749,0.284277950457316,-0.00104541170853379,-0.000968998553369969,0.0785881239905675,0.00385889449709897,-0.00855635181507279,3.09821612809458e-15,-4.77157376110871e-16,2.1389140458794e-15,-4.90276222397945e-16,-2.72178113380761e-15,-3.86782516484739e-06,-6.83375589600941e-06,-2.16304741342342e-05,-4.98132989161297e-16,1.13865259795503e-16,6.3437209326584e-05,-0.000153381936182448,-4.42443427406341e-06,-2.83917317806131e-08,-9.67131437306635e-16,1.08579326055939e-16,2.91408141547112e-16,2.56306073006146e-07,2.43054708357642e-07,-2.65678110354567e-08,0.0110198070400293,-1.15206415952192e-06,0.00163722355880074,-3.37712760646814e-08,-6.26147990837013e-07,0.00340970162415208,-5.3526261272685e-06,0.0180295522352023,-0.00399469574413339,0.204368355703274,-0.896690694842397,-1.02431413778616e-06,2.87975239453903e-05,-7.88604658720641e-06,-0.00151068321349584,2.76835234062539e-05,-9.68035640849208e-05,0.000123918822302692,-0.0962474260925412,-1.74158129644165e-07,3.3355821836135e-15,0.00188308082431947,1.34386159994422e-15,2.22803851258471e-17,-2.36487182388851e-06,7.88164656601611e-06,3.85811930315476e-07,2.82629644429788e-06,-3.82762492776424e-16,-1.51874131637876e-15,-1.97600676614496e-15,4.62963496002873e-15,1.69153806930243e-08,1.76874442020428e-05,5.35694346718515e-16,1.39812017184578e-05,8.67206050920634e-16,2.96537423095261e-16,-2.16013109793981e-15,-1.13859013660322e-15,-1.34283656192986e-15,5.06197882199439e-16,4.57086345739092e-16,-1.21976374484484e-15,-5.21502320052296e-06,-2.81202964658468e-16,2.99100724421156e-06,6.65743258704807e-16,-8.25448848472109e-06,5.4604507913481e-16,4.82808569101349e-16,-9.20225410573402e-16,9.71328170728209e-16,3.7718034485857e-16,-5.31023137257716e-16,2.69998584405395e-16,-1.00636399621798e-15,-8.79341106526644e-16,7.57151637862166e-17,-5.09857325172768e-16,7.16990512252895e-16,-1.31735294584687e-15,2.45769560738781e-15,3.5535819227986e-15,-0.100000000000001
"Hedyotis_novoguineensis",-0.0846946123468607,-0.101168520507426,-0.0149874545196261,0.0785367300671392,-0.141464893514528,-0.152830304179985,0.0866785197152392,0.0368597749116721,0.0177397582775771,-0.253924047880784,-0.000737320248422656,-0.000845239403746455,0.0703649482981652,0.00416039170195301,-0.00975907054909949,2.45463371850718e-16,-1.86721298145454e-15,7.86263415486488e-16,1.35438535386889e-15,2.32452945780892e-16,-5.34946030833181e-06,-1.00202089251368e-05,-4.10067033397918e-05,-3.23047357619063e-16,2.95391254309811e-16,0.000127139731769559,-0.000459475365163614,-1.38778721463913e-05,-1.28157191265897e-07,1.75278264687606e-15,-4.46398525066202e-16,-4.91674536810227e-16,1.66158322963063e-05,-5.49517063186249e-06,3.8883304167503e-07,-0.155296678349662,1.64694235721732e-05,0.541386245537665,-4.77457219855683e-06,0.000200805950524867,0.000928845415277596,1.11378036878345e-06,-0.00358228588998165,0.000772659613268608,-0.159916071697706,-0.034090492795741,3.08352156078577e-08,-4.69652822231378e-07,1.11395753597259e-07,1.19880086674886e-05,0.00842930946692061,-6.66662091850569e-07,1.76234081978187e-06,-9.65400284492306e-05,-1.49819212965265e-08,-1.05564035924264e-15,0.00797927242365935,1.02197917498382e-15,-4.5631357487389e-16,-1.81517250687716e-07,6.487111044213e-07,3.28452878139653e-08,3.09162734935093e-07,9.89555185705123e-16,-2.05228394769875e-17,1.1566781429677e-15,1.95954317647884e-15,2.43959434728337e-09,2.7587823257627e-06,-9.8926128622794e-16,2.40606906139333e-06,-7.48114071342036e-16,6.73709372190207e-16,-7.45646543978738e-16,-1.98448697720413e-15,-1.27274174526303e-15,6.64401938400296e-16,1.41217936691277e-15,-1.17316257887024e-15,-1.18566783701868e-06,-6.07474418584556e-16,6.9403574094619e-07,-9.19551378896192e-15,-2.02741145770282e-06,-2.79914213731961e-16,1.50435945207698e-15,1.89843507556846e-17,-8.23486442211691e-16,4.01124104763634e-16,-4.29141460952354e-16,2.66847947250458e-15,-1.89496597978072e-15,-6.49037575175795e-15,1.99713852164665e-15,-5.40252964172846e-15,-1.88488535079642e-15,-1.09635831393367e-15,0.707106781186548,1.0766516150748e-14,-0.0999999999999999
"Hedyotis_gartmorensis",-0.0846946123468607,-0.101168520507426,-0.0149874545196262,0.0785367300671391,-0.141464893514528,-0.152830304179985,0.0866785197152392,0.0368597749116725,0.0177397582775775,-0.253924047880784,-0.000737320248422545,-0.000845239403746534,0.0703649482981652,0.00416039170195315,-0.00975907054909937,-9.4542429440736e-17,-1.2675407598528e-15,-3.3957212042246e-16,1.19218870886506e-15,1.57339419271096e-15,-5.34946030821297e-06,-1.00202089249241e-05,-4.10067033394703e-05,7.44621862247494e-17,8.31984255670075e-16,0.00012713973176957,-0.00045947536516427,-1.38778721470414e-05,-1.28157191106402e-07,3.2348117331449e-16,-4.47686675322524e-16,-6.96998487374521e-16,1.6615832296342e-05,-5.49517063152016e-06,3.88833040426078e-07,-0.155296678349662,1.64694235732343e-05,0.541386245537665,-4.77457219789715e-06,0.000200805950524086,0.000928845415278936,1.11378036810539e-06,-0.0035822858899797,0.000772659613269398,-0.159916071697707,-0.034090492795745,3.08352164817294e-08,-4.69652822217387e-07,1.11395754863203e-07,1.19880086672981e-05,0.00842930946692219,-6.66662091117195e-07,1.76234081811637e-06,-9.6540028451078e-05,-1.49819239849159e-08,3.41268715573938e-16,0.00797927242366222,8.55485934261241e-16,-3.6396960078106e-16,-1.81517249251436e-07,6.48711103679861e-07,3.28452900360823e-08,3.09162733617751e-07,-3.1841972966429e-16,-3.74537317121178e-16,-1.39509677280616e-16,-1.76333387239408e-15,2.43959331719092e-09,2.7587823224866e-06,1.67871129787798e-15,2.40606905741661e-06,5.94882373895411e-16,7.62180269465025e-16,6.54012538516948e-17,1.83992787738476e-15,-8.65262796076491e-17,-7.1765960624452e-16,-1.41006909638309e-15,1.05081640779742e-15,-1.18566783475294e-06,3.0637361399494e-16,6.94035744457338e-07,9.53603030463564e-15,-2.02741146372835e-06,1.35916651930946e-15,-6.19916883635198e-16,-5.06812338984403e-16,2.37847590135558e-15,-8.19641609093241e-16,8.17827223625751e-16,-3.14454367306593e-15,1.30064472338719e-15,6.29178383045372e-15,-6.42357623514013e-16,4.88074893641454e-15,3.34869904054379e-15,-1.82552083514322e-15,-0.707106781186547,-1.63211119262718e-15,-0.100000000000003
"Oldenlandia_brachypetala",-0.0840329919097987,-0.0997639439659254,-0.0143044279814101,0.0729761816243058,-0.130203681774104,-0.139134372436677,0.0785678369035199,0.0331720646293358,0.0152430816694217,-0.210587967393784,-0.000575182601441382,-0.00064276636192382,0.0532819882564861,0.00302697798329023,-0.00698905462183469,-4.09394740330526e-16,2.0046898169257e-15,-1.73472347597681e-17,-1.40165656858926e-15,-6.5746019739521e-16,-3.58449617554124e-06,-6.55997201328732e-06,-2.4016072394599e-05,-2.31512751119415e-17,-2.24981508902023e-16,7.26152560483708e-05,-0.000219151346847366,-6.48814743060388e-06,-5.15403067286666e-08,8.66732257575273e-18,7.4125204369837e-16,5.36661414464327e-16,3.71240889022689e-06,-7.69760667766261e-07,3.070759402924e-08,-0.0102322843042056,8.48424123294076e-08,-0.0679193846425344,8.26127300703964e-07,-3.62859644974041e-05,-0.000292487570764849,-1.32856968685874e-06,0.00601150880160673,-0.00145259572111071,0.579841367514983,0.143505192993946,-3.44160843966219e-07,1.06298743601506e-05,-2.94036933546023e-06,-0.000573344094626734,-0.715684503311215,-3.96081297874229e-05,5.17147637149826e-05,-0.000870480345783246,-1.00717980845159e-07,-2.51000725742838e-15,0.0512070183795839,8.77488975736632e-15,-7.89321881124491e-15,-1.06025547228106e-06,3.6509260237129e-06,1.80962548382998e-07,1.41013806401259e-06,1.73329421859217e-15,3.89624438709345e-15,-1.24133346892851e-15,1.32231296949266e-15,8.90866587958216e-09,9.46283444179934e-06,2.21354666224168e-16,7.63372799955816e-06,-5.29902196863486e-16,1.55080726667602e-15,2.13651064720648e-15,-3.57725436124133e-16,7.57399921789168e-16,-4.94685337556976e-16,-6.28578968895169e-16,6.84252881317683e-16,-3.03041552602964e-06,2.7362082282458e-16,1.74654042014388e-06,1.2254463719004e-16,-4.88710635917365e-06,-3.72920729825197e-16,-1.55528833246129e-16,5.64911600307963e-17,2.0636656273686e-16,-4.3800885703253e-17,2.68828235051827e-16,1.65347317815073e-16,-1.05597965050771e-15,-9.93873494704669e-16,5.58375442692109e-16,-5.37119379756445e-16,6.21613346764361e-16,-1.17431821708216e-15,-1.18291268874082e-15,4.44881897631545e-15,-0.0999999999999979
"Kadua_affinis",-0.0840174009419711,-0.099730843001729,-0.0142883254182649,0.0728450509682099,-0.12993808866193,-0.138811318870531,0.0783765167851821,0.0330850698511507,0.0151841556394469,-0.209564797102712,-0.000571352284978572,-0.000637982057777522,0.0528783137910046,0.0030001857570257,-0.00692356670461411,-7.84095011141517e-16,6.38703499811211e-16,-4.14165229889463e-16,-1.57642995879392e-16,6.97358837342676e-16,-3.54274665683451e-06,-6.47810659132066e-06,-2.36137642017749e-05,3.35424846059953e-16,-2.87037321673699e-16,7.13239906448525e-05,-0.000213453565005507,-6.31292669002422e-06,-4.9722205759266e-08,-4.85198409893411e-16,6.84053548674951e-16,-3.24383133757821e-16,3.40556264223435e-06,-6.57277910690687e-07,2.21766388087922e-08,-0.0067761472561807,-3.05800373721702e-07,-0.0824691624885601,9.59943963174583e-07,-4.1951284996243e-05,-0.000321718234225933,-1.38764410096103e-06,0.00624492888694396,-0.00150687018173196,0.598276731101611,0.147963444914716,-3.5447444439522e-07,1.09923279172246e-05,-3.04654662225287e-06,-0.000605814184095001,0.698321928013892,-4.01516531530043e-05,5.25971247490601e-05,-0.000887142701560132,-1.02610571264224e-07,-6.01254421269034e-15,0.0521644690996824,4.72501297937896e-15,-6.54723498421749e-15,-1.07984367962623e-06,3.71800858846897e-06,1.84276512104895e-07,1.43503539357782e-06,-6.20822084812356e-16,-1.28204623279195e-16,1.30993070115738e-15,1.66293203251977e-16,9.05647585593078e-09,9.61640310015906e-06,7.33531496266331e-16,7.75383120305845e-06,1.34588156235936e-15,-1.62387447619709e-15,-6.28636079946507e-16,1.44898251759997e-16,-3.68471099287463e-16,6.79351524289146e-16,-3.40647226175958e-17,-7.15295585040855e-16,-3.07310025262491e-06,-8.97926000568151e-16,1.77090491555309e-06,3.35137995874817e-16,-4.95338692168209e-06,1.12318572412057e-15,1.26568415532769e-15,-4.64114924519651e-16,7.01863745925501e-16,-8.25888070532531e-16,3.5176009497574e-16,-1.20520731005156e-16,-9.16048247387554e-16,-6.53876628252814e-16,3.56778188621473e-16,-9.87536737453775e-16,1.11542852836217e-15,-2.19295930821567e-15,3.01336505983798e-16,3.4950921648282e-15,-0.100000000000003
"Spermacoce_brachystema",-0.0844555381574261,-0.100658638377881,-0.0147334159623733,0.076427671499202,-0.137164076825243,-0.147558246445019,0.0835466492915312,0.0354284728057994,0.0167385590049294,-0.236114704031523,-0.000667881536036319,-0.000757055922753638,0.0629040164967722,0.00365241915933268,-0.00850503177563198,5.8113236445223e-17,5.9013124248386e-16,-1.68224809082851e-15,-1.16367419172869e-15,5.86336534880161e-16,-4.51655386224092e-06,-8.36398466893516e-06,-3.23233175313811e-05,2.8346554440064e-16,-9.35204231294215e-17,9.88743677532355e-05,-0.000322247186627459,-9.61524866945832e-06,-8.063056407432e-08,-1.99125856690749e-16,-4.67586577479077e-16,1.7241646057798e-16,6.57818392342604e-06,-1.33441768250391e-06,4.00377817911923e-08,-0.0107388736056957,-1.81729925908102e-06,-0.372596728437946,4.82107326121298e-06,-0.000214920047770048,-0.00268827207724848,3.20873737631084e-06,-0.00836361823302981,0.00171459532042911,-0.289274338222951,-0.0594536170938936,3.94080888738277e-08,-2.93826975630161e-07,4.57776266825452e-08,-9.97854506990272e-06,0.000180521081057395,-3.6160731564484e-06,6.59581703392509e-06,-0.000320346912102143,-1.34199779468761e-07,-3.20222107167209e-14,0.362686947138198,3.79723187597384e-14,-4.29892272063913e-14,4.51103008779972e-07,-7.44722797239851e-07,-2.292443721593e-08,2.22558154094574e-07,9.33915261475273e-15,-4.92161531777923e-15,-3.66166065260198e-15,-9.04719195186772e-15,2.63881028945176e-09,3.10267990401054e-06,0.707106781186544,2.79340174149809e-06,-7.01252856703621e-16,5.62313746500951e-15,-4.11220712344361e-15,-7.06887293808936e-16,-3.42584608821846e-16,-1.12249267553083e-15,-1.63967438292473e-16,5.93555774661812e-16,-1.42351076443312e-06,-1.23759963898875e-15,8.33619042910672e-07,2.80703426130189e-15,-2.43567397284835e-06,8.34700875535823e-16,-1.43362647225921e-15,-5.07271236792441e-16,7.3769402962986e-16,-6.66821441539277e-16,1.53200961909855e-16,6.10695655593336e-16,-1.05315695734757e-15,-3.35746671546375e-16,8.58274510780289e-16,-5.54983524714893e-16,1.48483763415602e-16,-1.38104191010162e-15,2.50382902394832e-15,3.56574762954548e-15,-0.0999999999999989
"Ernodea_littoralis",-0.0844555381574261,-0.100658638377881,-0.0147334159623734,0.0764276714992019,-0.137164076825243,-0.147558246445019,0.0835466492915311,0.0354284728057992,0.0167385590049295,-0.236114704031522,-0.000667881536036293,-0.000757055922753645,0.0629040164967722,0.00365241915933307,-0.00850503177563217,4.18068357710411e-16,1.86049092798513e-16,-1.54780702144031e-15,-7.26740716217034e-16,1.02869102125425e-15,-4.51655386237795e-06,-8.36398466898821e-06,-3.23233175313509e-05,1.89735264757098e-16,-6.53281044884006e-16,9.88743677540817e-05,-0.000322247186627629,-9.61524866982991e-06,-8.06305644042531e-08,3.9111828475079e-16,-1.26065201888776e-16,-1.28963370649832e-16,6.57818392274682e-06,-1.33441768220307e-06,4.00377811851938e-08,-0.0107388736056949,-1.81729925865245e-06,-0.372596728437945,4.8210732612799e-06,-0.000214920047771013,-0.00268827207724883,3.20873737660922e-06,-0.00836361823302871,0.00171459532042984,-0.289274338222949,-0.059453617093893,3.94080895113215e-08,-2.93826974090389e-07,4.57776290653141e-08,-9.9785450695106e-06,0.000180521081058052,-3.61607316079796e-06,6.59581703457677e-06,-0.000320346912107241,-1.34199777073564e-07,-3.2325306233855e-14,0.362686947138189,3.86364004149541e-14,-4.43902966627473e-14,4.51103002764815e-07,-7.44722804646357e-07,-2.29244323785293e-08,2.2255814728344e-07,-1.48100791384187e-14,5.6596249288652e-15,9.063622039708e-15,5.88777963828741e-15,2.63882195048047e-09,3.10268047663367e-06,-0.70710678118655,2.79340173094449e-06,1.93223934339251e-15,-1.02779234188557e-15,4.64028360288668e-15,4.77701071660481e-16,-4.95586010587972e-16,1.68410418935682e-15,-3.97676465878173e-16,-1.30427566956989e-15,-1.42351076909909e-06,1.94706913901856e-15,8.33619046365029e-07,-4.5100293603683e-15,-2.43567396962058e-06,-7.18524988869608e-16,1.98276924121361e-15,-6.97195331805602e-16,3.24480498652375e-16,5.36104414621711e-16,-1.15661596081713e-15,-7.35385429868046e-16,-1.18990385454402e-15,1.36870679388998e-16,7.28375387152046e-16,-6.76810014971286e-16,1.47147513574909e-15,-1.43289660951032e-15,-9.99909134933844e-17,5.68038900019444e-15,-0.100000000000001
"Manettia_sonderiana",-0.0843397180162655,-0.100413658366618,-0.0146165859774261,0.0754916720103502,-0.135279269336172,-0.145280917505049,0.0822015430020343,0.0348195155962048,0.0163376079493735,-0.229302975334478,-0.000643330331231993,-0.000726874209728666,0.0603642194485035,0.00348803018998496,-0.00810721242783806,-1.14838694109665e-15,-2.79290479632266e-16,-4.06792655116561e-16,2.43294967505747e-16,-3.98986399474666e-17,-4.27347493375104e-06,-7.89442611281566e-06,-3.0178441092821e-05,5.19792594420684e-16,-5.31717751422195e-16,9.21046996702681e-05,-0.000295872524743339,-8.81566300489106e-06,-7.32046656338648e-08,-1.03891965578836e-16,-2.6267512003406e-16,-2.77032139139344e-16,5.81936767538195e-06,-1.1667638784019e-06,3.47140937360861e-08,-0.00929435231230346,-1.55998600617009e-06,-0.314372595751438,4.0427863628449e-06,-0.000180047180651439,-0.00221427515118951,2.39438255097844e-06,-0.0059536234848642,0.00119839535727435,-0.176997927074719,-0.0350748758248985,1.76939223432678e-08,-1.08786306905972e-07,1.63361013003308e-08,-3.1615317500801e-06,5.28097748792676e-05,-7.23172731323706e-07,8.4393199708925e-07,0.000181701408011188,2.451612082644e-07,7.5194477548769e-14,-0.855235833131438,-9.27887261600284e-14,1.03203041895642e-13,-2.15910321026335e-06,5.52711703985963e-06,2.42169066091261e-07,1.11526807433904e-06,2.75833985854393e-15,-3.18547355241472e-15,-5.95732099353436e-15,1.45672730156659e-15,5.95017564971038e-09,6.22895217954143e-06,4.95429393359486e-15,4.99357960277074e-06,-1.6127426021267e-15,-3.41085477239337e-15,-2.58992767291027e-17,2.20054294506634e-16,-4.67283333612843e-16,-3.81953633832674e-16,5.0421169159206e-16,3.25966254921611e-15,-2.04052047919188e-06,-1.60334850037488e-15,1.18067213765243e-06,6.60067506446564e-16,-3.34325100508234e-06,-4.58257007438288e-16,1.29790472379578e-15,4.53536011728213e-16,3.76537014939355e-16,-6.73414170553609e-16,1.63986773580849e-16,2.27722558743601e-16,-8.84352163980501e-16,-8.5607509529561e-16,1.95893287940698e-15,1.27939783111345e-16,-2.4359898410713e-16,-1.72248197600994e-15,-1.25578412426665e-15,3.76340442835357e-15,-0.1
"Chamaepentas_graniticola",-0.080957283434781,-0.0932181456592607,-0.0110792068345518,0.0464388390423615,-0.0762585597034921,-0.0732443787861363,0.0394816097187442,0.0153509349689128,0.00296126954345433,0.00545691206180018,0.000251471523573671,0.000398996612228379,-0.0347459448308581,-0.00289565195220286,0.00756447499418136,-1.69829428298129e-15,2.96269085653389e-15,-1.07032438467769e-15,-1.67010502649667e-15,-3.7470027081099e-16,5.89728834592517e-06,1.2169917309653e-05,7.11716373439874e-05,2.32455579804584e-16,4.36552416662762e-16,-0.000235103047171666,0.0012041868301355,3.74912248031385e-05,4.1991932807306e-07,-3.51419707426368e-15,-7.5385399008011e-16,2.55101439632508e-16,-8.21767688047866e-05,3.11223838643495e-05,-2.34441833618669e-06,0.942936080330552,-9.80698343093426e-05,0.158333775038666,-5.37779788865737e-05,0.00290541936673656,-0.190182542376868,2.12075807158881e-05,-0.038047034919269,0.00673753419515579,-0.0634342466838654,0.047737921723461,-5.60344695971087e-07,2.03648152271461e-05,-5.74375980330453e-06,-0.00118454505025907,3.19715209619919e-05,-8.71964980151664e-05,0.000117741791695299,-0.00217658484787515,-2.26388277198364e-07,-1.06418749485459e-15,0.00337791741594108,1.43845143547843e-15,6.94476086338201e-16,-3.15822318161373e-06,1.06216719758584e-05,5.2270393384124e-07,4.02516683318428e-06,-4.90103000926707e-16,-1.30990127929894e-16,-3.25562633229717e-16,-3.15219265020299e-16,2.56113591639303e-08,2.72363118502329e-05,6.86656479380286e-16,2.19727177390666e-05,5.4759182527909e-17,-1.39148562380285e-15,3.11460891757024e-16,-5.1040095505161e-16,-2.49195613784942e-16,-3.1073143034997e-16,5.80419954622685e-16,2.72453850951612e-16,-8.61360225299278e-06,4.48122660276987e-16,4.95506571515299e-06,6.8500784996025e-16,-1.37816489443542e-05,-2.36195784607114e-16,6.27232117931779e-16,-1.24654671217575e-16,8.97242599017001e-16,-3.08586530196762e-16,-1.07954122898374e-16,-1.07930689018076e-16,-9.27451133128107e-16,-4.07488395322549e-16,1.14951913962051e-15,-5.61099791469239e-16,3.06603030822724e-16,-1.60733411627652e-15,-1.12439762923002e-16,3.82915503190928e-15,-0.0999999999999991
"Psychotria_tatamana",-0.0888096454188198,-0.111229935438382,-0.0324309281045955,-0.117796118334008,0.0876411068026358,0.0398605512705845,-0.0157119907645803,-0.00328194184500198,0.00125992249269797,-0.00171586102932213,0.000398141209153927,0.00102578693460826,-0.0987178028167918,-0.0536756017915812,-0.343817922620576,-1.02710808608242e-14,5.79045275270196e-15,-5.47977462017624e-15,-5.03010176913787e-15,3.63164359695745e-15,-7.160344557569e-06,-1.30012677672233e-05,-4.25758950126283e-05,2.64547952150489e-19,9.19856349807081e-17,0.000127470436532079,-0.000387279329064235,-1.152570059953e-05,-9.63028101164511e-08,-4.41906720347996e-16,-3.67968065520949e-16,1.94062277606073e-16,8.73657915321862e-06,-2.11185475002212e-06,9.89074257006541e-08,-0.0346694030307357,1.08360741933992e-06,-0.00375357583370186,-4.78413104832136e-06,0.000281561766167371,-0.103206843124452,-2.8976734329578e-07,-0.00359676643350113,0.0504283803845037,-0.000133558890690868,0.000271326595616238,-2.57725842642624e-08,1.11965270306549e-06,-3.27456984552472e-07,-0.0043352515755953,3.91693989674487e-07,-5.29005720352426e-06,7.55323677381075e-06,-6.26392289290757e-05,-1.94104968152746e-08,2.66847586212812e-15,8.04266400048372e-05,-1.22938655332312e-15,-5.63854961511548e-15,-2.86381747424005e-07,9.76756099846765e-07,4.84694472800336e-08,4.0511561917647e-07,0.314714946966523,0.789669418063686,-0.250497138278547,-0.120945839304532,2.89291814617937e-09,3.19149351528511e-06,-2.89933025104233e-15,2.70317833792597e-06,1.2892321710999e-15,-3.62131366949156e-16,-1.96706727447081e-15,-1.91635366425943e-15,3.78339974486661e-15,1.43477349947645e-15,-1.89259378085475e-15,4.34362788738637e-16,-1.23720020596808e-06,-1.37907276434081e-15,7.2060822098258e-07,-5.8209794494135e-16,-2.07661395612853e-06,-1.12020130711901e-15,6.44822710004306e-16,-5.08110847111612e-16,1.55134229967033e-15,2.07109769443837e-16,-6.70421479409103e-16,-1.08734396431196e-15,-1.32158731858094e-15,-5.73050263129949e-16,2.08358022634441e-15,-1.33848753285278e-15,4.09952928043623e-16,-1.29285736268331e-15,1.40231049342759e-16,3.98655426211345e-15,-0.100000000000001
"Psychotria_pulchrinervis",-0.0888096454188198,-0.111229935438382,-0.0324309281045955,-0.117796118334008,0.0876411068026357,0.0398605512705844,-0.0157119907645803,-0.00328194184500198,0.00125992249269847,-0.00171586102932193,0.000398141209153931,0.00102578693460795,-0.0987178028167918,-0.0536756017915812,-0.343817922620576,-9.27795167082746e-15,5.59297887951088e-15,-4.16366160299608e-15,-4.99147706674308e-15,2.98025493172815e-15,-7.16034455779445e-06,-1.30012677677907e-05,-4.25758950131246e-05,2.60061556649967e-16,2.75277693589579e-16,0.000127470436531654,-0.000387279329064385,-1.15257005996854e-05,-9.6302810345273e-08,-2.92380789642588e-16,8.99755778749221e-17,-2.27765053357413e-16,8.73657915386332e-06,-2.11185474954255e-06,9.89074255384729e-08,-0.0346694030307361,1.08360741930415e-06,-0.00375357583370165,-4.78413104894094e-06,0.000281561766166911,-0.103206843124454,-2.89767343592796e-07,-0.00359676643349879,0.0504283803845046,-0.000133558890689756,0.000271326595620929,-2.57725846234903e-08,1.11965270338422e-06,-3.27456982356301e-07,-0.00433525157559677,3.9169398611079e-07,-5.29005720350728e-06,7.5532367750525e-06,-6.26392289346542e-05,-1.94104951849439e-08,-3.71620263784826e-15,8.04266400004822e-05,-1.19743528124995e-15,2.99206413353413e-16,-2.86381757198061e-07,9.76756092372422e-07,4.84694471338494e-08,4.05115603067754e-07,-0.367131945613979,0.142517758487971,0.473145021518188,0.648873340211949,2.89289163040531e-09,3.19149353178982e-06,1.87517534525823e-14,2.70317833417951e-06,1.23740550815223e-16,-5.33037940214673e-15,1.58031387806554e-15,2.29601788049037e-16,-3.17347222611847e-15,-1.85754899173118e-15,-1.01352081450776e-15,-3.33317838728465e-15,-1.23720019894698e-06,-1.19144118102955e-15,7.20608220811064e-07,1.98511012225884e-17,-2.07661395696073e-06,1.31956920078241e-15,2.28489746235046e-15,-5.52436829554614e-16,2.91045045004407e-16,-1.48505581092114e-15,-1.57650101536547e-15,-2.02978088134031e-16,-4.41894897647888e-16,-7.58060539265524e-16,-1.13091121690494e-16,-4.10753140295965e-16,5.46081932111787e-16,-1.89916181796066e-15,-1.59449242663426e-15,5.06400978660146e-15,-0.0999999999999996
"Psychotria_borjensis",-0.0888096454188198,-0.111229935438381,-0.0324309281045956,-0.117796118334008,0.0876411068026357,0.0398605512705845,-0.0157119907645803,-0.003281941845002,0.00125992249269854,-0.00171586102932217,0.000398141209153807,0.00102578693460759,-0.098717802816792,-0.0536756017915813,-0.343817922620577,-8.39519426198976e-15,3.89556551079473e-15,-4.00016391538527e-15,-3.79324393076641e-15,3.77042147503559e-15,-7.16034455784765e-06,-1.30012677682992e-05,-4.2575895012437e-05,1.45202151153274e-16,-3.21644833477695e-16,0.00012747043653253,-0.000387279329064597,-1.15257005995813e-05,-9.63028100706534e-08,3.06486621969856e-16,-1.65039730845342e-16,-2.9745003330883e-16,8.7365791542125e-06,-2.11185474953009e-06,9.89074263357057e-08,-0.0346694030307369,1.08360741932086e-06,-0.00375357583370021,-4.7841310499758e-06,0.000281561766166008,-0.103206843124453,-2.89767343928996e-07,-0.00359676643349748,0.050428380384503,-0.000133558890685765,0.000271326595616753,-2.57725899101001e-08,1.11965270393417e-06,-3.27456983008337e-07,-0.00433525157559213,3.91693984794796e-07,-5.29005720611966e-06,7.55323677694051e-06,-6.26392289391159e-05,-1.9410494161605e-08,-2.42258794652458e-15,8.0426640000155e-05,1.87063409170061e-15,1.28752658815372e-15,-2.86381744765454e-07,9.76756094234538e-07,4.84694504200502e-08,4.05115583427672e-07,-0.572890774832914,-0.100503827574017,0.0871830282492836,-0.673865164806432,2.89291711736368e-09,3.19149352622889e-06,2.99872956724149e-15,2.70317833120514e-06,7.4319567575318e-16,1.23082889015854e-14,-2.07731087978385e-15,5.63876691368139e-15,1.46205802369302e-15,-2.11104413620355e-15,1.6594179470556e-15,2.70250262923882e-15,-1.23720020109983e-06,-3.73657476583785e-15,7.20608221807171e-07,-3.31558846221182e-15,-2.07661396122983e-06,1.51022603847278e-15,-6.46394561264572e-17,4.68817874704592e-16,7.14835526891131e-16,1.35707395480572e-15,8.1744071136809e-16,1.617496202952e-15,-1.35829722491853e-16,2.23560881839382e-16,1.05716233984907e-15,-3.65340936397626e-16,-1.14298852226015e-16,-2.22973617868074e-15,2.44394382543977e-15,3.99879487818312e-15,-0.0999999999999996
"Psychotria_cussetii",-0.0888096454188198,-0.111229935438381,-0.0324309281045955,-0.117796118334008,0.0876411068026356,0.0398605512705844,-0.0157119907645803,-0.00328194184500196,0.00125992249269839,-0.00171586102932211,0.000398141209153981,0.00102578693460787,-0.0987178028167919,-0.0536756017915812,-0.343817922620576,-9.81875171446323e-15,6.61913557818694e-15,-5.00456880797584e-15,-5.96349141943064e-15,2.9542340795885e-15,-7.16034455796005e-06,-1.30012677677723e-05,-4.25758950128149e-05,-1.30602483155588e-16,-2.27319571671612e-17,0.000127470436531947,-0.000387279329064353,-1.15257005994055e-05,-9.63028102866929e-08,-6.24231182399365e-16,-2.92197477641955e-16,-7.55952319162665e-17,8.73657915340502e-06,-2.11185474998749e-06,9.89074257361095e-08,-0.0346694030307366,1.08360741977634e-06,-0.00375357583370126,-4.7841310467935e-06,0.000281561766166905,-0.103206843124451,-2.89767344107653e-07,-0.00359676643349918,0.0504283803845021,-0.000133558890689324,0.000271326595622548,-2.57725852320111e-08,1.11965270317001e-06,-3.27456984203219e-07,-0.00433525157559298,3.91693986985768e-07,-5.29005720125016e-06,7.55323677270638e-06,-6.26392289335439e-05,-1.94104971092667e-08,-3.69144034976192e-16,8.04266400114281e-05,5.24150031434728e-16,-1.71134410219492e-15,-2.86381760261928e-07,9.76756088946884e-07,4.84694419178089e-08,4.05115629363908e-07,-0.035527022407206,-0.424821731564533,-0.728407606978927,0.296119376543688,2.89293263058359e-09,3.1914935190321e-06,-5.85356433073384e-15,2.70317832886917e-06,-3.4173003774523e-16,-1.23525400329008e-14,4.0631663979244e-15,1.79618609551613e-15,-2.97987100811752e-15,3.35943256372543e-15,2.71125980967563e-15,3.61756893177663e-15,-1.2372002074775e-06,4.11999298294165e-15,7.20608221020506e-07,5.85370954391016e-16,-2.07661395607358e-06,2.95659670501046e-16,-5.86134141582712e-17,-3.84665560916217e-16,-2.36844288936138e-16,-1.01087515418557e-15,8.83924728250738e-16,-4.89616263128291e-16,7.16035840518017e-16,2.60306072432438e-16,3.52176531299129e-16,-5.9213737543652e-17,8.90585041919985e-16,-1.47434807177788e-15,2.23497776189121e-16,3.42575258476449e-15,-0.100000000000001
"Psychotria_subsessilis",-0.0888096454188198,-0.111229935438381,-0.0324309281045955,-0.117796118334008,0.0876411068026357,0.0398605512705843,-0.0157119907645802,-0.00328194184500205,0.00125992249269854,-0.00171586102932207,0.000398141209153893,0.00102578693460823,-0.0987178028167923,-0.0536756017915813,-0.343817922620576,-9.09927515280184e-15,5.78603462884908e-15,-5.30294124584385e-15,-6.51619058190944e-15,3.1042876602605e-15,-7.160344557837e-06,-1.3001267767847e-05,-4.25758950128356e-05,5.58292587863466e-17,-2.34853835509628e-16,0.000127470436532011,-0.000387279329064567,-1.15257005999907e-05,-9.63028106042525e-08,3.50049134130203e-16,2.16065875178098e-16,9.1792991103091e-17,8.73657915315567e-06,-2.11185475028274e-06,9.89074259085303e-08,-0.0346694030307358,1.08360742004251e-06,-0.00375357583370232,-4.784131049806e-06,0.000281561766167385,-0.103206843124452,-2.89767344888851e-07,-0.00359676643349979,0.0504283803845019,-0.000133558890688246,0.000271326595617437,-2.57725884759335e-08,1.11965270201546e-06,-3.27456980325702e-07,-0.00433525157560006,3.91693985588331e-07,-5.29005720159203e-06,7.55323677436143e-06,-6.26392289330166e-05,-1.94105049869492e-08,4.04724333749646e-15,8.04266400050842e-05,5.86151646710321e-16,5.85153181409901e-15,-2.86381753343967e-07,9.76756108940357e-07,4.84694487561418e-08,4.05115618380505e-07,0.660834795887576,-0.406861617413107,0.418576695490002,-0.150181712644673,2.8928969363937e-09,3.19149352247716e-06,-1.1758563042984e-14,2.70317832532599e-06,-1.08786658642949e-15,7.93678574212389e-15,8.04372105568841e-16,-7.12619329617848e-15,-1.03762310458249e-15,-1.66245416931711e-15,-1.1764910659803e-15,-1.85267358761174e-15,-1.23720020430076e-06,9.75174690043164e-16,7.20608221515245e-07,2.73946383068521e-15,-2.07661395929112e-06,-1.4510589381802e-15,-1.72926372004527e-16,2.8547587728303e-16,-1.96167475821192e-16,-6.59144642653705e-16,3.75642679611926e-16,4.30077908301712e-16,-1.90827124560608e-15,-1.31521912418129e-15,6.99654613318061e-16,5.25993798511749e-17,1.23599976216082e-15,-7.71399820575131e-16,-4.14880462970467e-16,4.67657313952443e-15,-0.100000000000002
"Rudgea_sandemanii",-0.0890824611355053,-0.111923032705758,-0.0336458511094651,-0.128438825197605,0.0980261390548659,0.0462211738191486,-0.0185270519117395,-0.00399210047387451,0.0022487607730526,-0.00930721814163941,-0.000312152495417784,-0.000404501319084344,0.0350819958291042,0.0075119546239395,0.0330327908272687,1.35048222604794e-15,2.81282701124208e-16,-1.99276359302836e-16,4.44712626099242e-16,4.36282954208167e-16,7.9997152407095e-08,1.71541764229416e-08,3.59300510831758e-07,-9.03409623408665e-16,-1.97357105146843e-16,-2.10516304820253e-06,3.77317202389234e-05,1.23863113200073e-06,1.76637641702211e-08,1.3079721269183e-16,4.94015013848604e-16,-7.95274594485235e-16,-3.77397568596955e-06,1.18948010843627e-06,-6.57664494231557e-08,0.0238280323521068,-8.60174027426617e-07,0.0038969046127067,5.41841547581022e-06,-0.000323258212510499,0.147830755217948,1.21067930823664e-06,0.0251308959784491,-0.441221326592045,-0.00544009131117589,0.00529153194863656,-8.36041127064177e-08,-4.6036466741891e-06,2.46451076123321e-06,0.848251943364029,1.31318940661178e-05,-5.55436594533892e-05,6.22335629628841e-05,-0.000305605707062463,-8.0949358480558e-08,-2.29016469129729e-15,0.00032673871811232,-3.11586494019058e-15,-5.39339038570661e-16,-1.10187598368361e-06,3.67646293972732e-06,1.80133010300003e-07,1.33876761398764e-06,3.03314778833136e-15,4.77749458977426e-16,3.93239787630115e-15,1.60778624190043e-15,8.22911057290821e-09,8.68118931222657e-06,4.86861982635483e-16,6.94259272481312e-06,-5.28272191247875e-16,-1.56217737509743e-15,-9.83160400269108e-16,-2.72169449830889e-16,2.29929329500415e-15,8.7719399462962e-16,-1.28134364888779e-15,-1.89575721688785e-15,-2.68203014226154e-06,1.7708732866345e-16,1.54230122048963e-06,1.72180289146938e-15,-4.28786074688205e-06,2.28849542340291e-16,1.99554080830261e-16,-1.03703126926773e-15,8.21354041149505e-16,-6.20507251852692e-16,1.75452927433449e-16,1.8836291351448e-16,-1.82643664952778e-15,-8.35619533249962e-16,1.61475930071721e-15,-8.45364231303839e-16,1.11490019578117e-15,-2.05791341823127e-15,-1.33552737600386e-16,4.22717713080706e-15,-0.100000000000004
"Palicourea_pittieri",-0.0912080797643634,-0.116755501486521,-0.0389132888304999,-0.162515960994353,0.12822488848181,0.0628710380235104,-0.0256037154357762,-0.00566494217136292,0.00383396356795894,-0.0186019741195977,-0.000867594861642387,-0.00132991875928707,0.118911224916263,0.0355053112357948,0.183915809407514,5.42794975633143e-15,-3.28914413066927e-15,3.45752072805627e-15,2.84120600310689e-15,-2.62290189567693e-15,1.55873776217546e-06,1.95466933313133e-06,-1.99408426557873e-06,9.71247207857581e-17,-1.21654029396975e-16,9.5879962269058e-06,-7.99399347235332e-05,-2.49211062313093e-06,-2.64121067636313e-08,1.59347091693385e-16,-1.73035406076796e-16,1.50246774099438e-16,3.35090174002598e-06,-8.91895247793821e-07,4.43350852221503e-08,-0.0157258927431146,5.17632557798097e-07,-0.00197748828943809,-2.60364895409184e-06,0.000154020165715553,-0.0614895685923742,-2.87291154039529e-07,-0.00493408714148259,0.0811497518821276,0.00068242444181399,-0.000609921120976361,5.96571260730109e-09,2.58864315849429e-07,-1.33240656540977e-07,-0.0408314432018555,-5.89540480449432e-07,1.91529468082325e-06,-1.74346041768409e-06,-8.25178063460512e-07,-1.5447541712338e-09,-2.26219680105032e-15,7.26804223334092e-06,-1.09911815430102e-15,-1.55486290188212e-16,-3.22085984424969e-08,1.18467915956591e-07,6.12450487588885e-09,6.97623415526449e-08,-2.7520484639711e-15,-5.06321405740751e-17,-5.82319123028168e-15,-3.58798986366863e-15,6.60209850947545e-10,7.8018498364862e-07,1.68852136831033e-15,7.16444791076387e-07,-6.18055790081256e-15,2.01351431437319e-14,0.134402128875353,-0.170960336912202,-0.174418630346948,-0.176259839783463,0.0129919981040605,-0.864981679778342,-4.01736914711972e-07,1.85620265781708e-14,2.37219661259811e-07,6.00430895127759e-15,-7.09750972925544e-07,-2.28371269171171e-15,-1.51868458830376e-16,3.80453317951643e-15,2.83428005938549e-15,1.78348957648509e-15,-1.66717048950753e-15,-2.31075950391388e-15,-1.47695421050253e-15,1.54917852473884e-15,7.28685018498086e-16,-8.05235648139342e-16,1.0730733592238e-16,-2.45545768175002e-15,-1.45209024757046e-15,5.47930636190851e-15,-0.100000000000002
"Palicourea_adusta",-0.0912080797643634,-0.116755501486521,-0.0389132888304999,-0.162515960994353,0.12822488848181,0.0628710380235105,-0.0256037154357762,-0.00566494217136287,0.00383396356795889,-0.0186019741195977,-0.000867594861642296,-0.0013299187592873,0.118911224916263,0.0355053112357948,0.183915809407514,4.55625120965308e-15,-4.06039134606684e-15,3.27678422590294e-15,2.90338499769893e-15,-1.94505869743899e-15,1.5587377626878e-06,1.95466933286173e-06,-1.99408426575694e-06,-1.61324991960701e-16,-7.43322096964073e-17,9.5879962267886e-06,-7.99399347237538e-05,-2.49211062282269e-06,-2.64121060149599e-08,4.50796231394819e-16,-3.44811397812079e-16,8.08380454589156e-16,3.35090173993801e-06,-8.91895248018029e-07,4.43350851830328e-08,-0.0157258927431141,5.17632557760522e-07,-0.00197748828943664,-2.60364895502446e-06,0.000154020165715455,-0.0614895685923741,-2.87291154269273e-07,-0.00493408714148342,0.0811497518821282,0.000682424441814313,-0.0006099211209794,5.96571681865897e-09,2.5886431388129e-07,-1.33240656173902e-07,-0.0408314432018549,-5.89540478611797e-07,1.91529468201523e-06,-1.74346041675244e-06,-8.25178065146261e-07,-1.54475127790905e-09,2.30838810090794e-15,7.26804223557444e-06,2.14265899975053e-16,-5.42339571415088e-16,-3.22085997567664e-08,1.18467917758632e-07,6.12450665769974e-09,6.97623389655556e-08,-2.73296650591954e-15,-8.53266097075911e-17,2.07500475583542e-15,-2.28868198021334e-15,6.60217548309178e-10,7.80184989899926e-07,4.43979280128186e-15,7.16444783363075e-07,2.741343284758e-15,-9.60495612841444e-15,0.573249606144653,-0.0883693021571945,0.18000112725798,0.451950403855826,-0.515443722554258,0.135561086429441,-4.0173695818779e-07,8.05672564525275e-15,2.37219672549381e-07,-1.58684097959692e-15,-7.09750973862106e-07,1.83390590974024e-15,9.24362724964171e-16,2.99296222439884e-16,1.0159343917701e-15,-1.59718081012024e-16,2.86525526373329e-15,-1.76011014196207e-16,1.00278965345869e-15,-1.79910309372598e-15,9.27328740707517e-16,5.85592532436727e-16,-2.77282027013042e-16,-6.4806745933398e-16,1.28183395056923e-15,3.94614159962347e-15,-0.0999999999999987
"Palicourea_ponasae",-0.0912080797643634,-0.116755501486521,-0.0389132888304999,-0.162515960994353,0.12822488848181,0.0628710380235103,-0.0256037154357762,-0.00566494217136296,0.00383396356795871,-0.0186019741195977,-0.000867594861642307,-0.00132991875928755,0.118911224916264,0.035505311235795,0.183915809407514,4.74642027070704e-15,-3.56875987095329e-15,2.70551810122033e-15,2.82857504779743e-15,-1.86569509841306e-15,1.55873776254698e-06,1.95466933316382e-06,-1.99408426552307e-06,-4.45575743011463e-16,3.07885565552659e-17,9.58799622719449e-06,-7.99399347237895e-05,-2.49211062283381e-06,-2.641210695429e-08,1.14169552872974e-16,-3.87438216680222e-17,-4.84245638147616e-16,3.35090174040881e-06,-8.91895247930038e-07,4.43350858697892e-08,-0.0157258927431147,5.17632557429802e-07,-0.00197748828943713,-2.60364895450198e-06,0.000154020165715372,-0.0614895685923742,-2.87291153680989e-07,-0.00493408714148298,0.0811497518821274,0.000682424441815286,-0.00060992112097817,5.96571572526077e-09,2.58864314951579e-07,-1.33240656746099e-07,-0.0408314432018503,-5.89540479061304e-07,1.91529468051277e-06,-1.74346041644317e-06,-8.25178067741328e-07,-1.54475362076928e-09,-1.91761792068968e-15,7.26804223763919e-06,1.90265444367415e-15,-5.01976560626674e-16,-3.22085976455902e-08,1.18467920700045e-07,6.1245061846967e-09,6.97623394339665e-08,1.16148769736255e-15,4.57067120041323e-15,6.99369039377585e-16,-2.07270890753392e-15,6.60205988659355e-10,7.80184988926442e-07,9.84223637248793e-16,7.16444788137989e-07,3.3216704383617e-15,2.04959656267351e-14,0.377783072888278,-0.100850407327306,-0.525795496157394,-0.379691872036402,0.311637531120387,0.431864828448842,-4.01736957456566e-07,-2.2241693927645e-14,2.37219683501542e-07,4.07529644599139e-15,-7.09750978261873e-07,-4.9573309178934e-16,1.82514836130209e-15,-3.42540513123527e-15,2.12852040506836e-15,1.58184208379774e-16,-1.43246352433938e-15,1.83695089930796e-15,9.32303711021749e-16,-2.41822197956023e-15,3.76378273047473e-15,-2.44528510398315e-16,2.84623961730314e-16,-1.62094569213427e-16,1.50794244232744e-16,4.27570242951332e-15,-0.0999999999999961
"Palicourea_valenzuelana",-0.0912080797643634,-0.116755501486521,-0.0389132888305,-0.162515960994353,0.12822488848181,0.0628710380235105,-0.0256037154357763,-0.00566494217136289,0.00383396356795883,-0.0186019741195977,-0.000867594861642344,-0.00132991875928711,0.118911224916263,0.0355053112357948,0.183915809407514,4.49900533494585e-15,-3.26149697527089e-15,2.5281426258017e-15,2.6887129675468e-15,-1.67400815431762e-15,1.55873776186548e-06,1.95466933342769e-06,-1.99408426634671e-06,5.24659435652151e-16,-2.05205250932683e-17,9.58799622687584e-06,-7.99399347241146e-05,-2.4921106229815e-06,-2.64121069121741e-08,5.11048429152814e-16,-1.4670991620918e-16,-7.45443641136011e-17,3.35090174005878e-06,-8.91895248643829e-07,4.4335086171276e-08,-0.0157258927431147,5.17632557660133e-07,-0.00197748828943753,-2.60364895370609e-06,0.000154020165715025,-0.0614895685923745,-2.87291154185804e-07,-0.00493408714148194,0.0811497518821277,0.000682424441814568,-0.000609921120975122,5.96571500516909e-09,2.58864314304077e-07,-1.33240656238171e-07,-0.0408314432018554,-5.89540480545582e-07,1.91529468106995e-06,-1.74346041782346e-06,-8.25178069434822e-07,-1.54475475213323e-09,2.60702408643229e-15,7.2680422363732e-06,4.03012289915622e-16,-1.69387464364273e-16,-3.22086014028955e-08,1.18467917427444e-07,6.12450559454855e-09,6.97623375468778e-08,-5.88148961485603e-15,-2.34740602230047e-15,-2.5011957737925e-15,1.09923296835859e-15,6.60210756589382e-10,7.80184984122013e-07,-3.8868798833915e-15,7.16444788731934e-07,-3.13320141703784e-15,-1.79455066009109e-14,-0.552962617223891,-0.703688322434761,0.0782357704557291,0.0372813393822379,-0.106319527920461,0.193347795184092,-4.01736956424018e-07,-4.03149540934439e-15,2.37219688996534e-07,-6.81876698314296e-15,-7.09750971680868e-07,1.39888537332562e-16,8.36930135100506e-16,-2.16242023351665e-15,-1.85335756107644e-15,-2.64026776489557e-16,2.0433247071588e-15,-4.88670256001857e-16,-3.61094127774901e-15,-1.64580670217026e-15,5.26352604932168e-18,-6.35224871555753e-16,1.40078538983447e-15,-3.10171356690488e-15,-1.4937236109936e-15,5.29585210745716e-15,-0.0999999999999997
"Palicourea_prodiga",-0.0912080797643634,-0.116755501486521,-0.0389132888305,-0.162515960994353,0.12822488848181,0.0628710380235103,-0.0256037154357762,-0.00566494217136304,0.00383396356795917,-0.0186019741195976,-0.000867594861642376,-0.00132991875928713,0.118911224916263,0.0355053112357949,0.183915809407514,5.94966784173145e-15,-3.35796386356779e-15,2.89980713052973e-15,2.9374831560236e-15,-1.67617655866259e-15,1.55873776222842e-06,1.95466933327433e-06,-1.99408426576447e-06,2.64062123700308e-16,1.60837372517168e-16,9.58799622687263e-06,-7.993993472384e-05,-2.49211062298338e-06,-2.64121064045454e-08,2.08311858059469e-16,-6.95328948746176e-17,-6.24030880951558e-16,3.35090173962795e-06,-8.91895247988853e-07,4.43350853381606e-08,-0.0157258927431148,5.17632557474776e-07,-0.00197748828943705,-2.60364895466224e-06,0.000154020165715562,-0.0614895685923743,-2.87291154397825e-07,-0.00493408714148257,0.0811497518821281,0.000682424441814476,-0.000609921120978663,5.96571482282705e-09,2.58864314221451e-07,-1.33240656586947e-07,-0.0408314432018555,-5.89540479252185e-07,1.91529468125056e-06,-1.74346041714446e-06,-8.25178065049125e-07,-1.54475329258278e-09,1.88723991412027e-16,7.26804223643401e-06,1.65579592278054e-16,4.45778162677001e-16,-3.22085987660726e-08,1.18467919936316e-07,6.12450502409928e-09,6.97623429841047e-08,1.36965451522463e-15,-1.79229451103079e-15,8.7804555742463e-16,3.6969813737726e-15,6.60212132860149e-10,7.80184990948238e-07,1.96659178861796e-16,7.16444788847984e-07,2.22079956015433e-15,-5.92734235934361e-15,0.0893905714854369,0.154382246444973,0.766291046600254,-0.232735964037875,0.426217646136613,0.0478416755599076,-4.01736967774096e-07,9.99069156715486e-16,2.37219675006237e-07,-2.64155285299083e-15,-7.09750983085837e-07,6.16057937635934e-16,5.11688731281787e-16,-2.2879903846616e-16,5.27715294862473e-16,-2.01478029939771e-15,-1.4140313696131e-15,2.13301379966754e-16,-1.42069067916641e-16,5.84737902437996e-16,6.56451196068369e-18,-7.49513616334143e-16,2.49430989742734e-15,-1.99920970543146e-15,8.72439210238094e-16,3.95920873015603e-15,-0.100000000000002
"Palicourea_spadicea",-0.0912080797643635,-0.116755501486521,-0.0389132888305,-0.162515960994354,0.12822488848181,0.0628710380235104,-0.0256037154357763,-0.00566494217136302,0.00383396356795865,-0.0186019741195978,-0.000867594861642377,-0.00132991875928689,0.118911224916263,0.0355053112357947,0.183915809407513,5.93340480914417e-15,-3.81441297818419e-15,2.88289357663896e-15,2.88311041707345e-15,-2.06909142597134e-15,1.55873776224097e-06,1.95466933341876e-06,-1.99408426542598e-06,3.86858500165769e-17,5.76179677099662e-17,9.58799622726089e-06,-7.99399347237596e-05,-2.49211062294746e-06,-2.6412106624505e-08,3.36404593946986e-16,-8.08406865956287e-17,-5.97636770368058e-16,3.35090173970399e-06,-8.9189524818001e-07,4.43350854461399e-08,-0.0157258927431143,5.17632557571149e-07,-0.0019774882894375,-2.60364895469246e-06,0.00015402016571542,-0.0614895685923745,-2.87291154202124e-07,-0.00493408714148311,0.0811497518821286,0.000682424441814837,-0.000609921120976278,5.96571482467464e-09,2.58864313937303e-07,-1.33240656727736e-07,-0.0408314432018533,-5.89540482058901e-07,1.9152946814816e-06,-1.74346041632813e-06,-8.2517806543771e-07,-1.54475307656758e-09,2.52945089647924e-16,7.26804223602977e-06,8.0189811458125e-17,7.57991023614303e-16,-3.22085985298424e-08,1.18467920000569e-07,6.12450580654688e-09,6.97623427458941e-08,3.32815731925821e-15,7.75096234136343e-16,4.44463702402304e-15,-1.27247796997779e-17,6.60213023486295e-10,7.80184991814634e-07,-4.96715545908691e-17,7.16444792079217e-07,-3.30882383315234e-15,-3.74852967351674e-15,-0.269182555691075,0.354246821398459,-0.248192662242332,0.659686066858415,0.40222048909635,-0.0250234317510309,-4.01736961316828e-07,-3.19182863857384e-15,2.37219673398566e-07,-5.27833253647556e-15,-7.09750978091799e-07,3.59806003046181e-16,-9.06199227960529e-17,6.45767833590506e-16,-6.03843513073461e-16,-5.62607010228617e-16,-1.38847205281184e-16,8.56734479619037e-17,-1.0483071067118e-15,3.79540331729373e-16,-5.00411874346885e-16,-4.73290257591946e-16,-6.63670659771118e-16,-1.33771139596144e-15,-6.12484085197586e-16,3.49703026184889e-15,-0.0999999999999998
"Palicourea_megalantha",-0.0912080797643635,-0.116755501486521,-0.0389132888305,-0.162515960994353,0.12822488848181,0.0628710380235104,-0.0256037154357763,-0.00566494217136298,0.0038339635679589,-0.0186019741195978,-0.000867594861642365,-0.00132991875928685,0.118911224916263,0.0355053112357946,0.183915809407513,5.95595621433187e-15,-3.40859610502287e-15,2.97158131434827e-15,2.83643551354795e-15,-1.9966667208493e-15,1.55873776216688e-06,1.95466933316564e-06,-1.99408426538891e-06,2.25501340916672e-16,-6.74472287048374e-17,9.5879962271891e-06,-7.99399347240149e-05,-2.49211062220864e-06,-2.64121065429338e-08,-1.76371348386924e-18,-2.80205000925112e-16,9.08899249739018e-17,3.35090173926298e-06,-8.91895247888119e-07,4.43350854101094e-08,-0.015725892743114,5.17632557630934e-07,-0.00197748828943747,-2.60364895463968e-06,0.000154020165715535,-0.0614895685923746,-2.8729115379135e-07,-0.00493408714148393,0.0811497518821279,0.000682424441815042,-0.000609921120977231,5.96571512980087e-09,2.58864314592199e-07,-1.33240657052361e-07,-0.0408314432018544,-5.89540480474466e-07,1.91529468167655e-06,-1.74346041738497e-06,-8.25178068594963e-07,-1.54475453059463e-09,2.016979499494e-16,7.26804223634707e-06,1.25851838740739e-16,4.74758069925795e-16,-3.22085990993856e-08,1.18467920352964e-07,6.12450483092824e-09,6.97623432175839e-08,4.52511651768576e-15,-2.0074002213379e-15,-2.1490469081647e-15,2.13139343660855e-15,6.60211738294649e-10,7.80184996488433e-07,-2.40195658801695e-15,7.16444786474479e-07,4.60289084589206e-15,-2.48565098300563e-15,-0.352680206478754,0.555239300988031,-0.0761211555672921,-0.360230134238739,-0.531304413982692,0.0813897259070947,-4.01736984064887e-07,1.31579711251514e-16,2.37219681570261e-07,3.9989686130484e-15,-7.09750984395571e-07,1.19088176951034e-15,5.87075020089432e-16,-2.32267934332376e-16,1.01114689759204e-16,-1.02976565406892e-15,-7.12036692572401e-17,2.43102142037445e-16,-4.84418803178944e-16,2.08268441358823e-16,6.14563595709451e-16,-8.24233866152983e-16,7.4416100502455e-16,-8.79074894223857e-16,3.05819078996933e-15,3.58683962698633e-15,-0.1
"Notopleura_corymbosa",-0.0882172009098458,-0.109953843645772,-0.0314876093170157,-0.114415300160063,0.0855797597896951,0.0393470882732465,-0.0156033765023658,-0.00330020529197567,0.00158850353707148,-0.00541587405904295,-7.76396433247403e-05,-1.24660504575573e-05,-0.000450270760210082,-0.00441371049634667,-0.0313713326423418,-9.73179870022989e-16,1.71368995383059e-15,-9.26342336171615e-16,4.02239005992122e-17,7.70650904202697e-16,-5.56176997773672e-07,-8.18576258050532e-07,1.38637162495842e-06,4.94704925826063e-16,1.61064346250953e-16,-7.22088585891524e-06,9.0037974982078e-05,2.89962301685993e-06,3.75038512577023e-08,-1.21943726834601e-15,5.7380475434717e-16,-4.90448306069825e-16,-7.07834041894771e-06,2.16822607376034e-06,-1.18066694265607e-07,0.0426575222630533,-1.52267552466595e-06,0.00678276644913976,9.39013206867827e-06,-0.000559854805992992,0.253888531682189,2.08409144572733e-06,0.0440458975448701,-0.780343261315101,-0.0106362395606807,0.0107674981731458,-3.6787894163513e-07,1.71547180312222e-05,-5.52148890735745e-06,-0.518124571449886,-2.73070488607896e-06,-2.40725780150138e-05,3.92388637238011e-05,-0.000311124652587797,-8.90492198339298e-08,1.48482817881645e-15,0.000363294292902475,1.89208759610825e-15,-3.03105261633119e-16,-1.25035168361225e-06,4.20353901298069e-06,2.06826391424016e-07,1.58962945604412e-06,-3.70317189157918e-15,1.62351032170205e-15,-1.06299645277675e-15,-3.20355530115296e-16,1.00762117592702e-08,1.07036237270902e-05,-2.17366493206642e-16,8.62468539006817e-06,5.95589032964578e-16,1.62742698696505e-15,7.33515170519496e-16,7.74881395756116e-16,-1.92999251068905e-15,1.47190709291898e-16,9.37599623985802e-16,1.44065089652832e-15,-3.3791922272277e-06,-1.27489757996203e-16,1.94437299870027e-06,3.10304118860078e-16,-5.4130004734297e-06,2.14109914307022e-16,4.18330751129231e-16,-2.76015407213827e-16,8.62030344676963e-16,1.17366546006072e-16,-1.58558269035206e-16,-5.40399453934885e-16,-1.1580015755006e-15,-6.27995453993497e-16,2.6453690658213e-16,-3.0755709518335e-16,8.14047345239851e-16,-1.22885029997923e-15,1.45507199506846e-16,4.1145831235768e-15,-0.0999999999999996
"Gynochthodes_hollrungiana",-0.0853825817879995,-0.103533009225881,-0.0246427017413157,-0.071113514281159,0.0475517699414303,0.0186141581400825,-0.00683279164509053,-0.00124369476614918,-0.00023767614912842,0.00456388165988767,0.000409787076260393,0.000691571017089174,-0.0623542141492715,-0.0176980002351435,-0.0816365449872831,-7.33788030338189e-16,2.11766368329869e-15,-6.956241138667e-16,-9.39569602675938e-16,7.3899220076612e-16,5.8748076579073e-07,2.32698459288962e-06,2.52922478318679e-05,-1.13165001505377e-16,2.18254754131359e-16,-8.66828667901064e-05,0.000482425714132859,1.50270353414874e-05,1.6525575585111e-07,-3.12662914138456e-16,-1.79912856246193e-16,-8.19527284304752e-16,-2.58707790454848e-05,7.63974430869179e-06,-4.09138915306091e-07,0.147426109946708,-5.21537085404795e-06,0.0231558437534942,3.21672131175434e-05,-0.00191933003653457,0.890364091491542,2.73253897868665e-05,-0.0757294834292814,0.362553562214635,-0.0123994443081667,0.0134815759535316,-4.85715906502211e-07,1.73116347895494e-05,-4.88788732390479e-06,-0.0156156741489924,6.23247587025668e-06,-7.09562855236919e-05,9.54414559588137e-05,-0.000632606697471558,-1.77542596313008e-07,3.13469415241273e-16,0.000722533635969487,-2.81647957225549e-17,8.76906757132539e-17,-2.47539029356248e-06,8.30810840437334e-06,4.08405968347075e-07,3.1156239224962e-06,-7.33786130693874e-16,-5.50238413118781e-16,9.25479499382996e-16,-5.04777100317679e-16,1.95860488154415e-08,2.07522355114739e-05,2.40887424600023e-16,1.66623813171684e-05,-2.15373443443189e-16,4.23475719576544e-16,-2.16816370750874e-16,-3.39122307478345e-16,-2.00305663810995e-16,-2.01757628199143e-16,1.40941013163274e-18,3.27766784117942e-16,-6.44121228667532e-06,-1.77824736142649e-16,3.70154318684044e-06,2.96986638298885e-16,-1.0265640696246e-05,3.50853115759234e-16,7.20579758598453e-16,-1.79383187717843e-16,4.90589167325517e-16,-2.13957569511398e-16,-8.20466766388425e-17,1.14757208790816e-16,-3.43264298775701e-16,-2.0002360606239e-16,7.05818015864182e-16,-2.44254138043231e-16,9.6803223768e-16,-1.26517113039651e-15,1.2150402673866e-15,4.14803937474023e-15,-0.0999999999999983
"Faramea_langlassei",-0.0808790047643385,-0.0930082029063375,-0.0113941556664751,0.0250514436678835,-0.0411746741048802,-0.0326057395770702,0.0153369872996027,0.00415563856680227,-0.00641193538640345,0.046037199512513,0.00339097446961209,0.00573277307904708,-0.515858442058749,-0.094784189592931,0.242958471518052,-1.50920942409982e-15,-2.11137531069827e-15,5.7072402359637e-16,1.08745477900296e-15,1.47451495458029e-15,-7.60094056971456e-05,-0.00010497022561829,-0.000220433916285485,3.02569914841242e-16,-9.59283216561665e-17,0.00062887121936511,-0.00154545797131315,-4.526514789585e-05,-3.4286060583096e-07,9.18936048895148e-16,2.07950332058517e-16,6.71846213055126e-17,2.48048862696587e-05,-5.37276388796147e-06,2.29994240689971e-07,-0.0789620797244902,2.22046168040334e-06,-0.00563507944741813,-6.09634159460377e-06,0.000347992921780108,-0.0482837537686757,1.76033336585434e-05,-0.354317562077072,-0.0238072285016939,0.00160231165246504,-0.00063609156811583,-8.12205929862669e-08,3.7366146771102e-06,-1.08296892168887e-06,-0.000298221062020143,1.61658122251359e-06,-2.00635150187417e-05,2.85572146566599e-05,-0.000235364285631121,-7.23548687798751e-08,4.15048316722511e-16,0.000299245814702496,-6.78056520928895e-16,5.78540486946673e-16,-1.06090419304473e-06,3.61125558899355e-06,1.78985834880355e-07,1.476411196418e-06,-1.70875378676281e-15,1.00662714757062e-15,-1.03712784052956e-17,-5.46582394253001e-16,1.03067566085511e-08,1.1278555887616e-05,-7.75727306309482e-16,9.44466674149518e-06,-0.707106781186547,-1.70317608384023e-14,2.35891950280476e-15,2.5753953412871e-15,1.00339126267785e-15,-2.63119856695707e-15,-1.74418954654818e-15,5.34698580943144e-15,-4.15097255008224e-06,-3.44063466729031e-15,2.4092549300162e-06,-2.52928511241328e-15,-6.872131549515e-06,-1.00667259449054e-15,2.24670448672655e-15,-3.59552815743142e-16,7.64818537505074e-16,-8.8496949401983e-16,5.25001837531571e-16,-8.75445562069472e-16,-7.51199641965793e-16,-2.34160357104619e-16,8.52456628794946e-16,-3.567793932005e-16,4.59557435455985e-16,-2.05391780154492e-15,-1.00687084297302e-15,4.09927841175384e-15,-0.100000000000001
"Faramea_pohliana",-0.0808790047643385,-0.0930082029063375,-0.0113941556664752,0.0250514436678834,-0.0411746741048802,-0.0326057395770703,0.0153369872996027,0.00415563856680232,-0.00641193538640325,0.046037199512513,0.003390974469612,0.00573277307904707,-0.515858442058748,-0.0947841895929309,0.242958471518052,-1.76594849854439e-15,-2.41148247204226e-15,3.07046055247895e-16,7.5091842466346e-16,1.83533743758346e-15,-7.60094056973163e-05,-0.000104970225618178,-0.000220433916285513,1.0265495530314e-16,6.97416113252015e-17,0.000628871219365439,-0.00154545797131312,-4.52651478961253e-05,-3.42860605661986e-07,5.41159981018064e-16,5.80391950180877e-17,-1.55893311892194e-16,2.48048862692104e-05,-5.37276388794056e-06,2.29994240396803e-07,-0.0789620797244902,2.22046168047367e-06,-0.00563507944741807,-6.09634159475224e-06,0.000347992921780301,-0.0482837537686752,1.76033336582527e-05,-0.354317562077072,-0.023807228501693,0.00160231165246398,-0.00063609156811475,-8.12205925813422e-08,3.73661467685608e-06,-1.08296892073893e-06,-0.000298221062019027,1.61658122094903e-06,-2.00635150185195e-05,2.85572146569446e-05,-0.000235364285631747,-7.23548698417169e-08,-3.19798834791093e-16,0.000299245814699854,5.5064981574731e-16,-3.73512018150122e-16,-1.0609041914614e-06,3.61125558712279e-06,1.78985835576465e-07,1.47641119541447e-06,-3.07097218163674e-16,-1.35259677977846e-15,3.82009789223159e-17,-1.58004335631442e-16,1.0306757613786e-08,1.12785558967248e-05,1.9571784023309e-16,9.44466674508266e-06,0.707106781186548,1.71561694261486e-14,-2.43585618482664e-15,-3.48225903675598e-15,-1.54838697034269e-15,2.57297186097305e-15,2.38553652848103e-15,-4.47154906468195e-15,-4.15097255289682e-06,3.07494301256487e-15,2.40925492573468e-06,1.78670689581701e-15,-6.87213154857017e-06,9.61527929122865e-16,-1.27164855730501e-15,1.82855283987541e-16,5.3357387251648e-16,2.52984945139248e-16,-4.65182699311526e-16,6.89895095170896e-16,-7.18187703218532e-16,-3.72778918669477e-16,6.52053283958521e-16,-4.752017009664e-16,6.0757983129728e-16,-1.08507949713953e-15,3.11518998769333e-16,4.27251611973065e-15,-0.1
"Coussarea_graciliflora",-0.0804480875811918,-0.0921265712130383,-0.0110376453939535,0.0238282662534596,-0.0389107883901204,-0.0305839584406463,0.0143433023390394,0.00386743206091851,-0.0057818261448323,0.0405215295177353,0.00286282234860835,0.00475663780405134,-0.426784486244701,-0.0763188727838172,0.19354090106421,-2.14064876935538e-15,-1.67400815431762e-15,3.65159291693118e-16,1.06295180990479e-15,2.11983208764366e-15,-5.78851643050586e-05,-7.86977245748006e-05,-0.000153377388921263,9.16191146792043e-17,2.25345595668082e-16,0.000430322304909004,-0.000939597276972515,-2.71668307984406e-05,-1.86990432846883e-07,3.72124470589872e-16,6.90763831558655e-17,-5.47981832254678e-16,9.62816151026672e-06,-1.67036475606733e-06,5.80849025697239e-08,-0.0189400088084911,3.99801726649655e-07,-0.000259775795822289,2.80374028578996e-08,-4.48147461586661e-06,0.00783539770605279,-2.49862150299439e-05,0.859081181080451,0.0700785657414392,-0.0245925492131814,0.0241997497618566,-6.80674401418798e-07,2.2988101366615e-05,-6.42762964869788e-06,-0.00161691369636686,8.37690602491814e-06,-9.13740692980384e-05,0.00012127005691747,-0.000771061374617499,-2.13457879075407e-07,-2.70658899603828e-16,0.000866826116147124,-1.0015975993019e-16,-3.77059568886203e-16,-2.95706733512111e-06,9.90850376874355e-06,4.86628978136928e-07,3.68494274159955e-06,1.75684459144845e-15,1.33519911106516e-15,-6.39321581364985e-16,3.76752488242515e-16,2.30326498555467e-08,2.43870476475563e-05,9.26393811427801e-16,1.95787270339095e-05,1.19639074930189e-16,1.60106243706104e-15,3.54317029474273e-16,9.27151561239705e-16,-5.3784351327252e-16,-9.31826342436712e-17,-8.29738214170418e-16,7.73877662707632e-16,-7.61047728979376e-06,-4.09033570793793e-16,4.37699755469561e-06,-2.07371663521716e-16,-1.21701205216608e-05,4.95308844590595e-16,6.48095650835622e-16,-5.57893429222495e-16,4.72840245555612e-16,-2.87582055869939e-16,-2.3058013040183e-16,2.3644963058072e-17,-1.03628107499604e-15,-8.91164104179305e-16,7.14407073816153e-16,-7.27554657998668e-16,8.68498392330797e-16,-1.56840964447351e-15,1.29638514215797e-15,4.55313575439226e-15,-0.0999999999999992
"Pauridiantha_setiflora",-0.0620419002170905,-0.0502137106113097,0.0318182392776233,0.181090703934745,-0.0533821696481043,0.164836695298134,-0.145941544434119,-0.106975744378658,0.0750589829355667,-0.00182670399366542,0.0023629409213918,0.00181586365411081,-0.0973269287482838,0.607258888079959,-0.0531734849369554,5.71764857681956e-15,-4.49857165407685e-15,3.48505946323741e-15,6.5373054192186e-15,3.34454686168328e-15,-0.000283086149519713,-0.00035440880498564,-0.00060765467228261,4.67126487516601e-16,-2.67209719567982e-16,0.00169106404526967,-0.00367389205308796,-0.000106441861836418,-7.47599440495616e-07,2.72767601767746e-16,2.2080413045809e-17,-2.99651253304508e-16,4.03667960038728e-05,-6.2582494785715e-06,1.07250777256784e-07,-0.0162186197981321,-9.58092406997224e-06,-0.00108078008995995,-1.45163916018857e-05,0.000796913761216929,-0.00701414076941584,1.82279931735084e-05,-0.00338919658246577,0.000615825255828582,-0.00180947905125674,0.00199534013408246,-8.17009534953612e-07,2.93316596502902e-05,-8.26682280875391e-06,-0.000171035095656774,1.123289690434e-06,-0.000126073849003497,0.000170728883353361,-0.000124883918893974,-3.38685324973807e-07,-2.95617312284649e-14,0.000149357880359046,3.00863582420614e-13,0.707106781186548,-4.79866561557724e-06,1.6171361482288e-05,7.96893263336256e-07,6.23352982343177e-06,-8.96998067672197e-16,4.32965829259461e-15,-3.72294619290399e-15,1.21319020225858e-15,4.0695085538144e-08,4.36614912398281e-05,-6.14089376347736e-16,3.56546502646698e-05,5.40245485708181e-16,2.48389651684062e-15,5.66288950099043e-16,-6.11220599189864e-16,-6.08423300138166e-16,-1.39886472418859e-16,-3.52717731408014e-16,4.52637516411876e-16,-1.45684525949633e-05,-8.29322887953184e-17,8.40980036933689e-06,-9.84128069561556e-16,-2.36256380863688e-05,7.00376784410242e-16,1.11659736309666e-15,-4.40776470023195e-16,1.02052133460812e-15,-6.51725299526488e-16,5.04311725806281e-16,-3.38561390523711e-16,-9.15236391888429e-16,-1.825433994889e-16,6.08673267698653e-16,-3.16333502546069e-16,7.41820349460386e-16,-1.44650162492622e-15,2.2261850245709e-16,4.24343318478292e-15,-0.100000000000001
"Praravinia_negrosensis",-0.0620419002170905,-0.0502137106113097,0.0318182392776233,0.181090703934745,-0.0533821696481043,0.164836695298134,-0.145941544434119,-0.106975744378658,0.0750589829355667,-0.00182670399366523,0.00236294092139184,0.00181586365411082,-0.0973269287482839,0.60725888807996,-0.0531734849369552,5.76622083414691e-15,-4.40359554376712e-15,3.30464822173582e-15,6.01168420599762e-15,3.08780778723872e-15,-0.000283086149519845,-0.000354408804985726,-0.000607654672282575,2.89649851296071e-16,-2.57138482294368e-16,0.00169106404526974,-0.0036738920530882,-0.000106441861836398,-7.47599440468301e-07,2.9144737197066e-16,-1.11422811057492e-16,-9.32792901067655e-17,4.03667960039506e-05,-6.25824947803443e-06,1.07250777218816e-07,-0.0162186197981309,-9.58092406996438e-06,-0.0010807800899586,-1.45163916016403e-05,0.000796913761216885,-0.0070141407694162,1.82279931728376e-05,-0.00338919658246637,0.000615825255829194,-0.00180947905125875,0.00199534013408159,-8.17009534971111e-07,2.93316596524228e-05,-8.26682280811525e-06,-0.000171035095657169,1.1232896920186e-06,-0.000126073849007968,0.000170728883352943,-0.000124883918892683,-3.38685325670809e-07,2.9579324653853e-14,0.000149357880188472,-3.00749622028973e-13,-0.707106781186548,-4.79866564239598e-06,1.61713614726214e-05,7.96893274617931e-07,6.23352981767634e-06,6.43436379008374e-16,-4.27457014827773e-15,3.99310382824119e-15,-1.014194740892e-15,4.06950862763129e-08,4.36614912406117e-05,6.78279613242771e-16,3.56546502662698e-05,-4.79771918156819e-16,-1.36025070592399e-15,-3.23624193059997e-16,6.65535879090857e-16,-8.28020869964464e-17,2.12262393204596e-16,1.66289848542773e-16,2.99981850573899e-16,-1.45684525959728e-05,-2.88319604332435e-16,8.40980037004515e-06,1.00039558695591e-15,-2.36256380861586e-05,-3.70803913902273e-16,-2.03491641270722e-16,-1.1752698301772e-16,2.84630880214394e-16,8.9036463735849e-17,-7.95264083041373e-17,2.38173112918487e-16,-7.69821868364397e-16,-8.56617552921949e-16,7.92478298258682e-16,-5.93776643748152e-16,6.33952721065006e-16,-1.53275794637221e-15,1.25473987802308e-16,4.21877223071427e-15,-0.100000000000001
"Ophiorrhiza_lacei",-0.0633797166658381,-0.0522077754156222,0.036933271163169,0.236631124220876,-0.0733809817863611,0.241935256846257,-0.220425574779343,-0.169994514971819,0.19944153463499,-0.0156894637128444,-0.0041127946388778,-0.00177230525509392,0.0873174126612528,-0.264192585901266,0.0174701478187649,-1.81799020282369e-15,9.79685083057902e-16,-1.6601303665098e-15,-3.02102093341361e-15,-5.68989300120393e-16,1.83794268750279e-05,3.51503885093738e-06,-8.95215530613802e-05,2.25740438133877e-17,-1.6383161515729e-17,0.000286182532399969,-0.000977788769661655,-2.90578813704202e-05,-2.33156801236363e-07,2.9630148034121e-16,-2.48840021464581e-17,-2.01428240055703e-16,1.51213308062222e-05,-2.45666654797974e-06,4.32369068892371e-08,-0.00657150211943437,-3.96468097487169e-06,-0.000463223763352914,-6.28589993181723e-06,0.000345617072353218,-0.003114262885334,8.70362332813744e-06,-0.00164677693661216,0.000300827999475463,-0.000906829186805994,0.00100450605109455,-4.1950351167512e-07,1.516485373606e-05,-4.27829386915034e-06,-8.87558490906497e-05,5.83781269650887e-07,-6.58364428895184e-05,8.942263017177e-05,-6.63544077170978e-05,-1.81349196180135e-07,-6.88213071088796e-17,8.00936289680424e-05,4.52248187333956e-17,8.98478522358419e-16,-2.58185344287193e-06,8.71317652064996e-06,4.29732171769239e-07,3.39077241599992e-06,-1.04506673988127e-15,9.41474466895101e-16,6.60649074899171e-16,1.15545047588102e-15,2.24399137419096e-08,2.41893694885297e-05,-1.35054684864838e-15,1.98832199536621e-05,-1.80118261588357e-15,2.21719931499087e-15,4.49377449762301e-16,-1.36986032699925e-18,-3.92275835452877e-16,-2.02338018620802e-16,-2.94125901856094e-16,1.75000188164003e-15,-8.3153335917032e-06,8.15882666383643e-17,4.8098796904499e-06,-1.1997112405531e-14,-1.35929431622417e-05,-0.164977872604667,-0.799655530974121,-1.0887972113554e-14,2.45172449827431e-15,2.38899275042693e-15,8.47847745824547e-16,5.85477489069575e-16,3.42580201253149e-16,-8.55970598215578e-16,2.30158617106412e-16,-4.92331920600274e-16,1.11850240444006e-15,-1.49842087333483e-15,1.32043653456307e-15,4.52685769824404e-15,-0.100000000000004
"Ophiorrhiza_glaucorosea",-0.0633797166658381,-0.0522077754156221,0.036933271163169,0.236631124220876,-0.0733809817863611,0.241935256846257,-0.220425574779343,-0.169994514971819,0.19944153463499,-0.0156894637128444,-0.00411279463887787,-0.00177230525509405,0.0873174126612527,-0.264192585901266,0.0174701478187647,-1.88390969491081e-15,1.75250439160557e-15,-1.94115556961805e-15,-2.68448457907411e-15,-3.05311331771918e-16,1.83794268749593e-05,3.51503885079145e-06,-8.95215530614228e-05,-1.06438238455917e-16,1.87019635737e-16,0.000286182532399895,-0.000977788769661612,-2.90578813704438e-05,-2.33156801533767e-07,1.93736466172759e-16,1.59995675793065e-16,-1.36994267719303e-16,1.51213308063032e-05,-2.45666654798536e-06,4.32369067376852e-08,-0.00657150211943469,-3.96468097463004e-06,-0.000463223763352028,-6.28589993204829e-06,0.000345617072353014,-0.00311426288533388,8.70362332845081e-06,-0.00164677693661208,0.000300827999474992,-0.000906829186805779,0.00100450605109436,-4.19503511763902e-07,1.51648537356542e-05,-4.27829386928093e-06,-8.87558490904284e-05,5.83781268645894e-07,-6.58364428892932e-05,8.94226301710587e-05,-6.63544077156961e-05,-1.81349196217951e-07,-3.12808266781017e-16,8.00936289696704e-05,2.04400755609347e-16,-8.68443785204156e-17,-2.58185344287227e-06,8.71317651966934e-06,4.29732171967516e-07,3.39077241660905e-06,-1.42670590544843e-15,-6.12837765789065e-16,-4.94676760127593e-16,-5.94885511617745e-16,2.24399143612207e-08,2.41893694881701e-05,2.36870028411859e-15,1.98832199536098e-05,2.43674682595128e-15,8.00199925874465e-17,-3.02735904623142e-17,7.27213997694954e-16,5.25392879325002e-16,8.90537771227361e-16,-7.36480389128389e-16,7.78556737513072e-16,-8.31533359408659e-06,-2.08880073989544e-16,4.80987969161622e-06,1.10122597798254e-14,-1.35929431713466e-05,-0.61003306779799,0.542702794225016,3.95511754113895e-15,-6.24118827037728e-16,-1.30121067622735e-15,5.96943145261284e-16,3.31201119000596e-15,-2.12146602628487e-15,7.03481209627683e-16,7.26608290085151e-16,-4.63314361149521e-16,-1.98210300161813e-16,-1.89833076903021e-15,-1.37185430015215e-15,4.3265004784227e-15,-0.0999999999999973
"Ophiorrhiza_cantonensis",-0.0633797166658381,-0.0522077754156221,0.036933271163169,0.236631124220876,-0.0733809817863611,0.241935256846257,-0.220425574779343,-0.169994514971819,0.19944153463499,-0.0156894637128442,-0.00411279463887787,-0.00177230525509398,0.0873174126612526,-0.264192585901266,0.0174701478187647,-1.87697080100691e-15,1.87393503492395e-15,-2.08340289464815e-15,-2.48238929412281e-15,-3.05311331771918e-16,1.83794268749866e-05,3.51503885099273e-06,-8.95215530614145e-05,-6.77060611540528e-17,-4.4359899566063e-17,0.000286182532399756,-0.000977788769661729,-2.9057881370403e-05,-2.33156801497578e-07,2.20467067673715e-16,5.15795753835876e-18,-2.27185315369713e-16,1.51213308063253e-05,-2.45666654858134e-06,4.32369069232542e-08,-0.00657150211943413,-3.96468097467424e-06,-0.000463223763352715,-6.28589993196049e-06,0.000345617072353382,-0.00311426288533428,8.70362332833283e-06,-0.00164677693661264,0.000300827999475115,-0.000906829186806732,0.00100450605109461,-4.19503512028443e-07,1.51648537357473e-05,-4.27829386932423e-06,-8.87558490904015e-05,5.83781267594404e-07,-6.58364428899576e-05,8.94226301714253e-05,-6.63544077158765e-05,-1.8134919632713e-07,4.40455523874491e-16,8.00936289688442e-05,-6.08234403315625e-17,-7.52978188789108e-16,-2.581853443178e-06,8.7131765207511e-06,4.29732171682402e-07,3.39077241534872e-06,2.1433550079981e-15,-3.69095715257382e-17,-1.89365428359177e-16,-5.61925765605974e-16,2.24399140580877e-08,2.41893694893757e-05,-1.5705709686689e-16,1.98832199556456e-05,-4.13403846421647e-16,-1.75184799804406e-15,1.102390112079e-16,-8.66996876975927e-16,-1.30820983531024e-15,-5.51017437311677e-16,1.03890066819855e-15,-1.4141337358034e-15,-8.31533359349577e-06,-6.55907770211077e-16,4.80987969031068e-06,1.02025255819901e-15,-1.35929431613299e-05,0.775010940402658,0.256952736749108,6.36125886646319e-15,-2.16934416772857e-16,-2.03033561246895e-15,-1.45769869461172e-15,-4.15053635766427e-15,-3.93277823276717e-16,-1.03136966983596e-15,1.62113593183339e-15,-3.17665375601965e-16,9.08904588098726e-16,-1.35230500462974e-15,8.48591749098274e-16,4.04759800340697e-15,-0.0999999999999965
"Tarenna_monticola",-0.0621909691043124,0.18031336432354,-0.0447170291862296,-0.0974217275392818,-0.114575041900221,0.0382124196404525,-0.00616055017024368,0.00334861865063127,0.0117187903131364,0.000543353291863112,0.170451419715722,0.000136002916838805,0.000595220861204199,-7.26403352235283e-05,-1.07144564285623e-07,-2.42861286636753e-16,4.11779985109995e-16,1.21430643318376e-16,-6.00214322687975e-16,2.70616862252382e-16,-5.1743828343228e-06,-1.09723500590288e-05,-9.81672726159161e-05,7.25499006453172e-17,-2.6814440268636e-16,0.00792681941757364,-0.0256944596217627,0.000192898847827567,1.47327529055669e-07,1.69327190054672e-16,3.944846492859e-16,-1.65046005311248e-16,-1.81919481524468e-06,1.54676967596996e-07,-1.15043826676593e-09,1.40907544667526e-05,-0.00228997454914439,-5.70950913744098e-07,-6.1719954016967e-07,0.000407284846375587,-5.96996057503453e-06,3.20949795217656e-05,-1.21771430116001e-05,2.34184536515226e-06,-8.91341784210053e-06,1.0205823625844e-05,-1.1730221554877e-08,-0.388979048658224,-1.5203857390272e-05,-1.27794979306005e-05,9.05262500270227e-08,-0.296454717312005,-0.101853423034328,-9.84971636136549e-08,-1.11886839612186e-08,7.32956428805043e-17,4.53883218286426e-07,1.81114620391324e-15,4.23906113604669e-16,-2.12819160865264e-07,7.75255283017805e-07,0.00900305909426317,4.11612478326772e-07,-2.54013745150057e-16,-2.08020190538986e-15,4.76577127034707e-16,-6.39881720944552e-16,4.46722747429103e-09,0.00448351205249557,2.8460532206702e-15,0.15026111690331,1.55159365869122e-15,2.54401293762091e-15,4.42242056482996e-15,2.20443984087901e-15,1.88054726101268e-17,1.2676025722772e-15,1.81575254598725e-16,-4.38588475476941e-15,-0.00148449414181143,-2.9814482989888e-16,0.354013843807158,2.87236671419891e-15,-3.07313766686237e-06,-3.64973480221403e-15,3.65826531131301e-16,1.09926509924798e-15,-3.80109090902732e-15,2.92909126314993e-15,1.86456540392864e-14,-0.707106781186548,1.14306311101997e-14,-2.37384445839213e-15,3.10822976231565e-15,2.75920012426909e-15,-3.88949722066358e-15,-1.87841239575715e-15,3.65380031313159e-15,5.08518269411468e-15,-0.099999999999998
"Tarenna_oblonga",-0.0621909691043124,0.18031336432354,-0.0447170291862295,-0.0974217275392818,-0.114575041900221,0.0382124196404526,-0.0061605501702437,0.00334861865063123,0.0117187903131364,0.00054335329186308,0.170451419715722,0.000136002916838894,0.000595220861204296,-7.26403352235138e-05,-1.07144563957966e-07,-5.10008701937181e-16,7.03647209943092e-16,3.34801630863524e-16,-5.65953534037433e-16,1.52655665885959e-16,-5.17438283421955e-06,-1.09723500589801e-05,-9.81672726160456e-05,1.83460605856936e-16,8.81509024950312e-17,0.00792681941757362,-0.025694459621763,0.000192898847827552,1.47327529023628e-07,1.48728743663227e-16,3.57026456725718e-16,-6.44728411502633e-17,-1.81919481528097e-06,1.54676967760961e-07,-1.15043782786755e-09,1.40907544667723e-05,-0.00228997454914428,-5.70950913249418e-07,-6.17199540094572e-07,0.000407284846375707,-5.96996057507987e-06,3.2094979521851e-05,-1.21771430116983e-05,2.34184536482958e-06,-8.91341784212049e-06,1.02058236259659e-05,-1.17302213542597e-08,-0.388979048658225,-1.52038573900032e-05,-1.27794979312689e-05,9.05262506048552e-08,-0.296454717312005,-0.101853423034327,-9.84971634332801e-08,-1.11886845482457e-08,4.41428705402944e-16,4.53883218583314e-07,1.38707367166896e-15,1.22187881566183e-15,-2.12819160703506e-07,7.75255283276971e-07,0.00900305909426258,4.1161247818748e-07,8.21514810022378e-16,-7.34056488172596e-16,-6.96095942723435e-16,1.45046006762621e-15,4.46722683298496e-09,0.00448351205249623,1.72889130212305e-15,0.15026111690331,-7.21074933787567e-17,-1.70259013157031e-15,3.79531802874546e-15,1.45330457473131e-15,4.71568297670316e-16,1.97710447396064e-15,-7.05302122987145e-16,-8.14676524938628e-15,-0.00148449414181463,1.8797539617686e-15,0.354013843807159,-2.1526935148369e-15,-3.07313766423106e-06,3.95793324712096e-15,-2.53200488290578e-17,-2.44218293982661e-15,4.8597151853448e-15,-3.55699597711051e-15,-1.83461671809365e-14,0.707106781186548,-1.44359428761098e-14,6.76196914552759e-16,7.45210953013397e-16,-2.93328664178558e-15,5.09914117077004e-15,-1.0652410382571e-15,-2.24425950518959e-15,3.72930902711188e-15,-0.0999999999999986
"Pavetta_brownii",-0.0621158570849053,0.179927963287848,-0.0444100788157245,-0.0964003899522984,-0.113232472030819,0.0377116871655127,-0.00607647900253889,0.00329996712730582,0.011485528226527,0.000530484977014101,0.165406249368423,0.000131669713749486,0.000576038017533353,-7.0059386238821e-05,-1.03204788003627e-07,-8.43075609324728e-16,1.65882932390282e-16,3.93782229046735e-16,-7.21211285137358e-16,-1.73472347597681e-16,-4.95904838623969e-06,-1.04985965748342e-05,-9.3273064423244e-05,1.3693003040188e-16,-1.43570148916515e-16,0.00752098848932258,-0.0241678732534676,0.000181287688224801,1.37693652259078e-07,2.85783526559489e-16,1.41470606266924e-16,-1.26892178764069e-16,-1.6772491534825e-06,1.4180147742789e-07,-1.05054745032568e-09,1.28567972001398e-05,-0.00208177114290506,-5.15239605798566e-07,-5.55581815270839e-07,0.000366478599703026,-5.33653851746361e-06,2.77963174150733e-05,-1.04211787107412e-05,1.99574469920917e-06,-7.40863272998224e-06,8.43631326421019e-06,-9.41280403883918e-09,-0.308026151854849,-1.20148788634522e-05,-1.00398013889311e-05,7.08795318663591e-08,-0.229424447169479,-0.0781989151376685,-7.20934601872306e-08,-7.90634973977891e-09,1.32025289774035e-16,3.18211362571982e-07,1.19697865714448e-15,-8.87773217670042e-17,-1.46397582534533e-07,5.28585053302485e-07,0.00610481124619359,2.60644874556921e-07,1.92180627845545e-16,-9.92179440874006e-16,-1.03668357500833e-16,-5.08902476252092e-16,2.34702474552945e-09,0.00210592873407836,-1.15011733180923e-15,0.0546853860249569,-2.95755835450206e-15,-9.41869570249613e-15,-7.90315376704826e-15,-4.38681822153678e-15,-2.0077900634737e-15,-4.37610333699464e-15,-2.09638707879506e-15,1.60866829210266e-14,0.00224147547054368,-5.57970824841798e-16,-0.862209805062267,-1.61598738382784e-15,-0.000114249582135798,-6.75155626594343e-16,1.01495189527356e-15,9.72843896227693e-16,3.39141114594965e-16,-1.87647598121776e-16,-1.48729653099809e-16,2.58314583183712e-16,8.46366333859529e-16,1.80129844259128e-16,-1.2938826704532e-15,-9.69522112520438e-16,1.92386933516553e-15,-2.0017051611596e-15,-2.03907525360307e-15,5.17092884770217e-15,-0.1
"Atractogyne_bracteata",-0.0619338768371817,0.178993166854249,-0.0436612731551341,-0.0938977877691834,-0.109937766821778,0.0364807817418669,-0.00586967647867045,0.00318016165751726,0.0109072874767907,0.000498435218432034,0.152747519239332,0.000120766421453798,0.000527747465144658,-6.3535030888481e-05,-9.32298326451105e-08,5.30825383648903e-16,-1.21257170970779e-15,8.06646416329215e-16,7.37257477290143e-16,-4.68375338513738e-16,-4.4104875548442e-06,-9.28931239090852e-06,-8.06729008467448e-05,2.4064846143483e-17,-9.35068164149266e-17,0.00647436751338064,-0.0201887149959882,0.000150991561739226,1.12385078813637e-07,1.02701881895878e-16,-1.04656342076959e-16,-2.86514313612913e-16,-1.29805875844101e-06,1.07164944952735e-07,-7.80528042855705e-10,9.5178612578237e-06,-0.00151583541382999,-3.62423300281128e-07,-3.86039143031784e-07,0.000254144109950926,-3.57850421296855e-06,1.53862206239131e-05,-5.27551459615183e-06,9.76173912614979e-07,-2.83399535177366e-06,3.01934872010756e-06,-2.04592065496082e-09,-0.0462916193045811,-1.67709904933681e-06,-1.0912527550586e-06,6.42987039895477e-09,-0.00621264086574826,0.00138379606955517,2.24352805049901e-08,4.40219645302588e-09,-9.36084745868325e-16,-1.95901109316959e-07,-6.51534450817304e-16,-1.05375174536981e-15,1.1175041567103e-07,-4.41555357161307e-07,-0.00537826318965284,-3.95831695997531e-07,-3.03558818724458e-15,8.8639471012562e-15,-9.99733640298825e-16,1.30960526894761e-15,-9.69645211791995e-09,-0.0139366392339897,1.52448209544119e-15,-0.947998167544466,2.82073180178533e-15,1.15368086313483e-14,-1.98673308152572e-15,3.95600318388321e-16,-1.73180109819256e-15,4.08577248411975e-16,4.94805081585158e-15,-4.0754493076739e-15,-0.00218571382242876,-4.86237821963874e-15,0.0701833413979778,2.68496134579241e-15,-0.000120258542247016,1.72498048752716e-15,9.5960296919928e-16,5.14324799892828e-16,4.75778635279905e-16,5.45489958446533e-16,-3.67432244678552e-17,-4.27105281068642e-16,5.52796074961696e-16,-1.89204883908988e-16,3.06159291760398e-16,-9.56196141741947e-16,-1.02132705304987e-15,-1.16861463748662e-15,3.03604262638095e-15,4.41950017637537e-15,-0.100000000000002
"Randia_alvarocamposii",-0.0621956595393106,0.180338138816744,-0.0447397156294845,-0.0975050921864644,-0.114688253810754,0.0382561856771205,-0.00616800080714699,0.00335302745455167,0.0117428715798075,0.000544802119412605,0.171097750063493,0.000136585071347657,0.000597817761020749,-7.30141867777622e-05,-1.07729669264512e-07,-7.56339435525888e-16,-8.78420600147756e-16,5.72458747072346e-16,4.08093697723544e-16,2.60208521396521e-16,-5.20956749028466e-06,-1.1052129272478e-05,-9.910220516429e-05,5.72616953555231e-17,-1.40258164125471e-16,0.00800629348821708,-0.0260415152493175,0.000195575614603915,1.49763005760968e-07,6.45121451101816e-16,-4.67058357384255e-16,-1.83375194368135e-17,-1.86394200507592e-06,1.5912072465559e-07,-1.18713445107196e-09,1.45499865552218e-05,-0.00237212914318968,-5.95671960310939e-07,-6.45664036508813e-07,0.00042625601326352,-6.29763452214357e-06,3.59492001583074e-05,-1.41732972801918e-05,2.77239615610996e-06,-1.25265425978826e-05,1.53546134443699e-05,-2.14453677943496e-07,0.353261726263718,1.00045940960406e-05,2.93190354905981e-06,-7.39956235597008e-09,-0.0612023600161921,-0.0316490453741021,-5.12051120223427e-08,-5.64418012665713e-09,-1.21960983124632e-15,2.16210216596643e-07,-5.3353707115e-17,-3.08722983098732e-15,-5.22034622510363e-08,-3.35793073237297e-07,-0.509305539388563,3.26847305845073e-07,1.46835417179732e-16,-1.09676734391855e-15,2.96918482168211e-15,-1.41853114307241e-15,3.19350628676158e-09,0.00307222228737711,-6.00976915041052e-16,0.090400806804396,2.38334178392547e-16,-2.71577847240287e-15,-4.3968083460359e-16,5.38338534597608e-17,1.17322302583802e-15,2.12139401762669e-15,-7.82201330667787e-16,4.15466384891778e-16,-0.00043696981865867,1.3573832842462e-15,0.0125821818742307,-2.3027425771551e-15,-3.34283752961517e-05,-6.91661564137857e-16,1.86708552599116e-16,-1.3184917397772e-15,2.21618538529375e-15,-3.96998265129021e-15,-2.98797079294754e-15,1.28616077390519e-15,6.83631127135947e-15,6.22495789452447e-15,0.707106781186548,-2.54729150227375e-14,1.68857795040933e-14,-2.67941235183787e-16,-1.84378621000484e-15,5.14469680616142e-15,-0.0999999999999948
